Time (s),Pos_0,Pos_1,Pos_2,Pos_3,Pos_4,Pos_5,Pos_6,Temp_0,Temp_1,Temp_2,Temp_3,Temp_4,Temp_5,Temp_6,Torque_0,Torque_1,Torque_2,Torque_3,Torque_4,Torque_5,Torque_6,Current_0,Current_1,Current_2,Current_3,Current_4,Current_5,Current_6,Velocity_0,Velocity_1,Velocity_2,Velocity_3,Velocity_4,Velocity_5,Velocity_6,Tool_X,Tool_Y,Tool_Z,Tool_Roll,Tool_Pitch,Tool_Yaw
1.430511474609375e-06,0.0,0.0,0.0,0.0,0.0,0.0,0.0,24,26,28,24,27,26,0,-3.944304526105059e-31,-12.094891548156738,-6.89032506942749,-3.058879229809818e-16,-2.4952943325042725,-1.7458432649513574e-19,0.0,0.10750000178813934,-1.872499942779541,-1.2024999856948853,-0.014999999664723873,-0.5600000023841858,0.20000000298023224,0.0,0.0,0.0,0.0,0.0,0.0,0.0,0.0,206.587,4.105,113.184,179.9674758450794,-0.02245994556912827,0.01873571990077792
0.5006649494171143,0.0,0.0,0.0,0.0,0.0,0.0,0.0,24,26,28,24,27,26,0,-3.944304526105059e-31,-12.094891548156738,-7.594712734222412,-3.058879229809818e-16,-2.4952943325042725,-1.7458432649513574e-19,0.0,0.07750000059604645,-1.4700000286102295,-1.284999966621399,-1.6280379822042335e-15,-0.5600000023841858,0.20000000298023224,0.0,0.0,0.0,0.0,0.0,0.0,0.0,0.0,206.587,4.105,113.184,179.9674758450794,-0.02245994556912827,0.01873571990077792
1.000901460647583,0.0,0.0,0.0,0.0,0.0,0.0,0.0,24,26,28,24,27,26,0,-3.944304526105059e-31,-12.094891548156738,-7.594712734222412,-3.058879229809818e-16,-2.4952943325042725,-1.7458432649513574e-19,0.0,0.03999999910593033,-1.627500057220459,-1.1449999809265137,0.027499999850988388,-0.550000011920929,0.20000000298023224,0.0,0.0,0.0,0.0,0.0,0.0,0.0,0.0,206.587,4.105,113.184,179.9674758450794,-0.02245994556912827,0.01873571990077792
1.501511573791504,0.0,0.0,-14.287046396264156,0.0,0.0,0.0,0.0,24,26,28,24,27,26,0,0.001113423379138112,-17.256858825683594,-10.047523498535156,-0.0373423807322979,-3.059748888015747,0.0014260588213801384,0.0,0.019999999552965164,-2.0950000286102295,-3.572499990463257,0.05000000074505806,-0.5400000214576721,0.20000000298023224,0.0,0.0,0.0,-45.035965613313785,0.0,0.0,0.0,0.0,309.797,3.927,164.871,179.98105494482402,-14.309334454494744,-0.05133701844372176
2.0021297931671143,0.0,0.0,-41.30865274710599,0.0,0.0,0.0,0.0,24,26,28,24,27,26,0,0.0009247354464605451,-24.38405418395996,-18.398998260498047,-0.10148929804563522,-3.534801483154297,0.003948544152081013,0.0,-0.012500000186264515,-3.452500104904175,-5.03000020980835,0.07999999821186066,-0.5199999809265137,0.1899999976158142,0.0,0.0,0.0,-45.035965613313785,0.0,0.0,0.0,0.0,456.985,3.267,324.128,-179.92519155979875,-41.33048243910047,-0.2274642446669368
2.502760410308838,0.0,0.0,-54.51481426285584,0.0,0.0,0.0,0.0,24,26,28,24,27,26,0,2.8342308059002577e-17,-25.964876174926758,-24.352500915527344,-0.1261603832244873,-3.4458205699920654,0.004961075261235237,0.0,-0.03500000014901161,-3.9600000381469727,-4.25,0.10000000149011612,-0.5099999904632568,0.1599999964237213,0.0,0.0,0.0,0.0,0.0,0.0,0.0,0.0,498.056,2.825,422.646,-179.80825087381254,-54.53630018017325,-0.37803755322731714
3.0033838748931885,0.0,0.0,-54.51481426285584,0.0,0.0,0.0,0.0,24,26,28,24,27,26,0,2.8342308059002577e-17,-25.964876174926758,-28.005374908447266,-0.1261603832244873,-3.4458205699920654,0.004961075261235237,0.0,0.20999999344348907,-3.6075000762939453,-4.887499809265137,0.11999999731779099,-0.49000000953674316,0.14000000059604645,0.0,0.0,0.0,0.0,0.0,0.0,0.0,0.0,498.056,2.825,422.646,-179.80825087381254,-54.53630018017325,-0.37803755322731714
3.5039961338043213,0.0,0.0,-73.1302703224358,0.0,0.0,0.0,0.0,24,26,28,24,27,26,0,0.00044980464735999703,-27.14801597595215,-26.391014099121094,-0.14770695567131042,-3.1186084747314453,0.005765967071056366,0.0,0.11999999731779099,-5.09250020980835,-6.425000190734863,0.15000000596046448,-0.4724999964237213,0.11249999701976776,0.0,0.0,0.0,-45.0462348027309,0.0,0.0,0.0,0.0,515.622,2.127,571.741,-179.3008967462242,-73.15032384526538,-0.9289937690251168
4.004616975784302,0.0,0.0,-100.15800732168553,0.0,0.0,0.0,0.0,24,26,28,24,27,26,0,-6.725943967467174e-05,-24.122722625732422,-26.448314666748047,-0.15217304229736328,-2.02532958984375,0.005941589828580618,0.0,0.04500000178813934,-4.0625,-6.434999942779541,0.18250000476837158,-0.46000000834465027,0.07249999791383743,0.0,0.0,0.0,-45.0462348027309,0.0,0.0,0.0,0.0,455.463,1.094,780.136,-1.9551611801044213,-79.8153126929042,-178.3347753120746
4.505239248275757,0.0,0.0,-118.17649865451868,0.0,0.0,0.0,0.0,24,26,28,24,27,26,0,-0.00041092507308349013,-19.642292022705078,-19.916114807128906,-0.13638533651828766,-1.0364089012145996,0.005320760887116194,0.0,0.05999999865889549,-3.322499990463257,-5.295000076293945,0.19249999523162842,-0.4000000059604645,0.05249999836087227,0.0,0.0,0.0,-45.0462348027309,0.0,0.0,0.0,0.0,364.73,0.494,893.691,-0.9184513455947095,-61.79957155748767,-179.41262351627472
5.005873203277588,0.0,0.0,-125.07995253649095,0.0,0.0,0.0,0.0,24,26,28,24,27,26,0,-5.195431678349105e-18,-17.276948928833008,-12.77677059173584,-0.12679331004619598,-0.5732496380805969,0.0049859643913805485,0.0,0.1899999976158142,-3.115000009536743,-2.302500009536743,0.12999999523162842,0.0024999999441206455,0.019999999552965164,0.0,0.0,0.0,0.0,0.0,0.0,0.0,0.0,321.246,0.298,928.795,-0.8070683502212775,-54.89646145019248,-179.54056499192743
5.5064966678619385,0.0,0.0,-117.8340990761485,0.0,0.0,0.0,0.0,24,26,28,24,27,26,0,-0.0004098112985957414,-19.6363582611084,-12.793091773986816,-0.1363644152879715,-1.0352306365966797,0.005320086609572172,0.0,0.19249999523162842,-1.815000057220459,-0.5375000238418579,0.07000000029802322,0.20000000298023224,5.33514205036667e-15,0.0,0.0,0.0,44.967547608397766,0.0,0.0,0.0,0.0,366.774,0.504,891.816,-0.9254987264748188,-62.14197113585785,-179.40483129026094
6.007095098495483,0.0,0.0,-90.67366505154648,0.0,0.0,0.0,0.0,24,26,28,24,27,26,0,0.0001110754965338856,-25.676782608032227,-24.296066284179688,-0.15450076758861542,-2.4571926593780518,0.006033272482454777,0.0,0.14000000059604645,-3.987499952316284,-2.5450000762939453,-1.5881393422567669e-15,-0.1274999976158142,-0.017500000074505806,0.0,0.0,0.0,44.967547608397766,0.0,0.0,0.0,0.0,487.741,1.447,710.517,-23.058629169260467,-89.24505208516729,-157.20976410982166
6.507447242736816,0.0,0.0,-72.68668639744551,0.0,0.0,0.0,0.0,24,26,28,24,27,26,0,0.0004497306072153151,-27.14838409423828,-23.809017181396484,-0.14764201641082764,-3.12088942527771,0.005763561464846134,0.0,0.09749999642372131,-4.489999771118164,-2.4600000381469727,-0.05000000074505806,-0.41999998688697815,-0.014999999664723873,0.0,0.0,0.0,44.967547608397766,0.0,0.0,0.0,0.0,515.77,2.144,568.15,-179.32604959343044,-72.70679721605461,-0.9028095977876381
7.007728099822998,0.0,0.0,-64.90122128564887,0.0,0.0,0.0,0.0,24,26,28,24,27,26,0,1.1672506923955221e-17,-26.690397262573242,-22.19021987915039,-0.14030802249908447,-3.279756546020508,0.005517410580068827,0.0,0.07000000029802322,-4.492499828338623,-3.674999952316284,-0.13750000298023224,-0.7599999904632568,5.414939330261603e-15,0.0,0.0,0.0,0.0,0.0,0.0,0.0,0.0,513.848,2.442,505.165,-179.62077908324576,-64.92213424517115,-0.5902611205437741
7.508336067199707,0.0,0.0,-57.84129262982637,0.0,0.0,0.0,0.0,24,26,28,24,27,26,0,0.0006966221262700856,-26.694501876831055,-22.14327049255371,-0.13100560009479523,-3.44386625289917,0.005109409801661968,0.0,0.12999999523162842,-3.6549999713897705,-2.1700000762939453,-0.19750000536441803,-0.6850000023841858,0.007499999832361937,0.0,0.0,0.0,44.94038394606863,0.0,0.0,0.0,0.0,504.739,2.705,448.745,-179.7620131797455,-57.862606659805245,-0.4323539522057192
8.008926630020142,0.0,0.0,-30.878872819221563,0.0,0.0,0.0,0.0,24,26,28,24,27,26,0,0.0013019827893003821,-22.38568687438965,-19.83778953552246,-0.08130499720573425,-3.5009725093841553,0.003190028015524149,0.0,0.125,-3.8350000381469727,-1.7699999809265137,-0.20000000298023224,-0.42750000953674316,0.029999999329447746,0.0,0.0,0.0,44.58463354314851,0.0,0.0,0.0,0.0,409.262,3.566,254.557,-179.97595562044737,-30.900931694334098,-0.14765122380521314
8.509520292282104,0.0,0.0,-28.31121975612229,0.0,0.0,0.0,0.0,24,26,28,24,27,26,0,-1.1562810367021502e-18,-21.12055015563965,-16.620370864868164,-0.07348079234361649,-3.360137701034546,0.0028895263094455004,0.0,0.032499998807907104,-3.0350000858306885,-2.427500009536743,-0.1599999964237213,-0.46000000834465027,0.042500000447034836,0.0,0.0,0.0,0.0,0.0,0.0,0.0,0.0,395.632,3.632,238.849,-179.98512294516942,-28.333278631234826,-0.13086356040788003
9.01018214225769,0.0,0.0,-41.71224421799614,0.0,0.0,0.0,0.0,24,26,28,24,27,26,0,0.0009218706400133669,-24.46106719970703,-17.247766494750977,-0.10230773687362671,-3.536242723464966,0.003980651963502169,0.0,0.1899999976158142,-3.612499952316284,-4.829999923706055,-0.05249999836087227,-0.5299999713897705,0.07000000029802322,0.0,0.0,0.0,-45.07624323884935,0.0,0.0,0.0,0.0,458.571,3.254,326.987,-179.92272784127968,-41.73407390999062,-0.231073878776261
9.510805130004883,0.0,0.0,-49.34346909134358,0.0,0.0,0.0,0.0,24,26,28,24,27,26,0,7.689584298036865e-18,-25.33893394470215,-30.612525939941406,-0.11754011362791061,-3.486591100692749,0.004622095730155706,0.0,0.12999999523162842,-3.817500114440918,-5.34250020980835,0.0024999999441206455,-0.5799999833106995,0.09000000357627869,0.0,0.0,0.0,0.0,0.0,0.0,0.0,0.0,484.69,3.005,382.962,-179.86411425883782,-49.365069600220004,-0.30933991359113144
10.011210680007935,0.0,0.0,-42.82418341100652,0.0,0.0,0.0,0.0,24,26,28,24,27,26,0,0.0008992992807179689,-24.72867774963379,-17.300498962402344,-0.10525590926408768,-3.539494276046753,0.00409685168415308,0.0,0.09000000357627869,-3.3975000381469727,-1.3250000476837158,0.10750000178813934,-0.6100000143051147,0.11999999731779099,0.0,0.0,0.0,44.93420603996435,0.0,0.0,0.0,0.0,462.838,3.219,334.919,-179.91550857306106,-42.8459558072215,-0.2412152317500766
10.511464595794678,0.0,0.0,-29.83431346291856,0.0,0.0,0.0,0.0,24,26,28,24,27,26,0,1.3215489106761624e-17,-21.509105682373047,-14.095800399780273,-0.07708050310611725,-3.384895086288452,0.0030310796573758125,0.0,0.04500000178813934,-3.427500009536743,-2.4600000381469727,0.17249999940395355,-0.5799999833106995,0.12999999523162842,0.0,0.0,0.0,0.0,0.0,0.0,0.0,0.0,403.802,3.593,248.093,-179.9797944376747,-29.856372338031093,-0.14071843448413018
11.012091636657715,0.0,0.0,-32.23878814596457,0.0,0.0,0.0,0.0,24,26,28,24,27,26,0,0.004293715115636587,-24.8928165435791,-21.918277740478516,-0.10205502063035965,-4.090604782104492,0.004367558751255274,0.0,0.1875,-3.549999952316284,-5.59499979019165,0.20999999344348907,-0.5400000214576721,0.1599999964237213,0.0,0.0,0.0,-43.66986630760871,0.0,0.0,0.0,0.0,416.191,3.53,263.119,-179.97068440873213,-32.26078972529759,-0.1568758443068194
11.512688398361206,0.0,0.0,-50.25573249275087,0.0,0.0,0.0,0.0,24,26,28,24,27,26,0,0.0008149957866407931,-25.839139938354492,-21.576786041259766,-0.11839903146028519,-3.524425506591797,0.004613460972905159,0.0,0.1899999976158142,-3.4800000190734863,-5.585000038146973,0.20999999344348907,-0.5099999904632568,0.17000000178813934,0.0,0.0,0.0,-45.0541612372627,0.0,0.0,0.0,0.0,487.307,2.974,389.872,-179.85540530035183,-50.277333001627305,-0.32034070325764324
12.013036012649536,0.0,0.0,-71.57824224698544,0.0,0.0,0.0,0.0,24,26,28,24,27,26,0,-7.28190998750133e-18,-26.773305892944336,-29.265975952148438,-0.14699797332286835,-3.115750551223755,0.00578048313036561,0.0,0.19249999523162842,-3.625,-5.107500076293945,0.20999999344348907,-0.46000000834465027,0.20000000298023224,0.0,0.0,0.0,0.0,0.0,0.0,0.0,0.0,516.02,2.187,559.175,-179.38351726028208,-71.59852495293306,-0.842820916637441
12.5136559009552,0.0,0.0,-71.57824224698544,0.0,0.0,0.0,0.0,24,26,28,24,27,26,0,-7.28190998750133e-18,-26.773305892944336,-22.27312660217285,-0.14699797332286835,-3.115750551223755,0.00578048313036561,0.0,0.05999999865889549,-3.9800000190734863,-4.065000057220459,0.17749999463558197,-0.4325000047683716,0.20000000298023224,0.0,0.0,0.0,0.0,0.0,0.0,0.0,0.0,516.02,2.187,559.175,-179.38351726028208,-71.59852495293306,-0.842820916637441
13.014251470565796,0.0,0.0,-80.84932962577679,0.0,0.0,0.0,0.0,24,26,28,24,27,26,0,-4.4998248955705994e-18,-26.387908935546875,-27.31777572631836,-0.15296576917171478,-2.818524122238159,0.006015158258378506,0.0,0.09000000357627869,-3.444999933242798,-4.767499923706055,0.14000000059604645,-0.4099999964237213,0.20000000298023224,0.0,0.0,0.0,0.0,0.0,0.0,0.0,0.0,508.606,1.826,633.823,-178.46707126697032,-80.86720590898489,-1.7801225736919546
13.51484489440918,0.0,0.0,-80.8646275989068,0.0,0.0,0.0,0.0,24,26,28,24,27,26,0,0.004202486947178841,-29.088106155395508,-24.010732650756836,-0.16421346366405487,-3.172495126724243,0.006676242221146822,0.0,0.07249999791383743,-4.422500133514404,-4.127500057220459,0.10750000178813934,-0.38999998569488525,0.20000000298023224,0.0,0.0,0.0,-1.8648220030962517,0.0,0.0,0.0,0.0,508.584,1.826,633.945,-178.46403459065613,-80.88250388211488,-1.7832165457856612
14.015529870986938,0.0,0.0,-86.25077464781361,0.0,0.0,0.0,0.0,24,26,28,24,27,26,0,1.18316812892288e-18,-25.898475646972656,-21.398296356201172,-0.15460596978664398,-2.6108291149139404,0.006079657003283501,0.0,0.10249999910593033,-3.7300000190734863,-4.40749979019165,0.07000000029802322,-0.3725000023841858,0.20000000298023224,0.0,0.0,0.0,0.0,0.0,0.0,0.0,0.0,498.761,1.617,676.437,-175.8231002255596,-86.26183273325962,-4.436240320359425
14.516134262084961,0.0,0.0,-79.17600638509722,0.0,0.0,0.0,0.0,24,26,28,24,27,26,0,0.015212795697152615,-24.253999710083008,-20.06513786315918,-0.19283097982406616,-4.171915054321289,0.008361482992768288,0.0,0.11999999731779099,-3.619999885559082,-2.299999952316284,0.03999999910593033,-0.3675000071525574,0.20000000298023224,0.0,0.0,0.0,23.99960963953086,0.0,0.0,0.0,0.0,510.836,1.891,620.455,-178.7495967557493,-79.19462751343897,-1.4938728592445953
15.016753673553467,0.0,0.0,-78.60545501270595,0.0,0.0,0.0,0.0,24,26,28,24,27,26,0,3.885628815089257e-18,-26.534265518188477,-22.034086227416992,-0.1518838107585907,-2.897540330886841,0.0059726121835410595,0.0,0.042500000447034836,-3.9024999141693115,-3.757499933242798,-1.532628191025509e-15,-0.3400000035762787,0.20000000298023224,0.0,0.0,0.0,0.030648499548875264,0.0,0.0,0.0,0.0,511.507,1.914,615.882,-178.82683146653295,-78.62424802838625,-1.4153776413116725
15.517270803451538,0.0,0.0,-63.41433851150487,0.0,0.0,0.0,0.0,24,26,28,24,27,26,0,0.0006111712427809834,-27.044147491455078,-24.307533264160156,-0.13835178315639496,-3.3485751152038574,0.005398091860115528,0.0,0.07249999791383743,-4.010000228881836,-2.5450000762939453,-0.02500000037252903,-0.3400000035762787,0.20000000298023224,0.0,0.0,0.0,45.0445033497763,0.0,0.0,0.0,0.0,512.509,2.498,493.196,-179.6570473116775,-63.435366062586176,-0.550555145341208
16.0178701877594,0.0,0.0,-36.38763283628637,0.0,0.0,0.0,0.0,24,26,28,24,27,26,0,0.000972867535892874,-23.453750610351562,-20.697633743286133,-0.0918867215514183,-3.507350444793701,0.003570920554921031,0.0,0.0949999988079071,-4.152500152587891,-1.9149999618530273,-0.05999999865889549,-0.38999998569488525,0.20000000298023224,0.0,0.0,0.0,45.0445033497763,0.0,0.0,0.0,0.0,436.049,3.414,290.222,-179.95223516772893,-36.40957711983989,-0.1870134243307007
16.518457412719727,0.0,0.0,-28.583718483486507,0.0,0.0,0.0,0.0,24,26,28,24,27,26,0,-8.935557355738753e-18,-21.190935134887695,-9.712349891662598,-0.07412867993116379,-3.364741802215576,0.0029150035697966814,0.0,0.02500000037252903,-3.3299999237060547,-1.6950000524520874,-0.09000000357627869,-0.45750001072883606,0.20000000298023224,0.0,0.0,0.0,0.0,0.0,0.0,0.0,0.0,397.112,3.625,240.487,-179.98420621269722,-28.605777358599045,-0.13263972957278555
17.01907992362976,0.0,0.0,-35.83220754968655,0.0,0.0,0.0,0.0,24,26,28,24,27,26,0,0.0009788823081180453,-23.2512264251709,-17.990943908691406,-0.08988787978887558,-3.4990625381469727,0.0034924414940178394,0.0,0.11249999701976776,-3.5174999237060547,-4.957499980926514,-0.12999999523162842,-0.5924999713897705,0.20000000298023224,0.0,0.0,0.0,-44.97922381678391,0.0,0.0,0.0,0.0,433.505,3.43,286.512,-179.95492806936605,-35.85415183324007,-0.18283083242624568
17.519465923309326,0.0,0.0,-53.823941753487105,0.0,0.0,0.0,0.0,24,26,29,24,27,26,0,0.0007626855513080955,-26.27472686767578,-23.905553817749023,-0.12435903400182724,-3.4964096546173096,0.004847970325499773,0.0,0.1274999976158142,-4.684999942779541,-5.947500228881836,-0.1599999964237213,-0.6850000023841858,0.20000000298023224,0.0,0.0,0.0,-44.97922381678391,0.0,0.0,0.0,0.0,496.478,2.849,417.276,-179.81673064918047,-53.84537037502499,-0.36789620025350156
18.020124912261963,0.0,0.0,-80.81145711551865,0.0,0.0,0.0,0.0,24,26,28,24,27,26,0,0.0003072111285291612,-26.781339645385742,-24.02176856994629,-0.15245117247104645,-2.8681328296661377,0.005952653009444475,0.0,0.1599999964237213,-4.447500228881836,-6.010000228881836,-0.20000000298023224,-0.7200000286102295,0.20000000298023224,0.0,0.0,0.0,-44.97922381678391,0.0,0.0,0.0,0.0,508.661,1.828,633.522,-178.47463430986605,-80.82933339872673,-1.7725022350167148
18.520720720291138,0.0,0.0,-98.80313402353968,0.0,0.0,0.0,0.0,24,26,28,24,27,26,0,-4.06025537813548e-05,-24.385173797607422,-21.027843475341797,-0.15276628732681274,-2.0927953720092773,0.005965044256299734,0.0,0.18000000715255737,-4.077499866485596,-5.487500190734863,-0.2224999964237213,-0.6100000143051147,0.20000000298023224,0.0,0.0,0.0,-44.97922381678391,0.0,0.0,0.0,0.0,460.773,1.144,770.531,-2.206231285930748,-81.16955573747542,-178.0806685299341
19.021345376968384,0.0,0.0,-116.84666361202007,0.0,0.0,0.0,0.0,24,26,28,24,27,26,0,-1.494396240602998e-17,-19.75922966003418,-19.782825469970703,-0.13823813199996948,-1.0616462230682373,0.00543601531535387,0.0,0.11999999731779099,-2.444999933242798,-3.452500104904175,-0.17000000178813934,-0.2224999964237213,0.20000000298023224,0.0,0.0,0.0,0.0,0.0,0.0,0.0,0.0,372.604,0.534,886.34,-0.9468127564536855,-63.1293493042068,-179.38116813332203
19.521958827972412,0.0,0.0,-116.84666361202007,0.0,0.0,0.0,0.0,24,26,29,24,27,26,0,-1.494396240602998e-17,-19.75922966003418,-15.259051322937012,-0.13823813199996948,-1.0616462230682373,0.00543601531535387,0.0,0.03999999910593033,-3.619999885559082,-2.5174999237060547,-0.10000000149011612,0.06750000268220901,0.20000000298023224,0.0,0.0,0.0,0.0,0.0,0.0,0.0,0.0,372.604,0.534,886.34,-0.9468127564536855,-63.1293493042068,-179.38116813332203
20.022571325302124,0.0,0.0,-120.80654682150771,0.0,0.0,0.0,0.0,24,26,29,24,27,26,0,1.7776149414072742e-17,-18.601606369018555,-14.10142707824707,-0.13307611644268036,-0.8288675546646118,0.005233026575297117,0.0,0.12250000238418579,-3.0625,-2.577500104904175,-1.5204851266936714e-15,0.03999999910593033,0.20000000298023224,0.0,0.0,0.0,0.0,0.0,0.0,0.0,0.0,348.666,0.416,907.68,-0.8698645245676158,-59.169695277837185,-179.46751287304826
20.523191928863525,0.0,0.0,-113.91099975710826,0.0,0.0,0.0,0.0,24,26,29,24,27,26,0,-0.00033820042153820395,-12.311249732971191,-12.960504531860352,-0.14102180302143097,-1.2625154256820679,0.005503151100128889,0.0,0.15000000596046448,-1.837499976158142,-0.6050000190734863,0.05999999865889549,1.8990885253256096e-14,0.20000000298023224,0.0,0.0,0.0,45.01040363034501,0.0,0.0,0.0,0.0,389.369,0.625,869.48,-1.021010790923127,-66.06484127178005,-179.30009460531102
21.02346634864807,0.0,0.0,-86.90474867517594,0.0,0.0,0.0,0.0,24,26,29,24,27,26,0,0.00018442650616634637,-26.16520881652832,-24.649703979492188,-0.15431666374206543,-2.618448257446289,0.006025951821357012,0.0,0.17249999940395355,-4.242499828338623,-2.6449999809265137,0.1599999964237213,-0.1525000035762787,0.20000000298023224,0.0,0.0,0.0,45.01040363034501,0.0,0.0,0.0,0.0,497.298,1.592,681.529,-174.87531344085423,-86.91340033788241,-5.385574091111685
21.52407431602478,0.0,0.0,-68.90058128722104,0.0,0.0,0.0,0.0,24,26,29,24,27,26,0,0.0005174463149160147,-27.177701950073242,-24.33455467224121,-0.14430426061153412,-3.223984479904175,0.005632228683680296,0.0,0.07000000029802322,-4.607500076293945,-2.5899999141693115,0.18000000715255737,-0.32499998807907104,0.20000000298023224,0.0,0.0,0.0,45.01040363034501,0.0,0.0,0.0,0.0,515.905,2.29,537.488,-179.49707749527698,-68.92115047206624,-0.723130033234612
22.024684190750122,0.0,0.0,-42.0755567558886,0.0,0.0,0.0,0.0,24,26,29,24,27,26,0,0.008560316637158394,-29.638996124267578,-20.7041072845459,-0.13907431066036224,-4.633261680603027,0.006127634551376104,0.0,0.0949999988079071,-4.534999847412109,-2.184999942779541,0.1899999976158142,-0.6050000190734863,0.20000000298023224,0.0,0.0,0.0,34.106033941176335,0.0,0.0,0.0,0.0,459.982,3.243,329.569,-179.92037871431967,-42.09738644788308,-0.2343397382085067
22.525277137756348,0.0,0.0,-40.940183589057355,0.0,0.0,0.0,0.0,24,26,29,24,27,26,0,1.562498682178979e-17,-23.962810516357422,-19.46263313293457,-0.10152603685855865,-3.4922516345977783,0.0039923652075231075,0.0,0.18000000715255737,-3.384999990463257,-2.7925000190734863,0.18000000715255737,-0.7475000023841858,0.20000000298023224,0.0,0.0,0.0,0.0,0.0,0.0,0.0,0.0,455.519,3.278,321.529,-179.9274833909793,-40.96201328105184,-0.2242556810142042
23.02587342262268,0.0,0.0,-53.05875661808989,0.0,0.0,0.0,0.0,24,26,29,24,27,26,0,0.000774840300437063,-26.188737869262695,-24.115779876708984,-0.12312044203281403,-3.503589153289795,0.0047991955652832985,0.0,0.13500000536441803,-4.364999771118164,-5.985000133514404,0.14000000059604645,-0.800000011920929,0.20000000298023224,0.0,0.0,0.0,-45.015871196775606,0.0,0.0,0.0,0.0,494.655,2.876,411.353,-179.82572608656403,-53.080242535407294,-0.35701000214601597
23.52644968032837,0.0,0.0,-71.24518188067589,0.0,0.0,0.0,0.0,24,26,29,24,27,26,0,0.00048278170288540423,-27.175168991088867,-27.811630249023438,-0.14613306522369385,-3.171701431274414,0.0057041337713599205,0.0,0.13249999284744263,-4.982500076293945,-6.630000114440918,0.11500000208616257,-0.7674999833106995,0.20000000298023224,0.0,0.0,0.0,-45.015871196775606,0.0,0.0,0.0,0.0,516.06,2.2,556.478,-179.3994454869867,-71.26546458662351,-0.826147844799134
24.026670932769775,0.0,0.0,-98.25469882204047,0.0,0.0,0.0,0.0,24,26,29,24,27,26,0,-2.992941881529987e-05,-24.48919677734375,-25.276105880737305,-0.1529809981584549,-2.1199123859405518,0.0059734187088906765,0.0,0.13249999284744263,-4.239999771118164,-6.1875,0.07000000029802322,-0.5924999713897705,0.20000000298023224,0.0,0.0,0.0,-45.015871196775606,0.0,0.0,0.0,0.0,462.858,1.164,766.608,-2.331307972607807,-81.71770446007707,-177.95438863188727
24.527295351028442,0.0,0.0,-116.07993149057599,0.0,0.0,0.0,0.0,24,26,29,24,27,26,0,-0.013142420910298824,-24.907249450683594,-20.38653564453125,-0.10381241142749786,-0.030640477314591408,0.003369380487129092,0.0,0.13500000536441803,-3.7174999713897705,-5.135000228881836,0.03999999910593033,-0.4050000011920929,0.20000000298023224,0.0,0.0,0.0,-34.1155859607306,0.0,0.0,0.0,0.0,377.066,0.557,882.02,-0.9645744481027408,-63.89602412987136,-179.36163027250805
25.027445554733276,0.0,0.0,-117.2157057278638,0.0,0.0,0.0,0.0,24,26,29,24,27,26,0,1.8866645603839163e-18,-19.654346466064453,-15.154167175292969,-0.13778461515903473,-1.0401506423950195,0.005418181419372559,0.0,0.09000000357627869,-3.572499990463257,-2.674999952316284,-1.497933721505973e-15,0.054999999701976776,0.20000000298023224,0.0,0.0,0.0,0.0,0.0,0.0,0.0,0.0,370.437,0.523,888.398,-0.9386767557628278,-62.76036448414255,-179.3901635707056
25.528103351593018,0.0,0.0,-119.64384356784872,0.0,0.0,0.0,0.0,24,26,29,24,27,26,0,-1.3888407152518413e-17,-18.948745727539062,-25.527149200439453,-0.13465885818004608,-0.8976771235466003,0.005295265465974808,0.0,0.07000000029802322,-3.2750000953674316,-4.454999923706055,-0.019999999552965164,0.0925000011920929,0.20000000298023224,0.0,0.0,0.0,0.0,0.0,0.0,0.0,0.0,355.847,0.45,901.587,-0.8902045262947601,-60.33234123571667,-179.44436537812496
26.028724431991577,0.0,0.0,-120.75624112709524,0.0,0.0,0.0,0.0,24,26,29,24,27,26,0,2.971918906608588e-18,-18.616735458374023,-15.843449592590332,-0.13314568996429443,-0.8318498134613037,0.00523576233536005,0.0,0.07000000029802322,-2.744999885559082,-2.765000104904175,-0.054999999701976776,0.08250000327825546,0.20000000298023224,0.0,0.0,0.0,0.0,0.0,0.0,0.0,0.0,348.979,0.418,907.42,-0.870666665480799,-59.220000972249686,-179.46653884479653
26.529350996017456,0.0,0.0,-120.75624112709524,0.0,0.0,0.0,0.0,24,26,29,24,27,26,0,2.971918906608588e-18,-18.616735458374023,-14.116557121276855,-0.13314568996429443,-0.8318498134613037,0.00523576233536005,0.0,0.06750000268220901,-2.994999885559082,-2.3399999141693115,-0.08749999850988388,0.07000000029802322,0.20000000298023224,0.0,0.0,0.0,0.0,0.0,0.0,0.0,0.0,348.979,0.418,907.42,-0.870666665480799,-59.220000972249686,-179.46653884479653
27.030055046081543,0.0,0.0,-97.74281832787058,0.0,0.0,0.0,0.0,24,26,29,24,27,26,0,0.010737801901996136,-24.136749267578125,-15.94299602508545,-0.18087005615234375,-0.3919999897480011,0.007619588170200586,0.0,0.05999999865889549,-3.6024999618530273,-1.2699999809265137,-0.12999999523162842,-0.07000000029802322,0.20000000298023224,0.0,0.0,0.0,37.780959167493755,0.0,0.0,0.0,0.0,464.77,1.183,762.929,-2.4640049979601053,-82.22924117956987,-177.82048839516517
27.530675411224365,0.0,0.0,-96.32486237648082,0.0,0.0,0.0,0.0,24,26,29,24,27,26,0,-3.187285925639579e-18,-24.482515335083008,-15.74317455291748,-0.15399450063705444,-2.163085699081421,0.006055612117052078,0.0,0.07999999821186066,-4.15749979019165,-2.747499942779541,-0.1525000035762787,-0.41749998927116394,0.20000000298023224,0.0,0.0,0.0,0.0,0.0,0.0,0.0,0.0,469.893,1.235,752.65,-2.943456080925578,-83.64593662381034,-177.3378860443265
28.03128409385681,0.0,0.0,-82.23233515166358,0.0,0.0,0.0,0.0,24,26,29,24,27,26,0,0.00027381035033613443,-26.63943099975586,-21.095308303833008,-0.15316075086593628,-2.8027021884918213,0.005980520974844694,0.0,0.125,-3.7125000953674316,-2.0250000953674316,-0.20000000298023224,-0.5,0.20000000298023224,0.0,0.0,0.0,44.99805464832563,0.0,0.0,0.0,0.0,506.469,1.773,644.82,-178.14117287309992,-82.24935199817897,-2.109172235435586
28.531463384628296,0.0,0.0,-64.23309520074682,0.0,0.0,0.0,0.0,24,26,29,24,27,26,0,0.0005964068695902824,-27.076492309570312,-21.696958541870117,-0.13932287693023682,-3.331806182861328,0.0054363664239645,0.0,0.11249999701976776,-4.869999885559082,-2.130000114440918,-0.2199999988079071,-0.46000000834465027,0.18000000715255737,0.0,0.0,0.0,44.99805464832563,0.0,0.0,0.0,0.0,513.285,2.468,499.782,-179.63756674664307,-64.25406545604861,-0.5718691753200746
29.031782388687134,0.0,0.0,-37.23429257015119,0.0,0.0,0.0,0.0,24,26,29,24,27,26,0,0.0009624685044400394,-23.63492202758789,-17.184581756591797,-0.09371582418680191,-3.5140275955200195,0.0036429348401725292,0.0,0.14000000059604645,-4.017499923706055,-1.3424999713897705,-0.2199999988079071,-0.41999998688697815,0.14000000059604645,0.0,0.0,0.0,44.99805464832563,0.0,0.0,0.0,0.0,439.857,3.39,295.926,-179.94805257582448,-37.256179557925186,-0.19360243897470517
29.53242039680481,0.0,0.0,-20.710991899491432,0.0,0.0,0.0,0.0,24,26,29,24,27,26,0,0.0039010343607515097,-23.12253189086914,-15.330732345581055,-0.09525370597839355,-4.4770307540893555,0.004529668018221855,0.0,0.11749999970197678,-3.172499895095825,-1.9049999713897705,-0.17000000178813934,-0.41999998688697815,0.11999999731779099,0.0,0.0,0.0,8.28007611381367,0.0,0.0,0.0,0.0,351.356,3.806,196.139,179.99360272053738,-20.733165366162996,-0.08577178193108424
30.033023357391357,0.0,0.0,-20.629689188362367,0.0,0.0,0.0,0.0,24,26,29,24,27,26,0,0.0007064975216053426,-19.74129295349121,-15.899016380310059,-0.06205715239048004,-3.4350457191467285,0.00258585624396801,0.0,0.11249999701976776,-2.5374999046325684,-2.5299999713897705,-0.09749999642372131,-0.5224999785423279,0.09000000357627869,0.0,0.0,0.0,-1.1286491665917622,0.0,0.0,0.0,0.0,350.853,3.808,195.714,179.99337353741933,-20.651862655033934,-0.08531341569497958
30.533652305603027,0.0,0.0,-36.32414911258588,0.0,0.0,0.0,0.0,24,26,29,24,27,26,0,0.0009739241795614362,-23.359975814819336,-17.230815887451172,-0.09096561372280121,-3.5035502910614014,0.003534832503646612,0.0,0.11749999970197678,-3.632499933242798,-4.78249979019165,-0.05000000074505806,-0.5849999785423279,0.07000000029802322,0.0,0.0,0.0,-44.973616231475326,0.0,0.0,0.0,0.0,435.76,3.416,289.797,-179.952578942406,-36.34609339613939,-0.18655505809459605
31.034321069717407,0.0,0.0,-63.30834131940566,0.0,0.0,0.0,0.0,24,26,29,24,27,26,0,0.0006168747786432505,-27.02192497253418,-20.48259162902832,-0.13778799772262573,-3.3576409816741943,0.005376054905354977,0.0,0.11249999701976776,-4.885000228881836,-5.349999904632568,0.019999999552965164,-0.6800000071525574,0.029999999329447746,0.0,0.0,0.0,-44.973616231475326,0.0,0.0,0.0,0.0,512.401,2.502,492.344,-179.65945373441707,-63.329311574707454,-0.5478622437040931
31.534650325775146,0.0,0.0,-81.29778369202569,0.0,0.0,0.0,0.0,24,26,29,24,27,26,0,0.0002979804412461817,-26.744535446166992,-20.511240005493164,-0.1526598483324051,-2.8505117893218994,0.00596086960285902,0.0,0.11500000208616257,-4.434999942779541,-5.355000019073486,0.07000000029802322,-0.7174999713897705,0.009999999776482582,0.0,0.0,0.0,-44.973616231475326,0.0,0.0,0.0,0.0,507.942,1.809,637.395,-178.3728197096713,-81.3153734963362,-1.8754054550222103
32.035261392593384,0.0,0.0,-108.28191860306596,0.0,0.0,0.0,0.0,24,26,29,24,27,26,0,-0.0002243753260700032,-22.317638397216797,-16.371315002441406,-0.1468491554260254,-1.5979264974594116,0.005732372403144836,0.0,0.11249999701976776,-3.572499990463257,-4.632500171661377,0.14000000059604645,-0.5099999904632568,-0.017500000074505806,0.0,0.0,0.0,-44.973616231475326,0.0,0.0,0.0,0.0,419.003,0.81,834.85,-1.231916555310783,-71.69329217224771,-179.07635458631242
32.5354585647583,0.0,0.0,-126.26649083442737,0.0,0.0,0.0,0.0,24,26,29,24,27,26,0,-0.0023472807370126247,-15.414244651794434,-12.590660095214844,-0.11945068091154099,-0.3851894438266754,0.004551697988063097,0.0,0.11500000208616257,-2.997499942779541,-3.9649999141693115,0.14249999821186066,-0.2849999964237213,-0.014999999664723873,0.0,0.0,0.0,-44.18148845757768,0.0,0.0,0.0,0.0,313.361,0.266,934.289,-0.7924579264454416,-53.70998044803558,-179.55809750045842
33.036120891571045,0.0,0.0,-128.66145441807424,0.0,0.0,0.0,0.0,24,26,29,24,27,26,0,2.1051428952119334e-17,-16.11172103881836,-11.611541748046875,-0.12098310142755508,-0.35650256276130676,0.004757486283779144,0.0,0.10999999940395355,-2.7850000858306885,-1.877500057220459,0.10499999672174454,0.17749999463558197,5.442694905877232e-15,0.0,0.0,0.0,0.0,0.0,0.0,0.0,0.0,297.106,0.205,944.877,-0.7658153889718583,-51.31507416016825,-179.59064150322186
33.536871671676636,0.0,0.0,-127.0491511825761,0.0,0.0,0.0,0.0,24,26,29,24,27,26,0,1.6325881770224346e-17,-16.64217758178711,-6.131100177764893,-0.12365864962339401,-0.45430174469947815,0.004862698260694742,0.0,0.10999999940395355,-2.072499990463257,-1.0700000524520874,0.07750000059604645,0.1899999976158142,0.019999999552965164,0.0,0.0,0.0,0.0,0.0,0.0,0.0,0.0,308.098,0.246,937.824,-0.7833478975028615,-52.92737739566639,-179.56915558590444
34.03749752044678,0.0,0.0,-120.15601054091617,0.0,0.0,0.0,0.0,24,26,29,24,27,26,0,-0.00045233662240207195,-7.788750171661377,-10.652578353881836,-0.13330306112766266,-0.8985408544540405,0.005199643317610025,0.0,0.07999999821186066,-1.162500023841858,-0.20250000059604645,0.03999999910593033,0.019999999552965164,0.03999999910593033,0.0,0.0,0.0,44.99940019559212,0.0,0.0,0.0,0.0,352.699,0.435,904.289,-0.8810372015726669,-59.82017426264922,-179.45473591421683
34.53799319267273,0.0,0.0,-102.1562549279838,0.0,0.0,0.0,0.0,24,26,29,24,27,26,0,-0.00011312456626910716,-23.637462615966797,-19.29055404663086,-0.1509399563074112,-1.9049441814422607,0.005893188528716564,0.0,0.014999999664723873,-3.4600000381469727,-1.7100000381469727,0.009999999776482582,-0.07999999821186066,0.05999999865889549,0.0,0.0,0.0,44.99940019559212,0.0,0.0,0.0,0.0,447.221,1.023,794.065,-1.6871315235422222,-77.8178099317396,-178.60727403943883
35.03866147994995,0.0,0.0,-86.26326512774746,0.0,0.0,0.0,0.0,24,26,29,24,27,26,0,-4.685873221572684e-19,-25.897119522094727,-19.10955047607422,-0.15460817515850067,-2.610320806503296,0.00607974361628294,0.0,0.029999999329447746,-5.050000190734863,-3.3350000381469727,-0.027499999850988388,-0.39250001311302185,0.08500000089406967,0.0,0.0,0.0,0.0,0.0,0.0,0.0,0.0,498.734,1.616,676.535,-175.80808873132722,-86.27432321319348,-4.451309110371366
35.539276123046875,0.0,0.0,-86.05270313803688,0.0,0.0,0.0,0.0,24,26,29,24,27,26,0,-0.014256038703024387,-25.677749633789062,-14.356837272644043,-0.1171867847442627,-1.4417465925216675,0.003878864459693432,0.0,0.1875,-3.8324999809265137,-3.255000114440918,-0.05000000074505806,-0.6075000166893005,0.10000000149011612,0.0,0.0,0.0,12.062166154434939,0.0,0.0,0.0,0.0,499.193,1.625,674.892,-176.04815804748702,-86.06439147705755,-4.210781427975446
36.03945755958557,0.0,0.0,-60.1345562048375,0.0,0.0,0.0,0.0,24,26,29,24,27,26,0,0.0006616910686716437,-26.86363410949707,-20.345176696777344,-0.13418342173099518,-3.4084675312042236,0.005234332289546728,0.0,0.11749999970197678,-4.414999961853027,-1.8949999809265137,-0.0925000011920929,-0.5099999904632568,0.12250000238418579,0.0,0.0,0.0,44.96211760800761,0.0,0.0,0.0,0.0,508.46,2.621,466.943,-179.72373959903075,-60.15575564325734,-0.476070631974201
36.540058612823486,0.0,0.0,-42.149697494578525,0.0,0.0,0.0,0.0,24,26,29,24,27,26,0,0.0009081839816644788,-24.607088088989258,-21.247652053833008,-0.10391449928283691,-3.538222074508667,0.004044050350785255,0.0,0.11999999731779099,-4.632500171661377,-2.052500009536743,-0.11999999731779099,-0.44999998807907104,0.14000000059604645,0.0,0.0,0.0,44.96211760800761,0.0,0.0,0.0,0.0,460.268,3.24,330.098,-179.91992034808354,-42.17152718657301,-0.23502728756266367
37.04068088531494,0.0,0.0,-35.084955993276935,0.0,0.0,0.0,0.0,24,26,29,24,27,26,0,2.0206447412784165e-17,-22.754783630371094,-18.25460433959961,-0.0890565738081932,-3.451810598373413,0.003502021310850978,0.0,0.03999999910593033,-3.059999942779541,-2.797499895095825,-0.1599999964237213,-0.5350000262260437,0.16249999403953552,0.0,0.0,0.0,0.0,0.0,0.0,0.0,0.0,430.026,3.452,281.558,-179.95842311191635,-35.106900276830444,-0.17721584603396362
37.541300535202026,0.0,0.0,-41.79360422490472,0.0,0.0,0.0,0.0,24,26,29,24,27,26,0,0.0009169741533696651,-24.474746704101562,-22.473098754882812,-0.10247500240802765,-3.5363175868988037,0.00398741289973259,0.0,0.21250000596046448,-3.7699999809265137,-5.697500228881836,-0.1899999976158142,-0.6100000143051147,0.1899999976158142,0.0,0.0,0.0,-44.97886864694706,0.0,0.0,0.0,0.0,458.889,3.252,327.564,-179.92221217926408,-41.8154339168992,-0.231761428130418
38.04181408882141,0.0,0.0,-68.78094769959772,0.0,0.0,0.0,0.0,24,26,29,24,27,26,0,0.0005250242538750172,-27.173694610595703,-23.776674270629883,-0.14383672177791595,-3.2359936237335205,0.0056139025837183,0.0,0.16500000655651093,-4.949999809265137,-5.925000190734863,-0.23000000417232513,-0.7300000190734863,0.20999999344348907,0.0,0.0,0.0,-44.97886864694706,0.0,0.0,0.0,0.0,515.876,2.294,536.52,-179.50148927029952,-68.80151688444292,-0.7184890750940524
38.54240894317627,0.0,0.0,-86.77251001605974,0.0,0.0,0.0,0.0,24,26,29,24,27,26,0,0.00019365489424671978,-26.221529006958008,-21.742525100708008,-0.1542438417673111,-2.6386313438415527,0.006023148074746132,0.0,0.09000000357627869,-4.534999847412109,-5.570000171661377,-0.25999999046325684,-0.699999988079071,0.20999999344348907,0.0,0.0,0.0,-44.97886864694706,0.0,0.0,0.0,0.0,497.599,1.597,680.5,-175.09790754426254,-86.78173463656134,-5.162636213026283
39.04297947883606,0.0,0.0,-91.68201347519721,0.0,0.0,0.0,0.0,24,26,29,24,27,26,0,1.1566607384527061e-19,-25.214736938476562,-20.714557647705078,-0.15487080812454224,-2.3786110877990723,0.006090071517974138,0.0,0.14000000059604645,-3.882499933242798,-4.190000057220459,-0.20499999821186066,-0.25999999046325684,0.20999999344348907,0.0,0.0,0.0,0.0,0.0,0.0,0.0,0.0,484.862,1.409,718.161,-10.026761414789405,-88.27068005876781,-170.24409558281175
39.54346299171448,0.0,0.0,-81.01308096362519,0.0,0.0,0.0,0.0,24,26,29,24,27,26,0,0.0002967248437926173,-26.738924026489258,-19.97617530822754,-0.15269087255001068,-2.847795248031616,0.005962066352367401,0.0,0.20250000059604645,-3.7950000762939453,-1.8300000429153442,-0.1599999964237213,-0.11749999970197678,0.20999999344348907,0.0,0.0,0.0,44.985804704049215,0.0,0.0,0.0,0.0,508.367,1.82,635.128,-178.4337824190732,-81.03084265527424,-1.8138697878251602
40.04409670829773,0.0,0.0,-54.02161219280723,0.0,0.0,0.0,0.0,24,26,29,24,27,26,0,0.0007548845023848116,-26.335521697998047,-23.24227523803711,-0.12524674832820892,-3.4908528327941895,0.00488286605104804,0.0,0.1525000035762787,-4.527500152587891,-2.4000000953674316,-0.08749999850988388,-0.41999998688697815,0.20999999344348907,0.0,0.0,0.0,44.985804704049215,0.0,0.0,0.0,0.0,496.936,2.842,418.811,-179.81432422644093,-54.043040814345126,-0.37076098922915574
40.54487943649292,0.0,0.0,-41.733157177518414,0.0,0.0,0.0,0.0,24,26,29,24,27,26,0,2.3894589338168224e-17,-24.111061096191406,-16.68862533569336,-0.10313613712787628,-3.494931697845459,0.004055679775774479,0.0,0.05249999836087227,-3.799999952316284,-2.9124999046325684,-0.03999999910593033,-0.6299999952316284,0.20999999344348907,0.0,0.0,0.0,0.0,0.0,0.0,0.0,0.0,458.653,3.253,327.135,-179.92255595394116,-41.7549868695129,-0.23124576611480024
41.045483112335205,0.0,0.0,-43.95434266190208,0.0,0.0,0.0,0.0,24,26,29,24,27,26,0,0.006414695177227259,-28.442901611328125,-29.643444061279297,-0.13088122010231018,-4.291935920715332,0.005578020121902227,0.0,0.2224999964237213,-3.862499952316284,-6.877500057220459,0.019999999552965164,-0.7799999713897705,0.20999999344348907,0.0,0.0,0.0,-42.74865478858699,0.0,0.0,0.0,0.0,467.016,3.183,343.064,-179.90777364282678,-43.976115058117045,-0.25187224673950986
41.54614329338074,0.0,0.0,-61.93450311824098,0.0,0.0,0.0,0.0,24,26,29,24,27,26,0,0.0006392053328454494,-26.951570510864258,-24.50750160217285,-0.1360691636800766,-3.3834786415100098,0.005308458581566811,0.0,-4.336808689942018e-18,-4.885000228881836,-6.052499771118164,0.07000000029802322,-0.7900000214576721,0.20999999344348907,0.0,0.0,0.0,-44.97688106189859,0.0,0.0,0.0,0.0,510.868,2.554,481.322,-179.68913294820484,-61.95558796510179,-0.5149171704840708
42.046788930892944,0.0,0.0,-88.92064338156422,0.0,0.0,0.0,0.0,24,26,29,24,27,26,0,0.0001521431840956211,-25.961790084838867,-23.762601852416992,-0.15448036789894104,-2.548900604248047,0.006032452452927828,0.0,-0.014999999664723873,-4.302499771118164,-5.922500133514404,0.14000000059604645,-0.6775000095367432,0.20999999344348907,0.0,0.0,0.0,-44.97688106189859,0.0,0.0,0.0,0.0,492.423,1.514,697.112,-164.86109980177815,-88.9035119434898,-15.404772463005365
42.5473906993866,0.0,0.0,-106.91140355711303,0.0,0.0,0.0,0.0,24,26,29,24,27,26,0,-0.00019809194782283157,-22.648195266723633,-22.143877029418945,-0.1479584276676178,-1.6724473237991333,0.005775986704975367,0.0,0.042500000447034836,-3.7799999713897705,-5.639999866485596,0.18250000476837158,-0.4975000023841858,0.20999999344348907,0.0,0.0,0.0,-44.97688106189859,0.0,0.0,0.0,0.0,425.693,0.856,825.991,-1.30491137841045,-73.0636926266416,-179.00026579111906
43.048062324523926,0.0,0.0,-120.45612583400569,0.0,0.0,0.0,0.0,24,26,29,24,27,26,0,7.862910069230001e-18,-18.70684051513672,-14.20666217803955,-0.13355891406536102,-0.8496418595314026,0.005252011585980654,0.0,0.14499999582767487,-2.9200000762939453,-2.6600000858306885,0.13249999284744263,-0.08250000327825546,0.20999999344348907,0.0,0.0,0.0,0.0,0.0,0.0,0.0,0.0,350.843,0.426,905.859,-0.8758232856369763,-59.5201162653392,-179.4606946752862
43.54867959022522,0.0,0.0,-119.32797193539312,0.0,0.0,0.0,0.0,24,26,29,24,27,26,0,-0.014739985577762127,-19.647750854492188,-13.817073822021484,-0.09404017776250839,0.35435569286346436,0.002887606155127287,0.0,0.1850000023841858,-2.932499885559082,-1.1375000476837158,0.07000000029802322,0.1550000011920929,0.20999999344348907,0.0,0.0,0.0,31.92147306722863,0.0,0.0,0.0,0.0,357.776,0.459,899.906,-0.8960486958050945,-60.648155572392774,-179.43777636348096
44.04931879043579,0.0,0.0,-92.39356976097018,0.0,0.0,0.0,0.0,24,26,29,24,27,26,0,7.734876999165863e-05,-25.422618865966797,-21.15235137939453,-0.15436303615570068,-2.3800089359283447,0.006027987226843834,0.0,0.07999999821186066,-4.034999847412109,-2.0374999046325684,-1.4771170397942512e-15,-0.125,0.20999999344348907,0.0,0.0,0.0,44.89785918829613,0.0,0.0,0.0,0.0,482.75,1.382,723.523,-7.197725005551455,-87.566400336993,-173.07473627387608
44.549962759017944,0.0,0.0,-88.39621511168097,0.0,0.0,0.0,0.0,24,26,29,24,27,26,0,-1.8802111040399307e-18,-25.651037216186523,-21.15085792541504,-0.15487687289714813,-2.521787166595459,0.00609030993655324,0.0,0.029999999329447746,-4.457499980926514,-3.1649999618530273,-0.054999999701976776,-0.5049999952316284,0.20999999344348907,0.0,0.0,0.0,0.0,0.0,0.0,0.0,0.0,493.744,1.534,693.075,-169.84262405576362,-88.39203251977652,-10.42181581453211
45.05066633224487,0.0,0.0,-76.81169604348987,0.0,0.0,0.0,0.0,24,26,29,24,27,26,0,0.00037591432919725776,-27.005897521972656,-21.58769989013672,-0.15054070949554443,-2.9934799671173096,0.005877422634512186,0.0,0.05999999865889549,-3.6700000762939453,-2.109999895095825,-0.14000000059604645,-0.5550000071525574,0.20999999344348907,0.0,0.0,0.0,45.034763500019864,0.0,0.0,0.0,0.0,513.32,1.984,601.466,-179.0259343003409,-76.8310620169653,-1.2122641029377959
45.55130577087402,0.0,0.0,-58.79778837301778,0.0,0.0,0.0,0.0,24,26,29,24,27,26,0,0.0006847800686955452,-26.77094841003418,-20.928749084472656,-0.13235583901405334,-3.4299142360687256,0.005162328481674194,0.0,0.06750000268220901,-4.492499828338623,-1.9950000047683716,-0.19750000536441803,-0.41999998688697815,0.20999999344348907,0.0,0.0,0.0,45.034763500019864,0.0,0.0,0.0,0.0,506.38,2.67,456.317,-179.74677250239503,-58.819102402996634,-0.4498291649572093
46.05204129219055,0.0,0.0,-35.32410857696454,0.0,0.0,0.0,0.0,24,26,29,24,27,26,0,3.0727710416377378e-18,-22.807954788208008,-19.25279998779297,-0.089585080742836,-3.454172372817993,0.0035228042397648096,0.0,0.10249999910593033,-4.097499847412109,-3.359999895095825,-0.2199999988079071,-0.41999998688697815,0.20999999344348907,0.0,0.0,0.0,0.0,0.0,0.0,0.0,0.0,431.146,3.445,283.139,-179.9573344921056,-35.34605286051805,-0.17899201519886918
46.55264472961426,0.0,0.0,-35.32410857696454,0.0,0.0,0.0,0.0,24,26,29,24,27,26,0,3.0727710416377378e-18,-22.807954788208008,-18.307777404785156,-0.089585080742836,-3.454172372817993,0.0035228042397648096,0.0,0.14000000059604645,-3.192500114440918,-2.867500066757202,-0.18000000715255737,-0.5400000214576721,0.20999999344348907,0.0,0.0,0.0,0.0,0.0,0.0,0.0,0.0,431.146,3.445,283.139,-179.9573344921056,-35.34605286051805,-0.17899201519886918
47.053269386291504,0.0,0.0,-54.30184585040572,0.0,0.0,0.0,0.0,24,26,29,24,27,26,0,0.0007582018151879311,-26.32810401916504,-21.48996353149414,-0.12511901557445526,-3.491790771484375,0.004877721890807152,0.0,1.205632815803881e-16,-4.172500133514404,-5.527500152587891,-0.10249999910593033,-0.7300000190734863,0.20999999344348907,0.0,0.0,0.0,-45.05010068980113,0.0,0.0,0.0,0.0,497.576,2.832,420.989,-179.81094377544966,-54.32327447194361,-0.3748862853540976
47.553890228271484,0.0,0.0,-72.32188416928572,0.0,0.0,0.0,0.0,24,26,29,24,27,26,0,0.00046436875709332526,-27.1629638671875,-22.908138275146484,-0.14705117046833038,-3.14182186126709,0.005740172229707241,0.0,-0.014999999664723873,-4.900000095367432,-5.775000095367432,-0.054999999701976776,-0.75,0.20999999344348907,0.0,0.0,0.0,-45.05010068980113,0.0,0.0,0.0,0.0,515.872,2.158,565.197,-179.34575934158295,-72.34199498789481,-0.8822977087219547
48.054489850997925,0.0,0.0,-78.5053592858966,0.0,0.0,0.0,0.0,24,26,29,24,27,26,0,-1.7283258956831995e-17,-26.540016174316406,-22.039838790893555,-0.1518300324678421,-2.900967836380005,0.005970497149974108,0.0,0.14000000059604645,-3.8450000286102295,-4.460000038146973,0.004999999888241291,-0.4399999976158142,0.19249999523162842,0.0,0.0,0.0,0.0,0.0,0.0,0.0,0.0,511.62,1.918,615.079,-178.8396084253644,-78.52415230157689,-1.402371499362203
48.55511975288391,0.0,0.0,-87.01578789587228,0.0,0.0,0.0,0.0,24,26,29,24,27,26,0,0.0001890537387225777,-26.193809509277344,-26.783634185791016,-0.1542813628911972,-2.6286706924438477,0.006024603731930256,0.0,0.11999999731779099,-4.840000152587891,-6.449999809265137,0.05249999836087227,-0.32499998807907104,0.17249999940395355,0.0,0.0,0.0,-44.989038798621216,0.0,0.0,0.0,0.0,497.044,1.587,682.391,-174.67311663495252,-87.02392389656313,-5.587942784351893
49.05549335479736,0.0,0.0,-114.00920472319368,0.0,0.0,0.0,0.0,24,26,29,24,27,26,0,-0.0003329930768813938,-20.828641891479492,-21.368783950805664,-0.1413096934556961,-1.2774453163146973,0.005514511838555336,0.0,0.11249999701976776,-2.877500057220459,-5.505000114440918,0.125,-0.3100000023841858,0.14000000059604645,0.0,0.0,0.0,-44.9868326475193,0.0,0.0,0.0,0.0,388.823,0.622,870.058,-1.018260593506499,-65.96663630569464,-179.3031312816252
49.55628943443298,0.0,0.0,-116.9410297608781,0.0,0.0,0.0,0.0,24,26,29,24,27,26,0,-2.8974724446836625e-18,-19.73247718811035,-15.232297897338867,-0.13812273740768433,-1.0561552047729492,0.0054314774461090565,0.0,0.10750000178813934,-3.0999999046325684,-3.057499885559082,0.1550000011920929,-0.12999999523162842,0.11999999731779099,0.0,0.0,0.0,0.0,0.0,0.0,0.0,0.0,372.051,0.531,886.868,-0.9447501083912144,-63.03504045112826,-179.38345996450255
50.056910037994385,0.0,0.0,-104.6351568286173,0.0,0.0,0.0,0.0,24,26,29,24,27,26,0,-0.0001615451037650928,-23.093597412109375,-16.703214645385742,-0.14936579763889313,-1.7751632928848267,0.005831215996295214,0.0,0.07249999791383743,-3.674999952316284,-1.2575000524520874,0.1899999976158142,0.03999999910593033,0.08749999850988388,0.0,0.0,0.0,45.03709259452684,0.0,0.0,0.0,0.0,436.328,0.935,810.931,-1.456630602561092,-75.33948098890123,-178.84333265103274
50.557538986206055,0.0,0.0,-86.620332425673,0.0,0.0,0.0,0.0,24,26,29,24,27,26,0,0.00019014120334759355,-26.198657989501953,-19.510913848876953,-0.15427514910697937,-2.630213737487793,0.006024269387125969,0.0,0.09000000357627869,-4.125,-1.747499942779541,0.1599999964237213,-0.17000000178813934,0.06499999761581421,0.0,0.0,0.0,45.03709259452684,0.0,0.0,0.0,0.0,497.942,1.603,679.316,-175.33259105714814,-86.63013000396973,-4.927666221243132
51.05814862251282,0.0,0.0,-66.38793217245433,0.0,0.0,0.0,0.0,24,26,29,24,27,26,0,-1.467689618512412e-18,-26.73501205444336,-22.132125854492188,-0.14196592569351196,-3.2470202445983887,0.005582605488598347,0.0,0.16500000655651093,-4.772500038146973,-3.862499952316284,0.12250000238418579,-0.5674999952316284,0.027499999850988388,0.0,0.0,0.0,0.0,0.0,0.0,0.0,0.0,514.876,2.386,517.163,-179.5798126008939,-66.40873054041758,-0.6346653496664129
51.55877161026001,0.0,0.0,-66.38793217245433,0.0,0.0,0.0,0.0,24,26,29,24,27,26,0,-1.467689618512412e-18,-26.73501205444336,-22.234832763671875,-0.14196592569351196,-3.2470202445983887,0.005582605488598347,0.0,0.1525000035762787,-4.392499923706055,-3.9024999141693115,0.09749999642372131,-0.75,0.007499999832361937,0.0,0.0,0.0,0.0,0.0,0.0,0.0,0.0,514.876,2.386,517.163,-179.5798126008939,-66.40873054041758,-0.6346653496664129
52.059447288513184,0.0,0.0,-88.4252640718941,0.0,0.0,0.0,0.0,24,26,29,24,27,26,0,0.00016221639816649258,-26.02545166015625,-20.960796356201172,-0.1544438749551773,-2.5700438022613525,0.006030892487615347,0.0,0.12999999523162842,-4.747499942779541,-5.434999942779541,0.05999999865889549,-0.6974999904632568,-0.019999999552965164,0.0,0.0,0.0,-45.04333197233365,0.0,0.0,0.0,0.0,493.672,1.533,693.299,-169.65142803952844,-88.42056581797404,-10.613069126546778
52.56004977226257,0.0,0.0,-106.442609489137,0.0,0.0,0.0,0.0,24,26,29,24,27,26,0,-0.00018961812020279467,-22.759750366210938,-17.07872200012207,-0.1483173668384552,-1.697859764099121,0.005789976567029953,0.0,0.10249999910593033,-4.159999847412109,-4.757500171661377,0.027499999850988388,-0.5074999928474426,-0.019999999552965164,0.0,0.0,0.0,-45.04333197233365,0.0,0.0,0.0,0.0,427.932,0.872,822.924,-1.3326998314742948,-73.53237210305862,-178.97138871824447
53.06066346168518,0.0,0.0,-129.74113608721873,0.0,0.0,0.0,0.0,24,26,29,24,27,26,0,1.1893044855790434e-17,-15.751344680786133,-8.337149620056152,-0.11913778632879257,-0.29085078835487366,0.004684921819716692,0.0,0.10999999940395355,-1.3650000095367432,-1.4550000429153442,-1.605486577016535e-15,-0.125,5.470450481492861e-15,0.0,0.0,0.0,0.0,0.0,0.0,0.0,0.0,289.637,0.178,949.425,-0.7549291908643727,-50.235449786803244,-179.60416330718695
53.561320066452026,0.0,0.0,-129.74113608721873,0.0,0.0,0.0,0.0,24,26,29,24,27,26,0,1.1893044855790434e-17,-15.751344680786133,-11.251166343688965,-0.11913778632879257,-0.29085078835487366,0.004684921819716692,0.0,0.12250000238418579,-2.7799999713897705,-2.0975000858306885,-0.029999999329447746,0.1599999964237213,0.009999999776482582,0.0,0.0,0.0,0.0,0.0,0.0,0.0,0.0,289.637,0.178,949.425,-0.7549291908643727,-50.235449786803244,-179.60416330718695
54.062028884887695,0.0,0.0,-110.06908855763803,0.0,0.0,0.0,0.0,24,26,29,24,27,26,0,-0.00026561334379948676,-21.779727935791016,-18.73161506652832,-0.1449417620897293,-1.479467749595642,0.005657321773469448,0.0,0.0949999988079071,-3.5199999809265137,-1.6124999523162842,-0.07750000059604645,0.07249999791383743,0.03999999910593033,0.0,0.0,0.0,44.997593610556656,0.0,0.0,0.0,0.0,409.965,0.75,846.158,-1.151874351331007,-69.9063514007937,-179.16040749485813
54.562700271606445,0.0,0.0,-92.07007778983933,0.0,0.0,0.0,0.0,24,26,29,24,27,26,0,8.399898069910705e-05,-25.47312355041504,-19.06109046936035,-0.15439794957637787,-2.394834041595459,0.006029172334820032,0.0,0.019999999552965164,-3.9649999141693115,-1.6699999570846558,-0.10000000149011612,-0.22750000655651093,0.05249999836087227,0.0,0.0,0.0,44.997593610556656,0.0,0.0,0.0,0.0,483.719,1.394,721.089,-8.250019292088725,-87.88714211070723,-172.02169714220514
55.06347298622131,0.0,0.0,-65.07150434236175,0.0,0.0,0.0,0.0,24,26,29,24,27,26,0,0.0005824373220093548,-27.105690002441406,-24.50459098815918,-0.14028702676296234,-3.3140227794647217,0.005474281031638384,0.0,0.10499999672174454,-4.737500190734863,-2.619999885559082,-0.14000000059604645,-0.6549999713897705,0.07999999821186066,0.0,0.0,0.0,44.997593610556656,0.0,0.0,0.0,0.0,513.982,2.436,506.538,-179.61636730822323,-65.09241730188403,-0.595073966022873
55.56409049034119,0.0,0.0,-47.07249357456305,0.0,0.0,0.0,0.0,24,26,29,24,27,26,0,0.0008499988471157849,-25.433759689331055,-22.713966369628906,-0.1133585050702095,-3.5368099212646484,0.004415355622768402,0.0,0.14000000059604645,-4.625,-2.307499885559082,-0.17000000178813934,-0.7724999785423279,0.09000000357627869,0.0,0.0,0.0,44.997593610556656,0.0,0.0,0.0,0.0,477.7,3.081,365.947,-179.88405319010835,-47.09415137921899,-0.2836714043692706
56.0647177696228,0.0,0.0,-38.91981981186704,0.0,0.0,0.0,0.0,24,26,29,24,27,26,0,-8.792451801044629e-18,-23.56833267211914,-19.06815528869629,-0.0973367765545845,-3.4824016094207764,0.003827628679573536,0.0,0.07000000029802322,-3.452500104904175,-2.9024999141693115,-0.17749999463558197,-0.7774999737739563,0.11999999731779099,0.0,0.0,0.0,0.0,0.0,0.0,0.0,0.0,447.186,3.34,307.445,-179.93911443422044,-38.94170679964104,-0.20712424293979262
56.56533980369568,0.0,0.0,-46.004958610675295,0.0,0.0,0.0,0.0,24,26,29,24,27,26,0,0.0008700949838384986,-25.210813522338867,-25.042192459106445,-0.11070181429386139,-3.5400004386901855,0.004310780670493841,0.0,0.09749999642372131,-3.867500066757202,-6.147500038146973,-0.1599999964237213,-0.7124999761581421,0.14000000059604645,0.0,0.0,0.0,-45.053024010765895,0.0,0.0,0.0,0.0,474.183,3.117,358.048,-179.8925902612558,-46.026673711110746,-0.2723841358051934
57.06593894958496,0.0,0.0,-73.03676361027046,0.0,0.0,0.0,0.0,24,26,29,24,27,26,0,0.00045162145397625864,-27.150087356567383,-26.030616760253906,-0.1476324498653412,-3.121337890625,0.005763025023043156,0.0,0.1274999976158142,-5.045000076293945,-6.320000171661377,-0.12999999523162842,-0.6299999952316284,0.1599999964237213,0.0,0.0,0.0,-45.053024010765895,0.0,0.0,0.0,0.0,515.656,2.13,570.984,-179.30628254949843,-73.05681713310004,-0.9233787826328346
57.56655931472778,0.0,0.0,-91.05800514052024,0.0,0.0,0.0,0.0,24,26,29,24,27,26,0,0.00011102570715593174,-25.674665451049805,-25.744115829467773,-0.15449818968772888,-2.456281900405884,0.006033009849488735,0.0,0.1525000035762787,-4.377500057220459,-6.269999980926514,-0.10000000149011612,-0.5699999928474426,0.18000000715255737,0.0,0.0,0.0,-45.053024010765895,0.0,0.0,0.0,0.0,486.659,1.433,713.436,-15.427977253708162,-88.8807655190231,-164.84133275784615
58.06719493865967,0.0,0.0,-109.31627931061564,0.0,0.0,0.0,0.0,24,26,29,24,27,26,0,-1.862786130846195e-18,-21.755352020263672,-23.951400756835938,-0.14621569216251373,-1.4894310235977173,0.005749721545726061,0.0,0.1550000011920929,-2.7674999237060547,-4.179999828338623,-0.07999999821186066,-0.3199999928474426,0.20499999821186066,0.0,0.0,0.0,0.0,0.0,0.0,0.0,0.0,413.815,0.775,841.429,-1.1837881005197939,-70.65910335203657,-179.12683216806346
58.56745958328247,0.0,0.0,-109.31627931061564,0.0,0.0,0.0,0.0,24,26,29,24,27,26,0,-1.862786130846195e-18,-21.755352020263672,-17.255172729492188,-0.14621569216251373,-1.4894310235977173,0.005749721545726061,0.0,0.019999999552965164,-3.984999895095825,-2.940000057220459,-0.05000000074505806,-0.027499999850988388,0.20250000059604645,0.0,0.0,0.0,0.0,0.0,0.0,0.0,0.0,413.815,0.775,841.429,-1.1837881005197939,-70.65910335203657,-179.12683216806346
59.06808018684387,0.0,0.0,-101.99576944956766,0.0,0.0,0.0,0.0,24,26,29,24,27,26,0,-2.615415849921962e-18,-23.41079330444336,-14.353650093078613,-0.1515541821718216,-1.8807259798049927,0.005959650035947561,0.0,0.09000000357627869,-4.005000114440918,-2.505000114440918,-0.029999999329447746,-0.2849999964237213,0.20499999821186066,0.0,0.0,0.0,0.0,0.0,0.0,0.0,0.0,447.9,1.028,792.957,-1.705351581427382,-77.97823811437625,-178.58871020687658
59.568689584732056,0.0,0.0,-105.27904679878533,0.0,0.0,0.0,0.0,24,26,29,24,27,26,0,0.0005313740111887455,-23.553325653076172,-29.656667709350586,-0.1509869545698166,-1.817116379737854,0.005930538754910231,0.0,0.2224999964237213,-4.147500038146973,-6.949999809265137,-1.6193643648243494e-15,-0.5350000262260437,0.20749999582767487,0.0,0.0,0.0,-44.92870773768249,0.0,0.0,0.0,0.0,433.38,0.913,815.234,-1.4090751055652335,-74.69570561029224,-178.89237783829591
60.06925678253174,0.0,0.0,-119.34521796502655,0.0,0.0,0.0,0.0,24,26,29,24,27,26,0,-1.9289165324828186e-17,-19.03694725036621,-22.89134979248047,-0.13505642116069794,-0.915290892124176,0.005310899578034878,0.0,0.02500000037252903,-2.677500009536743,-3.994999885559082,0.019999999552965164,-0.09749999642372131,0.20749999582767487,0.0,0.0,0.0,0.0,0.0,0.0,0.0,0.0,357.671,0.459,899.998,-0.895704921128016,-60.63096683853885,-179.43812013815804
60.56992316246033,0.0,0.0,-117.62800615723995,0.0,0.0,0.0,0.0,24,26,29,24,27,26,0,-0.01304703764617443,-19.58074951171875,-12.886175155639648,-0.10150492936372757,0.07514411956071854,0.0032755446154624224,0.0,-0.017500000074505806,-2.922499895095825,-0.7799999713897705,0.03999999910593033,0.1850000023841858,0.20749999582767487,0.0,0.0,0.0,39.15330126610022,0.0,0.0,0.0,0.0,367.999,0.51,890.681,-0.9297959099382999,-62.34806405476641,-179.40001844478184
61.07061457633972,0.0,0.0,-101.81139163109457,0.0,0.0,0.0,0.0,24,26,29,24,27,26,0,-6.665931332799936e-18,-23.4486141204834,-15.2704496383667,-0.15165702998638153,-1.890211820602417,0.005963694304227829,0.0,0.10499999672174454,-4.510000228881836,-2.6649999618530273,0.07000000029802322,-0.3174999952316284,0.20749999582767487,0.0,0.0,0.0,0.0,0.0,0.0,0.0,0.0,448.678,1.035,791.681,-1.7268947945243012,-78.16255863706982,-178.5667659233231
61.571250677108765,0.0,0.0,-101.4073417939683,0.0,0.0,0.0,0.0,24,26,29,24,27,26,0,-0.015814973041415215,-22.227249145507812,-11.299261093139648,-0.11092332005500793,-0.6253609657287598,0.0035613696090877056,0.0,0.14000000059604645,-3.317500114440918,-2.2850000858306885,0.09000000357627869,-0.5724999904632568,0.20250000059604645,0.0,0.0,0.0,18.08711444111727,0.0,0.0,0.0,0.0,450.367,1.049,788.878,-1.7765702353621435,-78.56649388263705,-178.51617375001302
62.07145047187805,0.0,0.0,-74.94104613816727,0.0,0.0,0.0,0.0,24,26,29,24,27,26,0,0.00040955256554298103,-27.084880828857422,-19.318655014038086,-0.14932243525981903,-3.0531811714172363,0.0058295889757573605,0.0,0.14000000059604645,-4.402500152587891,-1.715000033378601,0.11999999731779099,-0.27000001072883606,0.20749999582767487,0.0,0.0,0.0,44.99562651607569,0.0,0.0,0.0,0.0,514.728,2.056,586.38,-179.1826382573092,-74.96075588631976,-1.0513775540650607
62.572083711624146,0.0,0.0,-58.13235518975284,0.0,0.0,0.0,0.0,24,26,29,24,27,26,0,0.012504610233008862,-33.935333251953125,-22.52733039855957,-0.17247271537780762,-1.805999994277954,0.007573217153549194,0.0,0.09000000357627869,-4.510000228881836,-3.059999942779541,0.14000000059604645,-0.32249999046325684,0.20499999821186066,0.0,0.0,0.0,12.088281382726484,0.0,0.0,0.0,0.0,505.252,2.694,451.046,-179.75748681316398,-58.1536692197317,-0.4375678681414097
63.072715520858765,0.0,0.0,-57.96974976749471,0.0,0.0,0.0,0.0,24,26,29,24,27,26,0,-5.1952443219403616e-18,-26.28594398498535,-21.7857666015625,-0.13135111331939697,-3.4029221534729004,0.0051651932299137115,0.0,0.0949999988079071,-4.324999809265137,-3.8125,0.17000000178813934,-0.6600000262260437,0.20499999821186066,0.0,0.0,0.0,0.0,0.0,0.0,0.0,0.0,504.967,2.7,449.76,-179.76000782746254,-57.991006501694066,-0.4346457833862425
63.57321000099182,0.0,0.0,-43.34987218803906,0.0,0.0,0.0,0.0,24,26,29,24,27,26,0,0.0008944225846789777,-24.822463989257812,-22.680696487426758,-0.10629069805145264,-3.5402493476867676,0.004137483891099691,0.0,0.029999999329447746,-3.547499895095825,-2.302500009536743,0.1899999976158142,-0.6800000071525574,0.20749999582767487,0.0,0.0,0.0,44.96585713657819,0.0,0.0,0.0,0.0,464.801,3.202,338.697,-179.91195623473124,-43.371644584254035,-0.2460853730086886
64.07392120361328,0.0,0.0,-20.995866515230478,0.0,0.0,0.0,0.0,24,26,29,24,27,26,0,4.862958838842604e-18,-19.095796585083008,-12.505724906921387,-0.055514220148324966,-3.2085020542144775,0.002183016622439027,0.0,0.125,-3.0975000858306885,-2.182499885559082,0.20000000298023224,-0.7099999785423279,0.20749999582767487,0.0,0.0,0.0,0.0,0.0,0.0,0.0,0.0,353.116,3.8,197.631,179.994232974112,-21.01803998190204,-0.08737606375745055
64.57421660423279,0.0,0.0,-20.995866515230478,0.0,0.0,0.0,0.0,24,26,29,24,27,26,0,4.862958838842604e-18,-19.095796585083008,-14.595617294311523,-0.055514220148324966,-3.2085020542144775,0.002183016622439027,0.0,0.05000000074505806,-2.9049999713897705,-2.259999990463257,0.17249999940395355,-0.6700000166893005,0.20999999344348907,0.0,0.0,0.0,0.0,0.0,0.0,0.0,0.0,353.116,3.8,197.631,179.994232974112,-21.01803998190204,-0.08737606375745055
65.0747857093811,0.0,0.0,-39.18492738367408,0.0,0.0,0.0,0.0,24,26,29,24,27,26,0,0.0009422710281796753,-23.964021682739258,-20.605728149414062,-0.09709799289703369,-3.5245180130004883,0.0037761060521006584,0.0,0.06750000268220901,-3.2674999237060547,-5.369999885559082,0.13249999284744263,-0.6100000143051147,0.20499999821186066,0.0,0.0,0.0,-44.90632179267777,0.0,0.0,0.0,0.0,448.307,3.332,309.276,-179.9376820397326,-39.20675707566856,-0.20930148256128972
65.57508850097656,0.0,0.0,-43.54278707765961,0.0,0.0,0.0,0.0,24,26,29,24,27,26,0,-2.0242466165377174e-17,-24.435251235961914,-27.70454978942871,-0.10673589259386063,-3.4985404014587402,0.004197235219180584,0.0,0.10000000149011612,-3.7225000858306885,-4.835000038146973,0.10499999672174454,-0.5600000023841858,0.20999999344348907,0.0,0.0,0.0,0.0,0.0,0.0,0.0,0.0,465.513,3.196,340.089,-179.91063843180243,-43.56455947387458,-0.2479188379531072
66.07543516159058,0.0,0.0,-31.966633193277424,0.0,0.0,0.0,0.0,24,26,29,24,27,26,0,0.0010117063065990806,-22.436565399169922,-17.028581619262695,-0.08202017098665237,-3.4597063064575195,0.0031829997897148132,0.0,0.14249999821186066,-3.067500114440918,-1.315000057220459,0.07000000029802322,-0.5,0.20499999821186066,0.0,0.0,0.0,45.008877083065514,0.0,0.0,0.0,0.0,414.821,3.537,261.393,-179.97177302854288,-31.988692068389966,-0.15498508358288768
66.57607889175415,0.0,0.0,-24.71138322509484,0.0,0.0,0.0,0.0,24,26,29,24,27,26,0,9.330412848321553e-18,-20.156044006347656,-11.947050094604492,-0.06477127969264984,-3.292221784591675,0.002547037322074175,0.0,-0.07000000029802322,-3.3125,-2.0850000381469727,0.03999999910593033,-0.48750001192092896,0.20250000059604645,0.0,0.0,0.0,0.0,0.0,0.0,0.0,0.0,375.368,3.718,217.888,-179.99618103061545,-24.73349939598689,-0.10880468529534333
67.07687616348267,0.0,0.0,-31.77589554327838,0.0,0.0,0.0,0.0,24,26,29,24,27,26,0,0.0010141549864783883,-22.30158042907715,-20.799346923828125,-0.08075651526451111,-3.4522600173950195,0.0031333984807133675,0.0,0.13750000298023224,-3.380000114440918,-5.40500020980835,-1.5933435126846973e-15,-0.48750001192092896,0.20749999582767487,0.0,0.0,0.0,-44.96095306075412,0.0,0.0,0.0,0.0,413.855,3.543,260.186,-179.97251787367654,-31.7978971226114,-0.15372457643359988
67.57753658294678,0.0,0.0,-49.76029588730125,0.0,0.0,0.0,0.0,24,26,29,24,27,26,0,0.0008182591409422457,-25.770282745361328,-24.509521484375,-0.11753710359334946,-3.527055263519287,0.004579741973429918,0.0,0.09000000357627869,-3.4800000190734863,-6.052499771118164,-0.029999999329447746,-0.48500001430511475,0.20999999344348907,0.0,0.0,0.0,-44.96095306075412,0.0,0.0,0.0,0.0,485.9,2.991,386.114,-179.8602181458309,-49.78189639617768,-0.31432464640876967
68.07817769050598,0.0,0.0,-76.7368677554458,0.0,0.0,0.0,0.0,24,26,29,24,27,26,0,0.0003826784377451986,-27.025287628173828,-27.073698043823242,-0.15027305483818054,-3.0075197219848633,0.005867036059498787,0.0,0.014999999664723873,-4.082499980926514,-6.5,-0.06750000268220901,-0.48500001430511475,0.20999999344348907,0.0,0.0,0.0,-44.96095306075412,0.0,0.0,0.0,0.0,513.385,1.986,600.864,-179.03303897700053,-76.7561764331417,-1.2049875389396343
68.57895874977112,0.0,0.0,-94.72121080368916,0.0,0.0,0.0,0.0,24,26,29,24,27,26,0,3.916489004041068e-05,-25.110740661621094,-25.927698135375977,-0.1540316492319107,-2.2893483638763428,0.006014836952090263,0.0,-0.029999999329447746,-4.502500057220459,-6.300000190734863,-0.09749999642372131,-0.48249998688697815,0.20999999344348907,0.0,0.0,0.0,-44.96095306075412,0.0,0.0,0.0,0.0,475.379,1.295,740.876,-3.8307385224651713,-85.24729636542148,-176.4469939686776
69.07949876785278,0.0,0.0,-119.75488278854507,0.0,0.0,0.0,0.0,24,26,29,24,27,26,0,-0.009336316958069801,-19.697999954223633,-12.690057754516602,-0.10836390405893326,-0.06805659085512161,0.0037519289180636406,0.0,0.10999999940395355,-2.940000057220459,-3.0799999237060547,-0.12999999523162842,-0.3375000059604645,0.20749999582767487,0.0,0.0,0.0,-2.773522536549207,0.0,0.0,0.0,0.0,355.167,0.447,902.175,-0.8881991740118022,-60.22130201502031,-179.44665720930547
69.58007407188416,0.0,0.0,-119.77012346589557,0.0,0.0,0.0,0.0,24,26,29,24,27,26,0,-8.127638470929635e-18,-18.911325454711914,-14.411147117614746,-0.13448961079120636,-0.890220582485199,0.0052886102348566055,0.0,0.14000000059604645,-3.3949999809265137,-2.5824999809265137,-0.1599999964237213,0.009999999776482582,0.20499999821186066,0.0,0.0,0.0,0.0,0.0,0.0,0.0,0.0,355.073,0.446,902.255,-0.8879126951142368,-60.20606133766983,-179.44694368820305
70.08088445663452,0.0,0.0,-103.70811111609564,0.0,0.0,0.0,0.0,24,26,29,24,27,26,0,-0.00014312961138784885,-23.30052947998047,-18.140779495239258,-0.14998853206634521,-1.8240090608596802,0.005855823867022991,0.0,0.14000000059604645,-3.450000047683716,-1.5099999904632568,-0.20000000298023224,0.0625,0.20999999344348907,0.0,0.0,0.0,44.97347621259734,0.0,0.0,0.0,0.0,440.487,0.968,804.679,-1.5330058766520305,-76.26635481408437,-178.7648947288793
70.58151340484619,0.0,0.0,-100.23867977923996,0.0,0.0,0.0,0.0,24,26,29,24,27,26,0,5.297586829638179e-18,-23.7631778717041,-19.26300048828125,-0.15247032046318054,-1.970314621925354,0.0059956759214401245,0.0,0.07000000029802322,-3.8475000858306885,-3.1624999046325684,-0.20250000059604645,-0.32499998807907104,0.20000000298023224,0.0,0.0,0.0,0.0,0.0,0.0,0.0,0.0,455.14,1.092,780.703,-1.9423269254934907,-79.73469753112929,-178.34778145402407
71.08214235305786,0.0,0.0,-88.3170323443939,0.0,0.0,0.0,0.0,24,26,29,24,27,26,0,0.00015678154886700213,-25.992605209350586,-18.855792999267578,-0.1544647067785263,-2.559242010116577,0.0060318587347865105,0.0,0.11749999970197678,-3.9800000190734863,-1.6349999904632568,-0.17000000178813934,-0.38749998807907104,0.20499999821186066,0.0,0.0,0.0,44.96497945726984,0.0,0.0,0.0,0.0,493.94,1.537,692.464,-170.33124246345116,-88.31405296385921,-9.933025519506003
71.58273959159851,0.0,0.0,-70.33108501432417,0.0,0.0,0.0,0.0,24,26,29,24,27,26,0,0.0004914442542940378,-27.17774200439453,-23.396818161010742,-0.14564087986946106,-3.186591148376465,0.00568487448617816,0.0,0.1599999964237213,-4.367499828338623,-2.427500009536743,-0.15000000596046448,-0.3050000071525574,0.20499999821186066,0.0,0.0,0.0,44.96497945726984,0.0,0.0,0.0,0.0,516.092,2.235,549.073,-179.44035467355906,-70.35148231183082,-0.7831760101643223
72.08346605300903,0.0,0.0,-43.35204942766055,0.0,0.0,0.0,0.0,24,26,29,24,27,26,0,0.0008943617576733232,-24.82283592224121,-22.895444869995117,-0.10629504173994064,-3.540250062942505,0.004137656185775995,0.0,0.019999999552965164,-4.349999904632568,-2.3399999141693115,-0.125,-0.3725000023841858,0.20749999582767487,0.0,0.0,0.0,44.96497945726984,0.0,0.0,0.0,0.0,464.809,3.202,338.713,-179.91195623473124,-43.373879119655044,-0.24614266878820168
72.58416223526001,0.0,0.0,-35.92691747322168,0.0,0.0,0.0,0.0,24,26,29,24,27,26,0,-8.51559114130068e-18,-22.940547943115234,-12.319499969482422,-0.09091011434793472,-3.459857702255249,0.0035749091766774654,0.0,-0.02500000037252903,-3.7325000762939453,-2.1500000953674316,-0.10000000149011612,-0.49000000953674316,0.20749999582767487,0.0,0.0,0.0,0.0,0.0,0.0,0.0,0.0,433.941,3.428,287.143,-179.95446970312994,-35.948861756775194,-0.1835183817804027
73.08481097221375,0.0,0.0,-43.16709865139232,0.0,0.0,0.0,0.0,24,26,29,24,27,26,0,0.0008998233242891729,-24.72585105895996,-20.07111358642578,-0.10522293299436569,-3.539483070373535,0.004095539450645447,0.0,0.07000000029802322,-3.7125000953674316,-5.277500152587891,-0.07249999791383743,-0.6949999928474426,0.20749999582767487,0.0,0.0,0.0,-44.942491059427574,0.0,0.0,0.0,0.0,464.122,3.208,337.382,-179.91321674188052,-43.1888710476073,-0.2443664996232961
73.58509087562561,0.0,0.0,-61.14405054407849,0.0,0.0,0.0,0.0,24,26,29,24,27,26,0,0.0006508369697257876,-26.90459632873535,-23.69533920288086,-0.13504549860954285,-3.397404432296753,0.0052682687528431416,0.0,0.042500000447034836,-4.505000114440918,-5.909999847412109,-0.05000000074505806,-0.7699999809265137,0.20499999821186066,0.0,0.0,0.0,-44.942491059427574,0.0,0.0,0.0,0.0,509.866,2.583,474.998,-179.70488928757095,-61.165192686718825,-0.49732736617355455
74.08571076393127,0.0,0.0,-88.10956432677702,0.0,0.0,0.0,0.0,24,26,29,24,27,26,0,0.00016757888079155236,-26.062849044799805,-21.58956527709961,-0.15441730618476868,-2.5831291675567627,0.00603003753349185,0.0,0.009999999776482582,-4.715000152587891,-5.542500019073486,-0.017500000074505806,-0.6800000071525574,0.20999999344348907,0.0,0.0,0.0,-44.942491059427574,0.0,0.0,0.0,0.0,494.45,1.545,690.863,-171.42003416153827,-88.10939243943848,-8.84366086362377
74.58634042739868,0.0,0.0,-91.57452659283068,0.0,0.0,0.0,0.0,24,26,29,24,27,26,0,4.763921848270125e-19,-25.230093002319336,-20.729915618896484,-0.15487906336784363,-2.383420467376709,0.006090396083891392,0.0,0.13500000536441803,-3.4149999618530273,-4.037499904632568,-1.6176296413483726e-15,-0.36500000953674316,0.20999999344348907,0.0,0.0,0.0,0.0,0.0,0.0,0.0,0.0,485.175,1.413,717.348,-10.667041750848101,-88.37650536352848,-169.6035287678555
75.08696460723877,0.0,0.0,-95.53584219680617,0.0,0.0,0.0,0.0,24,26,29,24,27,26,0,-1.8407179860790458e-18,-24.61634063720703,-24.753599166870117,-0.15421494841575623,-2.2007532119750977,0.006064280401915312,0.0,0.1599999964237213,-3.1624999046325684,-4.320000171661377,0.02500000037252903,-0.17249999940395355,0.20999999344348907,0.0,0.0,0.0,0.0,0.0,0.0,0.0,0.0,472.633,1.264,746.876,-3.3161651266581784,-84.43398277523328,-176.96345812520852
75.58750820159912,0.0,0.0,-95.53584219680617,0.0,0.0,0.0,0.0,24,26,29,24,27,26,0,-1.8407179860790458e-18,-24.61634063720703,-20.116161346435547,-0.15421494841575623,-2.2007532119750977,0.006064280401915312,0.0,0.07000000029802322,-4.197500228881836,-4.277500152587891,0.03999999910593033,-0.20000000298023224,0.20499999821186066,0.0,0.0,0.0,0.0,0.0,0.0,0.0,0.0,472.633,1.264,746.876,-3.3161651266581784,-84.43398277523328,-176.96345812520852
76.08832430839539,0.0,0.0,-82.15154810255014,0.0,0.0,0.0,0.0,24,26,29,24,27,26,0,-5.293940617498045e-18,-26.287555694580078,-16.445100784301758,-0.1534862369298935,-2.770674228668213,0.0060356250032782555,0.0,0.14000000059604645,-4.880000114440918,-2.869999885559082,0.07750000059604645,-0.35499998927116394,0.20499999821186066,0.0,0.0,0.0,0.0,0.0,0.0,0.0,0.0,506.601,1.776,644.179,-178.163403635551,-82.16867954062455,-2.0867695856459716
76.58899283409119,0.0,0.0,-82.15154810255014,0.0,0.0,0.0,0.0,24,26,29,24,27,26,0,-5.293940617498045e-18,-26.287555694580078,-21.787378311157227,-0.1534862369298935,-2.770674228668213,0.0060356250032782555,0.0,0.11500000208616257,-3.9625000953674316,-4.144999980926514,0.0925000011920929,-0.5874999761581421,0.1899999976158142,0.0,0.0,0.0,0.0,0.0,0.0,0.0,0.0,506.601,1.776,644.179,-178.163403635551,-82.16867954062455,-2.0867695856459716
77.08966183662415,0.0,0.0,-96.88813718487393,0.0,0.0,0.0,0.0,24,26,29,24,27,26,0,2.0310537184429636e-19,-24.38465118408203,-21.702375411987305,-0.1538192480802536,-2.135941743850708,0.006048720329999924,0.0,0.11999999731779099,-2.802500009536743,-3.7874999046325684,0.12999999523162842,-0.4449999928474426,0.1525000035762787,0.0,0.0,0.0,0.0,0.0,0.0,0.0,0.0,467.888,1.214,756.749,-2.7294563444442157,-83.08317747743286,-177.55320358373666
77.59030532836914,0.0,0.0,-96.88813718487393,0.0,0.0,0.0,0.0,24,26,29,24,27,26,0,2.0310537184429636e-19,-24.38465118408203,-19.884471893310547,-0.1538192480802536,-2.135941743850708,0.006048720329999924,0.0,0.03999999910593033,-4.042500019073486,-3.7200000286102295,0.15000000596046448,-0.10499999672174454,0.12999999523162842,0.0,0.0,0.0,0.0,0.0,0.0,0.0,0.0,467.888,1.214,756.749,-2.7294563444442157,-83.08317747743286,-177.55320358373666
78.09093022346497,0.0,0.0,-120.20631623532867,0.0,0.0,0.0,0.0,24,26,29,24,27,26,0,-0.0004483199445530772,-19.03502655029297,-15.398432731628418,-0.13372300565242767,-0.9170258641242981,0.005216010846197605,0.0,0.09000000357627869,-2.9800000190734863,-4.465000152587891,0.18000000715255737,-0.2775000035762787,0.0949999988079071,0.0,0.0,0.0,-45.07693991814469,0.0,0.0,0.0,0.0,352.388,0.434,904.553,-0.8801777648799707,-59.769868568236724,-179.45576723824806
78.59155344963074,0.0,0.0,-126.21498192864512,0.0,0.0,0.0,0.0,24,26,29,24,27,26,0,2.7506911888605673e-17,-16.912860870361328,-21.5447998046875,-0.12500452995300293,-0.5047615766525269,0.004915623459964991,0.0,0.09749999642372131,-2.880000114440918,-3.759999990463257,0.12999999523162842,-0.0925000011920929,0.07249999791383743,0.0,0.0,0.0,0.0,0.0,0.0,0.0,0.0,313.705,0.268,934.054,-0.7930308842405723,-53.76148935381784,-179.55735265532476
79.09218168258667,0.0,0.0,-116.98950199034617,0.0,0.0,0.0,0.0,24,26,29,24,27,26,0,-0.00039447532617487013,-19.883699417114258,-18.62754249572754,-0.13742217421531677,-1.084584355354309,0.005361673887819052,0.0,0.10999999940395355,-3.067500114440918,-1.5950000286102295,0.04500000178813934,0.1525000035762787,0.03999999910593033,0.0,0.0,0.0,44.97150228792721,0.0,0.0,0.0,0.0,371.767,0.529,887.138,-0.9436614885804657,-62.9865682216602,-179.38466317587233
79.59286546707153,0.0,0.0,-99.00086175863933,0.0,0.0,0.0,0.0,24,26,29,24,27,26,0,-5.1477829401846975e-05,-24.278005599975586,-18.25509262084961,-0.15253311395645142,-2.065098285675049,0.005955889821052551,0.0,0.19249999523162842,-3.6675000190734863,-1.5299999713897705,-1.5881393422567669e-15,-0.05999999865889549,0.019999999552965164,0.0,0.0,0.0,44.97150228792721,0.0,0.0,0.0,0.0,460.013,1.136,771.941,-2.1648637331223024,-80.9719425939348,-178.12243715319914
80.09330677986145,0.0,0.0,-78.08280291198761,0.0,0.0,0.0,0.0,24,26,29,24,27,26,0,3.829008302160002e-18,-26.563520431518555,-22.189424514770508,-0.15159820020198822,-2.9153170585632324,0.005961380898952484,0.0,6.683022191200649e-16,-4.869999885559082,-3.872499942779541,-0.07999999821186066,-0.48500001430511475,-0.004999999888241291,0.0,0.0,0.0,0.0,0.0,0.0,0.0,0.0,512.082,1.934,611.688,-178.89111733114663,-78.10176781500644,-1.3499458611077326
80.59370636940002,0.0,0.0,-78.08280291198761,0.0,0.0,0.0,0.0,24,26,29,24,27,26,0,3.829008302160002e-18,-26.563520431518555,-22.06334114074707,-0.15159820020198822,-2.9153170585632324,0.005961380898952484,0.0,0.04749999940395355,-4.322500228881836,-3.5850000381469727,-0.14000000059604645,-0.699999988079071,-0.019999999552965164,0.0,0.0,0.0,0.0,0.0,0.0,0.0,0.0,512.082,1.934,611.688,-178.89111733114663,-78.10176781500644,-1.3499458611077326
81.0943820476532,0.0,0.0,-65.1391706579667,0.0,0.0,0.0,0.0,24,26,29,24,27,26,0,7.704206369724965e-18,-26.698543548583984,-24.15195083618164,-0.14057978987693787,-3.2746641635894775,0.005528097506612539,0.0,0.10999999940395355,-4.602499961853027,-4.215000152587891,-0.2199999988079071,-0.49000000953674316,-0.019999999552965164,0.0,0.0,0.0,0.0,0.0,0.0,0.0,0.0,514.033,2.433,507.083,-179.61453384327882,-65.16008361748898,-0.5970220225263179
81.59504866600037,0.0,0.0,-65.1391706579667,0.0,0.0,0.0,0.0,24,26,29,24,27,26,0,7.704206369724965e-18,-26.698543548583984,-22.198366165161133,-0.14057978987693787,-3.2746641635894775,0.005528097506612539,0.0,0.11999999731779099,-3.924999952316284,-3.9000000953674316,-0.17249999940395355,-0.3700000047683716,5.463511587588954e-15,0.0,0.0,0.0,0.0,0.0,0.0,0.0,0.0,514.033,2.433,507.083,-179.61453384327882,-65.16008361748898,-0.5970220225263179
82.09544277191162,0.0,0.0,-58.36022050487637,0.0,0.0,0.0,0.0,24,26,29,24,27,26,0,-1.0582864384580956e-17,-26.317270278930664,-21.817092895507812,-0.1319080889225006,-3.397292137145996,0.005187095608562231,0.0,0.11500000208616257,-4.457499980926514,-3.3399999141693115,-0.10000000149011612,-0.39500001072883606,0.019999999552965164,0.0,0.0,0.0,0.0,0.0,0.0,0.0,0.0,505.645,2.686,452.849,-179.75387717905463,-58.38147723907573,-0.44169316426635163
82.59610557556152,0.0,0.0,-62.55014626910906,0.0,0.0,0.0,0.0,24,26,29,24,27,26,0,0.0006293504848144948,-26.984764099121094,-31.99917221069336,-0.13684909045696259,-3.3721442222595215,0.0053391233086586,0.0,0.13750000298023224,-4.4375,-7.360000133514404,-0.05000000074505806,-0.46000000834465027,0.029999999329447746,0.0,0.0,0.0,-44.979275043202676,0.0,0.0,0.0,0.0,511.588,2.531,486.257,-179.6762413978144,-62.571231115969866,-0.5292984111418545
83.09672260284424,0.0,0.0,-75.73591048735226,0.0,0.0,0.0,0.0,24,26,29,24,27,26,0,-6.2942774292186355e-18,-26.67218589782715,-31.085250854492188,-0.15016092360019684,-2.992107629776001,0.005904861725866795,0.0,0.07500000298023224,-3.5875000953674316,-5.425000190734863,0.007499999832361937,-0.550000011920929,0.057500001043081284,0.0,0.0,0.0,0.0,0.0,0.0,0.0,0.0,514.19,2.025,592.796,-179.12110259011217,-75.75550564394572,-1.1146893904270165
83.59722375869751,0.0,0.0,-77.96563304288337,0.0,0.0,0.0,0.0,24,26,29,24,27,26,0,0.009114115498960018,-32.494171142578125,-33.4098014831543,-0.17501717805862427,-3.715562343597412,0.007311627268791199,0.0,-0.029999999329447746,-4.1875,-7.537499904632568,0.054999999701976776,-0.5799999833106995,0.07000000029802322,0.0,0.0,0.0,-42.86498657053065,0.0,0.0,0.0,0.0,512.205,1.939,610.746,-178.90469643089122,-77.9845979459022,-1.3360802824655666
84.09783911705017,0.0,0.0,-104.98746857684324,0.0,0.0,0.0,0.0,24,26,29,24,27,26,0,-0.00016150594456121325,-23.095630645751953,-19.5126895904541,-0.14937105774879456,-1.7756210565567017,0.005831392481923103,0.0,0.15000000596046448,-3.609999895095825,-5.182499885559082,0.12999999523162842,-0.5199999809265137,0.09749999642372131,0.0,0.0,0.0,-45.05343382211609,0.0,0.0,0.0,0.0,434.721,0.923,813.289,-1.4301026566465347,-74.98728383223431,-178.87066273786047
84.59846425056458,0.0,0.0,-123.00882469865205,0.0,0.0,0.0,0.0,24,26,29,24,27,26,0,-0.0004977267235517502,-18.166120529174805,-15.358439445495605,-0.12977221608161926,-0.750288188457489,0.005060696043074131,0.0,0.11249999701976776,-2.7925000190734863,-4.457499980926514,0.1599999964237213,-0.32749998569488525,0.11999999731779099,0.0,0.0,0.0,-45.05343382211609,0.0,0.0,0.0,0.0,334.732,0.354,918.817,-0.8353724653007403,-56.96753199225188,-179.50727614403033
85.09889149665833,0.0,0.0,-126.66996771375851,0.0,0.0,0.0,0.0,24,26,29,24,27,26,0,1.2241944675081626e-17,-16.765533447265625,-12.265355110168457,-0.12427366524934769,-0.4772498607635498,0.004886882845312357,0.0,0.07500000298023224,-2.872499942779541,-2.0950000286102295,0.12250000238418579,0.1599999964237213,0.14000000059604645,0.0,0.0,0.0,0.0,0.0,0.0,0.0,0.0,310.653,0.256,936.121,-0.7877023767458557,-53.30650356870446,-179.56382707840976
85.59944319725037,0.0,0.0,-125.88174967499704,0.0,0.0,0.0,0.0,24,26,29,24,27,26,0,2.4400114152085107e-17,-17.0202579498291,-8.107950210571289,-0.125534787774086,-0.5248895883560181,0.0049364748410880566,0.0,0.04749999940395355,-2.390000104904175,-1.4149999618530273,0.09000000357627869,0.19750000536441803,0.1599999964237213,0.0,0.0,0.0,0.0,0.0,0.0,0.0,0.0,315.93,0.276,932.526,-0.7970988845860013,-54.094664311686415,-179.55253980984568
86.10007429122925,0.0,0.0,-116.82958946972514,0.0,0.0,0.0,0.0,24,26,29,24,27,26,0,-0.00039197682053782046,-19.930349349975586,-17.255905151367188,-0.13761849701404572,-1.0939408540725708,0.005369347520172596,0.0,0.11249999701976776,-2.747499942779541,-1.3550000190734863,0.05249999836087227,0.07249999791383743,0.1875,0.0,0.0,0.0,44.995985101007115,0.0,0.0,0.0,0.0,372.704,0.534,886.245,-0.947213826910277,-63.14642344650169,-179.3807097670859
86.60069608688354,0.0,0.0,-98.8312089555011,0.0,0.0,0.0,0.0,24,26,29,24,27,26,0,-4.821860420634039e-05,-24.311107635498047,-19.519256591796875,-0.15260516107082367,-2.07358455657959,0.005958676803857088,0.0,0.1525000035762787,-3.634999990463257,-1.75,0.029999999329447746,-0.07000000029802322,0.20000000298023224,0.0,0.0,0.0,44.995985101007115,0.0,0.0,0.0,0.0,460.666,1.143,770.732,-2.2002725248613872,-81.14153810129352,-178.08668458678295
87.10131311416626,0.0,0.0,-71.83360953627523,0.0,0.0,0.0,0.0,24,26,29,24,27,26,0,0.00046553483116440475,-27.163955688476562,-21.109331130981445,-0.14694559574127197,-3.145340919494629,0.005736122839152813,0.0,0.03999999910593033,-4.474999904632568,-2.0274999141693115,-1.6158949178723958e-15,-0.41999998688697815,0.20250000059604645,0.0,0.0,0.0,44.995985101007115,0.0,0.0,0.0,0.0,515.978,2.177,561.243,-179.3709121887892,-71.85383494644336,-0.8559989459254499
87.60192060470581,0.0,0.0,-60.62162762647821,0.0,0.0,0.0,0.0,24,26,29,24,27,26,0,-1.3529926100192019e-17,-26.47871971130371,-23.063249588012695,-0.1350124478340149,-3.361593246459961,0.005309170112013817,0.0,0.03999999910593033,-4.84499979019165,-4.025000095367432,-0.029999999329447746,-0.6474999785423279,0.20250000059604645,0.0,0.0,0.0,0.0,0.0,0.0,0.0,0.0,509.156,2.603,470.826,-179.71485875320622,-60.642769769118544,-0.48615468916850346
88.10253882408142,0.0,0.0,-56.045642899886374,0.0,0.0,0.0,0.0,24,26,29,24,27,26,0,0.0007299807039089501,-26.541128158569336,-18.350570678710938,-0.1283673197031021,-3.4681661128997803,0.005005296319723129,0.0,0.007499999832361937,-3.444999933242798,-1.5425000190734863,-0.07999999821186066,-0.6949999928474426,0.20499999821186066,0.0,0.0,0.0,45.13539609215625,0.0,0.0,0.0,0.0,501.32,2.77,434.608,-179.78819735098298,-56.06701422564476,-0.40187259750475945
88.60315465927124,0.0,0.0,-52.7334311820146,0.0,0.0,0.0,0.0,24,26,29,24,27,26,0,3.688187585753872e-17,-25.768753051757812,-21.26857566833496,-0.12330347299575806,-3.4630539417266846,0.004848731216043234,0.0,0.19499999284744263,-4.534999847412109,-3.315000057220459,-0.10000000149011612,-0.4975000023841858,0.20000000298023224,0.0,0.0,0.0,0.0,0.0,0.0,0.0,0.0,493.857,2.888,408.841,-179.82939301645288,-52.75491709933201,-0.3525409313439955
89.10346984863281,0.0,0.0,-65.02990760643526,0.0,0.0,0.0,0.0,24,26,29,24,27,26,0,0.0005894509376958013,-27.092514038085938,-21.036714553833008,-0.1398286670446396,-3.3226516246795654,0.005456234328448772,0.0,0.08500000089406967,-4.360000133514404,-5.447500228881836,-0.15000000596046448,-0.41999998688697815,0.20749999582767487,0.0,0.0,0.0,-45.00948496990165,0.0,0.0,0.0,0.0,513.949,2.438,506.202,-179.61739863225446,-65.05076327017802,-0.5938707546530982
89.60410332679749,0.0,0.0,-83.03367392393355,0.0,0.0,0.0,0.0,24,26,29,24,27,26,0,0.00026556183001957834,-26.60106086730957,-21.96784019470215,-0.1533135622739792,-2.7860846519470215,0.005986508447676897,0.0,0.10000000149011612,-4.71999979019165,-5.610000133514404,-0.17000000178813934,-0.46000000834465027,0.20499999821186066,0.0,0.0,0.0,-45.00948496990165,0.0,0.0,0.0,0.0,505.109,1.741,651.167,-177.8928529646902,-83.0500605168743,-2.359268313010191
90.10494804382324,0.0,0.0,-99.11098424686348,0.0,0.0,0.0,0.0,24,26,29,24,27,26,0,5.910171975876574e-18,-23.979814529418945,-25.2263240814209,-0.15298280119895935,-2.026841878890991,0.0060158283449709415,0.0,0.11749999970197678,-3.140000104904175,-4.402500152587891,-0.20999999344348907,-0.3774999976158142,0.20250000059604645,0.0,0.0,0.0,0.0,0.0,0.0,0.0,0.0,459.587,1.132,772.724,-2.1426329706712264,-80.86193469726967,-178.14495439454777
90.60556054115295,0.0,0.0,-99.19973540932924,0.0,0.0,0.0,0.0,24,26,29,24,27,26,0,0.010131913237273693,-31.252811431884766,-24.402631759643555,-0.17908084392547607,-2.8474409580230713,0.007550017908215523,0.0,0.06750000268220901,-3.8524999618530273,-4.212500095367432,-0.23999999463558197,-0.22499999403953552,0.20499999821186066,0.0,0.0,0.0,-6.606799722357844,0.0,0.0,0.0,0.0,459.243,1.129,773.356,-2.125100462140223,-80.77318353480392,-178.1627160861968
91.10621190071106,0.0,0.0,-124.68896613709367,0.0,0.0,0.0,0.0,24,26,29,24,27,26,0,-0.0005438023363240063,-17.61061668395996,-14.011655807495117,-0.12719804048538208,-0.6474893093109131,0.004958582576364279,0.0,0.07000000029802322,-2.7200000286102295,-4.21999979019165,-0.17499999701976776,-0.18000000715255737,0.20000000298023224,0.0,0.0,0.0,-44.85523197768608,0.0,0.0,0.0,0.0,323.82,0.308,926.949,-0.8121676745979419,-55.28744784958976,-179.53454893507853
91.60683846473694,0.0,0.0,-127.4355539196123,0.0,0.0,0.0,0.0,24,26,29,24,27,26,0,2.7526990870794785e-17,-16.51590919494629,-12.015730857849121,-0.1230262741446495,-0.43089333176612854,0.004837831016629934,0.0,0.13500000536441803,-2.5350000858306885,-2.2799999713897705,-0.07999999821186066,-0.032499998807907104,0.20000000298023224,0.0,0.0,0.0,0.0,0.0,0.0,0.0,0.0,305.482,0.236,939.542,-0.7789934182598672,-52.540974658630155,-179.57442679761965
92.10750317573547,0.0,0.0,-115.6797204706771,0.0,0.0,0.0,0.0,24,26,29,24,27,26,0,-0.0003710146411322057,-20.260906219482422,-15.266463279724121,-0.1390024721622467,-1.1607173681259155,0.005423747934401035,0.0,0.057500001043081284,-3.442500114440918,-1.0075000524520874,0.05249999836087227,0.11999999731779099,0.20499999821186066,0.0,0.0,0.0,45.00788670563586,0.0,0.0,0.0,0.0,379.372,0.57,879.741,-0.9742574348404517,-64.29623514977024,-179.35103055329816
92.60826969146729,0.0,0.0,-97.67652711097394,0.0,0.0,0.0,0.0,24,26,29,24,27,26,0,-2.5650890165707096e-05,-24.52971649169922,-19.306114196777344,-0.1530628651380539,-2.1305959224700928,0.005976653192192316,0.0,-0.07000000029802322,-3.740000009536743,-1.712499976158142,0.12999999523162842,-0.06499999761581421,0.20499999821186066,0.0,0.0,0.0,45.00788670563586,0.0,0.0,0.0,0.0,465.015,1.185,762.452,-2.4825115347428306,-82.29547510068699,-177.80192456260292
93.10890364646912,0.0,0.0,-70.49179967585836,0.0,0.0,0.0,0.0,24,26,29,24,27,26,0,0.0004895501770079136,-27.177711486816406,-24.133638381958008,-0.1457846611738205,-3.1823506355285645,0.005690447986125946,0.0,0.08250000327825546,-4.462500095367432,-2.555000066757202,0.14000000059604645,-0.46000000834465027,0.20000000298023224,0.0,0.0,0.0,45.00788670563586,0.0,0.0,0.0,0.0,516.095,2.229,550.375,-179.43342188423796,-70.51219697336502,-0.7904525741624837
93.6096498966217,0.0,0.0,-52.488606316155206,0.0,0.0,0.0,0.0,24,26,29,24,27,26,0,0.0007775348494760692,-26.164138793945312,-22.686813354492188,-0.12277699261903763,-3.505418062210083,0.004785704892128706,0.0,0.07500000298023224,-4.744999885559082,-2.302500009536743,0.14000000059604645,-0.6924999952316284,0.20250000059604645,0.0,0.0,0.0,45.00788670563586,0.0,0.0,0.0,0.0,493.246,2.896,406.955,-179.8321432138695,-52.510149529252125,-0.3491604803527237
94.11024928092957,0.0,0.0,-25.55643867713329,0.0,0.0,0.0,0.0,24,26,29,24,27,26,0,0.003922289237380028,-23.368587493896484,-18.955514907836914,-0.09088051319122314,-4.102560043334961,0.004006274975836277,0.0,0.03999999910593033,-3.952500104904175,-1.7625000476837158,0.14000000059604645,-0.7799999713897705,0.20749999582767487,0.0,0.0,0.0,39.27234804823896,0.0,0.0,0.0,0.0,380.243,3.699,222.693,-179.9937746078759,-25.57855484802534,-0.11384671389249458
94.61089968681335,0.0,0.0,-23.989857473686595,0.0,0.0,0.0,0.0,24,26,29,24,27,26,0,1.1222403211079392e-17,-19.955163955688477,-15.454985618591309,-0.06299372017383575,-3.277036666870117,0.0024771373718976974,0.0,0.11249999701976776,-2.952500104904175,-2.4600000381469727,0.14000000059604645,-0.7300000190734863,0.20250000059604645,0.0,0.0,0.0,0.0,0.0,0.0,0.0,0.0,371.15,3.735,213.842,-179.9981863828984,-24.011973644578646,-0.10450750183186217
95.11145639419556,0.0,0.0,-38.07379033157687,0.0,0.0,0.0,0.0,24,26,29,24,27,26,0,0.0009566574008204043,-23.735780715942383,-15.439958572387695,-0.0947430357336998,-3.517481565475464,0.0036833707708865404,0.0,0.07249999791383743,-3.680000066757202,-4.46999979019165,0.14000000059604645,-0.5950000286102295,0.20749999582767487,0.0,0.0,0.0,-44.97545013726747,0.0,0.0,0.0,0.0,443.55,3.365,301.636,-179.94369809658147,-38.09567731935087,-0.2002487493982227
95.61217331886292,0.0,0.0,-42.44299458990599,0.0,0.0,0.0,0.0,24,26,29,24,27,26,0,-1.3831530006804113e-18,-24.240575790405273,-19.74039649963379,-0.10456062108278275,-3.496762990951538,0.004111695569008589,0.0,-0.0024999999441206455,-3.565000057220459,-4.199999809265137,0.12999999523162842,-0.5099999904632568,0.20000000298023224,0.0,0.0,0.0,0.0,0.0,0.0,0.0,0.0,461.393,3.231,332.19,-179.91802958735963,-42.464824281900476,-0.23766289342026548
96.11278772354126,0.0,0.0,-36.823711014160445,0.0,0.0,0.0,0.0,24,26,29,24,27,26,0,3.167962448862942e-17,-23.134016036987305,-17.333250045776367,-0.09286262840032578,-3.46760630607605,0.003651689039543271,0.0,0.11500000208616257,-3.6524999141693115,-3.0250000953674316,0.08749999850988388,-0.41999998688697815,0.20999999344348907,0.0,0.0,0.0,0.0,0.0,0.0,0.0,0.0,438.021,3.402,293.153,-179.95011522388694,-36.845655297713954,-0.19039387532197255
96.61305451393127,0.0,0.0,-36.823711014160445,0.0,0.0,0.0,0.0,24,26,29,24,27,26,0,3.167962448862942e-17,-23.134016036987305,-18.63383674621582,-0.09286262840032578,-3.46760630607605,0.003651689039543271,0.0,0.08250000327825546,-3.8575000762939453,-3.0850000381469727,0.05999999865889549,-0.46000000834465027,0.20499999821186066,0.0,0.0,0.0,0.0,0.0,0.0,0.0,0.0,438.021,3.402,293.153,-179.95011522388694,-36.845655297713954,-0.19039387532197255
97.11379718780518,0.0,0.0,-24.915986453736057,0.0,0.0,0.0,0.0,24,26,29,24,27,26,0,-1.1477476760669306e-17,-20.212560653686523,-17.591100692749023,-0.06527352333068848,-3.296433210372925,0.0025667871814221144,0.0,0.03500000014901161,-3.4175000190734863,-3.069999933242798,0.019999999552965164,-0.5299999713897705,0.20999999344348907,0.0,0.0,0.0,0.0,0.0,0.0,0.0,0.0,376.555,3.714,219.045,-179.99560807282035,-24.93815992040762,-0.11000789666511807
97.61442804336548,0.0,0.0,-24.915986453736057,0.0,0.0,0.0,0.0,24,26,29,24,27,26,0,-1.1477476760669306e-17,-20.212560653686523,-15.712382316589355,-0.06527352333068848,-3.296433210372925,0.0025667871814221144,0.0,0.06499999761581421,-3.049999952316284,-2.259999990463257,-1.6210990883003262e-15,-0.5799999833106995,0.20250000059604645,0.0,0.0,0.0,0.0,0.0,0.0,0.0,0.0,376.555,3.714,219.045,-179.99560807282035,-24.93815992040762,-0.11000789666511807
98.11505675315857,0.0,0.0,-48.006128301728715,0.0,0.0,0.0,0.0,24,26,29,24,27,26,0,0.0008425221894867718,-25.52002716064453,-22.342178344726562,-0.11440583318471909,-3.534952402114868,0.0044565461575984955,0.0,0.10499999672174454,-4.070000171661377,-5.675000190734863,-0.04749999940395355,-0.6499999761581421,0.20000000298023224,0.0,0.0,0.0,-44.994598572605604,0.0,0.0,0.0,0.0,480.655,3.05,372.909,-179.87614637253554,-48.02778610638466,-0.2939846446816254
98.6154510974884,0.0,0.0,-66.00393585815765,0.0,0.0,0.0,0.0,24,26,29,24,27,26,0,0.0005727587267756462,-27.1227970123291,-26.281553268432617,-0.14092813432216644,-3.3014721870422363,0.0054994975216686726,0.0,0.10000000149011612,-4.764999866485596,-6.362500190734863,-0.07249999791383743,-0.6899999976158142,0.20499999821186066,0.0,0.0,0.0,-44.994598572605604,0.0,0.0,0.0,0.0,514.64,2.401,514.062,-179.5908706863399,-66.02479152190041,-0.6226905317481787
99.11611342430115,0.0,0.0,-93.00073313647033,0.0,0.0,0.0,0.0,24,26,29,24,27,26,0,7.284845196409151e-05,-25.386072158813477,-27.198354721069336,-0.15432973206043243,-2.3689181804656982,0.006026495713740587,0.0,0.09749999642372131,-4.394999980926514,-6.522500038146973,-0.10999999940395355,-0.6499999761581421,0.20000000298023224,0.0,0.0,0.0,-44.994598572605604,0.0,0.0,0.0,0.0,480.895,1.359,728.078,-5.823829508607252,-86.96273200404318,-174.4500068695286
99.61677575111389,0.0,0.0,-110.99854069289925,0.0,0.0,0.0,0.0,24,26,29,24,27,26,0,-0.0002763907832559198,-21.63283920288086,-23.244653701782227,-0.1444016546010971,-1.447684645652771,0.00563608855009079,0.0,0.10499999672174454,-3.7850000858306885,-5.832499980926514,-0.13750000298023224,-0.4675000011920929,0.20000000298023224,0.0,0.0,0.0,-44.994598572605604,0.0,0.0,0.0,0.0,405.127,0.719,851.926,-1.1157780102377652,-68.97701385709149,-179.19868107557286
100.11721801757812,0.0,0.0,-118.43054814087971,0.0,0.0,0.0,0.0,24,26,29,24,27,26,0,1.983081973354016e-17,-19.30463409423828,-14.80445671081543,-0.1362512856721878,-0.9690842032432556,0.005357885267585516,0.0,0.10999999940395355,-3.434999942779541,-2.6475000381469727,-0.17749999463558197,0.004999999888241291,0.20250000059604645,0.0,0.0,0.0,0.0,0.0,0.0,0.0,0.0,363.207,0.486,895.074,-0.9133520212180454,-61.54552207112666,-179.41835309422603
100.61787295341492,0.0,0.0,-110.28669792822872,0.0,0.0,0.0,0.0,24,26,29,24,27,26,0,-0.000269320938969031,-21.723453521728516,-17.609107971191406,-0.1447378695011139,-1.46728515625,0.0056493706069886684,0.0,0.10499999672174454,-2.7750000953674316,-1.4175000190734863,-0.20999999344348907,0.1550000011920929,0.20749999582767487,0.0,0.0,0.0,44.962158589142625,0.0,0.0,0.0,0.0,408.841,0.743,847.516,-1.1431080970655054,-69.68879932598252,-179.16968941113925
101.1184995174408,0.0,0.0,-83.12952976305894,0.0,0.0,0.0,0.0,24,26,29,24,27,26,0,0.0002563434827607125,-26.559085845947266,-24.470783233642578,-0.15346290171146393,-2.768643379211426,0.005992469843477011,0.0,0.11249999701976776,-4.127500057220459,-2.615000009536743,-0.18000000715255737,-0.30250000953674316,0.20000000298023224,0.0,0.0,0.0,44.962158589142625,0.0,0.0,0.0,0.0,504.94,1.738,651.925,-177.85927763789553,-83.14585906022016,-2.3930728229229095
101.61912488937378,0.0,0.0,-72.28796506781399,0.0,0.0,0.0,0.0,24,26,29,24,27,26,0,1.0614582625169302e-17,-26.76433563232422,-22.74810028076172,-0.147593155503273,-3.0957889556884766,0.005803887732326984,0.0,0.09000000357627869,-4.695000171661377,-3.9700000286102295,-0.13249999284744263,-0.6274999976158142,0.20499999821186066,0.0,0.0,0.0,0.0,0.0,0.0,0.0,0.0,515.88,2.159,564.922,-179.34753551074786,-72.3081331822026,-0.880406947998023
102.11945414543152,0.0,0.0,-76.83306736924825,0.0,0.0,0.0,0.0,24,26,29,24,27,26,0,0.00038075048360042274,-27.02066421508789,-28.93714714050293,-0.15033353865146637,-3.0043790340423584,0.005869431886821985,0.0,0.009999999776482582,-4.5625,-6.824999809265137,-0.05999999865889549,-0.75,0.20999999344348907,0.0,0.0,0.0,-44.95150349403741,0.0,0.0,0.0,0.0,513.301,1.983,601.638,-179.02387165227844,-76.85237604694417,-1.2143840467797797
102.62007403373718,0.0,0.0,-94.81368619182328,0.0,0.0,0.0,0.0,24,26,29,24,27,26,0,3.734349593287334e-05,-25.09530258178711,-25.742671966552734,-0.1540118157863617,-2.2849998474121094,0.006014075130224228,0.0,0.03750000149011612,-4.590000152587891,-6.267499923706055,-0.009999999776482582,-0.6575000286102295,0.20499999821186066,0.0,0.0,0.0,-44.95150349403741,0.0,0.0,0.0,0.0,475.072,1.291,741.559,-3.7636451646553515,-85.15505016040541,-176.51431650960544
103.12071895599365,0.0,0.0,-121.78458577779601,0.0,0.0,0.0,0.0,24,26,29,24,27,26,0,-0.0004739348660223186,-18.548757553100586,-16.64629554748535,-0.13153845071792603,-0.8231242895126343,0.005130342673510313,0.0,0.11999999731779099,-3.492500066757202,-4.679999828338623,0.05000000074505806,-0.29750001430511475,0.20250000059604645,0.0,0.0,0.0,-44.95150349403741,0.0,0.0,0.0,0.0,342.531,0.388,912.692,-0.8538790020834658,-58.19171361732838,-179.4857902267129
103.62135624885559,0.0,0.0,-125.61045415900259,0.0,0.0,0.0,0.0,24,26,29,24,27,26,0,3.988122944993355e-17,-17.10739517211914,-12.607215881347656,-0.12596341967582703,-0.5412657260894775,0.0049533299170434475,0.0,0.05999999865889549,-2.627500057220459,-2.4100000858306885,0.09749999642372131,0.0024999999441206455,0.20000000298023224,0.0,0.0,0.0,0.0,0.0,0.0,0.0,0.0,317.735,0.284,931.272,-0.80042203979776,-54.366017123460374,-179.54852910527975
104.12198972702026,0.0,0.0,-113.68382199133887,0.0,0.0,0.0,0.0,24,26,29,24,27,26,0,-0.0003335030050948262,-20.819061279296875,-16.05027198791504,-0.14127211272716522,-1.2754557132720947,0.005513051059097052,0.0,0.05999999865889549,-3.627500057220459,-1.1449999809265137,0.16750000417232513,0.1550000011920929,0.20499999821186066,0.0,0.0,0.0,44.97994098664675,0.0,0.0,0.0,0.0,390.63,0.632,868.14,-1.0275425097876183,-66.29196174176992,-179.29304722443092
104.62264347076416,0.0,0.0,-95.69185860442028,0.0,0.0,0.0,0.0,24,26,29,24,27,26,0,1.3190029676479753e-05,-24.88576316833496,-17.898197174072266,-0.15370482206344604,-2.2265145778656006,0.006001949775964022,0.0,0.017500000074505806,-3.802500009536743,-1.4674999713897705,0.14000000059604645,-0.15000000596046448,0.20000000298023224,0.0,0.0,0.0,44.97994098664675,0.0,0.0,0.0,0.0,472.098,1.258,748.021,-3.234289457733984,-84.27819555073721,-177.04567756880977
105.12328863143921,0.0,0.0,-68.70388487615263,0.0,0.0,0.0,0.0,24,26,29,24,27,26,0,0.000520157627761364,-27.17593765258789,-25.23259735107422,-0.14411397278308868,-3.2289066314697266,0.005624803248792887,0.0,0.06750000268220901,-4.539999961853027,-2.747499942779541,0.057500001043081284,-0.6150000095367432,0.1599999964237213,0.0,0.0,0.0,44.97994098664675,0.0,0.0,0.0,0.0,515.857,2.297,535.896,-179.50429676349566,-68.72451135677734,-0.7155096945593721
105.62394762039185,0.0,0.0,-51.07288490016645,0.0,0.0,0.0,0.0,24,26,29,24,27,26,0,0.011493073776364326,-32.650909423828125,-22.316316604614258,-0.16136865317821503,-4.78026819229126,0.007121278904378414,0.0,0.1599999964237213,-4.644999980926514,-2.617500066757202,-1.6158949178723958e-15,-0.7699999809265137,0.14000000059604645,0.0,0.0,0.0,28.06179293140966,0.0,0.0,0.0,0.0,489.558,2.946,396.097,-179.84726929966095,-51.09448540904288,-0.330596647790485
106.12460947036743,0.0,0.0,-50.300308609212045,0.0,0.0,0.0,0.0,24,26,29,24,27,26,0,3.27458160440475e-18,-25.467697143554688,-20.967517852783203,-0.11920925229787827,-3.4811813831329346,0.004687732085585594,0.0,0.0024999999441206455,-3.4600000381469727,-3.762500047683716,-0.07500000298023224,-0.7649999856948853,0.11500000208616257,0.0,0.0,0.0,-0.03064283996341554,0.0,0.0,0.0,0.0,487.432,2.972,390.211,-179.85500422989523,-50.321909118088485,-0.3209136610527741
106.62522912025452,0.0,0.0,-65.49033649060239,0.0,0.0,0.0,0.0,24,26,29,24,27,26,0,0.0005825975676998496,-27.10834312438965,-24.055198669433594,-0.1403525173664093,-3.3128347396850586,0.005476773716509342,0.0,0.07000000029802322,-4.965000152587891,-5.974999904632568,-0.12999999523162842,-0.7250000238418579,0.09000000357627869,0.0,0.0,0.0,-45.04173029297328,0.0,0.0,0.0,0.0,514.293,2.42,509.916,-179.60513733543868,-65.51119215434514,-0.6072206712796464
107.1258339881897,0.0,0.0,-92.515380588215,0.0,0.0,0.0,0.0,24,26,29,24,27,26,0,8.249928941950202e-05,-25.46094512939453,-23.267324447631836,-0.15438790619373322,-2.391065835952759,0.006028695032000542,0.0,0.02500000037252903,-4.46750020980835,-5.837500095367432,-0.20999999344348907,-0.6299999952316284,0.057500001043081284,0.0,0.0,0.0,-45.04173029297328,0.0,0.0,0.0,0.0,482.382,1.377,724.439,-6.870050442516136,-87.44539165066138,-173.40269731580895
107.62646079063416,0.0,0.0,-110.53203845610375,0.0,0.0,0.0,0.0,24,26,29,24,27,26,0,-0.0002680921752471477,-21.75385093688965,-22.221599578857422,-0.14484450221061707,-1.4738249778747559,0.005653414409607649,0.0,0.012500000186264515,-4.037499904632568,-5.65500020980835,-0.2175000011920929,-0.4699999988079071,0.03500000014901161,0.0,0.0,0.0,-45.04173029297328,0.0,0.0,0.0,0.0,407.567,0.735,849.041,-1.1334824061073074,-69.44345879810749,-179.1798880598926
108.12719178199768,0.0,0.0,-125.54198570248444,0.0,0.0,0.0,0.0,24,26,29,24,27,26,0,3.159895121784835e-17,-17.12933349609375,-18.321674346923828,-0.12607111036777496,-0.5453953742980957,0.004957564640790224,0.0,0.1599999964237213,-2.625,-3.197499990463257,-0.10999999940395355,-0.05000000074505806,5.460042140637e-15,0.0,0.0,0.0,0.0,0.0,0.0,0.0,0.0,318.189,0.285,930.954,-0.8012814764904562,-54.434428284198994,-179.5474977812485
108.62747097015381,0.0,0.0,-125.37938028022634,0.0,0.0,0.0,0.0,24,26,29,24,27,26,0,-0.012760451063513756,-19.43000030517578,-5.609743595123291,-0.08886067569255829,0.6222613453865051,0.002763547236099839,0.0,0.14749999344348907,-2.9000000953674316,-1.7925000190734863,-0.042500000447034836,0.19750000536441803,-0.017500000074505806,0.0,0.0,0.0,12.0850771702321,0.0,0.0,0.0,0.0,319.267,0.29,930.197,-0.8032868287734142,-54.59703370645712,-179.54509135850896
109.12809133529663,0.0,0.0,-99.39425458077616,0.0,0.0,0.0,0.0,24,26,29,24,27,26,0,-5.9211648476775736e-05,-24.20160484313965,-18.83100700378418,-0.15235939621925354,-2.045485734939575,0.005949020851403475,0.0,0.13750000298023224,-3.6024999618530273,-1.6299999952316284,0.05000000074505806,-0.06499999761581421,-0.019999999552965164,0.0,0.0,0.0,44.991518157289924,0.0,0.0,0.0,0.0,458.485,1.122,774.737,-2.0878009096772066,-80.57877895491603,-178.2004167091164
109.62874674797058,0.0,0.0,-81.397650235717,0.0,0.0,0.0,0.0,24,26,29,24,27,26,0,0.00028953811852261424,-26.708660125732422,-23.200130462646484,-0.1528465300798416,-2.833712577819824,0.005968176759779453,0.0,0.11749999970197678,-4.135000228881836,-2.3924999237060547,0.11999999731779099,-0.38999998569488525,-0.019999999552965164,0.0,0.0,0.0,44.991518157289924,0.0,0.0,0.0,0.0,507.79,1.805,638.189,-178.3504743556612,-81.415182744248,-1.8979799921503653
110.12936091423035,0.0,0.0,-54.40274371812826,0.0,0.0,0.0,0.0,24,26,29,24,27,26,0,0.0007495481404475868,-26.375913619995117,-24.317481994628906,-0.125846728682518,-3.4868686199188232,0.004906448535621166,0.0,0.11749999970197678,-4.702499866485596,-2.5875000953674316,0.1899999976158142,-0.7450000047683716,5.550247761387794e-15,0.0,0.0,0.0,44.991518157289924,0.0,0.0,0.0,0.0,497.804,2.829,421.773,-179.80968326830038,-54.42417233966615,-0.37637597562143776
