Time (s),Pos_0,Pos_1,Pos_2,Pos_3,Pos_4,Pos_5,Pos_6,Temp_0,Temp_1,Temp_2,Temp_3,Temp_4,Temp_5,Temp_6,Torque_0,Torque_1,Torque_2,Torque_3,Torque_4,Torque_5,Torque_6,Current_0,Current_1,Current_2,Current_3,Current_4,Current_5,Current_6,Velocity_0,Velocity_1,Velocity_2,Velocity_3,Velocity_4,Velocity_5,Velocity_6,Tool_X,Tool_Y,Tool_Z,Tool_Roll,Tool_Pitch,Tool_Yaw
1.430511474609375e-06,-0.0,0.00040107045659157624,-0.12209730614237843,0.0,0.00028647889756541165,-0.0,0.0,24,27,30,25,28,26,0,-0.0020421778317540884,-17.277870178222656,-8.462865829467773,-0.033652082085609436,-4.724898338317871,0.0019685947336256504,0.0,0.26750001311302185,-3.234999895095825,-0.6800000071525574,-0.17000000178813934,-0.9925000071525574,0.009999999776482582,0.0,0.0005685209612253687,-0.0327157990414611,10.09264268744768,-0.0009690698783023372,-0.02367114614916985,0.00016797210928616,0.0,257.517,4.12,113.638,179.9674758450794,-0.14386970235734972,0.018162762105647098
0.5006313323974609,0.0,0.0,0.0,0.0,0.0,-0.0,0.0,24,27,30,25,28,26,0,0.0,-14.196634292602539,-9.153251647949219,-4.003883448814899e-16,-3.266948938369751,-1.7458432649513574e-19,0.0,0.19249999523162842,-2.452500104904175,-1.5075000524520874,-0.12999999523162842,-0.7749999761581421,0.054999999701976776,0.0,0.0,0.0,0.0,0.0,0.0,0.0,0.0,256.587,4.121,113.204,179.9674758450794,-0.02245994556912827,0.01873571990077792
1.0012180805206299,0.0,0.0,0.0,0.0,0.0,-0.0,0.0,24,27,30,25,28,26,0,0.0,-14.196634292602539,-9.153251647949219,-4.003883448814899e-16,-3.266948938369751,-1.7458432649513574e-19,0.0,0.09000000357627869,-2.059999942779541,-1.8350000381469727,-5.767955557622884e-16,-0.3449999988079071,0.019999999552965164,0.0,0.0,0.0,0.0,0.0,0.0,0.0,0.0,256.587,4.121,113.204,179.9674758450794,-0.02245994556912827,0.01873571990077792
1.5018181800842285,0.0,0.0,-8.767743955768935,0.0,0.0,0.0,0.0,24,27,30,25,28,26,0,0.000498283829074353,-18.0509090423584,-14.007235527038574,-0.02310936339199543,-3.7705445289611816,0.0008899343083612621,0.0,0.19750000536441803,-2.747499942779541,-3.8550000190734863,-0.03999999910593033,-0.9424999952316284,-2.3332030751888055e-16,0.0,0.0,0.0,-30.006506590010492,0.0,0.0,0.0,0.0,320.897,3.991,149.504,179.97366378926682,-8.790089309779038,-0.023548565379876835
2.002030611038208,0.0,0.0,-26.771624864826254,0.0,0.0,0.0,0.0,24,27,31,25,28,26,0,0.0004682530416175723,-24.805194854736328,-24.59489631652832,-0.06931263953447342,-4.485740661621094,0.0027068115305155516,0.0,0.2175000011920929,-4.010000228881836,-5.670000076293945,-0.10000000149011612,-1.059999942779541,-0.029999999329447746,0.0,0.0,0.0,-30.006506590010492,0.0,0.0,0.0,0.0,431.759,3.575,252.268,-179.99005038220756,-26.793741035718305,-0.12123786944968218
2.5026395320892334,0.0,0.0,-38.7742312361243,0.0,0.0,0.0,0.0,24,27,30,25,28,26,0,0.0004223845899105072,-28.266536712646484,-25.467235565185547,-0.0965900868177414,-4.72239875793457,0.0037794578820466995,0.0,0.10000000149011612,-4.862500190734863,-5.855000019073486,-0.07999999821186066,-1.0299999713897705,-0.05000000074505806,0.0,0.0,0.0,-30.006506590010492,0.0,0.0,0.0,0.0,485.535,3.204,337.769,-179.9399165751336,-38.796118223898304,-0.20592103157001787
3.00317645072937,0.0,0.0,-56.778169440961136,0.0,0.0,0.0,0.0,24,27,30,25,28,26,0,0.0003198047343175858,-31.519376754760742,-32.558109283447266,-0.12924890220165253,-4.69140625,0.005063719116151333,0.0,0.10750000178813934,-5.832499980926514,-7.09250020980835,-0.05000000074505806,-0.9900000095367432,-0.05000000074505806,0.0,0.0,0.0,-30.006506590010492,0.0,0.0,0.0,0.0,530.146,2.546,482.2,-179.7778841106706,-56.799483470940004,-0.4139047112025067
3.5037922859191895,0.0,0.0,-68.78077581225918,0.0,0.0,0.0,0.0,24,27,30,25,28,26,0,0.00023325977963395417,-32.25690460205078,-32.085384368896484,-0.14412851631641388,-4.414742469787598,0.005648837890475988,0.0,0.23999999463558197,-6.059999942779541,-7.010000228881836,-0.029999999329447746,-0.9599999785423279,-0.029999999329447746,0.0,0.0,0.0,-30.006506590010492,0.0,0.0,0.0,0.0,533.955,2.068,583.135,-179.50148927029952,-68.80134499710438,-0.7184890750940524
4.004405498504639,0.0,0.0,-77.3084504518683,0.0,0.0,0.0,0.0,24,27,31,25,28,26,0,-3.391390467040354e-18,-31.84246253967285,-35.29679870605469,-0.15115197002887726,-4.071547508239746,0.005943833384662867,0.0,0.2224999964237213,-4.28000020980835,-6.159999847412109,-5.698566618583811e-16,-0.8700000047683716,-2.1250362580715887e-16,0.0,0.0,0.0,0.0,0.0,0.0,0.0,0.0,523.829,1.722,654.246,-178.97648804262113,-77.3276445380052,-1.2628562762478475
4.505002021789551,0.0,0.0,-79.71137814886747,0.0,0.0,0.0,0.0,24,27,30,25,28,26,0,0.00014521014236379415,-31.892833709716797,-46.857696533203125,-0.15220147371292114,-3.995236396789551,0.0059663280844688416,0.0,0.03999999910593033,-5.522500038146973,-9.587499618530273,0.009999999776482582,-0.800000011920929,0.004999999888241291,0.0,0.0,0.0,-29.980394776813533,0.0,0.0,0.0,0.0,519.076,1.626,673.938,-178.669268072872,-79.72971279831165,-1.5754047534917115
5.0055992603302,0.0,0.0,-97.6995600143382,0.0,0.0,0.0,0.0,24,27,30,25,28,26,0,-8.916925253288355e-06,-29.194772720336914,-29.63904571533203,-0.15339726209640503,-3.0006158351898193,0.006013351026922464,0.0,0.26499998569488525,-5.022500038146973,-6.582499980926514,0.03999999910593033,-0.7099999785423279,0.029999999329447746,0.0,0.0,0.0,-29.980394776813533,0.0,0.0,0.0,0.0,458.212,0.927,812.164,-2.4760371116578526,-82.27244219732273,-177.80839898568792
5.506198883056641,0.0,0.0,-109.69173855376488,0.0,0.0,0.0,0.0,24,27,31,25,28,26,0,-0.00011212703975616023,-26.05815315246582,-27.563331604003906,-0.14579911530017853,-2.168562650680542,0.005714564584195614,0.0,0.26249998807907104,-4.170000076293945,-6.1875,0.06499999761581421,-0.6600000262260437,0.03999999910593033,0.0,0.0,0.0,-29.980394776813533,0.0,0.0,0.0,0.0,395.037,0.51,890.863,-1.1675733949175915,-70.28364410888733,-179.14390631035835
6.006794452667236,0.0,0.0,-127.79989778153602,0.0,0.0,0.0,0.0,24,27,30,25,28,26,0,-0.0002573035308159888,-19.639245986938477,-19.51127052307129,-0.12243682146072388,-0.7476605176925659,0.004795876331627369,0.0,0.26249998807907104,-3.319999933242798,-4.815000057220459,0.07000000029802322,-0.48750001192092896,0.07000000029802322,0.0,0.0,0.0,-29.980394776813533,0.0,0.0,0.0,0.0,272.344,0.002,980.642,-0.7749827136939514,-52.17663079670647,-179.57935423465779
6.507124662399292,0.0,0.0,-131.40202614374397,0.0,0.0,0.0,0.0,24,27,31,25,28,26,0,8.554101361898699e-18,-18.04888916015625,-22.447275161743164,-0.1162167489528656,-0.4180816411972046,0.004570056218653917,0.0,0.25999999046325684,-3.427500009536743,-3.9175000190734863,0.03999999910593033,-0.009999999776482582,0.07999999821186066,0.0,0.0,0.0,0.0,0.0,0.0,0.0,0.0,244.901,-0.078,993.637,-0.7394593303958406,-48.574617026057524,-179.62387305533946
7.007749795913696,0.0,0.0,-124.79507792075191,0.0,0.0,0.0,0.0,24,27,31,25,28,26,0,-0.00023684461484663188,-20.730810165405273,-18.205263137817383,-0.12686215341091156,-0.9729442596435547,0.004969864618033171,0.0,0.23000000417232513,-3.307499885559082,-1.9600000381469727,-5.750608322863116e-16,0.05000000074505806,0.07000000029802322,0.0,0.0,0.0,30.005362533324515,0.0,0.0,0.0,0.0,294.574,0.074,968.5,-0.8107352801101149,-55.18133606593153,-179.53615321690492
7.508389472961426,0.0,0.0,-112.79292991568997,0.0,0.0,0.0,0.0,24,27,31,25,28,26,0,-0.00014043359260540456,-25.014202117919922,-18.047687530517578,-0.14252576231956482,-1.918440818786621,0.005585813894867897,0.0,0.10999999940395355,-3.890000104904175,-1.9325000047683716,-0.019999999552965164,-0.5975000262260437,0.04500000178813934,0.0,0.0,0.0,30.005362533324515,0.0,0.0,0.0,0.0,376.136,0.412,908.923,-1.0544715261587672,-67.18279652163932,-179.2641128557768
8.008991479873657,0.0,0.0,-94.7897365559868,0.0,0.0,0.0,0.0,24,27,31,25,28,26,0,1.4299141184892505e-05,-29.75389289855957,-23.74903678894043,-0.15418224036693573,-3.1693994998931885,0.00604418758302927,0.0,0.13249999284744263,-4.974999904632568,-2.927500009536743,-0.05249999836087227,-0.6899999976158142,0.019999999552965164,0.0,0.0,0.0,30.005362533324515,0.0,0.0,0.0,0.0,470.957,1.035,791.205,-3.7807766027297633,-85.17894250046237,-176.49712777575152
8.50960922241211,0.0,0.0,-84.46205770719469,0.0,0.0,0.0,0.0,24,27,31,25,28,26,0,0.0014228575164452195,-32.37331771850586,-30.230403900146484,-0.1579628437757492,-3.900085926055908,0.0062847863882780075,0.0,0.1599999964237213,-5.565000057220459,-4.784999847412109,-0.054999999701976776,-0.7024999856948853,-2.211772431870429e-16,0.0,0.0,0.0,0.0,0.0,0.0,0.0,0.0,507.272,1.436,712.199,-177.27130834853227,-84.47689731408857,-2.9840214928208404
9.010285139083862,0.0,0.0,-84.34110631664257,0.0,0.0,0.0,0.0,24,27,31,25,28,26,0,-0.011249133385717869,-32.89699935913086,-29.891006469726562,-0.1245240643620491,-2.4524037837982178,0.004317247774451971,0.0,0.11999999731779099,-4.909999847412109,-4.567500114440918,-0.029999999329447746,-0.8899999856948853,-0.029999999329447746,0.0,0.0,0.0,8.194625324654933,0.0,0.0,0.0,0.0,507.611,1.44,711.237,-177.33616717094108,-84.35611781087499,-2.918933487293979
9.510876178741455,0.0,0.0,-72.87043396234398,0.0,0.0,0.0,0.0,24,27,31,25,28,26,0,0.0028275104705244303,-34.26955795288086,-27.421485900878906,-0.155389204621315,-4.588453769683838,0.006237084046006203,0.0,0.1850000023841858,-5.360000133514404,-3.5850000381469727,-0.0024999999441206455,-0.75,-0.029999999329447746,0.0,0.0,0.0,28.776850558260172,0.0,0.0,0.0,0.0,530.42,1.902,617.425,-179.3157936488976,-72.89054478095308,-0.9135239085565845
10.01117205619812,0.0,0.0,-71.78645510973597,0.0,0.0,0.0,0.0,24,27,31,25,28,26,0,-8.559915614424334e-18,-32.040191650390625,-26.996809005737305,-0.1471749097108841,-4.286663055419922,0.005787441041320562,0.0,0.2800000011920929,-5.125,-4.722499847412109,0.019999999552965164,-0.8500000238418579,-0.009999999776482582,0.0,0.0,0.0,0.0,0.0,0.0,0.0,0.0,531.595,1.946,608.362,-179.3732613157492,-71.80668051990409,-0.8535352274063874
10.511789560317993,0.0,0.0,-64.70234763495897,0.0,0.0,0.0,0.0,24,27,31,25,28,26,0,-2.2442619356619193e-17,-31.926950454711914,-27.131549835205078,-0.1400790810585022,-4.5041375160217285,0.005508407950401306,0.0,0.1574999988079071,-5.784999847412109,-4.735000133514404,0.03999999910593033,-0.8999999761581421,-2.0556473190325164e-16,0.0,0.0,0.0,0.0,0.0,0.0,0.0,0.0,535.035,2.232,548.775,-179.62587840762242,-64.72326059448123,-0.5847034299310051
11.012387752532959,0.0,0.0,-66.03281293103225,0.0,0.0,0.0,0.0,24,27,30,25,28,26,0,0.005101967137306929,-35.90196990966797,-44.33035659790039,-0.15583916008472443,-5.127591609954834,0.0063947332091629505,0.0,0.16750000417232513,-4.992499828338623,-9.125,-0.08500000089406967,-1.0399999618530273,0.019999999552965164,0.0,0.0,0.0,-29.51820953605711,0.0,0.0,0.0,0.0,534.952,2.179,559.991,-179.59006854542673,-66.053668594775,-0.623549968440875
11.512980937957764,0.0,0.0,-78.04939947253149,0.0,0.0,0.0,0.0,24,27,31,25,28,26,0,0.00015962817997206002,-32.01255798339844,-35.77825164794922,-0.15132459998130798,-4.068853855133057,0.005931767635047436,0.0,0.16750000417232513,-5.675000190734863,-7.622499942779541,-0.05000000074505806,-1.090000033378601,0.03999999910593033,0.0,0.0,0.0,-30.043420347379826,0.0,0.0,0.0,0.0,522.452,1.693,660.339,-178.89501344415353,-78.06836437555032,-1.345935156541817
12.013576030731201,0.0,0.0,-96.07533925670134,0.0,0.0,0.0,0.0,24,27,31,25,28,26,0,5.216049430600833e-06,-29.541828155517578,-27.856529235839844,-0.15391409397125244,-3.1041736602783203,0.006033595651388168,0.0,0.16750000417232513,-4.454999923706055,-6.239999771118164,0.014999999664723873,-0.9399999976158142,0.07000000029802322,0.0,0.0,0.0,-30.02314834592323,0.0,0.0,0.0,0.0,465.457,0.987,800.545,-3.0508856675126075,-83.89517326469226,-177.22994079572385
12.514170408248901,0.0,0.0,-97.5252662530594,0.0,0.0,0.0,0.0,24,27,31,25,28,26,0,3.7357734665967e-18,-29.034698486328125,-33.33427429199219,-0.15360312163829803,-2.9803247451782227,0.006040221080183983,0.0,0.16249999403953552,-4.852499961853027,-5.817500114440918,0.05999999865889549,-0.5425000190734863,0.07999999821186066,0.0,0.0,0.0,0.0,0.0,0.0,0.0,0.0,459.005,0.933,810.927,-2.525884439834234,-82.44656407126298,-177.75820788283448
13.014324188232422,0.0,0.0,-106.89874118984065,0.0,0.0,0.0,0.0,24,27,31,25,28,26,0,-8.860573143465444e-05,-26.876802444458008,-31.153894424438477,-0.14815440773963928,-2.3722026348114014,0.005807131063193083,0.0,0.16750000417232513,-4.682499885559082,-6.815000057220459,0.06750000268220901,-0.7724999785423279,0.09000000357627869,0.0,0.0,0.0,-30.02179938356215,0.0,0.0,0.0,0.0,411.201,0.603,873.743,-1.305598927764607,-73.07629769813448,-178.99946365020588
13.514936208724976,0.0,0.0,-118.90742091376708,0.0,0.0,0.0,0.0,24,27,31,25,28,26,0,-0.00018886555335484445,-23.01611328125,-25.352270126342773,-0.13560225069522858,-1.4635460376739502,0.005313535686582327,0.0,0.16249999403953552,-3.7274999618530273,-5.802499771118164,0.03999999910593033,-0.5400000214576721,0.07000000029802322,0.0,0.0,0.0,-30.02179938356215,0.0,0.0,0.0,0.0,336.144,0.231,941.413,-0.9040128091574129,-61.06870659401879,-179.4288382218769
14.015153884887695,0.0,0.0,-136.92052644332603,0.0,0.0,0.0,0.0,24,27,31,25,28,26,0,-0.00032247864874079823,-15.81259822845459,-12.416794776916504,-0.10587415099143982,0.004354337230324745,0.004144521430134773,0.0,0.16750000417232513,-3.0924999713897705,-3.5450000762939453,-6.062858548538941e-16,-0.15000000596046448,0.03500000014901161,0.0,0.0,0.0,-30.02179938356215,0.0,0.0,0.0,0.0,201.418,-0.186,1010.136,-0.696659383099568,-43.05623131803451,-179.68088235595496
14.515767574310303,0.0,0.0,-148.06879544630448,0.0,0.0,0.0,0.0,24,27,31,25,28,26,0,-0.007270273752510548,-13.366499900817871,-5.310774326324463,-0.05193991959095001,2.259099006652832,0.001455936231650412,0.0,0.16750000417232513,-1.9950000047683716,-1.7799999713897705,-0.02500000037252903,0.10249999910593033,0.012500000186264515,0.0,0.0,0.0,-3.8893005318151976,0.0,0.0,0.0,0.0,109.782,-0.343,1030.36,-0.6387333500118417,-31.908191498174087,-179.7695762226412
15.016355514526367,0.0,0.0,-147.82775210189294,0.0,0.0,0.0,0.0,24,27,31,25,28,26,0,-0.009865464642643929,-11.607749938964844,-7.3957133293151855,-0.04192733392119408,2.693589210510254,0.0008573002996854484,0.0,0.16750000417232513,-1.7324999570846558,-0.5074999928474426,-0.06499999761581421,0.4099999964237213,-0.012500000186264515,0.0,0.0,0.0,14.096940126110622,0.0,0.0,0.0,0.0,111.799,-0.34,1030.112,-0.6396500824840511,-32.14923484258562,-179.76791464503532
15.516961336135864,0.0,0.0,-136.0879614712214,0.0,0.0,0.0,0.0,24,27,31,25,28,26,0,-0.00031814505928196013,-16.07048988342285,-8.635976791381836,-0.10703661292791367,-0.044657591730356216,0.004190255422145128,0.0,0.16750000417232513,-1.9049999713897705,-0.28999999165534973,-0.0925000011920929,0.04749999940395355,-0.03500000014901161,0.0,0.0,0.0,30.004027231341777,0.0,0.0,0.0,0.0,208.077,-0.171,1007.916,-0.7023889610508762,-43.88879629013911,-179.67297553838216
16.017277479171753,0.0,0.0,-131.5216024355878,0.0,0.0,0.0,0.0,24,27,31,25,28,26,0,3.5867262735626076e-17,-17.999454498291016,-12.956070899963379,-0.11600261181592941,-0.40821999311447144,0.0045616356655955315,0.0,0.14499999582767487,-3.325000047683716,-2.9100000858306885,-0.05999999865889549,-0.07750000059604645,-0.029999999329447746,0.0,0.0,0.0,0.0,0.0,0.0,0.0,0.0,243.976,-0.081,994.038,-0.7383707105850918,-48.454983438434205,-179.62524815404777
16.5178861618042,0.0,0.0,-137.54797252477377,0.0,0.0,0.0,0.0,24,27,31,25,28,26,0,-0.00032795543665997684,-15.53846263885498,-10.862326622009277,-0.10463070124387741,0.056167952716350555,0.004095547832548618,0.0,0.14000000059604645,-3.1424999237060547,-3.2750000953674316,-0.009999999776482582,-0.14249999821186066,-0.009999999776482582,0.0,0.0,0.0,-30.082676859634475,0.0,0.0,0.0,0.0,196.379,-0.197,1011.745,-0.692534086974626,-42.42884253236626,-179.6866692296858
17.01834511756897,0.0,0.0,-148.98919484840263,0.0,0.0,0.0,0.0,24,27,31,25,28,26,0,-5.485991276217544e-18,-8.59274959564209,-5.2456865310668945,-0.0798238143324852,1.0288571119308472,0.0031389566138386726,0.0,0.17000000178813934,-1.2825000286102295,-1.4299999475479126,0.007499999832361937,0.30250000953674316,0.0024999999441206455,0.0,0.0,0.0,0.0,0.0,0.0,0.0,0.0,102.071,-0.352,1031.226,-0.6351810116820307,-30.98784939185544,-179.77582146260815
17.51895260810852,0.0,0.0,-148.8229797920352,0.0,0.0,0.0,0.0,24,27,31,25,28,26,0,-0.008207417093217373,-10.803750038146973,-8.309076309204102,-0.04564879834651947,2.5155441761016846,0.0011215276317670941,0.0,0.14000000059604645,-1.6124999523162842,-0.7549999952316284,-0.029999999329447746,0.35249999165534973,0.019999999552965164,0.0,0.0,0.0,10.333933634030368,0.0,0.0,0.0,0.0,103.465,-0.35,1031.079,-0.6358112652566745,-31.154064448222897,-179.7747328427974
18.019169092178345,0.0,0.0,-145.32994259402014,0.0,0.0,0.0,0.0,24,27,31,25,28,26,0,4.082017208940984e-17,-8.944499969482422,-4.626975059509277,-0.08813624829053879,0.7312886714935303,0.0034658308140933514,0.0,0.20999999344348907,-1.3350000381469727,-0.8075000047683716,-0.07249999791383743,0.1599999964237213,0.04500000178813934,0.0,0.0,0.0,0.0,0.0,0.0,0.0,0.0,132.633,-0.312,1027.05,-0.6502498016939713,-34.64704435045845,-179.7502102491658
18.51978039741516,0.0,0.0,-137.7592220638385,0.0,0.0,0.0,0.0,24,27,31,25,28,26,0,-0.00032948944135569036,-26.14674949645996,-18.235530853271484,-0.10372878611087799,0.09365103393793106,0.004060163628309965,0.0,0.17249999940395355,-3.9024999141693115,-1.965000033378601,-0.06499999761581421,-1.700029006457271e-15,0.05999999865889549,0.0,0.0,0.0,30.017011420953974,0.0,0.0,0.0,0.0,194.678,-0.2,1012.274,-0.6911589882663121,-42.21753569752202,-179.68861728618924
19.020382165908813,0.0,0.0,-119.74903861903476,0.0,0.0,0.0,0.0,24,27,31,25,28,26,0,-0.00019749118655454367,-22.626876831054688,-14.124255180358887,-0.13416951894760132,-1.3779736757278442,0.005257201846688986,0.0,-0.05000000074505806,-3.325000047683716,-1.247499942779541,-0.009999999776482582,-0.3050000071525574,0.05999999865889549,0.0,0.0,0.0,30.017011420953974,0.0,0.0,0.0,0.0,330.375,0.207,945.544,-0.8883137655708283,-60.22714618453064,-179.44648532196695
19.520981550216675,0.0,0.0,-107.74224965583225,0.0,0.0,0.0,0.0,24,27,31,25,28,26,0,-9.784837311599404e-05,-26.565351486206055,-21.931379318237305,-0.14728204905986786,-2.293851137161255,0.005772832781076431,0.0,-0.20000000298023224,-4.067500114440918,-2.609999895095825,-6.696032617270475e-16,-0.5099999904632568,0.05999999865889549,0.0,0.0,0.0,30.017011420953974,0.0,0.0,0.0,0.0,406.407,0.574,878.996,-1.2593039379180362,-72.2329038237019,-179.0477639923354
20.02157688140869,0.0,0.0,-89.73200891524898,0.0,0.0,0.0,0.0,24,27,31,25,28,26,0,5.8224162785336375e-05,-30.66466522216797,-25.72750473022461,-0.15475007891654968,-3.470059394836426,0.006066502537578344,0.0,0.4375,-4.977499961853027,-3.2725000381469727,0.012500000186264515,-0.800000011920929,0.05999999865889549,0.0,0.0,0.0,30.017011420953974,0.0,0.0,0.0,0.0,490.521,1.229,753.333,-130.35924295660587,-89.61856327181307,-49.91006705494844
20.522168159484863,0.0,0.0,-77.72521995204646,0.0,0.0,0.0,0.0,24,27,31,25,28,26,0,0.0001600401446921751,-32.01759338378906,-26.214555740356445,-0.1512773036956787,-4.072434425354004,0.0059299408458173275,0.0,0.2475000023841858,-5.585000038146973,-3.3575000762939453,0.032499998807907104,-0.949999988079071,0.05999999865889549,0.0,0.0,0.0,30.017011420953974,0.0,0.0,0.0,0.0,523.064,1.706,657.676,-178.93185463038043,-77.74429944662432,-1.308349125181235
21.022762298583984,0.0,0.0,-59.715036507242715,0.0,0.0,0.0,0.0,24,27,31,25,28,26,0,0.0002983211015816778,-31.82964324951172,-25.95670509338379,-0.13376936316490173,-4.6377129554748535,0.005241466220468283,0.0,0.14749999344348907,-5.985000133514404,-3.3125,0.03999999910593033,-1.0700000524520874,0.05999999865889549,0.0,0.0,0.0,30.017011420953974,0.0,0.0,0.0,0.0,533.032,2.431,506.789,-179.73124534614698,-59.73623594566255,-0.4675908566062648
21.52317452430725,0.0,0.0,-52.86475310865859,0.0,0.0,0.0,0.0,24,27,31,25,28,26,0,-1.0036936528179986e-19,-39.546749114990234,-27.432374954223633,-0.123518206179142,-4.712899208068848,0.004857175517827272,0.0,0.15000000596046448,-5.902500152587891,-4.787499904632568,0.03999999910593033,-1.100000023841858,0.05999999865889549,0.0,0.0,0.0,0.0,0.0,0.0,0.0,0.0,524.35,2.697,449.727,-179.82790332618555,-52.886239025975996,-0.3543171005089011
22.023791313171387,0.0,0.0,-56.953150751594094,0.0,0.0,0.0,0.0,24,27,31,25,28,26,0,0.0003180172061547637,-31.551746368408203,-35.351905822753906,-0.12968555092811584,-4.687035083770752,0.005080878734588623,0.0,0.11749999970197678,-5.309999942779541,-7.547500133514404,-0.029999999329447746,-1.1299999952316284,0.05999999865889549,0.0,0.0,0.0,-30.01530387366147,0.0,0.0,0.0,0.0,530.353,2.539,483.661,-179.77530580059252,-56.97446478157296,-0.416884091737187
22.52439546585083,0.0,0.0,-69.07934411930187,0.0,0.0,0.0,0.0,24,27,31,25,28,26,0,0.00023109593894332647,-32.260231018066406,-32.22905731201172,-0.14442020654678345,-4.405360221862793,0.0056602973490953445,0.0,0.16249999403953552,-5.059999942779541,-7.002500057220459,-0.07999999821186066,-1.1399999856948853,0.05999999865889549,0.0,0.0,0.0,-30.01530387366147,0.0,0.0,0.0,0.0,533.78,2.056,585.646,-179.4904311848535,-69.09985600836755,-0.7302347098942342
23.024994373321533,0.0,0.0,-87.08849624007438,0.0,0.0,0.0,0.0,24,27,31,25,28,26,0,8.307155803777277e-05,-31.09493637084961,-30.51005744934082,-0.15453378856182098,-3.6296000480651855,0.006057999562472105,0.0,0.19499999284744263,-4.757500171661377,-6.702499866485596,-0.08749999850988388,-1.0399999618530273,0.05999999865889549,0.0,0.0,0.0,-30.01530387366147,0.0,0.0,0.0,0.0,499.397,1.332,732.892,-174.5323982004684,-87.09628846608815,-5.728833106174562
23.525403261184692,0.0,0.0,-99.09459765392273,0.0,0.0,0.0,0.0,24,27,31,25,28,26,0,-2.1078094505355693e-05,-28.882278442382812,-29.550281524658203,-0.1528538167476654,-2.9099178314208984,0.005991937126964331,0.0,0.21250000596046448,-4.610000133514404,-6.534999847412109,-0.0949999988079071,-0.9049999713897705,0.05999999865889549,0.0,0.0,0.0,-30.01530387366147,0.0,0.0,0.0,0.0,451.728,0.876,821.976,-2.145898830103472,-80.8782639944309,-178.141631239336
24.026008367538452,0.0,0.0,-117.10380707047476,0.0,0.0,0.0,0.0,24,27,31,25,28,26,0,-0.0001741552259773016,-23.650672912597656,-23.304580688476562,-0.13788338005542755,-1.605043649673462,0.0054032462649047375,0.0,0.24250000715255737,-4.432499885559082,-5.445000171661377,-0.10000000149011612,-0.6225000023841858,0.05999999865889549,0.0,0.0,0.0,-30.01530387366147,0.0,0.0,0.0,0.0,348.298,0.282,932.275,-0.9411404742818902,-62.872205845752084,-179.38747066906845
24.526663541793823,0.0,0.0,-123.35328692508472,0.0,0.0,0.0,0.0,24,27,31,25,28,26,0,-6.121136946482711e-18,-21.234893798828125,-22.218074798583984,-0.12941879034042358,-1.0754023790359497,0.005089207552373409,0.0,0.26249998807907104,-2.575000047683716,-3.877500057220459,-0.09749999642372131,-0.26750001311302185,0.05999999865889549,0.0,0.0,0.0,0.0,0.0,0.0,0.0,0.0,305.008,0.111,962.264,-0.8303877324831022,-56.623069765819224,-179.51306301776114
25.02720546722412,0.0,0.0,-128.29086531618358,0.0,0.0,0.0,0.0,24,27,31,25,28,26,0,-0.00026225997135043144,-31.205249786376953,-18.50078582763672,-0.12162036448717117,-0.7076168656349182,0.0047636753879487514,0.0,0.1899999976158142,-4.65749979019165,-4.607500076293945,-0.07999999821186066,-0.3449999988079071,0.05999999865889549,0.0,0.0,0.0,-30.055957159601384,0.0,0.0,0.0,0.0,268.652,-0.01,982.514,-0.7697115019787479,-51.68566326205887,-179.58582865774278
25.528054237365723,0.0,0.0,-135.39250529949163,0.0,0.0,0.0,0.0,24,27,31,25,28,26,0,3.154794395255588e-17,-7.889249801635742,-11.173500061035156,-0.10880434513092041,-0.08832079917192459,0.004278574138879776,0.0,0.14000000059604645,-1.1775000095367432,-1.9500000476837158,-0.05000000074505806,0.09000000357627869,0.03999999910593033,0.0,0.0,0.0,0.0,0.0,0.0,0.0,0.0,213.615,-0.158,1005.988,-0.7073163980890013,-44.58425246186891,-179.66621463639962
26.028831958770752,0.0,0.0,-131.7879132187646,0.0,0.0,0.0,0.0,24,27,31,25,28,26,0,-0.00028829043731093407,-17.905567169189453,-6.815402984619141,-0.11512088775634766,-0.4001745879650116,0.004508169833570719,0.0,0.1599999964237213,-1.6200000047683716,0.027499999850988388,-0.02500000037252903,2.1597307275911248e-16,-0.019999999552965164,0.0,0.0,0.0,29.994673287273447,0.0,0.0,0.0,0.0,241.914,-0.087,994.926,-0.7360215836250555,-48.18872995103691,-179.62822753458244
26.529672861099243,0.0,0.0,-119.79000510138661,0.0,0.0,0.0,0.0,24,27,31,25,28,26,0,-0.0001975239283638075,-22.611875534057617,-17.874303817749023,-0.13411468267440796,-1.3746930360794067,0.005255072843283415,0.0,0.1850000023841858,-3.6649999618530273,-1.902500033378601,-7.121039868884793e-16,-0.20000000298023224,-0.05000000074505806,0.0,0.0,0.0,29.994673287273447,0.0,0.0,0.0,0.0,330.093,0.206,945.743,-0.8875689204371583,-60.18612240639927,-179.44734475865963
27.03058624267578,0.0,0.0,-101.7932288689889,0.0,0.0,0.0,0.0,24,27,31,25,28,26,0,-4.654090662370436e-05,-28.176868438720703,-22.94535255432129,-0.15141373872756958,-2.7131614685058594,0.005935333669185638,0.0,0.2775000035762787,-4.397500038146973,-2.7874999046325684,0.019999999552965164,-0.4950000047683716,-0.03999999910593033,0.0,0.0,0.0,29.994673287273447,0.0,0.0,0.0,0.0,438.516,0.779,840.496,-1.7290147383662853,-78.18072139917548,-178.56453138792207
27.531192779541016,0.0,0.0,-89.79537804739044,0.0,0.0,0.0,0.0,24,27,31,25,28,26,0,5.7591321819927543e-05,-30.654216766357422,-25.79602813720703,-0.15475070476531982,-3.466425657272339,0.00606655515730381,0.0,0.10499999672174454,-4.96999979019165,-3.2850000858306885,0.03999999910593033,-0.699999988079071,-0.029999999329447746,0.0,0.0,0.0,29.994673287273447,0.0,0.0,0.0,0.0,490.297,1.226,753.818,-122.26122936756536,-89.65586282427608,-58.00842441866604
28.032007932662964,0.0,0.0,-71.79854451921322,0.0,0.0,0.0,0.0,24,27,31,25,28,26,0,0.00020767490786965936,-32.2517204284668,-26.497953414916992,-0.14709946513175964,-4.305790424346924,0.005765681155025959,0.0,0.1599999964237213,-5.822500228881836,-3.4075000286102295,0.054999999701976776,-0.9850000143051147,-1.708702623837155e-16,0.0,0.0,0.0,29.994673287273447,0.0,0.0,0.0,0.0,531.583,1.946,608.463,-179.3726883579541,-71.81876992938135,-0.8541654809810313
28.532662630081177,0.0,0.0,-68.31392980078658,0.0,0.0,0.0,0.0,24,27,31,25,28,26,0,-2.5664289319166223e-17,-40.70249938964844,-22.61917495727539,-0.1439714878797531,-4.401673316955566,0.005661471281200647,0.0,0.18000000715255737,-6.074999809265137,-3.947499990463257,0.03999999910593033,-1.1299999952316284,0.009999999776482582,0.0,0.0,0.0,0.0,0.0,0.0,0.0,0.0,534.202,2.087,579.207,-179.5181623421378,-68.33455628141131,-0.7007273834449967
29.03344964981079,0.0,0.0,-60.26433114543463,0.0,0.0,0.0,0.0,24,27,31,25,28,26,0,0.0002943923755083233,-31.874876022338867,-24.323083877563477,-0.1345096379518509,-4.62697696685791,0.005270581226795912,0.0,0.14000000059604645,-4.697500228881836,-3.0274999141693115,-7.225123277443402e-16,-0.8799999952316284,0.03999999910593033,0.0,0.0,0.0,30.012899647073624,0.0,0.0,0.0,0.0,533.431,2.409,511.402,-179.7213904720707,-60.285530583854474,-0.47870623783180277
29.534234523773193,0.0,0.0,-48.25914646405849,0.0,0.0,0.0,0.0,24,27,31,25,28,26,0,0.0003717143554240465,-30.33210563659668,-26.44318389892578,-0.11563777178525925,-4.763685703277588,0.004528472665697336,0.0,0.19249999523162842,-4.892499923706055,-3.3975000381469727,-0.019999999552965164,-0.6850000023841858,0.05000000074505806,0.0,0.0,0.0,30.012899647073624,0.0,0.0,0.0,0.0,514.71,2.869,412.124,-179.87391183713453,-48.28080426871444,-0.2967921378777664
30.03499746322632,0.0,0.0,-30.251426737773794,0.0,0.0,0.0,0.0,24,27,31,25,28,26,0,0.0004563445982057601,-25.978296279907227,-22.71868324279785,-0.078150175511837,-4.580615520477295,0.0030543270986527205,0.0,0.19249999523162842,-4.932499885559082,-2.747499942779541,-0.05999999865889549,-0.8125,0.07000000029802322,0.0,0.0,0.0,30.012899647073624,0.0,0.0,0.0,0.0,449.178,3.475,275.868,-179.97830474740738,-30.27348561288633,-0.14346863190075815
30.535810708999634,0.0,0.0,-20.040860462306423,0.0,0.0,0.0,0.0,24,27,31,25,28,26,0,1.939810501150142e-18,-22.349775314331055,-19.8687744140625,-0.05309560149908066,-4.247226238250732,0.002087908098474145,0.0,0.07000000029802322,-4.40500020980835,-3.4674999713897705,-0.09000000357627869,-0.9200000166893005,0.05000000074505806,0.0,0.0,0.0,0.0,0.0,0.0,0.0,0.0,394.154,3.753,209.814,179.99205573449052,-20.0630912247575,-0.08204755626273388
31.03663444519043,0.0,0.0,-20.308718231530083,0.0,0.0,0.0,0.0,24,27,31,25,28,26,0,0.003797831479460001,-27.67198944091797,-16.633251190185547,-0.09405374526977539,-6.018670558929443,0.004484612960368395,0.0,0.22750000655651093,-3.3424999713897705,-3.9024999141693115,-0.03750000149011612,-1.0175000429153442,0.019999999552965164,0.0,0.0,0.0,-14.112913377258343,0.0,0.0,0.0,0.0,395.744,3.746,211.418,179.99268598806518,-20.330891698201647,-0.08353724653007404
31.53738045692444,0.0,0.0,-32.05372277813731,0.0,0.0,0.0,0.0,24,27,31,25,28,26,0,0.00045078471885062754,-26.444931030273438,-25.567813873291016,-0.08176524937152863,-4.614755153656006,0.003196480218321085,0.0,0.14749999344348907,-4.059999942779541,-5.840000152587891,-6.999609225566417e-16,-1.0425000190734863,-1.7607443281164592e-16,0.0,0.0,0.0,-30.016280590712782,0.0,0.0,0.0,0.0,457.627,3.42,288.496,-179.9713719580863,-32.075724357470335,-0.1556153371575316
32.038222789764404,0.0,0.0,-50.06350515248448,0.0,0.0,0.0,0.0,24,27,31,25,28,26,0,0.0003625769168138504,-30.59778594970703,-32.61571502685547,-0.11840371042490005,-4.7575883865356445,0.004637234844267368,0.0,0.19499999284744263,-5.047500133514404,-7.070000171661377,0.04749999940395355,-1.0950000286102295,-0.029999999329447746,0.0,0.0,0.0,-30.016280590712782,0.0,0.0,0.0,0.0,518.847,2.802,426.762,-179.85729606107574,-50.08510566136091,-0.3179915762976069
32.53905391693115,0.0,0.0,-62.07000763678942,0.0,0.0,0.0,0.0,24,27,31,25,28,26,0,0.0002833442995324731,-31.99047088623047,-32.701663970947266,-0.13655118644237518,-4.594083309173584,0.005350858438760042,0.0,0.17000000178813934,-5.699999809265137,-7.085000038146973,0.03999999910593033,-1.1200000047683716,-0.05000000074505806,0.0,0.0,0.0,-30.016280590712782,0.0,0.0,0.0,0.0,534.433,2.337,526.592,-179.68632545500873,-62.09109248365023,-0.5180684383572903
33.039878368377686,0.0,0.0,-80.07979001113658,0.0,0.0,0.0,0.0,24,27,31,25,28,26,0,0.00014248746447265148,-41.30550003051758,-32.48678970336914,-0.15237779915332794,-3.9785501956939697,0.005973217077553272,0.0,0.05999999865889549,-6.164999961853027,-7.047500133514404,-7.034303695085953e-16,-1.090000033378601,-0.05000000074505806,0.0,0.0,0.0,-30.016280590712782,0.0,0.0,0.0,0.0,518.275,1.611,676.938,-178.6089356170447,-80.09801006902175,-1.6365966460116834
33.54072666168213,0.0,0.0,-92.08629249544153,0.0,0.0,0.0,0.0,24,27,31,25,28,26,0,3.990146069554612e-05,-40.149749755859375,-30.58156394958496,-0.15465937554836273,-3.347522497177124,0.006062936969101429,0.0,0.019999999552965164,-5.992499828338623,-6.715000152587891,-0.027499999850988388,-1.0075000524520874,-0.029999999329447746,0.0,0.0,0.0,-30.016280590712782,0.0,0.0,0.0,0.0,481.831,1.138,771.176,-8.189744132040962,-87.87109929244357,-172.08202959803242
34.04156470298767,0.0,0.0,-104.21918946935232,0.0,0.0,0.0,0.0,24,27,31,25,28,26,0,5.1262880645361035e-18,-27.425500869750977,-30.12547492980957,-0.15019075572490692,-2.529994249343872,0.00590603519231081,0.0,0.07000000029802322,-3.742500066757202,-5.257500171661377,-0.05999999865889549,-0.5575000047683716,-0.009999999776482582,0.0,0.0,0.0,0.0,0.0,0.0,0.0,0.0,425.906,0.694,856.597,-1.4896902673401404,-75.75533375660719,-178.80935625378146
34.54240012168884,0.0,0.0,-104.21139724333855,0.0,0.0,0.0,0.0,24,27,31,25,28,26,0,-0.002890191040933132,-24.74898910522461,-20.60442352294922,-0.14268074929714203,-2.2034294605255127,0.005464158486574888,0.0,0.1899999976158142,-4.897500038146973,-3.742500066757202,-0.09000000357627869,-0.23000000417232513,-1.6393136847980827e-16,0.0,0.0,0.0,1.1335482264956596,0.0,0.0,0.0,0.0,425.948,0.694,856.546,-1.4903205209147843,-75.76318327840048,-178.80872600020683
35.04324293136597,0.0,0.0,-92.67563688351309,0.0,0.0,0.0,0.0,24,27,31,25,28,26,0,1.6059917353894405e-18,-40.166500091552734,-23.951400756835938,-0.1547686606645584,-3.2815306186676025,0.006086054258048534,0.0,0.19499999284744263,-5.994999885559082,-4.179999828338623,-0.05000000074505806,-0.925000011920929,0.02250000089406967,0.0,0.0,0.0,0.0,0.0,0.0,0.0,0.0,479.541,1.115,775.586,-6.4833612265823435,-87.28610938361501,-173.78978760219937
35.544081687927246,0.0,0.0,-92.67563688351309,0.0,0.0,0.0,0.0,24,27,31,25,28,26,0,1.6059917353894405e-18,-29.997295379638672,-24.95391273498535,-0.1547686606645584,-3.2815306186676025,0.006086054258048534,0.0,0.09000000357627869,-5.242499828338623,-4.389999866485596,-7.086345399365257e-16,-0.9200000166893005,0.03999999910593033,0.0,0.0,0.0,0.0,0.0,0.0,0.0,0.0,479.541,1.115,775.586,-6.4833612265823435,-87.28610938361501,-173.78978760219937
36.04499435424805,0.0,0.0,-108.16709786092176,0.0,0.0,0.0,0.0,24,27,31,25,28,26,0,-9.938241419149563e-05,-26.511423110961914,-29.966289520263672,-0.14712810516357422,-2.2804014682769775,0.005766787566244602,0.0,0.1899999976158142,-4.449999809265137,-6.607500076293945,0.06750000268220901,-0.6499999761581421,0.07000000029802322,0.0,0.0,0.0,-30.010485175202025,0.0,0.0,0.0,0.0,403.964,0.56,881.615,-1.2375888374825783,-71.80811291439191,-179.07039582524308
36.5458197593689,0.0,0.0,-120.17130851404617,0.0,0.0,0.0,0.0,24,27,31,25,28,26,0,-0.00019886043446604162,-22.560672760009766,-24.03573989868164,-0.13392360508441925,-1.3635069131851196,0.0052475398406386375,0.0,0.14000000059604645,-4.072500228881836,-5.572500228881836,0.07000000029802322,-0.4375,0.09000000357627869,0.0,0.0,0.0,-30.010485175202025,0.0,0.0,0.0,0.0,327.458,0.196,947.585,-0.8807507226751015,-59.80487628951923,-179.4550796888939
37.04655957221985,0.0,0.0,-138.17759584584303,0.0,0.0,0.0,0.0,24,27,31,25,28,26,0,-0.0003305097343400121,-15.261463165283203,-12.518439292907715,-0.10337086021900177,0.1084093302488327,0.004046096932142973,0.0,0.14000000059604645,-2.997499942779541,-3.5625,0.029999999329447746,-0.11500000208616257,0.07000000029802322,0.0,0.0,0.0,-30.010485175202025,0.0,0.0,0.0,0.0,191.305,-0.208,1013.304,-0.6885233824087102,-41.799219211297,-179.6923988076371
37.547635555267334,0.0,0.0,-147.4268535326399,0.0,0.0,0.0,0.0,24,27,31,25,28,26,0,-1.4900621450654652e-17,-11.009425163269043,-4.254525184631348,-0.08341460675001144,0.9022541046142578,0.0032801590859889984,0.0,0.1574999988079071,-0.762499988079071,-0.7425000071525574,0.004999999888241291,0.10999999940395355,0.03999999910593033,0.0,0.0,0.0,0.0,0.0,0.0,0.0,0.0,115.152,-0.336,1029.682,-0.6413116600899305,-32.55013341183866,-179.7651644476187
38.04847168922424,0.0,0.0,-147.40044017828438,0.0,0.0,0.0,0.0,24,27,31,25,28,26,0,-0.003677405184134841,-4.9137797355651855,-2.4214844703674316,-0.06844788044691086,1.5535110235214233,0.0023988999892026186,0.0,0.1875,-1.6575000286102295,-0.9624999761581421,-0.029999999329447746,0.4074999988079071,0.009999999776482582,0.0,0.0,0.0,2.783570171705119,0.0,0.0,0.0,0.0,115.373,-0.336,1029.653,-0.6414262516489566,-32.57654676619419,-179.76499256028015
38.54892539978027,0.0,0.0,-136.257098612344,0.0,0.0,0.0,0.0,24,27,31,25,28,26,0,-0.00031940650660544634,-11.038249969482422,-6.846198081970215,-0.10670588165521622,-0.030666278675198555,0.0041772425174713135,0.0,0.0625,-1.6475000381469727,0.02250000089406967,-0.029999999329447746,-0.007499999832361937,-1.726049858596923e-16,0.0,0.0,0.0,30.01011976008143,0.0,0.0,0.0,0.0,206.727,-0.174,1008.375,-0.7011857496811015,-43.71965914901649,-179.67457982020852
39.04971408843994,0.0,0.0,-118.25098316788569,0.0,0.0,0.0,0.0,24,27,31,25,28,26,0,-0.00018535926938056946,-23.16411018371582,-18.92217254638672,-0.13614094257354736,-1.4963222742080688,0.00533473351970315,0.0,0.2874999940395355,-3.75,-2.0850000381469727,-0.019999999552965164,-0.44999998807907104,-0.03999999910593033,0.0,0.0,0.0,30.01011976008143,0.0,0.0,0.0,0.0,340.6,0.249,938.131,-0.9169616553273695,-61.72508704412067,-179.4143423896601
39.55049991607666,0.0,0.0,-106.24694440209983,0.0,0.0,0.0,0.0,24,27,31,25,28,26,0,-8.500827243551612e-05,-26.992935180664062,-21.801498413085938,-0.14847205579280853,-2.4017252922058105,0.0058196368627250195,0.0,0.3375000059604645,-4.747499942779541,-2.5875000953674316,-7.173081573164097e-16,-0.5600000023841858,-0.03999999910593033,0.0,0.0,0.0,30.01011976008143,0.0,0.0,0.0,0.0,414.851,0.625,869.636,-1.344731945172042,-73.72797989431628,-178.9588982383106
40.05128335952759,0.0,0.0,-88.24088625342101,0.0,0.0,0.0,0.0,24,27,31,25,28,26,0,7.10676540620625e-05,-30.895259857177734,-26.05602264404297,-0.1546872854232788,-3.5536656379699707,0.00606404198333621,0.0,0.012500000186264515,-5.355000019073486,-3.3299999237060547,-0.019999999552965164,-0.7275000214576721,-0.029999999329447746,0.0,0.0,0.0,30.01011976008143,0.0,0.0,0.0,0.0,495.644,1.287,741.853,-170.76033055622463,-88.23899549269707,-9.503708243614478
40.55207681655884,0.0,0.0,-76.23684748763513,0.0,0.0,0.0,0.0,24,27,31,25,28,26,0,0.00017218287393916398,-32.103641510009766,-25.955747604370117,-0.15037892758846283,-4.135211944580078,0.005894621834158897,0.0,0.10750000178813934,-5.607500076293945,-3.3125,-0.027499999850988388,-0.8299999833106995,-0.0024999999441206455,0.0,0.0,0.0,30.01011976008143,0.0,0.0,0.0,0.0,525.681,1.766,645.404,-179.07864641749296,-76.25627075689007,-1.1582341828569591
41.052886724472046,0.0,0.0,-66.74763507623746,0.0,0.0,0.0,0.0,24,27,31,25,28,26,0,4.187969946422289e-18,-32.001983642578125,-23.292449951171875,-0.14235273003578186,-4.448284149169922,0.005597815848886967,0.0,0.10499999672174454,-5.920000076293945,-4.065000057220459,-0.029999999329447746,-0.9900000095367432,0.009999999776482582,0.0,0.0,0.0,0.0,0.0,0.0,0.0,0.0,534.799,2.15,566.015,-179.56909829012494,-66.7683761484212,-0.6461818013485424
41.553725481033325,0.0,0.0,-68.21555294736262,0.0,0.0,0.0,0.0,24,27,31,25,28,26,0,0.000181050127139315,-32.197723388671875,-46.886898040771484,-0.14362584054470062,-4.426055431365967,0.0056335399858653545,0.0,0.15000000596046448,-5.777500152587891,-9.479999542236328,-0.03999999910593033,-1.100000023841858,0.019999999552965164,0.0,0.0,0.0,-26.016670369367763,0.0,0.0,0.0,0.0,534.251,2.091,578.379,-179.52160008890857,-68.23617942798734,-0.6970604535561595
42.05451846122742,0.0,0.0,-69.26578458583744,0.0,0.0,0.0,0.0,24,27,31,25,28,26,0,-1.592676712466751e-17,-32.04718017578125,-34.709476470947266,-0.14490269124507904,-4.371739387512207,0.005698089953511953,0.0,0.16500000655651093,-5.449999809265137,-6.057499885559082,-0.05000000074505806,-0.6974999904632568,0.05000000074505806,0.0,0.0,0.0,0.0,0.0,0.0,0.0,0.0,533.664,2.048,587.214,-179.48338380397337,-69.28629647490311,-0.7376831612309349
42.5552442073822,0.0,0.0,-78.98440929840548,0.0,0.0,0.0,0.0,24,27,31,25,28,26,0,0.00015125215577427298,-31.947616577148438,-33.737247467041016,-0.15183404088020325,-4.027805328369141,0.005951878149062395,0.0,0.18000000715255737,-5.917500019073486,-7.264999866485596,-0.05999999865889549,-0.8700000047683716,0.07000000029802322,0.0,0.0,0.0,-29.981719833512518,0.0,0.0,0.0,0.0,520.601,1.655,668.002,-178.77646847634097,-79.00308772252674,-1.4666000681963682
43.05604887008667,0.0,0.0,-81.62734901578494,0.0,0.0,0.0,0.0,24,27,31,25,28,26,0,-2.3785810124533826e-18,-31.51428985595703,-32.23125076293945,-0.15328624844551086,-3.8768486976623535,0.006027760449796915,0.0,0.13750000298023224,-4.989999771118164,-5.625,-0.07000000029802322,-0.8700000047683716,0.09000000357627869,0.0,0.0,0.0,0.0,0.0,0.0,0.0,0.0,514.697,1.549,689.485,-178.29707468915498,-81.64476693275692,-1.9518953206721754
43.55689454078674,0.0,0.0,-74.31382923983755,0.0,0.0,0.0,0.0,24,27,31,25,28,26,0,0.00018716267368290573,-32.18719482421875,-26.407133102416992,-0.14906825125217438,-4.212148666381836,0.005843144841492176,0.0,0.13500000536441803,-4.860000133514404,-3.3924999237060547,-0.06750000268220901,-0.8399999737739563,0.07999999821186066,0.0,0.0,0.0,29.95959343569626,0.0,0.0,0.0,0.0,528.59,1.844,629.455,-179.22669871175478,-74.33365357954906,-1.0058274093521602
44.05772829055786,0.0,0.0,-56.33808055852115,0.0,0.0,0.0,0.0,24,27,31,25,28,26,0,0.000320136226946488,-31.496414184570312,-27.137706756591797,-0.12895111739635468,-4.69423770904541,0.005052067339420319,0.0,0.13500000536441803,-5.824999809265137,-3.5199999809265137,-0.03750000149011612,-0.7799999713897705,0.03999999910593033,0.0,0.0,0.0,29.95959343569626,0.0,0.0,0.0,0.0,529.605,2.563,478.529,-179.78412935063753,-56.35945188427954,-0.40662814720434526
44.558560371398926,0.0,0.0,-53.3387037967908,0.0,0.0,0.0,0.0,24,27,31,25,28,26,0,3.057468986127089e-17,-30.891132354736328,-25.847749710083008,-0.1242876872420311,-4.708361625671387,0.004887434188276529,0.0,0.26750001311302185,-5.587500095367432,-3.9200000762939453,-0.012500000186264515,-0.9700000286102295,0.019999999552965164,0.0,0.0,0.0,0.0,0.0,0.0,0.0,0.0,525.17,2.679,453.637,-179.82246022713178,-53.36018971410821,-0.3609634109324186
45.05921244621277,0.0,0.0,-61.484043699709126,0.0,0.0,0.0,0.0,24,27,31,25,28,26,0,0.0002860243257600814,-31.948453903198242,-31.207046508789062,-0.1358002871274948,-4.606666564941406,0.005321428645402193,0.0,0.13500000536441803,-5.46999979019165,-6.822500228881836,0.009999999776482582,-1.2400000095367432,-1.5005358067199381e-16,0.0,0.0,0.0,-29.937726585068464,0.0,0.0,0.0,0.0,534.161,2.361,521.659,-179.69824297714743,-61.50512854656994,-0.5047758175102552
45.56002497673035,0.0,0.0,-73.45909080106138,0.0,0.0,0.0,0.0,24,27,31,25,28,26,0,0.00019563671958167106,-32.2211799621582,-33.95744705200195,-0.14824725687503815,-4.2538347244262695,0.005810887552797794,0.0,0.0949999988079071,-5.917500019073486,-7.302499771118164,0.029999999329447746,-1.1649999618530273,-0.029999999329447746,0.0,0.0,0.0,-29.937726585068464,0.0,0.0,0.0,0.0,529.71,1.878,622.337,-179.28135888541024,-73.47908702811145,-0.9492764749727479
46.06077241897583,0.0,0.0,-78.37117257027695,0.0,0.0,0.0,0.0,24,27,31,25,28,26,0,-6.246658709305489e-18,-31.775772094726562,-34.63785171508789,-0.15175731480121613,-4.02574348449707,0.005967637524008751,0.0,0.18000000715255737,-4.762499809265137,-6.045000076293945,0.05999999865889549,-0.6175000071525574,-0.04500000178813934,0.0,0.0,0.0,0.0,0.0,0.0,0.0,0.0,521.829,1.68,662.979,-178.85639608876173,-78.39002288173675,-1.3852973570673044
46.56139016151428,0.0,0.0,-72.25106658580755,0.0,0.0,0.0,0.0,24,27,31,25,28,26,0,0.00020387637778185308,-32.243839263916016,-27.67040252685547,-0.14747481048107147,-4.289532661437988,0.005780461244285107,0.0,0.0949999988079071,-4.90749979019165,-3.612499952316284,0.06750000268220901,-0.5874999761581421,-0.04500000178813934,0.0,0.0,0.0,29.97881700311526,0.0,0.0,0.0,0.0,531.113,1.927,612.249,-179.3494835672513,-72.27123470019616,-0.878401595715065
47.062212228775024,0.0,0.0,-54.263801452809034,0.0,0.0,0.0,0.0,24,27,31,25,28,26,0,0.0003341169795021415,-31.24691390991211,-27.12605094909668,-0.12576770782470703,-4.721009254455566,0.004926860798150301,0.0,0.24250000715255737,-5.622499942779541,-3.5174999237060547,0.019999999552965164,-1.0449999570846558,-0.042500000447034836,0.0,0.0,0.0,29.97881700311526,0.0,0.0,0.0,0.0,526.677,2.643,461.29,-179.81140214168576,-54.28523007434692,-0.3743133275589668
47.563008308410645,0.0,0.0,-46.464929128606315,0.0,0.0,0.0,0.0,24,27,31,25,28,26,0,2.993425354380783e-17,-29.768383026123047,-26.372325897216797,-0.11232239753007889,-4.742502212524414,0.004416916519403458,0.0,0.13500000536441803,-5.505000114440918,-4.602499961853027,-7.016956460326185e-16,-1.2400000095367432,-0.04500000178813934,0.0,0.0,0.0,0.0,0.0,0.0,0.0,0.0,510.142,2.935,397.704,-179.88898062714648,-46.48658693326226,-0.2771969812842923
48.06381893157959,0.0,0.0,-49.95573179122037,0.0,0.0,0.0,0.0,24,27,31,25,28,26,0,0.0003635960747487843,-30.58030891418457,-34.1036376953125,-0.11821568757295609,-4.758147239685059,0.004629821516573429,0.0,0.1574999988079071,-4.875,-7.329999923706055,-0.03999999910593033,-1.0700000524520874,-0.03500000014901161,0.0,0.0,0.0,-30.0317646295612,0.0,0.0,0.0,0.0,518.613,2.806,425.885,-179.85832738510697,-49.977332300096805,-0.316673773368806
48.56465172767639,0.0,0.0,-61.96842221971272,0.0,0.0,0.0,0.0,24,27,31,25,28,26,0,0.0002843654074240476,-40.635501861572266,-31.324588775634766,-0.1364215612411499,-4.596347332000732,0.0053457412868738174,0.0,0.08500000089406967,-6.065000057220459,-6.84499979019165,-0.07000000029802322,-0.9325000047683716,-0.019999999552965164,0.0,0.0,0.0,-30.0317646295612,0.0,0.0,0.0,0.0,534.39,2.341,525.737,-179.6884453988507,-61.98956436235306,-0.515719311397254
49.06548547744751,0.0,0.0,-77.47197260659864,0.0,0.0,0.0,0.0,24,27,31,25,28,26,0,-1.8412148734730064e-17,-31.83279800415039,-29.495174407958984,-0.1512485146522522,-4.064589023590088,0.005947630386799574,0.0,0.1550000011920929,-4.860000133514404,-5.147500038146973,-0.07999999821186066,-0.7300000190734863,-1.4311468676808659e-16,0.0,0.0,0.0,0.0,0.0,0.0,0.0,0.0,523.532,1.716,655.593,-178.95929930876719,-77.49116669273553,-1.2803314889993376
49.56633543968201,0.0,0.0,-77.47197260659864,0.0,0.0,0.0,0.0,24,27,31,25,28,26,0,-1.8412148734730064e-17,-31.83279800415039,-37.03012466430664,-0.1512485146522522,-4.064589023590088,0.005947630386799574,0.0,0.19750000536441803,-4.894999980926514,-6.462500095367432,-0.07000000029802322,-0.6299999952316284,0.014999999664723873,0.0,0.0,0.0,0.0,0.0,0.0,0.0,0.0,523.532,1.716,655.593,-178.95929930876719,-77.49116669273553,-1.2803314889993376
50.067193031311035,0.0,0.0,-64.26987909119421,0.0,0.0,0.0,0.0,24,27,31,25,28,26,0,0.0002651951217558235,-32.13007736206055,-25.953392028808594,-0.13952918350696564,-4.535982131958008,0.00546799274161458,0.0,0.17249999940395355,-5.130000114440918,-3.3125,-0.032499998807907104,-0.6800000071525574,0.03999999910593033,0.0,0.0,0.0,29.993156985277704,0.0,0.0,0.0,0.0,535.006,2.249,545.129,-179.63670730995037,-64.29079205071649,-0.5728432035717971
50.56799364089966,0.0,0.0,-52.27260122739088,0.0,0.0,0.0,0.0,24,27,31,25,28,26,0,0.00034706355654634535,-30.975034713745117,-27.271291732788086,-0.12255649268627167,-4.740912914276123,0.004800566006451845,0.0,0.10000000149011612,-5.835000038146973,-3.5425000190734863,-0.012500000186264515,-0.824999988079071,0.057500001043081284,0.0,0.0,0.0,29.993156985277704,0.0,0.0,0.0,0.0,523.281,2.719,444.85,-179.83454963660904,-52.2941444404878,-0.3462383955975565
51.06882047653198,0.0,0.0,-34.27668443168589,0.0,0.0,0.0,0.0,24,27,31,25,28,26,0,0.0004404982610139996,-27.1478328704834,-24.334667205810547,-0.08734051883220673,-4.661595344543457,0.0034157487098127604,0.0,0.1875,-4.635000228881836,-3.0299999713897705,0.007499999832361937,-1.0299999713897705,0.07249999791383743,0.0,0.0,0.0,29.993156985277704,0.0,0.0,0.0,0.0,467.496,3.351,304.428,-179.96209004180517,-34.2986860110189,-0.17131438074411615
51.56959271430969,0.0,0.0,-29.112730415730802,0.0,0.0,0.0,0.0,24,27,31,25,28,26,0,2.6654659431686163e-17,-25.402433395385742,-14.912324905395508,-0.07538171112537384,-4.526800632476807,0.002964277286082506,0.0,0.1899999976158142,-4.137499809265137,-2.6024999618530273,0.019999999552965164,-1.0850000381469727,0.05999999865889549,0.0,0.0,0.0,0.0,0.0,0.0,0.0,0.0,443.636,3.508,268.03,-179.9823727477528,-29.134789290843337,-0.13602018056405743
52.07043790817261,0.0,0.0,-34.400615202772684,0.0,0.0,0.0,0.0,24,27,31,25,28,26,0,0.0004414737340994179,-27.115812301635742,-27.459434509277344,-0.08708100765943527,-4.659604549407959,0.0034055220894515514,0.0,0.10000000149011612,-4.59499979019165,-6.170000076293945,-0.019999999552965164,-0.9800000190734863,0.019999999552965164,0.0,0.0,0.0,-30.01031783556736,0.0,0.0,0.0,0.0,468.028,3.347,305.327,-179.96151708401004,-34.422559486326186,-0.17217381743681237
52.57128286361694,0.0,0.0,-46.404711264338076,0.0,0.0,0.0,0.0,24,27,31,25,28,26,0,0.00038355804281309247,-29.9468994140625,-31.370159149169922,-0.11179924756288528,-4.766321182250977,0.004377531353384256,0.0,0.24250000715255737,-5.457499980926514,-6.852499961853027,-0.05000000074505806,-0.9024999737739563,-1.6219664500383146e-16,0.0,0.0,0.0,-30.01031783556736,0.0,0.0,0.0,0.0,509.981,2.937,397.223,-179.88943899338258,-46.426426364773526,-0.27656672770964835
53.072081327438354,0.0,0.0,-64.41088400457592,0.0,0.0,0.0,0.0,24,27,31,25,28,26,0,0.0002662275801412761,-41.05424880981445,-34.52165985107422,-0.13941307365894318,-4.538524627685547,0.005463405512273312,0.0,0.12999999523162842,-6.127500057220459,-7.402500152587891,-0.07249999791383743,-0.7950000166893005,-0.029999999329447746,0.0,0.0,0.0,-30.01031783556736,0.0,0.0,0.0,0.0,535.019,2.244,546.318,-179.63321226740007,-64.43185425987771,-0.5766820207991735
53.57292032241821,0.0,0.0,-74.26031498177232,0.0,0.0,0.0,0.0,24,27,31,25,28,26,0,-5.029412807096956e-18,-31.982534408569336,-27.489675521850586,-0.1491280496120453,-4.195098876953125,0.005864245817065239,0.0,0.05999999865889549,-5.110000133514404,-4.797500133514404,-0.07999999821186066,-0.7300000190734863,-0.05000000074505806,0.0,0.0,0.0,0.0,0.0,0.0,0.0,0.0,528.663,1.846,629.01,-179.2303083458641,-74.28019661726337,-1.0021031836838097
54.07385015487671,0.0,0.0,-73.68752907398004,0.0,0.0,0.0,0.0,24,27,31,25,28,26,0,-0.014327882789075375,-35.979000091552734,-29.77821922302246,-0.10841083526611328,-2.4723727703094482,0.0034690257161855698,0.0,0.2549999952316284,-5.369999885559082,-4.21999979019165,-0.05000000074505806,-0.6800000071525574,-0.05000000074505806,0.0,0.0,0.0,21.906627941974683,0.0,0.0,0.0,0.0,529.421,1.869,624.241,-179.26732141942952,-73.70746800525059,-0.9638296029690708
54.5745952129364,0.0,0.0,-61.766798371606185,0.0,0.0,0.0,0.0,24,27,31,25,28,26,0,0.00028381356969475746,-31.986217498779297,-25.28345489501953,-0.13647086918354034,-4.5954766273498535,0.005347698461264372,0.0,0.12999999523162842,-5.070000171661377,-3.194999933242798,-0.029999999329447746,-0.7174999713897705,-0.029999999329447746,0.0,0.0,0.0,30.01719242096698,0.0,0.0,0.0,0.0,534.299,2.349,524.039,-179.69257069497561,-61.78788321846701,-0.5111356490362075
55.07913947105408,0.0,0.0,-55.15658428918188,0.0,0.0,0.0,0.0,24,27,31,25,28,26,0,-1.1830078626791979e-18,-31.12647247314453,-26.08308982849121,-0.12715984880924225,-4.687972068786621,0.005000378005206585,0.0,0.09000000357627869,-5.737500190734863,-4.112500190734863,-7.086345399365257e-16,-0.9549999833106995,-1.3097162243624894e-16,0.0,0.0,0.0,0.0,0.0,0.0,0.0,0.0,528.014,2.609,468.697,-179.8000575773422,-55.17801291071977,-0.38777783574454117
55.57976222038269,0.0,0.0,-59.966335796187096,0.0,0.0,0.0,0.0,24,27,31,25,28,26,0,0.0002982997102662921,-31.83062744140625,-31.78443145751953,-0.1337844729423523,-4.6375041007995605,0.005242056678980589,0.0,0.1525000035762787,-5.647500038146973,-6.925000190734863,0.017500000074505806,-1.1399999856948853,0.009999999776482582,0.0,0.0,0.0,-30.019849364554112,0.0,0.0,0.0,0.0,533.22,2.421,508.899,-179.72677627534495,-59.98753523460693,-0.47263288520341606
56.08038282394409,0.0,0.0,-77.97823811437625,0.0,0.0,0.0,0.0,24,27,31,25,28,26,0,0.00015996440197341144,-32.01681137084961,-32.32878112792969,-0.1512845754623413,-4.071884632110596,0.005930223502218723,0.0,0.09000000357627869,-5.460000038146973,-7.019999980926514,0.03999999910593033,-1.152500033378601,0.03750000149011612,0.0,0.0,0.0,-30.019849364554112,0.0,0.0,0.0,0.0,522.587,1.695,659.755,-178.9032640364034,-77.99720301739507,-1.3375126769533938
56.58102345466614,0.0,0.0,-90.10626494702844,0.0,0.0,0.0,0.0,24,27,31,25,28,26,0,5.707525269826874e-05,-30.643108367919922,-32.285804748535156,-0.15475055575370789,-3.462430953979492,0.0060665179044008255,0.0,0.057500001043081284,-5.337500095367432,-7.012499809265137,0.07000000029802322,-1.0199999809265137,0.05000000074505806,0.0,0.0,0.0,-30.019849364554112,0.0,0.0,0.0,0.0,489.189,1.214,756.193,-66.51065973217135,-89.6809010799233,-113.7579054342493
57.081727266311646,0.0,0.0,-91.79391213258627,0.0,0.0,0.0,0.0,24,27,31,25,28,26,0,2.895458466687249e-18,-30.15329933166504,-25.10991668701172,-0.15486162900924683,-3.333832263946533,0.006089710630476475,0.0,0.1599999964237213,-4.855000019073486,-4.800000190734863,0.07999999821186066,-0.4124999940395355,0.07249999791383743,0.0,0.0,0.0,0.0,0.0,0.0,0.0,0.0,482.95,1.149,768.98,-9.438562942308103,-88.1602710916461,-170.83252323841114
57.58236050605774,0.0,0.0,-82.07265181416062,0.0,0.0,0.0,0.0,24,27,31,25,28,26,0,0.0001235216623172164,-31.66164779663086,-24.878393173217773,-0.1533147245645523,-3.873518943786621,0.006010094657540321,0.0,0.10249999910593033,-5.132500171661377,-3.125,0.0625,-0.6324999928474426,0.09000000357627869,0.0,0.0,0.0,29.988662720803834,0.0,0.0,0.0,0.0,513.605,1.531,693.077,-178.18466036975033,-82.08978325223502,-2.0653409641080787
58.08298373222351,0.0,0.0,-64.07942792009274,0.0,0.0,0.0,0.0,24,27,31,25,28,26,0,0.0002665153588168323,-32.120853424072266,-27.628793716430664,-0.13930588960647583,-4.540802478790283,0.005459217354655266,0.0,0.20999999344348907,-5.507500171661377,-3.6050000190734863,0.019999999552965164,-1.1775000095367432,0.09000000357627869,0.0,0.0,0.0,29.988662720803834,0.0,0.0,0.0,0.0,534.985,2.257,543.523,-179.64134826809095,-64.10039817539452,-0.5677438791951327
58.58360552787781,0.0,0.0,-46.08626132180436,0.0,0.0,0.0,0.0,24,27,31,25,28,26,0,0.0003834402305074036,-29.931514739990234,-25.164894104003906,-0.11165277659893036,-4.766262531280518,0.004371799062937498,0.0,0.13500000536441803,-5.414999961853027,-3.174999952316284,-0.009999999776482582,-1.1100000143051147,0.0625,0.0,0.0,0.0,29.988662720803834,0.0,0.0,0.0,0.0,509.12,2.949,394.68,-179.89196000768115,-46.107976422239815,-0.2732435724978896
59.0842502117157,0.0,0.0,-44.40199458723779,0.0,0.0,0.0,0.0,24,27,31,25,28,26,0,1.32326531044721e-17,-29.361217498779297,-24.317834854125977,-0.10840796679258347,-4.739444732666016,0.004262987058609724,0.0,0.004999999888241291,-5.309999942779541,-3.819999933242798,-0.03999999910593033,-1.0299999713897705,0.03999999910593033,0.0,0.0,0.0,0.0,0.0,0.0,0.0,0.0,504.335,3.009,381.311,-179.90462237495353,-44.42370968767325,-0.2562267259825042
59.584903955459595,0.0,0.0,-47.22341065780051,0.0,0.0,0.0,0.0,24,27,31,25,28,26,0,7.381501706072102e-18,-29.91005516052246,-35.82682418823242,-0.11372528225183487,-4.742081165313721,0.004472082946449518,0.0,0.08500000089406967,-4.142499923706055,-6.252500057220459,-0.07999999821186066,-0.9200000166893005,0.007499999832361937,0.0,0.0,0.0,0.0,0.0,0.0,0.0,0.0,512.128,2.907,403.782,-179.88279268295906,-47.24506846245645,-0.28533298197514995
60.085545778274536,0.0,0.0,-47.13288332616983,0.0,0.0,0.0,0.0,24,27,31,25,28,26,0,-0.006718874908983707,-24.56995964050293,-35.853675842285156,-0.08696487545967102,-3.584031105041504,0.0028995329048484564,0.0,0.1525000035762787,-4.420000076293945,-5.639999866485596,-0.07999999821186066,-0.8450000286102295,-0.007499999832361937,0.0,0.0,0.0,6.735444627827742,0.0,0.0,0.0,0.0,511.896,2.911,403.056,-179.88353752809275,-47.15454113082578,-0.28435895372342757
60.58617615699768,0.0,0.0,-45.37252779640989,0.0,0.0,0.0,0.0,24,27,31,25,28,26,0,1.5138282021169713e-17,-29.55673599243164,-24.51335334777832,-0.11026741564273834,-4.7416486740112305,0.0043361070565879345,0.0,0.10750000178813934,-5.349999904632568,-4.71750020980835,-0.03999999910593033,-0.8500000238418579,-0.042500000447034836,0.0,0.0,0.0,0.0,0.0,0.0,0.0,0.0,507.14,2.974,388.998,-179.8974604025144,-45.39424289684535,-0.2659097127202151
61.08679556846619,0.0,0.0,-53.173348177116054,0.0,0.0,0.0,0.0,24,27,31,25,28,26,0,0.00034273351775482297,-31.06871223449707,-32.03216552734375,-0.12363897264003754,-4.734931945800781,0.004843143280595541,0.0,0.18250000476837158,-5.442500114440918,-6.96750020980835,-7.155734338404329e-16,-0.9100000262260437,-0.05000000074505806,0.0,0.0,0.0,-29.985070041300407,0.0,0.0,0.0,0.0,524.888,2.685,452.272,-179.82440828363522,-53.194891390212966,-0.35861428397238226
61.587148666381836,0.0,0.0,-71.16439483156245,0.0,0.0,0.0,0.0,24,27,31,25,28,26,0,0.00021442188881337643,-32.261566162109375,-34.51039123535156,-0.14634887874126434,-4.336375713348389,0.005736177787184715,0.0,0.1525000035762787,-5.579999923706055,-7.400000095367432,0.07249999791383743,-1.027500033378601,-0.05000000074505806,0.0,0.0,0.0,-29.985070041300407,0.0,0.0,0.0,0.0,532.192,1.971,603.152,-179.40322700843458,-71.18473483328958,-0.8221944360127313
62.08775568008423,0.0,0.0,-83.15846413171305,0.0,0.0,0.0,0.0,24,27,31,25,28,26,0,0.00011635765986284241,-31.57453727722168,-31.946216583251953,-0.1536087691783905,-3.832204818725586,0.006021662149578333,0.0,0.10999999940395355,-5.679999828338623,-6.952499866485596,0.0949999988079071,-1.0824999809265137,-0.04500000178813934,0.0,0.0,0.0,-29.985070041300407,0.0,0.0,0.0,0.0,510.826,1.487,701.799,-177.8489643975832,-83.17473613309475,-2.4034433590147772
62.58841156959534,0.0,0.0,-101.14945349037991,0.0,0.0,0.0,0.0,24,27,31,25,28,26,0,-3.886031481670216e-05,-37.53675079345703,-28.321990966796875,-0.15188908576965332,-2.7730696201324463,0.005954038351774216,0.0,0.029999999329447746,-5.602499961853027,-6.320000171661377,0.08500000089406967,-0.8999999761581421,-0.019999999552965164,0.0,0.0,0.0,-29.985070041300407,0.0,0.0,0.0,0.0,441.747,0.802,836.135,-1.81014556215681,-78.82426759466641,-178.48202546542322
63.08914852142334,0.0,0.0,-113.14352279053051,0.0,0.0,0.0,0.0,24,27,31,25,28,26,0,-0.0001411658013239503,-24.978273391723633,-25.743492126464844,-0.1424092948436737,-1.9100110530853271,0.005581258796155453,0.0,-9.107298248878237e-17,-4.949999809265137,-5.869999885559082,0.07999999821186066,-0.6800000071525574,-1.4311468676808659e-16,0.0,0.0,0.0,-29.985070041300407,0.0,0.0,0.0,0.0,373.938,0.401,910.9,-1.0436426238307945,-66.83226094257827,-179.27574389901795
63.589805364608765,0.0,0.0,-131.1345694449769,0.0,0.0,0.0,0.0,24,27,31,25,28,26,0,-0.000281740038190037,-18.27798843383789,-16.704416275024414,-0.11672036349773407,-0.47381556034088135,0.004571078810840845,0.0,0.017500000074505806,-3.634999990463257,-4.292500019073486,0.07000000029802322,-0.33500000834465027,0.019999999552965164,0.0,0.0,0.0,-29.985070041300407,0.0,0.0,0.0,0.0,246.966,-0.073,992.731,-0.7418657531353899,-48.84207372482459,-179.62077908324576
64.09048175811768,0.0,0.0,-138.6954923968618,0.0,0.0,0.0,0.0,24,27,31,25,28,26,0,8.175032611306473e-18,-5.745250225067139,-6.174075126647949,-0.10226816684007645,0.18502601981163025,0.0040215482003986835,0.0,0.03500000014901161,-0.8575000166893005,-1.0774999856948853,0.054999999701976776,-0.027499999850988388,0.032499998807907104,0.0,0.0,0.0,0.0,0.0,0.0,0.0,0.0,187.118,-0.216,1014.544,-0.6852575229764646,-41.28132266027825,-179.69698246999815
64.59109997749329,0.0,0.0,-135.68992769094402,0.0,0.0,0.0,0.0,24,27,31,25,28,26,0,-0.0003154003934469074,-16.243122100830078,-5.283462047576904,-0.10781107097864151,-0.07759924978017807,0.0042207143269479275,0.0,0.12999999523162842,-1.6050000190734863,0.29499998688697815,0.014999999664723873,0.3100000023841858,0.05999999865889549,0.0,0.0,0.0,30.000677023553887,0.0,0.0,0.0,0.0,211.249,-0.164,1006.821,-0.7051964542470172,-44.2868300704165,-179.66913672115479
65.09172034263611,0.0,0.0,-123.5696357885261,0.0,0.0,0.0,0.0,24,27,31,25,28,26,0,-0.00022733643709216267,-21.20298957824707,-18.319211959838867,-0.1287297159433365,-1.0720938444137573,0.005043310113251209,0.0,0.16249999403953552,-3.492500066757202,-1.9800000190734863,-7.24247051220317e-16,-0.3400000035762787,0.07249999791383743,0.0,0.0,0.0,30.000677023553887,0.0,0.0,0.0,0.0,303.452,0.105,963.216,-0.8273510561689087,-56.40672090237783,-179.51661535609097
65.59233784675598,0.0,0.0,-105.56924992201908,0.0,0.0,0.0,0.0,24,27,31,25,28,26,0,-7.913925946922973e-05,-27.181772232055664,-23.533512115478516,-0.14897821843624115,-2.4500818252563477,0.0058395531959831715,0.0,0.19499999284744263,-4.392499923706055,-2.890000104904175,-0.05000000074505806,-0.6299999952316284,0.07999999821186066,0.0,0.0,0.0,30.000677023553887,0.0,0.0,0.0,0.0,418.597,0.648,865.322,-1.3889642869561416,-74.40561707861751,-178.91311891047965
66.09294295310974,0.0,0.0,-93.56893538190155,0.0,0.0,0.0,0.0,24,27,31,25,28,26,0,2.4905895770643838e-05,-29.991546630859375,-26.26958656311035,-0.15442977845668793,-3.244292974472046,0.006053927354514599,0.0,0.1550000011920929,-5.067500114440918,-3.367500066757202,-0.07500000298023224,-0.6800000071525574,0.07999999821186066,0.0,0.0,0.0,30.000677023553887,0.0,0.0,0.0,0.0,475.984,1.081,782.224,-4.955626561645516,-86.39670699823343,-175.31952761941912
66.59358263015747,0.0,0.0,-75.56854951539454,0.0,0.0,0.0,0.0,24,27,31,25,28,26,0,0.00017751907580532134,-32.136253356933594,-27.14341163635254,-0.1499425172805786,-4.162490367889404,0.005877472925931215,0.0,0.125,-5.682499885559082,-3.5199999809265137,-0.05000000074505806,-0.75,0.07999999821186066,0.0,0.0,0.0,30.000677023553887,0.0,0.0,0.0,0.0,526.753,1.793,639.872,-179.13462439407724,-75.588144671988,-1.1007665160053375
67.09422659873962,0.0,0.0,-63.56915170774922,0.0,0.0,0.0,0.0,24,27,31,25,28,26,0,0.00042234972352162004,-32.210968017578125,-26.567237854003906,-0.13916605710983276,-4.573812007904053,0.005462843459099531,0.0,0.19499999284744263,-5.867499828338623,-3.4200000762939453,-0.029999999329447746,-0.800000011920929,0.07999999821186066,0.0,0.0,0.0,29.811357840139472,0.0,0.0,0.0,0.0,534.901,2.277,539.222,-179.6534376775682,-63.59012196305101,-0.5544512583480976
67.59486746788025,0.0,0.0,-62.24269711624186,0.0,0.0,0.0,0.0,24,27,31,25,28,26,0,-3.731848908180442e-18,-31.791362762451172,-26.74798011779785,-0.13710865378379822,-4.563701152801514,0.005391600541770458,0.0,0.1525000035762787,-5.849999904632568,-4.462500095367432,-7.103692634125025e-16,-1.0,0.07999999821186066,0.0,0.0,0.0,0.0,0.0,0.0,0.0,0.0,534.504,2.33,528.047,-179.68271582089938,-62.263781963102666,-0.5220791429232061
68.09515762329102,0.0,0.0,-70.77019986851244,0.0,0.0,0.0,0.0,24,27,31,25,28,26,0,0.00021781149553135037,-32.2642936706543,-32.43074417114258,-0.14599880576133728,-4.349884986877441,0.00572238489985466,0.0,0.20999999344348907,-5.607500076293945,-7.037499904632568,0.012500000186264515,-1.1399999856948853,0.07999999821186066,0.0,0.0,0.0,-30.005891872985192,0.0,0.0,0.0,0.0,532.541,1.987,599.847,-179.42121788320168,-70.79053987023957,-0.8033441245529273
68.59578394889832,0.0,0.0,-88.11678359499567,0.0,0.0,0.0,0.0,24,27,31,25,28,26,0,-0.014387908391654491,-34.22024917602539,-29.415699005126953,-0.11735149472951889,-5.613999843597412,0.0038819594774395227,0.0,0.20999999344348907,-5.107500076293945,-6.052499771118164,0.03999999910593033,-1.002500057220459,0.07999999821186066,0.0,0.0,0.0,-6.634939674851474,0.0,0.0,0.0,0.0,496.056,1.291,740.892,-171.38611506006652,-88.11655441187762,-8.877637260875026
69.096435546875,0.0,0.0,-88.17940788200347,0.0,0.0,0.0,0.0,24,27,31,25,28,26,0,-1.6416928506272292e-18,-30.730257034301758,-32.245574951171875,-0.15485936403274536,-3.5398409366607666,0.006089621223509312,0.0,0.14749999344348907,-4.644999980926514,-5.627500057220459,0.06750000268220901,-0.5724999904632568,0.0625,0.0,0.0,0.0,0.0,0.0,0.0,0.0,0.0,495.848,1.289,741.377,-171.0808431468208,-88.17837655797223,-9.183023765679756
69.59708094596863,0.0,0.0,-77.12029111194735,0.0,0.0,0.0,0.0,24,27,31,25,28,26,0,0.00016519073687959462,-32.055015563964844,-28.666278839111328,-0.15092426538467407,-4.098308086395264,0.005916038993746042,0.0,0.13750000298023224,-5.237500190734863,-3.7850000858306885,0.07000000029802322,-0.6575000286102295,0.027499999850988388,0.0,0.0,0.0,30.032485214518637,0.0,0.0,0.0,0.0,524.166,1.73,652.696,-178.9956248329785,-77.13954249386374,-1.2432038238748602
70.0977885723114,0.0,0.0,-65.10725690877791,0.0,0.0,0.0,0.0,24,27,31,25,28,26,0,0.00025968177942559123,-32.16737365722656,-26.889978408813477,-0.1404927372932434,-4.514220237731934,0.005505834240466356,0.0,0.14749999344348907,-5.804999828338623,-3.4749999046325684,0.07000000029802322,-1.0225000381469727,-1.6219664500383146e-16,0.0,0.0,0.0,30.032485214518637,0.0,0.0,0.0,0.0,535.037,2.216,552.189,-179.6153932799715,-65.12816986830019,-0.5961052900541085
70.59846234321594,0.0,0.0,-47.08779154769304,0.0,0.0,0.0,0.0,24,27,31,25,28,26,0,0.00037893070839345455,-30.121126174926758,-25.027729034423828,-0.11350970715284348,-4.765974044799805,0.00444476492702961,0.0,0.15000000596046448,-5.582499980926514,-3.1500000953674316,0.03999999910593033,-1.1924999952316284,-0.02500000037252903,0.0,0.0,0.0,30.032485214518637,0.0,0.0,0.0,0.0,511.779,2.912,402.694,-179.8838813027698,-47.10944935234898,-0.2838432917078098
71.09909319877625,0.0,0.0,-39.03189035659464,0.0,0.0,0.0,0.0,24,27,31,25,28,26,0,-6.5780185772978e-18,-28.154918670654297,-22.089149475097656,-0.09757238626480103,-4.702707290649414,0.0038368934765458107,0.0,0.1550000011920929,-5.012499809265137,-3.8550000190734863,0.019999999552965164,-1.1150000095367432,-0.042500000447034836,0.0,0.0,0.0,0.0,0.0,0.0,0.0,0.0,486.488,3.195,339.721,-179.93854147642529,-39.05377734436863,-0.20804097541200192
71.59976196289062,0.0,0.0,-41.67901266587855,0.0,0.0,0.0,0.0,24,27,31,25,28,26,0,0.00040854953113012016,-28.956523895263672,-38.718746185302734,-0.1025971844792366,-4.7490081787109375,0.004015672020614147,0.0,0.13500000536441803,-4.652500152587891,-8.135000228881836,-0.019999999552965164,-0.9800000190734863,-0.05249999836087227,0.0,0.0,0.0,-30.01147213753709,0.0,0.0,0.0,0.0,495.773,3.105,360.013,-179.92289972861823,-41.70084235787304,-0.23078739987869562
72.10044074058533,0.0,0.0,-53.68356709368005,0.0,0.0,0.0,0.0,24,27,31,25,28,26,0,0.00034010258968919516,-31.13912582397461,-33.18929672241211,-0.12446285784244537,-4.729938983917236,0.004875508137047291,0.0,0.12250000238418579,-5.567500114440918,-7.170000076293945,-0.04749999940395355,-0.8899999856948853,-0.03999999910593033,0.0,0.0,0.0,-30.01147213753709,0.0,0.0,0.0,0.0,525.746,2.665,456.487,-179.81839222678636,-53.70505301099745,-0.36583355219103064
72.6010754108429,0.0,0.0,-71.81051933713147,0.0,0.0,0.0,0.0,24,27,31,25,28,26,0,0.00020971063349861652,-40.98725128173828,-34.4642219543457,-0.14690667390823364,-4.313898086547852,0.00575807923451066,0.0,0.14249999821186066,-6.117499828338623,-7.392499923706055,-0.07999999821186066,-0.7549999952316284,-0.019999999552965164,0.0,0.0,0.0,-30.01147213753709,0.0,0.0,0.0,0.0,531.571,1.945,608.563,-179.37205810437945,-71.83074474729959,-0.8547957345556751
73.10170197486877,0.0,0.0,-83.81513106071247,0.0,0.0,0.0,0.0,24,27,31,25,28,26,0,0.0001109977820306085,-40.149749755859375,-33.16064453125,-0.15381352603435516,-3.7996115684509277,0.006029680836945772,0.0,0.16249999403953552,-5.992499828338623,-7.164999961853027,-0.07999999821186066,-0.699999988079071,-1.5352302762394743e-16,0.0,0.0,0.0,-30.01147213753709,0.0,0.0,0.0,0.0,509.065,1.461,707.048,-177.58849778391672,-83.83071551274004,-2.6653423671690764
73.60235571861267,0.0,0.0,-101.82199135030447,0.0,0.0,0.0,0.0,24,27,31,25,28,26,0,-4.476164031075314e-05,-28.229799270629883,-29.13532066345215,-0.1515304297208786,-2.7275731563568115,0.00593990134075284,0.0,0.19249999523162842,-5.425000190734863,-6.462500095367432,-0.10000000149011612,-0.637499988079071,0.019999999552965164,0.0,0.0,0.0,-30.01147213753709,0.0,0.0,0.0,0.0,438.37,0.778,840.69,-1.7256342873750132,-78.15195891785991,-178.56802643047237
74.10299944877625,0.0,0.0,-113.8266030738855,0.0,0.0,0.0,0.0,24,27,31,25,28,26,0,-0.00014710584946442395,-24.75612449645996,-23.290719985961914,-0.14167653024196625,-1.858053207397461,0.005552411079406738,0.0,0.21250000596046448,-4.8125,-5.442500114440918,-0.10000000149011612,-0.5975000262260437,0.03500000014901161,0.0,0.0,0.0,-30.01147213753709,0.0,0.0,0.0,0.0,369.622,0.38,914.713,-1.0234745094421895,-66.14923795500283,-179.29751629523292
74.60367822647095,0.0,0.0,-131.83346336347748,0.0,0.0,0.0,0.0,24,27,31,25,28,26,0,-0.0002872311160899699,-17.986997604370117,-14.452195167541504,-0.1154712587594986,-0.41624465584754944,0.004521926399320364,0.0,0.23999999463558197,-3.5625,-3.9000000953674316,-0.10999999940395355,-0.4025000035762787,0.05999999865889549,0.0,0.0,0.0,-30.01147213753709,0.0,0.0,0.0,0.0,241.561,-0.088,995.077,-0.7356205131684639,-48.143179806324014,-179.62874319659807
75.10433673858643,0.0,0.0,-139.4024650202737,0.0,0.0,0.0,0.0,24,27,31,25,28,26,0,-1.7896810250025852e-17,-5.644750118255615,-5.386199951171875,-0.10082434117794037,0.24348080158233643,0.0039647719822824,0.0,0.25999999046325684,-0.8424999713897705,-0.9399999976158142,-0.11749999970197678,-0.017500000074505806,0.0625,0.0,0.0,0.0,0.0,0.0,0.0,0.0,0.0,181.386,-0.228,1016.176,-0.6810176352924965,-40.57440733264584,-179.70317041418556
75.60497093200684,0.0,0.0,-136.87474711549504,0.0,0.0,0.0,0.0,24,27,31,25,28,26,0,-0.00032364833168685436,-15.727703094482422,-7.190842151641846,-0.10549046099185944,0.02045121230185032,0.0041294400580227375,0.0,0.1599999964237213,-1.7174999713897705,-0.03750000149011612,-0.05000000074505806,0.20499999821186066,0.029999999329447746,0.0,0.0,0.0,30.01619862844274,0.0,0.0,0.0,0.0,201.785,-0.185,1010.016,-0.6970031577766465,-43.10201064586547,-179.68042398971886
76.1055977344513,0.0,0.0,-124.86830192696962,0.0,0.0,0.0,0.0,24,27,31,25,28,26,0,-0.0002375767071498558,-20.702425003051758,-18.57921600341797,-0.12674854695796967,-0.967021107673645,0.004965384025126696,0.0,0.1899999976158142,-3.3499999046325684,-2.0250000953674316,-7.155734338404329e-16,-0.1274999976158142,0.009999999776482582,0.0,0.0,0.0,30.01619862844274,0.0,0.0,0.0,0.0,294.04,0.072,968.809,-0.8098185476379056,-55.108169355493324,-179.53729913249518
76.60625720024109,0.0,0.0,-106.85857684840198,0.0,0.0,0.0,0.0,24,27,31,25,28,26,0,-9.028584463521838e-05,-26.819866180419922,-21.816667556762695,-0.14799746870994568,-2.3577990531921387,0.005800966639071703,0.0,0.10000000149011612,-4.297500133514404,-2.5899999141693115,0.05999999865889549,-0.6524999737739563,-0.019999999552965164,0.0,0.0,0.0,30.01619862844274,0.0,0.0,0.0,0.0,411.427,0.604,873.491,-1.3079480547246434,-73.11646203957315,-178.9970572274663
77.10696172714233,0.0,0.0,-94.85207436409704,0.0,0.0,0.0,0.0,24,27,31,25,28,26,0,1.3766250049229711e-05,-29.741567611694336,-25.627117156982422,-0.1541675627231598,-3.1655492782592773,0.006043597124516964,0.0,0.14000000059604645,-5.065000057220459,-3.255000114440918,0.04500000178813934,-0.8149999976158142,-0.03999999910593033,0.0,0.0,0.0,30.01619862844274,0.0,0.0,0.0,0.0,470.695,1.033,791.661,-3.7365442609456636,-85.11671928391117,-176.54153200487414
77.60714650154114,0.0,0.0,-76.84234928552938,0.0,0.0,0.0,0.0,24,27,31,25,28,26,0,0.0001672941871220246,-32.07088088989258,-27.460716247558594,-0.15075667202472687,-4.110009670257568,0.00590946851298213,0.0,0.17749999463558197,-5.732500076293945,-3.575000047683716,0.03999999910593033,-0.949999988079071,-0.05000000074505806,0.0,0.0,0.0,30.01619862844274,0.0,0.0,0.0,0.0,524.655,1.741,650.404,-179.02295491980624,-76.86165796322528,-1.2153007792519892
78.10778403282166,0.0,0.0,-64.83590409700395,0.0,0.0,0.0,0.0,24,27,31,25,28,26,0,0.0002614166587591171,-32.15586853027344,-27.088266372680664,-0.14018376171588898,-4.521373271942139,0.005493704229593277,0.0,0.1599999964237213,-5.929999828338623,-3.509999990463257,0.032499998807907104,-1.0225000381469727,-0.05000000074505806,0.0,0.0,0.0,30.01619862844274,0.0,0.0,0.0,0.0,535.039,2.227,549.9,-179.62244066085162,-64.85675976074671,-0.5884276555993554
78.60810708999634,0.0,0.0,-46.8261790184363,0.0,0.0,0.0,0.0,24,27,31,25,28,26,0,0.0003800005652010441,-38.86000061035156,-25.226016998291016,-0.11302796751260757,-4.766181468963623,0.004425841849297285,0.0,0.1525000035762787,-5.800000190734863,-3.184999942779541,0.019999999552965164,-1.1100000143051147,-0.05000000074505806,0.0,0.0,0.0,30.01619862844274,0.0,0.0,0.0,0.0,511.098,2.922,400.596,-179.8860585423913,-46.847836823092244,-0.28103579851166877
79.10884833335876,0.0,0.0,-34.82265591466604,0.0,0.0,0.0,0.0,24,27,31,25,28,26,0,0.0010530336294323206,-27.852445602416992,-24.211742401123047,-0.09190890192985535,-4.816565036773682,0.003661080962046981,0.0,0.17000000178813934,-5.147500038146973,-3.012500047683716,0.014999999664723873,-1.1100000143051147,-0.05000000074505806,0.0,0.0,0.0,29.48214955233403,0.0,0.0,0.0,0.0,469.824,3.333,308.398,-179.9596263232861,-34.84460019821956,-0.17526778953051883
79.60949087142944,0.0,0.0,-33.61268364290877,0.0,0.0,0.0,0.0,24,27,31,25,28,26,0,2.5042107223460987e-17,-26.731958389282227,-21.688575744628906,-0.08576971292495728,-4.623786449432373,0.0033727705013006926,0.0,0.18000000715255737,-4.037499904632568,-3.7699999809265137,0.0024999999441206455,-1.059999942779541,-0.05000000074505806,0.0,0.0,0.0,0.0,0.0,0.0,0.0,0.0,464.613,3.372,299.629,-179.96495483078084,-33.63468522224179,-0.16650153526501724
80.11013913154602,0.0,0.0,-42.49616507329413,0.0,0.0,0.0,0.0,24,27,31,25,28,26,0,0.00040396268013864756,-29.139389038085938,-29.252004623413086,-0.10424055904150009,-4.754278659820557,0.004080316983163357,0.0,0.14000000059604645,-5.202499866485596,-6.482500076293945,-7.155734338404329e-16,-1.0299999713897705,-0.05000000074505806,0.0,0.0,0.0,-29.99424640045032,0.0,0.0,0.0,0.0,498.448,3.076,366.362,-179.91768581268255,-42.51799476528862,-0.23817855543588323
80.61079454421997,0.0,0.0,-60.492712122573785,0.0,0.0,0.0,0.0,24,28,31,25,28,26,0,0.0002941081183962524,-31.87367057800293,-34.07952880859375,-0.1344943344593048,-4.62717866897583,0.005270003341138363,0.0,0.13750000298023224,-5.892499923706055,-7.324999809265137,-7.155734338404329e-16,-0.9900000095367432,-0.05000000074505806,0.0,0.0,0.0,-29.99424640045032,0.0,0.0,0.0,0.0,533.585,2.4,513.322,-179.71720788016626,-60.51391156099362,-0.4834617875313886
81.11117625236511,0.0,0.0,-69.73618293563983,0.0,0.0,0.0,0.0,24,28,31,25,28,26,0,-9.15090969231387e-18,-32.049842834472656,-32.93317413330078,-0.14534813165664673,-4.356500625610352,0.005715605802834034,0.0,0.23000000417232513,-4.957499980926514,-5.747499942779541,-0.009999999776482582,-0.949999988079071,-0.05000000074505806,0.0,0.0,0.0,0.0,0.0,0.0,0.0,0.0,533.348,2.029,591.167,-179.46493456297017,-69.756637528926,-0.7572210220448959
81.61195683479309,0.0,0.0,-71.6582271551857,0.0,0.0,0.0,0.0,24,28,31,25,28,26,0,0.00021033710800111294,-32.25649642944336,-39.869693756103516,-0.1467774510383606,-4.31918478012085,0.005753048695623875,0.0,0.07249999791383743,-5.315000057220459,-8.335000038146973,-0.02500000037252903,-0.8924999833106995,-0.05000000074505806,0.0,0.0,0.0,-29.970593455354567,0.0,0.0,0.0,0.0,531.723,1.951,607.289,-179.37962114727517,-71.67850986113332,-0.8469462127623829
82.11257886886597,0.0,0.0,-83.76637235234685,0.0,0.0,0.0,0.0,24,28,31,25,28,26,0,0.00011110668128821999,-31.508193969726562,-34.78431701660156,-0.15379954874515533,-3.80197811126709,0.006029182579368353,0.0,0.20999999344348907,-5.827499866485596,-7.447500228881836,-0.029999999329447746,-0.8500000238418579,-0.029999999329447746,0.0,0.0,0.0,-29.970593455354567,0.0,0.0,0.0,0.0,509.198,1.463,706.659,-177.60975451811606,-83.78201410015392,-2.64402833719021
82.61319732666016,0.0,0.0,-101.74871004830725,0.0,0.0,0.0,0.0,24,28,31,25,28,26,0,-4.4007672840962186e-05,-28.247535705566406,-27.464242935180664,-0.1515709012746811,-2.7324771881103516,0.005941544193774462,0.0,0.1599999964237213,-4.614999771118164,-6.170000076293945,-0.03999999910593033,-0.7799999713897705,-1.5005358067199381e-16,0.0,0.0,0.0,-29.970593455354567,0.0,0.0,0.0,0.0,438.741,0.781,840.195,-1.7343432458610017,-78.22518292407761,-178.55914558464784
83.11385679244995,0.0,0.0,-113.73699247472702,0.0,0.0,0.0,0.0,24,27,31,25,28,26,0,-0.00014596314576920122,-24.78506088256836,-23.00916862487793,-0.14177411794662476,-1.864814043045044,0.005556299816817045,0.0,0.06499999761581421,-3.9000000953674316,-5.392499923706055,-0.05000000074505806,-0.7124999761581421,0.004999999888241291,0.0,0.0,0.0,-29.970593455354567,0.0,0.0,0.0,0.0,370.191,0.383,914.215,-1.0260528195202783,-66.2388485541613,-179.29470880203678
83.61455011367798,0.0,0.0,-125.2496626354087,0.0,0.0,0.0,0.0,24,27,31,25,28,26,0,5.702886873321745e-20,-20.510732650756836,-21.25830078125,-0.1265290081501007,-0.9219639301300049,0.00497557083144784,0.0,0.042500000447034836,-2.8975000381469727,-3.7100000381469727,-0.05000000074505806,-0.17000000178813934,0.029999999329447746,0.0,0.0,0.0,0.0,0.0,0.0,0.0,0.0,291.253,0.063,970.411,-0.8049484063792935,-54.72680864705425,-179.54314330200552
84.11513781547546,0.0,0.0,-125.24954804384969,0.0,0.0,0.0,0.0,24,28,31,25,28,26,0,5.702886873321745e-20,-20.510732650756836,-15.4673490524292,-0.1265290081501007,-0.9219639301300049,0.00497557083144784,0.0,0.17749999463558197,-3.442500114440918,-2.884999990463257,-0.05999999865889549,0.06499999761581421,0.042500000447034836,0.0,0.0,0.0,0.030592123807796214,0.0,0.0,0.0,0.0,291.253,0.063,970.411,-0.8049484063792935,-54.72692323861328,-179.54314330200552
84.61580157279968,0.0,0.0,-108.67743136904477,0.0,0.0,0.0,0.0,24,28,31,25,28,26,0,-0.00010577954526524991,-26.290395736694336,-17.862279891967773,-0.14648689329624176,-2.225585460662842,0.005741572007536888,0.0,0.06750000268220901,-4.09499979019165,-1.899999976158142,-0.05000000074505806,-0.550000011920929,0.07000000029802322,0.0,0.0,0.0,29.98904862649194,0.0,0.0,0.0,0.0,401.003,0.544,884.737,-1.2128370607329266,-71.29783670204841,-179.09629351758298
85.11644148826599,0.0,0.0,-107.23071293633944,0.0,0.0,0.0,0.0,24,28,31,25,28,26,0,-1.5483631581271827e-17,-26.600547790527344,-21.557165145874023,-0.14798392355442047,-2.315760612487793,0.00581925455480814,0.0,0.09000000357627869,-4.297500133514404,-3.740000009536743,-7.016956460326185e-16,-0.7850000262260437,0.09000000357627869,0.0,0.0,0.0,0.0,0.0,0.0,0.0,0.0,409.323,0.592,875.819,-1.2868059120843158,-72.74438324741519,-179.01900151101984
85.61710000038147,0.0,0.0,-116.83560552657401,0.0,0.0,0.0,0.0,24,28,31,25,28,26,0,-0.00017177032714243978,-23.743328094482422,-28.076866149902344,-0.13821110129356384,-1.6259243488311768,0.005416154395788908,0.0,0.22499999403953552,-4.210000038146973,-6.277500152587891,0.054999999701976776,-0.5550000071525574,0.07999999821186066,0.0,0.0,0.0,-29.99828645734438,0.0,0.0,0.0,0.0,350.08,0.29,930.884,-0.9470992353512507,-63.14040738965283,-179.38088165442448
86.11775231361389,0.0,0.0,-128.83488874266033,0.0,0.0,0.0,0.0,24,28,31,25,28,26,0,-0.0002652738185133785,-19.221933364868164,-18.651016235351562,-0.12070603668689728,-0.6629159450531006,0.004727792926132679,0.0,0.17249999940395355,-3.2074999809265137,-4.632500171661377,0.032499998807907104,-0.3400000035762787,0.0625,0.0,0.0,0.0,-29.99828645734438,0.0,0.0,0.0,0.0,264.543,-0.022,984.552,-0.7640392198069528,-51.14163983558215,-179.59281874284335
86.61838793754578,0.0,0.0,-142.39954995082354,0.0,0.0,0.0,0.0,24,27,31,25,28,26,0,8.231737496658208e-18,-2.2947499752044678,-3.4809749126434326,-0.09453539550304413,0.49078336358070374,0.0037174681201577187,0.0,0.13750000298023224,-0.3425000011920929,-0.6075000166893005,-6.652664530371055e-16,0.057500001043081284,0.019999999552965164,0.0,0.0,0.0,0.0,0.0,0.0,0.0,0.0,156.876,-0.273,1022.305,-0.6644018592337027,-37.57737969787553,-179.7279221909352
87.1190414428711,0.0,0.0,-142.39954995082354,0.0,0.0,0.0,0.0,24,28,31,25,28,26,0,8.231737496658208e-18,-13.294682502746582,-8.251299858093262,-0.09453539550304413,0.49078336358070374,0.0037174681201577187,0.0,0.13750000298023224,-2.7200000286102295,-2.069999933242798,-0.029999999329447746,0.2800000011920929,-1.968911145233676e-16,0.0,0.0,0.0,0.0,0.0,0.0,0.0,0.0,156.876,-0.273,1022.305,-0.6644018592337027,-37.57737969787553,-179.7279221909352
87.61974000930786,0.0,0.0,-127.87489795691863,0.0,0.0,0.0,0.0,24,28,31,25,28,26,0,-0.00025995264877565205,-19.512819290161133,-17.745887756347656,-0.12191417813301086,-0.7219154834747314,0.004775301553308964,0.0,0.18000000715255737,-3.375,-1.8799999952316284,-0.07249999791383743,-0.1875,-0.027499999850988388,0.0,0.0,0.0,29.998341098857743,0.0,0.0,0.0,0.0,271.781,-0.0,980.93,-0.7741805727807684,-52.10157332554434,-179.58032826290952
88.12041735649109,0.0,0.0,-115.87561474083233,0.0,0.0,0.0,0.0,24,28,31,25,28,26,0,-0.00016587883874308318,-23.99044418334961,-18.719987869262695,-0.13907545804977417,-1.6818897724151611,0.0054501439444720745,0.0,0.17000000178813934,-3.7074999809265137,-2.049999952316284,-0.029999999329447746,-0.5600000023841858,-0.05000000074505806,0.0,0.0,0.0,29.998341098857743,0.0,0.0,0.0,0.0,356.407,0.318,925.837,-0.9694445893613529,-64.100340879615,-179.35624446923384
88.6212375164032,0.0,0.0,-97.75656931495372,0.0,0.0,0.0,0.0,24,28,31,25,28,26,0,-1.1509607247717213e-05,-29.12957000732422,-23.934288024902344,-0.1532890796661377,-2.9814722537994385,0.006009073927998543,0.0,0.1599999964237213,-4.882500171661377,-2.9600000381469727,0.03999999910593033,-0.7200000286102295,-0.03999999910593033,0.0,0.0,0.0,29.998341098857743,0.0,0.0,0.0,0.0,457.951,0.925,812.568,-2.4602234765122417,-82.21543289670721,-177.82432721239255
89.12193417549133,0.0,0.0,-85.75728609886743,0.0,0.0,0.0,0.0,24,28,31,25,28,26,0,9.23204788705334e-05,-31.240386962890625,-27.243362426757812,-0.1543498933315277,-3.687584400177002,0.006050789263099432,0.0,0.14249999821186066,-5.409999847412109,-3.5374999046325684,0.07999999821186066,-0.800000011920929,-0.027499999850988388,0.0,0.0,0.0,29.998341098857743,0.0,0.0,0.0,0.0,503.507,1.384,722.448,-176.34483559380575,-85.76971928302176,-3.913416332302549
89.62275409698486,0.0,0.0,-78.912216616219,0.0,0.0,0.0,0.0,24,28,31,25,28,26,0,-5.685913799236404e-18,-31.738283157348633,-26.694900512695312,-0.15204545855522156,-4.001891136169434,0.00597896846011281,0.0,0.23499999940395355,-5.724999904632568,-4.537499904632568,0.05999999865889549,-0.9200000166893005,-1.8821749714348357e-16,0.0,0.0,0.0,0.0,0.0,0.0,0.0,0.0,520.748,1.658,667.411,-178.7863233504172,-78.93089504034026,-1.456573306781579
90.12314987182617,0.0,0.0,-83.11457556460601,0.0,0.0,0.0,0.0,24,28,31,25,28,26,0,0.00011671627726173028,-31.579174041748047,-33.1783561706543,-0.15359435975551605,-3.8343656063079834,0.006021097302436829,0.0,0.10249999910593033,-5.672500133514404,-7.167500019073486,0.032499998807907104,-0.9900000095367432,0.012500000186264515,0.0,0.0,0.0,-29.98351617326423,0.0,0.0,0.0,0.0,510.942,1.489,701.448,-177.86460614539024,-83.13084756598774,-2.387744315428193
90.62383079528809,0.0,0.0,-101.10464819080069,0.0,0.0,0.0,0.0,24,28,31,25,28,26,0,-3.846810068353079e-05,-28.40621566772461,-27.548629760742188,-0.15191224217414856,-2.7760887145996094,0.0059549505822360516,0.0,0.10999999940395355,-4.792500019073486,-6.184999942779541,-6.722053469410127e-16,-0.8700000047683716,0.03999999910593033,0.0,0.0,0.0,-29.98351617326423,0.0,0.0,0.0,0.0,441.97,0.804,835.83,-1.8161043232261707,-78.86901559846613,-178.47595211279486
91.12447834014893,0.0,0.0,-113.09808723737665,0.0,0.0,0.0,0.0,24,28,31,25,28,26,0,-0.00014077256491873413,-24.992952346801758,-25.18500518798828,-0.14245730638504028,-1.913458228111267,0.005583149380981922,0.0,0.07500000298023224,-4.002500057220459,-5.772500038146973,-0.029999999329447746,-0.6424999833106995,0.05249999836087227,0.0,0.0,0.0,-29.98351617326423,0.0,0.0,0.0,0.0,374.224,0.402,910.645,-1.0450177225391084,-66.87769649573215,-179.27425420875062
91.62510776519775,0.0,0.0,-131.08815986357132,0.0,0.0,0.0,0.0,24,28,31,25,28,26,0,-0.00028137859771959484,-18.297225952148438,-16.303504943847656,-0.11680261790752411,-0.4776332676410675,0.004574315622448921,0.0,0.08250000327825546,-3.197499990463257,-4.222499847412109,-0.07000000029802322,-0.3050000071525574,0.07999999821186066,0.0,0.0,0.0,-29.98351617326423,0.0,0.0,0.0,0.0,247.324,-0.072,992.573,-0.7422668235919815,-48.88842601045068,-179.6202634212301
92.12576079368591,0.0,0.0,-143.08159891014725,0.0,0.0,0.0,0.0,24,28,31,25,28,26,0,-0.0003605819947551936,-13.066996574401855,-9.585079193115234,-0.09313999116420746,0.5132383704185486,0.0036438165698200464,0.0,0.07999999821186066,-2.674999952316284,-3.049999952316284,-0.10000000149011612,-0.07999999821186066,0.07500000298023224,0.0,0.0,0.0,-29.98351617326423,0.0,0.0,0.0,0.0,151.255,-0.283,1023.52,-0.6609068166834046,-36.8953307385518,-179.73325069842994
92.6264386177063,0.0,0.0,-146.68424293437084,0.0,0.0,0.0,0.0,24,28,31,25,28,26,0,-1.0794780406096375e-18,-11.350313186645508,-6.306930065155029,-0.08509984612464905,0.8418343663215637,0.0033464287407696247,0.0,0.07249999791383743,-1.8524999618530273,-1.2575000524520874,-0.07999999821186066,0.3499999940395355,0.03999999910593033,0.0,0.0,0.0,0.0,0.0,0.0,0.0,0.0,121.353,-0.328,1028.823,-0.6443483364041238,-33.29274401010772,-179.75995053168302
93.12705993652344,0.0,0.0,-139.2345883863004,0.0,0.0,0.0,0.0,24,28,31,25,28,26,0,-0.00033895837259478867,-14.687704086303711,-13.292981147766113,-0.10073557496070862,0.21568018198013306,0.003942464012652636,0.0,0.07999999821186066,-2.6500000953674316,-1.1024999618530273,-0.0024999999441206455,0.23749999701976776,0.019999999552965164,0.0,0.0,0.0,30.01395491130039,0.0,0.0,0.0,0.0,182.749,-0.225,1015.795,-0.6819916635442189,-40.74228396661917,-179.7016807239182
93.62767744064331,0.0,0.0,-121.22618111066153,0.0,0.0,0.0,0.0,24,28,31,25,28,26,0,-0.00020919494272675365,-22.085304260253906,-15.65660572052002,-0.13213582336902618,-1.2603557109832764,0.0051772333681583405,0.0,0.08250000327825546,-3.450000047683716,-1.5149999856948853,0.07750000059604645,-0.46000000834465027,-2.2811613709095013e-16,0.0,0.0,0.0,30.01395491130039,0.0,0.0,0.0,0.0,320.106,0.167,952.589,-0.8628744394670198,-58.75006098868338,-179.47547698640057
94.12832975387573,0.0,0.0,-109.22059535882879,0.0,0.0,0.0,0.0,24,28,31,25,28,26,0,-0.00011041638208553195,-26.12810707092285,-20.01140594482422,-0.14600691199302673,-2.1856634616851807,0.005722693633288145,0.0,0.14749999344348907,-4.40500020980835,-2.2750000953674316,0.04500000178813934,-0.6175000071525574,-0.029999999329447746,0.0,0.0,0.0,30.01395491130039,0.0,0.0,0.0,0.0,397.821,0.526,888.031,-1.1879706924242488,-70.75473000804391,-179.12236309726146
94.62896823883057,0.0,0.0,-91.21224537896946,0.0,0.0,0.0,0.0,24,28,31,25,28,26,0,4.539457950158976e-05,-30.418479919433594,-25.32598114013672,-0.15470874309539795,-3.38474440574646,0.006064881104975939,0.0,0.19499999284744263,-5.309999942779541,-3.202500104904175,0.007499999832361937,-0.7400000095367432,-0.042500000447034836,0.0,0.0,0.0,30.01395491130039,0.0,0.0,0.0,0.0,485.143,1.171,764.594,-13.61049783177368,-88.73122353449396,-166.65915595445773
95.12962508201599,0.0,0.0,-79.20665962713673,0.0,0.0,0.0,0.0,24,28,31,25,28,26,0,0.00014773850853089243,-31.913738250732422,-27.675281524658203,-0.152070090174675,-4.007223129272461,0.0059611196629703045,0.0,0.19750000536441803,-5.635000228881836,-3.612499952316284,-0.007499999832361937,-0.8199999928474426,-0.032499998807907104,0.0,0.0,0.0,30.01395491130039,0.0,0.0,0.0,0.0,520.143,1.646,669.818,-178.74524227650633,-79.22522345969897,-1.4983419300466159
95.63024067878723,0.0,0.0,-61.07821769341797,0.0,0.0,0.0,0.0,24,28,31,25,28,26,0,0.00028866276261396706,-31.937467575073242,-27.044981002807617,-0.13558365404605865,-4.610302448272705,0.005312813911587,0.0,0.19750000536441803,-5.880000114440918,-3.502500057220459,-0.05000000074505806,-0.9399999976158142,-0.009999999776482582,0.0,0.0,0.0,30.01395491130039,0.0,0.0,0.0,0.0,533.942,2.377,518.245,-179.70620709049973,-61.09935983605829,-0.4958949716857275
96.13084983825684,0.0,0.0,-49.072631941585236,0.0,0.0,0.0,0.0,24,28,31,25,28,26,0,0.0003669798607006669,-30.47262954711914,-25.856006622314453,-0.11708713322877884,-4.7609543800354,0.004585465416312218,0.0,0.20000000298023224,-5.722499847412109,-3.2950000762939453,-0.07999999821186066,-1.0199999809265137,-2.1423834928313568e-16,0.0,0.0,0.0,30.01395491130039,0.0,0.0,0.0,0.0,516.632,2.839,418.708,-179.86663527313638,-49.09428974624118,-0.30618864571791193
96.6311342716217,0.0,0.0,-41.74301205159467,0.0,0.0,0.0,0.0,24,28,31,25,28,26,0,-3.8313963725884425e-18,-28.789987564086914,-23.746604919433594,-0.10315597802400589,-4.726442813873291,0.004056460224092007,0.0,0.10999999940395355,-4.849999904632568,-3.867500066757202,-0.03999999910593033,-1.1399999856948853,0.02250000089406967,0.0,0.0,0.0,0.0,0.0,0.0,0.0,0.0,495.986,3.103,360.509,-179.92249865816163,-41.76484174358915,-0.23136035767382643
97.13174104690552,0.0,0.0,-45.350468921297356,0.0,0.0,0.0,0.0,24,28,31,25,28,26,0,0.00038938995567150414,-29.74043083190918,-29.221263885498047,-0.1098102554678917,-4.765254020690918,0.004299315623939037,0.0,0.16500000655651093,-4.789999961853027,-6.477499961853027,-6.461844948013606e-16,-1.162500023841858,0.03999999910593033,0.0,0.0,0.0,-30.01153019414504,0.0,0.0,0.0,0.0,507.078,2.975,388.823,-179.89763228985296,-45.37224131751233,-0.2656805296021627
97.63244581222534,0.0,0.0,-63.35744380244838,0.0,0.0,0.0,0.0,24,28,31,25,28,26,0,0.0002739588962867856,-41.3390007019043,-31.498937606811523,-0.13815370202064514,-4.564464092254639,0.005413880571722984,0.0,0.1899999976158142,-6.170000076293945,-6.875,0.07000000029802322,-1.1699999570846558,0.07000000029802322,0.0,0.0,0.0,-30.01153019414504,0.0,0.0,0.0,0.0,534.855,2.286,537.438,-179.6583078188268,-63.37841405775017,-0.549122750853381
98.13309025764465,0.0,0.0,-75.36199823024988,0.0,0.0,0.0,0.0,24,28,31,25,28,26,0,0.00018127482326235622,-32.15623092651367,-35.06586456298828,-0.1496393084526062,-4.180431365966797,0.005865536164492369,0.0,0.1899999976158142,-5.59250020980835,-7.497499942779541,0.06750000268220901,-1.1299999952316284,0.08500000089406967,0.0,0.0,0.0,-30.01153019414504,0.0,0.0,0.0,0.0,527.071,1.801,638.16,-179.15089639545894,-75.38165068262286,-1.0840361483875176
98.63374614715576,0.0,0.0,-93.3689731114009,0.0,0.0,0.0,0.0,24,28,31,25,28,26,0,2.874931124097202e-05,-30.074596405029297,-32.816837310791016,-0.15450164675712585,-3.270953893661499,0.006056739948689938,0.0,0.1899999976158142,-4.84499979019165,-7.105000019073486,0.05000000074505806,-0.9800000190734863,0.09000000357627869,0.0,0.0,0.0,-30.01153019414504,0.0,0.0,0.0,0.0,476.789,1.089,780.743,-5.228297176348275,-86.59603901515943,-175.04639863848027
99.13447260856628,0.0,0.0,-100.33774418201807,0.0,0.0,0.0,0.0,24,28,31,25,28,26,0,6.337392150696431e-18,-28.39727783203125,-26.558549880981445,-0.1524224877357483,-2.795727252960205,0.005993794649839401,0.0,0.1899999976158142,-3.799999952316284,-4.635000228881836,0.03999999910593033,-0.675000011920929,0.08250000327825546,0.0,0.0,0.0,0.0,0.0,0.0,0.0,0.0,445.75,0.831,830.584,-1.9267997692454455,-79.63569042413069,-178.36353779339018
99.63514804840088,0.0,0.0,-104.66059615472112,0.0,0.0,0.0,0.0,24,28,31,25,28,26,0,-6.919438601471484e-05,-37.302249908447266,-31.802776336669922,-0.1497882753610611,-2.5312533378601074,0.005871424917131662,0.0,0.1899999976158142,-5.567500114440918,-6.927499771118164,0.03999999910593033,-0.5249999761581421,0.04500000178813934,0.0,0.0,0.0,-29.986644399904094,0.0,0.0,0.0,0.0,423.539,0.679,859.468,-1.454682546057647,-75.31404166279742,-178.8453380033157
100.13579988479614,0.0,0.0,-116.65523841266683,0.0,0.0,0.0,0.0,24,28,31,25,28,26,0,-0.00017016538185998797,-23.805389404296875,-26.57415008544922,-0.13842971622943878,-1.63994300365448,0.00542476586997509,0.0,0.1899999976158142,-3.9049999713897705,-6.014999866485596,0.029999999329447746,-0.6549999713897705,0.02500000037252903,0.0,0.0,0.0,-29.986644399904094,0.0,0.0,0.0,0.0,351.275,0.295,929.944,-0.9511672356966797,-63.320717207780504,-179.37635528784293
100.6364517211914,0.0,0.0,-131.77336009076825,0.0,0.0,0.0,0.0,24,28,31,25,28,26,0,3.531041798214518e-17,-17.895227432250977,-12.520050048828125,-0.11555028706789017,-0.3874591588973999,0.0045438483357429504,0.0,0.1899999976158142,-1.9299999475479126,-2.184999942779541,0.019999999552965164,-0.1525000035762787,-2.0209528495129803e-16,0.0,0.0,0.0,0.0,0.0,0.0,0.0,0.0,242.027,-0.086,994.878,-0.7361934709635948,-48.203283079033234,-179.6281129430234
101.13713002204895,0.0,0.0,-131.77336009076825,0.0,0.0,0.0,0.0,24,28,31,25,28,26,0,3.531041798214518e-17,-17.895227432250977,-12.851844787597656,-0.11555028706789017,-0.3874591588973999,0.0045438483357429504,0.0,0.1899999976158142,-3.1649999618530273,-2.627500057220459,0.012500000186264515,0.11249999701976776,-0.02500000037252903,0.0,0.0,0.0,0.0,0.0,0.0,0.0,0.0,242.027,-0.086,994.878,-0.7361934709635948,-48.203283079033234,-179.6281129430234
101.63777089118958,0.0,0.0,-121.35578416392012,0.0,0.0,0.0,0.0,24,28,31,25,28,26,0,-3.0809001591076027e-18,-33.29899978637695,-23.063249588012695,-0.13230936229228973,-1.235748291015625,0.005202875006943941,0.0,0.1899999976158142,-4.96999979019165,-4.025000095367432,-6.635317295611287e-16,-0.32749998569488525,-0.03999999910593033,0.0,0.0,0.0,0.0,0.0,0.0,0.0,0.0,319.197,0.163,953.194,-0.8607544956250357,-58.620515231204294,-179.47788340914013
102.13841676712036,0.0,0.0,-121.35578416392012,0.0,0.0,0.0,0.0,24,28,31,25,28,26,0,-3.0809001591076027e-18,-21.978487014770508,-16.935104370117188,-0.13230936229228973,-1.235748291015625,0.005202875006943941,0.0,0.20749999582767487,-3.362499952316284,-3.3975000381469727,-6.635317295611287e-16,-0.46000000834465027,-0.029999999329447746,0.0,0.0,0.0,0.0,0.0,0.0,0.0,0.0,319.197,0.163,953.194,-0.8607544956250357,-58.620515231204294,-179.47788340914013
102.63904786109924,0.0,0.0,-106.97494457659305,0.0,0.0,0.0,0.0,24,28,31,25,28,26,0,-9.090012463275343e-05,-26.786096572875977,-22.209077835083008,-0.14790622889995575,-2.3493266105651855,0.005797457415610552,0.0,0.027499999850988388,-4.402500152587891,-2.6600000858306885,-0.004999999888241291,-0.2574999928474426,-1.691355389077387e-16,0.0,0.0,0.0,29.95362385036167,0.0,0.0,0.0,0.0,410.771,0.6,874.22,-1.3012444485216126,-73.00009431138209,-179.00404731256694
103.13967990875244,0.0,0.0,-94.99348034793532,0.0,0.0,0.0,0.0,24,28,31,25,28,26,0,1.2485166735132225e-05,-29.712547302246094,-25.66140365600586,-0.15413479506969452,-3.1566872596740723,0.006042386870831251,0.0,0.24500000476837158,-5.130000114440918,-3.262500047683716,-0.009999999776482582,-0.5099999904632568,0.009999999776482582,0.0,0.0,0.0,29.95362385036167,0.0,0.0,0.0,0.0,470.099,1.028,792.693,-3.640230055584172,-84.97554248319094,-176.6381899849127
103.64036679267883,0.0,0.0,-91.51579841882976,0.0,0.0,0.0,0.0,24,28,31,25,28,26,0,1.2590235896237132e-18,-30.20127296447754,-25.15789031982422,-0.15488335490226746,-3.3501651287078857,0.006090564653277397,0.0,0.3174999952316284,-5.587500095367432,-4.612500190734863,-6.513886652292911e-16,-0.9624999761581421,0.03750000149011612,0.0,0.0,0.0,0.0,0.0,0.0,0.0,0.0,484.004,1.16,766.885,-11.053730966781895,-88.43425950927765,-169.21666766458316
104.14114427566528,0.0,0.0,-87.55883729409727,0.0,0.0,0.0,0.0,24,28,31,25,28,26,0,-1.426288530920491e-19,-41.43949890136719,-25.78499984741211,-0.15479695796966553,-3.5738167762756348,0.006087167654186487,0.0,0.13750000298023224,-6.184999942779541,-4.5,0.019999999552965164,-0.6625000238418579,0.05000000074505806,0.0,0.0,0.0,0.0,0.0,0.0,0.0,0.0,497.887,1.313,736.558,-173.4204017116785,-87.5637647311354,-6.841975510554725
104.64180898666382,0.0,0.0,-85.12903787650647,0.0,0.0,0.0,0.0,24,28,31,25,28,26,0,9.889137436402962e-05,-31.322298049926758,-18.373329162597656,-0.15421631932258606,-3.7206387519836426,0.0060453033074736595,0.0,0.20000000298023224,-3.932499885559082,-1.9850000143051147,0.04500000178813934,-0.5400000214576721,0.07750000059604645,0.0,0.0,0.0,30.184084678241653,0.0,0.0,0.0,0.0,505.362,1.409,717.487,-176.85585665128295,-85.14278886358962,-3.4009628803375405
105.1424298286438,0.0,0.0,-81.37112228980243,0.0,0.0,0.0,0.0,24,28,31,25,28,26,0,-2.094220926480875e-18,-31.537975311279297,-21.616424560546875,-0.15318381786346436,-3.8890252113342285,0.00602373294532299,0.0,0.0949999988079071,-5.307499885559082,-3.7725000381469727,0.05999999865889549,-0.8475000262260437,0.09000000357627869,0.0,0.0,0.0,0.0,0.0,0.0,0.0,0.0,515.313,1.559,687.415,-178.35643311673056,-81.38871209411295,-1.8919639353014914
105.64307570457458,0.0,0.0,-74.65204622630327,0.0,0.0,0.0,0.0,24,28,31,25,28,26,0,0.00018465217726770788,-32.174827575683594,-27.3979434967041,-0.14931093156337738,-4.198967933654785,0.005852666217833757,0.0,0.1574999988079071,-5.017499923706055,-3.565000057220459,0.042500000447034836,-0.7699999809265137,0.07500000298023224,0.0,0.0,0.0,29.97677136145884,0.0,0.0,0.0,0.0,528.117,1.83,632.267,-179.20337932949295,-74.67181327023529,-1.0299489325271678
106.143728017807,0.0,0.0,-62.66135737714394,0.0,0.0,0.0,0.0,24,28,31,25,28,26,0,0.0002766264951787889,-32.0430793762207,-26.180316925048828,-0.1375943422317505,-4.575162887573242,0.005391928367316723,0.0,0.20749999582767487,-5.489999771118164,-3.3524999618530273,0.03999999910593033,-0.699999988079071,0.05000000074505806,0.0,0.0,0.0,29.97677136145884,0.0,0.0,0.0,0.0,534.657,2.314,531.572,-179.67383497507484,-62.68238492822525,-0.5319913127789694
106.64436316490173,0.0,0.0,-44.67529545551519,0.0,0.0,0.0,0.0,24,28,31,25,28,26,0,0.0003908397920895368,-29.652244567871094,-24.590242385864258,-0.10897859185934067,-4.764289379119873,0.004266655072569847,0.0,0.14249999821186066,-5.327499866485596,-3.075000047683716,0.029999999329447746,-1.002500057220459,0.019999999552965164,0.0,0.0,0.0,29.97677136145884,0.0,0.0,0.0,0.0,505.138,2.999,383.471,-179.9026170226706,-44.69701055595065,-0.258919627619619
107.14500188827515,0.0,0.0,-32.725114722471616,0.0,0.0,0.0,0.0,24,28,31,25,28,26,0,0.003535168245434761,-29.623687744140625,-23.26951026916504,-0.10226543992757797,-5.430018424987793,0.004365264438092709,0.0,0.19499999284744263,-5.107500076293945,-2.9100000858306885,0.0024999999441206455,-1.159999966621399,-1.8995222061946038e-16,0.0,0.0,0.0,26.18962783462541,0.0,0.0,0.0,0.0,460.673,3.399,293.268,-179.96867905644916,-32.74711630180463,-0.16025629529809127
107.64564895629883,0.0,0.0,-31.96084631954661,0.0,0.0,0.0,0.0,24,28,31,25,28,26,0,2.6245110729882583e-17,-26.2590274810791,-21.21564483642578,-0.0820145532488823,-4.591468334197998,0.003225104184821248,0.0,0.15000000596046448,-3.877500057220459,-3.762500047683716,-0.029999999329447746,-1.0199999809265137,-0.029999999329447746,0.0,0.0,0.0,0.0,0.0,0.0,0.0,0.0,457.202,3.423,287.839,-179.97177302854288,-31.98284789887963,-0.15498508358288768
108.14638352394104,0.0,0.0,-41.19199854001735,0.0,0.0,0.0,0.0,24,28,31,25,28,26,0,0.00040956310112960637,-28.84443473815918,-31.834625244140625,-0.10160912573337555,-4.745314121246338,0.003976881969720125,0.0,0.14249999821186066,-5.190000057220459,-6.932499885559082,-0.05000000074505806,-0.8999999761581421,-0.05000000074505806,0.0,0.0,0.0,-29.960211567816145,0.0,0.0,0.0,0.0,494.135,3.122,356.248,-179.9259364049324,-41.213828232011835,-0.22643292063570133
108.64705395698547,0.0,0.0,-47.66682269545225,0.0,0.0,0.0,0.0,24,28,31,25,28,26,0,2.3249762346013736e-17,-29.990869522094727,-35.62627410888672,-0.11453628540039062,-4.74144983291626,0.004503974225372076,0.0,0.1599999964237213,-4.28000020980835,-6.21750020980835,-0.0625,-0.7599999904632568,-0.05000000074505806,0.0,0.0,0.0,0.0,0.0,0.0,0.0,0.0,513.252,2.891,407.348,-179.8790684572907,-47.688537795887704,-0.29020312323376196
109.14772987365723,0.0,0.0,-42.8560398644158,0.0,0.0,0.0,0.0,24,28,31,25,28,26,0,0.0004017067840322852,-29.2711181640625,-23.76607322692871,-0.10543294996023178,-4.757604122161865,0.004127167630940676,0.0,0.1599999964237213,-4.492499828338623,-2.930000066757202,-0.04749999940395355,-0.7599999904632568,-0.03999999910593033,0.0,0.0,0.0,30.024890044161584,0.0,0.0,0.0,0.0,499.598,3.064,369.17,-179.91527938994298,-42.87786955641029,-0.241501710647642
109.64854264259338,0.0,0.0,-24.721008916053037,0.0,0.0,0.0,0.0,24,28,31,25,28,26,0,0.0004740128933917731,-24.204050064086914,-19.38262367248535,-0.06490276753902435,-4.432768821716309,0.002533376682549715,0.0,0.20999999344348907,-4.472499847412109,-2.1649999618530273,-0.012500000186264515,-0.800000011920929,-0.009999999776482582,0.0,0.0,0.0,30.024890044161584,0.0,0.0,0.0,0.0,420.834,3.632,238.87,-179.99618103061545,-24.7431823827246,-0.10886198107485641
