Time (s),Pos_0,Pos_1,Pos_2,Pos_3,Pos_4,Pos_5,Pos_6,Temp_0,Temp_1,Temp_2,Temp_3,Temp_4,Temp_5,Temp_6,Torque_0,Torque_1,Torque_2,Torque_3,Torque_4,Torque_5,Torque_6,Current_0,Current_1,Current_2,Current_3,Current_4,Current_5,Current_6,Velocity_0,Velocity_1,Velocity_2,Velocity_3,Velocity_4,Velocity_5,Velocity_6,Tool_X,Tool_Y,Tool_Z,Tool_Roll,Tool_Pitch,Tool_Yaw
9.5367431640625e-07,0.0,0.0,-0.26419083933482257,0.0,0.0,0.0,0.0,26,33,38,28,33,29,0,-0.0007842617342248559,-16.37115478515625,-8.463521003723145,-0.022887155413627625,-4.253252029418945,0.0013249568874016404,0.0,0.20000000298023224,-2.549999952316284,-0.7275000214576721,-4.741866621582602e-15,-0.8500000238418579,0.019999999552965164,0.0,0.0,0.0,14.975591028866695,0.0,0.0,0.0,0.0,258.602,4.118,114.152,179.96753314085893,-0.28665078490395085,0.017475212751490107
0.5004703998565674,0.0,0.0,0.0,0.0,0.0,0.0,0.0,26,33,38,28,33,29,0,0.0,-14.196634292602539,-9.153251647949219,-4.003883448814899e-16,-3.266948938369751,-1.7458432649513574e-19,0.0,0.13249999284744263,-1.9075000286102295,-1.3049999475479126,-0.04500000178813934,-0.75,-1.4823212102221817e-15,0.0,0.0,0.0,0.0,0.0,0.0,0.0,0.0,256.587,4.121,113.204,179.9674758450794,-0.02245994556912827,0.01873571990077792
1.001081943511963,0.0,0.0,0.0,0.0,0.0,0.0,0.0,26,33,38,28,33,29,0,0.0,-14.196634292602539,-9.153251647949219,-4.003883448814899e-16,-3.266948938369751,-1.7458432649513574e-19,0.0,0.054999999701976776,-1.9199999570846558,-1.8075000047683716,-0.08749999850988388,-0.5874999761581421,-0.029999999329447746,0.0,0.0,0.0,0.0,0.0,0.0,0.0,0.0,256.587,4.121,113.204,179.9674758450794,-0.02245994556912827,0.01873571990077792
1.5016918182373047,0.0,0.0,-5.565540134562277,0.0,0.0,0.0,0.0,26,33,38,28,33,29,0,0.0002215472050011158,-16.640682220458984,-11.491697311401367,-0.014728086069226265,-3.591212034225464,0.0005708024255000055,0.0,0.08500000089406967,-2.240000009536743,-2.994999885559082,-0.07750000059604645,-0.5199999809265137,-0.05000000074505806,0.0,0.0,0.0,-20.003349625973733,0.0,0.0,0.0,0.0,298.061,4.045,135.109,179.97062711295263,-5.587942784351893,-0.007964113352318442
2.002349615097046,0.0,0.0,-17.567516252285685,0.0,0.0,0.0,0.0,26,33,38,28,33,29,0,0.00021756283240392804,-21.481054306030273,-16.147321701049805,-0.04647542163729668,-4.1595988273620605,0.0018192206043750048,0.0,0.20749999582767487,-3.555000066757202,-3.807499885559082,-4.781765261530069e-15,-0.5699999928474426,-0.09000000357627869,0.0,0.0,0.0,-20.003349625973733,0.0,0.0,0.0,0.0,379.12,3.811,195.366,179.98689911433434,-17.58980431051627,-0.06858304807715954
2.503021717071533,0.0,0.0,-25.568871861287633,0.0,0.0,0.0,0.0,26,33,38,28,33,29,0,0.0002095942327287048,-24.32058334350586,-23.66794776916504,-0.06659213453531265,-4.438967704772949,0.002610281342640519,0.0,0.23499999940395355,-4.137499809265137,-5.119999885559082,-4.781765261530069e-15,-0.6499999761581421,-0.10000000149011612,0.0,0.0,0.0,-20.003349625973733,0.0,0.0,0.0,0.0,425.409,3.609,244.362,-179.9937173120964,-25.59098803217968,-0.11390400967200767
3.003751754760742,0.0,0.0,-37.650890182990814,0.0,0.0,0.0,0.0,26,33,38,28,33,29,0,0.00018990073294844478,-27.881223678588867,-23.696598052978516,-0.09438899159431458,-4.696138858795166,0.003703352762386203,0.0,0.11999999731779099,-4.692500114440918,-5.125,-0.009999999776482582,-0.7749999761581421,-0.07999999821186066,0.0,0.0,0.0,-20.003349625973733,0.0,0.0,0.0,0.0,481.275,3.241,329.31,-179.9459326319825,-37.67283446654432,-0.19686829840695086
3.504382848739624,0.0,0.0,-45.65224579199276,0.0,0.0,0.0,0.0,26,33,38,28,33,29,0,0.00017215806292369962,-29.690364837646484,-32.893245697021484,-0.11056306958198547,-4.752525806427002,0.00433937506750226,0.0,0.11500000208616257,-5.012499809265137,-6.730000019073486,-0.019999999552965164,-0.8500000238418579,-0.06750000268220901,0.0,0.0,0.0,-20.003349625973733,0.0,0.0,0.0,0.0,507.925,2.964,391.221,-179.89534045867242,-45.67396089242822,-0.2687745016958692
4.004993677139282,0.0,0.0,-54.01823174181596,0.0,0.0,0.0,0.0,26,33,38,28,33,29,0,2.500072999485986e-17,-30.982160568237305,-36.57172393798828,-0.1253761202096939,-4.701293468475342,0.004930234979838133,0.0,0.14000000059604645,-5.03249979019165,-6.382500171661377,-0.029999999329447746,-0.9700000286102295,-0.03999999910593033,0.0,0.0,0.0,0.0,0.0,0.0,0.0,0.0,526.289,2.653,459.256,-179.81438152222046,-54.039717659133366,-0.37070369344964266
4.50564980506897,0.0,0.0,-54.01823174181596,0.0,0.0,0.0,0.0,26,33,38,28,33,29,0,2.500072999485986e-17,-30.982160568237305,-36.2995491027832,-0.1253761202096939,-4.701293468475342,0.004930234979838133,0.0,0.1599999964237213,-4.574999809265137,-6.335000038146973,-0.03999999910593033,-1.0499999523162842,-0.029999999329447746,0.0,0.0,0.0,0.0,0.0,0.0,0.0,0.0,526.289,2.653,459.256,-179.81438152222046,-54.039717659133366,-0.37070369344964266
5.0064475536346436,0.0,0.0,-64.84375361879725,0.0,0.0,0.0,0.0,26,33,38,28,33,29,0,0.00011631325469352305,-32.026100158691406,-33.58452224731445,-0.14006735384464264,-4.513095378875732,0.005499618127942085,0.0,0.1599999964237213,-6.005000114440918,-6.849999904632568,-0.05000000074505806,-1.1100000143051147,-1.4580350815585064e-15,0.0,0.0,0.0,-19.96754918943911,0.0,0.0,0.0,0.0,535.039,2.226,549.967,-179.62226877351307,-64.86466657831951,-0.5885995429378946
5.506813287734985,0.0,0.0,-72.83078528292093,0.0,0.0,0.0,0.0,26,33,38,28,33,29,0,8.910814358387142e-05,-32.11792755126953,-35.81922149658203,-0.1478864550590515,-4.262462139129639,0.005807093344628811,0.0,0.1599999964237213,-5.462500095367432,-7.239999771118164,-0.05000000074505806,-1.0800000429153442,0.009999999776482582,0.0,0.0,0.0,-19.96754918943911,0.0,0.0,0.0,0.0,530.466,1.904,617.094,-179.3180281842986,-72.8508388057505,-0.9111747815965482
6.007426500320435,0.0,0.0,-75.34979422921359,0.0,0.0,0.0,0.0,26,33,38,28,33,29,0,-7.641671825608686e-19,-31.941207885742188,-36.528751373291016,-0.14990021288394928,-4.152285099029541,0.005894609726965427,0.0,0.1599999964237213,-4.522500038146973,-6.375,-0.0625,-0.8999999761581421,0.03999999910593033,0.0,0.0,0.0,0.0,0.0,0.0,0.0,0.0,527.09,1.802,638.059,-179.15181312793118,-75.36938938580707,-1.083062120135795
6.508024215698242,0.0,0.0,-70.58112379611926,0.0,0.0,0.0,0.0,26,33,38,28,33,29,0,9.68740860116668e-05,-32.145198822021484,-26.041051864624023,-0.1461123526096344,-4.336282730102539,0.005737289786338806,0.0,0.1599999964237213,-4.974999904632568,-3.7174999713897705,-0.0625,-0.762499988079071,0.05000000074505806,0.0,0.0,0.0,20.015010466434237,0.0,0.0,0.0,0.0,532.701,1.995,598.261,-179.42952577123106,-70.60152109362592,-0.7945205745079126
7.008667707443237,0.0,0.0,-67.73386732899615,0.0,0.0,0.0,0.0,26,33,38,28,33,29,0,-7.684540977842129e-18,-32.02589416503906,-26.982513427734375,-0.14338450133800507,-4.419320106506348,0.00563838891685009,0.0,0.19249999523162842,-5.244999885559082,-4.702499866485596,0.02500000037252903,-0.7300000190734863,0.07999999821186066,0.0,0.0,0.0,0.0,0.0,0.0,0.0,0.0,534.465,2.11,574.324,-179.5378720902903,-67.75455110540037,-0.6796998323636956
7.509326696395874,0.0,0.0,-72.57633472610333,0.0,0.0,0.0,0.0,26,33,38,28,33,29,0,9.023305028676987e-05,-32.12335968017578,-38.69594955444336,-0.14768067002296448,-4.2717790603637695,0.005798980128020048,0.0,0.1599999964237213,-5.022500038146973,-7.742499828338623,0.05999999865889549,-0.75,0.09000000357627869,0.0,0.0,0.0,-19.992858455408594,0.0,0.0,0.0,0.0,530.756,1.914,614.968,-179.33212294605883,-72.59644554471242,-0.8965070620411991
8.010165929794312,0.0,0.0,-84.57206560385981,0.0,0.0,0.0,0.0,26,33,38,28,33,29,0,4.625288784154691e-05,-31.301515579223633,-32.106449127197266,-0.15413926541805267,-3.746068239212036,0.0060529550537467,0.0,0.1599999964237213,-5.167500019073486,-6.59250020980835,0.019999999552965164,-0.800000011920929,0.09000000357627869,0.0,0.0,0.0,-19.992858455408594,0.0,0.0,0.0,0.0,506.961,1.431,713.072,-177.20988727289426,-84.58667602763565,-3.04572904735643
8.510812520980835,0.0,0.0,-92.56918132517778,0.0,0.0,0.0,0.0,26,33,38,28,33,29,0,1.568738662172109e-05,-30.112205505371094,-33.83977508544922,-0.15470843017101288,-3.3032357692718506,0.0060753365978598595,0.0,0.1599999964237213,-5.252500057220459,-6.894999980926514,-4.7661527502462775e-15,-0.8349999785423279,0.07000000029802322,0.0,0.0,0.0,-19.992858455408594,0.0,0.0,0.0,0.0,479.958,1.119,774.791,-6.734946994424288,-87.39193468837567,-173.53791535545986
9.011504411697388,0.0,0.0,-104.56491220293427,0.0,0.0,0.0,0.0,26,33,38,28,33,29,0,-3.0545241315849125e-05,-27.42384910583496,-30.530698776245117,-0.1499297022819519,-2.5219457149505615,0.005887419916689396,0.0,0.1574999988079071,-5.102499961853027,-6.317500114440918,-0.042500000447034836,-0.8274999856948853,0.029999999329447746,0.0,0.0,0.0,-19.992858455408594,0.0,0.0,0.0,0.0,424.054,0.682,858.847,-1.4620737016148346,-75.40972561458427,-178.83771766464042
9.51211667060852,0.0,0.0,-112.56197062847274,0.0,0.0,0.0,0.0,26,33,38,28,33,29,0,-6.0749069234589115e-05,-25.079517364501953,-24.098773956298828,-0.1430792510509491,-1.9378304481506348,0.005618035793304443,0.0,0.1599999964237213,-4.847499847412109,-5.195000171661377,-0.07000000029802322,-0.7250000238418579,0.009999999776482582,0.0,0.0,0.0,-19.970899397227004,0.0,0.0,0.0,0.0,377.577,0.419,907.614,-1.0618053859364416,-67.41375580885656,-179.2562633339835
10.01273798942566,0.0,0.0,-113.32595255250017,0.0,0.0,0.0,0.0,26,33,38,28,33,29,0,1.4488425770890903e-17,-24.751218795776367,-19.707836151123047,-0.14227411150932312,-1.8632222414016724,0.005594724323600531,0.0,0.1599999964237213,-4.172500133514404,-3.372499942779541,-0.029999999329447746,-0.21250000596046448,-0.019999999552965164,0.0,0.0,0.0,0.0,0.0,0.0,0.0,0.0,372.79,0.395,911.923,-1.0381422289975386,-66.64983118060863,-179.28170266008732
10.513197898864746,0.0,0.0,-106.80122377310938,0.0,0.0,0.0,0.0,26,33,38,28,33,29,0,-3.9715985622024164e-05,-26.76519203186035,-18.76226043701172,-0.1481781005859375,-2.3515517711639404,0.005818534642457962,0.0,0.13249999284744263,-4.027500152587891,-2.447499990463257,0.009999999776482582,-0.25,-0.03999999910593033,0.0,0.0,0.0,20.000649993704286,0.0,0.0,0.0,0.0,411.75,0.606,873.131,-1.3112712099364021,-73.17381511486575,-178.99361948069554
11.013977289199829,0.0,0.0,-94.80085193721234,0.0,0.0,0.0,0.0,26,33,38,28,33,29,0,6.46496846457012e-06,-29.660573959350586,-22.085660934448242,-0.15429271757602692,-3.157945156097412,0.006058983039110899,0.0,0.11749999970197678,-4.980000019073486,-3.0274999141693115,0.029999999329447746,-0.6225000023841858,-0.05000000074505806,0.0,0.0,0.0,20.000649993704286,0.0,0.0,0.0,0.0,470.91,1.035,791.286,-3.772812489377445,-85.16782711923683,-176.50514918488335
11.514590501785278,0.0,0.0,-91.3162372187857,0.0,0.0,0.0,0.0,26,33,38,28,33,29,0,4.1187238785356045e-20,-30.235326766967773,-21.100725173950195,-0.15489669144153595,-3.36183500289917,0.006091088987886906,0.0,0.14000000059604645,-5.090000152587891,-3.682499885559082,0.007499999832361937,-0.8374999761581421,-0.03999999910593033,0.0,0.0,0.0,0.0,0.0,0.0,0.0,0.0,484.754,1.167,765.38,-12.609712451018671,-88.62981000475581,-167.66022781411027
12.014834642410278,0.0,0.0,-88.10561091799062,0.0,0.0,0.0,0.0,26,33,38,28,33,29,0,0.005763973109424114,-35.51639175415039,-28.93086814880371,-0.16986329853534698,-4.196819305419922,0.006972431670874357,0.0,0.10750000178813934,-5.077499866485596,-4.610000133514404,-0.029999999329447746,-0.8125,-0.009999999776482582,0.0,0.0,0.0,0.581557310654382,0.0,0.0,0.0,0.0,496.093,1.292,740.805,-171.438540698321,-88.10549632643159,-8.825154326841044
12.515316486358643,0.0,0.0,-88.1046368897389,0.0,0.0,0.0,0.0,26,33,38,28,33,29,0,7.287534091883655e-19,-30.74112319946289,-25.69774055480957,-0.15485280752182007,-3.543957233428955,0.006089363247156143,0.0,0.1599999964237213,-5.332499980926514,-4.192500114440918,-0.05000000074505806,-0.6299999952316284,-1.444157293750692e-15,0.0,0.0,0.0,0.0,0.0,0.0,0.0,0.0,496.097,1.292,740.797,-171.44312436068202,-88.10452229817987,-8.820570664479998
13.01603102684021,0.0,0.0,-92.87307813971518,0.0,0.0,0.0,0.0,26,33,38,28,33,29,0,1.1923861262715944e-18,-29.9615535736084,-29.824649810791016,-0.15474282205104828,-3.2697134017944336,0.006085038185119629,0.0,0.11999999731779099,-4.664999961853027,-5.204999923706055,-0.05000000074505806,-0.5774999856948853,0.019999999552965164,0.0,0.0,0.0,0.0,0.0,0.0,0.0,0.0,478.764,1.108,777.058,-6.065331219254895,-87.08975674722367,-174.20827597576292
13.51643705368042,0.0,0.0,-92.87307813971518,0.0,0.0,0.0,0.0,26,33,38,28,33,29,0,1.1923861262715944e-18,-29.9615535736084,-24.918170928955078,-0.15474282205104828,-3.2697134017944336,0.006085038185119629,0.0,0.17499999701976776,-4.9375,-4.802499771118164,-0.029999999329447746,-0.5799999833106995,0.03999999910593033,0.0,0.0,0.0,0.0,0.0,0.0,0.0,0.0,478.764,1.108,777.058,-6.065331219254895,-87.08975674722367,-174.20827597576292
14.017033100128174,0.0,0.0,-82.3441192174936,0.0,0.0,0.0,0.0,26,33,38,28,33,29,0,5.4115265811560676e-05,-31.526784896850586,-28.63304328918457,-0.15350207686424255,-3.8490853309631348,0.006027885712683201,0.0,0.14249999821186066,-5.099999904632568,-4.170000076293945,-4.755744409390417e-15,-0.5799999833106995,0.06499999761581421,0.0,0.0,0.0,20.007929267812226,0.0,0.0,0.0,0.0,512.926,1.52,695.263,-178.1096601943677,-82.36107876822948,-2.1409140972858345
14.517467737197876,0.0,0.0,-78.13769226876116,0.0,0.0,0.0,0.0,26,33,38,28,33,29,0,1.4813774930962097e-18,-31.791213989257812,-22.862699508666992,-0.151628777384758,-4.035926818847656,0.005962583236396313,0.0,0.26249998807907104,-5.197500228881836,-3.990000009536743,0.019999999552965164,-0.6700000166893005,0.07999999821186066,0.0,0.0,0.0,0.0,0.0,0.0,0.0,0.0,522.282,1.689,661.064,-178.88458561228214,-78.15659987600047,-1.356534875751737
15.018124341964722,0.0,0.0,-81.30425811511067,0.0,0.0,0.0,0.0,26,33,38,28,33,29,0,5.862186662852764e-05,-31.641651153564453,-33.72333526611328,-0.15304061770439148,-3.906571626663208,0.006009737495332956,0.0,0.14000000059604645,-5.577499866485596,-6.875,0.04500000178813934,-0.8575000166893005,0.09000000357627869,0.0,0.0,0.0,-20.010751843486734,0.0,0.0,0.0,0.0,515.472,1.562,686.874,-178.37138731518345,-81.3219052152007,-1.8768951452895508
15.518622398376465,0.0,0.0,-89.3085931046473,0.0,0.0,0.0,0.0,26,33,38,28,33,29,0,2.8271195333218202e-05,-30.657676696777344,-28.738237380981445,-0.15484042465686798,-3.4920616149902344,0.006080512423068285,0.0,0.15000000596046448,-5.577499866485596,-6.005000114440918,0.07000000029802322,-0.9399999976158142,0.09000000357627869,0.0,0.0,0.0,-20.010751843486734,0.0,0.0,0.0,0.0,492.006,1.245,750.087,-156.72435426578681,-89.27014763659402,-23.542835801925527
16.019452571868896,0.0,0.0,-101.31503829317272,0.0,0.0,0.0,0.0,26,33,38,28,33,29,0,-1.8099612134392373e-05,-28.25459098815918,-33.90956115722656,-0.15188531577587128,-2.74599552154541,0.005964306648820639,0.0,0.17249999940395355,-5.067500114440918,-6.90749979019165,0.03999999910593033,-0.8324999809265137,0.09000000357627869,0.0,0.0,0.0,-20.010751843486734,0.0,0.0,0.0,0.0,440.921,0.796,837.259,-1.7883731659418387,-78.65874008765311,-178.5041416363153
16.520001888275146,0.0,0.0,-109.31931598692984,0.0,0.0,0.0,0.0,26,33,38,28,33,29,0,-4.8698326281737536e-05,-26.079967498779297,-24.512361526489258,-0.14620131254196167,-2.179882526397705,0.00574079155921936,0.0,0.20000000298023224,-4.682499885559082,-5.267499923706055,0.019999999552965164,-0.699999988079071,0.07000000029802322,0.0,0.0,0.0,-20.010751843486734,0.0,0.0,0.0,0.0,397.24,0.523,888.626,-1.1836162131812547,-70.65606667572237,-179.12694675962248
17.0206139087677,0.0,0.0,-117.1284442556654,0.0,0.0,0.0,0.0,26,33,38,28,33,29,0,-1.1951845816814379e-17,-23.48320960998535,-27.31777572631836,-0.13789236545562744,-1.569899082183838,0.005422418937087059,0.0,0.20250000059604645,-3.315000057220459,-4.767499923706055,-0.019999999552965164,-0.4300000071525574,0.029999999329447746,0.0,0.0,0.0,0.0,0.0,0.0,0.0,0.0,348.134,0.282,932.403,-0.9405675164867594,-62.84762595634097,-179.3880436268636
17.521214246749878,0.0,0.0,-117.12747022741367,0.0,0.0,0.0,0.0,26,33,38,28,33,29,0,-0.00022713911312166601,-23.24549102783203,-18.291900634765625,-0.13726754486560822,-1.542720079421997,0.005385656375437975,0.0,0.17749999463558197,-3.8949999809265137,-3.065000057220459,-0.05000000074505806,-0.17749999463558197,0.009999999776482582,0.0,0.0,0.0,0.21409989679579983,0.0,0.0,0.0,0.0,348.14,0.282,932.398,-0.9406248122662726,-62.8485999845927,-179.3880436268636
18.02188730239868,0.0,0.0,-105.80026650501583,0.0,0.0,0.0,0.0,26,33,38,28,33,29,0,-3.5922377719543874e-05,-27.045061111450195,-19.808626174926758,-0.14894139766693115,-2.423250198364258,0.005848545115441084,0.0,0.07999999821186066,-4.360000133514404,-2.630000114440918,-0.042500000447034836,-0.28999999165534973,-0.019999999552965164,0.0,0.0,0.0,20.00609536202008,0.0,0.0,0.0,0.0,417.326,0.64,866.797,-1.3734371307080964,-74.17460049562077,-178.92916172874334
18.522521257400513,0.0,0.0,-97.79782227620314,0.0,0.0,0.0,0.0,26,33,38,28,33,29,0,-5.1239494496257976e-06,-29.03414535522461,-22.75957679748535,-0.15339230000972748,-2.9681639671325684,0.00602357042953372,0.0,0.1550000011920929,-4.840000152587891,-3.1449999809265137,-4.771356920674208e-15,-0.47749999165534973,-0.03999999910593033,0.0,0.0,0.0,20.00609536202008,0.0,0.0,0.0,0.0,457.763,0.923,812.86,-2.4489362079481647,-82.1742372312373,-177.83572907251568
19.02283024787903,0.0,0.0,-85.71414237689407,0.0,0.0,0.0,0.0,26,33,38,28,33,29,0,4.137667565373704e-05,-31.142301559448242,-25.108877182006836,-0.15443727374076843,-3.678720474243164,0.006064662244170904,0.0,0.1525000035762787,-5.199999809265137,-3.555000066757202,0.03999999910593033,-0.7524999976158142,-0.05000000074505806,0.0,0.0,0.0,20.00609536202008,0.0,0.0,0.0,0.0,503.636,1.386,722.109,-176.38471345634684,-85.72669015260745,-3.87348117398193
19.52345323562622,0.0,0.0,-80.62788143795873,0.0,0.0,0.0,0.0,26,33,38,28,33,29,0,-2.6483794109225065e-18,-31.603687286376953,-28.377824783325195,-0.15286938846111298,-3.923906087875366,0.006011368706822395,0.0,0.13500000536441803,-5.400000095367432,-4.952499866485596,0.03999999910593033,-0.9325000047683716,-0.032499998807907104,0.0,0.0,0.0,0.0,0.0,0.0,0.0,0.0,517.047,1.589,681.393,-178.5102722847232,-80.64587231272583,-1.736463189702986
20.023971796035767,0.0,0.0,-80.29848800153802,0.0,0.0,0.0,0.0,26,33,38,28,33,29,0,-8.746183867071781e-19,-31.631378173828125,-23.765174865722656,-0.1527218073606491,-3.9391534328460693,0.006005565170198679,0.0,0.20000000298023224,-5.260000228881836,-4.147500038146973,0.019999999552965164,-1.0,-0.004999999888241291,0.0,0.0,0.0,0.0,0.0,0.0,0.0,0.0,517.79,1.602,678.717,-178.57089121944801,-80.31665076364368,-1.675099409844475
20.5245943069458,0.0,0.0,-80.29848800153802,0.0,0.0,0.0,0.0,26,33,38,28,33,29,0,-8.746183867071781e-19,-31.631378173828125,-26.587995529174805,-0.1527218073606491,-3.9391534328460693,0.006005565170198679,0.0,0.17000000178813934,-5.190000057220459,-4.447500228881836,0.019999999552965164,-0.9700000286102295,-1.4493614641786223e-15,0.0,0.0,0.0,0.0,0.0,0.0,0.0,0.0,517.79,1.602,678.717,-178.57089121944801,-80.31665076364368,-1.675099409844475
21.02519726753235,0.0,0.0,-90.68311885516614,0.0,0.0,0.0,0.0,26,33,38,28,33,29,0,2.304559893673286e-05,-30.438039779663086,-36.198970794677734,-0.1548456847667694,-3.4138433933258057,0.0060806977562606335,0.0,0.1599999964237213,-5.014999866485596,-7.307499885559082,0.007499999832361937,-0.8700000047683716,0.019999999552965164,0.0,0.0,0.0,-20.035984269828056,0.0,0.0,0.0,0.0,487.099,1.192,760.584,-22.78561477988063,-89.23640042246082,-157.4827784992015
21.52554488182068,0.0,0.0,-94.41576700310492,0.0,0.0,0.0,0.0,26,33,38,28,33,29,0,4.60333662306426e-18,-29.6721248626709,-36.87255096435547,-0.15447765588760376,-3.1760482788085938,0.006074611097574234,0.0,0.20000000298023224,-4.357500076293945,-6.434999942779541,-4.806051390193744e-15,-0.75,0.03999999910593033,0.0,0.0,0.0,0.0,0.0,0.0,0.0,0.0,472.517,1.049,788.465,-4.072297528892326,-85.55216720821059,-176.20480470867577
22.02625823020935,0.0,0.0,-98.62265231807348,0.0,0.0,0.0,0.0,26,33,38,28,33,29,0,-7.697274668316822e-06,-28.88625717163086,-24.512470245361328,-0.15313555300235748,-2.9249558448791504,0.00601347116753459,0.0,0.13750000298023224,-5.082499980926514,-5.267499923706055,-4.806051390193744e-15,-0.5475000143051147,0.07000000029802322,0.0,0.0,0.0,-20.009696579259966,0.0,0.0,0.0,0.0,453.948,0.893,818.674,-2.2456507822357485,-81.3499228513826,-178.0408479631725
22.526822328567505,0.0,0.0,-106.62652894137399,0.0,0.0,0.0,0.0,26,33,38,28,33,29,0,-3.847688276437111e-05,-26.859573364257812,-28.322919845581055,-0.14843834936618805,-2.375617027282715,0.00582876056432724,0.0,0.1550000011920929,-4.670000076293945,-5.932499885559082,-0.0024999999441206455,-0.4399999976158142,0.08250000327825546,0.0,0.0,0.0,-20.009696579259966,0.0,0.0,0.0,0.0,412.731,0.612,872.033,-1.3215844502487568,-73.34845265082163,-178.9829051699266
23.0274338722229,0.0,0.0,-118.61813452300552,0.0,0.0,0.0,0.0,26,33,38,28,33,29,0,-0.003961832728236914,-18.902233123779297,-20.323352813720703,-0.1252293437719345,-0.9984641075134277,0.004706277512013912,0.0,0.1875,-3.697499990463257,-4.517499923706055,-0.019999999552965164,-0.29750001430511475,0.0949999988079071,0.0,0.0,0.0,-18.24204020696608,0.0,0.0,0.0,0.0,338.112,0.239,939.973,-0.909627795549695,-61.357992984780346,-179.42247839035096
23.528021574020386,0.0,0.0,-119.0774174915824,0.0,0.0,0.0,0.0,26,33,38,28,33,29,0,-4.900114964777873e-18,-22.801443099975586,-23.478675842285156,-0.13540980219841003,-1.4167916774749756,0.005324795842170715,0.0,0.20499999821186066,-3.684999942779541,-4.097499847412109,-0.027499999850988388,-0.21250000596046448,0.07000000029802322,0.0,0.0,0.0,0.0,0.0,0.0,0.0,0.0,334.983,0.226,942.254,-0.9007469497251671,-60.89871001620348,-179.43244785598623
24.028671503067017,0.0,0.0,-111.7534125879841,0.0,0.0,0.0,0.0,26,33,38,28,33,29,0,-5.837105345563032e-05,-25.284894943237305,-18.346635818481445,-0.14374077320098877,-1.9867709875106812,0.0056440443731844425,0.0,0.1550000011920929,-3.9000000953674316,-2.375,-0.032499998807907104,-0.18000000715255737,0.03999999910593033,0.0,0.0,0.0,19.998964644526584,0.0,0.0,0.0,0.0,382.58,0.444,902.984,-1.0887344023075904,-68.22219925778614,-179.22744355688843
24.529443502426147,0.0,0.0,-103.75383314814707,0.0,0.0,0.0,0.0,26,33,38,28,33,29,0,-2.8069052859791555e-05,-27.59615707397461,-19.793460845947266,-0.1503603458404541,-2.5675063133239746,0.005904349498450756,0.0,0.07000000029802322,-4.497499942779541,-2.627500057220459,-0.03500000014901161,-0.3149999976158142,0.019999999552965164,0.0,0.0,0.0,19.998964644526584,0.0,0.0,0.0,0.0,428.378,0.71,853.55,-1.528995172086115,-76.22063278203292,-178.76896272922474
25.03014874458313,0.0,0.0,-91.75443534050176,0.0,0.0,0.0,0.0,26,33,38,28,33,29,0,1.8220698621007614e-05,-30.228334426879883,-25.938886642456055,-0.15477517247200012,-3.3420321941375732,0.0060779559426009655,0.0,0.11249999701976776,-5.15500020980835,-3.700000047683716,-4.788704155433976e-15,-0.5174999833106995,-0.009999999776482582,0.0,0.0,0.0,19.998964644526584,0.0,0.0,0.0,0.0,483.1,1.151,768.683,-9.63778036767509,-88.199232221715,-170.6332485172646
25.530763149261475,0.0,0.0,-88.19017948855193,0.0,0.0,0.0,0.0,26,33,38,28,33,29,0,4.0604062882574235e-19,-30.728687286376953,-21.530475616455078,-0.15486028790473938,-3.5392467975616455,0.006089657545089722,0.0,0.19249999523162842,-5.539999961853027,-3.757499933242798,0.009999999776482582,-0.6800000071525574,-0.029999999329447746,0.0,0.0,0.0,0.0,0.0,0.0,0.0,0.0,495.812,1.289,741.461,-171.02612567738583,-88.18903357296166,-9.23774123511475
26.031397342681885,0.0,0.0,-84.30787476452498,0.0,0.0,0.0,0.0,26,33,38,28,33,29,0,4.663761137635447e-05,-31.31366539001465,-27.957767486572266,-0.15411198139190674,-3.7513747215270996,0.006051883567124605,0.0,0.23999999463558197,-4.827499866485596,-4.052499771118164,0.03999999910593033,-0.8700000047683716,-0.05999999865889549,0.0,0.0,0.0,19.990944294893698,0.0,0.0,0.0,0.0,507.704,1.442,710.973,-177.35347049635405,-84.3228862587574,-2.901515570322002
26.53200054168701,0.0,0.0,-76.23151898014042,0.0,0.0,0.0,0.0,26,33,38,28,33,29,0,7.656933303223923e-05,-31.98953628540039,-25.493867874145508,-0.15045389533042908,-4.123821258544922,0.0059080347418785095,0.0,0.16500000655651093,-5.050000190734863,-3.622499942779541,0.04749999940395355,-0.9200000166893005,-0.04749999940395355,0.0,0.0,0.0,19.990944294893698,0.0,0.0,0.0,0.0,525.69,1.766,645.36,-179.07910478372906,-76.25099954517486,-1.1577758166208545
27.032692909240723,0.0,0.0,-64.2369913137537,0.0,0.0,0.0,0.0,26,33,38,28,33,29,0,0.00011804978566942737,-32.005653381347656,-30.521942138671875,-0.13954761624336243,-4.524601459503174,0.005479160696268082,0.0,0.08500000089406967,-5.650000095367432,-4.5,0.009999999776482582,-0.9900000095367432,-0.019999999552965164,0.0,0.0,0.0,19.990944294893698,0.0,0.0,0.0,0.0,535.003,2.251,544.851,-179.63750945086358,-64.25790427327598,-0.5719837668791009
27.533390283584595,0.0,0.0,-56.2406204375694,0.0,0.0,0.0,0.0,26,33,38,28,33,29,0,0.0001429430558346212,-31.360248565673828,-23.7032413482666,-0.1288488656282425,-4.683016777038574,0.005058447830379009,0.0,0.23000000417232513,-5.565000057220459,-3.309999942779541,-0.0024999999441206455,-1.0199999809265137,-1.4493614641786223e-15,0.0,0.0,0.0,19.990944294893698,0.0,0.0,0.0,0.0,529.481,2.567,477.717,-179.78550444934586,-56.26199176332778,-0.4050238653779789
28.034056186676025,0.0,0.0,-51.55863851887836,0.0,0.0,0.0,0.0,26,33,38,28,33,29,0,3.9290159271427656e-17,-30.63547706604004,-25.59209442138672,-0.12135405838489532,-4.723733901977539,0.0047720735892653465,0.0,0.15000000596046448,-5.385000228881836,-4.005000114440918,-0.05000000074505806,-1.0499999523162842,0.019999999552965164,0.0,0.0,0.0,0.0,0.0,0.0,0.0,0.0,521.924,2.746,438.986,-179.8422272710638,-51.58018173197529,-0.336841887757411
28.534813404083252,0.0,0.0,-54.72021963241025,0.0,0.0,0.0,0.0,26,33,38,28,33,29,0,0.00014775489398743957,-31.158899307250977,-32.02125930786133,-0.12627406418323517,-4.704817295074463,0.004957201890647411,0.0,0.1525000035762787,-5.264999866485596,-6.577499866485596,-0.07999999821186066,-1.0700000524520874,0.029999999329447746,0.0,0.0,0.0,-19.985471605821225,0.0,0.0,0.0,0.0,527.375,2.626,465.074,-179.80567256373445,-54.74164825394814,-0.3811315253210236
29.035425186157227,0.0,0.0,-66.7114814393647,0.0,0.0,0.0,0.0,26,33,38,28,33,29,0,0.0001103328395402059,-32.09486770629883,-33.26753234863281,-0.14214563369750977,-4.462179660797119,0.005581328645348549,0.0,0.15000000596046448,-5.070000171661377,-6.795000076293945,-0.029999999329447746,-1.090000033378601,0.05999999865889549,0.0,0.0,0.0,-19.985471605821225,0.0,0.0,0.0,0.0,534.809,2.151,565.711,-179.5701869099357,-66.73222251154844,-0.6450358857582809
29.536061763763428,0.0,0.0,-68.11431130496302,0.0,0.0,0.0,0.0,26,33,38,28,33,29,0,-4.649023876247095e-18,-32.032981872558594,-34.523250579833984,-0.14377112686634064,-4.407797813415527,0.0056535922922194,0.0,0.14749999344348907,-4.949999809265137,-6.025000095367432,0.009999999776482582,-1.0,0.07000000029802322,0.0,0.0,0.0,0.0,0.0,0.0,0.0,0.0,534.299,2.095,577.527,-179.5250951314589,-68.13493778558772,-0.6933362278878092
30.036750555038452,0.0,0.0,-62.39390067837687,0.0,0.0,0.0,0.0,26,33,38,28,33,29,0,0.00012396812962833792,-31.903066635131836,-26.33864974975586,-0.1373157501220703,-4.569035530090332,0.005391398910433054,0.0,0.15000000596046448,-5.065000057220459,-3.7699999809265137,0.05999999865889549,-0.8700000047683716,0.08749999850988388,0.0,0.0,0.0,19.987617992767902,0.0,0.0,0.0,0.0,534.562,2.324,529.32,-179.67956455302618,-62.41498552523769,-0.5256314812530172
30.537365913391113,0.0,0.0,-54.92241643831191,0.0,0.0,0.0,0.0,26,33,38,28,33,29,0,0.006513766013085842,-36.10569381713867,-25.15638542175293,-0.14924374222755432,-5.667060375213623,0.006306338589638472,0.0,0.20250000059604645,-5.340000152587891,-3.9175000190734863,0.009999999776482582,-0.7900000214576721,0.08749999850988388,0.0,0.0,0.0,1.8605629532619257,0.0,0.0,0.0,0.0,527.674,2.618,466.752,-179.80309425365635,-54.94384505984981,-0.38422549741473006
31.03803277015686,0.0,0.0,-55.03637774376344,0.0,0.0,0.0,0.0,26,33,38,28,33,29,0,0.008690292946994305,-37.785465240478516,-24.356021881103516,-0.15677127242088318,-5.989946365356445,0.006746366620063782,0.0,0.1274999976158142,-5.537499904632568,-5.0,-0.05000000074505806,-0.800000011920929,0.05000000074505806,0.0,0.0,0.0,-8.249737267294119,0.0,0.0,0.0,0.0,527.84,2.613,467.698,-179.80160456338902,-55.05780636530133,-0.3859443708001225
31.538643836975098,0.0,0.0,-62.8679086622886,0.0,0.0,0.0,0.0,26,33,38,28,33,29,0,0.00012280237569939345,-31.922391891479492,-30.217416763305664,-0.13770641386508942,-4.561779499053955,0.005406771786510944,0.0,0.11999999731779099,-5.610000133514404,-6.262499809265137,-0.05000000074505806,-0.8500000238418579,0.029999999329447746,0.0,0.0,0.0,-19.974678199385313,0.0,0.0,0.0,0.0,534.723,2.305,533.313,-179.6693086084933,-62.8889362133699,-0.5369760455966075
32.038841247558594,0.0,0.0,-74.8527533419376,0.0,0.0,0.0,0.0,26,33,38,28,33,29,0,8.198373689083382e-05,-32.057762145996094,-33.913265228271484,-0.14941523969173431,-4.185708045959473,0.005867204163223505,0.0,0.18250000476837158,-5.679999828338623,-6.90749979019165,-0.012500000186264515,-0.9200000166893005,-1.4493614641786223e-15,0.0,0.0,0.0,-19.974678199385313,0.0,0.0,0.0,0.0,527.829,1.822,633.934,-179.18905538461465,-74.8724630900901,-1.044731243641543
32.53948092460632,0.0,0.0,-81.44778404279094,0.0,0.0,0.0,0.0,26,33,38,28,33,29,0,-1.6638603604654612e-18,-31.530946731567383,-30.12547492980957,-0.15321476757526398,-3.8853917121887207,0.006024950183928013,0.0,0.22499999403953552,-5.5,-5.257500171661377,-4.807786113669721e-15,-0.9549999833106995,-0.019999999552965164,0.0,0.0,0.0,0.0,0.0,0.0,0.0,0.0,515.13,1.556,688.034,-178.3390724955381,-81.46531655132193,-1.9094964438324946
33.04009032249451,0.0,0.0,-82.53319528988678,0.0,0.0,0.0,0.0,26,33,38,28,33,29,0,5.4018320952309296e-05,-31.52388572692871,-39.4390754699707,-0.1535123884677887,-3.847677230834961,0.006028288975358009,0.0,0.05000000074505806,-4.682499885559082,-7.872499942779541,0.029999999329447746,-0.9100000262260437,-0.05000000074505806,0.0,0.0,0.0,-20.010130296272262,0.0,0.0,0.0,0.0,512.447,1.512,696.783,-178.05425517557856,-82.5499829532841,-2.1967774823110893
33.540748834609985,0.0,0.0,-90.53724380052584,0.0,0.0,0.0,0.0,26,33,38,28,33,29,0,2.3547096134279855e-05,-30.46183204650879,-38.32172775268555,-0.15484954416751862,-3.4222068786621094,0.006080871447920799,0.0,0.14499999582767487,-5.367499828338623,-7.677499771118164,0.04749999940395355,-0.8774999976158142,-0.05000000074505806,0.0,0.0,0.0,-20.010130296272262,0.0,0.0,0.0,0.0,487.631,1.197,759.476,-27.853311886253735,-89.36869637735653,-152.41479491393082
34.04136824607849,0.0,0.0,-102.54334521437418,0.0,0.0,0.0,0.0,26,33,38,28,33,29,0,-2.2831660317024216e-05,-27.949295043945312,-30.013225555419922,-0.15120330452919006,-2.6623191833496094,0.005937487818300724,0.0,0.20999999344348907,-4.21999979019165,-6.227499961853027,0.032499998807907104,-0.800000011920929,-0.03999999910593033,0.0,0.0,0.0,-20.010130296272262,0.0,0.0,0.0,0.0,434.69,0.753,845.531,-1.6450764213796196,-77.43083423690825,-178.65018857829415
34.54197931289673,0.0,0.0,-109.31163835247509,0.0,0.0,0.0,0.0,26,33,38,28,33,29,0,-3.048238312235487e-17,-25.995590209960938,-27.83347511291504,-0.14621983468532562,-2.1639554500579834,0.005749884061515331,0.0,0.17499999701976776,-4.010000228881836,-4.857500076293945,0.0024999999441206455,-0.6924999952316284,-0.029999999329447746,0.0,0.0,0.0,0.0,0.0,0.0,0.0,0.0,397.285,0.523,888.579,-1.1839599878583331,-70.66374431017712,-179.1266029849454
35.04252862930298,0.0,0.0,-108.14635678873802,0.0,0.0,0.0,0.0,26,33,38,28,33,29,0,-4.485591489356011e-05,-26.37875747680664,-20.16702651977539,-0.14708100259304047,-2.254093647003174,0.00577538600191474,0.0,0.10999999940395355,-4.352499961853027,-2.692500114440918,-0.029999999329447746,-0.3125,-1.4476267407026455e-15,0.0,0.0,0.0,20.008421041432467,0.0,0.0,0.0,0.0,404.084,0.561,881.487,-1.2386201615138135,-71.82891128235516,-179.06930720543232
35.542826890945435,0.0,0.0,-100.14293853167361,0.0,0.0,0.0,0.0,26,33,38,28,33,29,0,-1.4190108231559861e-05,-28.498090744018555,-24.32127571105957,-0.15239477157592773,-2.8139896392822266,0.0059843421913683414,0.0,0.16750000417232513,-4.722499847412109,-3.4175000190734863,-0.05000000074505806,-0.3400000035762787,0.009999999776482582,0.0,0.0,0.0,20.008421041432467,0.0,0.0,0.0,0.0,446.699,0.838,829.244,-1.9575676028439708,-79.83038148291614,-178.33231159355554
36.043498277664185,0.0,0.0,-88.137925737636,0.0,0.0,0.0,0.0,26,33,38,28,33,29,0,3.2138425012817606e-05,-30.809911727905273,-27.12897491455078,-0.1547795534133911,-3.5483157634735107,0.006078120321035385,0.0,0.20499999821186066,-4.989999771118164,-3.9075000286102295,-0.019999999552965164,-0.574999988079071,0.03500000014901161,0.0,0.0,0.0,20.008421041432467,0.0,0.0,0.0,0.0,495.986,1.291,741.055,-171.28544637546202,-88.13741007562038,-8.978305945479514
36.54412794113159,0.0,0.0,-80.1345647763511,0.0,0.0,0.0,0.0,26,33,38,28,33,29,0,6.236664921743795e-05,-31.729223251342773,-23.648000717163086,-0.15260033309459686,-3.9536147117614746,0.0059924256056547165,0.0,0.14749999344348907,-5.082499980926514,-3.299999952316284,-4.830337518857419e-15,-0.7300000190734863,0.05000000074505806,0.0,0.0,0.0,20.008421041432467,0.0,0.0,0.0,0.0,518.154,1.608,677.384,-178.59953910920456,-80.15272753845674,-1.646107745410855
37.04483938217163,0.0,0.0,-68.12949468653399,0.0,0.0,0.0,0.0,26,33,38,28,33,29,0,0.00010525316611165181,-32.13064956665039,-31.254575729370117,-0.1437838226556778,-4.415481090545654,0.005645729135721922,0.0,0.09000000357627869,-5.224999904632568,-4.627500057220459,0.02250000089406967,-0.9624999761581421,0.07500000298023224,0.0,0.0,0.0,20.008421041432467,0.0,0.0,0.0,0.0,534.291,2.094,577.654,-179.52457946944327,-68.15012116715869,-0.69390918568294
37.54522657394409,0.0,0.0,-60.126133725249076,0.0,0.0,0.0,0.0,26,33,38,28,33,29,0,0.00013139480142854154,-31.73896598815918,-25.137800216674805,-0.13437466323375702,-4.617257118225098,0.00527572724968195,0.0,0.17749999463558197,-5.317500114440918,-3.559999942779541,0.019999999552965164,-1.0525000095367432,0.09000000357627869,0.0,0.0,0.0,20.008421041432467,0.0,0.0,0.0,0.0,533.335,2.414,510.241,-179.72391148636927,-60.14733316366891,-0.47589874463566173
38.04586410522461,0.0,0.0,-49.596888324129935,0.0,0.0,0.0,0.0,26,33,38,28,33,29,0,1.3190912743582061e-17,-30.325124740600586,-28.134300231933594,-0.11798542737960815,-4.735394477844238,0.004639606922864914,0.0,0.0925000011920929,-5.460000038146973,-4.909999847412109,-0.004999999888241291,-1.0750000476837158,0.06750000268220901,0.0,0.0,0.0,0.0,0.0,0.0,0.0,0.0,517.821,2.82,422.964,-179.86176513187777,-49.618488833006374,-0.31237658990532485
38.54647612571716,0.0,0.0,-49.596888324129935,0.0,0.0,0.0,0.0,26,33,38,28,33,29,0,1.3190912743582061e-17,-30.325124740600586,-25.281742095947266,-0.11798542737960815,-4.735394477844238,0.004639606922864914,0.0,0.1599999964237213,-5.559999942779541,-4.300000190734863,-0.029999999329447746,-1.0800000429153442,0.03999999910593033,0.0,0.0,0.0,0.0,0.0,0.0,0.0,0.0,517.821,2.82,422.964,-179.86176513187777,-49.618488833006374,-0.31237658990532485
39.04682898521423,0.0,0.0,-58.99878196754967,0.0,0.0,0.0,0.0,26,33,38,28,33,29,0,0.0001351924438495189,-31.626941680908203,-29.040674209594727,-0.1326112598180771,-4.641398906707764,0.005206395406275988,0.0,0.1899999976158142,-5.630000114440918,-6.057499885559082,-0.07999999821186066,-1.090000033378601,0.0024999999441206455,0.0,0.0,0.0,-19.995049238584876,0.0,0.0,0.0,0.0,532.444,2.459,500.779,-179.74344934718326,-59.02003870174902,-0.4536679821845858
39.54742980003357,0.0,0.0,-66.99681442133986,0.0,0.0,0.0,0.0,26,33,38,28,33,29,0,0.00010948172712232918,-32.102909088134766,-37.750274658203125,-0.14244981110095978,-4.453991413116455,0.005593281704932451,0.0,0.20999999344348907,-5.675000190734863,-7.577499866485596,-0.0625,-1.0700000524520874,-0.009999999776482582,0.0,0.0,0.0,-19.995049238584876,0.0,0.0,0.0,0.0,534.728,2.14,568.115,-179.5614779514497,-67.0175554935236,-0.6543750978189132
40.047892332077026,0.0,0.0,-78.99386310202514,0.0,0.0,0.0,0.0,26,33,38,28,33,29,0,6.709004082949832e-05,-31.829729080200195,-30.201000213623047,-0.15196335315704346,-4.012401103973389,0.005967388395220041,0.0,0.2199999988079071,-5.712500095367432,-6.260000228881836,-0.029999999329447746,-1.0199999809265137,-0.03999999910593033,0.0,0.0,0.0,-19.995049238584876,0.0,0.0,0.0,0.0,520.582,1.654,668.079,-178.77515067341216,-79.0125415261464,-1.467917871125169
40.548524618148804,0.0,0.0,-86.99189555581532,0.0,0.0,0.0,0.0,26,33,38,28,33,29,0,3.7080237234476954e-05,-30.99468231201172,-38.394901275634766,-0.15462961792945862,-3.619373083114624,0.00607223529368639,0.0,0.19249999523162842,-5.724999904632568,-7.690000057220459,-0.012500000186264515,-0.9700000286102295,-0.05000000074505806,0.0,0.0,0.0,-19.995049238584876,0.0,0.0,0.0,0.0,499.703,1.336,732.137,-174.71792193453177,-87.00014614806521,-5.543137484772663
41.04895496368408,0.0,0.0,-98.98888694072109,0.0,0.0,0.0,0.0,26,33,38,28,33,29,0,-9.100437637243886e-06,-28.80327033996582,-31.16077423095703,-0.15298539400100708,-2.9009618759155273,0.006007579155266285,0.0,0.1599999964237213,-5.559999942779541,-6.427499771118164,0.009999999776482582,-0.8500000238418579,-0.032499998807907104,0.0,0.0,0.0,-19.995049238584876,0.0,0.0,0.0,0.0,452.227,0.88,821.238,-2.167327451641365,-80.98391741185303,-178.11997343468005
41.54951214790344,0.0,0.0,-106.98691939451129,0.0,0.0,0.0,0.0,26,33,38,28,33,29,0,-3.979148459620774e-05,-26.75787925720215,-27.88035011291504,-0.14815795421600342,-2.3496949672698975,0.00581774627789855,0.0,0.13249999284744263,-5.135000228881836,-5.855000019073486,0.029999999329447746,-0.7400000095367432,-0.019999999552965164,0.0,0.0,0.0,-19.995049238584876,0.0,0.0,0.0,0.0,410.703,0.6,874.295,-1.3005568991674556,-72.98811949346386,-179.0047348619211
42.05013942718506,0.0,0.0,-118.98396807519656,0.0,0.0,0.0,0.0,26,33,38,28,33,29,0,-8.419380901614204e-05,-22.912424087524414,-23.69744873046875,-0.13555419445037842,-1.4410710334777832,0.005322122015058994,0.0,0.0925000011920929,-4.477499961853027,-5.125,0.0625,-0.5575000047683716,-1.4753823163182744e-15,0.0,0.0,0.0,-19.995049238584876,0.0,0.0,0.0,0.0,335.622,0.229,941.792,-0.9025804146695858,-60.99221672836884,-179.43044250370326
42.550410747528076,0.0,0.0,-126.98200052898676,0.0,0.0,0.0,0.0,26,33,38,28,33,29,0,-0.000111866116640158,-19.903268814086914,-17.752574920654297,-0.12381500005722046,-0.798023521900177,0.004860495217144489,0.0,0.07249999791383743,-4.017499923706055,-4.087500095367432,0.07000000029802322,-0.41999998688697815,0.019999999552965164,0.0,0.0,0.0,-19.995049238584876,0.0,0.0,0.0,0.0,278.458,0.021,977.452,-0.7840927426365315,-52.99452804925572,-179.56818155765274
43.05088019371033,0.0,0.0,-133.18466973173452,0.0,0.0,0.0,0.0,26,33,38,28,33,29,0,5.0556534576689754e-17,-17.306276321411133,-19.467674255371094,-0.11297297477722168,-0.27092331647872925,0.0044424994848668575,0.0,0.03999999910593033,-2.9375,-3.3975000381469727,0.032499998807907104,-0.08500000089406967,0.03999999910593033,0.0,0.0,0.0,0.0,0.0,0.0,0.0,0.0,231.031,-0.115,999.424,-0.7242759488248736,-46.791973438067,-179.64358280349194
43.55142092704773,0.0,0.0,-132.34007264593214,0.0,0.0,0.0,0.0,26,33,38,28,33,29,0,-0.0011756070889532566,-16.361480712890625,-13.029925346374512,-0.11111823469400406,-0.20671086013317108,0.004296405706554651,0.0,0.06499999761581421,-2.8499999046325684,-1.4474999904632568,-0.009999999776482582,0.1599999964237213,0.05999999865889549,0.0,0.0,0.0,20.002116776828547,0.0,0.0,0.0,0.0,237.625,-0.098,996.736,-0.7312660339254697,-47.63662781964886,-179.63441547876985
44.05203175544739,0.0,0.0,-120.25879916936263,0.0,0.0,0.0,0.0,26,33,38,28,33,29,0,-8.935784717323259e-05,-22.396604537963867,-17.75968360900879,-0.1336364448070526,-1.3274106979370117,0.0052467030473053455,0.0,0.1274999976158142,-3.5225000381469727,-2.2725000381469727,-0.05000000074505806,-0.10000000149011612,0.08500000089406967,0.0,0.0,0.0,20.002116776828547,0.0,0.0,0.0,0.0,326.852,0.193,948.005,-0.8792610324077613,-59.717442929982255,-179.4567985622793
44.55262517929077,0.0,0.0,-112.2579019265968,0.0,0.0,0.0,0.0,26,33,38,28,33,29,0,-6.026920164003968e-05,-25.12542152404785,-20.266557693481445,-0.14322777092456818,-1.9487347602844238,0.005623868200927973,0.0,0.09749999642372131,-3.9024999141693115,-2.7100000381469727,-0.029999999329447746,-0.3474999964237213,0.07999999821186066,0.0,0.0,0.0,20.002116776828547,0.0,0.0,0.0,0.0,379.466,0.429,905.881,-1.0716602600126917,-67.71776721495297,-179.24566361477358
45.05311727523804,0.0,0.0,-100.25667065400707,0.0,0.0,0.0,0.0,26,33,38,28,33,29,0,-1.461978263250785e-05,-28.47105598449707,-22.644508361816406,-0.15233998000621796,-2.8063886165618896,0.005982192698866129,0.0,0.14000000059604645,-4.489999771118164,-3.125,-4.84074585971328e-15,-0.6875,0.07999999821186066,0.0,0.0,0.0,20.002116776828547,0.0,0.0,0.0,0.0,446.146,0.834,830.027,-1.9394621365178366,-79.71676395214169,-178.35070353877924
45.55375146865845,0.0,0.0,-92.25583070702073,0.0,0.0,0.0,0.0,26,33,38,28,33,29,0,1.6293517546728253e-05,-30.139768600463867,-25.55248260498047,-0.1547258049249649,-3.3123714923858643,0.006076012272387743,0.0,0.1599999964237213,-4.880000114440918,-3.632499933242798,0.017500000074505806,-0.8224999904632568,0.08250000327825546,0.0,0.0,0.0,20.002116776828547,0.0,0.0,0.0,0.0,481.177,1.131,772.447,-7.609853547589054,-87.7030507711317,-172.6622639571614
46.05444073677063,0.0,0.0,-80.25454213865149,0.0,0.0,0.0,0.0,26,33,38,28,33,29,0,6.188201223267242e-05,-31.71919059753418,-25.495182037353516,-0.15265518426895142,-3.9480817317962646,0.005994588136672974,0.0,0.13500000536441803,-5.460000038146973,-3.622499942779541,0.03999999910593033,-0.9200000166893005,0.07999999821186066,0.0,0.0,0.0,20.002116776828547,0.0,0.0,0.0,0.0,517.888,1.604,678.36,-178.5786834454618,-80.27270490075713,-1.6672498880511826
46.55481934547424,0.0,0.0,-68.25325357028224,0.0,0.0,0.0,0.0,26,33,38,28,33,29,0,0.00010476540046511218,-32.13250732421875,-29.448883056640625,-0.14390777051448822,-4.411668300628662,0.005650608334690332,0.0,0.14749999344348907,-5.75,-4.3125,0.019999999552965164,-0.9700000286102295,0.07000000029802322,0.0,0.0,0.0,20.002116776828547,0.0,0.0,0.0,0.0,534.232,2.089,578.696,-179.5202822859798,-68.27388005090695,-0.6984928480439866
47.05540704727173,0.0,0.0,-60.252413623295915,0.0,0.0,0.0,0.0,26,33,38,28,33,29,0,0.0001309183717239648,-31.749156951904297,-26.598207473754883,-0.13454405963420868,-4.614755630493164,0.0052823941223323345,0.0,0.11999999731779099,-5.747499942779541,-3.815000057220459,-4.858093094473048e-15,-1.0,0.042500000447034836,0.0,0.0,0.0,20.002116776828547,0.0,0.0,0.0,0.0,533.423,2.409,511.302,-179.72161965518876,-60.27361306171575,-0.4784770547137505
47.55603504180908,0.0,0.0,-48.25118235070617,0.0,0.0,0.0,0.0,26,33,38,28,33,29,0,0.00016522317309863865,-30.204410552978516,-27.214181900024414,-0.1156553253531456,-4.750563621520996,0.004539621528238058,0.0,0.11999999731779099,-5.590000152587891,-3.922499895095825,-0.03500000014901161,-1.0449999570846558,0.014999999664723873,0.0,0.0,0.0,20.002116776828547,0.0,0.0,0.0,0.0,514.691,2.87,412.06,-179.87402642869355,-48.272782859582605,-0.29673484209825335
48.056628704071045,0.0,0.0,-40.250285107940336,0.0,0.0,0.0,0.0,26,33,38,28,33,29,0,0.00018416071543470025,-28.557336807250977,-24.177282333374023,-0.10019152611494064,-4.725983142852783,0.0039315298199653625,0.0,0.13500000536441803,-5.402500152587891,-3.3924999237060547,-0.04500000178813934,-1.059999942779541,-1.4909948276020657e-15,0.0,0.0,0.0,20.002116776828547,0.0,0.0,0.0,0.0,490.878,3.154,349.008,-179.93160868710422,-40.27217209571433,-0.21823962416533055
48.55723190307617,0.0,0.0,-29.884676453110558,0.0,0.0,0.0,0.0,26,33,38,28,33,29,0,1.9067662900398737e-17,-25.639659881591797,-22.99162483215332,-0.07719852775335312,-4.545439720153809,0.0030357209034264088,0.0,0.15000000596046448,-4.869999885559082,-4.012499809265137,-0.05000000074505806,-1.0399999618530273,-0.029999999329447746,0.0,0.0,0.0,0.0,0.0,0.0,0.0,0.0,447.41,3.485,273.332,-179.97962255033616,-29.906735328223093,-0.14106220916120868
49.05782985687256,0.0,0.0,-29.884676453110558,0.0,0.0,0.0,0.0,26,33,38,28,33,29,0,1.9067662900398737e-17,-25.639659881591797,-20.596277236938477,-0.07719852775335312,-4.545439720153809,0.0030357209034264088,0.0,0.16750000417232513,-4.449999809265137,-3.309999942779541,-0.05999999865889549,-1.0099999904632568,-0.05000000074505806,0.0,0.0,0.0,0.0,0.0,0.0,0.0,0.0,447.41,3.485,273.332,-179.97962255033616,-29.906735328223093,-0.14106220916120868
49.558197021484375,0.0,0.0,-39.36976356838328,0.0,0.0,0.0,0.0,26,33,38,28,33,29,0,0.00018635168089531362,-28.308696746826172,-25.61635971069336,-0.09803009033203125,-4.716009140014648,0.003846535226330161,0.0,0.17499999701976776,-4.022500038146973,-5.460000038146973,-0.07249999791383743,-0.9700000286102295,-0.09000000357627869,0.0,0.0,0.0,-20.00128007865522,0.0,0.0,0.0,0.0,487.726,3.184,342.287,-179.93665071570135,-39.39165055615728,-0.21084846860814296
50.058794260025024,0.0,0.0,-47.370317036472045,0.0,0.0,0.0,0.0,26,33,38,28,33,29,0,0.00016786337073426694,-30.017253875732422,-33.280235290527344,-0.11376506090164185,-4.752593994140625,0.00446529034525156,0.0,0.1274999976158142,-4.179999828338623,-6.797500133514404,-0.05000000074505806,-0.9399999976158142,-0.07999999821186066,0.0,0.0,0.0,-20.00128007865522,0.0,0.0,0.0,0.0,512.504,2.902,404.963,-179.88153217580978,-47.391974841128,-0.2869372638015163
50.55950331687927,0.0,0.0,-55.3708132087813,0.0,0.0,0.0,0.0,26,33,38,28,33,29,0,0.00014610735524911433,-31.239660263061523,-28.495685577392578,-0.12728382647037506,-4.696869373321533,0.004996896255761385,0.0,0.0949999988079071,-4.514999866485596,-5.962500095367432,-0.029999999329447746,-0.9075000286102295,-0.07000000029802322,0.0,0.0,0.0,-20.00128007865522,0.0,0.0,0.0,0.0,528.317,2.6,470.477,-179.79725008414604,-55.392241830319186,-0.3911009909562999
51.0601167678833,0.0,0.0,-67.45157102333519,0.0,0.0,0.0,0.0,26,33,38,28,33,29,0,0.00010801827011164278,-32.114253997802734,-36.44606018066406,-0.1429273784160614,-4.44070291519165,0.005612056702375412,0.0,0.0925000011920929,-5.017499923706055,-7.349999904632568,-4.854623647521095e-15,-0.8600000143051147,-0.03999999910593033,0.0,0.0,0.0,-20.00128007865522,0.0,0.0,0.0,0.0,534.576,2.121,571.946,-179.54709671079192,-67.47225479973942,-0.6697876625079324
51.560739517211914,0.0,0.0,-79.45234392968882,0.0,0.0,0.0,0.0,26,33,38,28,33,29,0,6.544034840771928e-05,-31.795888900756836,-36.632286071777344,-0.15219682455062866,-3.991915464401245,0.00597656425088644,0.0,0.0949999988079071,-5.517499923706055,-7.382500171661377,0.019999999552965164,-0.8199999928474426,-0.014999999664723873,0.0,0.0,0.0,-20.00128007865522,0.0,0.0,0.0,0.0,519.628,1.636,671.825,-178.7091459354131,-79.47085046647155,-1.5349539331554756
52.061431884765625,0.0,0.0,-87.45284010199808,0.0,0.0,0.0,0.0,26,33,38,28,33,29,0,3.5344972275197506e-05,-30.93101692199707,-31.289060592651367,-0.15469171106815338,-3.5945074558258057,0.006074672099202871,0.0,0.11999999731779099,-5.757500171661377,-6.449999809265137,0.03999999910593033,-0.7900000214576721,-1.4840559336981585e-15,0.0,0.0,0.0,-20.00128007865522,0.0,0.0,0.0,0.0,498.23,1.317,735.733,-173.7066514261259,-87.45856967994938,-6.555439317209801
52.56203889846802,0.0,0.0,-99.4536130083517,0.0,0.0,0.0,0.0,26,33,38,28,33,29,0,-1.0901103451033123e-05,-37.70425033569336,-34.15406036376953,-0.15278570353984833,-2.870378255844116,0.005999721121042967,0.0,0.14000000059604645,-5.627500057220459,-6.949999809265137,0.07000000029802322,-0.75,0.019999999552965164,0.0,0.0,0.0,-20.00128007865522,0.0,0.0,0.0,0.0,450.021,0.863,824.475,-2.0766855284516685,-80.51942052734047,-178.21164668190102
53.06263709068298,0.0,0.0,-107.45416647644046,0.0,0.0,0.0,0.0,26,33,38,28,33,29,0,-4.1591996705392376e-05,-26.62495231628418,-23.926010131835938,-0.14778555929660797,-2.315984010696411,0.005803097505122423,0.0,0.1599999964237213,-5.21999979019165,-5.164999961853027,0.0625,-0.7149999737739563,0.03999999910593033,0.0,0.0,0.0,-20.00128007865522,0.0,0.0,0.0,0.0,408.053,0.584,877.21,-1.2746019110480293,-72.5209870030937,-179.03177846985125
53.56284523010254,0.0,0.0,-116.13923262237203,0.0,0.0,0.0,0.0,26,33,38,28,33,29,0,1.2459565968076977e-17,-23.821125030517578,-22.948650360107422,-0.13909153640270233,-1.6469247341156006,0.005469574127346277,0.0,0.1899999976158142,-3.202500104904175,-4.005000114440918,0.05000000074505806,-0.5299999713897705,0.05999999865889549,0.0,0.0,0.0,0.0,0.0,0.0,0.0,0.0,354.678,0.31,927.233,-0.9631420536149138,-63.83678029385483,-179.36317725855494
54.063518047332764,0.0,0.0,-116.13923262237203,0.0,0.0,0.0,0.0,26,33,38,28,33,29,0,1.2459565968076977e-17,-23.821125030517578,-18.777742385864258,-0.13909153640270233,-1.6469247341156006,0.005469574127346277,0.0,0.20999999344348907,-4.052499771118164,-3.305000066757202,0.03999999910593033,-0.24250000715255737,0.07999999821186066,0.0,0.0,0.0,0.0,0.0,0.0,0.0,0.0,354.678,0.31,927.233,-0.9631420536149138,-63.83678029385483,-179.36317725855494
54.5641405582428,0.0,0.0,-126.89439528211125,0.0,0.0,0.0,0.0,26,33,38,28,33,29,0,-0.00011145089956698939,-19.937837600708008,-19.81650733947754,-0.1239570751786232,-0.8051556944847107,0.004866091068834066,0.0,0.1899999976158142,-3.2699999809265137,-4.447500228881836,0.03500000014901161,-0.15000000596046448,0.09000000357627869,0.0,0.0,0.0,-19.98400823779155,0.0,0.0,0.0,0.0,279.11,0.023,977.106,-0.785124066667767,-53.082076000351705,-179.56697834628295
55.064778566360474,0.0,0.0,-134.88801596087893,0.0,0.0,0.0,0.0,26,33,38,28,33,29,0,-0.00013693196524400264,-16.644323348999023,-13.2413330078125,-0.10984092950820923,-0.14725326001644135,0.004310993943363428,0.0,0.10249999910593033,-2.694999933242798,-3.299999952316284,0.027499999850988388,-0.09000000357627869,0.07000000029802322,0.0,0.0,0.0,-19.98400823779155,0.0,0.0,0.0,0.0,217.616,-0.148,1004.547,-0.7110406237573516,-45.08874180048159,-179.66117260780248
55.56543040275574,0.0,0.0,-138.52887627003773,0.0,0.0,0.0,0.0,26,33,38,28,33,29,0,2.798841372317279e-17,-15.011804580688477,-9.968421936035156,-0.10260625183582306,0.1712423413991928,0.0040348428301513195,0.0,0.042500000447034836,-2.122499942779541,-1.4900000095367432,0.019999999552965164,0.03750000149011612,0.03750000149011612,0.0,0.0,0.0,0.0,0.0,0.0,0.0,0.0,188.467,-0.213,1014.149,-0.6862888470077001,-41.447938787102295,-179.69549277973078
56.06581473350525,0.0,0.0,-134.40243422950556,0.0,0.0,0.0,0.0,26,33,38,28,33,29,0,-0.00013626956206280738,-16.78339195251465,-11.958751678466797,-0.11045945435762405,-0.17421579360961914,0.004335296805948019,0.0,0.03999999910593033,-2.242500066757202,-1.2599999904632568,0.009999999776482582,0.14000000059604645,0.012500000186264515,0.0,0.0,0.0,20.008007814987682,0.0,0.0,0.0,0.0,221.456,-0.139,1003.127,-0.714707553646189,-45.57426623607546,-179.65630246654388
56.56639122962952,0.0,0.0,-122.3975933228065,0.0,0.0,0.0,0.0,26,33,38,28,33,29,0,-9.691925515653566e-05,-21.6075439453125,-15.783527374267578,-0.13062240183353424,-1.1564610004425049,0.005128175485879183,0.0,0.0625,-3.3975000381469727,-1.9275000095367432,-4.875440329232816e-15,0.029999999329447746,-0.009999999776482582,0.0,0.0,0.0,20.008007814987682,0.0,0.0,0.0,0.0,311.836,0.136,957.987,-0.8444251984638073,-57.57870607231793,-179.4967337205999
57.06682729721069,0.0,0.0,-114.39440424886013,0.0,0.0,0.0,0.0,26,33,38,28,33,29,0,-6.82158351992257e-05,-24.432954788208008,-17.789026260375977,-0.14093275368213654,-1.7860288619995117,0.005533615127205849,0.0,0.1274999976158142,-3.8975000381469727,-2.2774999141693115,-4.875440329232816e-15,-0.15000000596046448,-0.03750000149011612,0.0,0.0,0.0,20.008007814987682,0.0,0.0,0.0,0.0,366.0,0.363,917.843,-1.0075462827375525,-65.58143678002818,-179.31470502908687
57.56743311882019,0.0,0.0,-102.38962063794058,0.0,0.0,0.0,0.0,26,33,38,28,33,29,0,-2.2851307221571915e-05,-27.947669982910156,-23.003326416015625,-0.151199609041214,-2.6618804931640625,0.005937344394624233,0.0,0.20999999344348907,-4.647500038146973,-3.1875,-0.004999999888241291,-0.42250001430511475,-0.05999999865889549,0.0,0.0,0.0,20.008007814987682,0.0,0.0,0.0,0.0,435.479,0.758,844.503,-1.6614630143203613,-77.58450151756233,-178.6334582106763
58.067901611328125,0.0,0.0,-94.38643156399422,0.0,0.0,0.0,0.0,26,33,38,28,33,29,0,8.072250238910783e-06,-29.741992950439453,-22.444652557373047,-0.15438397228717804,-3.1835289001464844,0.00606256490573287,0.0,0.1599999964237213,-5.147500038146973,-3.0899999141693115,-0.019999999552965164,-0.6100000143051147,-0.04500000178813934,0.0,0.0,0.0,20.008007814987682,0.0,0.0,0.0,0.0,472.639,1.05,788.25,-4.097221192980517,-85.58144535154179,-176.17976645302858
58.56852102279663,0.0,0.0,-82.38159065729515,0.0,0.0,0.0,0.0,26,33,38,28,33,29,0,5.397503264248371e-05,-31.52301025390625,-27.02865219116211,-0.15351541340351105,-3.847262382507324,0.006028410047292709,0.0,0.15000000596046448,-5.619999885559082,-3.890000104904175,-0.029999999329447746,-0.8774999976158142,-0.019999999552965164,0.0,0.0,0.0,20.008007814987682,0.0,0.0,0.0,0.0,512.831,1.518,695.564,-178.09888858781926,-82.39855020803103,-2.1517429996138064
59.069135665893555,0.0,0.0,-74.37840158334879,0.0,0.0,0.0,0.0,26,33,38,28,33,29,0,8.33859303384088e-05,-32.06965255737305,-25.252351760864258,-0.14918941259384155,-4.198022842407227,0.005858296528458595,0.0,0.19750000536441803,-5.71999979019165,-3.5799999237060547,-0.029999999329447746,-0.9800000190734863,-1.4927295510780425e-15,0.0,0.0,0.0,20.008007814987682,0.0,0.0,0.0,0.0,528.501,1.841,629.992,-179.22234423251174,-74.39822592306032,-1.0103537759336938
59.569748878479004,0.0,0.0,-64.16949688548729,0.0,0.0,0.0,0.0,26,33,38,28,33,29,0,3.3851462873913443e-18,-31.90177345275879,-27.991050720214844,-0.1394573152065277,-4.517749309539795,0.005483957938849926,0.0,0.125,-5.71999979019165,-4.885000228881836,-4.845950030141211e-15,-1.0299999713897705,0.019999999552965164,0.0,0.0,0.0,0.0,0.0,0.0,0.0,0.0,534.996,2.253,544.283,-179.63911373268994,-64.1904671407891,-0.5701503019346822
60.070024490356445,0.0,0.0,-64.16949688548729,0.0,0.0,0.0,0.0,26,33,38,28,33,29,0,3.3851462873913443e-18,-31.90177345275879,-26.85839080810547,-0.1394573152065277,-4.517749309539795,0.005483957938849926,0.0,0.16500000655651093,-5.65749979019165,-4.635000228881836,0.0024999999441206455,-1.0499999523162842,0.03500000014901161,0.0,0.0,0.0,0.0,0.0,0.0,0.0,0.0,534.996,2.253,544.283,-179.63911373268994,-64.1904671407891,-0.5701503019346822
60.57068109512329,0.0,0.0,-54.37082996893947,0.0,0.0,0.0,0.0,26,33,38,28,33,29,0,0.00014835283218417317,-31.13482666015625,-25.407705307006836,-0.12597686052322388,-4.707026958465576,0.004945511929690838,0.0,0.17000000178813934,-4.737500190734863,-3.6075000762939453,0.03999999910593033,-0.9900000095367432,0.05999999865889549,0.0,0.0,0.0,19.989142832500107,0.0,0.0,0.0,0.0,526.843,2.639,462.177,-179.81008433875698,-54.392315886256874,-0.37591760938533314
61.07085347175598,0.0,0.0,-46.974174016918596,0.0,0.0,0.0,0.0,26,33,38,28,33,29,0,0.004709240980446339,-33.60129165649414,-27.61282730102539,-0.1319757103919983,-5.555988311767578,0.005554519593715668,0.0,0.12999999523162842,-4.897500038146973,-4.364999771118164,0.019999999552965164,-0.949999988079071,0.07000000029802322,0.0,0.0,0.0,1.1287965492674463,0.0,0.0,0.0,0.0,511.484,2.916,401.782,-179.88485533102153,-46.99583182157454,-0.2826400803380351
61.57153868675232,0.0,0.0,-46.90960167340735,0.0,0.0,0.0,0.0,26,33,38,28,33,29,0,-0.005524615757167339,-36.88349914550781,-31.65131950378418,-0.09118904173374176,-3.785963535308838,0.003156536491587758,0.0,0.14000000059604645,-5.505000114440918,-5.03000020980835,-0.019999999552965164,-0.8899999856948853,0.07999999821186066,0.0,0.0,0.0,5.0526349998378715,0.0,0.0,0.0,0.0,511.316,2.919,401.265,-179.88537099303716,-46.93131677384281,-0.2819525309838781
62.07193422317505,0.0,0.0,-44.829822172861974,0.0,0.0,0.0,0.0,26,33,38,28,33,29,0,1.137172750961869e-17,-29.44826889038086,-24.40488624572754,-0.10923150181770325,-4.740583896636963,0.004295371472835541,0.0,0.20250000059604645,-4.512499809265137,-3.9200000762939453,-0.05000000074505806,-0.8500000238418579,0.0625,0.0,0.0,0.0,0.0,0.0,0.0,0.0,0.0,505.587,2.994,384.694,-179.90152840285984,-44.85153727329744,-0.2604666136664722
62.57255005836487,0.0,0.0,-50.07834475937837,0.0,0.0,0.0,0.0,26,33,38,28,33,29,0,0.0001610412000445649,-30.486948013305664,-29.310958862304688,-0.11860300600528717,-4.744062900543213,0.004655525553971529,0.0,0.1599999964237213,-4.827499866485596,-6.105000019073486,-0.07999999821186066,-0.8299999833106995,0.027499999850988388,0.0,0.0,0.0,-20.01345659839806,0.0,0.0,0.0,0.0,518.879,2.802,426.883,-179.85718146951672,-50.0999452682548,-0.3181634636361461
63.07322072982788,0.0,0.0,-58.083768368725735,0.0,0.0,0.0,0.0,26,33,38,28,33,29,0,0.00013822964683640748,-31.539411544799805,-35.972084045410156,-0.131316676735878,-4.657168865203857,0.0051554725505411625,0.0,0.1599999964237213,-5.295000076293945,-7.267499923706055,-0.07000000029802322,-0.8500000238418579,0.007499999832361937,0.0,0.0,0.0,-20.01345659839806,0.0,0.0,0.0,0.0,531.584,2.495,493.113,-179.75823165829763,-58.1050251029251,-0.43670843144871346
63.573845624923706,0.0,0.0,-70.09181783907754,0.0,0.0,0.0,0.0,26,33,38,28,33,29,0,9.91144625004381e-05,-32.146175384521484,-30.285058975219727,-0.14552144706249237,-4.358038425445557,0.005714054685086012,0.0,0.1550000011920929,-5.909999847412109,-6.275000095367432,-0.04749999940395355,-0.8725000023841858,-0.019999999552965164,0.0,0.0,0.0,-20.01345659839806,0.0,0.0,0.0,0.0,533.088,2.015,594.154,-179.45043873075335,-70.11227243236371,-0.7725762909544021
64.07432699203491,0.0,0.0,-78.0971841526454,0.0,0.0,0.0,0.0,26,33,38,28,33,29,0,7.051353168208152e-05,-40.65224838256836,-38.536258697509766,-0.15147832036018372,-4.051759719848633,0.005948300007730722,0.0,0.1550000011920929,-6.067500114440918,-7.715000152587891,-0.029999999329447746,-0.8999999761581421,-0.03999999910593033,0.0,0.0,0.0,-20.01345659839806,0.0,0.0,0.0,0.0,522.36,1.691,660.732,-178.88939845776125,-78.11614905566422,-1.3516647344931252
64.57479882240295,0.0,0.0,-90.10529091877672,0.0,0.0,0.0,0.0,26,33,38,28,33,29,0,2.521713759051636e-05,-39.395999908447266,-33.89495849609375,-0.1548544317483902,-3.446950674057007,0.0060810609720647335,0.0,0.1599999964237213,-5.880000114440918,-6.90500020980835,-4.839011136237303e-15,-0.9200000166893005,-0.05999999865889549,0.0,0.0,0.0,-20.01345659839806,0.0,0.0,0.0,0.0,489.192,1.214,756.186,-66.67040036545383,-89.68130215037989,-113.59810750518731
65.07541060447693,0.0,0.0,-98.11065723234456,0.0,0.0,0.0,0.0,26,33,38,28,33,29,0,-5.71889086131705e-06,-37.52000045776367,-30.242084503173828,-0.1533350646495819,-2.958277463912964,0.006021313834935427,0.0,0.1550000011920929,-5.599999904632568,-6.267499923706055,0.019999999552965164,-0.9200000166893005,-0.03999999910593033,0.0,0.0,0.0,-20.01345659839806,0.0,0.0,0.0,0.0,456.326,0.912,815.071,-2.3669459474649437,-81.86163145821394,-177.91840688235305
65.57608270645142,0.0,0.0,-102.39855877954462,0.0,0.0,0.0,0.0,26,33,38,28,33,29,0,9.374716641929893e-18,-27.894392013549805,-22.851009368896484,-0.151324063539505,-2.6561598777770996,0.00595060084015131,0.0,0.1525000035762787,-4.40500020980835,-4.602499961853027,0.05000000074505806,-0.5674999952316284,-0.019999999552965164,0.0,0.0,0.0,0.0,0.0,0.0,0.0,0.0,435.434,0.758,844.563,-1.6604889860686387,-77.5755633759583,-178.634432238928
66.07670950889587,0.0,0.0,-99.15693546203296,0.0,0.0,0.0,0.0,26,33,38,28,33,29,0,-1.035724017128814e-05,-28.728181838989258,-22.485050201416016,-0.15284563601016998,-2.8793840408325195,0.006002089940011501,0.0,0.1574999988079071,-3.740000009536743,-3.0975000858306885,0.0625,-0.3375000059604645,-1.4892601041260889e-15,0.0,0.0,0.0,19.9861375492653,0.0,0.0,0.0,0.0,451.433,0.874,822.41,-2.1335229417286463,-80.81598348210018,-178.15417901504935
66.57731318473816,0.0,0.0,-87.1652725846219,0.0,0.0,0.0,0.0,26,33,38,28,33,29,0,3.577795723685995e-05,-30.948701858520508,-25.550600051879883,-0.15467563271522522,-3.60140323638916,0.006074052304029465,0.0,0.2224999964237213,-5.097499847412109,-3.632499933242798,0.029999999329447746,-0.5199999809265137,0.019999999552965164,0.0,0.0,0.0,19.9861375492653,0.0,0.0,0.0,0.0,499.152,1.329,733.491,-174.3760953139567,-87.1726637401791,-5.885365175804304
67.07792258262634,0.0,0.0,-79.76981984397082,0.0,0.0,0.0,0.0,26,33,38,28,33,29,0,0.0069482889957726,-37.200523376464844,-29.331729888916016,-0.17116901278495789,-4.776462554931641,0.0070955753326416016,0.0,0.08749999850988388,-5.412499904632568,-4.664999961853027,0.0024999999441206455,-0.6775000095367432,0.03750000149011612,0.0,0.0,0.0,1.128287380009163,0.0,0.0,0.0,0.0,518.95,1.623,674.414,-178.65998615659086,-79.78815449341499,-1.5848585571113702
67.57852149009705,0.0,0.0,-80.03085941543242,0.0,0.0,0.0,0.0,26,33,38,28,33,29,0,0.01376391388475895,-42.628841400146484,-35.35842514038086,-0.1894763559103012,-5.564396858215332,0.008168423548340797,0.0,0.1899999976158142,-5.75,-5.90749979019165,-0.029999999329447746,-0.9075000286102295,0.05999999865889549,0.0,0.0,0.0,-13.538061604821621,0.0,0.0,0.0,0.0,518.382,1.613,676.54,-178.6171862092946,-80.04913676909709,-1.6282314622027734
68.07883214950562,0.0,0.0,-88.04997671608342,0.0,0.0,0.0,0.0,26,33,38,28,33,29,0,3.3052558137569577e-05,-30.845951080322266,-28.78253173828125,-0.15475735068321228,-3.561938762664795,0.006077256053686142,0.0,0.125,-5.53000020980835,-6.012499809265137,-0.05000000074505806,-1.0,0.07249999791383743,0.0,0.0,0.0,-19.997905965205234,0.0,0.0,0.0,0.0,496.278,1.294,740.374,-171.6904129450605,-88.05054967387855,-8.57316748854251
68.57952833175659,0.0,0.0,-100.04874427015409,0.0,0.0,0.0,0.0,26,33,38,28,33,29,0,-1.3194355233281385e-05,-28.55804443359375,-29.02605628967285,-0.15251538157463074,-2.8309247493743896,0.00598909379914403,0.0,0.1899999976158142,-4.952499866485596,-6.054999828338623,-0.029999999329447746,-0.8675000071525574,0.09000000357627869,0.0,0.0,0.0,-19.997905965205234,0.0,0.0,0.0,0.0,447.156,0.841,828.595,-1.9729228717534766,-79.92457574443564,-178.3167844373075
69.08015656471252,0.0,0.0,-108.04792263953453,0.0,0.0,0.0,0.0,26,33,38,28,33,29,0,-4.3830008507939056e-05,-26.453866958618164,-29.89988136291504,-0.1472981870174408,-2.272907018661499,0.005783935077488422,0.0,0.18000000715255737,-4.567500114440918,-6.207499980926514,-0.0024999999441206455,-0.7300000190734863,0.09000000357627869,0.0,0.0,0.0,-19.997905965205234,0.0,0.0,0.0,0.0,404.651,0.564,880.882,-1.2435475985519389,-71.92728813577914,-179.06415058527614
69.58086204528809,0.0,0.0,-120.0466328978257,0.0,0.0,0.0,0.0,26,33,38,28,33,29,0,-8.800218347460032e-05,-22.531431198120117,-20.230506896972656,-0.1341419368982315,-1.3569682836532593,0.0052665844559669495,0.0,0.07000000029802322,-3.984999895095825,-4.519999980926514,0.017500000074505806,-0.5,0.07000000029802322,0.0,0.0,0.0,-19.997905965205234,0.0,0.0,0.0,0.0,328.321,0.199,946.985,-0.8829852580761116,-59.92955190573969,-179.45255867459534
70.08148550987244,0.0,0.0,-128.04581126720615,0.0,0.0,0.0,0.0,26,33,38,28,33,29,0,-0.00011542712309164926,-19.479896545410156,-18.76935577392578,-0.12206635624170303,-0.7110622525215149,0.004791730083525181,0.0,2.2115989595228314e-14,-3.5975000858306885,-4.264999866485596,0.03999999910593033,-0.3499999940395355,0.03999999910593033,0.0,0.0,0.0,-19.997905965205234,0.0,0.0,0.0,0.0,270.497,-0.004,981.583,-0.7722898120568366,-51.93071731103632,-179.58262009409003
70.58212184906006,0.0,0.0,-129.53000113971302,0.0,0.0,0.0,0.0,26,33,38,28,33,29,0,1.020581395468336e-17,-18.81515884399414,-13.771777153015137,-0.11950197070837021,-0.5721778869628906,0.004699242766946554,0.0,0.09749999642372131,-3.1700000762939453,-2.5174999237060547,0.03999999910593033,-0.02500000037252903,0.009999999776482582,0.0,0.0,0.0,0.0,0.0,0.0,0.0,0.0,259.265,-0.038,987.099,-0.7570491347063568,-50.446527438529436,-179.60158499710886
71.08276915550232,0.0,0.0,-123.64721427398682,0.0,0.0,0.0,0.0,26,33,38,28,33,29,0,-0.00010111328447237611,-21.135744094848633,-16.498252868652344,-0.1287771463394165,-1.0558189153671265,0.005055624525994062,0.0,0.1899999976158142,-3.5450000762939453,-2.052500009536743,0.032499998807907104,0.03500000014901161,-0.004999999888241291,0.0,0.0,0.0,19.995076559341555,0.0,0.0,0.0,0.0,302.894,0.103,963.556,-0.8262624363581602,-56.329142416917115,-179.51793315901978
71.5835132598877,0.0,0.0,-111.65016559330154,0.0,0.0,0.0,0.0,26,33,38,28,33,29,0,-5.796344339614734e-05,-25.31731414794922,-21.97040367126465,-0.1438443958759308,-1.994531512260437,0.005648122169077396,0.0,0.1599999964237213,-4.074999809265137,-3.007499933242798,0.019999999552965164,-0.20499999821186066,-0.03999999910593033,0.0,0.0,0.0,19.995076559341555,0.0,0.0,0.0,0.0,383.214,0.448,902.388,-1.0922867406374015,-68.32544625246872,-179.22366203544055
72.08416962623596,0.0,0.0,-103.65213313951136,0.0,0.0,0.0,0.0,26,33,38,28,33,29,0,-2.7668347684084438e-05,-27.62276840209961,-22.930179595947266,-0.15042589604854584,-2.5745866298675537,0.0059069301933050156,0.0,0.13750000298023224,-4.599999904632568,-3.174999952316284,0.019999999552965164,-0.38999998569488525,-0.05249999836087227,0.0,0.0,0.0,19.995076559341555,0.0,0.0,0.0,0.0,428.915,0.714,852.881,-1.5379906094696687,-76.32227549488913,-178.75979540450265
72.58479189872742,0.0,0.0,-91.65508445882607,0.0,0.0,0.0,0.0,26,33,38,28,33,29,0,1.8596188965602778e-05,-30.245628356933594,-27.15605354309082,-0.15478356182575226,-3.3478758335113525,0.006078289356082678,0.0,0.12999999523162842,-5.21999979019165,-3.9124999046325684,0.0024999999441206455,-0.6675000190734863,-0.03999999910593033,0.0,0.0,0.0,19.995076559341555,0.0,0.0,0.0,0.0,483.477,1.154,767.935,-10.17962655453031,-88.29720800468237,-170.09111585151183
73.08541655540466,0.0,0.0,-83.65705200503588,0.0,0.0,0.0,0.0,26,33,38,28,33,29,0,4.911217183689587e-05,-31.387714385986328,-24.319704055786133,-0.15392988920211792,-3.7842483520507812,0.006044719833880663,0.0,0.17000000178813934,-5.492499828338623,-3.4175000190734863,-4.894522287468561e-15,-0.8500000238418579,-0.02250000089406967,0.0,0.0,0.0,19.995076559341555,0.0,0.0,0.0,0.0,509.495,1.468,705.786,-177.65610680374215,-83.67286564018148,-2.597389572666561
73.58602404594421,0.0,0.0,-71.6600033243506,0.0,0.0,0.0,0.0,26,33,38,28,33,29,0,9.291394235333428e-05,-32.13566207885742,-29.80617904663086,-0.14705264568328857,-4.298889636993408,0.005774281919002533,0.0,0.08250000327825546,-5.6875,-4.375,-0.0024999999441206455,-1.0049999952316284,-1.4892601041260889e-15,0.0,0.0,0.0,19.995076559341555,0.0,0.0,0.0,0.0,531.721,1.951,607.304,-179.37950655571615,-71.68028603029823,-0.847003508541896
74.08666563034058,0.0,0.0,-63.66197087056041,0.0,0.0,0.0,0.0,26,33,38,28,33,29,0,0.0001199719263240695,-31.97669219970703,-24.606203079223633,-0.13886672258377075,-4.538971900939941,0.005452382378280163,0.0,0.20000000298023224,-5.679999828338623,-3.4674999713897705,-0.009999999776482582,-1.0299999713897705,0.012500000186264515,0.0,0.0,0.0,19.995076559341555,0.0,0.0,0.0,0.0,534.919,2.274,540.005,-179.6512604379467,-63.68299842164171,-0.5568576810876471
74.58680486679077,0.0,0.0,-51.66497948565464,0.0,0.0,0.0,0.0,26,33,38,28,33,29,0,0.0001560303644509986,-30.75955581665039,-29.290477752685547,-0.12158364057540894,-4.732922077178955,0.004772750195115805,0.0,0.07750000059604645,-5.602499961853027,-4.284999847412109,-0.02500000037252903,-1.0399999618530273,0.03999999910593033,0.0,0.0,0.0,19.995076559341555,0.0,0.0,0.0,0.0,522.131,2.742,439.858,-179.84108135547353,-51.68652269875157,-0.33821698646572496
75.08740639686584,0.0,0.0,-43.66694703186446,0.0,0.0,0.0,0.0,26,33,38,28,33,29,0,0.00017636833945289254,-29.318696975708008,-23.488853454589844,-0.10705233365297318,-4.747771739959717,0.004201326984912157,0.0,0.15000000596046448,-5.5,-3.2725000381469727,-0.029999999329447746,-1.0399999618530273,0.057500001043081284,0.0,0.0,0.0,19.995076559341555,0.0,0.0,0.0,0.0,502.123,3.035,375.522,-179.90977899510972,-43.68871942807942,-0.24912204932288196
75.5880012512207,0.0,0.0,-31.589913442978908,0.0,0.0,0.0,0.0,26,33,38,28,33,29,0,0.00020046776626259089,-26.259693145751953,-25.035953521728516,-0.08126300573348999,-4.595963001251221,0.003187199356034398,0.0,0.1599999964237213,-5.072500228881836,-3.5425000190734863,-0.03500000014901161,-1.0399999618530273,0.07999999821186066,0.0,0.0,0.0,19.995076559341555,0.0,0.0,0.0,0.0,455.491,3.434,285.221,-179.97320542303072,-31.611915022311937,-0.15240677350479898
76.08860874176025,0.0,0.0,-23.591880989188727,0.0,0.0,0.0,0.0,26,33,38,28,33,29,0,0.00021159368043299764,-23.70675277709961,-17.902103424072266,-0.06212411820888519,-4.3829145431518555,0.0024345899000763893,0.0,0.13750000298023224,-4.574999809265137,-2.297499895095825,-0.05000000074505806,-1.0099999904632568,0.06750000268220901,0.0,0.0,0.0,19.995076559341555,0.0,0.0,0.0,0.0,414.615,3.662,231.662,-179.99927500270914,-23.613997160080775,-0.10221567065133887
76.5892117023468,0.0,0.0,-22.027992687379143,0.0,0.0,0.0,0.0,26,33,38,28,33,29,0,-1.022017711883973e-17,-23.058307647705078,-18.014925003051758,-0.05811081826686859,-4.317838668823242,0.0022851242683827877,0.0,0.17749999463558197,-3.507499933242798,-2.9725000858306885,-0.05249999836087227,-0.9200000166893005,0.029999999329447746,0.0,0.0,0.0,0.0,0.0,0.0,0.0,0.0,405.771,3.703,221.884,179.99675398841057,-22.050166154050707,-0.09316293748827185
77.08984231948853,0.0,0.0,-27.926879667148533,0.0,0.0,0.0,0.0,26,33,38,28,33,29,0,0.0002072758215945214,-25.088363647460938,-25.66938591003418,-0.0722891241312027,-4.505087852478027,0.002834274200722575,0.0,0.11249999701976776,-4.105000019073486,-5.46999979019165,-0.05999999865889549,-0.8700000047683716,0.009999999776482582,0.0,0.0,0.0,-20.04290325145728,0.0,0.0,0.0,0.0,437.7,3.543,259.985,-179.9863834523187,-27.948938542261068,-0.12845713766833058
77.59043717384338,0.0,0.0,-36.71192694833042,0.0,0.0,0.0,0.0,26,33,38,28,33,29,0,-2.0076932849144594e-18,-27.570337295532227,-28.22024917602539,-0.09262042492628098,-4.674034595489502,0.003642164869233966,0.0,0.19249999523162842,-4.567500114440918,-4.925000190734863,-0.07750000059604645,-0.7799999713897705,-0.019999999552965164,0.0,0.0,0.0,0.0,0.0,0.0,0.0,0.0,477.588,3.272,322.305,-179.95068818168207,-36.73387123188393,-0.18953443862927633
78.09081101417542,0.0,0.0,-36.71192694833042,0.0,0.0,0.0,0.0,26,33,38,28,33,29,0,-2.0076932849144594e-18,-27.570337295532227,-30.2544002532959,-0.09262042492628098,-4.674034595489502,0.003642164869233966,0.0,0.14249999821186066,-4.144999980926514,-5.28000020980835,-4.87890977618477e-15,-0.75,-0.03999999910593033,0.0,0.0,0.0,0.0,0.0,0.0,0.0,0.0,477.588,3.272,322.305,-179.95068818168207,-36.73387123188393,-0.18953443862927633
78.5914843082428,0.0,0.0,-26.634114993994856,0.0,0.0,0.0,0.0,26,33,38,28,33,29,0,0.004983135964721441,-29.979888916015625,-21.86476707458496,-0.10644625872373581,-6.071641445159912,0.004904161207377911,0.0,0.11749999970197678,-4.567500114440918,-3.192500114440918,0.007499999832361937,-0.7599999904632568,-0.07999999821186066,0.0,0.0,0.0,8.276810429616758,0.0,0.0,0.0,0.0,431.041,3.579,251.357,-179.99050874844366,-26.656231164886908,-0.12037843275698595
79.09218382835388,0.0,0.0,-26.545077352631527,0.0,0.0,0.0,0.0,26,33,38,28,33,29,0,7.196089171768341e-18,-24.58700942993164,-19.54362678527832,-0.06924185901880264,-4.458909511566162,0.002722836332395673,0.0,0.11999999731779099,-4.397500038146973,-3.119999885559082,-0.009999999776482582,-0.800000011920929,-0.10000000149011612,0.0,0.0,0.0,0.0,0.0,0.0,0.0,0.0,430.575,3.582,250.768,-179.99079522734124,-26.567193523523578,-0.11986277074136822
79.59281015396118,0.0,0.0,-33.942191670888505,0.0,0.0,0.0,0.0,26,33,38,28,33,29,0,0.00019647278531920165,-26.889219284057617,-22.266267776489258,-0.08624811470508575,-4.638906002044678,0.0033832420594990253,0.0,0.12999999523162842,-3.930000066757202,-4.875,-0.05000000074505806,-0.8500000238418579,-0.08500000089406967,0.0,0.0,0.0,-19.98220848294525,0.0,0.0,0.0,0.0,466.051,3.361,302.006,-179.963522436293,-33.96419325022153,-0.1689079580045667
80.0934705734253,0.0,0.0,-41.93506750452252,0.0,0.0,0.0,0.0,26,33,38,28,33,29,0,0.00018045795150101185,-28.9074764251709,-32.05024337768555,-0.10329920053482056,-4.737766742706299,0.0040537514723837376,0.0,0.18250000476837158,-4.15749979019165,-6.582499980926514,-0.06499999761581421,-0.8799999952316284,-0.07000000029802322,0.0,0.0,0.0,-19.98220848294525,0.0,0.0,0.0,0.0,496.621,3.096,361.998,-179.92129544679187,-41.956897196517005,-0.23307923105921888
80.59414267539978,0.0,0.0,-53.92438125497353,0.0,0.0,0.0,0.0,26,33,38,28,33,29,0,0.0001499776990385726,-31.055688858032227,-28.970367431640625,-0.12501661479473114,-4.713733673095703,0.004907757509499788,0.0,0.10999999940395355,-4.702499866485596,-6.045000076293945,-0.03750000149011612,-0.9300000071525574,-0.04500000178813934,0.0,0.0,0.0,-19.98220848294525,0.0,0.0,0.0,0.0,526.138,2.656,458.479,-179.81552743781072,-53.94586717229094,-0.3693285947413287
81.09482789039612,0.0,0.0,-59.00359481302876,0.0,0.0,0.0,0.0,26,33,38,28,33,29,0,-1.942257632274319e-17,-31.537668228149414,-31.80150032043457,-0.13281242549419403,-4.62929630279541,0.005222657695412636,0.0,0.07750000059604645,-5.067500114440918,-5.550000190734863,-0.017500000074505806,-0.9700000286102295,-0.029999999329447746,0.0,0.0,0.0,0.0,0.0,0.0,0.0,0.0,532.448,2.459,500.819,-179.74339205140373,-59.024851547228124,-0.45378257374361197
81.59544730186462,0.0,0.0,-60.40854462246906,0.0,0.0,0.0,0.0,26,33,38,28,33,29,0,0.00013096175098326057,-31.74886703491211,-39.59722900390625,-0.13453884422779083,-4.614835262298584,0.005282186437398195,0.0,0.14249999821186066,-5.607500076293945,-7.900000095367432,0.009999999776482582,-1.0199999809265137,-1.4771170397942512e-15,0.0,0.0,0.0,-20.004502220396173,0.0,0.0,0.0,0.0,533.529,2.403,512.615,-179.7187548662131,-60.42974406088889,-0.48168561836648305
82.09606051445007,0.0,0.0,-68.41035859770712,0.0,0.0,0.0,0.0,26,33,38,28,33,29,0,0.00010480040509719402,-32.13248825073242,-33.55207824707031,-0.14390482008457184,-4.411761283874512,0.0056504905223846436,0.0,0.1899999976158142,-5.797500133514404,-6.84499979019165,0.02500000037252903,-1.0499999523162842,0.009999999776482582,0.0,0.0,0.0,-20.004502220396173,0.0,0.0,0.0,0.0,534.154,2.083,580.018,-179.51478189114655,-68.43098507833182,-0.704337017554321
82.59643411636353,0.0,0.0,-80.41307956056419,0.0,0.0,0.0,0.0,26,33,38,28,33,29,0,6.19023630861193e-05,-31.71933937072754,-30.93060302734375,-0.1526544839143753,-3.948153495788574,0.005994558334350586,0.0,0.20999999344348907,-5.802499771118164,-6.387499809265137,0.057500001043081284,-1.0724999904632568,0.029999999329447746,0.0,0.0,0.0,-20.004502220396173,0.0,0.0,0.0,0.0,517.533,1.597,679.649,-178.55032203460283,-80.4311277311108,-1.6959550735872368
83.09706115722656,0.0,0.0,-88.41489353580224,0.0,0.0,0.0,0.0,26,33,38,28,33,29,0,3.1678384402766824e-05,-30.792675018310547,-34.970252990722656,-0.15478910505771637,-3.5418598651885986,0.006078498903661966,0.0,0.1899999976158142,-5.724999904632568,-7.09250020980835,0.07000000029802322,-1.0199999809265137,0.05000000074505806,0.0,0.0,0.0,-20.004502220396173,0.0,0.0,0.0,0.0,495.061,1.28,743.199,-169.72069863695975,-88.4103098734412,-10.543741233335949
83.59778785705566,0.0,0.0,-100.49759940685958,0.0,0.0,0.0,0.0,26,33,38,28,33,29,0,-1.4935489161871374e-05,-28.45180892944336,-27.1058292388916,-0.15230055153369904,-2.8009793758392334,0.005980640184134245,0.0,0.1599999964237213,-5.392499923706055,-5.71999979019165,0.05249999836087227,-0.8500000238418579,0.07000000029802322,0.0,0.0,0.0,-20.004502220396173,0.0,0.0,0.0,0.0,444.968,0.825,831.682,-1.9023917671728725,-79.4758924950687,-178.38828957013982
84.09822869300842,0.0,0.0,-108.49941338209763,0.0,0.0,0.0,0.0,26,33,38,28,33,29,0,-4.556915155262686e-05,-26.322309494018555,-29.397829055786133,-0.1469169557094574,-2.240002155303955,0.005768938455730677,0.0,0.13249999284744263,-5.017499923706055,-6.119999885559082,0.03999999910593033,-0.7275000214576721,0.09000000357627869,0.0,0.0,0.0,-20.004502220396173,0.0,0.0,0.0,0.0,402.039,0.549,883.651,-1.2213168361008628,-71.47585468899555,-179.08741267175847
84.59880900382996,0.0,0.0,-120.5020770491752,0.0,0.0,0.0,0.0,26,33,38,28,33,29,0,-8.967386384028941e-05,-22.366334915161133,-21.719629287719727,-0.13352252542972565,-1.3207889795303345,0.005242221523076296,0.0,0.09000000357627869,-4.392499923706055,-4.78000020980835,0.03999999910593033,-0.5199999809265137,0.09000000357627869,0.0,0.0,0.0,-20.004502220396173,0.0,0.0,0.0,0.0,325.163,0.186,949.169,-0.8750211447237933,-59.474107754390204,-179.4616114077584
85.0994484424591,0.0,0.0,-128.50389102441324,0.0,0.0,0.0,0.0,26,33,38,28,33,29,0,-0.00011701157200150192,-19.296085357666016,-18.42487907409668,-0.12130040675401688,-0.673549473285675,0.004761604592204094,0.0,0.07000000029802322,-3.9024999141693115,-4.204999923706055,0.029999999329447746,-0.38999998569488525,0.07000000029802322,0.0,0.0,0.0,-20.004502220396173,0.0,0.0,0.0,0.0,267.046,-0.015,983.317,-0.7674769665777378,-51.47263755382923,-179.5885788551594
85.60004925727844,0.0,0.0,-135.11003710649214,0.0,0.0,0.0,0.0,26,33,38,28,33,29,0,3.3385216317793335e-18,-16.490915298461914,-19.381725311279297,-0.10934682935476303,-0.11169620603322983,0.004299906548112631,0.0,0.029999999329447746,-2.9049999713897705,-3.382499933242798,0.009999999776482582,-0.027499999850988388,0.019999999552965164,0.0,0.0,0.0,0.0,0.0,0.0,0.0,0.0,215.857,-0.153,1005.186,-0.7093790461514722,-44.8667206548684,-179.66340714320347
86.1006453037262,0.0,0.0,-134.02405290160115,0.0,0.0,0.0,0.0,26,33,38,28,33,29,0,-0.0001352180406684056,-16.944469451904297,-10.512852668762207,-0.11117388308048248,-0.20551913976669312,0.00436338409781456,0.0,0.0949999988079071,-2.6424999237060547,-1.0075000524520874,-0.007499999832361937,0.20999999344348907,-0.019999999552965164,0.0,0.0,0.0,20.015867655175075,0.0,0.0,0.0,0.0,224.44,-0.132,1001.998,-0.7176296384013561,-45.95264756397985,-179.65240635353697
86.6012556552887,0.0,0.0,-122.01451374098203,0.0,0.0,0.0,0.0,26,33,38,28,33,29,0,-9.56591684371233e-05,-21.750635147094727,-17.789953231811523,-0.13117565214633942,-1.1872117519378662,0.005149924661964178,0.0,0.23999999463558197,-3.390000104904175,-2.2774999141693115,-0.05000000074505806,-0.03999999910593033,-0.07000000029802322,0.0,0.0,0.0,20.015867655175075,0.0,0.0,0.0,0.0,314.553,0.146,956.24,-0.8503266637536547,-57.961785654142396,-179.48991552283786
87.10186457633972,0.0,0.0,-117.4057558285087,0.0,0.0,0.0,0.0,26,33,38,28,33,29,0,8.483951586268103e-19,-23.387487411499023,-18.722774505615234,-0.1375488042831421,-1.5482206344604492,0.0054089087061584,0.0,0.20999999344348907,-4.362500190734863,-3.2674999237060547,-0.05999999865889549,-0.28999999165534973,-0.05000000074505806,0.0,0.0,0.0,0.0,0.0,0.0,0.0,0.0,346.283,0.274,933.832,-0.9345514596378857,-62.57031438349765,-179.39474723306662
87.60247826576233,0.0,0.0,-114.73055858726337,0.0,0.0,0.0,0.0,26,33,38,28,33,29,0,-6.903066241648048e-05,-24.32126808166504,-16.120180130004883,-0.1405545324087143,-1.7601531744003296,0.005518792662769556,0.0,0.019999999552965164,-3.117500066757202,-1.9874999523162842,-0.029999999329447746,-0.4925000071525574,-0.02500000037252903,0.0,0.0,0.0,19.947333537043168,0.0,0.0,0.0,0.0,363.841,0.353,919.678,-0.9984935495744858,-65.24533973740445,-179.3245599031631
88.1030900478363,0.0,0.0,-106.75252236052326,0.0,0.0,0.0,0.0,26,33,38,28,33,29,0,0.00015966255159582943,-26.967113494873047,-20.386028289794922,-0.14873841404914856,-2.377697229385376,0.005850790534168482,0.0,0.09000000357627869,-4.397500038146973,-2.7325000762939453,-0.009999999776482582,-0.42750000953674316,-0.0024999999441206455,0.0,0.0,0.0,19.750183541745333,0.0,0.0,0.0,0.0,412.024,0.608,872.825,-1.3141359989120562,-73.22251652745186,-178.99064010016085
88.6036946773529,0.0,0.0,-106.07116095055369,0.0,0.0,0.0,0.0,26,33,38,28,33,29,0,2.7909551564342903e-18,-26.925365447998047,-21.881982803344727,-0.14888238906860352,-2.3990392684936523,0.005854585207998753,0.0,0.14000000059604645,-4.329999923706055,-4.477499961853027,0.012500000186264515,-0.44999998807907104,0.012500000186264515,0.0,0.0,0.0,0.0,0.0,0.0,0.0,0.0,415.828,0.631,868.521,-1.35584732639758,-73.90376334586242,-178.94738178662848
89.104332447052,0.0,0.0,-98.91021983544964,0.0,0.0,0.0,0.0,26,33,38,28,33,29,0,-9.410558959643822e-06,-28.78472900390625,-24.176006317138672,-0.15295125544071198,-2.8956234455108643,0.006006239447742701,0.0,0.1899999976158142,-4.502500057220459,-3.3924999237060547,0.029999999329447746,-0.4625000059604645,0.02500000037252903,0.0,0.0,0.0,19.9912858043522,0.0,0.0,0.0,0.0,452.599,0.883,820.688,-2.1836567488025933,-81.06258451712449,-178.10352954595982
89.60499715805054,0.0,0.0,-86.91540569016537,0.0,0.0,0.0,0.0,26,33,38,28,33,29,0,3.6748246202478185e-05,-30.983232498168945,-26.2244815826416,-0.15464164316654205,-3.6148810386657715,0.006072711665183306,0.0,0.2175000011920929,-5.34499979019165,-3.75,0.029999999329447746,-0.5400000214576721,0.05000000074505806,0.0,0.0,0.0,19.9912858043522,0.0,0.0,0.0,0.0,499.945,1.339,731.54,-174.8564631293944,-86.92405735287184,-5.4044244025714905
90.10565376281738,0.0,0.0,-78.91892022242202,0.0,0.0,0.0,0.0,26,33,38,28,33,29,0,6.675178883597255e-05,-31.82353973388672,-30.063581466674805,-0.15200741589069366,-4.008616924285889,0.0059691243804991245,0.0,0.07750000059604645,-5.707499980926514,-4.420000076293945,-4.896257010944538e-15,-0.6349999904632568,0.07000000029802322,0.0,0.0,0.0,19.9912858043522,0.0,0.0,0.0,0.0,520.735,1.657,667.466,-178.785406617945,-78.9375986465433,-1.457490039253788
90.60627031326294,0.0,0.0,-66.92416337291728,0.0,0.0,0.0,0.0,26,33,38,28,33,29,0,0.00010914738959399983,-32.10517120361328,-24.72035789489746,-0.14254219830036163,-4.451457500457764,0.005596918053925037,0.0,0.2224999964237213,-5.789999961853027,-3.487499952316284,-0.027499999850988388,-0.7975000143051147,0.09000000357627869,0.0,0.0,0.0,19.9912858043522,0.0,0.0,0.0,0.0,534.75,2.143,567.503,-179.5637124868507,-66.944904445101,-0.6519686750793637
91.1068594455719,0.0,0.0,-58.92762060939442,0.0,0.0,0.0,0.0,26,33,38,28,33,29,0,0.000134869827888906,-31.635051727294922,-29.6195068359375,-0.13273505866527557,-4.639803886413574,0.005211266689002514,0.0,0.13249999284744263,-5.6875,-4.34250020980835,-4.87890977618477e-15,-0.8999999761581421,0.09000000357627869,0.0,0.0,0.0,19.9912858043522,0.0,0.0,0.0,0.0,532.382,2.462,500.182,-179.744652558553,-58.94887734359378,-0.45229288347627183
91.60754656791687,0.0,0.0,-46.93286375988966,0.0,0.0,0.0,0.0,26,33,38,28,33,29,0,0.00016839310410432518,-29.96587562561035,-23.54570770263672,-0.11325487494468689,-4.752861022949219,0.004445236641913652,0.0,0.21250000596046448,-5.502500057220459,-3.2825000286102295,0.019999999552965164,-1.0700000524520874,0.05000000074505806,0.0,0.0,0.0,19.9912858043522,0.0,0.0,0.0,0.0,511.377,2.918,401.451,-179.8851991056986,-46.95452156454561,-0.28218171410193044
92.10792112350464,0.0,0.0,-38.93632099636682,0.0,0.0,0.0,0.0,26,33,38,28,33,29,0,0.00018673459999263287,-28.24198341369629,-26.16718292236328,-0.09745670855045319,-4.7131195068359375,0.003823996288701892,0.0,0.14000000059604645,-5.292500019073486,-3.740000009536743,0.03999999910593033,-1.1299999952316284,0.029999999329447746,0.0,0.0,0.0,19.9912858043522,0.0,0.0,0.0,0.0,486.136,3.198,338.996,-179.93905713844092,-38.95820798414081,-0.20723883449881877
92.60855150222778,0.0,0.0,-26.941564146862056,0.0,0.0,0.0,0.0,26,33,38,28,33,29,0,0.0002073456416837871,-24.823150634765625,-18.646556854248047,-0.07030913978815079,-4.4827680587768555,0.0027564573101699352,0.0,0.1899999976158142,-4.65749979019165,-2.427500009536743,0.019999999552965164,-1.090000033378601,-1.4944642745540193e-15,0.0,0.0,0.0,19.9912858043522,0.0,0.0,0.0,0.0,432.642,3.571,253.395,-179.98953472019195,-26.963680317754108,-0.12226919348091768
93.10916948318481,0.0,0.0,-21.45984773772742,0.0,0.0,0.0,0.0,26,33,38,28,33,29,0,-8.357783278399038e-18,-22.85791015625,-20.226900100708008,-0.056683823466300964,-4.2981767654418945,0.0022290097549557686,0.0,0.12250000238418579,-4.099999904632568,-3.5299999713897705,0.019999999552965164,-1.0199999809265137,-0.019999999552965164,0.0,0.0,0.0,0.0,0.0,0.0,0.0,0.0,402.492,3.717,218.392,179.99532159392277,-21.482078500178496,-0.08995437383553925
93.60978364944458,0.0,0.0,-23.103892835075804,0.0,0.0,0.0,0.0,26,33,38,28,33,29,0,0.00021226235548965633,-23.51104736328125,-27.894512176513672,-0.06071450188755989,-4.364494323730469,0.002379157580435276,0.0,0.125,-3.5274999141693115,-5.857500076293945,-0.019999999552965164,-0.8924999833106995,-0.05000000074505806,0.0,0.0,0.0,-19.99663555001961,0.0,0.0,0.0,0.0,411.885,3.675,228.585,179.9994468900477,-23.126066301747365,-0.09935088167568475
94.11039638519287,0.0,0.0,-31.182540450640897,0.0,0.0,0.0,0.0,26,33,38,28,33,29,0,0.00020141982531640679,-26.09168243408203,-26.16118621826172,-0.07995337247848511,-4.5837531089782715,0.003135698614642024,0.0,0.14000000059604645,-3.872499942779541,-5.554999828338623,-0.05000000074505806,-0.800000011920929,-0.07999999821186066,0.0,0.0,0.0,-19.99663555001961,0.0,0.0,0.0,0.0,453.593,3.447,282.359,-179.97480970485708,-31.20459932575343,-0.14965657608817104
94.61083936691284,0.0,0.0,-43.18050586379839,0.0,0.0,0.0,0.0,26,33,38,28,33,29,0,0.0001778946752892807,-29.181203842163086,-27.135286331176758,-0.1057828739285469,-4.744939804077148,0.004151406232267618,0.0,0.16249999403953552,-4.417500019073486,-5.724999904632568,-0.054999999701976776,-0.7200000286102295,-0.07999999821186066,0.0,0.0,0.0,-19.99663555001961,0.0,0.0,0.0,0.0,500.619,3.052,371.707,-179.9131021503215,-43.20233555579287,-0.24453838696183536
95.11157703399658,0.0,0.0,-51.17916857116322,0.0,0.0,0.0,0.0,26,33,38,28,33,29,0,0.00015781530237291008,-30.6614933013916,-34.312110900878906,-0.12049476057291031,-4.737547397613525,0.0047299303114414215,0.0,0.1875,-4.78249979019165,-6.977499961853027,-0.03750000149011612,-0.7300000190734863,-0.06750000268220901,0.0,0.0,0.0,-19.99663555001961,0.0,0.0,0.0,0.0,521.173,2.76,435.876,-179.8461806798502,-51.200769080039656,-0.33191445071928594
95.61224722862244,0.0,0.0,-63.17719128010022,0.0,0.0,0.0,0.0,26,33,38,28,33,29,0,0.00012207742838654667,-31.940954208374023,-33.75343704223633,-0.13808651268482208,-4.554542064666748,0.005421700421720743,0.0,0.1850000023841858,-5.332499980926514,-6.880000114440918,-4.887583393564654e-15,-0.7799999713897705,-0.03999999910593033,0.0,0.0,0.0,-19.99663555001961,0.0,0.0,0.0,0.0,534.811,2.293,535.919,-179.66243311495177,-63.19816153540201,-0.5445963842718474
96.11287593841553,0.0,0.0,-71.17579669168553,0.0,0.0,0.0,0.0,26,33,39,28,33,29,0,9.518227307125926e-05,-32.14241027832031,-35.61842727661133,-0.14649753272533417,-4.321389675140381,0.005752451717853546,0.0,0.1899999976158142,-5.695000171661377,-7.182499885559082,0.007499999832361937,-0.8100000023841858,-0.02250000089406967,0.0,0.0,0.0,-19.99663555001961,0.0,0.0,0.0,0.0,532.182,1.971,603.247,-179.40271134641895,-71.19613669341268,-0.8227673938078621
96.6135847568512,0.0,0.0,-83.17381940062255,0.0,0.0,0.0,0.0,26,33,38,28,33,29,0,5.1540737331379205e-05,-31.45754051208496,-37.67848587036133,-0.15373042225837708,-3.8162589073181152,0.006036874372512102,0.0,0.1875,-5.920000076293945,-7.565000057220459,0.03999999910593033,-0.8600000143051147,-1.4892601041260889e-15,0.0,0.0,0.0,-19.99663555001961,0.0,0.0,0.0,0.0,510.786,1.487,701.922,-177.84346400274993,-83.19009140200426,-2.409001049627546
97.11419439315796,0.0,0.0,-91.17248210798738,0.0,0.0,0.0,0.0,26,33,38,28,33,29,0,2.107267027895432e-05,-38.99399948120117,-28.5534610748291,-0.15482643246650696,-3.3854587078094482,0.00607997365295887,0.0,0.1875,-5.820000171661377,-5.972499847412109,0.057500001043081284,-0.8999999761581421,0.009999999776482582,0.0,0.0,0.0,-19.99663555001961,0.0,0.0,0.0,0.0,485.291,1.173,764.293,-14.03689302291004,-88.76989818566528,-166.23270346754185
97.61483407020569,0.0,0.0,-103.17044752114487,0.0,0.0,0.0,0.0,26,33,38,28,33,29,0,-2.521045462344773e-05,-27.789249420166016,-30.888437271118164,-0.15082834661006927,-2.619108200073242,0.005922754295170307,0.0,0.1875,-5.412499904632568,-6.380000114440918,0.05999999865889549,-0.8650000095367432,0.03999999910593033,0.0,0.0,0.0,-19.99663555001961,0.0,0.0,0.0,0.0,431.441,0.731,849.702,-1.5822802470332815,-76.80390381747611,-178.7144171471283
98.11544847488403,0.0,0.0,-111.1691102285097,0.0,0.0,0.0,0.0,26,33,38,28,33,29,0,-5.5577758757863194e-05,-25.517295837402344,-23.296186447143555,-0.14447717368602753,-2.0426034927368164,0.005673004314303398,0.0,0.1850000023841858,-4.957499980926514,-5.054999828338623,0.05000000074505806,-0.7300000190734863,0.05000000074505806,0.0,0.0,0.0,-19.99663555001961,0.0,0.0,0.0,0.0,386.155,0.463,899.594,-1.109475474491326,-68.80650161726057,-179.20532738599638
98.61605739593506,0.0,0.0,-122.90884356340172,0.0,0.0,0.0,0.0,26,33,38,28,33,29,0,-0.012971269898116589,-28.508499145507812,-21.31943130493164,-0.09286722540855408,-2.74399995803833,0.0029240825679153204,0.0,0.1899999976158142,-4.255000114440918,-4.5,0.03999999910593033,-0.49000000953674316,0.07750000059604645,0.0,0.0,0.0,-6.62768601395292,0.0,0.0,0.0,0.0,308.192,0.122,960.289,-0.8368048597885673,-57.06745583172269,-179.50555727064494
99.11671710014343,0.0,0.0,-122.97141055463003,0.0,0.0,0.0,0.0,26,33,38,28,33,29,0,1.2835275538201625e-17,-21.37859344482422,-16.3352108001709,-0.12998364865779877,-1.106162428855896,0.005111420061439276,0.0,0.1899999976158142,-3.5299999713897705,-3.5799999237060547,0.03999999910593033,-0.20250000059604645,0.09000000357627869,0.0,0.0,0.0,0.0,0.0,0.0,0.0,0.0,307.745,0.121,960.568,-0.835888127316358,-57.0048888404944,-179.5066458904557
99.61743664741516,0.0,0.0,-115.63376925550762,0.0,0.0,0.0,0.0,26,33,38,28,33,29,0,0.0024732823949307203,-26.639530181884766,-17.389768600463867,-0.14645373821258545,-1.9919568300247192,0.005886375904083252,0.0,0.11999999731779099,-3.640000104904175,-2.2174999713897705,0.02250000089406967,-0.10000000149011612,0.09000000357627869,0.0,0.0,0.0,19.013158318976767,0.0,0.0,0.0,0.0,357.987,0.325,924.548,-0.9753460546512004,-64.34212906916021,-179.34977004614885
100.11807751655579,0.0,0.0,-115.09902774531201,0.0,0.0,0.0,0.0,26,33,38,28,33,29,0,-1.9895050308104903e-18,-24.17041778564453,-19.12703514099121,-0.14030775427818298,-1.7273900508880615,0.005517400335520506,0.0,0.07500000298023224,-3.884999990463257,-3.3524999618530273,0.007499999832361937,-0.4749999940395355,0.09000000357627869,0.0,0.0,0.0,0.0,0.0,0.0,0.0,0.0,361.462,0.341,921.676,-0.9888678586162878,-64.87687057935581,-179.335045030814
100.61881637573242,0.0,0.0,-108.17156693172377,0.0,0.0,0.0,0.0,26,33,38,28,33,29,0,-4.4645032176049426e-05,-26.394729614257812,-19.479341506958008,-0.14712728559970856,-2.2580878734588623,0.005777206737548113,0.0,0.1875,-4.090000152587891,-2.572499990463257,-0.027499999850988388,-0.4625000059604645,0.07000000029802322,0.0,0.0,0.0,20.007700456475032,0.0,0.0,0.0,0.0,403.938,0.56,881.642,-1.2373596543645258,-71.8036438435899,-179.07062500836113
101.1195216178894,0.0,0.0,-100.08845024535665,0.0,0.0,0.0,0.0,26,33,38,28,33,29,0,-1.3978616152598988e-05,-28.510995864868164,-20.138290405273438,-0.15242087841033936,-2.817626714706421,0.005985368974506855,0.0,0.14000000059604645,-4.6875,-2.6875,-0.04749999940395355,-0.35749998688697815,0.03999999910593033,0.0,0.0,0.0,20.007700456475032,0.0,0.0,0.0,0.0,446.964,0.84,828.868,-1.9663911528889855,-79.88486976923309,-178.3233734519515
101.62017250061035,0.0,0.0,-88.08383852177565,0.0,0.0,0.0,0.0,26,33,39,28,33,29,0,3.23431049764622e-05,-30.817825317382812,-27.248023986816406,-0.15477494895458221,-3.5512943267822266,0.00607793964445591,0.0,0.12250000238418579,-5.21999979019165,-3.947499990463257,0.014999999664723873,-0.48249998688697815,0.012500000186264515,0.0,0.0,0.0,20.007700456475032,0.0,0.0,0.0,0.0,496.166,1.293,740.636,-171.5389229040279,-88.08395311333467,-8.72471482535461
102.1208655834198,0.0,0.0,-80.0807640393883,0.0,0.0,0.0,0.0,26,33,39,28,33,29,0,6.256182678043842e-05,-31.733652114868164,-24.97035026550293,-0.1525755524635315,-3.9560859203338623,0.005991451907902956,0.0,0.05000000074505806,-5.5625,-3.549999952316284,0.042500000447034836,-0.612500011920929,-1.4927295510780425e-15,0.0,0.0,0.0,20.007700456475032,0.0,0.0,0.0,0.0,518.272,1.611,676.946,-178.60876372970617,-80.09898409727347,-1.6367685333502227
102.62153244018555,0.0,0.0,-68.0761523158073,0.0,0.0,0.0,0.0,26,33,38,28,33,29,0,0.00010542721429374069,-32.12977600097656,-29.7933406829834,-0.14373020827770233,-4.417114734649658,0.005643621552735567,0.0,0.03999999910593033,-5.815000057220459,-4.372499942779541,0.007499999832361937,-0.8274999856948853,-0.03500000014901161,0.0,0.0,0.0,20.007700456475032,0.0,0.0,0.0,0.0,534.316,2.096,577.205,-179.5264129343877,-68.096778796432,-0.6919611291794951
103.12214350700378,0.0,0.0,-60.07307783341996,0.0,0.0,0.0,0.0,26,33,38,28,33,29,0,0.00013155063788872212,-31.7346134185791,-25.309616088867188,-0.13430331647396088,-4.618298053741455,0.005272922106087208,0.0,0.17499999701976776,-5.832499980926514,-3.5899999141693115,-0.012500000186264515,-0.9599999785423279,-0.05999999865889549,0.0,0.0,0.0,20.007700456475032,0.0,0.0,0.0,0.0,533.297,2.417,509.796,-179.724885514621,-60.0942772718398,-0.47481012482491314
103.62273836135864,0.0,0.0,-48.068408814059445,0.0,0.0,0.0,0.0,26,33,38,28,33,29,0,0.00016578554641455412,-30.17221450805664,-28.188940048217773,-0.11532624065876007,-4.751039028167725,0.004526676144450903,0.0,0.08500000089406967,-5.637499809265137,-4.09250020980835,-0.03500000014901161,-1.1100000143051147,-0.05000000074505806,0.0,0.0,0.0,20.007700456475032,0.0,0.0,0.0,0.0,514.246,2.876,410.585,-179.87557341474042,-48.09006661871539,-0.2946721940357824
104.12335085868835,0.0,0.0,-45.78276557772356,0.0,0.0,0.0,0.0,26,33,39,28,33,29,0,1.3676438811829249e-17,-29.637269973754883,-24.593887329101562,-0.11104391515254974,-4.742171764373779,0.004366641864180565,0.0,0.1599999964237213,-5.460000038146973,-4.037499904632568,-0.029999999329447746,-1.1399999856948853,-0.029999999329447746,0.0,0.0,0.0,0.0,0.0,0.0,0.0,0.0,508.287,2.96,392.261,-179.8943091346412,-45.80448067815902,-0.2700923046246701
104.62397909164429,0.0,0.0,-51.18323657150865,0.0,0.0,0.0,0.0,26,33,39,28,33,29,0,0.00015765626449137926,-30.662038803100586,-32.854644775390625,-0.12050182372331619,-4.737509727478027,0.004730215761810541,0.0,0.125,-5.192500114440918,-6.699999809265137,-4.908400075276376e-15,-1.127500057220459,-1.4667086989383904e-15,0.0,0.0,0.0,-19.98726282293106,0.0,0.0,0.0,0.0,521.181,2.76,435.909,-179.8461233840707,-51.204837080385076,-0.33197174649879896
105.12460684776306,0.0,0.0,-59.17817505320512,0.0,0.0,0.0,0.0,26,33,38,28,33,29,0,0.00013453795691020787,-31.643264770507812,-28.611724853515625,-0.13286112248897552,-4.638164043426514,0.005216226913034916,0.0,0.14749999344348907,-5.019999980926514,-5.982500076293945,0.019999999552965164,-1.1200000047683716,-1.4667086989383904e-15,0.0,0.0,0.0,-19.98726282293106,0.0,0.0,0.0,0.0,532.598,2.452,502.283,-179.74046996664856,-59.199431787404485,-0.4571057289553708
105.62522840499878,0.0,0.0,-71.17052547997034,0.0,0.0,0.0,0.0,26,33,39,28,33,29,0,9.51113979681395e-05,-32.142364501953125,-35.61936950683594,-0.14649300277233124,-4.321561336517334,0.005752281751483679,0.0,0.18000000715255737,-4.760000228881836,-7.182499885559082,0.03999999910593033,-1.0700000524520874,0.029999999329447746,0.0,0.0,0.0,-19.98726282293106,0.0,0.0,0.0,0.0,532.187,1.971,603.203,-179.402940529537,-71.19080818591796,-0.8224809149102967
106.1258602142334,0.0,0.0,-79.1654066658873,0.0,0.0,0.0,0.0,26,33,39,28,33,29,0,6.640603533014655e-05,-31.817171096801758,-32.238670349121094,-0.15205197036266327,-4.0047526359558105,0.005970879457890987,0.0,0.20250000059604645,-4.712500095367432,-6.59250020980835,0.07000000029802322,-1.0299999713897705,0.03999999910593033,0.0,0.0,0.0,-19.98726282293106,0.0,0.0,0.0,0.0,520.228,1.648,669.482,-178.75108644601667,-79.18402779422907,-1.4923831689772553
106.62650966644287,0.0,0.0,-90.84005199525248,0.0,0.0,0.0,0.0,26,33,38,28,33,29,0,-0.012996450997889042,-31.489999771118164,-28.895763397216797,-0.12125921994447708,-5.208000183105469,0.004110907204449177,0.0,0.22499999403953552,-4.699999809265137,-5.792500019073486,0.05999999865889549,-0.9300000071525574,0.07000000029802322,0.0,0.0,0.0,-5.154400122716007,0.0,0.0,0.0,0.0,486.522,1.186,761.775,-19.007244599890416,-89.08937945223023,-161.26149245386878
107.12686443328857,0.0,0.0,-90.88187791429702,0.0,0.0,0.0,0.0,26,33,38,28,33,29,0,2.289216916867734e-19,-30.30839729309082,-32.48910140991211,-0.15491922199726105,-3.387096405029297,0.006091975141316652,0.0,0.17499999701976776,-4.690000057220459,-5.670000076293945,0.05000000074505806,-0.7699999809265137,0.09000000357627869,0.0,0.0,0.0,0.0,0.0,0.0,0.0,0.0,486.368,1.184,762.093,-18.19834278472472,-89.04967347702768,-162.0705088605935
