Time (s),Pos_0,Pos_1,Pos_2,Pos_3,Pos_4,Pos_5,Pos_6,Temp_0,Temp_1,Temp_2,Temp_3,Temp_4,Temp_5,Temp_6,Torque_0,Torque_1,Torque_2,Torque_3,Torque_4,Torque_5,Torque_6,Current_0,Current_1,Current_2,Current_3,Current_4,Current_5,Current_6,Velocity_0,Velocity_1,Velocity_2,Velocity_3,Velocity_4,Velocity_5,Velocity_6,Tool_X,Tool_Y,Tool_Z,Tool_Roll,Tool_Pitch,Tool_Yaw
1.430511474609375e-06,0.0,0.0,-1.2441205563470696,0.0,0.0,0.0,0.0,25,31,34,27,31,29,0,0.00022051540145184845,-14.832466125488281,-9.831524848937988,-0.003497279016301036,-3.3561012744903564,0.00012917272397316992,0.0,0.1274999976158142,-2.1675000190734863,-0.8075000047683716,-0.10499999672174454,-0.6499999761581421,0.07000000029802322,0.0,0.0,0.0,19.996637257566903,0.0,0.0,0.0,0.0,266.04,4.106,117.749,179.9679342113155,-1.266580501916198,0.01283425461093044
0.5007269382476807,0.0,0.0,0.0,0.0,0.0,0.0,0.0,25,31,34,27,31,29,0,0.0,-14.196634292602539,-9.153251647949219,-4.003883448814899e-16,-3.266948938369751,-1.7458432649513574e-19,0.0,0.10750000178813934,-1.6074999570846558,-1.2899999618530273,-0.11999999731779099,-0.6800000071525574,0.07000000029802322,0.0,0.0,0.0,0.0,0.0,0.0,0.0,0.0,256.587,4.121,113.204,179.9674758450794,-0.02245994556912827,0.01873571990077792
1.0013480186462402,0.0,0.0,0.0,0.0,0.0,0.0,0.0,25,31,34,27,31,29,0,0.0,-14.196634292602539,-9.153251647949219,-4.003883448814899e-16,-3.266948938369751,-1.7458432649513574e-19,0.0,0.08500000089406967,-1.5299999713897705,-1.2799999713897705,-0.12999999523162842,-0.6800000071525574,0.07000000029802322,0.0,0.0,0.0,0.0,0.0,0.0,0.0,0.0,256.587,4.121,113.204,179.9674758450794,-0.02245994556912827,0.01873571990077792
1.5019652843475342,0.0,0.0,-15.785044551633693,0.0,0.0,0.0,0.0,25,31,34,27,31,29,0,0.0010107452981173992,-21.020606994628906,-11.376731872558594,-0.04131633788347244,-4.1205735206604,0.0015860978746786714,0.0,0.03999999910593033,-2.307499885559082,-3.5250000953674316,-0.13500000536441803,-0.6700000166893005,0.07000000029802322,0.0,0.0,0.0,-42.99113333431161,0.0,0.0,0.0,0.0,367.907,3.852,185.362,179.9835759591226,-15.807332609864284,-0.05912924445750095
2.0025641918182373,0.0,0.0,-32.981513335792656,0.0,0.0,0.0,0.0,25,31,34,27,31,29,0,0.0009179119952023029,-26.904993057250977,-18.238407135009766,-0.08356910198926926,-4.657477378845215,0.003247627057135105,0.0,0.019999999552965164,-3.184999942779541,-4.722499847412109,-0.14249999821186066,-0.6600000262260437,0.07000000029802322,0.0,0.0,0.0,-42.99113333431161,0.0,0.0,0.0,0.0,461.821,3.391,295.099,-179.96764773241793,-33.00351491512568,-0.1620324644629968
2.503171443939209,0.0,0.0,-58.77618786414135,0.0,0.0,0.0,0.0,25,31,34,27,31,29,0,0.0006294197519309819,-31.949142456054688,-24.18328285217285,-0.13186949491500854,-4.68528938293457,0.005146970506757498,0.0,0.14000000059604645,-4.492499828338623,-5.760000228881836,-0.15000000596046448,-0.6399999856948853,0.057500001043081284,0.0,0.0,0.0,-42.99113333431161,0.0,0.0,0.0,0.0,532.246,2.468,498.913,-179.7471162770721,-58.7974445983407,-0.44942809450061777
3.003924608230591,0.0,0.0,-75.97265664830032,0.0,0.0,0.0,0.0,25,31,34,27,31,29,0,0.0003626639663707465,-32.35200119018555,-22.908357620239258,-0.14982041716575623,-4.183051109313965,0.0058528645895421505,0.0,0.23000000417232513,-4.945000171661377,-5.537499904632568,-0.1599999964237213,-0.6299999952316284,0.032499998807907104,0.0,0.0,0.0,-42.99113333431161,0.0,0.0,0.0,0.0,526.113,1.776,643.218,-179.10145013773916,-75.99213721333476,-1.1348575048156218
3.504660129547119,0.0,0.0,-101.767331176649,0.0,0.0,0.0,0.0,25,31,34,27,31,29,0,-8.99555379874073e-05,-28.427091598510742,-24.74195671081543,-0.15139199793338776,-2.7599003314971924,0.00591466436162591,0.0,0.2750000059604645,-4.337500095367432,-5.857500076293945,-0.17000000178813934,-0.6100000143051147,-1.0052722543285597e-15,0.0,0.0,0.0,-42.99113333431161,0.0,0.0,0.0,0.0,438.647,0.78,840.321,-1.7321087104599917,-78.20661909151538,-178.56143741582835
4.005260705947876,0.0,0.0,-118.96374266502845,0.0,0.0,0.0,0.0,25,31,34,27,31,29,0,-0.0003902058524545282,-23.07001304626465,-16.57670783996582,-0.13517537713050842,-1.4746932983398438,0.005276969633996487,0.0,0.14249999821186066,-3.5850000381469727,-4.432499885559082,-0.17000000178813934,-0.5299999713897705,-0.012500000186264515,0.0,0.0,0.0,-42.99113333431161,0.0,0.0,0.0,0.0,335.759,0.229,941.692,-0.9029241893466643,-61.012384842757434,-179.43004143324669
4.505856037139893,0.0,0.0,-144.93041912347542,0.0,0.0,0.0,0.0,25,31,34,27,31,29,0,-0.0007630681502632797,-12.266637802124023,-5.8329572677612305,-0.08901926875114441,0.6355909705162048,0.0034619467332959175,0.0,0.06499999761581421,-2.244999885559082,-2.557499885559082,-0.14000000059604645,-0.2750000059604645,-0.05000000074505806,0.0,0.0,0.0,-42.99113333431161,0.0,0.0,0.0,0.0,135.952,-0.307,1026.477,-0.6520832666383899,-35.04651052522366,-179.7472308686311
5.006455659866333,0.0,0.0,-162.12688790763437,0.0,0.0,0.0,0.0,25,31,34,27,31,29,0,-0.0009306290885433555,-4.114678859710693,2.3466176986694336,-0.04761076346039772,1.9924243688583374,0.0018336171051487327,0.0,0.03750000149011612,-1.1074999570846558,-1.1299999952316284,-0.11999999731779099,-0.05000000074505806,-0.07249999791383743,0.0,0.0,0.0,-42.99113333431161,0.0,0.0,0.0,0.0,-8.442,-0.42,1030.035,-0.5982252338960926,-17.85032821996226,-179.8540302016435
5.507161617279053,0.0,0.0,-187.92156243598308,0.0,0.0,0.0,0.0,25,31,34,27,31,29,0,-0.001023291377350688,7.73004674911499,11.915718078613281,0.021275904029607773,3.651749610900879,-0.0008752518333494663,0.0,2.1317149434540994e-14,0.7599999904632568,0.5400000214576721,-0.08500000089406967,0.3774999976158142,-0.10249999910593033,0.0,0.0,0.0,-42.99113333431161,0.0,0.0,0.0,0.0,-210.969,-0.201,955.986,-0.5782290068460268,7.944002533709351,-179.98076846592645
6.008011102676392,0.0,0.0,-196.1401836408986,0.0,0.0,0.0,0.0,25,31,34,27,31,29,0,9.853721218227713e-18,10.81246280670166,9.44017505645752,0.043070800602436066,4.093844413757324,-0.001693697297014296,0.0,-0.004999999888241291,1.6449999809265137,1.6475000381469727,-0.06750000268220901,0.6524999737739563,-0.12999999523162842,0.0,0.0,0.0,0.0,0.0,0.0,0.0,0.0,-266.193,-0.039,914.235,-0.583901289017822,16.16250914706588,179.978820409423
6.508852481842041,0.0,0.0,-195.26447494682066,0.0,0.0,0.0,0.0,25,31,34,27,31,29,0,6.627967878586815e-18,10.476480484008789,13.136025428771973,0.04079119488596916,4.056777000427246,-0.001604054938070476,0.0,0.03999999910593033,1.2174999713897705,2.2925000190734863,-0.04749999940395355,0.8050000071525574,-0.1599999964237213,0.0,0.0,0.0,0.0,0.0,0.0,0.0,0.0,-260.601,-0.058,919.055,-0.5830418523251257,15.286857748767442,179.9832321844455
7.009444236755371,0.0,0.0,-195.26447494682066,0.0,0.0,0.0,0.0,25,31,34,27,31,29,0,6.627967878586815e-18,10.476480484008789,15.51986312866211,0.04079119488596916,4.056777000427246,-0.001604054938070476,0.0,0.09000000357627869,1.4249999523162842,2.3350000381469727,-0.05000000074505806,0.7724999785423279,-0.17000000178813934,0.0,0.0,0.0,0.0,0.0,0.0,0.0,0.0,-260.601,-0.058,919.055,-0.5830418523251257,15.286857748767442,179.9832321844455
7.510041236877441,0.0,0.0,-174.50065633861817,0.0,0.0,0.0,0.0,25,31,34,27,31,29,0,-0.0010008914396166801,1.9016250371932983,6.060914993286133,-0.014002259820699692,2.884756088256836,0.0005120380083099008,0.0,0.1550000011920929,0.07249999791383743,2.484999895095825,-0.0625,0.6499999761581421,-0.17000000178813934,0.0,0.0,0.0,42.976147899272604,0.0,0.0,0.0,0.0,-109.738,-0.372,1005.953,-0.5813229789397333,-5.476731676317001,-179.9165971928718
8.010727882385254,0.0,0.0,-157.31020361130808,0.0,0.0,0.0,0.0,25,31,34,27,31,29,0,-0.0008939462131820619,-6.256908893585205,-2.7346351146698,-0.058953460305929184,1.652409553527832,0.0022796792909502983,0.0,0.19750000536441803,-0.5950000286102295,0.949999988079071,-0.07000000029802322,0.48750001192092896,-0.17000000178813934,0.0,0.0,0.0,42.976147899272604,0.0,0.0,0.0,0.0,32.014,-0.409,1033.417,-0.6090541362240651,-22.66695522050904,-179.8273303683904
8.511563777923584,0.0,0.0,-145.82921801669713,0.0,0.0,0.0,0.0,25,31,34,27,31,29,0,1.660188547085369e-17,-11.74147891998291,-6.698095798492432,-0.08702243119478226,0.7720954418182373,0.00342203164473176,0.0,0.2475000023841858,-1.5175000429153442,-0.8125,-0.13750000298023224,0.13750000298023224,-0.17000000178813934,0.0,0.0,0.0,0.0,0.0,0.0,0.0,0.0,128.479,-0.318,1027.735,-0.6480725620724741,-34.147711632001936,-179.75381988327513
9.012133121490479,0.0,0.0,-143.2776077718615,0.0,0.0,0.0,0.0,25,31,34,27,31,29,0,-0.004083507228642702,-7.725500106811523,-4.13523530960083,-0.07923295348882675,1.0808355808258057,0.0028312313370406628,0.0,0.20999999344348907,-1.0299999713897705,0.6899999976158142,-0.20000000298023224,-0.054999999701976776,-0.17000000178813934,0.0,0.0,0.0,42.722785447105565,0.0,0.0,0.0,0.0,149.637,-0.285,1023.857,-0.6599327884316822,-36.699321876837544,-179.73474038869728
9.512741088867188,0.0,0.0,-117.27454849342375,0.0,0.0,0.0,0.0,25,31,34,27,31,29,0,-0.00036605223431251943,-23.61235237121582,-17.57081413269043,-0.13711309432983398,-1.5940756797790527,0.005353058222681284,0.0,0.12999999523162842,-3.052500009536743,-1.6375000476837158,-0.2199999988079071,-0.12999999523162842,-0.17000000178813934,0.0,0.0,0.0,43.051922017924724,0.0,0.0,0.0,0.0,347.16,0.277,933.157,-0.9374162486135399,-62.7014644228031,-179.39159596519343
10.013348817825317,0.0,0.0,-101.5260586491194,0.0,0.0,0.0,0.0,25,31,34,27,31,29,0,0.014537186361849308,-25.795000076293945,-19.70778465270996,-0.18938371539115906,-1.0920000076293945,0.008179299533367157,0.0,0.18250000476837158,-3.8499999046325684,-2.7950000762939453,-0.20000000298023224,-0.19499999284744263,-0.17000000178813934,0.0,0.0,0.0,6.655081048940195,0.0,0.0,0.0,0.0,439.863,0.789,838.69,-1.761616036909229,-78.44777702748596,-178.5314144273635
10.513952016830444,0.0,0.0,-101.52565757866282,0.0,0.0,0.0,0.0,25,31,34,27,31,29,0,0.008673532865941525,-24.170249938964844,-15.560221672058105,-0.17424984276294708,-3.693223237991333,0.007289354223757982,0.0,0.14499999582767487,-3.6075000762939453,-3.484999895095825,-0.17000000178813934,-0.4300000071525574,-0.14499999582767487,0.0,0.0,0.0,-5.152776245240837,0.0,0.0,0.0,0.0,439.865,0.789,838.687,-1.761616036909229,-78.44817809794253,-178.53135713158397
11.014650583267212,0.0,0.0,-117.23833756077148,0.0,0.0,0.0,0.0,25,31,34,27,31,29,0,-0.00035828043473884463,-23.745182037353516,-16.522005081176758,-0.13758555054664612,-1.6236107349395752,0.0053717875853180885,0.0,0.25,-3.490000009536743,-4.422500133514404,-0.15000000596046448,-0.5400000214576721,-0.12999999523162842,0.0,0.0,0.0,-42.96810535152491,0.0,0.0,0.0,0.0,347.401,0.278,932.97,-0.9381610937472099,-62.737675355455366,-179.3907365285007
11.515446186065674,0.0,0.0,-143.0192038062575,0.0,0.0,0.0,0.0,25,31,34,27,31,29,0,-0.0007391026010736823,-13.145678520202637,-6.5661301612854,-0.09318999946117401,0.4787605106830597,0.0036259961780160666,0.0,0.07750000059604645,-1.9075000286102295,-2.684999942779541,-0.11999999731779099,-0.33000001311302185,-0.10000000149011612,0.0,0.0,0.0,-42.96810535152491,0.0,0.0,0.0,0.0,151.77,-0.282,1023.412,-0.661250591360483,-36.95772584244154,-179.7327923321938
12.016119480133057,0.0,0.0,-160.20152053287677,0.0,0.0,0.0,0.0,25,31,34,27,31,29,0,-0.00182812730781734,-2.873065948486328,1.087007761001587,-0.04717712476849556,2.0814754962921143,0.0017127770697697997,0.0,-0.029999999329447746,-1.087499976158142,-1.3424999713897705,-0.10000000149011612,-0.042500000447034836,-0.08250000327825546,0.0,0.0,0.0,-42.173959256727535,0.0,0.0,0.0,0.0,7.694,-0.417,1031.795,-0.6022359384620083,-19.775695594719878,-179.8435450739926
12.516743183135986,0.0,0.0,-162.40362652268254,0.0,0.0,0.0,0.0,25,31,34,27,31,29,0,2.573928151350028e-17,-3.9997642040252686,1.0436184406280518,-0.04683908820152283,2.074812650680542,0.0018418796826153994,0.0,-0.02250000089406967,-0.8100000023841858,-0.10249999910593033,-0.07000000029802322,0.4399999976158142,-0.057500001043081284,0.0,0.0,0.0,0.0,0.0,0.0,0.0,0.0,-10.756,-0.42,1029.737,-0.5976522761009617,-17.573589604914073,-179.85551989191083
13.017358779907227,0.0,0.0,-163.34041251772146,0.0,0.0,0.0,0.0,25,31,34,27,31,29,0,1.4584198396573517e-17,-3.5586764812469482,1.484706163406372,-0.04441819712519646,2.144258975982666,0.0017466815188527107,0.0,2.1535724592514072e-14,-0.42500001192092896,0.05249999836087227,-0.05000000074505806,0.5099999904632568,-0.042500000447034836,0.0,0.0,0.0,0.0,0.0,0.0,0.0,0.0,-18.579,-0.42,1028.648,-0.5958761069360561,-16.636803609875173,-179.8605046247285
13.518035411834717,0.0,0.0,-155.67859169811402,0.0,0.0,0.0,0.0,25,31,34,27,31,29,0,0.007853052578866482,0.6365000009536743,0.9644662141799927,-0.10462392866611481,2.687999963760376,0.004903353285044432,0.0,0.017500000074505806,0.0949999988079071,1.2200000286102295,-0.03999999910593033,0.47999998927116394,-0.019999999552965164,0.0,0.0,0.0,24.329635842489417,0.0,0.0,0.0,0.0,45.764,-0.402,1033.79,-0.6134086154670594,-24.298509837923568,-179.81781926899123
14.0188729763031,0.0,0.0,-155.0993886630163,0.0,0.0,0.0,0.0,25,31,34,27,31,29,0,-7.931340239764676e-18,-7.43932580947876,-2.3959434032440186,-0.06523576378822327,1.5157874822616577,0.0025653024204075336,0.0,0.03999999910593033,-1.1399999856948853,-0.3050000071525574,-0.10000000149011612,0.10249999910593033,-9.948639134726989e-16,0.0,0.0,0.0,0.0,0.0,0.0,0.0,0.0,50.647,-0.399,1033.828,-0.6150128972934257,-24.877712873021316,-179.81438152222046
14.51962423324585,0.0,0.0,-142.05835358382313,0.0,0.0,0.0,0.0,25,31,34,27,31,29,0,-0.0007329231011681259,-13.427692413330078,-8.426202774047852,-0.09451344609260559,0.4278852045536041,0.00367796141654253,0.0,0.06750000268220901,-2.112499952316284,-0.042500000447034836,-0.19750000536441803,-0.05000000074505806,0.019999999552965164,0.0,0.0,0.0,43.01125165651189,0.0,0.0,0.0,0.0,159.682,-0.268,1021.672,-0.6661780283986082,-37.91851876909642,-179.7251719935186
15.020128726959229,0.0,0.0,-131.08185732782485,0.0,0.0,0.0,0.0,25,31,34,27,31,29,0,2.4754021722804694e-17,-28.29075050354004,-14.697449684143066,-0.11678749322891235,-0.4444720447063446,0.004592499695718288,0.0,0.06499999761581421,-4.222499847412109,-2.565000057220459,-0.17000000178813934,-0.07999999821186066,0.032499998807907104,0.0,0.0,0.0,0.0,0.0,0.0,0.0,0.0,247.373,-0.072,992.552,-0.7423241193714946,-48.894728546197115,-179.6202061254506
15.520731449127197,0.0,0.0,-135.34827295770754,0.0,0.0,0.0,0.0,25,31,34,27,31,29,0,-0.0006394122610799968,-25.644250869750977,-20.399431228637695,-0.10883600264787674,-0.1551828235387802,0.004241178743541241,0.0,0.24250000715255737,-3.827500104904175,-5.099999904632568,-0.15000000596046448,-0.15000000596046448,0.05999999865889549,0.0,0.0,0.0,-43.00931529788219,0.0,0.0,0.0,0.0,213.966,-0.157,1005.863,-0.7076601727660798,-44.62842750787349,-179.6657562701635
16.02135467529297,0.0,0.0,-152.55201830586464,0.0,0.0,0.0,0.0,25,31,34,27,31,29,0,-0.0008475143113173544,-8.690674781799316,-0.04360611364245415,-0.07144607603549957,1.251908302307129,0.0027708737179636955,0.0,0.15000000596046448,-1.1974999904632568,-1.5475000143051147,-0.12999999523162842,-0.16750000417232513,0.07000000029802322,0.0,0.0,0.0,-43.00931529788219,0.0,0.0,0.0,0.0,72.118,-0.382,1033.41,-0.6226905317481787,-27.425083230172955,-179.7988543659724
16.52205777168274,0.0,0.0,-178.52963825819862,0.0,0.0,0.0,0.0,25,31,34,27,31,29,0,-0.0010139186633750796,3.594329833984375,7.147543907165527,-0.004056842066347599,3.1181082725524902,0.00012088924995623529,0.0,0.18250000476837158,0.08749999850988388,-0.29249998927116394,-0.12999999523162842,0.19499999284744263,0.07000000029802322,0.0,0.0,0.0,-43.00931529788219,0.0,0.0,0.0,0.0,-141.319,-0.333,993.465,-0.5788019646411576,-1.447749756736564,-179.9359631663472
17.022908687591553,0.0,0.0,-192.4301673258675,0.0,0.0,0.0,0.0,25,31,34,27,31,29,0,-2.4772942652136232e-18,9.364554405212402,13.565774917602539,0.033350177109241486,3.930349349975586,-0.0013114475877955556,0.0,0.20000000298023224,1.7374999523162842,2.367500066757202,-0.10999999940395355,0.550000011920929,0.05000000074505806,0.0,0.0,0.0,0.0,0.0,0.0,0.0,0.0,-242.008,-0.117,934.062,-0.5805781338060632,12.452550127814286,179.9973269462057
17.523664236068726,0.0,0.0,-191.94555962274586,0.0,0.0,0.0,0.0,25,31,34,27,31,29,0,0.0013326962944120169,7.236000061035156,9.681859016418457,0.07322025299072266,5.680873394012451,-0.003683432238176465,0.0,0.19750000536441803,1.0800000429153442,2.555000066757202,-0.07999999821186066,0.7400000095367432,0.019999999552965164,0.0,0.0,0.0,20.09373181171322,0.0,0.0,0.0,0.0,-238.756,-0.127,936.534,-0.5802343591289847,11.967999720472148,179.99973336894527
18.024128437042236,0.0,0.0,-175.26446637530708,0.0,0.0,0.0,0.0,25,31,34,27,31,29,0,-0.0010048041585832834,2.2552754878997803,5.957331657409668,-0.011943794786930084,2.9341163635253906,0.0004310459771659225,0.0,0.19249999523162842,0.9275000095367432,2.4674999713897705,-0.0625,0.6549999713897705,-1.0087417012805133e-15,0.0,0.0,0.0,43.00171329733596,0.0,0.0,0.0,0.0,-115.791,-0.366,1003.756,-0.5807500211446024,-4.7129216396280995,-179.92032141854014
18.52474331855774,0.0,0.0,-149.46343201543243,0.0,0.0,0.0,0.0,25,31,34,27,31,29,0,-0.0008187012863345444,-9.989164352416992,-3.5544683933258057,-0.07793723791837692,1.0320587158203125,0.0030261429492384195,0.0,0.19750000536441803,-1.3224999904632568,0.8075000047683716,-0.08250000327825546,0.33000001311302185,-0.029999999329447746,0.0,0.0,0.0,43.00171329733596,0.0,0.0,0.0,0.0,98.093,-0.357,1031.624,-0.633347546737612,-30.51361222482566,-179.77897273048137
19.02534317970276,0.0,0.0,-132.2627233435895,0.0,0.0,0.0,0.0,25,31,34,27,31,29,0,-0.0006001891451887786,-17.752201080322266,-10.731293678283691,-0.11396735161542892,-0.38182052969932556,0.004442975390702486,0.0,0.19499999284744263,-2.2325000762939453,-0.4449999928474426,-0.14000000059604645,0.11749999970197678,-0.05000000074505806,0.0,0.0,0.0,43.00171329733596,0.0,0.0,0.0,0.0,238.227,-0.096,996.485,-0.7319535832796267,-47.713919826212,-179.63355604207715
19.52600121498108,0.0,0.0,-106.46174627949438,0.0,0.0,0.0,0.0,25,31,34,27,31,29,0,-0.00017923627456184477,-27.07451057434082,-18.509767532348633,-0.14807036519050598,-2.407707452774048,0.005784027278423309,0.0,0.1850000023841858,-3.5374999046325684,-1.8025000095367432,-0.20999999344348907,-0.20499999821186066,-0.07999999821186066,0.0,0.0,0.0,43.00171329733596,0.0,0.0,0.0,0.0,413.653,0.617,870.994,-1.33149662010452,-73.51323531270124,-178.97259192961423
20.026753425598145,0.0,0.0,-89.29318053995827,0.0,0.0,0.0,0.0,25,31,34,27,31,29,0,0.006474858615547419,-36.19953918457031,-21.904632568359375,-0.1710977852344513,-4.231245040893555,0.00701555609703064,0.0,0.13500000536441803,-4.244999885559082,-2.444999933242798,-0.2199999988079071,-0.42250001430511475,-0.10249999910593033,0.0,0.0,0.0,39.79495314239332,0.0,0.0,0.0,0.0,492.06,1.246,749.969,-157.19841954547806,-89.25599557905429,-23.068655930675256
20.527345657348633,0.0,0.0,-87.57596873217169,0.0,0.0,0.0,0.0,25,31,34,27,31,29,0,2.1734501467075823e-18,-30.81668472290039,-19.48200035095215,-0.15479892492294312,-3.5728845596313477,0.00608724495396018,0.0,0.14000000059604645,-4.050000190734863,-3.4000000953674316,-0.19249999523162842,-0.7099999785423279,-0.14249999821186066,0.0,0.0,0.0,0.0,0.0,0.0,0.0,0.0,497.831,1.313,736.692,-173.3717575948719,-87.58078157765078,-6.890619627361332
21.027935028076172,0.0,0.0,-101.28570285406202,0.0,0.0,0.0,0.0,25,31,34,27,31,29,0,-8.12689249869436e-05,-28.546581268310547,-25.261104583740234,-0.1516488790512085,-2.7924349308013916,0.005924820899963379,0.0,0.042500000447034836,-4.085000038146973,-5.947500228881836,-0.17000000178813934,-0.75,-0.1599999964237213,0.0,0.0,0.0,-42.96056482268122,0.0,0.0,0.0,0.0,441.067,0.797,837.06,-1.7922119831692152,-78.68807552676382,-178.5002455233084
21.528127908706665,0.0,0.0,-127.06204273296653,0.0,0.0,0.0,0.0,25,31,34,27,31,29,0,-0.0005162273300811648,-20.043094635009766,-12.741055488586426,-0.12353409826755524,-0.8372582197189331,0.004819247871637344,0.0,0.13750000298023224,-2.7850000858306885,-3.762500047683716,-0.14000000059604645,-0.3824999928474426,-0.16500000655651093,0.0,0.0,0.0,-42.96056482268122,0.0,0.0,0.0,0.0,277.861,0.019,977.768,-0.7831760101643223,-52.91442854949643,-179.569327473243
22.028847217559814,0.0,0.0,-141.97137859052228,0.0,0.0,0.0,0.0,25,31,34,27,31,29,0,-0.005092004779726267,-5.914550304412842,-3.052401065826416,-0.07677830010652542,1.2677339315414429,0.002654696349054575,0.0,0.125,-1.4874999523162842,-1.2625000476837158,-0.12250000238418579,-0.10499999672174454,-0.16500000655651093,0.0,0.0,0.0,-1.12752901556788,0.0,0.0,0.0,0.0,160.396,-0.267,1021.508,-0.6666363946347128,-38.00549376239728,-179.72448444416443
22.529622316360474,0.0,0.0,-141.88537762547315,0.0,0.0,0.0,0.0,25,31,34,27,31,29,0,-0.007183119188994169,-11.624500274658203,-2.2443060874938965,-0.06927623599767685,1.593834400177002,0.00221065990626812,0.0,0.09000000357627869,-1.7350000143051147,-1.2274999618530273,-0.09000000357627869,0.27000001072883606,-0.17000000178813934,0.0,0.0,0.0,6.648701652255403,0.0,0.0,0.0,0.0,161.103,-0.266,1021.345,-0.6670947608708175,-38.09155202322593,-179.72379689481028
23.030353546142578,0.0,0.0,-125.82502685327907,0.0,0.0,0.0,0.0,25,31,34,27,31,29,0,-0.0005042327102273703,-11.255999565124512,-11.22305965423584,-0.12496725469827652,-0.9102267026901245,0.0048754652962088585,0.0,0.14000000059604645,-1.6799999475479126,-0.5299999713897705,-0.07999999821186066,0.1574999988079071,-0.17000000178813934,0.0,0.0,0.0,43.03815918674715,0.0,0.0,0.0,0.0,287.027,0.049,972.793,-0.7977864339401582,-54.151444429183876,-179.55168037315295
23.53094220161438,0.0,0.0,-100.00210550563044,0.0,0.0,0.0,0.0,25,31,34,27,31,29,0,-6.47843480692245e-05,-28.77712631225586,-19.101808547973633,-0.1521168053150177,-2.855677366256714,0.005943081807345152,0.0,0.19249999523162842,-3.7074999809265137,-1.9049999713897705,-0.1274999976158142,-0.32499998807907104,-0.17000000178813934,0.0,0.0,0.0,43.03815918674715,0.0,0.0,0.0,0.0,447.382,0.843,828.273,-1.98060050620823,-79.97115721317978,-178.3089922112937
24.03153705596924,0.0,0.0,-97.10821027398367,0.0,0.0,0.0,0.0,25,31,34,27,31,29,0,-4.355636147864337e-18,-29.124347686767578,-17.8632755279541,-0.15374675393104553,-3.007100820541382,0.006045869551599026,0.0,0.26499998569488525,-4.275000095367432,-3.117500066757202,-0.15000000596046448,-0.6100000143051147,-0.16750000417232513,0.0,0.0,0.0,0.0,0.0,0.0,0.0,0.0,460.888,0.949,807.957,-2.655029126856722,-82.86333357144115,-177.62808916756023
24.53222632408142,0.0,0.0,-107.76236047444134,0.0,0.0,0.0,0.0,25,31,34,27,31,29,0,-0.0001967623975360766,-26.799293518066406,-17.52634048461914,-0.14730803668498993,-2.3388912677764893,0.00575390737503767,0.0,0.16249999403953552,-3.8399999141693115,-4.599999904632568,-0.19499999284744263,-0.6899999976158142,-0.1599999964237213,0.0,0.0,0.0,-43.081042529451075,0.0,0.0,0.0,0.0,406.292,0.574,879.12,-1.258215318107288,-72.21279300509282,-179.04885261214616
25.033069849014282,0.0,0.0,-124.56131114033855,0.0,0.0,0.0,0.0,25,31,34,27,31,29,0,-0.01425009686499834,-18.307750701904297,-17.452491760253906,-0.08657856285572052,-2.5480000972747803,0.002589969662949443,0.0,0.14749999344348907,-2.7325000762939453,-4.255000114440918,-0.19750000536441803,-0.45500001311302185,-0.14749999344348907,0.0,0.0,0.0,-24.203191965479554,0.0,0.0,0.0,0.0,296.276,0.08,967.507,-0.8138292522038213,-55.415045550565395,-179.5325435827956
25.533812761306763,0.0,0.0,-125.13719102022452,0.0,0.0,0.0,0.0,25,31,34,27,31,29,0,4.336742101902707e-18,-20.55415916442871,-15.51077651977539,-0.12670429050922394,-0.9310936331748962,0.004982463549822569,0.0,0.15000000596046448,-2.990000009536743,-2.1075000762939453,-0.16750000417232513,0.1550000011920929,-0.11999999731779099,0.0,0.0,0.0,0.0,0.0,0.0,0.0,0.0,292.076,0.066,969.941,-0.8063808008671206,-54.83922296645892,-179.54142442862013
26.034404039382935,0.0,0.0,-115.73976644760681,0.0,0.0,0.0,0.0,25,31,34,27,31,29,0,-1.661545785034446e-17,-23.955995559692383,-13.121700286865234,-0.13956400752067566,-1.6778895854949951,0.005488153547048569,0.0,0.18000000715255737,-4.402500152587891,-2.2899999618530273,-0.15000000596046448,-0.027499999850988388,-0.10000000149011612,0.0,0.0,0.0,0.0,0.0,0.0,0.0,0.0,357.295,0.322,925.114,-0.9727677445731117,-64.23618917284053,-179.35263483512452
26.535003423690796,0.0,0.0,-117.94341942345949,0.0,0.0,0.0,0.0,25,31,34,27,31,29,0,0.007008444517850876,-31.20969009399414,-22.573169708251953,-0.1570265144109726,-2.4456846714019775,0.0065359207801520824,0.0,0.1574999988079071,-3.5450000762939453,-5.434999942779541,-0.10999999940395355,-0.5099999904632568,-0.07999999821186066,0.0,0.0,0.0,-41.56564553377327,0.0,0.0,0.0,0.0,342.676,0.258,936.576,-0.9232068952942954,-62.03265078854689,-179.40729500877998
27.03569769859314,0.0,0.0,-131.1405855018258,0.0,0.0,0.0,0.0,25,31,34,27,31,29,0,1.9492554561794256e-18,-6.565999984741211,-7.577925205230713,-0.11668307334184647,-0.4396322965621948,0.004588393960148096,0.0,0.11249999701976776,-0.9800000190734863,-1.3224999904632568,-0.09000000357627869,-0.09000000357627869,-0.05999999865889549,0.0,0.0,0.0,0.0,0.0,0.0,0.0,0.0,246.92,-0.073,992.752,-0.7418084573558769,-48.8360003721962,-179.62083637902523
27.536146640777588,0.0,0.0,-130.36010239329858,0.0,0.0,0.0,0.0,25,31,34,27,31,29,0,-0.01343599520623684,-16.951000213623047,-12.464058876037598,-0.07661429792642593,1.2788523435592651,0.0021978584118187428,0.0,0.14000000059604645,-2.5299999713897705,-1.1699999570846558,-0.10000000149011612,0.10999999940395355,-0.029999999329447746,0.0,0.0,0.0,26.302105682329888,0.0,0.0,0.0,0.0,252.922,-0.056,990.056,-0.7490277255745251,-49.61648348072342,-179.61166905430318
28.036899089813232,0.0,0.0,-113.4014110941189,0.0,0.0,0.0,0.0,25,31,34,27,31,29,0,0.0029403050430119038,-28.189647674560547,-19.263931274414062,-0.15034586191177368,-2.2710909843444824,0.006044406443834305,0.0,0.1599999964237213,-3.375,-1.9474999904632568,-0.10999999940395355,-0.07000000029802322,-0.017500000074505806,0.0,0.0,0.0,41.7978275693241,0.0,0.0,0.0,0.0,372.314,0.393,912.346,-1.0358503978170155,-66.5743726389899,-179.28410908282686
28.537500858306885,0.0,0.0,-111.34666984922073,0.0,0.0,0.0,0.0,25,31,34,27,31,29,0,-3.0273137446651924e-18,-25.377233505249023,-20.333850860595703,-0.14430807530879974,-2.0127346515655518,0.0056747072376310825,0.0,0.11749999970197678,-3.140000104904175,-3.0950000286102295,-0.12250000238418579,-0.41749998927116394,-1.003537530852583e-15,0.0,0.0,0.0,0.0,0.0,0.0,0.0,0.0,385.072,0.457,900.628,-1.1030583471858608,-68.62894199654951,-179.21220287953795
29.038098335266113,0.0,0.0,-121.79530008856499,0.0,0.0,0.0,0.0,25,31,34,27,31,29,0,-0.00043333167559467256,-22.089916229248047,-12.381501197814941,-0.13154807686805725,-1.2632310390472412,0.005134363193064928,0.0,0.11999999731779099,-3.1549999713897705,-3.700000047683716,-0.12999999523162842,-0.512499988079071,0.019999999552965164,0.0,0.0,0.0,-42.97323823868618,0.0,0.0,0.0,0.0,316.102,0.152,955.232,-0.8537071147449267,-58.18094201077994,-179.48596211405146
29.538692951202393,0.0,0.0,-135.6817916902532,0.0,0.0,0.0,0.0,25,31,34,27,31,29,0,-5.965175764298594e-18,-16.246232986450195,-11.202851295471191,-0.10824595391750336,-0.06437569111585617,0.0042566158808767796,0.0,0.11999999731779099,-2.450000047683716,-2.387500047683716,-0.14000000059604645,0.26750001311302185,0.03999999910593033,0.0,0.0,0.0,0.0,0.0,0.0,0.0,0.0,211.314,-0.163,1006.798,-0.7052537500265303,-44.29490877532784,-179.66907942537526
30.039353132247925,0.0,0.0,-136.164966998887,0.0,0.0,0.0,0.0,25,31,34,27,31,29,0,0.012096303515136242,-15.560750007629395,-8.274609565734863,-0.1481800675392151,1.0080000162124634,0.006615795195102692,0.0,0.11999999731779099,-2.322499990463257,-2.492500066757202,-0.15000000596046448,0.18000000715255737,0.05999999865889549,0.0,0.0,0.0,-20.039769902175532,0.0,0.0,0.0,0.0,207.463,-0.172,1008.126,-0.7018732990352585,-43.81179076247353,-179.67372038351584
30.54022192955017,0.0,0.0,-161.41768074882145,0.0,0.0,0.0,0.0,25,31,34,27,31,29,0,-0.0009237855556420982,-4.454381465911865,0.795585572719574,-0.04943077638745308,1.939373254776001,0.0019052490824833512,0.0,0.11999999731779099,-0.9750000238418579,-1.399999976158142,-0.1550000011920929,-0.0625,0.07000000029802322,0.0,0.0,0.0,-42.956272048787866,0.0,0.0,0.0,0.0,-2.505,-0.419,1030.746,-0.5996576283839196,-18.55953537877519,-179.85019138441612
31.040971994400024,0.0,0.0,-178.60016936277918,0.0,0.0,0.0,0.0,25,31,34,27,31,29,0,-0.001011598389595747,3.6259593963623047,7.184535503387451,-0.0038665516767650843,3.1225852966308594,0.00011350161366863176,0.0,0.11999999731779099,0.26499998569488525,-0.2849999964237213,-0.15000000596046448,0.20749999582767487,0.07000000029802322,0.0,0.0,0.0,-42.956272048787866,0.0,0.0,0.0,0.0,-141.864,-0.333,993.227,-0.5788019646411576,-1.3772186521559597,-179.93630694102427
31.541565895080566,0.0,0.0,-185.77892946531182,0.0,0.0,0.0,0.0,25,31,34,27,31,29,0,-3.890342917400196e-18,6.621779441833496,11.665162086486816,0.015600700862705708,3.5964972972869873,-0.0006134751019999385,0.0,0.11999999731779099,0.6725000143051147,1.534999966621399,-0.11749999970197678,0.6650000214576721,0.03999999910593033,0.0,0.0,0.0,0.0,0.0,0.0,0.0,0.0,-195.635,-0.236,965.534,-0.577713344830409,5.801426858817638,-179.97051252139357
32.042160749435425,0.0,0.0,-178.9312243768058,0.0,0.0,0.0,0.0,25,31,34,27,31,29,0,-0.00101588130928576,15.99625015258789,13.877667427062988,-0.0020408262498676777,3.163773775100708,4.1606708691688254e-05,0.0,0.11999999731779099,2.387500047683716,3.8499999046325684,-0.10000000149011612,0.7300000190734863,0.012500000186264515,0.0,0.0,0.0,43.01245035471122,0.0,0.0,0.0,0.0,-144.418,-0.329,992.099,-0.5786300773026184,-1.0461636381293702,-179.93785392707113
32.54280972480774,0.0,0.0,-153.12377288962568,0.0,0.0,0.0,0.0,25,31,34,27,31,29,0,-0.0008567278273403645,-8.255358695983887,-3.08313250541687,-0.06924255937337875,1.324630856513977,0.0026842181105166674,0.0,0.11999999731779099,-1.309999942779541,0.8899999856948853,-0.0625,0.3100000023841858,-0.012500000186264515,0.0,0.0,0.0,43.01245035471122,0.0,0.0,0.0,0.0,67.301,-0.386,1033.587,-0.6209143625832731,-26.85332864641191,-179.80240670430223
33.04350996017456,0.0,0.0,-135.9188243300988,0.0,0.0,0.0,0.0,25,31,34,27,31,29,0,-0.0006522004841826856,-16.174972534179688,-10.36023235321045,-0.10706791281700134,-0.07949575036764145,0.004171645734459162,0.0,0.11999999731779099,-2.057499885559082,-0.3799999952316284,-0.07999999821186066,0.027499999850988388,-0.03999999910593033,0.0,0.0,0.0,43.01245035471122,0.0,0.0,0.0,0.0,209.426,-0.168,1007.453,-0.7035921724206509,-44.05793343126173,-179.6713712565558
33.54435610771179,0.0,0.0,-128.89906001571495,0.0,0.0,0.0,0.0,25,31,34,27,31,29,0,-1.938956230372528e-18,-19.070159912109375,-9.76965045928955,-0.12058068066835403,-0.623986542224884,0.004741661716252565,0.0,0.11999999731779099,-2.0975000858306885,-1.7050000429153442,-0.1274999976158142,-0.32249999046325684,-0.07000000029802322,0.0,0.0,0.0,0.0,0.0,0.0,0.0,0.0,264.057,-0.024,984.79,-0.7633516704527957,-51.0774685625275,-179.59367817953606
34.04511308670044,0.0,0.0,-121.89361964620942,0.0,0.0,0.0,0.0,25,31,34,27,31,29,0,-0.00043998329783789814,-11.021499633789062,-11.469467163085938,-0.13091784715652466,-1.2277743816375732,0.0051096221432089806,0.0,0.11999999731779099,-1.6449999809265137,-0.574999988079071,-0.15000000596046448,-0.28999999165534973,-0.0925000011920929,0.0,0.0,0.0,42.94973214265758,0.0,0.0,0.0,0.0,315.407,0.149,955.685,-0.8521601286980734,-58.082622453135485,-179.48773828321637
34.54571461677551,0.0,0.0,-96.12381148616942,0.0,0.0,0.0,0.0,25,31,34,27,31,29,0,4.5925039557914715e-06,-29.654125213623047,-18.47439193725586,-0.1536203920841217,-3.1076385974884033,0.006002367474138737,0.0,0.18250000476837158,-3.7149999141693115,-1.7975000143051147,-0.19249999523162842,-0.17000000178813934,-0.12999999523162842,0.0,0.0,0.0,42.94973214265758,0.0,0.0,0.0,0.0,465.246,0.985,800.894,-3.029342454415689,-83.84681562678321,-177.25154130460027
35.04631233215332,0.0,0.0,-80.57024188376856,0.0,0.0,0.0,0.0,25,31,34,27,31,29,0,0.012547104619443417,-29.178499221801758,-23.65593910217285,-0.18644364178180695,-1.8480000495910645,0.007986188866198063,0.0,0.19499999284744263,-4.355000019073486,-3.5225000381469727,-0.20000000298023224,-0.33000001311302185,-0.15000000596046448,0.0,0.0,0.0,5.146169744766142,0.0,0.0,0.0,0.0,517.178,1.591,680.925,-178.52121577861018,-80.58823275853568,-1.725405104256961
35.546998023986816,0.0,0.0,-80.69147975321825,0.0,0.0,0.0,0.0,25,31,34,27,31,29,0,0.012625030241906643,-27.604000091552734,-17.85430908203125,-0.18665339052677155,-5.394566059112549,0.007997588254511356,0.0,0.12999999523162842,-4.119999885559082,-3.9725000858306885,-0.20000000298023224,-0.7475000023841858,-0.16249999403953552,0.0,0.0,0.0,-10.135695931107211,0.0,0.0,0.0,0.0,516.901,1.586,681.909,-178.4981255794664,-80.70941333220584,-1.7487817822982987
36.048033237457275,0.0,0.0,-96.84659774472694,0.0,0.0,0.0,0.0,25,31,34,27,31,29,0,-2.1705354811274447e-06,-29.57456398010254,-18.305660247802734,-0.15350325405597687,-3.083789110183716,0.0059976172633469105,0.0,0.20000000298023224,-4.454999923706055,-4.735000133514404,-0.17000000178813934,-0.800000011920929,-0.16249999403953552,0.0,0.0,0.0,-43.029894657851436,0.0,0.0,0.0,0.0,462.058,0.958,806.087,-2.7440094724405384,-83.12471691757985,-177.53847856840179
36.54882478713989,0.0,0.0,-122.66453435955793,0.0,0.0,0.0,0.0,25,31,34,27,31,29,0,-0.0004485108074732125,-21.762224197387695,-15.025235176086426,-0.13029982149600983,-1.1936928033828735,0.0050851753912866116,0.0,0.1525000035762787,-3.247499942779541,-4.162499904632568,-0.14749999344348907,-0.17499999701976776,-0.16249999403953552,0.0,0.0,0.0,-43.029894657851436,0.0,0.0,0.0,0.0,309.936,0.129,959.193,-0.8404144938978916,-57.31176503556647,-179.5013746787405
37.049418449401855,0.0,0.0,-139.87647300418544,0.0,0.0,0.0,0.0,25,31,34,27,31,29,0,-0.0007012707064859569,-14.571556091308594,-6.559159755706787,-0.09981879591941833,0.21942046284675598,0.00388655299320817,0.0,0.07500000298023224,-2.424999952316284,-2.684999942779541,-0.1274999976158142,0.11999999731779099,-0.16500000655651093,0.0,0.0,0.0,-43.029894657851436,0.0,0.0,0.0,0.0,177.531,-0.235,1017.231,-0.6782101420963554,-40.100342052954595,-179.707238414531
37.55002546310425,0.0,0.0,-159.63704251311384,0.0,0.0,0.0,0.0,25,31,34,27,31,29,0,1.1823058758523548e-17,7.1857500076293945,4.684275150299072,-0.053913015872240067,1.8665549755096436,0.0021200517658144236,0.0,-0.0024999999441206455,1.0724999904632568,0.8174999952316284,-0.09000000357627869,0.33250001072883606,-0.1599999964237213,0.0,0.0,0.0,0.0,0.0,0.0,0.0,0.0,12.435,-0.416,1032.208,-0.6034964456112961,-20.34011631870325,-179.8404511018989
38.05067825317383,0.0,0.0,-159.63704251311384,0.0,0.0,0.0,0.0,25,31,34,27,31,29,0,1.1823058758523548e-17,-5.303580284118652,-0.2601977288722992,-0.053913015872240067,1.8665549755096436,0.0021200517658144236,0.0,-0.027499999850988388,-1.059999942779541,-0.26750001311302185,-0.07500000298023224,0.4099999964237213,-0.14249999821186066,0.0,0.0,0.0,0.0,0.0,0.0,0.0,0.0,12.435,-0.416,1032.208,-0.6034964456112961,-20.34011631870325,-179.8404511018989
38.551307678222656,0.0,0.0,-138.13290513782283,0.0,0.0,0.0,0.0,25,31,34,27,31,29,0,-0.000684055034071207,-15.197443962097168,-12.931796073913574,-0.1026737242937088,0.103635273873806,0.003998747561126947,0.0,0.12250000238418579,-2.182499885559082,-0.8274999856948853,-0.09000000357627869,0.23250000178813934,-0.11999999731779099,0.0,0.0,0.0,43.06954732107794,0.0,0.0,0.0,0.0,191.666,-0.207,1013.195,-0.6887525655267627,-41.84385262353769,-179.6919977371805
39.05214071273804,0.0,0.0,-125.41501825508347,0.0,0.0,0.0,0.0,25,31,34,27,31,29,0,1.7851240870080306e-17,-20.4467716217041,-16.54537582397461,-0.12627041339874268,-0.9085341095924377,0.004965402185916901,0.0,0.2150000035762787,-4.0625,-2.887500047683716,-0.16500000655651093,-0.019999999552965164,-0.10000000149011612,0.0,0.0,0.0,0.0,0.0,0.0,0.0,0.0,290.04,0.059,971.1,-0.8028284625373096,-54.5614530273795,-179.54560702052459
39.552897214889526,0.0,0.0,-124.15766237366887,0.0,0.0,0.0,0.0,25,31,34,27,31,29,0,-0.014170343056321144,-16.31450080871582,-13.089336395263672,-0.08731076121330261,-2.1559998989105225,0.0026224819011986256,0.0,0.2224999964237213,-2.434999942779541,-1.1100000143051147,-0.17000000178813934,-0.38499999046325684,-0.07999999821186066,0.0,0.0,0.0,33.68061560872209,0.0,0.0,0.0,0.0,299.206,0.09,965.775,-0.8192150554780511,-55.81875161301458,-179.52618375126963
40.053513526916504,0.0,0.0,-116.43012329495994,0.0,0.0,0.0,0.0,25,31,34,27,31,29,0,-3.353274067131972e-17,-23.722332000732422,-13.436849594116211,-0.13874317705631256,-1.624323844909668,0.0054558757692575455,0.0,0.32499998807907104,-4.34499979019165,-2.3450000286102295,-0.17000000178813934,-0.3199999928474426,-0.054999999701976776,0.0,0.0,0.0,0.0,0.0,0.0,0.0,0.0,352.763,0.302,928.765,-0.9563238558528571,-63.545889621266916,-179.37068300567114
40.554115533828735,0.0,0.0,-122.06212653375741,0.0,0.0,0.0,0.0,25,31,34,27,31,29,0,-0.01446154247969389,-28.441499710083008,-19.62485694885254,-0.0903492346405983,0.5868167877197266,0.002744991797953844,0.0,0.12999999523162842,-4.244999885559082,-4.514999866485596,-0.18250000476837158,-0.27000001072883606,-0.029999999329447746,0.0,0.0,0.0,-18.15440375727294,0.0,0.0,0.0,0.0,314.216,0.145,956.458,-0.8495818186199846,-57.9141155655875,-179.49077495953057
41.054810523986816,0.0,0.0,-122.39518690006695,0.0,0.0,0.0,0.0,25,31,34,27,31,29,0,-2.1174617652024406e-17,-21.59405517578125,-16.55067253112793,-0.13082505762577057,-1.15248441696167,0.0051445066928863525,0.0,0.1599999964237213,-2.930000066757202,-2.6024999618530273,-0.19249999523162842,-0.2199999988079071,-0.014999999664723873,0.0,0.0,0.0,0.0,0.0,0.0,0.0,0.0,311.853,0.136,957.976,-0.8444824942433203,-57.581112495057475,-179.4966764248204
41.55565643310547,0.0,0.0,-108.85338670792946,0.0,0.0,0.0,0.0,25,31,34,27,31,29,0,-0.0002208344085374847,-26.371721267700195,-13.420414924621582,-0.14609093964099884,-2.2339019775390625,0.005706244148313999,0.0,0.1574999988079071,-2.9124999046325684,-0.9150000214576721,-0.20000000298023224,-0.16249999403953552,-1.0139458717084437e-15,0.0,0.0,0.0,42.97097403097632,0.0,0.0,0.0,0.0,399.976,0.538,885.807,-1.2046437642625558,-71.12193865894324,-179.10488788450996
42.0561261177063,0.0,0.0,-94.96775454293395,0.0,0.0,0.0,0.0,25,31,34,27,31,29,0,-6.136524573827729e-18,-29.564218521118164,-21.68804931640625,-0.15435557067394257,-3.1419718265533447,0.006069810129702091,0.0,0.1574999988079071,-4.247499942779541,-3.7850000858306885,-0.20499999821186066,-0.2574999928474426,0.019999999552965164,0.0,0.0,0.0,0.0,0.0,0.0,0.0,0.0,470.208,1.029,792.505,-3.657361493658584,-85.0012682881923,-176.6210012510588
42.556726694107056,0.0,0.0,-95.29880955696053,0.0,0.0,0.0,0.0,25,31,34,27,31,29,0,0.015838947147130966,-24.002750396728516,-18.8658504486084,-0.1950557380914688,-4.905811786651611,0.008462199941277504,0.0,0.22750000655651093,-3.5824999809265137,-4.262499809265137,-0.2199999988079071,-0.5099999904632568,0.03999999910593033,0.0,0.0,0.0,-16.059144191628565,0.0,0.0,0.0,0.0,468.804,1.016,794.918,-3.4496642929236603,-84.67072893618133,-176.8293860011479
43.05732083320618,0.0,0.0,-108.6429393097779,0.0,0.0,0.0,0.0,25,31,34,27,31,29,0,-4.4088201389387404e-18,-14.95775032043457,-13.694700241088867,-0.14680784940719604,-2.21305775642395,0.005773006938397884,0.0,0.2199999988079071,-2.2325000762939453,-2.390000104904175,-0.2199999988079071,-0.5325000286102295,0.05999999865889549,0.0,0.0,0.0,0.0,0.0,0.0,0.0,0.0,401.204,0.545,884.527,-1.2144986383388061,-71.33232876131528,-179.0945746441976
43.55797028541565,0.0,0.0,-109.1277761960176,0.0,0.0,0.0,0.0,25,31,34,27,31,29,0,0.015456083230674267,-22.679500579833984,-30.710285186767578,-0.18727076053619385,-0.2800000011920929,0.008154889568686485,0.0,0.08749999850988388,-3.384999990463257,-4.852499961853027,-0.20000000298023224,-0.05000000074505806,0.07000000029802322,0.0,0.0,0.0,-20.102336142520144,0.0,0.0,0.0,0.0,398.367,0.529,887.47,-1.192153284328704,-70.8476064666346,-179.11800861801845
44.05861163139343,0.0,0.0,-125.8119634155501,0.0,0.0,0.0,0.0,25,31,34,27,31,29,0,-0.0004979773657396436,-20.541486740112305,-10.37197208404541,-0.1255330741405487,-0.9392188787460327,0.004897767677903175,0.0,0.1599999964237213,-2.7950000762939453,-3.3499999046325684,-0.17000000178813934,-0.33250001072883606,0.07000000029802322,0.0,0.0,0.0,-43.00895671295076,0.0,0.0,0.0,0.0,287.123,0.049,972.739,-0.7979010254991844,-54.164450571133344,-179.55150848581442
44.559438943862915,0.0,0.0,-151.7894114805455,0.0,0.0,0.0,0.0,25,31,34,27,31,29,0,-0.0008397668716497719,-9.052448272705078,-2.65079665184021,-0.0732668936252594,1.1910934448242188,0.002842475427314639,0.0,0.14000000059604645,-1.6425000429153442,-2.002500057220459,-0.15000000596046448,-0.12999999523162842,0.07000000029802322,0.0,0.0,0.0,-43.00895671295076,0.0,0.0,0.0,0.0,78.54,-0.377,1033.099,-0.6252115460467543,-28.187690055492084,-179.79409881627282
45.06012439727783,0.0,0.0,-168.9929849413641,0.0,0.0,0.0,0.0,25,31,34,27,31,29,0,-0.0009756960207596421,-0.8416830897331238,4.8411784172058105,-0.02965477481484413,2.489492416381836,0.0011274917051196098,0.0,0.14000000059604645,-0.5950000286102295,-0.6949999928474426,-0.12999999523162842,0.23499999940395355,0.07000000029802322,0.0,0.0,0.0,-43.00895671295076,0.0,0.0,0.0,0.0,-65.304,-0.406,1019.373,-0.5870525568910415,-10.984345777791551,-179.8895535849416
45.560725688934326,0.0,0.0,-174.29152674339542,0.0,0.0,0.0,0.0,25,31,34,27,31,29,0,4.851573524891424e-19,1.537143349647522,6.580525875091553,-0.015411093831062317,2.9088034629821777,0.0006060190498828888,0.0,0.14000000059604645,0.10750000178813934,0.8374999761581421,-0.1274999976158142,0.5924999713897705,0.03999999910593033,0.0,0.0,0.0,0.0,0.0,0.0,0.0,0.0,-108.076,-0.374,1006.54,-0.5814948662782725,-5.685803975760238,-179.91562316462006
46.06133556365967,0.0,0.0,-172.50126281672962,0.0,0.0,0.0,0.0,25,31,34,27,31,29,0,-1.2462349637633371e-18,0.7156224250793457,1.1889749765396118,-0.020219987258315086,2.7903640270233154,0.000795121886767447,0.0,0.14000000059604645,-0.6399999856948853,0.20749999582767487,-0.12999999523162842,0.5625,0.019999999552965164,0.0,0.0,0.0,0.0,0.0,0.0,0.0,0.0,-93.759,-0.387,1011.318,-0.5830991481046388,-7.476067902426007,-179.90691420613408
46.561997413635254,0.0,0.0,-172.88760825798636,0.0,0.0,0.0,0.0,25,31,34,27,31,29,0,-3.3698854254752004e-18,0.8934170007705688,4.340475082397461,-0.019183697178959846,2.8161587715148926,0.0007543712272308767,0.0,0.14000000059604645,0.07750000059604645,0.7574999928474426,-0.14000000059604645,0.3075000047683716,-0.009999999776482582,0.0,0.0,0.0,0.0,0.0,0.0,0.0,0.0,-96.861,-0.384,1010.325,-0.5826980776480473,-7.089722461169294,-179.90880496685799
47.062845945358276,0.0,0.0,-172.88760825798636,0.0,0.0,0.0,0.0,25,31,34,27,31,29,0,-3.3698854254752004e-18,0.8934170007705688,5.9367995262146,-0.019183697178959846,2.8161587715148926,0.0007543712272308767,0.0,0.14000000059604645,0.17749999463558197,0.8650000095367432,-0.15000000596046448,0.14499999582767487,-0.029999999329447746,0.0,0.0,0.0,0.0,0.0,0.0,0.0,0.0,-96.861,-0.384,1010.325,-0.5826980776480473,-7.089722461169294,-179.90880496685799
47.56360697746277,0.0,0.0,-154.75532750704022,0.0,0.0,0.0,0.0,25,31,34,27,31,29,0,-0.0008665085188113153,-7.478455066680908,-2.734920024871826,-0.06527744233608246,1.4535995721817017,0.0025285552255809307,0.0,0.14000000059604645,-0.5149999856948853,0.9474999904632568,-0.1574999988079071,0.26249998807907104,-0.07000000029802322,0.0,0.0,0.0,42.86765034430695,0.0,0.0,0.0,0.0,53.548,-0.397,1033.827,-0.6159869255451481,-25.221774028997377,-179.81231887415797
48.06411170959473,0.0,0.0,-150.8550892040257,0.0,0.0,0.0,0.0,25,31,34,27,31,29,0,2.6688226420943564e-17,-9.423662185668945,-0.5013750195503235,-0.07545769959688187,1.179052472114563,0.0029672652017325163,0.0,0.14000000059604645,-0.5950000286102295,-0.08749999850988388,-0.16750000417232513,0.2199999988079071,-0.09000000357627869,0.0,0.0,0.0,0.0,0.0,0.0,0.0,0.0,86.401,-0.369,1032.602,-0.6283628139199738,-29.121955036232404,-179.78808275942396
48.564714431762695,0.0,0.0,-141.59872684056919,0.0,0.0,0.0,0.0,25,31,34,27,31,29,0,-0.0007271992508322,-13.500499725341797,-10.403213500976562,-0.0954928919672966,0.39001432061195374,0.0037164746318012476,0.0,0.14000000059604645,-2.015000104904175,-0.38749998807907104,-0.17000000178813934,0.15000000596046448,-0.12999999523162842,0.0,0.0,0.0,43.01249475094083,0.0,0.0,0.0,0.0,163.456,-0.262,1020.793,-0.6685844511381577,-38.378145512350365,-179.72150506362973
49.065353870391846,0.0,0.0,-124.39372098526276,0.0,0.0,0.0,0.0,25,31,34,27,31,29,0,-0.00048118713311851025,-20.9635066986084,-14.342588424682617,-0.12720337510108948,-1.026397943496704,0.004963443614542484,0.0,0.14000000059604645,-2.4149999618530273,-1.0750000476837158,-0.18000000715255737,0.08250000327825546,-0.15000000596046448,0.0,0.0,0.0,43.01249475094083,0.0,0.0,0.0,0.0,297.494,0.084,966.79,-0.8160637876048316,-55.58269300142067,-179.529907976938
49.566014766693115,0.0,0.0,-98.58621220230314,0.0,0.0,0.0,0.0,25,31,34,27,31,29,0,-3.942026887671091e-05,-29.110244750976562,-22.13538932800293,-0.1527470052242279,-2.9492294788360596,0.005967909935861826,0.0,0.14000000059604645,-3.762500047683716,-2.434999942779541,-0.19249999523162842,-0.15000000596046448,-0.17000000178813934,0.0,0.0,0.0,43.01249475094083,0.0,0.0,0.0,0.0,454.118,0.895,818.418,-2.2537867829266065,-81.38636296715292,-178.03259737092262
50.06684947013855,0.0,0.0,-81.38120634699673,0.0,0.0,0.0,0.0,25,31,34,27,31,29,0,0.00026516697835177183,-31.937589645385742,-17.694639205932617,-0.15287302434444427,-3.929352283477783,0.005972865037620068,0.0,0.14000000059604645,-4.347499847412109,-1.659999966621399,-0.20000000298023224,-0.36000001430511475,-0.17000000178813934,0.0,0.0,0.0,43.01249475094083,0.0,0.0,0.0,0.0,515.289,1.558,687.496,-178.35419858132954,-81.39879615130725,-1.8942557664820148
50.56759691238403,0.0,0.0,-78.49069156634124,0.0,0.0,0.0,0.0,25,31,34,27,31,29,0,-5.479897850235172e-19,-31.767696380615234,-20.78557586669922,-0.15182213485240936,-4.020505428314209,0.0059701865538954735,0.0,0.16750000417232513,-3.947499990463257,-3.627500057220459,-0.18000000715255737,-0.7475000023841858,-0.16750000417232513,0.0,0.0,0.0,0.0,0.0,0.0,0.0,0.0,521.594,1.675,663.959,-178.8414418903088,-78.50954187780106,-1.4004807386382712
51.06813359260559,0.0,0.0,-81.3433338367386,0.0,0.0,0.0,0.0,25,31,34,27,31,29,0,4.689188871660526e-18,-31.540515899658203,-32.96182632446289,-0.15317252278327942,-3.8903422355651855,0.006023288704454899,0.0,0.10249999910593033,-3.690000057220459,-5.752500057220459,-0.1599999964237213,-0.7799999713897705,-0.17000000178813934,0.0,0.0,0.0,0.0,0.0,0.0,0.0,0.0,515.379,1.56,687.19,-178.36267835669747,-81.3609236410491,-1.8856613995550524
51.56874680519104,0.0,0.0,-87.83993038838845,0.0,0.0,0.0,0.0,25,31,34,27,31,29,0,0.00015800652909092605,-31.199186325073242,-22.537132263183594,-0.15442591905593872,-3.6167702674865723,0.006033988203853369,0.0,0.08500000089406967,-4.800000190734863,-5.472499847412109,-0.12999999523162842,-0.6600000262260437,-0.17000000178813934,0.0,0.0,0.0,-42.98026991843671,0.0,0.0,0.0,0.0,496.97,1.302,738.744,-172.52578541036127,-87.84262329002557,-7.737222065446637
52.06943655014038,0.0,0.0,-105.03204469330443,0.0,0.0,0.0,0.0,25,31,34,27,31,29,0,-0.00014779873890802264,-27.57036781311035,-22.60875701904297,-0.14937229454517365,-2.5338668823242188,0.005835262127220631,0.0,0.13500000536441803,-3.859999895095825,-5.485000133514404,-0.10999999940395355,-0.5799999833106995,-0.17000000178813934,0.0,0.0,0.0,-42.98026991843671,0.0,0.0,0.0,0.0,421.53,0.666,861.871,-1.4268367972142892,-74.94265041999363,-178.87404318885174
52.57027816772461,0.0,0.0,-114.10752428083812,0.0,0.0,0.0,0.0,25,31,34,27,31,29,0,5.738250343773247e-18,-24.49749755859375,-19.45411491394043,-0.1414240300655365,-1.8035600185394287,0.005561296362429857,0.0,0.1599999964237213,-3.4625000953674316,-3.322499990463257,-0.07999999821186066,-0.1550000011920929,-0.14249999821186066,0.0,0.0,0.0,0.0,0.0,0.0,0.0,0.0,367.834,0.371,916.265,-1.015510396089871,-65.86831674805019,-179.30611066215988
53.07106566429138,0.0,0.0,-119.9196081546452,0.0,0.0,0.0,0.0,25,31,34,27,31,29,0,-0.00040320484549738467,-22.785213470458984,-21.790456771850586,-0.13413621485233307,-1.4126951694488525,0.005236096680164337,0.0,0.11500000208616257,-4.465000152587891,-5.34250020980835,-0.057500001043081284,-0.10499999672174454,-0.12999999523162842,0.0,0.0,0.0,-42.996006674284416,0.0,0.0,0.0,0.0,329.199,0.202,946.371,-0.8852197934771219,-60.05663394469971,-179.44998036451724
53.57166147232056,0.0,0.0,-145.8891494020678,0.0,0.0,0.0,0.0,25,31,34,27,31,29,0,-0.0007745505427010357,-11.82254695892334,-8.081432342529297,-0.08688933402299881,0.7140060067176819,0.0033781814854592085,0.0,0.09000000357627869,-1.8674999475479126,-2.950000047683716,-0.07500000298023224,-0.25,-0.10000000149011612,0.0,0.0,0.0,-42.996006674284416,0.0,0.0,0.0,0.0,127.98,-0.319,1027.815,-0.6477860831749087,-34.087780246631254,-179.75427824951123
54.0721275806427,0.0,0.0,-163.08756624273022,0.0,0.0,0.0,0.0,25,31,34,27,31,29,0,-0.0009378539398312569,-3.654841423034668,2.2612173557281494,-0.04513397440314293,2.0638976097106934,0.0017362121725454926,0.0,0.11249999701976776,-0.7724999785423279,-1.1449999809265137,-0.10000000149011612,0.0024999999441206455,-0.07999999821186066,0.0,0.0,0.0,-42.996006674284416,0.0,0.0,0.0,0.0,-16.469,-0.42,1028.954,-0.5963344731721608,-16.889649884866408,-179.85918682179968
54.57276105880737,0.0,0.0,-180.59457815185007,0.0,0.0,0.0,0.0,25,31,34,27,31,29,0,1.1271414250446875e-20,4.373046398162842,5.8732500076293945,0.0016077980399131775,3.3024473190307617,-6.32243391009979e-05,0.0,0.14249999821186066,1.2050000429153442,1.024999976158142,-0.14249999821186066,0.5475000143051147,-0.05249999836087227,0.0,0.0,0.0,0.0,0.0,0.0,0.0,0.0,-157.145,-0.309,986.212,-0.5780571195074876,0.6171328411354097,-179.94581804042346
55.07337141036987,0.0,0.0,-180.59457815185007,0.0,0.0,0.0,0.0,25,31,34,27,31,29,0,1.1271414250446875e-20,4.373046398162842,9.41642951965332,0.0016077980399131775,3.3024473190307617,-6.32243391009979e-05,0.0,0.1599999964237213,0.5224999785423279,1.4700000286102295,-0.17000000178813934,0.6625000238418579,-0.03999999910593033,0.0,0.0,0.0,0.0,0.0,0.0,0.0,0.0,-157.145,-0.309,986.212,-0.5780571195074876,0.6171328411354097,-179.94581804042346
55.57400298118591,0.0,0.0,-157.73562477419273,0.0,0.0,0.0,0.0,25,31,34,27,31,29,0,-0.0008998760022222996,-6.052999019622803,-3.157064437866211,-0.05788758397102356,1.6851263046264648,0.002237668028101325,0.0,0.1899999976158142,-1.2424999475479126,0.8774999976158142,-0.1899999976158142,0.4074999988079071,-0.017500000074505806,0.0,0.0,0.0,43.03027714844496,0.0,0.0,0.0,0.0,28.431,-0.41,1033.255,-0.6080228121928296,-22.2415340576244,-179.82973679112996
56.07472825050354,0.0,0.0,-140.5235142422267,0.0,0.0,0.0,0.0,25,31,34,27,31,29,0,-0.0007141200476326048,-14.12477970123291,-10.692014694213867,-0.09775935113430023,0.30129456520080566,0.003805567743256688,0.0,0.20999999344348907,-1.8524999618530273,-0.4375,-0.17000000178813934,0.11500000208616257,-1.0052722543285597e-15,0.0,0.0,0.0,43.03027714844496,0.0,0.0,0.0,0.0,172.256,-0.246,1018.619,-0.674485916428005,-39.45330081491336,-179.71268151358473
56.57533097267151,0.0,0.0,-123.17246144494142,0.0,0.0,0.0,0.0,25,31,34,27,31,29,0,-2.070132641221749e-17,-21.303024291992188,-11.044574737548828,-0.12968696653842926,-1.0899730920791626,0.005099753383547068,0.0,0.21250000596046448,-3.430000066757202,-1.9275000095367432,-0.13750000298023224,-0.3100000023841858,0.019999999552965164,0.0,0.0,0.0,0.0,0.0,0.0,0.0,0.0,306.305,0.115,961.463,-0.8329660425611909,-56.803837950183,-179.51002634144695
57.0759334564209,0.0,0.0,-123.17246144494142,0.0,0.0,0.0,0.0,25,31,34,27,31,29,0,-2.070132641221749e-17,-21.303024291992188,-12.161925315856934,-0.12968696653842926,-1.0899730920791626,0.005099753383547068,0.0,0.1899999976158142,-2.4149999618530273,-2.122499942779541,-0.11999999731779099,-0.4350000023841858,0.03750000149011612,0.0,0.0,0.0,0.0,0.0,0.0,0.0,0.0,306.305,0.115,961.463,-0.8329660425611909,-56.803837950183,-179.51002634144695
57.57622790336609,0.0,0.0,-126.0651534652184,0.0,0.0,0.0,0.0,25,31,34,27,31,29,0,-5.688072409762923e-17,-20.194067001342773,-15.15068531036377,-0.12524352967739105,-0.855661153793335,0.004925020970404148,0.0,0.1599999964237213,-2.887500047683716,-2.3524999618530273,-0.08500000089406967,0.06499999761581421,0.0625,0.0,0.0,0.0,0.0,0.0,0.0,0.0,0.0,285.256,0.043,973.774,-0.794864349184991,-53.91131781724455,-179.55517541570327
58.077882528305054,0.0,0.0,-108.52639969424828,0.0,0.0,0.0,0.0,25,31,34,27,31,29,0,-0.00021606450900435448,-26.471113204956055,-19.849950790405273,-0.14637479186058044,-2.258068323135376,0.0057172407396137714,0.0,0.32499998807907104,-3.5199999809265137,-2.0350000858306885,-0.08250000327825546,-0.07750000059604645,0.07000000029802322,0.0,0.0,0.0,43.06321573571734,0.0,0.0,0.0,0.0,401.882,0.549,883.816,-1.220056328951575,-71.44886837684489,-179.08878777046678
58.578596353530884,0.0,0.0,-91.30111113299425,0.0,0.0,0.0,0.0,25,31,34,27,31,29,0,9.092957770917565e-05,-30.590600967407227,-24.247726440429688,-0.1545015126466751,-3.4017386436462402,0.00603681243956089,0.0,0.29499998688697815,-3.952500104904175,-2.802500009536743,-0.10999999940395355,-0.3700000047683716,0.07000000029802322,0.0,0.0,0.0,43.06321573571734,0.0,0.0,0.0,0.0,484.81,1.168,765.265,-12.745904518921266,-88.64459231587018,-167.5239784504282
59.079190492630005,0.0,0.0,-82.20277052943483,0.0,0.0,0.0,0.0,25,31,34,27,31,29,0,-5.942100733930815e-18,-31.459165573120117,-19.20982551574707,-0.1535050868988037,-3.8492202758789062,0.006036366336047649,0.0,0.012500000186264515,-4.454999923706055,-3.3524999618530273,-0.15000000596046448,-0.75,0.07000000029802322,0.0,0.0,0.0,0.0,0.0,0.0,0.0,0.0,513.281,1.526,694.125,-178.14936616957027,-82.21984467172972,-2.1009216431857025
59.57977271080017,0.0,0.0,-87.83649264161768,0.0,0.0,0.0,0.0,25,31,34,27,31,29,0,0.00015794170030858368,-31.19936752319336,-25.948396682739258,-0.15442584455013275,-3.616917133331299,0.006034016143530607,0.0,0.13750000298023224,-4.954999923706055,-6.067500114440918,-0.18000000715255737,-0.8100000023841858,0.03999999910593033,0.0,0.0,0.0,-42.96329348325464,0.0,0.0,0.0,0.0,496.981,1.302,738.717,-172.5382758902951,-87.83918554325479,-7.724788881292298
60.08019208908081,0.0,0.0,-113.78632414088779,0.0,0.0,0.0,0.0,25,31,34,27,31,29,0,-0.00029990437906235456,-24.920894622802734,-20.418947219848633,-0.14158031344413757,-1.8900991678237915,0.005528884474188089,0.0,0.125,-3.1700000762939453,-5.102499961853027,-0.20000000298023224,-0.4625000059604645,0.009999999776482582,0.0,0.0,0.0,-42.96329348325464,0.0,0.0,0.0,0.0,369.878,0.381,914.489,-1.024620425032451,-66.18951688800053,-179.29625578808364
60.58085370063782,0.0,0.0,-130.97162024804172,0.0,0.0,0.0,0.0,25,31,34,27,31,29,0,-0.0005752429133281112,-18.440929412841797,-9.976022720336914,-0.11690432578325272,-0.5165764689445496,0.0045585366897284985,0.0,0.14000000059604645,-2.4725000858306885,-3.2799999713897705,-0.15000000596046448,-0.1574999988079071,-0.004999999888241291,0.0,0.0,0.0,-42.96329348325464,0.0,0.0,0.0,0.0,248.222,-0.069,992.175,-0.7433554434027301,-49.00496562598028,-179.6188883225218
61.08164644241333,0.0,0.0,-156.74962170455206,0.0,0.0,0.0,0.0,25,31,34,27,31,29,0,-0.0008854610496200621,-6.689589977264404,-0.8080223798751831,-0.061205293983221054,1.5823564529418945,0.0023682524915784597,0.0,0.17000000178813934,-1.3899999856948853,-1.6799999475479126,-0.07999999821186066,0.2574999928474426,-0.03999999910593033,0.0,0.0,0.0,-42.96329348325464,0.0,0.0,0.0,0.0,36.737,-0.407,1033.589,-0.6105438264914053,-23.227537127265034,-179.82406450895817
61.58225464820862,0.0,0.0,-171.4905652661189,0.0,0.0,0.0,0.0,25,31,34,27,31,29,0,-0.0015088445506989956,6.146633148193359,10.488198280334473,-0.007985120639204979,3.372359275817871,2.2379163056029938e-05,0.0,0.1899999976158142,0.4975000023841858,1.1150000095367432,-0.05000000074505806,0.42500001192092896,-0.0625,0.0,0.0,0.0,-0.5791117294055471,0.0,0.0,0.0,0.0,-85.612,-0.393,1013.817,-0.5841304721358742,-8.486822748816293,-179.90192947331644
62.082852602005005,0.0,0.0,-171.08840618971655,0.0,0.0,0.0,0.0,25,31,34,27,31,29,0,-0.0043406556360423565,0.6029999852180481,1.9814107418060303,0.01703578792512417,4.467608451843262,-0.0014710502000525594,0.0,0.2175000011920929,0.09000000357627869,1.1649999618530273,-0.20250000059604645,0.5674999952316284,-0.10000000149011612,0.0,0.0,0.0,18.04773498545756,0.0,0.0,0.0,0.0,-82.359,-0.396,1014.771,-0.5845315425924659,-8.888924529439105,-179.899981416813
62.58342909812927,0.0,0.0,-154.51709165582483,0.0,0.0,0.0,0.0,25,31,34,27,31,29,0,-0.0008680070168338716,-7.591752529144287,0.40465065836906433,-0.06585783511400223,1.434702754020691,0.002551213139668107,0.0,0.23999999463558197,-0.0949999988079071,1.497499942779541,-0.20999999344348907,0.4074999988079071,-0.11999999731779099,0.0,0.0,0.0,42.959837407534614,0.0,0.0,0.0,0.0,55.556,-0.395,1033.817,-0.616674474899305,-25.460009880212773,-179.81088647967013
63.08414554595947,0.0,0.0,-128.74121014315642,0.0,0.0,0.0,0.0,25,31,34,27,31,29,0,-0.0005470235482789576,-19.222362518310547,-10.081249237060547,-0.12017396837472916,-0.671694815158844,0.004687116947025061,0.0,0.14000000059604645,-2.559999942779541,-0.33250001072883606,-0.17499999701976776,-0.07750000059604645,-0.15000000596046448,0.0,0.0,0.0,42.959837407534614,0.0,0.0,0.0,0.0,265.252,-0.02,984.204,-0.7650132480586751,-51.23537573086555,-179.59167282725312
63.584941148757935,0.0,0.0,-111.55728913471083,0.0,0.0,0.0,0.0,25,31,34,27,31,29,0,-0.0002675493014976382,-25.532814025878906,-17.344024658203125,-0.14354543387889862,-2.03288197517395,0.005606166087090969,0.0,0.08749999850988388,-3.2325000762939453,-1.600000023841858,-0.1599999964237213,-0.35249999165534973,-0.17000000178813934,0.0,0.0,0.0,42.959837407534614,0.0,0.0,0.0,0.0,383.784,0.451,901.85,-1.095552600069647,-68.41832271105943,-179.22016699289026
64.08569145202637,0.0,0.0,-105.06504706230396,0.0,0.0,0.0,0.0,25,31,34,27,31,29,0,1.5903923498076092e-18,-27.19994354248047,-16.344825744628906,-0.14961257576942444,-2.4705028533935547,0.005883298814296722,0.0,0.10000000149011612,-3.8299999237060547,-2.8524999618530273,-0.12999999523162842,-0.6100000143051147,-0.16249999403953552,0.0,0.0,0.0,0.0,0.0,0.0,0.0,0.0,421.351,0.665,862.083,-1.4244303744747397,-74.9096480509941,-178.87650690737078
64.58582830429077,0.0,0.0,-97.20716008520277,0.0,0.0,0.0,0.0,25,31,34,27,31,29,0,-1.4702293810842093e-05,-29.419557571411133,-20.820297241210938,-0.15327215194702148,-3.0385167598724365,0.005988720338791609,0.0,0.0925000011920929,-3.4600000381469727,-2.2074999809265137,-0.10499999672174454,-0.4424999952316284,-0.16750000417232513,0.0,0.0,0.0,42.923493970960976,0.0,0.0,0.0,0.0,460.443,0.945,808.663,-2.623058081888422,-82.76449835178109,-177.66028939564663
65.08643531799316,0.0,0.0,-94.15667548814675,0.0,0.0,0.0,0.0,25,31,34,27,31,29,0,-1.9193723157800287e-18,-29.721988677978516,-20.527725219726562,-0.15453001856803894,-3.1919422149658203,0.006076670251786709,0.0,0.1599999964237213,-3.690000057220459,-3.5824999809265137,-0.07999999821186066,-0.2549999952316284,-0.16249999403953552,0.0,0.0,0.0,0.0,0.0,0.0,0.0,0.0,473.588,1.059,786.561,-4.304689210597388,-85.81068576537362,-175.97178277339606
65.58701419830322,0.0,0.0,-83.55489363016406,0.0,0.0,0.0,0.0,25,31,34,27,31,29,0,0.00022639801318291575,-31.708162307739258,-20.962200164794922,-0.15362760424613953,-3.822939872741699,0.0060027167201042175,0.0,0.12250000238418579,-3.617500066757202,-2.2325000762939453,-0.054999999701976776,-0.23000000417232513,-0.16500000655651093,0.0,0.0,0.0,42.913095007949636,0.0,0.0,0.0,0.0,509.77,1.472,704.97,-177.69810461012526,-83.57076456108918,-2.555219878944932
66.08769106864929,0.0,0.0,-73.29642808302374,0.0,0.0,0.0,0.0,25,31,34,27,31,29,0,-6.77111437872126e-18,-32.01097869873047,-19.037925720214844,-0.14839991927146912,-4.231714725494385,0.005835612770169973,0.0,0.1550000011920929,-4.527500152587891,-3.322499990463257,-0.07999999821186066,-0.6625000238418579,-0.16500000655651093,0.0,0.0,0.0,0.0,0.0,0.0,0.0,0.0,529.912,1.885,620.98,-179.29109916792748,-73.3164243100738,-0.9391351219989323
66.5881621837616,0.0,0.0,-77.56651064279522,0.0,0.0,0.0,0.0,25,31,34,27,31,29,0,0.00033653786522336304,-32.26530075073242,-33.07453918457031,-0.1508185863494873,-4.116913795471191,0.0058920434676110744,0.0,0.17000000178813934,-4.482500076293945,-7.3125,-0.12999999523162842,-0.8700000047683716,-0.15000000596046448,0.0,0.0,0.0,-43.031619280616866,0.0,0.0,0.0,0.0,523.358,1.712,656.37,-178.9492152515729,-77.58559013737309,-1.2907020250912054
67.08888244628906,0.0,0.0,-97.67222992751046,0.0,0.0,0.0,0.0,25,31,34,27,31,29,0,-2.985841183498468e-18,-18.609249114990234,-23.73652458190918,-0.15355058014392853,-2.970855951309204,0.006038155406713486,0.0,0.09000000357627869,-2.7774999141693115,-4.142499923706055,-0.20999999344348907,-0.4050000011920929,-0.1274999976158142,0.0,0.0,0.0,0.0,0.0,0.0,0.0,0.0,458.337,0.928,811.969,-2.4837147461126055,-82.29977228415048,-177.80066405545364
67.58946776390076,0.0,0.0,-97.67222992751046,0.0,0.0,0.0,0.0,25,31,34,27,31,29,0,-2.985841183498468e-18,-29.00282096862793,-23.95943832397461,-0.15355058014392853,-2.970855951309204,0.006038155406713486,0.0,0.16500000655651093,-3.8450000286102295,-4.992499828338623,-0.2199999988079071,-0.13500000536441803,-0.10000000149011612,0.0,0.0,0.0,0.0,0.0,0.0,0.0,0.0,458.337,0.928,811.969,-2.4837147461126055,-82.29977228415048,-177.80066405545364
68.09006118774414,0.0,0.0,-116.90888682857127,0.0,0.0,0.0,0.0,25,31,34,27,31,29,0,-0.00035353912971913815,-23.860994338989258,-16.803190231323242,-0.13798806071281433,-1.6494296789169312,0.005387530662119389,0.0,0.18000000715255737,-3.369999885559082,-4.472499847412109,-0.20999999344348907,-0.44749999046325684,-0.07999999821186066,0.0,0.0,0.0,-43.01521999641966,0.0,0.0,0.0,0.0,349.594,0.288,931.265,-0.9454376577453714,-63.067126087655595,-179.38271511936887
68.59073209762573,0.0,0.0,-134.11498130368844,0.0,0.0,0.0,0.0,25,31,34,27,31,29,0,-0.000622208695858717,-17.107547760009766,-12.7062406539917,-0.11117597669363022,-0.25722482800483704,0.004333184566348791,0.0,0.09000000357627869,-2.2674999237060547,-3.757499933242798,-0.19249999523162842,-0.38999998569488525,-0.05999999865889549,0.0,0.0,0.0,-43.01521999641966,0.0,0.0,0.0,0.0,223.723,-0.134,1002.271,-0.7168847932676861,-45.86171916189259,-179.65332308600918
69.09157347679138,0.0,0.0,-159.9240943684744,0.0,0.0,0.0,0.0,25,31,34,27,31,29,0,-0.0009145892108790576,-5.169727325439453,1.9768848419189453,-0.05323738977313042,1.8263212442398071,0.002054832875728607,0.0,0.13249999284744263,-1.25,-1.1950000524520874,-0.1599999964237213,0.0925000011920929,-0.032499998807907104,0.0,0.0,0.0,-43.01521999641966,0.0,0.0,0.0,0.0,10.024,-0.417,1032.003,-0.6028088962571392,-20.05306446334271,-179.84205538372527
69.59214186668396,0.0,0.0,-177.1197610117202,0.0,0.0,0.0,0.0,25,31,34,27,31,29,0,-0.0015560502652078867,6.432121276855469,8.034577369689941,0.0011244920315220952,3.4234490394592285,-0.00025684727006591856,0.0,0.15000000596046448,-5.263541338895728e-13,-0.12250000238418579,-0.14000000059604645,0.42500001192092896,-0.02250000089406967,0.0,0.0,0.0,-41.61400327309696,0.0,0.0,0.0,0.0,-130.369,-0.348,998.087,-0.5795468097748278,-2.857627003214981,-179.92920226436465
70.09274172782898,0.0,0.0,-179.1607512695352,0.0,0.0,0.0,0.0,25,31,34,27,31,29,0,5.132397206950114e-19,3.7367324829101562,8.780115127563477,-0.0022693139035254717,3.2162466049194336,8.923750283429399e-05,0.0,0.18250000476837158,0.33000001311302185,1.2200000286102295,-0.10750000178813934,0.6449999809265137,-1.0174153186603974e-15,0.0,0.0,0.0,0.0,0.0,0.0,0.0,0.0,-146.184,-0.326,991.309,-0.5785154857435922,-0.8166367453999623,-179.9389425468819
70.59334897994995,0.0,0.0,-170.26901924689994,0.0,0.0,0.0,0.0,25,31,34,27,31,29,0,-0.0009808357572183013,-0.07713218033313751,0.19272908568382263,-0.025347447022795677,2.601879835128784,0.0009582414058968425,0.0,0.19750000536441803,-0.04500000178813934,1.4600000381469727,-0.09000000357627869,0.6025000214576721,0.019999999552965164,0.0,0.0,0.0,42.93701433042302,0.0,0.0,0.0,0.0,-75.71,-0.4,1016.645,-0.5854482750646751,-9.708311472255696,-179.89591341646755
71.09399557113647,0.0,0.0,-144.50683142553518,0.0,0.0,0.0,0.0,25,31,34,27,31,29,0,-0.0007601987454108894,-12.30345630645752,-4.520195960998535,-0.08919657766819,0.629170298576355,0.0034690166357904673,0.0,0.23000000417232513,-1.337499976158142,0.637499988079071,-0.07750000059604645,0.2800000011920929,0.03999999910593033,0.0,0.0,0.0,42.93701433042302,0.0,0.0,0.0,0.0,139.466,-0.302,1025.843,-0.6540313231418347,-35.47009822316387,-179.74407960075789
71.59470272064209,0.0,0.0,-132.8670792258935,0.0,0.0,0.0,0.0,25,31,34,27,31,29,0,-2.701848158922781e-18,-17.439468383789062,-13.07872486114502,-0.11355897039175034,-0.2971637547016144,0.004465542733669281,0.0,0.18250000476837158,-3.859999895095825,-2.2825000286102295,-0.0949999988079071,0.03750000149011612,0.05999999865889549,0.0,0.0,0.0,0.0,0.0,0.0,0.0,0.0,233.515,-0.109,998.424,-0.7268542589029623,-47.10956394390801,-179.64014505672117
72.09572386741638,0.0,0.0,-135.1432113628302,0.0,0.0,0.0,0.0,25,31,34,27,31,29,0,-0.006377461366355419,-21.356250762939453,-18.53827476501465,-0.08908127248287201,0.7469273209571838,0.003094325540587306,0.0,0.07249999791383743,-3.1875,-4.429999828338623,-0.13750000298023224,-0.29499998688697815,0.07000000029802322,0.0,0.0,0.0,-24.3032405764419,0.0,0.0,0.0,0.0,215.594,-0.153,1005.28,-0.70914986303342,-44.83348910275081,-179.66375091788058
72.59612894058228,0.0,0.0,-135.797128094413,0.0,0.0,0.0,0.0,25,31,34,27,31,29,0,7.47353630256659e-18,-16.19674301147461,-6.833024978637695,-0.10802258551120758,-0.05482994019985199,0.004247832577675581,0.0,0.0925000011920929,-1.412500023841858,-1.1924999952316284,-0.1599999964237213,0.06499999761581421,0.07000000029802322,0.0,0.0,0.0,0.0,0.0,0.0,0.0,0.0,210.396,-0.165,1007.118,-0.7044516091133471,-44.179572371168,-179.67016804518602
73.09673738479614,0.0,0.0,-121.23024911100697,0.0,0.0,0.0,0.0,25,31,34,27,31,29,0,-0.00042939442209899426,-12.930999755859375,-9.249832153320312,-0.13186123967170715,-1.2808914184570312,0.005146710202097893,0.0,0.1599999964237213,-1.9299999475479126,-0.1875,-0.1875,0.02500000037252903,0.07000000029802322,0.0,0.0,0.0,42.95545242608747,0.0,0.0,0.0,0.0,320.078,0.167,952.608,-0.8628171436875066,-58.74599298833795,-179.4755342821801
73.5973310470581,0.0,0.0,-104.04810427172626,0.0,0.0,0.0,0.0,25,31,34,27,31,29,0,-0.00013632098853122443,-27.74382781982422,-18.303232192993164,-0.1498073935508728,-2.5787906646728516,0.005852416157722473,0.0,-0.03500000014901161,-3.492500066757202,-1.7675000429153442,-0.17000000178813934,-0.33500000834465027,0.07000000029802322,0.0,0.0,0.0,42.95545242608747,0.0,0.0,0.0,0.0,426.818,0.7,855.479,-1.5038423248798718,-75.92641895423326,-178.79486042156466
74.09802508354187,0.0,0.0,-78.27480106913595,0.0,0.0,0.0,0.0,25,31,34,27,31,29,0,0.00031756539829075336,-32.1944694519043,-25.064632415771484,-0.1514154076576233,-4.071282863616943,0.005915649235248566,0.0,0.1525000035762787,-4.442500114440918,-2.947499990463257,-0.13249999284744263,-0.6974999904632568,0.03999999910593033,0.0,0.0,0.0,42.95545242608747,0.0,0.0,0.0,0.0,522.017,1.683,662.189,-178.86814172356188,-78.29370867637526,-1.3733225391490702
74.59882664680481,0.0,0.0,-69.72168710342304,0.0,0.0,0.0,0.0,25,31,34,27,31,29,0,-2.2086599166615145e-18,-32.04978942871094,-17.691375732421875,-0.14533457159996033,-4.356974124908447,0.005715072154998779,0.0,0.375,-4.952499866485596,-3.0875000953674316,-0.11249999701976776,-0.7774999737739563,0.014999999664723873,0.0,0.0,0.0,0.0,0.0,0.0,0.0,0.0,533.359,2.03,591.045,-179.4655075207653,-69.7421416967092,-0.7565907684702521
75.09957242012024,0.0,0.0,-75.52964568110515,0.0,0.0,0.0,0.0,25,31,34,27,31,29,0,0.000369780434994027,-32.372257232666016,-27.909563064575195,-0.14952239394187927,-4.200856685638428,0.005841173697263002,0.0,0.24250000715255737,-4.572500228881836,-6.409999847412109,-0.07999999821186066,-0.8174999952316284,-0.012500000186264515,0.0,0.0,0.0,-42.97534193695054,0.0,0.0,0.0,0.0,526.813,1.794,639.55,-179.13771836617093,-75.54924083769863,-1.097557952352605
75.60013604164124,0.0,0.0,-92.71975463373816,0.0,0.0,0.0,0.0,25,31,34,27,31,29,0,7.143898255890235e-05,-30.396265029907227,-27.436838150024414,-0.15440113842487335,-3.338048219680786,0.006033023353666067,0.0,0.10249999910593033,-4.65500020980835,-6.327499866485596,-0.05999999865889549,-0.7275000214576721,-0.032499998807907104,0.0,0.0,0.0,-42.97534193695054,0.0,0.0,0.0,0.0,479.368,1.114,775.915,-6.384812485819841,-87.24222081650798,-173.88845093452088
76.10074138641357,0.0,0.0,-118.5049753584672,0.0,0.0,0.0,0.0,25,31,34,27,31,29,0,-0.00037948781391605735,-23.296594619750977,-14.157563209533691,-0.1359933316707611,-1.524359107017517,0.00530916266143322,0.0,0.16249999403953552,-3.555000066757202,-4.010000228881836,-0.0949999988079071,-0.38999998569488525,-0.07000000029802322,0.0,0.0,0.0,-42.97534193695054,0.0,0.0,0.0,0.0,338.881,0.242,939.407,-0.9118623309507051,-61.47115214931869,-179.42001467183192
76.6013879776001,0.0,0.0,-135.6950843111002,0.0,0.0,0.0,0.0,25,31,34,27,31,29,0,-0.000643229519482702,-16.422805786132812,-11.37851333618164,-0.10816913843154907,-0.12639212608337402,0.00421501649543643,0.0,0.18250000476837158,-2.7725000381469727,-3.5250000953674316,-0.15000000596046448,-0.16249999403953552,-0.0925000011920929,0.0,0.0,0.0,-42.97534193695054,0.0,0.0,0.0,0.0,211.208,-0.164,1006.835,-0.7051391584675042,-44.2816161544808,-179.6691940169343
77.10209155082703,0.0,0.0,-161.65219237436847,0.0,0.0,0.0,0.0,25,31,34,27,31,29,0,-0.0009263873216696084,-4.342003345489502,2.688636541366577,-0.04882961884140968,1.9569334983825684,0.0018815752118825912,0.0,0.1850000023841858,-1.1100000143051147,-1.0700000524520874,-0.2199999988079071,0.17249999940395355,-0.12999999523162842,0.0,0.0,0.0,-42.97534193695054,0.0,0.0,0.0,0.0,-4.47,-0.419,1030.519,-0.5991419663683019,-18.32496645744863,-179.8514518915654
77.60293078422546,0.0,0.0,-178.842358622781,0.0,0.0,0.0,0.0,25,31,34,27,31,29,0,-0.001013098401017487,3.736118793487549,8.619186401367188,-0.003211730858311057,3.1374130249023438,8.771749708103016e-05,0.0,0.1850000023841858,0.1274999976158142,-0.03500000014901161,-0.19249999523162842,0.4025000035762787,-0.15000000596046448,0.0,0.0,0.0,-42.97534193695054,0.0,0.0,0.0,0.0,-143.733,-0.33,992.403,-0.5786873730821315,-1.1350866879336738,-179.93745285661456
78.10369086265564,0.0,0.0,-198.74622487627164,0.0,0.0,0.0,0.0,25,31,34,27,31,29,0,3.799714527947049e-18,11.790140151977539,18.00652503967285,0.04979338124394417,4.198467254638672,-0.001958052860572934,0.0,0.1850000023841858,2.8424999713897705,3.1424999237060547,-0.11999999731779099,0.6725000143051147,-0.16249999403953552,0.0,0.0,0.0,0.0,0.0,0.0,0.0,0.0,-282.39,0.021,899.392,-0.5870525568910415,18.768550382438917,179.96547049279644
78.60411882400513,0.0,0.0,-198.74622487627164,0.0,0.0,0.0,0.0,25,31,34,27,31,29,0,3.799714527947049e-18,11.790140151977539,16.83352279663086,0.04979338124394417,4.198467254638672,-0.001958052860572934,0.0,0.1850000023841858,1.3925000429153442,2.3575000762939453,-0.07750000059604645,0.7699999809265137,-0.1599999964237213,0.0,0.0,0.0,0.0,0.0,0.0,0.0,0.0,-282.39,0.021,899.392,-0.5870525568910415,18.768550382438917,179.96547049279644
79.1047158241272,0.0,0.0,-177.65387226834113,0.0,0.0,0.0,0.0,25,31,34,27,31,29,0,-0.0010096686892211437,3.35145902633667,3.7724626064300537,-0.005495649762451649,3.0853354930877686,0.0001775770797394216,0.0,0.1574999988079071,0.14749999344348907,2.0850000381469727,-0.05249999836087227,0.6150000095367432,-0.1599999964237213,0.0,0.0,0.0,42.948731519944175,0.0,0.0,0.0,0.0,-134.53,-0.343,996.368,-0.5792603308772623,-2.3235730423735403,-179.93178057444274
79.6054015159607,0.0,0.0,-160.47436303491804,0.0,0.0,0.0,0.0,25,31,34,27,31,29,0,-0.0009188402909785509,-4.741659164428711,-1.7999622821807861,-0.050963737070560455,1.894216775894165,0.0019655441865324974,0.0,0.12999999523162842,-0.4749999940395355,1.1124999523162842,-0.08250000327825546,0.4124999940395355,-0.1599999964237213,0.0,0.0,0.0,42.948731519944175,0.0,0.0,0.0,0.0,5.404,-0.418,1031.578,-0.6016056848873644,-19.502853092678578,-179.84509206003946
80.10624599456787,0.0,0.0,-141.09990978412827,0.0,0.0,0.0,0.0,25,31,34,27,31,29,0,1.7750356268212114e-17,-13.875816345214844,-8.35147476196289,-0.09729523956775665,0.38367125391960144,0.0038259951397776604,0.0,0.0925000011920929,-3.127500057220459,-1.4574999809265137,-0.12999999523162842,0.11249999701976776,-0.16249999403953552,0.0,0.0,0.0,0.0,0.0,0.0,0.0,0.0,167.543,-0.254,1019.805,-0.6712773527752726,-38.876962568791264,-179.7174370632843
80.60700535774231,0.0,0.0,-141.09990978412827,0.0,0.0,0.0,0.0,25,31,34,27,31,29,0,1.7750356268212114e-17,-13.875816345214844,-8.832433700561523,-0.09729523956775665,0.38367125391960144,0.0038259951397776604,0.0,0.07000000029802322,-1.5299999713897705,-1.2575000524520874,-0.15000000596046448,-0.08500000089406967,-0.1599999964237213,0.0,0.0,0.0,0.0,0.0,0.0,0.0,0.0,167.543,-0.254,1019.805,-0.6712773527752726,-38.876962568791264,-179.7174370632843
81.10766172409058,0.0,0.0,-119.99334782287852,0.0,0.0,0.0,0.0,25,31,34,27,31,29,0,-0.0004096387419849634,-22.631858825683594,-14.15141773223877,-0.13357266783714294,-1.3795013427734375,0.005213975440710783,0.0,0.042500000447034836,-3.200000047683716,-1.0425000190734863,-0.19750000536441803,-0.17000000178813934,-0.1599999964237213,0.0,0.0,0.0,42.974273012345435,0.0,0.0,0.0,0.0,328.69,0.2,946.727,-0.883901990548321,-59.98283698068686,-179.45147005478458
81.60813570022583,0.0,0.0,-102.80363994070211,0.0,0.0,0.0,0.0,25,31,34,27,31,29,0,-0.0001143968038377352,-28.073835372924805,-17.030742645263672,-0.1505981683731079,-2.6653497219085693,0.005883478559553623,0.0,0.17249999940395355,-3.690000057220459,-1.5449999570846558,-0.20000000298023224,-0.20000000298023224,-0.1599999964237213,0.0,0.0,0.0,42.974273012345435,0.0,0.0,0.0,0.0,433.347,0.743,847.266,-1.618261996567497,-77.17059680635982,-178.67757596090138
82.10874104499817,0.0,0.0,-85.30688397611509,0.0,0.0,0.0,0.0,25,31,34,27,31,29,0,-5.7462537297900036e-18,-31.116004943847656,-20.871524810791016,-0.15441809594631195,-3.6935577392578125,0.006072269286960363,0.0,0.11999999731779099,-4.909999847412109,-3.6424999237060547,-0.17000000178813934,-0.45500001311302185,-0.1599999964237213,0.0,0.0,0.0,0.0,0.0,0.0,0.0,0.0,504.842,1.402,718.894,-176.72510768243407,-85.32029118852115,-3.532112919642986
82.60922479629517,0.0,0.0,-85.31020713132685,0.0,0.0,0.0,0.0,25,31,34,27,31,29,0,0.001425256603397429,-32.27910614013672,-17.80650520324707,-0.15816161036491394,-3.856355905532837,0.006292502395808697,0.0,0.1850000023841858,-4.077499866485596,-3.805000066757202,-0.15000000596046448,-0.6974999904632568,-0.14749999344348907,0.0,0.0,0.0,-0.5801149668007457,0.0,0.0,0.0,0.0,504.833,1.402,718.92,-176.7225866681355,-85.32355704795339,-3.534633933941562
83.10989999771118,0.0,0.0,-108.82846304384127,0.0,0.0,0.0,0.0,25,31,34,27,31,29,0,-0.00021457560069393367,-26.482694625854492,-19.757200241088867,-0.14641262590885162,-2.2609825134277344,0.005718863103538752,0.0,0.17000000178813934,-3.492500066757202,-4.987500190734863,-0.11999999731779099,-0.5849999785423279,-0.11999999731779099,0.0,0.0,0.0,-42.98809048503637,0.0,0.0,0.0,0.0,400.121,0.539,885.656,-1.2057896798528176,-71.14680502725193,-179.10368467314018
83.61066603660583,0.0,0.0,-126.02372861663045,0.0,0.0,0.0,0.0,25,31,34,27,31,29,0,-0.0005007969448342919,-20.457454681396484,-12.036025047302246,-0.1251988410949707,-0.9219450354576111,0.004884661640971899,0.0,0.13750000298023224,-2.7925000190734863,-3.640000104904175,-0.10000000149011612,-0.16750000417232513,-0.10000000149011612,0.0,0.0,0.0,-42.98809048503637,0.0,0.0,0.0,0.0,285.562,0.044,973.605,-0.7953227154210957,-53.95274266583251,-179.55460245790812
84.11125469207764,0.0,0.0,-133.8976584119953,0.0,0.0,0.0,0.0,25,31,34,27,31,29,0,2.7315376563407794e-17,-17.005908966064453,-11.962526321411133,-0.11164484918117523,-0.2119866907596588,0.004390272777527571,0.0,0.14000000059604645,-2.244999885559082,-1.9299999475479126,-0.10999999940395355,0.1850000023841858,-0.07999999821186066,0.0,0.0,0.0,0.0,0.0,0.0,0.0,0.0,225.435,-0.129,1001.617,-0.7186036666530785,-46.07904205358571,-179.65108855060816
84.61185216903687,0.0,0.0,-127.39441554992192,0.0,0.0,0.0,0.0,25,31,34,27,31,29,0,-0.0005278355092741549,-5.812250137329102,-8.325872421264648,-0.1224268451333046,-0.7821223139762878,0.004775616340339184,0.0,0.14000000059604645,-0.8675000071525574,-0.02500000037252903,-0.11999999731779099,0.1525000035762787,-0.054999999701976776,0.0,0.0,0.0,43.01082476968876,0.0,0.0,0.0,0.0,275.38,0.011,979.072,-0.7794517844959719,-52.58205573254104,-179.57385383982452
85.11221861839294,0.0,0.0,-108.84817279199376,0.0,0.0,0.0,0.0,25,31,34,27,31,29,0,-1.4594739986299893e-17,-26.132747650146484,-15.48532485961914,-0.14662951231002808,-2.1980199813842773,0.00576599407941103,0.0,0.16500000655651093,-4.284999847412109,-2.702500104904175,-0.12999999523162842,-0.20250000059604645,-0.029999999329447746,0.0,0.0,0.0,0.0,0.0,0.0,0.0,0.0,400.006,0.538,885.775,-1.2048729473806081,-71.12715257487893,-179.10465870139188
85.61306643486023,0.0,0.0,-108.84817279199376,0.0,0.0,0.0,0.0,25,31,34,27,31,29,0,-1.4594739986299893e-17,-26.132747650146484,-15.929400444030762,-0.14662951231002808,-2.1980199813842773,0.00576599407941103,0.0,0.14249999821186066,-3.4674999713897705,-2.7799999713897705,-0.13500000536441803,-0.5049999952316284,-0.014999999664723873,0.0,0.0,0.0,0.0,0.0,0.0,0.0,0.0,400.006,0.538,885.775,-1.2048729473806081,-71.12715257487893,-179.10465870139188
86.1138231754303,0.0,0.0,-129.98303886832298,0.0,0.0,0.0,0.0,25,31,34,27,31,29,0,-0.0005621903110295534,-18.852794647216797,-16.028520584106445,-0.11863290518522263,-0.5980930328369141,0.0046263993717730045,0.0,0.14000000059604645,-2.7225000858306885,-4.337500095367432,-0.14749999344348907,-0.32249999046325684,-1.0156805951844206e-15,0.0,0.0,0.0,-43.025147676378275,0.0,0.0,0.0,0.0,255.809,-0.048,988.724,-0.7525800639043364,-49.99354700569901,-179.60714268772165
86.61442804336548,0.0,0.0,-147.19308675222655,0.0,0.0,0.0,0.0,25,31,34,27,31,29,0,-0.0007906525861471891,-11.215609550476074,-5.1558451652526855,-0.08395328372716904,0.8202464580535889,0.003262673271819949,0.0,0.14000000059604645,-1.7699999809265137,-2.440000057220459,-0.15000000596046448,0.1274999976158142,0.019999999552965164,0.0,0.0,0.0,-43.025147676378275,0.0,0.0,0.0,0.0,117.105,-0.333,1029.421,-0.6422283925621398,-32.783900192252034,-179.76350287001284
87.11502861976624,0.0,0.0,-173.0081585780819,0.0,0.0,0.0,0.0,25,31,34,27,31,29,0,-0.0009958961745724082,1.0474495887756348,3.840254545211792,-0.018937870860099792,2.763720989227295,0.0007060358766466379,0.0,0.14000000059604645,-0.2574999928474426,-0.8700000047683716,-0.16500000655651093,0.44999998807907104,0.03999999910593033,0.0,0.0,0.0,-43.025147676378275,0.0,0.0,0.0,0.0,-97.828,-0.383,1010.01,-0.5825834860890211,-6.969172141073768,-179.90937792465314
87.61572289466858,0.0,0.0,-183.81700738322488,0.0,0.0,0.0,0.0,25,31,34,27,31,29,0,1.4044155490791162e-19,15.242500305175781,11.245124816894531,0.010314228013157845,3.488556146621704,-0.00040559214539825916,0.0,0.13750000298023224,2.2750000953674316,1.962499976158142,-0.15000000596046448,0.5,0.05999999865889549,0.0,0.0,0.0,0.0,0.0,0.0,0.0,0.0,-181.291,-0.266,973.768,-0.5775414574918698,3.839504776730673,-179.96111601355344
88.11617994308472,0.0,0.0,-181.36772740059962,0.0,0.0,0.0,0.0,25,31,34,27,31,29,0,0.0007880226476117969,9.212499618530273,15.512059211730957,-0.026428405195474625,2.015730142593384,0.0016231914050877094,0.0,0.13750000298023224,1.375,3.6575000286102295,-0.11500000208616257,0.5899999737739563,0.07000000029802322,0.0,0.0,0.0,20.181875402952233,0.0,0.0,0.0,0.0,-163.002,-0.3,983.351,-0.5778279363894352,1.3902820898849424,-179.94948497031228
88.61696934700012,0.0,0.0,-180.9576615066245,0.0,0.0,0.0,0.0,25,31,34,27,31,29,0,-1.5313054427856628e-19,4.533260345458984,3.581249952316284,0.0025895345024764538,3.3239498138427734,-0.00010182971163885668,0.0,0.14000000059604645,-0.4950000047683716,0.625,-0.09749999642372131,0.46000000834465027,0.07000000029802322,0.0,0.0,0.0,0.0,0.0,0.0,0.0,0.0,-159.9,-0.305,984.878,-0.5779425279484615,0.9802161959098125,-179.94753691380885
89.1177167892456,0.0,0.0,-165.85225949157498,0.0,0.0,0.0,0.0,25,31,34,27,31,29,0,-0.0009593941504135728,6.53249979019165,9.537405014038086,-0.03703509643673897,2.291011095046997,0.0014177089324221015,0.0,0.13750000298023224,0.9750000238418579,3.0924999713897705,-0.05999999865889549,0.36000001430511475,0.07000000029802322,0.0,0.0,0.0,43.01080427912125,0.0,0.0,0.0,0.0,-39.454,-0.417,1025.096,-0.591578923472575,-14.125013931801158,-179.87362535823698
89.6183180809021,0.0,0.0,-157.25010033859886,0.0,0.0,0.0,0.0,25,31,34,27,31,29,0,-0.0008948671165853739,-6.285502910614014,2.317605495452881,-0.059102579951286316,1.6476973295211792,0.0022854809649288654,0.0,0.14000000059604645,-0.1899999976158142,1.8324999809265137,-0.05000000074505806,0.3199999928474426,0.07000000029802322,0.0,0.0,0.0,43.01080427912125,0.0,0.0,0.0,0.0,32.52,-0.409,1033.437,-0.6092260235626044,-22.727058493218262,-179.82698659371331
90.11897563934326,0.0,0.0,-122.84146372669433,0.0,0.0,0.0,0.0,25,31,34,27,31,29,0,-0.0004564729460980743,-21.5633602142334,-14.25641918182373,-0.12953779101371765,-1.1517452001571655,0.005055244080722332,0.0,0.14000000059604645,-2.6675000190734863,-1.059999942779541,-0.10000000149011612,0.09000000357627869,0.03999999910593033,0.0,0.0,0.0,43.01080427912125,0.0,0.0,0.0,0.0,308.674,0.124,959.987,-0.8377788880402897,-57.13483566843008,-179.50441135505469
90.6196219921112,0.0,0.0,-105.4650861948643,0.0,0.0,0.0,0.0,25,31,34,27,31,29,0,-0.00016174202028196305,-27.356069564819336,-18.62554359436035,-0.14881913363933563,-2.4789304733276367,0.005813455209136009,0.0,0.06750000268220901,-3.7074999809265137,-1.8224999904632568,-0.12999999523162842,-0.07500000298023224,0.019999999552965164,0.0,0.0,0.0,43.01080427912125,0.0,0.0,0.0,0.0,419.168,0.651,864.655,-1.3960689636157637,-74.50972350999278,-178.90578505070198
91.12012696266174,0.0,0.0,-100.68232100000976,0.0,0.0,0.0,0.0,25,31,34,27,31,29,0,-5.988652390853768e-18,-28.315275192260742,-17.032424926757812,-0.15225251019001007,-2.772636890411377,0.005987110547721386,0.0,0.125,-3.807499885559082,-2.9725000858306885,-0.17000000178813934,-0.5350000262260437,-0.009999999776482582,0.0,0.0,0.0,0.0,0.0,0.0,0.0,0.0,444.06,0.819,832.947,-1.8751189761246452,-79.29122819769803,-178.41602072742415
91.62075281143188,0.0,0.0,-101.99794668918915,0.0,0.0,0.0,0.0,25,31,34,27,31,29,0,8.450086708592606e-18,-27.994482040405273,-22.06049919128418,-0.1515529602766037,-2.683565139770508,0.005959602072834969,0.0,0.2175000011920929,-3.262500047683716,-3.8499999046325684,-0.20000000298023224,-0.6299999952316284,-0.029999999329447746,0.0,0.0,0.0,0.0,0.0,0.0,0.0,0.0,437.478,0.772,841.875,-1.705065102529817,-77.97606087475474,-178.58899668577416
92.12121057510376,0.0,0.0,-96.21365126844593,0.0,0.0,0.0,0.0,25,31,34,27,31,29,0,0.015113919973373413,-18.55900001525879,-17.573381423950195,-0.1927025318145752,-4.777502536773682,0.008315331302583218,0.0,0.10249999910593033,-2.7699999809265137,-1.8799999952316284,-0.23999999463558197,-0.4375,-0.06750000268220901,0.0,0.0,0.0,30.326203839396694,0.0,0.0,0.0,0.0,464.853,0.982,801.542,-2.9902667327877666,-83.75703314028621,-177.29084620934626
92.62181854248047,0.0,0.0,-95.31995169960088,0.0,0.0,0.0,0.0,25,31,34,27,31,29,0,5.091703229534955e-18,-29.494169235229492,-17.261625289916992,-0.15427017211914062,-3.1200735569000244,0.006066451780498028,0.0,0.14000000059604645,-4.085000038146973,-3.012500047683716,-0.2199999988079071,-0.3199999928474426,-0.09000000357627869,0.0,0.0,0.0,0.0,0.0,0.0,0.0,0.0,468.714,1.015,795.072,-3.4372311087693217,-84.649586793541,-176.84187648108173
93.12245750427246,0.0,0.0,-101.52743374782771,0.0,0.0,0.0,0.0,25,31,34,27,31,29,0,-7.3342812736239e-18,-28.11060905456543,-24.739274978637695,-0.151812344789505,-2.715585708618164,0.005969801917672157,0.0,0.1574999988079071,-3.049999952316284,-4.317500114440918,-0.1850000023841858,-0.3700000047683716,-0.125,0.0,0.0,0.0,0.0,0.0,0.0,0.0,0.0,439.856,0.788,838.699,-1.7614441495706898,-78.44640192877763,-178.53158631470205
93.62320923805237,0.0,0.0,-101.52743374782771,0.0,0.0,0.0,0.0,25,31,34,27,31,29,0,-7.3342812736239e-18,-28.11060905456543,-23.06722640991211,-0.151812344789505,-2.715585708618164,0.005969801917672157,0.0,0.16750000417232513,-3.744999885559082,-4.735000133514404,-0.17000000178813934,-0.48249998688697815,-0.15000000596046448,0.0,0.0,0.0,0.0,0.0,0.0,0.0,0.0,439.856,0.788,838.699,-1.7614441495706898,-78.44640192877763,-178.53158631470205
94.12399435043335,0.0,0.0,-122.31663438635452,0.0,0.0,0.0,0.0,25,31,34,27,31,29,0,-0.00044275037362240255,-21.89402961730957,-15.069051742553711,-0.13080289959907532,-1.2215989828109741,0.005104971583932638,0.0,0.2224999964237213,-2.9749999046325684,-4.170000076293945,-0.13249999284744263,-0.47749999165534973,-0.16500000655651093,0.0,0.0,0.0,-43.02243267618319,0.0,0.0,0.0,0.0,312.411,0.138,957.619,-0.845628409833582,-57.65972230454942,-179.4953013261121
94.62478446960449,0.0,0.0,-139.52559365044732,0.0,0.0,0.0,0.0,25,31,34,27,31,29,0,-0.0006964350468479097,-14.728994369506836,-8.780376434326172,-0.10054073482751846,0.19043628871440887,0.003914955537766218,0.0,0.11999999731779099,-2.012500047683716,-3.072499990463257,-0.10999999940395355,-0.23250000178813934,-0.16500000655651093,0.0,0.0,0.0,-43.02243267618319,0.0,0.0,0.0,0.0,180.386,-0.23,1016.453,-0.6802727901588264,-40.45127870247222,-179.70420173821677
95.12538599967957,0.0,0.0,-165.3390611944763,0.0,0.0,0.0,0.0,25,31,34,27,31,29,0,-0.0009544271160848439,-2.578869104385376,4.771073818206787,-0.03928044065833092,2.228998899459839,0.0015059829456731677,0.0,0.08500000089406967,-0.7400000095367432,-0.7074999809265137,-0.07999999821186066,0.16500000655651093,-0.16249999403953552,0.0,0.0,0.0,-43.02243267618319,0.0,0.0,0.0,0.0,-35.202,-0.418,1025.896,-0.5923810643857581,-14.638212228899839,-179.87093245659986
95.62599039077759,0.0,0.0,-182.11274442160823,0.0,0.0,0.0,0.0,25,31,34,27,31,29,0,-0.0016330006765201688,2.026750087738037,10.041792869567871,0.0465024970471859,2.4639999866485596,-0.0026409814599901438,0.0,0.057500001043081284,0.30250000953674316,0.5450000166893005,-0.07999999821186066,0.4399999976158142,-0.17000000178813934,0.0,0.0,0.0,-24.122532554023582,0.0,0.0,0.0,0.0,-168.608,-0.29,980.519,-0.577713344830409,2.135241815114039,-179.9530373086421
96.12666440010071,0.0,0.0,-182.68541573784148,0.0,0.0,0.0,0.0,25,31,34,27,31,29,0,-1.638363755773753e-05,5.527999401092529,10.482213020324707,0.00788736343383789,3.451704502105713,-0.0003223674721084535,0.0,0.019999999552965164,0.6100000143051147,1.597499966621399,-0.09000000357627869,0.6700000166893005,-0.14000000059604645,0.0,0.0,0.0,0.21438141531543808,0.0,0.0,0.0,0.0,-172.892,-0.282,978.292,-0.5776560490508961,2.70797042712681,-179.95573021027923
96.62747240066528,0.0,0.0,-167.9165118358723,0.0,0.0,0.0,0.0,25,31,34,27,31,29,0,-0.0009726680000312626,-1.1885589361190796,8.50326919555664,-0.03159458190202713,2.438033103942871,0.0012037304695695639,0.0,0.0024999999441206455,0.5924999713897705,2.9124999046325684,-0.10000000149011612,0.5649999976158142,-0.12250000238418579,0.0,0.0,0.0,43.03195054479161,0.0,0.0,0.0,0.0,-56.48,-0.411,1021.494,-0.5884849513788686,-12.060761587503828,-179.88411048588787
97.12814474105835,0.0,0.0,-151.42529680173988,0.0,0.0,0.0,0.0,25,31,34,27,31,29,0,1.865514462019609e-17,-9.15822982788086,-2.592824935913086,-0.07410725951194763,1.224709153175354,0.0029141611885279417,0.0,0.03999999910593033,-2.047499895095825,-0.45249998569488525,-0.11999999731779099,0.17499999701976776,-0.10000000149011612,0.0,0.0,0.0,0.0,0.0,0.0,0.0,0.0,81.604,-0.374,1032.921,-0.6264147574165291,-28.55174743851821,-179.79174968931278
97.6287488937378,0.0,0.0,-151.42529680173988,0.0,0.0,0.0,0.0,25,31,34,27,31,29,0,1.865514462019609e-17,-9.15822982788086,-4.114847183227539,-0.07410725951194763,1.224709153175354,0.0029141611885279417,0.0,0.08500000089406967,-1.159999966621399,-0.5600000023841858,-0.15000000596046448,-0.054999999701976776,-0.07999999821186066,0.0,0.0,0.0,0.0,0.0,0.0,0.0,0.0,81.604,-0.374,1032.921,-0.6264147574165291,-28.55174743851821,-179.79174968931278
98.1293454170227,0.0,0.0,-174.2156098355406,0.0,0.0,0.0,0.0,25,31,34,27,31,29,0,-0.0009956855792552233,1.609326958656311,6.965014934539795,-0.015695063397288322,2.84383487701416,0.000578714651055634,0.0,0.15000000596046448,0.5074999928474426,-0.32249999046325684,-0.17000000178813934,0.2574999928474426,-0.05000000074505806,0.0,0.0,0.0,-42.915089423187275,0.0,0.0,0.0,0.0,-107.471,-0.374,1006.752,-0.5815521620577855,-5.761778179394584,-179.91522209416348
98.63003468513489,0.0,0.0,-183.61635756337006,0.0,0.0,0.0,0.0,25,31,34,27,31,29,0,-1.7001888921978713e-18,13.83549976348877,10.743749618530273,0.00977275799959898,3.4772837162017822,-0.00038429960841313004,0.0,0.1899999976158142,2.065000057220459,1.875,-0.15000000596046448,0.7200000286102295,-0.03750000149011612,0.0,0.0,0.0,0.0,0.0,0.0,0.0,0.0,-179.808,-0.269,974.582,-0.5775987532713829,3.6388549568758584,-179.96019928108123
99.13120770454407,0.0,0.0,-179.52681400484428,0.0,0.0,0.0,0.0,25,31,34,27,31,29,0,-0.0010156321804970503,13.852250099182129,18.394351959228516,-0.0004313663230277598,3.1999285221099854,-2.1623156499117613e-05,0.0,0.25999999046325684,2.067500114440918,4.637499809265137,-0.125,0.5899999737739563,-0.009999999776482582,0.0,0.0,0.0,42.979142937223656,0.0,0.0,0.0,0.0,-148.994,-0.322,990.034,-0.5784008941845661,-0.4506313058703925,-179.9407187160468
99.63206124305725,0.0,0.0,-162.33515806616444,0.0,0.0,0.0,0.0,25,31,34,27,31,29,0,-0.0009341702680103481,-3.8504116535186768,-2.4485223293304443,-0.046189069747924805,2.033609390258789,0.0017777325119823217,0.0,0.26249998807907104,-0.9925000071525574,1.0,-0.10000000149011612,0.4300000071525574,-1.0087417012805133e-15,0.0,0.0,0.0,42.979142937223656,0.0,0.0,0.0,0.0,-10.184,-0.42,1029.812,-0.5977668676599879,-17.642058061432206,-179.85517611723375
100.13287472724915,0.0,0.0,-136.54764551025485,0.0,0.0,0.0,0.0,25,31,34,27,31,29,0,-0.0006598084582947195,-15.898822784423828,-8.823147773742676,-0.10583715885877609,-0.02737801894545555,0.004123307764530182,0.0,0.19750000536441803,-1.6699999570846558,-0.11249999701976776,-0.10000000149011612,0.14000000059604645,0.019999999552965164,0.0,0.0,0.0,42.979142937223656,0.0,0.0,0.0,0.0,204.405,-0.179,1009.154,-0.6991803973981436,-43.42911225110565,-179.67738731340467
100.63347673416138,0.0,0.0,-122.31503010452813,0.0,0.0,0.0,0.0,25,31,34,27,31,29,0,0.0013079021591693163,-23.075735092163086,-16.90292739868164,-0.1346820443868637,-1.3216663599014282,0.005369157530367374,0.0,0.15000000596046448,-3.3350000381469727,-2.492500066757202,-0.10000000149011612,-0.054999999701976776,0.03999999910593033,0.0,0.0,0.0,0.0,0.0,0.0,0.0,0.0,312.422,0.138,957.612,-0.8456857056130951,-57.66126929059627,-179.49524403033257
101.13373374938965,0.0,0.0,-122.22564868848772,0.0,0.0,0.0,0.0,25,31,34,27,31,29,0,-0.00920974649488926,-11.44179630279541,-10.374701499938965,-0.10471603274345398,-0.020081844180822372,0.003603979479521513,0.0,0.17000000178813934,-2.5299999713897705,-2.390000104904175,-0.10999999940395355,-0.35499998927116394,0.07000000029802322,0.0,0.0,0.0,6.652576077062093,0.0,0.0,0.0,0.0,313.057,0.14,957.205,-0.8470608043214091,-57.75065070663668,-179.49369704428574
101.63437843322754,0.0,0.0,-106.33386209962117,0.0,0.0,0.0,0.0,25,31,34,27,31,29,0,-0.00017735836445353925,-27.111576080322266,-18.486915588378906,-0.14816801249980927,-2.41697096824646,0.005787786561995745,0.0,0.22750000655651093,-3.1675000190734863,-1.7975000143051147,-0.11999999731779099,-0.2775000035762787,0.07000000029802322,0.0,0.0,0.0,43.04651933829125,0.0,0.0,0.0,0.0,414.367,0.622,870.186,-1.3393461418978125,-73.64106219679493,-178.96445592892337
102.13521432876587,0.0,0.0,-90.69709902536732,0.0,0.0,0.0,0.0,25,31,34,27,31,29,0,4.1208168393558197e-19,-30.339048385620117,-20.47042465209961,-0.1549261063337326,-3.3977861404418945,0.006092245690524578,0.0,0.25999999046325684,-4.962500095367432,-3.572499990463257,-0.12999999523162842,-0.4074999988079071,0.07000000029802322,0.0,0.0,0.0,0.0,0.0,0.0,0.0,0.0,487.048,1.191,760.69,-22.391247929492085,-89.22345157629086,-157.87714534959002
102.63596177101135,0.0,0.0,-90.7236842670614,0.0,0.0,0.0,0.0,25,31,34,27,31,29,0,0.005829969886690378,-24.488500595092773,-16.73065185546875,-0.1700206845998764,-4.053714275360107,0.006980239413678646,0.0,0.1525000035762787,-3.6549999713897705,-3.6500000953674316,-0.14000000059604645,-0.5874999761581421,0.07000000029802322,0.0,0.0,0.0,-2.801194407641279,0.0,0.0,0.0,0.0,486.95,1.19,760.892,-21.67619660116882,-89.19875709532072,-158.5922539736928
103.13613557815552,0.0,0.0,-98.91646507541655,0.0,0.0,0.0,0.0,25,31,34,27,31,29,0,-1.0353753552877243e-17,-28.726524353027344,-23.683141708374023,-0.15306520462036133,-2.8898823261260986,0.006019068416208029,0.0,0.017500000074505806,-3.6449999809265137,-4.019999980926514,-0.15000000596046448,-0.550000011920929,0.07000000029802322,0.0,0.0,0.0,0.0,0.0,0.0,0.0,0.0,452.569,0.882,820.732,-2.1823389458737923,-81.05628198137805,-178.1048473488886
103.63673996925354,0.0,0.0,-95.69758818237159,0.0,0.0,0.0,0.0,25,31,34,27,31,29,0,-1.5066106243466493e-05,-21.557249069213867,-13.969937324523926,-0.15367330610752106,-3.1313636302948,0.006003168411552906,0.0,0.09749999642372131,-3.2174999713897705,-1.0125000476837158,-0.15000000596046448,-0.4300000071525574,0.03999999910593033,0.0,0.0,0.0,42.90024059193167,0.0,0.0,0.0,0.0,467.095,1.001,797.813,-3.231367372978817,-84.27252326856542,-177.0485423577854
104.1373918056488,0.0,0.0,-73.43095857332047,0.0,0.0,0.0,0.0,25,31,34,27,31,29,0,-1.0025564681763154e-17,-32.00746536254883,-23.07757568359375,-0.14850404858589172,-4.226676940917969,0.005839707795530558,0.0,0.23999999463558197,-4.949999809265137,-4.027500152587891,-0.16750000417232513,-0.4399999976158142,0.009999999776482582,0.0,0.0,0.0,0.0,0.0,0.0,0.0,0.0,529.745,1.879,622.102,-179.28307775879563,-73.45089750459101,-0.9475003058078424
104.63805341720581,0.0,0.0,-73.43095857332047,0.0,0.0,0.0,0.0,25,31,34,27,31,29,0,-1.0025564681763154e-17,-32.00746536254883,-22.031850814819336,-0.14850404858589172,-4.226676940917969,0.005839707795530558,0.0,0.1899999976158142,-4.360000133514404,-3.8450000286102295,-0.17000000178813934,-0.6575000286102295,-0.0024999999441206455,0.0,0.0,0.0,0.0,0.0,0.0,0.0,0.0,529.745,1.879,622.102,-179.28307775879563,-73.45089750459101,-0.9475003058078424
105.13888883590698,0.0,0.0,-91.65382395167678,0.0,0.0,0.0,0.0,25,31,34,27,31,29,0,9.074085392057896e-05,-30.5889835357666,-20.40880012512207,-0.15450112521648407,-3.4012348651885986,0.006036814767867327,0.0,0.14000000059604645,-4.514999866485596,-5.102499961853027,-0.18000000715255737,-0.7799999713897705,-0.03999999910593033,0.0,0.0,0.0,-43.053250489718295,0.0,0.0,0.0,0.0,483.482,1.154,767.925,-10.187132301646525,-88.29846851183166,-170.08361010439563
105.63964366912842,0.0,0.0,-108.8751018083649,0.0,0.0,0.0,0.0,25,31,34,27,31,29,0,-0.00021603865025099367,-26.469709396362305,-21.411550521850586,-0.14637130498886108,-2.2577357292175293,0.005717121530324221,0.0,0.11749999970197678,-3.6624999046325684,-5.277500152587891,-0.1899999976158142,-0.5249999761581421,-0.05999999865889549,0.0,0.0,0.0,-43.053250489718295,0.0,0.0,0.0,0.0,399.849,0.537,885.939,-1.2036697360108333,-71.10022355850779,-179.1059192085412
106.14012479782104,0.0,0.0,-111.77100239229462,0.0,0.0,0.0,0.0,25,31,34,27,31,29,0,5.0674655968162326e-18,-25.245037078857422,-20.2016544342041,-0.14388641715049744,-1.980875849723816,0.005658126436173916,0.0,0.16500000655651093,-3.692500114440918,-3.1624999046325684,-0.1599999964237213,-0.02250000089406967,-0.10000000149011612,0.0,0.0,0.0,0.0,0.0,0.0,0.0,0.0,382.472,0.444,903.085,-1.0881041487329464,-68.20460945347564,-179.22813110624259
106.64074373245239,0.0,0.0,-122.77448496044354,0.0,0.0,0.0,0.0,25,31,34,27,31,29,0,-0.00045164921903051436,-21.72114372253418,-15.390283584594727,-0.1301390826702118,-1.1850306987762451,0.0050787366926670074,0.0,0.2150000035762787,-2.8450000286102295,-4.227499961853027,-0.14000000059604645,-0.2224999964237213,-0.11999999731779099,0.0,0.0,0.0,-43.095508870113164,0.0,0.0,0.0,0.0,309.152,0.126,959.687,-0.8388102120715252,-57.20187173046038,-179.5032654394644
107.14139795303345,0.0,0.0,-140.67317081831484,0.0,0.0,0.0,0.0,25,31,34,27,31,29,0,2.3473522973515456e-17,-5.158999919891357,-8.079299926757812,-0.09819056838750839,0.34845590591430664,0.003861202858388424,0.0,0.07750000059604645,-0.7699999809265137,-1.409999966621399,-0.10999999940395355,0.09749999642372131,-0.15000000596046448,0.0,0.0,0.0,0.0,0.0,0.0,0.0,0.0,171.033,-0.248,1018.931,-0.673683775514822,-39.303644238825186,-179.713942020734
107.64224338531494,0.0,0.0,-140.67317081831484,0.0,0.0,0.0,0.0,25,31,34,27,31,29,0,2.3473522973515456e-17,-14.065651893615723,-9.022269248962402,-0.09819056838750839,0.34845590591430664,0.003861202858388424,0.0,0.125,-1.8350000381469727,-1.3650000095367432,-0.08500000089406967,0.23749999701976776,-0.16249999403953552,0.0,0.0,0.0,0.0,0.0,0.0,0.0,0.0,171.033,-0.248,1018.931,-0.673683775514822,-39.303644238825186,-179.713942020734
108.14316296577454,0.0,0.0,-163.67725440547886,0.0,0.0,0.0,0.0,25,31,34,27,31,29,0,-0.0009415585082024336,-3.372824192047119,0.9564311504364014,-0.04360746592283249,2.1075093746185303,0.0016762037994340062,0.0,0.22499999403953552,-0.7225000262260437,-1.372499942779541,-0.054999999701976776,8.513112090269281e-14,-0.1599999964237213,0.0,0.0,0.0,-42.985266201814575,0.0,0.0,0.0,0.0,-21.387,-0.42,1028.224,-0.5952458533614123,-16.300019017897277,-179.86228079389338
108.64377856254578,0.0,0.0,-180.8713740626778,0.0,0.0,0.0,0.0,25,31,34,27,31,29,0,-0.0010178994853049517,4.651454448699951,11.786130905151367,0.002274708589538932,3.2597570419311523,-0.0001280466531170532,0.0,0.2849999964237213,0.45500001311302185,0.5174999833106995,-0.0625,0.26750001311302185,-0.16500000655651093,0.0,0.0,0.0,-42.985266201814575,0.0,0.0,0.0,0.0,-159.246,-0.306,985.197,-0.5779998237279744,0.8939287519631104,-179.94713584335227
109.14412355422974,0.0,0.0,-189.432337550184,0.0,0.0,0.0,0.0,25,31,34,27,31,29,0,-5.071696625649441e-19,8.150200843811035,13.193583488464355,0.02539161778986454,3.7861735820770264,-0.000998488743789494,0.0,0.22499999403953552,0.9175000190734863,1.7324999570846558,-0.07999999821186066,0.7024999856948853,-0.1599999964237213,0.0,0.0,0.0,0.0,0.0,0.0,0.0,0.0,-221.561,-0.174,948.912,-0.5788019646411576,9.454777647910305,-179.9880450299246
109.64478731155396,0.0,0.0,-183.11834264784235,0.0,0.0,0.0,0.0,25,31,34,27,31,29,0,-0.001018937793560326,17.604249954223633,15.091672897338867,0.009274489246308804,3.41007661819458,-0.00040320327389054,0.0,0.18250000476837158,2.627500057220459,4.059999942779541,-0.07999999821186066,0.7549999952316284,-0.1599999964237213,0.0,0.0,0.0,42.92972310348403,0.0,0.0,0.0,0.0,-176.116,-0.276,976.581,-0.5775987532713829,3.14089733712766,-179.9577928583417
