Time (s),Pos_0,Pos_1,Pos_2,Pos_3,Pos_4,Pos_5,Pos_6,Temp_0,Temp_1,Temp_2,Temp_3,Temp_4,Temp_5,Temp_6,Torque_0,Torque_1,Torque_2,Torque_3,Torque_4,Torque_5,Torque_6,Current_0,Current_1,Current_2,Current_3,Current_4,Current_5,Current_6,Velocity_0,Velocity_1,Velocity_2,Velocity_3,Velocity_4,Velocity_5,Velocity_6,Tool_X,Tool_Y,Tool_Z,Tool_Roll,Tool_Pitch,Tool_Yaw
1.6689300537109375e-06,0.0,0.0,-1.3243346476653848,0.0,0.0,0.0,0.0,24,26,31,26,31,28,0,0.00022059600451029837,-14.867868423461914,-10.097419738769531,-0.0037142164073884487,-3.3608086109161377,0.00013770149962510914,0.0,0.17249999940395355,-2.2200000286102295,-0.7875000238418579,0.009999999776482582,-0.5350000262260437,-0.15000000596046448,0.0,0.0,0.0,19.999019286039946,0.0,0.0,0.0,0.0,266.646,4.105,118.049,179.967991507095,-1.3467945932345131,0.012433184154338863
0.5006272792816162,0.0,0.0,0.0,0.0,0.0,0.0,0.0,24,26,31,26,31,28,0,0.0,-14.196634292602539,-9.153251647949219,-4.003883448814899e-16,-3.266948938369751,-1.7458432649513574e-19,0.0,0.17749999463558197,-1.6399999856948853,-1.2675000429153442,0.07000000029802322,-0.4000000059604645,-0.1525000035762787,0.0,0.0,0.0,0.0,0.0,0.0,0.0,0.0,256.587,4.121,113.204,179.9674758450794,-0.02245994556912827,0.01873571990077792
1.0008273124694824,0.0,0.0,0.0,0.0,0.0,0.0,0.0,24,26,31,26,31,28,0,0.0,-14.196634292602539,-9.153251647949219,-4.003883448814899e-16,-3.266948938369751,-1.7458432649513574e-19,0.0,0.17499999701976776,-1.5499999523162842,-1.149999976158142,0.07000000029802322,-0.3149999976158142,-0.1599999964237213,0.0,0.0,0.0,0.0,0.0,0.0,0.0,0.0,256.587,4.121,113.204,179.9674758450794,-0.02245994556912827,0.01873571990077792
1.5014681816101074,0.0,0.0,-12.726653137004872,0.0,0.0,0.0,0.0,24,26,31,26,31,28,0,0.0004957034252583981,-19.670854568481445,-11.803159713745117,-0.033629391342401505,-3.9623360633850098,0.001303624245338142,0.0,0.17749999463558197,-2.2074999809265137,-3.4375,0.054999999701976776,-0.27000001072883606,-0.17000000178813934,0.0,0.0,0.0,-30.002476778400187,0.0,0.0,0.0,0.0,347.96,3.916,169.028,179.97864852208446,-12.748998491014973,-0.04337290509140332
2.0020620822906494,0.0,0.0,-24.727655226476557,0.0,0.0,0.0,0.0,24,26,31,26,31,28,0,0.00047393888235092163,-24.124826431274414,-16.67365837097168,-0.06432957202196121,-1.6380000114440918,0.0025108647532761097,0.0,0.17249999940395355,-2.944999933242798,-4.287499904632568,0.042500000447034836,-0.29249998927116394,-0.17000000178813934,0.0,0.0,0.0,-30.002476778400187,0.0,0.0,0.0,0.0,420.87,3.632,238.912,-179.99612373483595,-24.74982869314812,-0.10886198107485641
2.5026662349700928,0.0,0.0,-42.729129712794325,0.0,0.0,0.0,0.0,24,26,31,26,31,28,0,0.00040299491956830025,-29.1907958984375,-23.89345932006836,-0.10470492392778397,-2.128000020980835,0.004098567180335522,0.0,0.17000000178813934,-4.059999942779541,-5.547500133514404,0.029999999329447746,-0.3799999952316284,-0.18000000715255737,0.0,0.0,0.0,-30.002476778400187,0.0,0.0,0.0,0.0,499.195,3.068,368.179,-179.9161388266357,-42.75095940478881,-0.24029849927786726
3.0029163360595703,0.0,0.0,-54.73013180226601,0.0,0.0,0.0,0.0,24,26,31,26,31,28,0,0.0003331819025333971,-31.276199340820312,-23.80750846862793,-0.12612299621105194,-4.718426704406738,0.004940802231431007,0.0,0.17749999463558197,-4.599999904632568,-5.53249979019165,-6.197299617927143e-15,-0.4424999952316284,-0.1899999976158142,0.0,0.0,0.0,-30.002476778400187,0.0,0.0,0.0,0.0,527.389,2.625,465.156,-179.80555797217545,-54.7515604238039,-0.38130341265956286
3.5035183429718018,0.0,0.0,-72.73160628858378,0.0,0.0,0.0,0.0,24,26,31,26,31,28,0,0.0002022867847699672,-32.23941421508789,-23.864809036254883,-0.14767028391361237,-4.280829906463623,0.0057881176471710205,0.0,0.17499999701976776,-4.962500095367432,-5.542500019073486,-0.029999999329447746,-0.5400000214576721,-0.20000000298023224,0.0,0.0,0.0,-30.002476778400187,0.0,0.0,0.0,0.0,530.58,1.908,616.266,-179.32352857913187,-72.75171710719287,-0.9054452036452401
4.0041046142578125,0.0,0.0,-84.73260837805546,0.0,0.0,0.0,0.0,24,26,30,26,31,28,0,0.00010313469829270616,-31.397375106811523,-24.450660705566406,-0.15406636893749237,-3.753159761428833,0.006039634812623262,0.0,0.17499999701976776,-4.980000019073486,-5.677499771118164,-0.05249999836087227,-0.6100000143051147,-0.20250000059604645,0.0,0.0,0.0,-30.002476778400187,0.0,0.0,0.0,0.0,506.504,1.425,714.347,-177.1155211240362,-84.74704691449276,-3.140438970891555
4.504712343215942,0.0,0.0,-102.73408286437324,0.0,0.0,0.0,0.0,24,26,31,26,31,28,0,-5.263265484245494e-05,-27.99970245361328,-21.458209991455078,-0.15101104974746704,-2.665189743041992,0.005919489078223705,0.0,0.17749999463558197,-4.487500190734863,-5.122499942779541,-0.10000000149011612,-0.6200000047683716,-0.21250000596046448,0.0,0.0,0.0,-30.002476778400187,0.0,0.0,0.0,0.0,433.707,0.746,846.803,-1.6253093774476062,-77.24009658690919,-178.67041398846223
5.005335569381714,0.0,0.0,-114.73508495384493,0.0,0.0,0.0,0.0,24,26,31,26,31,28,0,-0.0001545518171042204,-24.455881118774414,-18.636184692382812,-0.140671044588089,-1.7884604930877686,0.005512883421033621,0.0,0.17499999701976776,-3.7149999141693115,-4.630000114440918,-0.12999999523162842,-0.5099999904632568,-0.2199999988079071,0.0,0.0,0.0,-30.002476778400187,0.0,0.0,0.0,0.0,363.812,0.352,919.703,-0.9983789580154594,-65.2407560750434,-179.32467449472213
5.505939722061157,0.0,0.0,-132.7365594401627,0.0,0.0,0.0,0.0,24,26,31,26,31,28,0,-0.0002934469375759363,-17.607872009277344,-11.244483947753906,-0.11383195966482162,-0.34168484807014465,0.004457474686205387,0.0,0.17749999463558197,-2.4800000190734863,-3.3399999141693115,-0.17000000178813934,-0.2750000059604645,-0.2224999964237213,0.0,0.0,0.0,-30.002476778400187,0.0,0.0,0.0,0.0,234.534,-0.106,998.01,-0.7279428787137109,-47.24008372963881,-179.63876995801286
6.006537914276123,0.0,0.0,-144.73756152963438,0.0,0.0,0.0,0.0,24,26,31,26,31,28,0,-0.00037081961636431515,-12.311985969543457,-5.056084156036377,-0.08952690660953522,0.6491467952728271,0.0035017135087400675,0.0,0.17499999701976776,-1.7599999904632568,-2.259999990463257,-0.19750000536441803,-0.10750000178813934,-0.23000000417232513,0.0,0.0,0.0,-30.002476778400187,0.0,0.0,0.0,0.0,137.552,-0.305,1026.191,-0.6529999991105991,-35.23936811906469,-179.7457984741433
6.507141828536987,0.0,0.0,-162.73909331173166,0.0,0.0,0.0,0.0,24,26,31,26,31,28,0,-0.0004556196799967438,-3.8488526344299316,2.464540719985962,-0.04609670117497444,2.067003011703491,0.0017938832752406597,0.0,0.17499999701976776,-0.8974999785423279,-0.9474999904632568,-0.23749999701976776,0.13750000298023224,-0.24250000715255737,0.0,0.0,0.0,-30.002476778400187,0.0,0.0,0.0,0.0,-13.559,-0.42,1029.362,-0.5970220225263179,-17.238180111644485,-179.85729606107574
7.007747411727905,0.0,0.0,-170.42532213341167,0.0,0.0,0.0,0.0,24,26,31,26,31,28,0,1.632308755411514e-17,-0.2439768761396408,5.701350212097168,-0.02577122300863266,2.6496222019195557,0.0010134162148460746,0.0,0.17499999701976776,1.0575000047683716,0.9950000047683716,-0.26499998569488525,0.3050000071525574,-0.25,0.0,0.0,0.0,0.0,0.0,0.0,0.0,0.0,-76.98,-0.4,1016.295,-0.5852763877261359,-9.552008585744007,-179.89671555738076
7.508343935012817,0.0,0.0,-167.89909391890032,0.0,0.0,0.0,0.0,24,26,31,26,31,28,0,-0.00047272685333155096,-1.2947646379470825,9.656832695007324,-0.031976014375686646,2.458315134048462,0.0012386037269607186,0.0,0.17249999940395355,0.44999998807907104,2.9024999141693115,-0.29499998688697815,0.550000011920929,-0.2524999976158142,0.0,0.0,0.0,30.005581099377956,0.0,0.0,0.0,0.0,-56.336,-0.411,1021.527,-0.5884849513788686,-12.078236800255318,-179.88405319010835
8.008782148361206,0.0,0.0,-155.89683132227935,0.0,0.0,0.0,0.0,24,26,31,26,31,28,0,-0.00042943586595356464,-6.983621597290039,-4.324367523193359,-0.06279031932353973,1.5637139081954956,0.002450331812724471,0.0,0.17249999940395355,-1.0199999809265137,0.4625000059604645,-0.2824999988079071,0.550000011920929,-0.25999999046325684,0.0,0.0,0.0,30.005581099377956,0.0,0.0,0.0,0.0,43.924,-0.403,1033.762,-0.6127783618924154,-24.080270213758237,-179.8190797761405
8.50939416885376,0.0,0.0,-137.77343141715775,0.0,0.0,0.0,0.0,24,26,31,26,31,28,0,-0.00032933108741417527,-15.333660125732422,-7.46154260635376,-0.10370051115751266,0.0948411375284195,0.004059066530317068,0.0,0.17249999940395355,-1.774999976158142,-0.08500000089406967,-0.20250000059604645,0.3375000059604645,-0.25,0.0,0.0,0.0,30.005581099377956,0.0,0.0,0.0,0.0,194.564,-0.201,1012.309,-0.691101692486799,-42.20332634420277,-179.68873187774824
9.010090827941895,0.0,0.0,-125.7712261163163,0.0,0.0,0.0,0.0,24,26,31,26,31,28,0,-0.0002442881232127547,-20.349519729614258,-11.988243103027344,-0.12533292174339294,-0.893646776676178,0.0049097295850515366,0.0,0.17499999701976776,-2.559999942779541,-0.875,-0.1599999964237213,0.16500000655651093,-0.23250000178813934,0.0,0.0,0.0,30.005581099377956,0.0,0.0,0.0,0.0,287.423,0.05,972.572,-0.7984166875148021,-54.20524516614666,-179.5508782322398
9.510745525360107,0.0,0.0,-107.76786086927459,0.0,0.0,0.0,0.0,24,26,31,26,31,28,0,-9.79922479018569e-05,-26.55779266357422,-17.904468536376953,-0.14726094901561737,-2.2919726371765137,0.005772017408162355,0.0,0.17249999940395355,-3.4725000858306885,-1.9075000286102295,-0.08749999850988388,-0.07999999821186066,-0.20999999344348907,0.0,0.0,0.0,30.005581099377956,0.0,0.0,0.0,0.0,406.26,0.574,879.155,-1.2579288392097223,-72.20729261025956,-179.0491390910437
10.011364936828613,0.0,0.0,-95.76565556843313,0.0,0.0,0.0,0.0,24,26,31,26,31,28,0,5.808601144963177e-06,-29.5557861328125,-19.165067672729492,-0.15393398702144623,-3.108492136001587,0.006034424994140863,0.0,0.18000000715255737,-3.984999895095825,-2.127500057220459,-0.03999999910593033,-0.25,-0.19750000536441803,0.0,0.0,0.0,30.005581099377956,0.0,0.0,0.0,0.0,466.801,0.999,798.306,-3.1971044968299935,-84.20451317828338,-177.0829771212728
10.511969566345215,0.0,0.0,-77.76229032139143,0.0,0.0,0.0,0.0,24,26,31,26,31,28,0,0.00015961307508405298,-32.01506042480469,-21.543018341064453,-0.15129849314689636,-4.07081937789917,0.005930788349360228,0.0,0.17249999940395355,-4.505000114440918,-2.5425000190734863,0.019999999552965164,-0.5099999904632568,-0.17000000178813934,0.0,0.0,0.0,30.005581099377956,0.0,0.0,0.0,0.0,522.995,1.704,657.98,-178.9277293342555,-77.7813698159693,-1.312589012865203
11.012559413909912,0.0,0.0,-73.31567946494015,0.0,0.0,0.0,0.0,24,26,31,26,31,28,0,-3.271449485015318e-18,-32.01048278808594,-17.175674438476562,-0.14841486513614655,-4.230994701385498,0.005836200900375843,0.0,0.12999999523162842,-4.635000228881836,-2.997499942779541,0.07000000029802322,-0.675000011920929,-0.15000000596046448,0.0,0.0,0.0,0.0,0.0,0.0,0.0,0.0,529.888,1.884,621.141,-179.2899532523372,-73.3356756919902,-0.9403383333687071
11.512854814529419,0.0,0.0,-79.32021986213165,0.0,0.0,0.0,0.0,24,26,31,26,31,28,0,0.00014861315139569342,-31.923059463500977,-24.639129638671875,-0.152006596326828,-4.012867450714111,0.005958645138889551,0.0,0.13500000536441803,-4.492499828338623,-5.677499771118164,0.07000000029802322,-0.75,-0.12999999523162842,0.0,0.0,0.0,-29.996104211904562,0.0,0.0,0.0,0.0,519.906,1.641,670.746,-178.72874109200657,-79.33872639891437,-1.515072297664436
12.013532400131226,0.0,0.0,-91.31864364152526,0.0,0.0,0.0,0.0,24,26,31,26,31,28,0,4.649778929888271e-05,-30.441179275512695,-25.87108039855957,-0.15471695363521576,-3.3925108909606934,0.006065226159989834,0.0,0.20000000298023224,-4.275000095367432,-5.892499923706055,0.042500000447034836,-0.699999988079071,-0.10750000178813934,0.0,0.0,0.0,-29.996104211904562,0.0,0.0,0.0,0.0,484.745,1.167,765.398,-12.588398421039804,-88.62746087779577,-167.68159913986867
12.51416301727295,0.0,0.0,-109.31627931061564,0.0,0.0,0.0,0.0,24,26,31,26,31,28,0,-0.0001090605728677474,-26.17125129699707,-19.2099552154541,-0.14613594114780426,-2.1962623596191406,0.005727789830416441,0.0,0.2800000011920929,-3.884999990463257,-4.730000019073486,0.0024999999441206455,-0.5174999833106995,-0.07999999821186066,0.0,0.0,0.0,-29.996104211904562,0.0,0.0,0.0,0.0,397.258,0.523,888.608,-1.1837881005197939,-70.65904605625705,-179.12683216806346
13.014770030975342,0.0,0.0,-121.31476038578874,0.0,0.0,0.0,0.0,24,26,31,26,31,28,0,-0.00020774948643520474,-22.141244888305664,-14.153230667114258,-0.1323486715555191,-1.272428035736084,0.005185625981539488,0.0,0.2800000011920929,-3.4600000381469727,-3.8475000858306885,-0.012500000186264515,-0.38749998807907104,-0.07000000029802322,0.0,0.0,0.0,-29.996104211904562,0.0,0.0,0.0,0.0,319.485,0.164,953.003,-0.8614420449791927,-58.66148171355615,-179.47713856400645
13.515366315841675,0.0,0.0,-139.31239605487914,0.0,0.0,0.0,0.0,24,26,31,26,31,28,0,-0.00033751901355572045,-14.759682655334473,-7.621030330657959,-0.10106818377971649,0.20229943096637726,0.003955565858632326,0.0,0.2824999988079071,-2.4000000953674316,-2.7074999809265137,-0.05249999836087227,-0.16249999403953552,-0.03999999910593033,0.0,0.0,0.0,-29.996104211904562,0.0,0.0,0.0,0.0,182.117,-0.226,1015.972,-0.6815332973081142,-40.66441900226089,-179.70236827327236
14.015966892242432,0.0,0.0,-151.31081983427273,0.0,0.0,0.0,0.0,24,26,31,26,31,28,0,-0.00040634459583088756,-9.261115074157715,-2.9940555095672607,-0.07447666674852371,1.1821337938308716,0.0029098924715071917,0.0,0.2849999964237213,-1.6375000476837158,-1.899999976158142,-0.07999999821186066,-0.007499999832361937,-0.029999999329447746,0.0,0.0,0.0,-29.996104211904562,0.0,0.0,0.0,0.0,82.567,-0.373,1032.861,-0.6268158278731206,-28.666224405985346,-179.79100484417913
14.51660418510437,0.0,0.0,-154.91569839389734,0.0,0.0,0.0,0.0,24,26,31,26,31,28,0,2.842144608256675e-17,-7.525564193725586,-2.4821817874908447,-0.06568601727485657,1.5013716220855713,0.002583008026704192,0.0,0.2800000011920929,-1.1799999475479126,-0.5475000143051147,-0.12999999523162842,0.2800000011920929,2.1076890233118206e-16,0.0,0.0,0.0,0.0,0.0,0.0,0.0,0.0,52.196,-0.397,1033.83,-0.6155285593090435,-25.06140314214026,-179.8132929024097
15.017325639724731,0.0,0.0,-148.0772179258929,0.0,0.0,0.0,0.0,24,26,31,26,31,28,0,-0.0003901769232470542,-10.659911155700684,-8.273807525634766,-0.08146543800830841,0.9409759044647217,0.0031847425270825624,0.0,0.2849999964237213,-1.6349999904632568,-0.22750000655651093,-0.15000000596046448,0.42500001192092896,0.009999999776482582,0.0,0.0,0.0,29.974899889626258,0.0,0.0,0.0,0.0,109.712,-0.343,1030.368,-0.6386760542323286,-31.899769018585662,-179.76963351842073
15.517935276031494,0.0,0.0,-130.0923019198544,0.0,0.0,0.0,0.0,24,26,31,26,31,28,0,-0.00027577593573369086,-18.60978889465332,-9.8065824508667,-0.11813300102949142,-0.5398733615875244,0.0046266415156424046,0.0,0.18000000715255737,-2.299999952316284,-0.4950000047683716,-0.19750000536441803,0.27250000834465027,0.019999999552965164,0.0,0.0,0.0,29.974899889626258,0.0,0.0,0.0,0.0,254.973,-0.05,989.112,-0.7515487398731009,-49.88434124994708,-179.60846049065043
16.018548727035522,0.0,0.0,-118.10230062004925,0.0,0.0,0.0,0.0,24,26,31,26,31,28,0,-0.00018372385238762945,-23.216554641723633,-14.247332572937012,-0.136332169175148,-1.507972240447998,0.005342297721654177,0.0,0.20749999582767487,-2.997499942779541,-1.2699999809265137,-0.2199999988079071,0.11999999731779099,0.019999999552965164,0.0,0.0,0.0,29.974899889626258,0.0,0.0,0.0,0.0,341.605,0.254,937.381,-0.9199983316415627,-61.873769591957114,-179.41096193866883
16.518767595291138,0.0,0.0,-104.18973943868261,0.0,0.0,0.0,0.0,24,26,31,26,31,28,0,2.9160258990280738e-18,-27.433265686035156,-19.080900192260742,-0.15021029114723206,-2.532055616378784,0.005906803533434868,0.0,0.08250000327825546,-4.292500019073486,-3.3299999237060547,-0.25999999046325684,-0.13500000536441803,0.009999999776482582,0.0,0.0,0.0,0.0,0.0,0.0,0.0,0.0,426.063,0.695,856.405,-1.4920966900796897,-75.78478378727691,-178.80689253526242
17.01940608024597,0.0,0.0,-104.18973943868261,0.0,0.0,0.0,0.0,24,26,31,26,31,28,0,2.9160258990280738e-18,-27.433265686035156,-16.45942497253418,-0.15021029114723206,-2.532055616378784,0.005906803533434868,0.0,0.23749999701976776,-3.7950000762939453,-2.872499942779541,-0.28999999165534973,-0.35499998927116394,1.7954387976359953e-16,0.0,0.0,0.0,0.0,0.0,0.0,0.0,0.0,426.063,0.695,856.405,-1.4920966900796897,-75.78478378727691,-178.80689253526242
17.520031452178955,0.0,0.0,-88.799233624776,0.0,0.0,0.0,0.0,24,26,31,26,31,28,0,6.640423816861585e-05,-30.81134605407715,-19.929683685302734,-0.1547226905822754,-3.522681474685669,0.006065391469746828,0.0,0.22750000655651093,-4.007500171661377,-2.259999990463257,-0.2800000011920929,-0.4975000023841858,1.7954387976359953e-16,0.0,0.0,0.0,30.044407309714895,0.0,0.0,0.0,0.0,493.761,1.265,746.167,-166.3871728891091,-88.78605559548798,-13.87835560099734
18.020758628845215,0.0,0.0,-77.34385924360738,0.0,0.0,0.0,0.0,24,26,31,26,31,28,0,0.014884178526699543,-27.000999450683594,-21.609350204467773,-0.19171403348445892,-3.247999906539917,0.008327643387019634,0.0,0.14499999582767487,-4.03000020980835,-3.0350000858306885,-0.26750001311302185,-0.5799999833106995,1.7954387976359953e-16,0.0,0.0,0.0,8.317978541065363,0.0,0.0,0.0,0.0,523.765,1.721,654.538,-178.9727638169528,-77.36305332974428,-1.266580501916198
18.521379709243774,0.0,0.0,-77.46509711305707,0.0,0.0,0.0,0.0,24,26,31,26,31,28,0,0.01373693160712719,-30.4012508392334,-19.584196090698242,-0.18860048055648804,-5.696920394897461,0.008144032210111618,0.0,0.17000000178813934,-4.537499904632568,-4.375,-0.23000000417232513,-0.6800000071525574,-0.014999999664723873,0.0,0.0,0.0,-12.073507683551746,0.0,0.0,0.0,0.0,523.544,1.716,655.536,-178.96004415390087,-77.48423390341445,-1.2795866438656673
19.022011518478394,0.0,0.0,-89.25284431118106,0.0,0.0,0.0,0.0,24,26,31,26,31,28,0,6.430024950532243e-05,-30.777690887451172,-24.3826904296875,-0.15473325550556183,-3.5106325149536133,0.006065881811082363,0.0,0.2800000011920929,-4.539999961853027,-5.632500171661377,-0.2150000035762787,-0.699999988079071,-0.02250000089406967,0.0,0.0,0.0,-29.984448494085935,0.0,0.0,0.0,0.0,492.2,1.247,749.658,-158.36009147510578,-89.21869602659127,-21.906869409488486
19.52251100540161,0.0,0.0,-107.24348989517087,0.0,0.0,0.0,0.0,24,26,31,26,31,28,0,-9.133335697697476e-05,-26.778162002563477,-19.497865676879883,-0.14788293838500977,-2.3472976684570312,0.005796502809971571,0.0,0.11500000208616257,-3.809999942779541,-4.78000020980835,-0.18000000715255737,-0.5575000047683716,-0.029999999329447746,0.0,0.0,0.0,-29.984448494085935,0.0,0.0,0.0,0.0,409.251,0.591,875.898,-1.286118362730159,-72.73160628858378,-179.0197463561535
20.023221731185913,0.0,0.0,-119.2372727164239,0.0,0.0,0.0,0.0,24,26,31,26,31,28,0,-0.0001910469145514071,-22.897790908813477,-14.598715782165527,-0.13517077267169952,-1.4374394416809082,0.005296615418046713,0.0,0.004999999888241291,-3.309999942779541,-3.924999952316284,-0.1599999964237213,-0.42500001192092896,-0.029999999329447746,0.0,0.0,0.0,-29.984448494085935,0.0,0.0,0.0,0.0,333.89,0.221,943.042,-0.8977675691904868,-60.7389120871415,-179.43588560275703
20.52381420135498,0.0,0.0,-137.2279183004137,0.0,0.0,0.0,0.0,24,26,31,26,31,28,0,-0.0003237120108678937,-15.678118705749512,-8.26706600189209,-0.10526680946350098,0.02987021952867508,0.004120685160160065,0.0,-1.119764003743029e-15,-2.5399999618530273,-2.819999933242798,-0.12999999523162842,-0.20000000298023224,-0.042500000447034836,0.0,0.0,0.0,-29.984448494085935,0.0,0.0,0.0,0.0,198.952,-0.191,1010.931,-0.69465403081661,-42.748839460946826,-179.68374714493063
21.024078130722046,0.0,0.0,-149.22170112166674,0.0,0.0,0.0,0.0,24,26,31,26,31,28,0,-0.0003952550468966365,-10.238658905029297,-3.41089129447937,-0.07937612384557724,1.0141535997390747,0.003102571005001664,0.0,0.019999999552965164,-1.8250000476837158,-1.972499966621399,-0.10999999940395355,-0.04500000178813934,-0.05000000074505806,0.0,0.0,0.0,-29.984448494085935,0.0,0.0,0.0,0.0,100.121,-0.354,1031.426,-0.6342642792098213,-30.75528582281184,-179.77736844865498
21.524691104888916,0.0,0.0,-156.30277192012954,0.0,0.0,0.0,0.0,24,26,31,26,31,28,0,2.4077116252905094e-18,-6.87385368347168,-1.8304712772369385,-0.06227001175284386,1.6098262071609497,0.002448678482323885,0.0,0.042500000447034836,-0.6899999976158142,-0.19249999523162842,-0.07999999821186066,0.2475000023841858,-0.05000000074505806,0.0,0.0,0.0,0.0,0.0,0.0,0.0,0.0,40.503,-0.405,1033.693,-0.6116897420816668,-23.674386911687563,-179.82148619888008
22.025470495224,0.0,0.0,-152.33973744276867,0.0,0.0,0.0,0.0,24,26,31,26,31,28,0,-0.00041236323886550963,-0.31825000047683716,2.138871908187866,-0.07145227491855621,1.2834166288375854,0.0027909749187529087,0.0,0.07000000029802322,-0.04749999940395355,1.590000033378601,-0.05999999865889549,0.4675000011920929,-0.05999999865889549,0.0,0.0,0.0,29.986391682904806,0.0,0.0,0.0,0.0,73.906,-0.381,1033.332,-0.6233780811023357,-27.637306797489416,-179.79753656304362
22.52607250213623,0.0,0.0,-134.3478886474091,0.0,0.0,0.0,0.0,24,26,31,26,31,28,0,-0.0003059831215068698,-16.821107864379883,-10.180627822875977,-0.11038359999656677,-0.1886293739080429,0.004321893211454153,0.0,0.14000000059604645,-2.047499895095825,-0.5600000023841858,-0.029999999329447746,0.33000001311302185,-0.07249999791383743,0.0,0.0,0.0,29.986391682904806,0.0,0.0,0.0,0.0,221.886,-0.138,1002.966,-0.7151086241027805,-45.62881181817191,-179.65572950874872
23.02667760848999,0.0,0.0,-122.3533609810224,0.0,0.0,0.0,0.0,24,26,31,26,31,28,0,-0.0002176621201215312,-21.66427993774414,-14.120002746582031,-0.13052520155906677,-1.1700162887573242,0.005113932304084301,0.0,0.1274999976158142,-2.752500057220459,-1.247499942779541,-0.004999999888241291,0.1599999964237213,-0.07999999821186066,0.0,0.0,0.0,29.986391682904806,0.0,0.0,0.0,0.0,312.15,0.137,957.786,-0.8451127478179642,-57.62293841410203,-179.49593157968675
23.527281999588013,0.0,0.0,-104.36151218566283,0.0,0.0,0.0,0.0,24,26,31,26,31,28,0,-6.868377386126667e-05,-27.510597229003906,-19.019153594970703,-0.14982838928699493,-2.535409927368164,0.005873002577573061,0.0,0.14749999344348907,-3.700000047683716,-2.1024999618530273,0.019999999552965164,-0.07999999821186066,-0.07999999821186066,0.0,0.0,0.0,29.986391682904806,0.0,0.0,0.0,0.0,425.145,0.689,857.525,-1.4781738156580109,-75.6130683360762,-178.8212164801407
24.027892351150513,0.0,0.0,-92.36698451927612,0.0,0.0,0.0,0.0,24,26,31,26,31,28,0,3.530970570864156e-05,-30.214370727539062,-20.02190399169922,-0.15460504591464996,-3.316594362258911,0.006060837768018246,0.0,0.1599999964237213,-4.110000133514404,-2.2774999141693115,0.03999999910593033,-0.2524999976158142,-0.09000000357627869,0.0,0.0,0.0,29.986391682904806,0.0,0.0,0.0,0.0,480.746,1.127,773.279,-7.273641913406288,-87.59275639556903,-172.99876207024172
24.52849245071411,0.0,0.0,-74.37513572391656,0.0,0.0,0.0,0.0,24,26,31,26,31,28,0,0.0001870030100690201,-32.18535232543945,-20.838428497314453,-0.14911240339279175,-4.209804058074951,0.0058448477648198605,0.0,0.14749999344348907,-4.517499923706055,-2.4200000762939453,0.07000000029802322,-0.5099999904632568,-0.10000000149011612,0.0,0.0,0.0,29.986391682904806,0.0,0.0,0.0,0.0,528.505,1.841,629.965,-179.22257341562982,-74.39496006362808,-1.0101245928156413
25.02877426147461,0.0,0.0,-62.38055076175033,0.0,0.0,0.0,0.0,24,26,31,26,31,28,0,0.000278828723821789,-32.02589416503906,-21.884153366088867,-0.13724535703659058,-4.581653594970703,0.005378193221986294,0.0,0.23250000178813934,-4.630000114440918,-2.6024999618530273,0.07000000029802322,-0.6800000071525574,-0.10000000149011612,0.0,0.0,0.0,29.986391682904806,0.0,0.0,0.0,0.0,534.557,2.325,529.208,-179.67985103192373,-62.40163560861114,-0.5252877065759388
25.52940011024475,0.0,0.0,-52.42030974697561,0.0,0.0,0.0,0.0,24,26,31,26,31,28,0,2.976272616666396e-19,-30.7623291015625,-17.777324676513672,-0.1227889209985733,-4.716861248016357,0.004828497301787138,0.0,0.2849999964237213,-4.434999942779541,-3.1024999618530273,0.05000000074505806,-0.800000011920929,-0.10999999940395355,0.0,0.0,0.0,0.0,0.0,0.0,0.0,0.0,523.552,2.713,446.065,-179.83288805900315,-52.44179566429302,-0.3482437478805144
26.030004501342773,0.0,0.0,-51.6739749230382,0.0,0.0,0.0,0.0,24,26,31,26,31,28,0,-0.007458227686583996,-24.849651336669922,-19.519596099853516,-0.09381906688213348,-3.5268642902374268,0.0031367854680866003,0.0,0.1899999976158142,-4.114999771118164,-2.372499942779541,0.019999999552965164,-0.7749999761581421,-0.11999999731779099,0.0,0.0,0.0,23.626898169354313,0.0,0.0,0.0,0.0,522.148,2.742,439.932,-179.8409667639145,-51.695518136135114,-0.3383315780247511
26.53061604499817,0.0,0.0,-49.784360114696746,0.0,0.0,0.0,0.0,24,26,31,26,31,28,0,5.986848723528096e-17,-30.356067657470703,-19.367399215698242,-0.11831335723400116,-4.734519958496094,0.004652502480894327,0.0,0.1274999976158142,-3.5350000858306885,-3.380000114440918,-0.007499999832361937,-0.6600000262260437,-0.12999999523162842,0.0,0.0,0.0,0.0,0.0,0.0,0.0,0.0,518.237,2.813,424.489,-179.85998896271286,-49.80596062357318,-0.31461112530633506
27.031214237213135,0.0,0.0,-58.79400685156991,0.0,0.0,0.0,0.0,24,26,31,26,31,28,0,0.000306259113131091,-31.725727081298828,-26.170001983642578,-0.13216425478458405,-4.658988952636719,0.00517835421487689,0.0,0.11999999731779099,-4.684999942779541,-5.945000171661377,-0.03750000149011612,-0.5799999833106995,-0.12999999523162842,0.0,0.0,0.0,-30.011834137563103,0.0,0.0,0.0,0.0,532.262,2.467,499.062,-179.74682979817453,-58.81526358576927,-0.4497718691776962
27.53184938430786,0.0,0.0,-76.80109632427997,0.0,0.0,0.0,0.0,24,26,31,26,31,28,0,0.0001695511455181986,-32.08646011352539,-25.840526580810547,-0.15058326721191406,-4.121774196624756,0.005902654957026243,0.0,0.2849999964237213,-4.375,-5.887499809265137,-0.07999999821186066,-0.4724999964237213,-0.14249999821186066,0.0,0.0,0.0,-30.011834137563103,0.0,0.0,0.0,0.0,524.727,1.743,650.064,-179.02690832859264,-76.82040500197589,-1.2112327789065602
28.032485246658325,0.0,0.0,-88.78072708799326,0.0,0.0,0.0,0.0,24,26,31,26,31,28,0,-0.005561803001910448,-26.153608322143555,-22.718618392944336,-0.1401093751192093,-2.897629499435425,0.005207718349993229,0.0,0.2574999928474426,-3.984999895095825,-5.304999828338623,-0.10000000149011612,-0.4000000059604645,-0.15000000596046448,0.0,0.0,0.0,-27.32971788824206,0.0,0.0,0.0,0.0,493.824,1.266,746.025,-166.59395335737184,-88.76812201650039,-13.671517836955111
28.532769918441772,0.0,0.0,-89.65231048594627,0.0,0.0,0.0,0.0,24,26,31,26,31,28,0,-1.3671599805245814e-19,-30.507368087768555,-25.463985443115234,-0.15493471920490265,-3.4575490951538086,0.006092584691941738,0.0,0.1574999988079071,-3.4725000858306885,-4.03000020980835,-0.15000000596046448,-0.2874999940395355,-0.15000000596046448,0.0,0.0,0.0,0.0,0.0,0.0,0.0,0.0,490.803,1.232,752.723,-138.38775676509704,-89.56292906990586,-41.8810948802212
29.033443450927734,0.0,0.0,-98.76445937236835,0.0,0.0,0.0,0.0,24,26,31,26,31,28,0,-1.81435898412019e-05,-28.956974029541016,-24.7291316986084,-0.15299111604690552,-2.9314563274383545,0.005997402127832174,0.0,0.14000000059604645,-4.420000076293945,-5.692500114440918,-0.17000000178813934,-0.3100000023841858,-0.1599999964237213,0.0,0.0,0.0,-29.962632869876916,0.0,0.0,0.0,0.0,453.284,0.888,819.668,-2.2145391739601448,-81.20823038864674,-178.07224605034565
29.53409767150879,0.0,0.0,-116.74204151862915,0.0,0.0,0.0,0.0,24,26,31,26,31,28,0,-0.00017060137179214507,-23.775264739990234,-16.377656936645508,-0.13832488656044006,-1.6331409215927124,0.00542067363858223,0.0,0.19750000536441803,-2.880000114440918,-4.235000133514404,-0.2199999988079071,-0.36250001192092896,-0.17000000178813934,0.0,0.0,0.0,-29.962632869876916,0.0,0.0,0.0,0.0,350.7,0.293,930.397,-0.9491618834137218,-63.23397139759769,-179.37853252746442
30.034276247024536,0.0,0.0,-128.7271153813962,0.0,0.0,0.0,0.0,24,26,31,26,31,28,0,-0.0002638524165377021,-19.265382766723633,-11.693382263183594,-0.12088833004236221,-0.6716870665550232,0.004735006019473076,0.0,0.24250000715255737,-2.4024999141693115,-3.4175000190734863,-0.24250000715255737,-0.3449999988079071,-0.17000000178813934,0.0,0.0,0.0,-29.962632869876916,0.0,0.0,0.0,0.0,265.359,-0.02,984.151,-0.7651278396177014,-51.24941319684626,-179.59150093991457
30.534884452819824,0.0,0.0,-133.52472018314464,0.0,0.0,0.0,0.0,24,26,31,26,31,28,0,6.6252217216712e-17,-17.163267135620117,-12.119885444641113,-0.11234176903963089,-0.24282152950763702,0.004417678341269493,0.0,0.3100000023841858,-2.3324999809265137,-1.902500033378601,-0.2800000011920929,-0.012500000186264515,-0.18000000715255737,0.0,0.0,0.0,0.0,0.0,0.0,0.0,0.0,228.366,-0.122,1000.478,-0.7215257514082457,-46.45198028243637,-179.6471924376013
31.035517692565918,0.0,0.0,-139.65456645013126,0.0,0.0,0.0,0.0,24,26,31,26,31,28,0,-0.0003401783178560436,-14.60773754119873,-6.844933032989502,-0.10036592930555344,0.23054514825344086,0.003927924204617739,0.0,0.23499999940395355,-2.2274999618530273,-2.572499990463257,-0.3100000023841858,0.15000000596046448,-0.1899999976158142,0.0,0.0,0.0,-30.017148024737374,0.0,0.0,0.0,0.0,179.337,-0.232,1016.741,-0.6795279450251563,-40.32224860700877,-179.70534765380705
31.536219120025635,0.0,0.0,-157.66486448649405,0.0,0.0,0.0,0.0,24,26,31,26,31,28,0,-0.00043637427734211087,-6.258885383605957,1.205716848373413,-0.058993104845285416,1.6822926998138428,0.0023009972646832466,0.0,0.12999999523162842,-1.100000023841858,-1.1675000190734863,-0.2874999940395355,0.33000001311302185,-0.20000000298023224,0.0,0.0,0.0,-30.017148024737374,0.0,0.0,0.0,0.0,29.026,-0.41,1033.284,-0.6081946995313688,-22.312294345323057,-179.82933572067336
32.03677773475647,0.0,0.0,-169.67171074547608,0.0,0.0,0.0,0.0,24,26,31,26,31,28,0,-0.00047716425615362823,-0.5749169588088989,4.572092056274414,-0.027910765260457993,2.5654890537261963,0.0010787291685119271,0.0,0.05249999836087227,-0.3174999952316284,-0.5799999833106995,-0.27000001072883606,0.4300000071525574,-0.20000000298023224,0.0,0.0,0.0,-30.017148024737374,0.0,0.0,0.0,0.0,-70.847,-0.403,1017.951,-0.5861931201983452,-10.305562677900065,-179.89293403593288
32.53739142417908,0.0,0.0,-187.68200878183887,0.0,0.0,0.0,0.0,24,26,31,26,31,28,0,-0.0004988934379070997,7.5087714195251465,11.5197172164917,0.020576482638716698,3.6670916080474854,-0.0008279620087705553,0.0,-0.03999999910593033,0.8199999928474426,0.6324999928474426,-0.23250000178813934,0.5899999737739563,-0.20999999344348907,0.0,0.0,0.0,-30.017148024737374,0.0,0.0,0.0,0.0,-209.273,-0.205,957.082,-0.5781144152870007,7.704506175344667,-179.97962255033616
33.03808546066284,0.0,0.0,-196.45341966749663,0.0,0.0,0.0,0.0,24,26,31,26,31,28,0,3.2807060496600928e-18,10.931758880615234,13.794975280761719,0.043883875012397766,4.10687255859375,-0.0017256700666621327,0.0,-0.019999999552965164,2.197499990463257,2.4075000286102295,-0.2150000035762787,0.6725000143051147,-0.2199999988079071,0.0,0.0,0.0,0.0,0.0,0.0,0.0,0.0,-268.176,-0.032,912.49,-0.5842450636949004,16.475802469443416,179.97727342337615
33.53872489929199,0.0,0.0,-194.40423611321123,0.0,0.0,0.0,0.0,24,26,31,26,31,28,0,-0.0004946021363139153,10.344450950622559,19.88136863708496,0.03904414176940918,4.0008344650268555,-0.0015541933244094253,0.0,0.03999999910593033,1.7999999523162842,4.6875,-0.18000000715255737,0.75,-0.2199999988079071,0.0,0.0,0.0,30.030886950252853,0.0,0.0,0.0,0.0,-255.037,-0.077,923.707,-0.5821824156324295,14.426618915158025,179.98758666368852
34.03941988945007,0.0,0.0,-182.39188945939597,0.0,0.0,0.0,0.0,24,26,31,26,31,28,0,-0.0004981858073733747,5.333863735198975,6.773993492126465,0.006977813318371773,3.390608787536621,-0.00029323113267309964,0.0,0.07500000298023224,0.6575000286102295,2.4000000953674316,-0.16249999403953552,0.7200000286102295,-0.23000000417232513,0.0,0.0,0.0,30.030886950252853,0.0,0.0,0.0,0.0,-170.699,-0.286,979.439,-0.5776560490508961,2.4143868529017762,-179.9543551115709
34.54003405570984,0.0,0.0,-164.3733408307833,0.0,0.0,0.0,0.0,24,26,31,26,31,28,0,-0.00046286589349620044,-2.959843158721924,1.6026684045791626,-0.041235171258449554,2.205071210861206,0.0016026750672608614,0.0,0.14249999821186066,-0.20749999582767487,1.497499942779541,-0.12999999523162842,0.5899999737739563,-0.23999999463558197,0.0,0.0,0.0,30.030886950252853,0.0,0.0,0.0,0.0,-27.182,-0.419,1027.298,-0.5940426419916376,-15.603932592592841,-179.86594772378223
35.04071617126465,0.0,0.0,-152.24084492732908,0.0,0.0,0.0,0.0,24,26,31,26,31,28,0,-0.0004131050081923604,-8.711028099060059,-1.8210066556930542,-0.07168831676244736,1.275489330291748,0.002800201065838337,0.0,0.1899999976158142,-0.9524999856948853,0.8999999761581421,-0.10999999940395355,0.45500001311302185,-0.25,0.0,0.0,0.0,30.030886950252853,0.0,0.0,0.0,0.0,74.739,-0.38,1033.294,-0.6237218557794142,-27.736199312928996,-179.79690630946897
35.54141020774841,0.0,0.0,-144.66594180524302,0.0,0.0,0.0,0.0,24,26,31,26,31,28,0,1.509369078229851e-18,-12.271260261535645,-7.227877140045166,-0.08960696309804916,0.676940381526947,0.0035236647818237543,0.0,0.25999999046325684,-1.6649999618530273,-0.9975000023841858,-0.07999999821186066,0.19499999284744263,-0.25,0.0,0.0,0.0,0.0,0.0,0.0,0.0,0.0,138.146,-0.304,1026.084,-0.6532864780081646,-35.31098784345604,-179.74528281212767
36.042027711868286,0.0,0.0,-141.53593066622284,0.0,0.0,0.0,0.0,24,26,31,26,31,28,0,-0.0003537348529789597,-5.142250061035156,-1.8207277059555054,-0.09593313187360764,0.4056650698184967,0.0037535959854722023,0.0,0.3050000071525574,-0.7674999833106995,0.8999999761581421,-0.057500001043081284,0.012500000186264515,-0.25999999046325684,0.0,0.0,0.0,30.02887887463687,0.0,0.0,0.0,0.0,163.971,-0.261,1020.671,-0.6689282258152361,-38.4409416866967,-179.7209894016141
36.542720556259155,0.0,0.0,-123.51864254475946,0.0,0.0,0.0,0.0,24,26,31,26,31,28,0,-0.0002273691789014265,-21.222623825073242,-12.578803062438965,-0.12880566716194153,-1.0762468576431274,0.005046261008828878,0.0,0.2775000035762787,-2.612499952316284,-0.9775000214576721,-0.029999999329447746,-0.16750000417232513,-0.25,0.0,0.0,0.0,30.02887887463687,0.0,0.0,0.0,0.0,303.819,0.107,962.992,-0.8280386055230657,-56.45771414614447,-179.51581321517776
37.04331564903259,0.0,0.0,-111.50709803185738,0.0,0.0,0.0,0.0,24,26,31,26,31,28,0,-0.00012986696674488485,-25.42447853088379,-16.203027725219727,-0.14384309947490692,-2.015556573867798,0.005637586582452059,0.0,0.1899999976158142,-3.1575000286102295,-1.6100000143051147,-0.007499999832361937,-0.28999999165534973,-0.23999999463558197,0.0,0.0,0.0,30.02887887463687,0.0,0.0,0.0,0.0,384.091,0.452,901.559,-1.0973287692345526,-68.46851381391289,-179.21827623216635
37.54393720626831,0.0,0.0,-93.48975261461447,0.0,0.0,0.0,0.0,24,26,31,26,31,28,0,2.5641225875006057e-05,-30.006900787353516,-20.543502807617188,-0.15444304049015045,-3.249140977859497,0.006054413504898548,0.0,0.09000000357627869,-3.984999895095825,-2.367500066757202,0.019999999552965164,-0.4625000059604645,-0.21250000596046448,0.0,0.0,0.0,30.02887887463687,0.0,0.0,0.0,0.0,476.304,1.084,781.638,-5.059904880359326,-86.47566058240245,-175.21507741336677
38.04456424713135,0.0,0.0,-90.84022388259102,0.0,0.0,0.0,0.0,24,26,31,26,31,28,0,-4.126476305709331e-19,-30.31533432006836,-18.780075073242188,-0.15492090582847595,-3.3895106315612793,0.006092041730880737,0.0,0.16249999403953552,-4.462500095367432,-3.2774999141693115,0.03999999910593033,-0.5799999833106995,-0.20000000298023224,0.0,0.0,0.0,0.0,0.0,0.0,0.0,0.0,486.522,1.186,761.777,-19.004036036237686,-89.0892075648917,-161.26475831330103
38.5447895526886,0.0,0.0,-82.20511965639486,0.0,0.0,0.0,0.0,24,26,31,26,31,28,0,0.00012224943202454597,-31.648147583007812,-19.93359375,-0.1533631831407547,-3.867079019546509,0.006012024357914925,0.0,0.23999999463558197,-3.8299999237060547,-2.262500047683716,0.07000000029802322,-0.5400000214576721,-0.17000000178813934,0.0,0.0,0.0,29.969398172249814,0.0,0.0,0.0,0.0,513.275,1.525,694.144,-178.14873591599562,-82.22213650291025,-2.1015518967603466
39.04539513587952,0.0,0.0,-70.2173528919907,0.0,0.0,0.0,0.0,24,26,31,26,31,28,0,0.00021972251124680042,-32.2647819519043,-22.81291961669922,-0.14571668207645416,-4.360376834869385,0.005711336620151997,0.0,0.11999999731779099,-4.4375,-2.765000104904175,0.07999999821186066,-0.46000000834465027,-0.15000000596046448,0.0,0.0,0.0,29.969398172249814,0.0,0.0,0.0,0.0,532.992,2.01,595.208,-179.44516751903814,-70.23775018949736,-0.778076685787658
39.545998334884644,0.0,0.0,-52.23570274538446,0.0,0.0,0.0,0.0,24,26,31,26,31,28,0,0.00034674422931857407,-30.96933937072754,-21.810169219970703,-0.12249573320150375,-4.741190433502197,0.004798206500709057,0.0,0.12999999523162842,-4.577499866485596,-2.5899999141693115,0.05999999865889549,-0.4025000035762787,-0.12999999523162842,0.0,0.0,0.0,29.969398172249814,0.0,0.0,0.0,0.0,523.212,2.721,444.547,-179.83495070706564,-52.25724595848138,-0.34578002936145186
40.046605587005615,0.0,0.0,-48.875247981162666,0.0,0.0,0.0,0.0,24,26,31,26,31,28,0,-7.116219093362059e-18,-30.203481674194336,-17.089725494384766,-0.11671122908592224,-4.738287925720215,0.004589500837028027,0.0,0.2574999928474426,-4.347499847412109,-2.9825000762939453,0.029999999329447746,-0.46000000834465027,-0.10999999940395355,0.0,0.0,0.0,0.0,0.0,0.0,0.0,0.0,516.175,2.846,417.107,-179.8684687380808,-48.8968484900391,-0.30389681453738865
40.54725456237793,0.0,0.0,-56.06518076070034,0.0,0.0,0.0,0.0,24,26,31,26,31,28,0,0.0003232475137338042,-31.437721252441406,-21.608203887939453,-0.1281803399324417,-4.701395511627197,0.005021773744374514,0.0,0.1599999964237213,-4.204999923706055,-5.147500038146973,-6.230259363970703e-15,-0.5799999833106995,-0.08500000089406967,0.0,0.0,0.0,-29.946759510245805,0.0,0.0,0.0,0.0,529.255,2.574,476.255,-179.7879108720854,-56.08655208645872,-0.40215907640232484
41.047868967056274,0.0,0.0,-63.734278144305925,0.0,0.0,0.0,0.0,24,26,31,26,31,28,0,-2.1889355881600344e-18,-31.879484176635742,-25.254974365234375,-0.1389404833316803,-4.52857780456543,0.00546363415196538,0.0,0.12999999523162842,-3.7825000286102295,-4.40749979019165,-0.029999999329447746,-0.6600000262260437,-0.07500000298023224,0.0,0.0,0.0,0.0,0.0,0.0,0.0,0.0,534.932,2.271,540.614,-179.6495988603408,-63.75524839960771,-0.5587484418115788
41.5480637550354,0.0,0.0,-66.62020926260037,0.0,0.0,0.0,0.0,24,26,31,26,31,28,0,0.000249644712312147,-32.21165084838867,-27.617931365966797,-0.1419004499912262,-4.479173183441162,0.005561227444559336,0.0,0.20499999821186066,-4.367499828338623,-6.197500228881836,-0.07000000029802322,-0.75,-0.05000000074505806,0.0,0.0,0.0,-30.002709004831967,0.0,0.0,0.0,0.0,534.832,2.155,564.942,-179.57293710735232,-66.6409503347841,-0.6420565052236006
42.04866123199463,0.0,0.0,-78.62126864785156,0.0,0.0,0.0,0.0,24,26,31,26,31,28,0,0.00015447175246663392,-31.973648071289062,-24.008031845092773,-0.15164102613925934,-4.043869972229004,0.00594426179304719,0.0,0.2150000035762787,-4.650000095367432,-5.567500114440918,-0.10000000149011612,-0.7475000023841858,-0.029999999329447746,0.0,0.0,0.0,-30.002709004831967,0.0,0.0,0.0,0.0,521.335,1.669,665.029,-178.82482611425,-78.64006166353185,-1.4174402893741436
42.54883408546448,0.0,0.0,-96.74289238380827,0.0,0.0,0.0,0.0,24,26,31,26,31,28,0,-6.064807962502528e-07,-29.40138053894043,-22.905006408691406,-0.1537168323993683,-3.0618832111358643,0.0060258898884058,0.0,0.23999999463558197,-3.5374999046325684,-5.375,-0.14000000059604645,-0.6399999856948853,2.246466901389965e-16,0.0,0.0,0.0,-30.002709004831967,0.0,0.0,0.0,0.0,462.519,0.962,805.345,-2.781194433344529,-83.22830768693949,-177.50106442437973
43.04953956604004,0.0,0.0,-108.74400906483898,0.0,0.0,0.0,0.0,24,26,31,26,31,28,0,-0.00010424443462397903,-26.341726303100586,-17.56178092956543,-0.1466374397277832,-2.2382750511169434,0.0057475026696920395,0.0,0.26249998807907104,-3.200000047683716,-4.442500114440918,-0.17000000178813934,-0.5199999809265137,0.007499999832361937,0.0,0.0,0.0,-30.002709004831967,0.0,0.0,0.0,0.0,400.615,0.541,885.142,-1.2097430886392202,-71.23131630203372,-179.09955937701523
43.55014705657959,0.0,0.0,-126.74559814271576,0.0,0.0,0.0,0.0,24,26,31,26,31,28,0,-0.0002497908426448703,-20.05972671508789,-11.975030899047852,-0.12415849417448044,-0.8338191509246826,0.004863550420850515,0.0,0.28999999165534973,-2.8324999809265137,-3.4674999713897705,-0.20749999582767487,-0.3149999976158142,0.019999999552965164,0.0,0.0,0.0,-30.002709004831967,0.0,0.0,0.0,0.0,280.216,0.026,976.514,-0.7867856442736464,-53.23087313974719,-179.5649156982205
44.050766468048096,0.0,0.0,-138.7467148237465,0.0,0.0,0.0,0.0,24,26,31,26,31,28,0,-0.0003340303956065327,-15.010308265686035,-8.751906394958496,-0.10222110897302628,0.15550455451011658,0.004000894259661436,0.0,0.3100000023841858,-2.505000114440918,-2.9049999713897705,-0.23250000178813934,-0.16249999403953552,0.019999999552965164,0.0,0.0,0.0,-30.002709004831967,0.0,0.0,0.0,0.0,186.704,-0.217,1014.665,-0.6849710440788992,-41.23010023339356,-179.69744083623425
44.55125880241394,0.0,0.0,-156.74830390162327,0.0,0.0,0.0,0.0,24,26,31,26,31,28,0,-0.0004320321313571185,-6.693745136260986,-0.30015602707862854,-0.06127605214715004,1.6113193035125732,0.0023907891009002924,0.0,0.3400000035762787,-1.2575000524520874,-1.4299999475479126,-0.27000001072883606,0.05999999865889549,0.009999999776482582,0.0,0.0,0.0,-30.002709004831967,0.0,0.0,0.0,0.0,36.748,-0.407,1033.589,-0.6105438264914053,-23.22879763441432,-179.82406450895817
45.05189299583435,0.0,0.0,-168.74942058265398,0.0,0.0,0.0,0.0,24,26,31,26,31,28,0,-0.00047429741243831813,-1.0077892541885376,4.785219192504883,-0.030359815806150436,2.501223564147949,0.001175052602775395,0.0,0.32749998569488525,-0.3799999952316284,-0.5425000190734863,-0.30000001192092896,0.20999999344348907,1.9168694409543718e-16,0.0,0.0,0.0,-30.002709004831967,0.0,0.0,0.0,0.0,-63.311,-0.408,1019.868,-0.5873390357886069,-11.227910136501665,-179.88835037357185
45.552507400512695,0.0,0.0,-173.67548252207075,0.0,0.0,0.0,0.0,24,26,31,26,31,28,0,5.641965796689038e-19,1.2551323175430298,6.2985148429870605,-0.01706782914698124,2.868361711502075,0.0006711677997373044,0.0,0.28999999165534973,0.22499999403953552,0.9775000214576721,-0.28999999165534973,0.4675000011920929,1.9168694409543718e-16,0.0,0.0,0.0,0.0,0.0,0.0,0.0,0.0,-103.166,-0.379,1008.235,-0.5820105282938902,-6.301848197084898,-179.91264378408536
46.052796840667725,0.0,0.0,-167.18667819643468,0.0,0.0,0.0,0.0,24,26,31,26,31,28,0,-0.00047093137982301414,-1.6302368640899658,1.2900967597961426,-0.03385773301124573,2.407872438430786,0.0013125911355018616,0.0,0.26499998569488525,-0.019999999552965164,1.4424999952316284,-0.2574999928474426,0.6175000071525574,1.9168694409543718e-16,0.0,0.0,0.0,30.012319080994175,0.0,0.0,0.0,0.0,-50.475,-0.413,1022.838,-0.589516275410104,-12.790595226941472,-179.88044355599902
46.55343747138977,0.0,0.0,-149.17930224482706,0.0,0.0,0.0,0.0,24,26,31,26,31,28,0,-0.0003970336401835084,-10.146489143371582,-3.3798532485961914,-0.07891687005758286,1.0300596952438354,0.0030844768043607473,0.0,0.23000000417232513,-1.2400000095367432,0.6274999976158142,-0.18250000476837158,0.48249998688697815,-0.009999999776482582,0.0,0.0,0.0,30.012319080994175,0.0,0.0,0.0,0.0,100.477,-0.354,1031.39,-0.6344361665483605,-30.79774199543104,-179.77708196975743
47.054046630859375,0.0,0.0,-137.17440404234847,0.0,0.0,0.0,0.0,24,26,31,26,31,28,0,-0.0003255453775636852,-15.596616744995117,-8.723077774047852,-0.10489657521247864,0.04525507986545563,0.00410609133541584,0.0,0.20250000059604645,-1.9924999475479126,-0.3050000071525574,-0.13750000298023224,0.3149999976158142,-0.019999999552965164,0.0,0.0,0.0,30.012319080994175,0.0,0.0,0.0,0.0,199.382,-0.19,1010.793,-0.6949978054936886,-42.80241101479156,-179.683231482915
47.55465841293335,0.0,0.0,-119.16697079496134,0.0,0.0,0.0,0.0,24,26,31,26,31,28,0,-0.0001927656412590295,-22.837055206298828,-14.524703025817871,-0.1349465250968933,-1.4240696430206299,0.005287762265652418,0.0,0.16500000655651093,-2.9625000953674316,-1.3174999952316284,-0.07000000029802322,0.05999999865889549,-0.029999999329447746,0.0,0.0,0.0,30.012319080994175,0.0,0.0,0.0,0.0,334.371,0.223,942.696,-0.8990853721192879,-60.80915671282453,-179.4343959124897
48.055286169052124,0.0,0.0,-107.16207259248277,0.0,0.0,0.0,0.0,24,26,31,26,31,28,0,-9.285976557293907e-05,-26.73299789428711,-16.644804000854492,-0.14775578677654266,-2.3358922004699707,0.005791467614471912,0.0,0.14000000059604645,-3.617500066757202,-1.6875,-0.014999999664723873,-0.10499999672174454,-0.029999999329447746,0.0,0.0,0.0,30.012319080994175,0.0,0.0,0.0,0.0,409.712,0.594,875.39,-1.2906447293116925,-72.81302359127187,-179.01504810223344
48.5559024810791,0.0,0.0,-89.15469664087516,0.0,0.0,0.0,0.0,24,26,31,26,31,28,0,6.319519889075309e-05,-30.75599479675293,-19.85360336303711,-0.15473823249340057,-3.502708673477173,0.006066042929887772,0.0,0.10999999940395355,-4.28000020980835,-2.247499942779541,0.042500000447034836,-0.3700000047683716,-0.042500000447034836,0.0,0.0,0.0,30.012319080994175,0.0,0.0,0.0,0.0,492.54,1.251,748.904,-160.76788931336355,-89.12690818781131,-19.498727796553634
49.056108713150024,0.0,0.0,-77.14974114261707,0.0,0.0,0.0,0.0,24,26,31,26,31,28,0,0.00016472750576213002,-32.05299758911133,-23.062402725219727,-0.15094205737113953,-4.097031116485596,0.005916763562709093,0.0,0.18000000715255737,-4.525000095367432,-2.807499885559082,0.09000000357627869,-0.5400000214576721,-0.05000000074505806,0.0,0.0,0.0,30.012319080994175,0.0,0.0,0.0,0.0,524.114,1.729,652.939,-178.99270274822334,-77.16899252453346,-1.2462405001890535
49.556522607803345,0.0,0.0,-66.5792427802485,0.0,0.0,0.0,0.0,24,26,31,26,31,28,0,1.489511904521995e-17,-31.99710464477539,-18.264375686645508,-0.14217239618301392,-4.453096866607666,0.005590724293142557,0.0,0.07999999821186066,-4.614999771118164,-3.1875,0.057500001043081284,-0.7574999928474426,-0.05000000074505806,0.0,0.0,0.0,0.0,0.0,0.0,0.0,0.0,534.842,2.157,564.597,-179.5741403187221,-66.60004114821176,-0.6407387022947997
50.05677008628845,0.0,0.0,-66.70162656528846,0.0,0.0,0.0,0.0,24,26,31,26,31,28,0,0.010112738236784935,-29.831750869750977,-19.558855056762695,-0.1722683608531952,-5.757236003875732,0.007358717266470194,0.0,0.20250000059604645,-4.452499866485596,-4.297500133514404,0.029999999329447746,-0.7799999713897705,-0.057500001043081284,0.0,0.0,0.0,-8.29165584577778,0.0,0.0,0.0,0.0,534.811,2.152,565.628,-179.57047338883325,-66.7224249332517,-0.6446921110812023
50.55738043785095,0.0,0.0,-84.35290924722227,0.0,0.0,0.0,0.0,24,26,31,26,31,28,0,0.00010643702989909798,-31.442129135131836,-26.685598373413086,-0.15396644175052643,-3.7725110054016113,0.006035692524164915,0.0,0.18000000715255737,-4.46750020980835,-6.034999847412109,-6.2406677048265635e-15,-0.7174999713897705,-0.07000000029802322,0.0,0.0,0.0,-30.012681081020183,0.0,0.0,0.0,0.0,507.578,1.44,711.331,-177.32992193097417,-84.36786344567518,-2.925121431481392
51.057827949523926,0.0,0.0,-96.35797933703938,0.0,0.0,0.0,0.0,24,26,31,26,31,28,0,2.744442326729768e-06,-29.482606887817383,-20.78369903564453,-0.1538332998752594,-3.086296558380127,0.006030456628650427,0.0,0.1550000011920929,-4.307499885559082,-5.005000114440918,-0.029999999329447746,-0.6200000047683716,-0.07750000059604645,0.0,0.0,0.0,-30.012681081020183,0.0,0.0,0.0,0.0,464.22,0.977,802.581,-2.9298196854014646,-83.61281966325178,-177.35163703140964
51.558459520339966,0.0,0.0,-114.36564176754456,0.0,0.0,0.0,0.0,24,26,31,26,31,28,0,-0.00015159521717578173,-24.578643798828125,-17.474624633789062,-0.1410841941833496,-1.816830039024353,0.005529116839170456,0.0,0.11999999731779099,-3.8125,-4.427499771118164,-0.07249999791383743,-0.4399999976158142,-0.07999999821186066,0.0,0.0,0.0,-30.012681081020183,0.0,0.0,0.0,0.0,366.184,0.364,917.685,-1.0083484236507358,-65.61025655712326,-179.31384559239416
52.059059858322144,0.0,0.0,-126.37071185736168,0.0,0.0,0.0,0.0,24,26,31,26,31,28,0,-0.00024712650338187814,-20.208057403564453,-13.349023818969727,-0.12476062774658203,-0.8643984794616699,0.004887216258794069,0.0,0.0925000011920929,-3.1600000858306885,-3.7074999809265137,-0.10000000149011612,-0.3199999928474426,-0.08749999850988388,0.0,0.0,0.0,-30.012681081020183,0.0,0.0,0.0,0.0,282.997,0.035,975.012,-0.7911974192961538,-53.60575942510128,-179.55958719072578
52.559433698654175,0.0,0.0,-144.37831699208735,0.0,0.0,0.0,0.0,24,26,31,26,31,28,0,-0.00036897408426739275,-12.476374626159668,-5.971648693084717,-0.09031720459461212,0.619676947593689,0.0035327780060470104,0.0,0.05999999865889549,-2.132499933242798,-2.4200000762939453,-0.14499999582767487,-0.10000000149011612,-0.10000000149011612,0.0,0.0,0.0,-30.012681081020183,0.0,0.0,0.0,0.0,140.532,-0.3,1025.645,-0.6546615767164786,-35.59861265661172,-179.74316286828568
53.06008577346802,0.0,0.0,-147.5057498210294,0.0,0.0,0.0,0.0,24,26,31,26,31,28,0,1.1985984594670208e-18,-10.973146438598633,-5.929764270782471,-0.08323471993207932,0.908664882183075,0.00327308545820415,0.0,0.03500000014901161,-1.9275000095367432,-1.412500023841858,-0.17000000178813934,0.0949999988079071,-0.10000000149011612,0.0,0.0,0.0,0.0,0.0,0.0,0.0,0.0,114.492,-0.337,1029.769,-0.640967885412852,-32.47123712344914,-179.76568010963433
53.5607271194458,0.0,0.0,-155.55746842022336,0.0,0.0,0.0,0.0,24,26,31,26,31,28,0,-0.00042724356171675026,-7.258109092712402,-0.3124678134918213,-0.06421858072280884,1.5184153318405151,0.0025064791552722454,0.0,0.007499999832361937,-0.6625000238418579,-1.4325000047683716,-0.20999999344348907,0.3100000023841858,-0.10999999940395355,0.0,0.0,0.0,-30.019340515460947,0.0,0.0,0.0,0.0,46.785,-0.401,1033.802,-0.6137523901441378,-24.419633115814225,-179.81713171963708
54.06137132644653,0.0,0.0,-167.5652314116776,0.0,0.0,0.0,0.0,24,26,31,26,31,28,0,-0.0004715477698482573,-1.5649856328964233,6.20540714263916,-0.033492475748062134,2.4176881313323975,0.0012982191983610392,0.0,0.004999999888241291,-0.30000001192092896,-0.29499998688697815,-0.23999999463558197,0.3700000047683716,-0.11249999701976776,0.0,0.0,0.0,-30.019340515460947,0.0,0.0,0.0,0.0,-53.591,-0.412,1022.151,-0.5890006133944863,-12.41209930747805,-179.88233431672296
54.56197118759155,0.0,0.0,-185.315406609051,0.0,0.0,0.0,0.0,24,26,31,26,31,28,0,-0.0005371592123992741,4.43874979019165,9.549893379211426,0.0545235350728035,2.5199999809265137,-0.002936634933575988,0.0,0.004999999888241291,0.6625000238418579,0.5400000214576721,-0.2750000059604645,0.44999998807907104,-0.12999999523162842,0.0,0.0,0.0,-16.11948379030375,0.0,0.0,0.0,0.0,-192.272,-0.244,967.523,-0.5776560490508961,5.337904002556801,-179.9682779859926
55.0625741481781,0.0,0.0,-185.58332167405416,0.0,0.0,0.0,0.0,24,26,31,26,31,28,0,-6.384283365260837e-18,6.538555145263672,11.581937789916992,0.015074355527758598,3.5859227180480957,-0.0005927772726863623,0.0,-8.31799906730879e-16,0.862500011920929,1.7999999523162842,-0.30000001192092896,0.5099999904632568,-0.12999999523162842,0.0,0.0,0.0,0.0,0.0,0.0,0.0,0.0,-194.218,-0.239,966.377,-0.5776560490508961,5.605819067559974,-179.96953849314187
55.56319832801819,0.0,0.0,-174.3463588043894,0.0,0.0,0.0,0.0,24,26,31,26,31,28,0,0.0014262381009757519,4.823999881744385,9.344441413879395,-0.03695853799581528,1.9388926029205322,0.0018702021334320307,0.0,0.02250000089406967,0.7200000286102295,2.757499933242798,-0.25,0.6000000238418579,-0.14000000059604645,0.0,0.0,0.0,25.005971419387834,0.0,0.0,0.0,0.0,-108.512,-0.373,1006.387,-0.5814375704987594,-5.630971914766218,-179.91585234773814
56.06391143798828,0.0,0.0,-173.67886297306202,0.0,0.0,0.0,0.0,24,26,31,26,31,28,0,1.5258753639557701e-18,1.2566726207733154,6.300055027008057,-0.01705879718065262,2.8685832023620605,0.0006708126165904105,0.0,0.03999999910593033,-0.22499999403953552,0.5049999952316284,-0.20749999582767487,0.5199999809265137,-0.14749999344348907,0.0,0.0,0.0,0.0,0.0,0.0,0.0,0.0,-103.193,-0.378,1008.225,-0.5820105282938902,-6.298525041873139,-179.91264378408536
56.56451392173767,0.0,0.0,-183.6764608360793,0.0,0.0,0.0,0.0,24,26,31,26,31,28,0,-0.0005004983395338058,5.791187763214111,7.029715538024902,0.009798049926757812,3.449934959411621,-0.0004041991487611085,0.0,0.07249999791383743,0.18000000715255737,-0.1525000035762787,-0.13750000298023224,0.4000000059604645,-0.15000000596046448,0.0,0.0,0.0,-30.083643331402033,0.0,0.0,0.0,0.0,-180.253,-0.268,974.339,-0.5775987532713829,3.699015525364595,-179.96048575997878
57.06479001045227,0.0,0.0,-188.74037642100453,0.0,0.0,0.0,0.0,24,26,31,26,31,28,0,1.089545035459561e-18,7.864645004272461,6.503550052642822,0.023543914780020714,3.7514071464538574,-0.0009258305071853101,0.0,0.09000000357627869,0.9800000190734863,1.1349999904632568,-0.08749999850988388,0.3799999952316284,-0.1574999988079071,0.0,0.0,0.0,0.0,0.0,0.0,0.0,0.0,-216.733,-0.187,952.187,-0.5785154857435922,8.76281651873081,-179.98472187471282
57.56540489196777,0.0,0.0,-183.0953670402576,0.0,0.0,0.0,0.0,24,26,31,26,31,28,0,-0.0004974863259121776,5.64176607131958,12.064496040344238,0.008877081796526909,3.4308078289031982,-0.000367875793017447,0.0,0.11999999731779099,1.5575000047683716,3.322499990463257,-0.012500000186264515,0.4300000071525574,-0.17000000178813934,0.0,0.0,0.0,29.997921042223787,0.0,0.0,0.0,0.0,-175.945,-0.276,976.672,-0.5775987532713829,3.117921729542914,-179.95767826678266
58.066017150878906,0.0,0.0,-171.09619841573033,0.0,0.0,0.0,0.0,24,26,31,26,31,28,0,-0.00048058456741273403,0.20310869812965393,6.60667085647583,-0.02347322180867195,2.679839611053467,0.0009042532765306532,0.0,0.14000000059604645,0.3400000035762787,2.369999885559082,0.019999999552965164,0.44999998807907104,-0.17000000178813934,0.0,0.0,0.0,29.997921042223787,0.0,0.0,0.0,0.0,-82.422,-0.396,1014.753,-0.5845315425924659,-8.881132303425325,-179.899981416813
58.56661105155945,0.0,0.0,-153.09747412682918,0.0,0.0,0.0,0.0,24,26,31,26,31,28,0,-0.00041633856017142534,-8.307445526123047,-5.053879261016846,-0.0696290135383606,1.3435734510421753,0.0027192633133381605,0.0,0.16750000417232513,-1.0774999856948853,0.33500000834465027,0.07000000029802322,0.4749999940395355,-0.18000000715255737,0.0,0.0,0.0,29.997921042223787,0.0,0.0,0.0,0.0,67.522,-0.386,1033.58,-0.6209716583627862,-26.879627409208414,-179.80223481696368
59.067214488983154,0.0,0.0,-141.0983055023019,0.0,0.0,0.0,0.0,24,26,31,26,31,28,0,-0.00035030802246183157,-13.854689598083496,-8.305654525756836,-0.09685920923948288,0.36961400508880615,0.003790051443502307,0.0,0.1899999976158142,-1.6649999618530273,-0.23250000178813934,0.06499999761581421,0.38499999046325684,-0.1850000023841858,0.0,0.0,0.0,29.997921042223787,0.0,0.0,0.0,0.0,167.557,-0.254,1019.801,-0.6712773527752726,-38.87856685061763,-179.7174370632843
59.567830324172974,0.0,0.0,-123.09952391762127,0.0,0.0,0.0,0.0,24,26,31,26,31,28,0,-0.000223648312385194,-21.382171630859375,-13.118854522705078,-0.12943057715892792,-1.1100037097930908,0.005070873536169529,0.0,0.2175000011920929,-2.7774999141693115,-1.0724999904632568,0.03500000014901161,0.17000000178813934,-0.20000000298023224,0.0,0.0,0.0,29.997921042223787,0.0,0.0,0.0,0.0,306.828,0.117,961.139,-0.8340546623719394,-56.876832773282665,-179.50876583429766
60.06847548484802,0.0,0.0,-111.10035529309401,0.0,0.0,0.0,0.0,24,26,31,26,31,28,0,-0.0001261794095626101,-25.55182456970215,-17.08687973022461,-0.14424532651901245,-2.046018123626709,0.005653442349284887,0.0,0.23999999463558197,-3.4100000858306885,-1.7649999856948853,0.019999999552965164,0.019999999552965164,-0.20000000298023224,0.0,0.0,0.0,29.997921042223787,0.0,0.0,0.0,0.0,386.573,0.465,899.193,-1.1119964887899019,-68.87519925689675,-179.20269178013876
60.56879806518555,0.0,0.0,-98.01589001302993,0.0,0.0,0.0,0.0,24,26,31,26,31,28,0,-1.851226074990613e-18,-28.927631378173828,-18.36465072631836,-0.1534237414598465,-2.948629140853882,0.0060331677086651325,0.0,0.27250000834465027,-4.510000228881836,-3.2049999237060547,-0.009999999776482582,-0.23000000417232513,-0.20999999344348907,0.0,0.0,0.0,0.0,0.0,0.0,0.0,0.0,456.763,0.915,814.402,-2.3911247664194644,-81.95634138174906,-177.89399888028046
61.06946802139282,0.0,0.0,-98.01589001302993,0.0,0.0,0.0,0.0,24,26,31,26,31,28,0,-1.851226074990613e-18,-28.927631378173828,-18.42194938659668,-0.1534237414598465,-2.948629140853882,0.0060331677086651325,0.0,0.2824999988079071,-3.994999885559082,-3.2149999141693115,-0.042500000447034836,-0.4350000023841858,-0.2150000035762787,0.0,0.0,0.0,0.0,0.0,0.0,0.0,0.0,456.763,0.915,814.402,-2.3911247664194644,-81.95634138174906,-177.89399888028046
61.57008171081543,0.0,0.0,-81.68905657032053,0.0,0.0,0.0,0.0,24,26,31,26,31,28,0,0.006972763687372208,-28.759750366210938,-21.61370849609375,-0.1714874505996704,-4.684543609619141,0.007084639742970467,0.0,0.2549999952316284,-4.292500019073486,-2.617500066757202,-0.07999999821186066,-0.5924999713897705,-0.2199999988079071,0.0,0.0,0.0,26.3398902888184,0.0,0.0,0.0,0.0,514.548,1.546,689.984,-178.28217778648158,-81.70641719151298,-1.966906814904603
62.070740699768066,0.0,0.0,-80.91877211054666,0.0,0.0,0.0,0.0,24,26,31,26,31,28,0,-4.5755375642181906e-18,-31.57849884033203,-20.312850952148438,-0.1529955267906189,-3.910331964492798,0.00601632846519351,0.0,0.11999999731779099,-4.375,-3.5450000762939453,-0.10999999940395355,-0.6700000166893005,-0.2224999964237213,0.0,0.0,0.0,0.0,0.0,0.0,0.0,0.0,516.377,1.577,683.753,-178.45309109676913,-80.93664839375474,-1.7942746312316857
62.57136011123657,0.0,0.0,-91.00867347435947,0.0,0.0,0.0,0.0,24,26,31,26,31,28,0,4.923127926304005e-05,-30.49401092529297,-22.345294952392578,-0.15473203361034393,-3.410548686981201,0.006065799854695797,0.0,0.17000000178813934,-4.255000114440918,-5.277500152587891,-0.15000000596046448,-0.6675000190734863,-0.23749999701976776,0.0,0.0,0.0,-30.011267231861993,0.0,0.0,0.0,0.0,485.9,1.179,763.053,-16.11564119942418,-88.92832101601897,-164.15355422057112
63.07197690010071,0.0,0.0,-103.01317060638146,0.0,0.0,0.0,0.0,24,26,31,26,31,28,0,-5.507834066520445e-05,-27.928274154663086,-19.594894409179688,-0.15084436535835266,-2.6459901332855225,0.0059129237197339535,0.0,0.23999999463558197,-3.6524999141693115,-4.797500133514404,-0.17499999701976776,-0.5799999833106995,-0.24250000715255737,0.0,0.0,0.0,-30.011267231861993,0.0,0.0,0.0,0.0,432.26,0.736,848.659,-1.5974636286042483,-76.96112343646,-178.69888999088025
63.572580337524414,0.0,0.0,-121.13995096249434,0.0,0.0,0.0,0.0,24,26,31,26,31,28,0,-0.00020657526329159737,-22.20590591430664,-15.254420280456543,-0.13259273767471313,-1.2864067554473877,0.005195204634219408,0.0,0.23250000178813934,-2.7725000381469727,-4.039999961853027,-0.2199999988079071,-0.3824999928474426,-0.25,0.0,0.0,0.0,-30.011267231861993,0.0,0.0,0.0,0.0,320.711,0.169,952.185,-0.8643068339548468,-58.836291136850576,-179.4738727045742
64.07279896736145,0.0,0.0,-133.14450539029582,0.0,0.0,0.0,0.0,24,26,31,26,31,28,0,-0.00029648165218532085,-17.43568229675293,-11.372344970703125,-0.1130821704864502,-0.30800676345825195,0.004427979234606028,0.0,0.1850000023841858,-2.2950000762939453,-3.362499952316284,-0.25,-0.22750000655651093,-0.25,0.0,0.0,0.0,-30.011267231861993,0.0,0.0,0.0,0.0,231.346,-0.114,999.298,-0.7246197235019521,-46.83219507528518,-179.64318173303536
64.57340168952942,0.0,0.0,-151.15125108832882,0.0,0.0,0.0,0.0,24,26,31,26,31,28,0,-0.00040594948222860694,-9.336036682128906,-3.063845157623291,-0.07485451549291611,1.169323444366455,0.0029247316997498274,0.0,0.10999999940395355,-1.5800000429153442,-1.912500023841858,-0.28999999165534973,-7.911206412192229e-15,-0.25,0.0,0.0,0.0,-30.011267231861993,0.0,0.0,0.0,0.0,83.91,-0.371,1032.774,-0.6273314898887383,-28.825793151929282,-179.7900308159274
65.07399034500122,0.0,0.0,-163.1557482203508,0.0,0.0,0.0,0.0,24,26,31,26,31,28,0,-0.0004573461483232677,-3.651085615158081,2.078829765319824,-0.045020103454589844,2.097888946533203,0.001751536619849503,0.0,0.0625,-0.9674999713897705,-1.0149999856948853,-0.3050000071525574,0.14000000059604645,-0.23499999940395355,0.0,0.0,0.0,-30.011267231861993,0.0,0.0,0.0,0.0,-17.038,-0.42,1028.873,-0.5962198816131347,-16.82146790724584,-179.85953059647676
65.57457780838013,0.0,0.0,-181.16249391838375,0.0,0.0,0.0,0.0,24,26,31,26,31,28,0,-0.0004964700201526284,4.6848907470703125,9.714055061340332,0.0030057630501687527,3.3051111698150635,-0.00013701138959731907,0.0,-0.0024999999441206455,0.32499998807907104,0.3174999952316284,-0.28999999165534973,0.3675000071525574,-0.20999999344348907,0.0,0.0,0.0,-30.011267231861993,0.0,0.0,0.0,0.0,-161.451,-0.302,984.118,-0.5778852321689483,1.1850486076690816,-179.94851094206058
66.07520961761475,0.0,0.0,-182.84922437146938,0.0,0.0,0.0,0.0,24,26,31,26,31,28,0,4.766654646218847e-19,5.361579418182373,10.404962539672852,0.007701634895056486,3.433795690536499,-0.0003028556820936501,0.0,-0.029999999329447746,0.7225000262260437,1.3200000524520874,-0.25999999046325684,0.5199999809265137,-0.19249999523162842,0.0,0.0,0.0,0.0,0.0,0.0,0.0,0.0,-174.113,-0.28,977.648,-0.5775987532713829,2.871779060754712,-179.9565323511924
66.57582139968872,0.0,0.0,-184.43110354804608,0.0,0.0,0.0,0.0,24,26,31,26,31,28,0,-3.6095002101874175e-18,6.045597076416016,2.8220250606536865,0.011970446445047855,3.5227866172790527,-0.000470720580779016,0.0,-7.103692634125025e-16,0.012500000186264515,0.4925000071525574,-0.1899999976158142,0.6650000214576721,-0.16750000417232513,0.0,0.0,0.0,0.0,0.0,0.0,0.0,0.0,-185.811,-0.257,971.244,-0.5775987532713829,4.453600941551889,-179.9640380983086
67.07642960548401,0.0,0.0,-184.1627301168068,0.0,0.0,0.0,0.0,24,26,31,26,31,28,0,-0.0007218830287456512,5.510749816894531,6.265330791473389,0.051941756159067154,5.269542694091797,-0.0028359275311231613,0.0,0.019999999552965164,0.8224999904632568,1.877500057220459,-0.14000000059604645,0.6899999976158142,-0.15000000596046448,0.0,0.0,0.0,14.137101638430297,0.0,0.0,0.0,0.0,-183.839,-0.261,972.353,-0.5775414574918698,4.185227510312611,-179.96277759115932
67.5767936706543,0.0,0.0,-177.56850155686666,0.0,0.0,0.0,0.0,24,26,31,26,31,28,0,-4.3214634556033934e-19,3.0236623287200928,8.067045211791992,-0.00657318439334631,3.1181604862213135,0.0002584810135886073,0.0,0.09000000357627869,0.14000000059604645,1.752500057220459,-0.07000000029802322,0.550000011920929,-0.12999999523162842,0.0,0.0,0.0,0.0,0.0,0.0,0.0,0.0,-133.866,-0.344,996.645,-0.5792603308772623,-2.40888645806852,-179.93137950398616
68.07743716239929,0.0,0.0,-175.2544969096718,0.0,0.0,0.0,0.0,24,26,31,26,31,28,0,0.0019511906430125237,8.15725040435791,14.124284744262695,-0.03856821358203888,1.8500187397003174,0.0020193136297166348,0.0,0.13750000298023224,1.2174999713897705,3.047499895095825,-0.019999999552965164,0.42250001430511475,-0.10750000178813934,0.0,0.0,0.0,2.7338670985583478,0.0,0.0,0.0,0.0,-115.712,-0.366,1003.786,-0.5807500211446024,-4.722891105263376,-179.9202641227606
68.57803702354431,0.0,0.0,-175.3623275667154,0.0,0.0,0.0,0.0,24,26,31,26,31,28,0,0.002252361737191677,-9.734393119812012,-0.07923388481140137,-0.04273531958460808,1.6643168926239014,0.002267313888296485,0.0,0.19750000536441803,-0.3400000035762787,0.550000011920929,0.03999999910593033,0.28999999165534973,-0.07999999821186066,0.0,0.0,0.0,-8.324289635858456,0.0,0.0,0.0,0.0,-116.565,-0.365,1003.469,-0.5806927253650893,-4.6150031524402415,-179.92077978477624
69.07864046096802,0.0,0.0,-186.9078855048376,0.0,0.0,0.0,0.0,24,26,31,26,31,28,0,-0.0005001260433346033,7.1815032958984375,8.472710609436035,0.018499504774808884,3.6264560222625732,-0.0007463315851055086,0.0,0.23999999463558197,0.41999998688697815,0.10000000149011612,0.07000000029802322,0.2800000011920929,-0.07000000029802322,0.0,0.0,0.0,-30.052005895166534,0.0,0.0,0.0,0.0,-203.759,-0.218,960.575,-0.5779425279484615,6.930325602563898,-179.97589832466784
69.57925701141357,0.0,0.0,-200.74000341176787,0.0,0.0,0.0,0.0,24,26,31,26,31,28,0,-1.4283207224000172e-17,12.514710426330566,15.041250228881836,0.0548676960170269,4.272656440734863,-0.00215759314596653,0.0,0.0925000011920929,2.762500047683716,2.625,0.03999999910593033,0.42250001430511475,-0.03999999910593033,0.0,0.0,0.0,0.0,0.0,0.0,0.0,0.0,-294.316,0.07,887.548,-0.5899173458666955,20.762328917935154,179.95504266092505
70.07992243766785,0.0,0.0,-200.74000341176787,0.0,0.0,0.0,0.0,24,26,31,26,31,28,0,-1.4283207224000172e-17,12.514710426330566,17.558094024658203,0.0548676960170269,4.272656440734863,-0.00215759314596653,0.0,-0.032499998807907104,1.6050000190734863,2.6524999141693115,0.012500000186264515,0.5699999928474426,-0.029999999329447746,0.0,0.0,0.0,0.0,0.0,0.0,0.0,0.0,-294.316,0.07,887.548,-0.5899173458666955,20.762328917935154,179.95504266092505
70.58045196533203,0.0,0.0,-185.13475301624624,0.0,0.0,0.0,0.0,24,26,31,26,31,28,0,-0.0004982564714737236,6.526010036468506,12.751875877380371,0.014376657083630562,3.544243574142456,-0.0005841406527906656,0.0,0.09000000357627869,0.9674999713897705,3.442500114440918,-0.02500000037252903,0.7300000190734863,2.1076890233118206e-16,0.0,0.0,0.0,29.999509061205814,0.0,0.0,0.0,0.0,-190.957,-0.246,968.291,-0.5775987532713829,5.157250409752052,-179.96741854929988
71.08077263832092,0.0,0.0,-173.13495413814434,0.0,0.0,0.0,0.0,24,26,31,26,31,28,0,-0.0004850207478739321,1.1500855684280396,4.357425689697266,-0.01801084727048874,2.816741466522217,0.000689451233483851,0.0,0.18000000715255737,0.2150000035762787,1.9774999618530273,-0.05000000074505806,0.6899999976158142,0.012500000186264515,0.0,0.0,0.0,29.999509061205814,0.0,0.0,0.0,0.0,-98.843,-0.383,1009.678,-0.5824688945299948,-6.842376581011317,-179.9100081782278
71.58140778541565,0.0,0.0,-155.01527845869109,0.0,0.0,0.0,0.0,24,26,31,26,31,28,0,-0.000425315200118348,-7.401173114776611,-3.077249526977539,-0.06496098637580872,1.4947776794433594,0.0025356977712363005,0.0,0.3199999928474426,-0.7875000238418579,0.6800000071525574,-0.0925000011920929,0.5049999952316284,0.019999999552965164,0.0,0.0,0.0,29.999509061205814,0.0,0.0,0.0,0.0,51.356,-0.398,1033.829,-0.615242080411478,-24.961823077346523,-179.81386586020483
72.0819981098175,0.0,0.0,-143.01547958058916,0.0,0.0,0.0,0.0,24,26,31,26,31,28,0,-0.0003620075585786253,-12.98807430267334,-6.271724700927734,-0.09276417642831802,0.5275048017501831,0.0036290183197706938,0.0,0.3149999976158142,-1.6675000190734863,0.12250000238418579,-0.11999999731779099,0.36000001430511475,0.009999999776482582,0.0,0.0,0.0,29.999509061205814,0.0,0.0,0.0,0.0,151.801,-0.282,1023.405,-0.661250591360483,-36.96145006810989,-179.7327350364143
72.58237195014954,0.0,0.0,-125.01578126343631,0.0,0.0,0.0,0.0,24,26,31,26,31,28,0,-0.00023843947565183043,-20.644975662231445,-12.030374526977539,-0.12651973962783813,-0.9550323486328125,0.004956407006829977,0.0,0.2775000035762787,-2.744999885559082,-0.8824999928474426,-0.1599999964237213,0.1274999976158142,1.8301332671555315e-16,0.0,0.0,0.0,29.999509061205814,0.0,0.0,0.0,0.0,292.964,0.069,969.431,-0.8079277869139738,-54.96063272324714,-179.53959096367572
73.08298373222351,0.0,0.0,-113.0159823853344,0.0,0.0,0.0,0.0,24,27,31,26,31,28,0,-0.00014223900507204235,-24.941997528076172,-16.915199279785156,-0.14228996634483337,-1.9014952182769775,0.005576548632234335,0.0,0.2524999976158142,-3.384999990463257,-1.7350000143051147,-0.1899999976158142,-0.02500000037252903,1.8301332671555315e-16,0.0,0.0,0.0,29.999509061205814,0.0,0.0,0.0,0.0,374.739,0.405,910.182,-1.047538736837684,-66.9598013477744,-179.2715613071135
73.58359122276306,0.0,0.0,-95.01628406818153,0.0,0.0,0.0,0.0,24,27,31,26,31,28,0,1.2323868759267498e-05,-29.708477020263672,-20.654024124145508,-0.15412867069244385,-3.1553337574005127,0.006042088847607374,0.0,0.2175000011920929,-4.117499828338623,-2.387500047683716,-0.2199999988079071,-0.2524999976158142,1.8301332671555315e-16,0.0,0.0,0.0,29.999509061205814,0.0,0.0,0.0,0.0,470.003,1.027,792.859,-3.6252185613517445,-84.95279605872425,-176.65325877492467
74.08420491218567,0.0,0.0,-84.09880246508175,0.0,0.0,0.0,0.0,24,27,31,26,31,28,0,0.008521554060280323,-29.396249771118164,-22.103206634521484,-0.17659437656402588,-4.733132839202881,0.0073826550506055355,0.0,0.1899999976158142,-4.387499809265137,-3.299999952316284,-0.2549999952316284,-0.4124999940395355,-0.009999999776482582,0.0,0.0,0.0,1.863930663409565,0.0,0.0,0.0,0.0,508.286,1.45,709.309,-177.45803529396542,-84.11404314243222,-2.796492406474522
74.5847680568695,0.0,0.0,-84.21305024943084,0.0,0.0,0.0,0.0,24,27,31,26,31,28,0,0.011358680203557014,-30.20025062561035,-14.962335586547852,-0.18407177925109863,-5.055093765258789,0.007821558974683285,0.0,0.1525000035762787,-4.507500171661377,-3.494999885559082,-0.28999999165534973,-0.6399999856948853,-0.019999999552965164,0.0,0.0,0.0,-8.273027358590218,0.0,0.0,0.0,0.0,507.969,1.445,710.219,-177.40182813426307,-84.2282336310018,-2.852928749294908
75.08541369438171,0.0,0.0,-95.73213753741798,0.0,0.0,0.0,0.0,24,27,31,26,31,28,0,8.179825272236485e-06,-29.611841201782227,-21.08724594116211,-0.15400825440883636,-3.125626802444458,0.0060373651795089245,0.0,0.13249999284744263,-4.067500114440918,-5.057499885559082,-0.3199999928474426,-0.6800000071525574,-0.029999999329447746,0.0,0.0,0.0,-29.99018926808333,0.0,0.0,0.0,0.0,466.946,1.0,798.063,-3.2138921602273265,-84.23797391351901,-177.06613216209595
75.58604502677917,0.0,0.0,-113.72627816395809,0.0,0.0,0.0,0.0,24,27,31,26,31,28,0,-0.00014606444165110588,-24.788755416870117,-18.351171493530273,-0.14178554713726044,-1.8656678199768066,0.005556724965572357,0.0,0.09000000357627869,-3.1500000953674316,-4.579999923706055,-0.2874999940395355,-0.4675000011920929,-0.029999999329447746,0.0,0.0,0.0,-29.99018926808333,0.0,0.0,0.0,0.0,370.259,0.383,914.156,-1.0263392984178437,-66.24956286493024,-179.2943650273597
76.0866768360138,0.0,0.0,-125.72235281639162,0.0,0.0,0.0,0.0,24,27,31,26,31,28,0,-0.0002418453514110297,-20.46273422241211,-14.812896728515625,-0.12578947842121124,-0.9171164631843567,0.004927702248096466,0.0,0.07000000029802322,-2.7174999713897705,-3.9625000953674316,-0.27000001072883606,-0.29750001430511475,-0.03999999910593033,0.0,0.0,0.0,-29.99018926808333,0.0,0.0,0.0,0.0,287.783,0.051,972.371,-0.7990469410894461,-54.25411846607132,-179.5501906828856
76.58734011650085,0.0,0.0,-143.71643614715222,0.0,0.0,0.0,0.0,24,27,31,26,31,28,0,-0.0003645255055744201,-12.778304100036621,-6.590346336364746,-0.09176388382911682,0.5654022693634033,0.0035896948538720608,0.0,0.03750000149011612,-2.0899999141693115,-2.5274999141693115,-0.23250000178813934,-0.05000000074505806,-0.05000000074505806,0.0,0.0,0.0,-29.99018926808333,0.0,0.0,0.0,0.0,146.011,-0.291,1024.591,-0.6578128445896981,-36.26049350154685,-179.73812083968852
77.0880343914032,0.0,0.0,-155.71251079958577,0.0,0.0,0.0,0.0,24,26,31,26,31,28,0,-0.0004271096840966493,-7.184664249420166,-0.2730214297771454,-0.06383706629276276,1.5306018590927124,0.0024915130343288183,0.0,0.009999999776482582,-1.4275000095367432,-1.4249999523162842,-0.20999999344348907,0.11500000208616257,-0.05000000074505806,0.0,0.0,0.0,-29.99018926808333,0.0,0.0,0.0,0.0,45.478,-0.402,1033.786,-0.6132940239080332,-24.264590736451826,-179.81804845210928
77.5886435508728,0.0,0.0,-173.7066514261259,0.0,0.0,0.0,0.0,24,26,31,26,31,28,0,-0.000485374650452286,1.3033900260925293,6.517028331756592,-0.017119886353611946,2.8386945724487305,0.0006544271600432694,0.0,-0.019999999552965164,-0.22499999403953552,-0.23999999463558197,-0.18250000476837158,0.36000001430511475,-0.05999999865889549,0.0,0.0,0.0,-29.99018926808333,0.0,0.0,0.0,0.0,-103.415,-0.378,1008.15,-0.5820105282938902,-6.270736588809295,-179.91275837564442
78.08887815475464,0.0,0.0,-185.8226461450803,0.0,0.0,0.0,0.0,24,26,31,26,31,28,0,-0.0004980199737474322,6.71821928024292,10.714253425598145,0.015582304447889328,3.568573474884033,-0.0006315393256954849,0.0,-0.05000000074505806,0.6050000190734863,0.4925000071525574,-0.1599999964237213,0.5299999713897705,-0.07000000029802322,0.0,0.0,0.0,-29.99018926808333,0.0,0.0,0.0,0.0,-195.952,-0.236,965.345,-0.577713344830409,5.845143538586119,-179.97068440873213
78.58954095840454,0.0,0.0,-195.78443414590188,0.0,0.0,0.0,0.0,24,26,31,26,31,28,0,-5.416108576527227e-18,10.676408767700195,9.082050323486328,0.04214586690068245,4.07889986038208,-0.001657325541600585,0.0,-0.019999999552965164,1.252500057220459,1.5850000381469727,-0.12999999523162842,0.7325000166893005,-0.07999999821186066,0.0,0.0,0.0,0.0,0.0,0.0,0.0,0.0,-263.93,-0.047,916.204,-0.5835575143407434,15.806759652069152,179.98065387436742
79.09013819694519,0.0,0.0,-195.2996545554417,0.0,0.0,0.0,0.0,24,26,31,26,31,28,0,0.002256377600133419,8.827249526977539,11.910918235778809,0.08205055445432663,5.831915855407715,-0.004031067248433828,0.0,0.019999999552965164,1.3174999952316284,3.007499933242798,-0.10750000178813934,0.7799999713897705,-0.07999999821186066,0.0,0.0,0.0,20.07517760283288,0.0,0.0,0.0,0.0,-260.827,-0.057,918.863,-0.5830418523251257,15.321980061608963,179.98306029710696
79.59079146385193,0.0,0.0,-177.4132872901657,0.0,0.0,0.0,0.0,24,26,31,26,31,28,0,-0.0004925162065774202,3.1104373931884766,8.05202865600586,-0.00648143794387579,3.0921261310577393,0.00023606260947417468,0.0,0.08500000089406967,0.8849999904632568,2.622499942779541,-0.07999999821186066,0.6924999952316284,-0.09000000357627869,0.0,0.0,0.0,30.00849075996438,0.0,0.0,0.0,0.0,-132.658,-0.345,997.147,-0.5793749224362884,-2.564158020548973,-179.93063465885248
80.09138250350952,0.0,0.0,-165.40987877795448,0.0,0.0,0.0,0.0,24,26,31,26,31,28,0,-0.0004654879739973694,-2.4693031311035156,3.382078170776367,-0.03852809593081474,2.2804620265960693,0.001496251206845045,0.0,0.12250000238418579,-0.23749999701976776,1.8075000047683716,-0.057500001043081284,0.5824999809265137,-0.10000000149011612,0.0,0.0,0.0,30.00849075996438,0.0,0.0,0.0,0.0,-35.789,-0.417,1025.788,-0.5922664728267321,-14.567394645421668,-179.87133352705644
80.59202456474304,0.0,0.0,-150.99987563885523,0.0,0.0,0.0,0.0,24,27,31,26,31,28,0,6.525790393421202e-18,-9.356317520141602,-8.795550346374512,-0.07511556893587112,1.1906545162200928,0.0029538115486502647,0.0,0.1899999976158142,-2.3949999809265137,-1.534999966621399,-0.029999999329447746,0.36500000953674316,-0.10000000149011612,0.0,0.0,0.0,0.0,0.0,0.0,0.0,0.0,85.184,-0.37,1032.688,-0.6279044476838692,-28.97716860140284,-179.78905678767566
81.09266185760498,0.0,0.0,-150.99987563885523,0.0,0.0,0.0,0.0,24,27,31,26,31,28,0,6.525790393421202e-18,-9.356317520141602,-4.312934398651123,-0.07511556893587112,1.1906545162200928,0.0029538115486502647,0.0,0.23999999463558197,-1.159999966621399,-0.5950000286102295,-6.230259363970703e-15,0.1599999964237213,-0.10750000178813934,0.0,0.0,0.0,0.0,0.0,0.0,0.0,0.0,85.184,-0.37,1032.688,-0.6279044476838692,-28.97716860140284,-179.78905678767566
81.59334683418274,0.0,0.0,-137.31185661740037,0.0,0.0,0.0,0.0,24,27,31,26,31,28,0,-0.00032629063935019076,-15.536372184753418,-10.412405014038086,-0.10462325811386108,0.05664123222231865,0.004095352720469236,0.0,0.30000001192092896,-2.057499885559082,-0.6000000238418579,0.019999999552965164,-0.019999999552965164,-0.11999999731779099,0.0,0.0,0.0,30.004945891785145,0.0,0.0,0.0,0.0,198.278,-0.193,1011.146,-0.6940810730214793,-42.66495843973967,-179.6844919900643
82.0939450263977,0.0,0.0,-125.30988049967695,0.0,0.0,0.0,0.0,24,27,31,26,31,28,0,-0.0002407701831543818,-20.530288696289062,-13.64985466003418,-0.12606026232242584,-0.9311577677726746,0.004938332363963127,0.0,0.19750000536441803,-2.515000104904175,-1.1649999618530273,0.03999999910593033,-0.12999999523162842,-0.12999999523162842,0.0,0.0,0.0,30.004945891785145,0.0,0.0,0.0,0.0,290.811,0.061,970.662,-0.8041462654661105,-54.666590782786,-179.5440027386982
82.59454607963562,0.0,0.0,-122.90368694324556,0.0,0.0,0.0,0.0,24,27,31,26,31,28,0,1.4749019096708383e-17,-21.404001235961914,-16.360618591308594,-0.13008321821689606,-1.1116119623184204,0.005115334875881672,0.0,0.16750000417232513,-2.5899999141693115,-2.575000047683716,0.07000000029802322,-0.2849999964237213,-0.12999999523162842,0.0,0.0,0.0,0.0,0.0,0.0,0.0,0.0,308.229,0.122,960.266,-0.8368621555680804,-57.07261245187887,-179.50549997486542
83.0951521396637,0.0,0.0,-114.3982430660875,0.0,0.0,0.0,0.0,24,27,31,26,31,28,0,-0.00015311286551877856,-24.487674713134766,-12.838690757751465,-0.140780970454216,-1.7958189249038696,0.005517283920198679,0.0,0.17499999701976776,-2.9049999713897705,-1.024999976158142,0.07000000029802322,-0.25,-0.14000000059604645,0.0,0.0,0.0,29.94039035884477,0.0,0.0,0.0,0.0,365.975,0.363,917.863,-1.0074316911785266,-65.57759796280081,-179.31481962064586
83.595773935318,0.0,0.0,-101.70109725553186,0.0,0.0,0.0,0.0,24,27,31,26,31,28,0,9.157129263339657e-18,-28.06792640686035,-14.78339958190918,-0.15171779692173004,-2.7037875652313232,0.005966083612293005,0.0,0.20999999344348907,-4.074999809265137,-2.5799999237060547,0.03750000149011612,-0.2199999988079071,-0.15000000596046448,0.0,0.0,0.0,0.0,0.0,0.0,0.0,0.0,438.981,0.782,839.874,-1.7400728238123102,-78.272795716853,-178.5533014151375
84.09637880325317,0.0,0.0,-101.70109725553186,0.0,0.0,0.0,0.0,24,27,31,26,31,28,0,9.157129263339657e-18,-28.06792640686035,-17.404874801635742,-0.15171779692173004,-2.7037875652313232,0.005966083612293005,0.0,0.22499999403953552,-3.4149999618530273,-3.0374999046325684,0.007499999832361937,-0.28999999165534973,-0.15000000596046448,0.0,0.0,0.0,0.0,0.0,0.0,0.0,0.0,438.981,0.782,839.874,-1.7400728238123102,-78.272795716853,-178.5533014151375
84.59678530693054,0.0,0.0,-114.73783515126154,0.0,0.0,0.0,0.0,24,27,31,26,31,28,0,2.536849945828461e-17,-24.290231704711914,-19.224149703979492,-0.14071926474571228,-1.755197525024414,0.005533582530915737,0.0,0.25999999046325684,-2.9600000381469727,-3.3550000190734863,-0.029999999329447746,-0.3675000071525574,-0.1599999964237213,0.0,0.0,0.0,0.0,0.0,0.0,0.0,0.0,363.794,0.352,919.718,-0.9983216622359463,-65.23806317340629,-179.32478908628116
85.0973949432373,0.0,0.0,-114.73783515126154,0.0,0.0,0.0,0.0,24,27,31,26,31,28,0,2.536849945828461e-17,-24.290231704711914,-15.084224700927734,-0.14071926474571228,-1.755197525024414,0.005533582530915737,0.0,0.25,-3.244999885559082,-2.632499933242798,-0.05000000074505806,-0.33250001072883606,-0.16249999403953552,0.0,0.0,0.0,0.0,0.0,0.0,0.0,0.0,363.794,0.352,919.718,-0.9983216622359463,-65.23806317340629,-179.32478908628116
85.59800624847412,0.0,0.0,-102.12485684081064,0.0,0.0,0.0,0.0,24,27,31,26,31,28,0,-4.948168498231098e-05,-28.093637466430664,-19.868417739868164,-0.1512257605791092,-2.690535306930542,0.005927915684878826,0.0,0.1550000011920929,-3.7149999141693115,-2.25,-0.09749999642372131,-0.2574999928474426,-0.17000000178813934,0.0,0.0,0.0,30.01583662841673,0.0,0.0,0.0,0.0,436.833,0.767,842.728,-1.69062656609252,-77.84915072313326,-178.603721701109
86.09861493110657,0.0,0.0,-89.99843428998481,0.0,0.0,0.0,0.0,24,27,31,26,31,28,0,5.591484296019189e-05,-30.62160301208496,-20.656291961669922,-0.1547502726316452,-3.4548704624176025,0.0060665118508040905,0.0,0.12999999523162842,-4.087500095367432,-2.387500047683716,-0.12250000238418579,-0.20250000059604645,-0.17000000178813934,0.0,0.0,0.0,30.01583662841673,0.0,0.0,0.0,0.0,489.575,1.218,755.37,-86.19926574203134,-89.70725713849933,-94.070158861082
86.59921336174011,0.0,0.0,-72.10754065812728,0.0,0.0,0.0,0.0,24,27,31,26,31,28,0,0.010602721944451332,-30.618999481201172,-22.16338348388672,-0.17702515423297882,-1.5540000200271606,0.007527591194957495,0.0,0.1850000023841858,-4.570000171661377,-2.807499885559082,-0.16249999403953552,-0.2775000035762787,-0.1899999976158142,0.0,0.0,0.0,21.90435348898107,0.0,0.0,0.0,0.0,531.265,1.933,611.049,-179.35698931436752,-72.1277660682954,-0.8705520739217728
87.0998170375824,0.0,0.0,-71.62241729299001,0.0,0.0,0.0,0.0,24,27,31,26,31,28,0,1.5601033325611478e-17,-32.042236328125,-19.883100509643555,-0.14703568816184998,-4.292452812194824,0.005781966727226973,0.0,0.06499999761581421,-4.614999771118164,-3.4700000286102295,-0.1899999976158142,-0.4399999976158142,-0.19750000536441803,0.0,0.0,0.0,0.0,0.0,0.0,0.0,0.0,531.758,1.953,606.989,-179.38134002066056,-71.64269999893766,-0.8451127478179642
87.60043334960938,0.0,0.0,-61.059424677737674,0.0,0.0,0.0,0.0,24,27,31,26,31,28,0,0.0002884097630158067,-31.93578338623047,-22.30061149597168,-0.1355593055486679,-4.610667705535889,0.005311882123351097,0.0,0.1550000011920929,-3.684999942779541,-2.674999952316284,-0.23000000417232513,-0.675000011920929,-0.20000000298023224,0.0,0.0,0.0,29.99383658910012,0.0,0.0,0.0,0.0,533.932,2.377,518.087,-179.7065508651768,-61.080566820378,-0.4954939012291359
88.10077428817749,0.0,0.0,-49.06191763081629,0.0,0.0,0.0,0.0,24,27,31,26,31,28,0,0.0003665518306661397,-30.470504760742188,-21.5413875579834,-0.11706824600696564,-4.760965347290039,0.0045847478322684765,0.0,0.05000000074505806,-3.932499885559082,-2.5425000190734863,-0.2574999928474426,-0.7799999713897705,-0.20250000059604645,0.0,0.0,0.0,29.99383658910012,0.0,0.0,0.0,0.0,516.608,2.84,418.62,-179.8667498646954,-49.08351813969272,-0.3060167583793727
88.6014313697815,0.0,0.0,-40.77843760349192,0.0,0.0,0.0,0.0,24,27,31,26,31,28,0,3.392166114300745e-17,-28.570056915283203,-15.442350387573242,-0.10119520872831345,-4.719208240509033,0.003979355562478304,0.0,0.1525000035762787,-3.984999895095825,-2.694999933242798,-0.26750001311302185,-0.800000011920929,-0.2175000011920929,0.0,0.0,0.0,0.0,0.0,0.0,0.0,0.0,492.719,3.136,353.061,-179.928457419231,-40.800267295486414,-0.22282328652637715
89.10208988189697,0.0,0.0,-43.06780506549615,0.0,0.0,0.0,0.0,24,27,31,26,31,28,0,0.0004020011401735246,-29.26502227783203,-26.597505569458008,-0.10537651926279068,-4.757469177246094,0.004124941769987345,0.0,0.2199999988079071,-3.6524999141693115,-6.019999980926514,-0.2199999988079071,-0.7524999976158142,-0.2199999988079071,0.0,0.0,0.0,-30.030381516254273,0.0,0.0,0.0,0.0,500.266,3.056,370.825,-179.91390429123467,-43.08957746171113,-0.2434497671510868
89.60278797149658,0.0,0.0,-61.086009919431746,0.0,0.0,0.0,0.0,24,27,31,26,31,28,0,0.00029062831890769303,-31.920392990112305,-24.262531280517578,-0.1352795958518982,-4.615184307098389,0.005300837103277445,0.0,0.18250000476837158,-3.7850000858306885,-5.612500190734863,-0.15000000596046448,-0.6924999952316284,-0.23000000417232513,0.0,0.0,0.0,-30.030381516254273,0.0,0.0,0.0,0.0,533.947,2.376,518.311,-179.7060352031612,-61.107152062072075,-0.4960668590242668
90.10344386100769,0.0,0.0,-73.09818468590848,0.0,0.0,0.0,0.0,24,27,31,26,31,28,0,0.00019973990856669843,-32.23163604736328,-25.680706024169922,-0.1479630470275879,-4.267418384552002,0.005799595266580582,0.0,0.1574999988079071,-3.875,-5.860000133514404,-0.10000000149011612,-0.6575000286102295,-0.23000000417232513,0.0,0.0,0.0,-30.030381516254273,0.0,0.0,0.0,0.0,530.152,1.893,619.326,-179.30273021116864,-73.11823820873806,-0.927045712521672
90.6040518283844,0.0,0.0,-86.07837164725873,0.0,0.0,0.0,0.0,24,27,31,26,31,28,0,2.807996938209261e-18,-31.018798828125,-24.624675750732422,-0.15457479655742645,-3.6531684398651123,0.006078430917114019,0.0,0.11999999731779099,-3.762500047683716,-4.297500133514404,-0.029999999329447746,-0.5799999833106995,-0.2475000023841858,0.0,0.0,0.0,0.0,0.0,0.0,0.0,0.0,502.538,1.372,724.976,-176.02025500286413,-86.09000269049989,-4.238741768377831
91.10465097427368,0.0,0.0,-86.07837164725873,0.0,0.0,0.0,0.0,24,27,31,26,31,28,0,2.807996938209261e-18,-31.018798828125,-25.97541618347168,-0.15457479655742645,-3.6531684398651123,0.006078430917114019,0.0,0.0925000011920929,-3.5325000286102295,-4.179999828338623,0.019999999552965164,-0.5199999809265137,-0.25,0.0,0.0,0.0,0.0,0.0,0.0,0.0,0.0,502.538,1.372,724.976,-176.02025500286413,-86.09000269049989,-4.238741768377831
91.60475635528564,0.0,0.0,-101.80950087037061,0.0,0.0,0.0,0.0,24,27,31,26,31,28,0,-4.4648302718997e-05,-28.232885360717773,-18.649629592895508,-0.15153728425502777,-2.728419065475464,0.005940173286944628,0.0,0.2549999952316284,-3.822499990463257,-4.632500171661377,0.09000000357627869,-0.4399999976158142,-0.25999999046325684,0.0,0.0,0.0,-30.009740684582493,0.0,0.0,0.0,0.0,438.434,0.778,840.605,-1.7271239776423535,-78.16444939779376,-178.56653674020504
92.10531711578369,0.0,0.0,-113.81342504459747,0.0,0.0,0.0,0.0,24,27,31,26,31,28,0,-0.00014697933511342853,-24.76042366027832,-16.500879287719727,-0.14169086515903473,-1.859055757522583,0.005552976857870817,0.0,0.2574999928474426,-2.940000057220459,-4.257500171661377,0.07999999821186066,-0.3725000023841858,-0.2549999952316284,0.0,0.0,0.0,-30.009740684582493,0.0,0.0,0.0,0.0,369.706,0.38,914.639,-1.023818284119268,-66.16241598429085,-179.29711522477635
92.60598373413086,0.0,0.0,-131.81925401015823,0.0,0.0,0.0,0.0,24,27,31,26,31,28,0,-0.00028709686012007296,-17.99292755126953,-10.61330509185791,-0.11549684405326843,-0.4174139201641083,0.004522934556007385,0.0,0.25999999046325684,-2.619999885559082,-3.2300000190734863,0.03999999910593033,-0.2800000011920929,-0.23000000417232513,0.0,0.0,0.0,-30.009740684582493,0.0,0.0,0.0,0.0,241.671,-0.087,995.03,-0.7357924005070031,-48.15738915964325,-179.62862860503904
93.10668230056763,0.0,0.0,-139.74784397917858,0.0,0.0,0.0,0.0,24,27,31,26,31,28,0,-1.627652286909754e-18,-6.3147501945495605,-4.1112751960754395,-0.10011336207389832,0.272026002407074,0.0039368136785924435,0.0,0.2524999976158142,-0.9424999952316284,-0.7174999713897705,0.019999999552965164,-0.10249999910593033,-0.2150000035762787,0.0,0.0,0.0,0.0,0.0,0.0,0.0,0.0,178.578,-0.233,1016.947,-0.6789549872300255,-40.22902837374098,-179.70614979472023
93.6068844795227,0.0,0.0,-142.62821740686024,0.0,0.0,0.0,0.0,24,27,31,26,31,28,0,-0.00035742713953368366,-13.272501945495605,-14.686949729919434,-0.0941157117486,0.4759727120399475,0.003682208014652133,0.0,0.2574999928474426,-2.7149999141693115,-3.940000057220459,-0.014999999664723873,0.20499999821186066,-0.1899999976158142,0.0,0.0,0.0,-29.96558351159836,0.0,0.0,0.0,0.0,154.993,-0.276,1022.72,-0.6631986478639279,-37.348654946059305,-179.72969836010012
94.10750031471252,0.0,0.0,-144.66960873513185,0.0,0.0,0.0,0.0,24,27,31,26,31,28,0,1.610802100844166e-18,-12.269603729248047,-7.226220607757568,-0.08959891647100449,0.677239179611206,0.0035233483649790287,0.0,0.2524999976158142,-1.4375,-1.127500057220459,-0.04749999940395355,0.25999999046325684,-0.17000000178813934,0.0,0.0,0.0,0.0,0.0,0.0,0.0,0.0,138.116,-0.304,1026.089,-0.6532864780081646,-35.30732091356721,-179.74528281212767
94.60810494422913,0.0,0.0,-154.18248430346844,0.0,0.0,0.0,0.0,24,27,31,26,31,28,0,-0.0004224747826810926,-7.908574104309082,-4.030311584472656,-0.06758133322000504,1.4102510213851929,0.002638645237311721,0.0,0.2549999952316284,-1.3324999809265137,-2.0824999809265137,-0.08250000327825546,0.27000001072883606,-0.15000000596046448,0.0,0.0,0.0,-30.074333783563304,0.0,0.0,0.0,0.0,58.377,-0.393,1033.787,-0.6177057989305406,-25.794617232569177,-179.8088811273872
95.10869145393372,0.0,0.0,-156.71805173004037,0.0,0.0,0.0,0.0,24,27,31,26,31,28,0,-2.976630113787384e-18,-6.678484916687012,-1.635102391242981,-0.06123996153473854,1.6421202421188354,0.002408173168078065,0.0,0.25999999046325684,-1.0575000047683716,-0.39750000834465027,-0.10999999940395355,0.23999999463558197,-0.12999999523162842,0.0,0.0,0.0,0.0,0.0,0.0,0.0,0.0,37.003,-0.406,1033.597,-0.6106011222709183,-23.25904980599723,-179.82389262161962
95.60932087898254,0.0,0.0,-148.43210798419693,0.0,0.0,0.0,0.0,24,27,31,26,31,28,0,-0.0003927752550225705,-10.494766235351562,-6.630107402801514,-0.08064763993024826,0.9696866869926453,0.0031525506637990475,0.0,0.2574999928474426,-1.877500057220459,0.05999999865889549,-0.15000000596046448,0.1899999976158142,-0.10000000149011612,0.0,0.0,0.0,30.001363457565475,0.0,0.0,0.0,0.0,106.74,-0.347,1030.717,-0.6373009555240147,-31.54487896028163,-179.77203994116027
96.10966634750366,0.0,0.0,-136.43156426096138,0.0,0.0,0.0,0.0,24,27,31,26,31,28,0,-0.0003203843079973012,-15.9210205078125,-10.741382598876953,-0.10636397451162338,-0.016211524605751038,0.004163808189332485,0.0,0.20999999344348907,-1.9325000047683716,-0.6575000286102295,-0.18000000715255737,0.15000000596046448,-0.09000000357627869,0.0,0.0,0.0,30.001363457565475,0.0,0.0,0.0,0.0,205.333,-0.177,1008.844,-0.6999825383113267,-43.54519350039916,-179.6762413978144
96.61027765274048,0.0,0.0,-118.43077732399775,0.0,0.0,0.0,0.0,24,27,31,26,31,28,0,-0.0001867016835603863,-23.100234985351562,-14.9959077835083,-0.13590945303440094,-1.4821606874465942,0.005325641483068466,0.0,0.20749999582767487,-3.049999952316284,-1.399999976158142,-0.2199999988079071,0.10000000149011612,-0.05999999865889549,0.0,0.0,0.0,30.001363457565475,0.0,0.0,0.0,0.0,339.384,0.244,939.035,-0.9133520212180454,-61.54535018378812,-179.41835309422603
97.11087036132812,0.0,0.0,-106.43023360076218,0.0,0.0,0.0,0.0,24,27,31,26,31,28,0,-8.652884571347386e-05,-26.941246032714844,-17.545757293701172,-0.14833179116249084,-2.388577699661255,0.005814132280647755,0.0,0.20250000059604645,-3.684999942779541,-1.8450000286102295,-0.25,0.02500000037252903,-0.04749999940395355,0.0,0.0,0.0,30.001363457565475,0.0,0.0,0.0,0.0,413.829,0.618,870.795,-1.3334446766079648,-73.54474799143344,-178.97058657733126
97.61152935028076,0.0,0.0,-88.42938936801906,0.0,0.0,0.0,0.0,24,27,31,26,31,28,0,6.94029004080221e-05,-30.866954803466797,-20.625633239746094,-0.1547011286020279,-0.9520000219345093,0.006064597517251968,0.0,0.17499999701976776,-4.267499923706055,-2.382499933242798,-0.28999999165534973,-0.17000000178813934,-0.02250000089406967,0.0,0.0,0.0,30.001363457565475,0.0,0.0,0.0,0.0,495.013,1.279,743.312,-169.6236395864646,-88.42463381831946,-10.640857579610623
98.11213994026184,0.0,0.0,-76.42884564478348,0.0,0.0,0.0,0.0,24,27,31,26,31,28,0,0.0001705140166450292,-32.09343338012695,-21.241607666015625,-0.15050064027309418,-4.127254486083984,0.005899419076740742,0.0,0.14000000059604645,-4.525000095367432,-2.490000009536743,-0.30000001192092896,-0.3100000023841858,2.0209528495129803e-16,0.0,0.0,0.0,30.001363457565475,0.0,0.0,0.0,0.0,525.362,1.758,646.991,-179.06151497941855,-76.4482689140384,-1.1757666913879623
98.61279344558716,0.0,0.0,-58.42805870781986,0.0,0.0,0.0,0.0,24,27,31,26,31,28,0,0.0003069093800149858,-31.713655471801758,-21.184307098388672,-0.13198703527450562,-4.661166191101074,0.0051713986322283745,0.0,0.17749999463558197,-4.59250020980835,-2.4800000190734863,-0.27000001072883606,-0.5149999856948853,0.019999999552965164,0.0,0.0,0.0,30.001363457565475,0.0,0.0,0.0,0.0,531.922,2.481,495.995,-179.75278855924387,-58.449315442019206,-0.44295367141563946
99.11341953277588,0.0,0.0,-47.50977496380689,0.0,0.0,0.0,0.0,24,27,31,26,31,28,0,0.005724751856178045,-34.49144744873047,-21.67352867126465,-0.1367434412240982,-5.719930648803711,0.005815655458718538,0.0,0.125,-4.482500076293945,-3.2249999046325684,-0.25,-0.6600000262260437,0.019999999552965164,0.0,0.0,0.0,1.86427686862312,0.0,0.0,0.0,0.0,512.857,2.897,406.084,-179.88038626021952,-47.531432768462835,-0.2884842498483695
99.61404132843018,0.0,0.0,-47.76915295766261,0.0,0.0,0.0,0.0,24,27,31,26,31,28,0,0.010376128368079662,-25.342750549316406,-19.21518898010254,-0.15496303141117096,-6.501618385314941,0.006878264248371124,0.0,0.1550000011920929,-3.7825000286102295,-4.352499961853027,-0.2175000011920929,-0.800000011920929,0.019999999552965164,0.0,0.0,0.0,-14.081278502343782,0.0,0.0,0.0,0.0,513.508,2.887,408.172,-179.878209020598,-47.79086805809807,-0.29134903882402363
100.11463737487793,0.0,0.0,-59.50384426395749,0.0,0.0,0.0,0.0,24,27,31,26,31,28,0,0.000300959509331733,-31.790231704711914,-23.651201248168945,-0.13315242528915405,-4.646169662475586,0.005217237398028374,0.0,0.2574999928474426,-4.519999980926514,-5.505000114440918,-0.20000000298023224,-0.824999988079071,0.012500000186264515,0.0,0.0,0.0,-29.99200951349714,0.0,0.0,0.0,0.0,532.866,2.439,505.016,-179.7349122760358,-59.525100998156844,-0.4634082647018098
100.6152606010437,0.0,0.0,-77.49907351030834,0.0,0.0,0.0,0.0,24,27,31,26,31,28,0,0.0001636073866393417,-32.04619216918945,-24.997751235961914,-0.15100716054439545,-4.092357158660889,0.005919348914176226,0.0,0.28999999165534973,-4.71999979019165,-5.739999771118164,-0.16500000655651093,-0.75,1.7607443281164592e-16,0.0,0.0,0.0,-29.99200951349714,0.0,0.0,0.0,0.0,523.482,1.715,655.815,-178.95643451979154,-77.5182103006657,-1.2833108695340179
101.11593461036682,0.0,0.0,-89.49583571209605,0.0,0.0,0.0,0.0,24,27,31,26,31,28,0,6.223705713637173e-05,-30.739912033081055,-24.252851486206055,-0.15474171936511993,-3.496979236602783,0.006066204980015755,0.0,0.26750001311302185,-4.559999942779541,-5.610000133514404,-0.15000000596046448,-0.6700000166893005,1.7607443281164592e-16,0.0,0.0,0.0,-29.99200951349714,0.0,0.0,0.0,0.0,491.352,1.238,751.524,-149.0801232504899,-89.43676376341807,-31.187868958135613
101.61652994155884,0.0,0.0,-107.4910649584469,0.0,0.0,0.0,0.0,24,27,31,26,31,28,0,-9.451845835428685e-05,-26.67266082763672,-20.284826278686523,-0.14758718013763428,-2.3207433223724365,0.005784863606095314,0.0,0.23499999940395355,-4.102499961853027,-4.917500019073486,-0.10999999940395355,-0.5099999904632568,1.7607443281164592e-16,0.0,0.0,0.0,-29.99200951349714,0.0,0.0,0.0,0.0,407.843,0.583,877.439,-1.2725965587650716,-72.48408852108726,-179.03384111791374
102.11677980422974,0.0,0.0,-119.60786181831452,0.0,0.0,0.0,0.0,24,27,31,26,31,28,0,-0.0001941140799317509,-22.764583587646484,-14.612126350402832,-0.13468028604984283,-1.4081463813781738,0.005277317948639393,0.0,0.20749999582767487,-3.5174999237060547,-3.927500009536743,-0.09000000357627869,-0.3824999928474426,-0.009999999776482582,0.0,0.0,0.0,-29.99200951349714,0.0,0.0,0.0,0.0,331.347,0.211,944.857,-0.890892075648917,-60.36832298525087,-179.4436205329913
102.61741328239441,0.0,0.0,-137.60303376888584,0.0,0.0,0.0,0.0,24,27,31,26,31,28,0,-0.0003263458493165672,-15.513876914978027,-8.309125900268555,-0.10452137887477875,0.06090017035603523,0.004091362934559584,0.0,0.16500000655651093,-2.515000104904175,-2.827500104904175,-0.05999999865889549,-0.17000000178813934,-0.019999999552965164,0.0,0.0,0.0,-29.99200951349714,0.0,0.0,0.0,0.0,195.936,-0.198,1011.883,-0.6921903122975476,-42.37372399247468,-179.6871848917014
103.1182610988617,0.0,0.0,-149.59985326645307,0.0,0.0,0.0,0.0,24,27,31,26,31,28,0,-0.00039744461537338793,-10.062213897705078,-3.4243013858795166,-0.07849697768688202,1.0446555614471436,0.003067990532144904,0.0,0.14000000059604645,-1.7949999570846558,-1.975000023841858,-0.042500000447034836,-0.029999999329447746,-0.027499999850988388,0.0,0.0,0.0,-29.99200951349714,0.0,0.0,0.0,0.0,96.948,-0.358,1031.733,-0.6328891805015073,-30.377190973805014,-179.77988946295358
103.61895942687988,0.0,0.0,-163.28128327326394,0.0,0.0,0.0,0.0,24,27,31,26,31,28,0,1.287950984863851e-17,-3.5865161418914795,3.50962495803833,-0.0445714071393013,2.1398909091949463,0.00175270636100322,0.0,0.10750000178813934,0.6050000190734863,0.612500011920929,-0.007499999832361937,0.20999999344348907,-0.029999999329447746,0.0,0.0,0.0,0.0,0.0,0.0,0.0,0.0,-18.085,-0.42,1028.72,-0.5959906984950823,-16.69593285433268,-179.8602181458309
104.11956429481506,0.0,0.0,-163.28128327326394,0.0,0.0,0.0,0.0,24,27,31,26,31,28,0,1.287950984863851e-17,-3.5865161418914795,1.4568665027618408,-0.0445714071393013,2.1398909091949463,0.00175270636100322,0.0,0.08250000327825546,-0.7225000262260437,0.019999999552965164,-6.226789917018749e-15,0.4099999964237213,-0.03750000149011612,0.0,0.0,0.0,0.0,0.0,0.0,0.0,0.0,-18.085,-0.42,1028.72,-0.5959906984950823,-16.69593285433268,-179.8602181458309
104.6201765537262,0.0,0.0,-147.79411947931877,0.0,0.0,0.0,0.0,24,27,31,26,31,28,0,-0.00038937421049922705,-10.791403770446777,-6.214898586273193,-0.08211441338062286,0.9179871678352356,0.003210227470844984,0.0,0.042500000447034836,-1.3925000429153442,0.13249999284744263,0.032499998807907104,0.4724999964237213,-0.05000000074505806,0.0,0.0,0.0,30.002920740696236,0.0,0.0,0.0,0.0,112.081,-0.34,1030.077,-0.6398219698225903,-32.1828674651598,-179.7676854619173
105.12078785896301,0.0,0.0,-135.79294550250856,0.0,0.0,0.0,0.0,24,27,31,26,31,28,0,-0.00031614131876267493,-16.198484420776367,-9.867773056030273,-0.1076110452413559,-0.06907311826944351,0.004212845582515001,0.0,0.11749999970197678,-2.049999952316284,-0.5049999952316284,0.05249999836087227,0.32249999046325684,-0.05000000074505806,0.0,0.0,0.0,30.002920740696236,0.0,0.0,0.0,0.0,210.429,-0.165,1007.106,-0.7044516091133471,-44.18381225885197,-179.67011074940652
105.62140703201294,0.0,0.0,-117.79118453729322,0.0,0.0,0.0,0.0,24,27,31,26,31,28,0,-0.00018155024736188352,-23.326507568359375,-13.778498649597168,-0.1367274969816208,-1.5324434041976929,0.00535780843347311,0.0,0.1899999976158142,-3.049999952316284,-1.1875,0.05999999865889549,0.07000000029802322,-0.05999999865889549,0.0,0.0,0.0,30.002920740696236,0.0,0.0,0.0,0.0,343.7,0.262,935.803,-0.926415458947028,-62.18488567471315,-179.4037999662297
106.12202382087708,0.0,0.0,-105.790010560483,0.0,0.0,0.0,0.0,24,27,31,26,31,28,0,-8.104732114588842e-05,-27.120580673217773,-18.24789810180664,-0.14881561696529388,-2.4343631267547607,0.005833155941218138,0.0,0.17000000178813934,-3.5975000858306885,-1.9674999713897705,0.03999999910593033,-0.0925000011920929,-0.06499999761581421,0.0,0.0,0.0,30.002920740696236,0.0,0.0,0.0,0.0,417.382,0.64,866.732,-1.3741246800622533,-74.1848564401536,-178.92847417938918
106.62277054786682,0.0,0.0,-87.78830689104717,0.0,0.0,0.0,0.0,24,27,31,26,31,28,0,7.492921577068046e-05,-30.961732864379883,-22.1013240814209,-0.15464752912521362,-3.5785651206970215,0.006062487605959177,0.0,0.1599999964237213,-4.262499809265137,-2.640000104904175,-6.226789917018749e-15,-0.3449999988079071,-0.07999999821186066,0.0,0.0,0.0,30.002920740696236,0.0,0.0,0.0,0.0,497.139,1.304,738.343,-172.70718384829965,-87.79140086314088,-7.555766331728704
107.12339735031128,0.0,0.0,-75.78713291423695,0.0,0.0,0.0,0.0,24,27,31,26,31,28,0,0.00017576737445779145,-32.12598419189453,-21.41372299194336,-0.15008750557899475,-4.153629779815674,0.005883171223104,0.0,0.19499999284744263,-4.572500228881836,-2.5199999809265137,-0.027499999850988388,-0.5174999833106995,-0.07999999821186066,0.0,0.0,0.0,30.002920740696236,0.0,0.0,0.0,0.0,526.41,1.784,641.683,-179.11691999820772,-75.8066707750509,-1.1189865738904976
107.62409353256226,0.0,0.0,-67.50067350637791,0.0,0.0,0.0,0.0,24,27,31,26,31,28,0,3.078144200101729e-17,-32.02096176147461,-18.923324584960938,-0.14314432442188263,-4.42628812789917,0.0056289443746209145,0.0,0.20000000298023224,-4.670000076293945,-3.302500009536743,-0.07000000029802322,-0.7475000023841858,-0.09000000357627869,0.0,0.0,0.0,0.0,0.0,0.0,0.0,0.0,534.557,2.119,572.359,-179.54554972474506,-67.52135728278212,-0.6715065358933248
108.12478137016296,0.0,0.0,-70.14785311144132,0.0,0.0,0.0,0.0,24,27,31,26,31,28,0,0.0002227608929388225,-32.265594482421875,-28.848758697509766,-0.1454324573278427,-4.370748996734619,0.005700106732547283,0.0,0.1899999976158142,-4.474999904632568,-6.412499904632568,-0.10000000149011612,-0.7799999713897705,-0.09749999642372131,0.0,0.0,0.0,-30.01198098663026,0.0,0.0,0.0,0.0,533.046,2.012,594.624,-179.4480896037933,-70.16825040894798,-0.7750400094734646
108.62546801567078,0.0,0.0,-88.1549998799309,0.0,0.0,0.0,0.0,24,27,31,26,31,28,0,7.388398807961494e-05,-30.943382263183594,-24.66585922241211,-0.15465953946113586,-3.571629762649536,0.006062948610633612,0.0,0.07000000029802322,-4.210000038146973,-5.682499885559082,-0.13750000298023224,-0.699999988079071,-0.10000000149011612,0.0,0.0,0.0,-30.01198098663026,0.0,0.0,0.0,0.0,495.929,1.29,741.188,-171.20219560782954,-88.15431233057674,-9.061614008891533
109.12618088722229,0.0,0.0,-100.15984078662996,0.0,0.0,0.0,0.0,24,27,31,26,31,28,0,-3.033434404642321e-05,-28.633773803710938,-22.4311580657959,-0.15237809717655182,-2.839454174041748,0.005973233841359615,0.0,0.05999999865889549,-4.039999961853027,-5.292500019073486,-0.16249999403953552,-0.5975000262260437,-0.10999999940395355,0.0,0.0,0.0,-30.01198098663026,0.0,0.0,0.0,0.0,446.617,0.837,829.36,-1.9548747012068555,-79.81353652373929,-178.3350617909722
109.62679409980774,0.0,0.0,-118.16698755511953,0.0,0.0,0.0,0.0,24,27,31,26,31,28,0,-0.00018275997717864811,-23.278743743896484,-16.113834381103516,-0.13655517995357513,-1.5218015909194946,0.005351020488888025,0.0,0.057500001043081284,-3.6675000190734863,-4.190000057220459,-0.20250000059604645,-0.4099999964237213,-0.11999999731779099,0.0,0.0,0.0,-30.01198098663026,0.0,0.0,0.0,0.0,341.168,0.252,937.708,-0.918680528712762,-61.80908265688685,-179.41245162893617
