Time (s),Pos_0,Pos_1,Pos_2,Pos_3,Pos_4,Pos_5,Pos_6,Temp_0,Temp_1,Temp_2,Temp_3,Temp_4,Temp_5,Temp_6,Torque_0,Torque_1,Torque_2,Torque_3,Torque_4,Torque_5,Torque_6,Current_0,Current_1,Current_2,Current_3,Current_4,Current_5,Current_6,Velocity_0,Velocity_1,Velocity_2,Velocity_3,Velocity_4,Velocity_5,Velocity_6,Tool_X,Tool_Y,Tool_Z,Tool_Roll,Tool_Pitch,Tool_Yaw
1.6689300537109375e-06,0.0,0.0,-0.0,0.0,0.0,0.0,0.0,24,27,33,25,28,27,0,-1.9721522630525295e-31,-12.094891548156738,-7.594712734222412,-3.4029096022710327e-16,-2.4952943325042725,1.1782661532153142e-18,0.0,0.2524999976158142,-1.809999942779541,-1.4800000190734863,-0.11500000208616257,-0.5400000214576721,0.23000000417232513,0.0,0.0,0.0,0.0,0.0,0.0,0.0,0.0,206.587,4.105,113.184,179.9674758450794,-0.02245994556912827,0.01873571990077792
0.5006129741668701,0.0,0.0,-0.0,0.0,0.0,0.0,0.0,24,27,33,25,28,27,0,-1.9721522630525295e-31,-12.094891548156738,-7.594712734222412,-3.4029096022710327e-16,-2.4952943325042725,1.1782661532153142e-18,0.0,0.25,-1.8274999856948853,-1.5299999713897705,-0.07999999821186066,-0.5099999904632568,0.23000000417232513,0.0,0.0,0.0,0.0,0.0,0.0,0.0,0.0,206.587,4.105,113.184,179.9674758450794,-0.02245994556912827,0.01873571990077792
1.0011985301971436,0.0,0.0,-0.0,0.0,0.0,0.0,0.0,24,27,33,25,28,27,0,-1.9721522630525295e-31,-12.094891548156738,-7.594712734222412,-3.4029096022710327e-16,-2.4952943325042725,1.1782661532153142e-18,0.0,0.23000000417232513,-1.840000033378601,-1.5299999713897705,-0.05999999865889549,-0.5,0.23000000417232513,0.0,0.0,0.0,0.0,0.0,0.0,0.0,0.0,206.587,4.105,113.184,179.9674758450794,-0.02245994556912827,0.01873571990077792
1.5014054775238037,0.0,0.0,-14.993789836558026,0.0,0.0,0.0,0.0,24,27,33,25,28,27,0,0.001109805074520409,-17.486783981323242,-8.972304344177246,-0.03919389843940735,-3.0812997817993164,0.001498932484537363,0.0,0.1899999976158142,-1.9500000476837158,-3.182499885559082,-0.029999999329447746,-0.49000000953674316,0.23000000417232513,0.0,0.0,0.0,-45.00129898818139,0.0,0.0,0.0,0.0,314.537,3.915,168.08,179.98225815619378,-15.016020599009103,-0.05500394833255903
2.002032518386841,0.0,0.0,-32.99429029462407,0.0,0.0,0.0,0.0,24,27,33,25,28,27,0,0.0010056511964648962,-22.596946716308594,-17.209178924560547,-0.08354318886995316,-3.468188524246216,0.00324290432035923,0.0,0.16500000655651093,-2.9549999237060547,-4.619999885559082,-0.009999999776482582,-0.4699999988079071,0.2150000035762787,0.0,0.0,0.0,-45.00129898818139,0.0,0.0,0.0,0.0,419.953,3.51,267.947,-179.96759043663843,-33.016291873957094,-0.16214705602202298
2.5026299953460693,0.0,0.0,-51.94819252378781,0.0,0.0,0.0,0.0,24,27,33,25,28,27,0,1.1350824655539474e-17,-25.675764083862305,-20.986125946044922,-0.12200614809989929,-3.469588279724121,0.0047977156937122345,0.0,0.11500000208616257,-3.702500104904175,-3.6624999046325684,0.009999999776482582,-0.44999998807907104,0.1850000023841858,0.0,0.0,0.0,0.0,0.0,0.0,0.0,0.0,491.87,2.915,402.799,-179.83804467915934,-51.96973573688473,-0.3419412121340753
3.0032479763031006,0.0,0.0,-51.94819252378781,0.0,0.0,0.0,0.0,24,27,33,25,28,27,0,1.1350824655539474e-17,-25.675764083862305,-21.175586700439453,-0.12200614809989929,-3.469588279724121,0.0047977156937122345,0.0,0.14749999344348907,-3.797499895095825,-3.734999895095825,0.029999999329447746,-0.4399999976158142,0.1599999964237213,0.0,0.0,0.0,0.0,0.0,0.0,0.0,0.0,491.87,2.915,402.799,-179.83804467915934,-51.96973573688473,-0.3419412121340753
3.5038623809814453,0.0,0.0,-74.34167498868091,0.0,0.0,0.0,0.0,24,27,33,25,28,27,0,0.0004277366097085178,-27.11709976196289,-22.04703712463379,-0.14863446354866028,-3.0826706886291504,0.005802460014820099,0.0,0.10999999940395355,-4.815000057220459,-5.465000152587891,0.06750000268220901,-0.4399999976158142,0.1274999976158142,0.0,0.0,0.0,-45.03586316047623,0.0,0.0,0.0,0.0,515.075,2.08,581.537,-179.22480795103084,-74.36149932839243,-1.007775465855605
4.0040528774261475,0.0,0.0,-92.3559837296096,0.0,0.0,0.0,0.0,24,27,33,25,28,27,0,8.559237903682515e-05,-25.484865188598633,-21.77486228942871,-0.15440498292446136,-2.39825701713562,0.0060293772257864475,0.0,0.11500000208616257,-4.53249979019165,-5.417500019073486,0.09000000357627869,-0.4399999976158142,0.10499999672174454,0.0,0.0,0.0,-45.03586316047623,0.0,0.0,0.0,0.0,482.863,1.383,723.241,-7.305441071036049,-87.60364259367651,-172.96696291261196
4.504629135131836,0.0,0.0,-119.37753278467191,0.0,0.0,0.0,0.0,24,27,33,25,28,27,0,-0.00043255763011984527,-19.284944534301758,-17.74953842163086,-0.1348309963941574,-0.9658539295196533,0.0052596586756408215,0.0,0.11249999701976776,-3.5399999618530273,-4.715000152587891,0.11999999731779099,-0.4000000059604645,0.07000000029802322,0.0,0.0,0.0,-45.03586316047623,0.0,0.0,0.0,0.0,357.474,0.458,900.171,-0.8951319633328851,-60.598652018893475,-179.4388076875122
5.0052337646484375,0.0,0.0,-124.65739616258197,0.0,0.0,0.0,0.0,24,27,33,25,28,27,0,1.433816014081452e-17,-17.411224365234375,-17.634075164794922,-0.12744659185409546,-0.5986914038658142,0.0050116535276174545,0.0,0.10999999940395355,-2.7799999713897705,-3.077500104904175,0.0925000011920929,-0.12250000238418579,0.05000000074505806,0.0,0.0,0.0,0.0,0.0,0.0,0.0,0.0,324.027,0.309,926.799,-0.8125687450545335,-55.31901782410147,-179.53403327306293
5.505832195281982,0.0,0.0,-115.42343644891508,0.0,0.0,0.0,0.0,24,27,33,25,28,27,0,-0.00036618750891648233,-20.333637237548828,-18.51096534729004,-0.13930343091487885,-1.1755245923995972,0.00543559342622757,0.0,0.11500000208616257,-3.009999990463257,-1.722499966621399,0.057500001043081284,0.16500000655651093,0.019999999552965164,0.0,0.0,0.0,45.00246012034029,0.0,0.0,0.0,0.0,380.84,0.578,878.274,-0.9806172663664039,-64.55246187575273,-179.34404046819756
6.0060601234436035,0.0,0.0,-97.43290545648432,0.0,0.0,0.0,0.0,24,27,33,25,28,27,0,0.0034797904081642628,-27.05042266845703,-20.498790740966797,-0.16218572854995728,-2.4254109859466553,0.006512340158224106,0.0,0.029999999329447746,-3.825000047683716,-2.0875000953674316,0.027499999850988388,-0.0625,5.6838214690380084e-15,0.0,0.0,0.0,43.59559824566857,0.0,0.0,0.0,0.0,465.911,1.194,760.694,-2.553214526661974,-82.53886757205856,-177.73064861288867
6.506665468215942,0.0,0.0,-95.20891247890452,0.0,0.0,0.0,0.0,24,27,33,25,28,27,0,-8.309750451191733e-19,-24.67067527770996,-20.17049789428711,-0.15429772436618805,-2.2162392139434814,0.006067535374313593,0.0,0.13249999284744263,-3.434999942779541,-3.2899999618530273,-2.011411870395108e-15,-0.5600000023841858,-0.029999999329447746,0.0,0.0,0.0,0.0,0.0,0.0,0.0,0.0,473.745,1.276,744.473,-3.5034650298864447,-84.76045412689882,-176.77541337684656
7.007262229919434,0.0,0.0,-96.4246143286131,0.0,0.0,0.0,0.0,24,27,33,25,28,27,0,-3.0019070989457793e-18,-24.465322494506836,-27.618600845336914,-0.1539645493030548,-2.1582934856414795,0.00605443399399519,0.0,0.1599999964237213,-3.890000104904175,-4.820000171661377,-0.029999999329447746,-0.5899999737739563,-0.029999999329447746,0.0,0.0,0.0,0.0,0.0,0.0,0.0,0.0,469.541,1.231,753.377,-2.902833373250803,-83.5462992632371,-177.37873793511932
7.507387161254883,0.0,0.0,-88.79253001857296,0.0,0.0,0.0,0.0,24,27,33,25,28,27,0,0.0001483207888668403,-25.933523178100586,-19.810449600219727,-0.15449097752571106,-2.5391812324523926,0.0060326759703457355,0.0,0.03999999910593033,-3.194999933242798,-1.9474999904632568,-0.07999999821186066,-0.4375,-0.029999999329447746,0.0,0.0,0.0,45.0797163900423,0.0,0.0,0.0,0.0,492.749,1.519,696.127,-166.4623449518303,-88.77963846818251,-13.803183538276175
8.007983922958374,0.0,0.0,-82.78334866324089,0.0,0.0,0.0,0.0,24,27,33,25,28,27,0,-3.295373564583095e-19,-26.234811782836914,-18.09247589111328,-0.15371020138263702,-2.7469422817230225,0.006044432055205107,0.0,-0.04500000178813934,-5.0,-3.1575000286102295,-0.10000000149011612,-0.39750000834465027,-0.009999999776482582,0.0,0.0,0.0,0.0,0.0,0.0,0.0,0.0,505.543,1.751,649.186,-177.9763902112203,-82.79996443929969,-2.275158108684986
8.508577823638916,0.0,0.0,-73.92347309401492,0.0,0.0,0.0,0.0,24,27,33,25,28,27,0,0.0004271478683222085,-27.11730194091797,-21.440563201904297,-0.148593008518219,-3.084268808364868,0.005800992250442505,0.0,0.05999999865889549,-3.672499895095825,-2.234999895095825,-0.14499999582767487,-0.3799999952316284,0.004999999888241291,0.0,0.0,0.0,44.94942370143514,0.0,0.0,0.0,0.0,515.287,2.096,578.157,-179.25242451675612,-73.94335472950596,-0.979299463437603
9.009227991104126,0.0,0.0,-55.943713708132606,0.0,0.0,0.0,0.0,24,27,33,25,28,27,0,0.0007255051168613136,-26.528148651123047,-21.053789138793945,-0.1282162368297577,-3.469088315963745,0.004999705124646425,0.0,0.10499999672174454,-4.364999771118164,-2.1675000190734863,-0.17000000178813934,-0.38999998569488525,0.019999999552965164,0.0,0.0,0.0,44.94942370143514,0.0,0.0,0.0,0.0,501.112,2.774,433.809,-179.78957244969126,-55.965085033890986,-0.40021101989888
9.5098237991333,0.0,0.0,-28.974017333529627,0.0,0.0,0.0,0.0,24,27,33,25,28,27,0,0.0010329009965062141,-21.686477661132812,-19.291812896728516,-0.07505952566862106,-3.415820598602295,0.0029093942139297724,0.0,0.11249999701976776,-3.9749999046325684,-1.8600000143051147,-0.20999999344348907,-0.4399999976158142,0.042500000447034836,0.0,0.0,0.0,44.94942370143514,0.0,0.0,0.0,0.0,399.218,3.615,242.845,-179.9828311139889,-28.996133504421678,-0.1351034480918481
10.010080099105835,0.0,0.0,-25.3282868831122,0.0,0.0,0.0,0.0,24,27,33,25,28,27,0,-1.0654705641166646e-18,-20.325820922851562,-15.825643539428711,-0.06628289818763733,-3.304790735244751,0.0026064796838909388,0.0,0.17499999701976776,-2.994999885559082,-2.4100000858306885,-0.17000000178813934,-0.5,0.07000000029802322,0.0,0.0,0.0,0.0,0.0,0.0,0.0,0.0,378.934,3.704,221.389,-179.99440486145056,-25.350403054004246,-0.1124716151841806
10.510769367218018,0.0,0.0,-36.36311024265478,0.0,0.0,0.0,0.0,24,27,33,25,28,27,0,0.0009749123710207641,-23.369029998779297,-16.17734146118164,-0.09104980528354645,-3.503952980041504,0.0035380839835852385,0.0,0.11249999701976776,-3.515000104904175,-4.440000057220459,0.03999999910593033,-0.5924999713897705,0.09000000357627869,0.0,0.0,0.0,-45.005096573359914,0.0,0.0,0.0,0.0,435.937,3.415,290.058,-179.95240705506745,-36.385054526208286,-0.18684153699216147
11.01136064529419,0.0,0.0,-54.365157686767674,0.0,0.0,0.0,0.0,24,27,33,25,28,27,0,0.00075576949166134,-26.334110260009766,-22.5662899017334,-0.1252204328775406,-3.4910573959350586,0.004881794564425945,0.0,0.09000000357627869,-4.40749979019165,-5.554999828338623,0.18250000476837158,-0.6600000262260437,0.10999999940395355,0.0,0.0,0.0,-45.005096573359914,0.0,0.0,0.0,0.0,497.719,2.83,421.481,-179.81014163453648,-54.38658630830557,-0.37580301782630693
11.511952638626099,0.0,0.0,-81.36820020504726,0.0,0.0,0.0,0.0,24,27,33,25,28,27,0,0.0002970706264022738,-26.739622116088867,-21.234066009521484,-0.15268850326538086,-2.8480074405670166,0.005961937364190817,0.0,0.057500001043081284,-4.829999923706055,-5.322500228881836,0.1899999976158142,-0.7099999785423279,0.12999999523162842,0.0,0.0,0.0,-45.005096573359914,0.0,0.0,0.0,0.0,507.835,1.806,637.955,-178.3571206660847,-81.38579000935779,-1.8912763859473343
12.01254415512085,0.0,0.0,-99.55027098839027,0.0,0.0,0.0,0.0,24,27,33,25,28,27,0,-5.525994492927566e-05,-24.241657257080078,-20.489166259765625,-0.15244990587234497,-2.05570912361145,0.005952554289251566,0.0,0.02500000037252903,-4.244999885559082,-5.192500114440918,0.1599999964237213,-0.6025000214576721,0.15000000596046448,0.0,0.0,0.0,-45.005096573359914,0.0,0.0,0.0,0.0,457.873,1.116,775.843,-2.0589811325821263,-80.42281984308141,-178.22958026088858
12.513137817382812,0.0,0.0,-126.551651929064,0.0,0.0,0.0,0.0,24,27,33,25,28,27,0,-0.001110814162530005,-16.49589729309082,-14.883313179016113,-0.12268488109111786,-0.4849390685558319,0.004750174470245838,0.0,0.1274999976158142,-3.255000114440918,-4.212500095367432,0.11249999701976776,-0.29249998927116394,0.17000000178813934,0.0,0.0,0.0,-44.66482337909905,0.0,0.0,0.0,0.0,311.449,0.259,935.586,-0.7890774754541697,-53.424876649178486,-179.56216550080387
13.013732671737671,0.0,0.0,-129.12721180973605,0.0,0.0,0.0,0.0,24,27,33,25,28,27,0,2.013141385941948e-17,-15.956764221191406,-11.456585884094238,-0.12019231915473938,-0.3281966745853424,0.004726389888674021,0.0,0.1599999964237213,-2.4600000381469727,-2.194999933242798,0.05999999865889549,0.03999999910593033,0.1899999976158142,0.0,0.0,0.0,0.0,0.0,0.0,0.0,0.0,293.895,0.194,946.856,-0.7610598392722725,-50.84937406428592,-179.59654296851173
13.514048099517822,0.0,0.0,-116.66944776598608,0.0,0.0,0.0,0.0,24,27,33,25,28,27,0,-0.0003883275203406811,-19.976396560668945,-14.32177448272705,-0.13781557977199554,-1.1031973361968994,0.005377175286412239,0.0,0.10999999940395355,-3.2100000381469727,-0.9925000071525574,-0.019999999552965164,0.17249999940395355,0.20999999344348907,0.0,0.0,0.0,44.95497664523036,0.0,0.0,0.0,0.0,373.641,0.539,885.347,-0.950823461019601,-63.306565150240765,-179.37675635829953
14.014232873916626,0.0,0.0,-98.68745384470277,0.0,0.0,0.0,0.0,24,27,33,25,28,27,0,-4.5322372898226604e-05,-24.33820343017578,-17.83139991760254,-0.1526663899421692,-2.0806565284729004,0.0059611620381474495,0.0,-0.004999999888241291,-3.6675000190734863,-1.6050000190734863,-0.07999999821186066,-0.1274999976158142,0.20999999344348907,0.0,0.0,0.0,44.95497664523036,0.0,0.0,0.0,0.0,461.216,1.148,769.706,-2.231326837357478,-81.2851786205328,-178.0553437953893
14.514825582504272,0.0,0.0,-71.71449161066755,0.0,0.0,0.0,0.0,24,27,33,25,28,27,0,0.00046680550440214574,-27.164941787719727,-21.75644874572754,-0.14684642851352692,-3.148622512817383,0.005732300225645304,0.0,0.09000000357627869,-4.465000152587891,-2.2899999618530273,-0.1574999988079071,-0.5774999856948853,0.20999999344348907,0.0,0.0,0.0,44.95497664523036,0.0,0.0,0.0,0.0,515.998,2.181,560.279,-179.37687094985856,-71.73471702083566,-0.849811001738037
15.015415668487549,0.0,0.0,-53.91498474713339,0.0,0.0,0.0,0.0,24,27,33,25,28,27,0,0.010576922446489334,-32.370182037353516,-20.50136947631836,-0.1604289710521698,-4.5882697105407715,0.006967984139919281,0.0,0.15000000596046448,-4.724999904632568,-2.2799999713897705,-0.20999999344348907,-0.7475000023841858,0.20999999344348907,0.0,0.0,0.0,34.00928431158311,0.0,0.0,0.0,0.0,496.69,2.846,417.983,-179.81564202936974,-53.936470664450795,-0.3692140031823025
15.516009330749512,0.0,0.0,-52.78322121441147,0.0,0.0,0.0,0.0,24,27,33,25,28,27,0,7.12236454900496e-17,-25.774513244628906,-21.274335861206055,-0.12338493019342422,-3.462617874145508,0.004851934500038624,0.0,0.042500000447034836,-3.549999952316284,-3.8975000381469727,-0.1599999964237213,-0.8100000023841858,0.20999999344348907,0.0,0.0,0.0,0.0,0.0,0.0,0.0,0.0,493.98,2.886,409.225,-179.82887735443725,-52.804707131728875,-0.35322848069815255
16.01660466194153,0.0,0.0,-65.04050732564517,0.0,0.0,0.0,0.0,24,27,33,25,28,27,0,-0.011058088392019272,-28.826749801635742,-16.847402572631836,-0.10697724670171738,-2.2241287231445312,0.003554761176928878,0.0,0.14000000059604645,-4.302499771118164,-3.7825000286102295,-0.09000000357627869,-0.7325000166893005,0.20999999344348907,0.0,0.0,0.0,-5.124192757337979,0.0,0.0,0.0,0.0,513.957,2.437,506.288,-179.6171694491364,-65.06136298938793,-0.5942145293301768
16.517197608947754,0.0,0.0,-64.96098078368101,0.0,0.0,0.0,0.0,24,27,33,25,28,27,0,-0.009812165051698685,-20.688230514526367,-30.738521575927734,-0.11070451140403748,-2.343045234680176,0.003774444805458188,0.0,0.1550000011920929,-3.887500047683716,-4.744999885559082,0.0024999999441206455,-0.42500001192092896,0.20999999344348907,0.0,0.0,0.0,8.205945509430583,0.0,0.0,0.0,0.0,513.895,2.44,505.646,-179.61923209719887,-64.98189374320329,-0.5919226981496535
17.017812490463257,0.0,0.0,-52.611906833667355,0.0,0.0,0.0,0.0,24,27,33,25,28,27,0,3.427774585309928e-17,-25.754621505737305,-19.524974822998047,-0.12310418486595154,-3.4641079902648926,0.004840894602239132,0.0,0.0949999988079071,-4.207499980926514,-3.4075000286102295,0.07000000029802322,-0.38999998569488525,0.20999999344348907,0.0,0.0,0.0,0.0,0.0,0.0,0.0,0.0,493.555,2.892,407.904,-179.8307681151612,-52.63339275098477,-0.35087935373811613
17.518059492111206,0.0,0.0,-54.33123858529593,0.0,0.0,0.0,0.0,24,27,33,25,28,27,0,0.010642601177096367,-32.41905975341797,-29.518075942993164,-0.16059543192386627,-4.589563846588135,0.006971808150410652,0.0,0.07000000029802322,-4.127500057220459,-6.619999885559082,0.17749999463558197,-0.5724999904632568,0.20999999344348907,0.0,0.0,0.0,-39.193452533136146,0.0,0.0,0.0,0.0,497.643,2.831,421.218,-179.81054270499305,-54.352724502613334,-0.3752873558106892
18.01869773864746,0.0,0.0,-81.25790582948459,0.0,0.0,0.0,0.0,24,27,33,25,28,27,0,0.0002985674364026636,-26.747394561767578,-21.28209686279297,-0.15264341235160828,-2.8519387245178223,0.0059602465480566025,0.0,0.042500000447034836,-4.760000228881836,-5.329999923706055,0.20999999344348907,-0.6974999904632568,0.20999999344348907,0.0,0.0,0.0,-44.96131506078013,0.0,0.0,0.0,0.0,508.002,1.81,637.077,-178.3815859639368,-81.27555292957462,-1.8665819049771961
18.519280910491943,0.0,0.0,-98.30689527717688,0.0,0.0,0.0,0.0,24,27,33,25,28,27,0,-0.015835627913475037,-28.826749801635742,-17.34188461303711,-0.11247062683105469,-0.7913103699684143,0.0036220266483724117,0.0,0.03999999910593033,-4.302499771118164,-4.099999904632568,0.18000000715255737,-0.5950000286102295,0.20999999344348907,0.0,0.0,0.0,-16.05466700262762,0.0,0.0,0.0,0.0,462.661,1.162,766.983,-2.3187029011149285,-81.66550800494066,-177.96710829493915
19.019899606704712,0.0,0.0,-98.57366442658979,0.0,0.0,0.0,0.0,24,27,33,25,28,27,0,-1.982528796319371e-18,-24.08038330078125,-19.580204010009766,-0.15320613980293274,-2.053499221801758,0.0060246107168495655,0.0,0.125,-3.5325000286102295,-4.045000076293945,0.15000000596046448,-0.19499999284744263,0.20999999344348907,0.0,0.0,0.0,0.0,0.0,0.0,0.0,0.0,461.65,1.152,768.892,-2.2566515719022604,-81.39891074286628,-178.02973258194694
19.52053666114807,0.0,0.0,-99.22649253836185,0.0,0.0,0.0,0.0,24,27,33,25,28,27,0,3.0936030166782147e-19,-23.957962036132812,-25.297950744628906,-0.1529330164194107,-2.021085500717163,0.0060138702392578125,0.0,0.11999999731779099,-3.3299999237060547,-4.414999961853027,0.11500000208616257,-0.03750000149011612,0.20999999344348907,0.0,0.0,0.0,0.0,0.0,0.0,0.0,0.0,459.139,1.128,773.546,-2.119886546204533,-80.7464264057713,-178.16798729791205
20.021124362945557,0.0,0.0,-85.84890205030884,0.0,0.0,0.0,0.0,24,27,33,25,28,27,0,0.00020480134116951376,-26.2851619720459,-21.405874252319336,-0.15414515137672424,-2.661635398864746,0.00601920485496521,0.0,0.11999999731779099,-3.865000009536743,-2.2274999618530273,0.07000000029802322,-0.11999999731779099,0.20999999344348907,0.0,0.0,0.0,45.01197115875953,0.0,0.0,0.0,0.0,499.632,1.632,673.301,-176.25734493848927,-85.86110605134513,-4.0011361707370785
20.521701097488403,0.0,0.0,-67.84410440877932,0.0,0.0,0.0,0.0,24,27,33,25,28,27,0,0.0005357495392672718,-27.168033599853516,-22.050498962402344,-0.14325964450836182,-3.2502729892730713,0.005591148044914007,0.0,0.11999999731779099,-4.65749979019165,-2.3399999141693115,0.03999999910593033,-0.3199999928474426,0.20999999344348907,0.0,0.0,0.0,45.01197115875953,0.0,0.0,0.0,0.0,515.581,2.33,528.937,-179.53420516040146,-67.86478818518354,-0.6835959453705852
21.02203059196472,0.0,0.0,-40.836936594374784,0.0,0.0,0.0,0.0,24,27,33,25,28,27,0,0.0009249880677089095,-24.36237144470215,-18.555200576782227,-0.1012624129652977,-3.534348726272583,0.003939667250961065,0.0,0.11249999701976776,-4.327499866485596,-1.7300000190734863,-2.0426368929626904e-15,-0.6200000047683716,0.20999999344348907,0.0,0.0,0.0,45.01197115875953,0.0,0.0,0.0,0.0,455.105,3.281,320.802,-179.92811364455392,-40.85876628636927,-0.2233389485419949
21.52262854576111,0.0,0.0,-32.32060651910925,0.0,0.0,0.0,0.0,24,27,33,25,28,27,0,3.147779572788893e-17,-22.11742401123047,-12.061650276184082,-0.08283837884664536,-3.4201619625091553,0.003257500007748604,0.0,0.21250000596046448,-3.549999952316284,-2.1050000190734863,-0.019999999552965164,-0.7524999976158142,0.20999999344348907,0.0,0.0,0.0,0.0,0.0,0.0,0.0,0.0,416.602,3.528,263.64,-179.97034063405505,-32.34260809844228,-0.15744880210195022
22.023219347000122,0.0,0.0,-38.82539636722949,0.0,0.0,0.0,0.0,24,27,33,25,28,27,0,0.0009442982263863087,-23.889963150024414,-22.55374526977539,-0.09634170681238174,-3.5222694873809814,0.003746442263945937,0.0,0.11999999731779099,-3.505000114440918,-5.550000190734863,-0.057500001043081284,-0.75,0.20999999344348907,0.0,0.0,0.0,-44.865641185981175,0.0,0.0,0.0,0.0,446.784,3.342,306.794,-179.93963009623604,-38.84728335500348,-0.20632210202660944
22.523817777633667,0.0,0.0,-47.124804621258484,0.0,0.0,0.0,0.0,24,27,33,25,28,27,0,6.522484566103134e-18,-25.01803207397461,-30.68415069580078,-0.1135440245270729,-3.4953930377960205,0.004464955069124699,0.0,0.14000000059604645,-3.700000047683716,-5.355000019073486,-0.08500000089406967,-0.6725000143051147,0.20999999344348907,0.0,0.0,0.0,0.0,0.0,0.0,0.0,0.0,477.869,3.08,366.336,-179.88359482387224,-47.14646242591443,-0.2842443621644014
23.024407863616943,0.0,0.0,-53.83436958535848,0.0,0.0,0.0,0.0,25,27,33,25,28,27,0,0.000762663665227592,-26.27594757080078,-23.75782012939453,-0.12437567114830017,-3.4963154792785645,0.004848617594689131,0.0,0.07000000029802322,-4.03249979019165,-5.762499809265137,-0.12999999523162842,-0.5099999904632568,0.20999999344348907,0.0,0.0,0.0,-44.98298042082741,0.0,0.0,0.0,0.0,496.502,2.849,417.357,-179.81661605762147,-53.855798206896374,-0.36801079181252777
23.524990797042847,0.0,0.0,-71.82753618364686,0.0,0.0,0.0,0.0,24,27,33,25,28,27,0,0.00047176756197586656,-27.16865348815918,-25.161670684814453,-0.14663724601268768,-3.1555750370025635,0.005724021699279547,0.0,0.07000000029802322,-4.445000171661377,-6.007500171661377,-0.15000000596046448,-0.41999998688697815,0.20999999344348907,0.0,0.0,0.0,-44.98298042082741,0.0,0.0,0.0,0.0,515.979,2.177,561.194,-179.37119866768677,-71.84776159381498,-0.8557124670278845
24.02518129348755,0.0,0.0,-98.81734337685893,0.0,0.0,0.0,0.0,24,27,33,25,28,27,0,-4.0886501665227115e-05,-24.382526397705078,-21.27959442138672,-0.15276046097278595,-2.0921006202697754,0.005964808166027069,0.0,0.07000000029802322,-4.502500057220459,-5.329999923706055,-0.20000000298023224,-0.3075000047683716,0.20999999344348907,0.0,0.0,0.0,-44.98298042082741,0.0,0.0,0.0,0.0,460.719,1.143,770.633,-2.2031946096165544,-81.15540367993567,-178.08370520624828
24.52579355239868,0.0,0.0,-116.8105099751473,0.0,0.0,0.0,0.0,25,27,33,25,28,27,0,-0.0003847977495752275,-20.039825439453125,-14.403594970703125,-0.1380811184644699,-1.1159664392471313,0.005387564655393362,0.0,0.07000000029802322,-3.5350000858306885,-4.130000114440918,-0.20250000059604645,-0.23000000417232513,0.20999999344348907,0.0,0.0,0.0,-44.98298042082741,0.0,0.0,0.0,0.0,372.816,0.535,886.138,-0.9476148973668687,-63.16550294107956,-179.38025140084983
25.026046752929688,0.0,0.0,-124.41979056494122,0.0,0.0,0.0,0.0,24,27,33,25,28,27,0,-4.143939536006397e-18,-17.486417770385742,-12.986239433288574,-0.12781088054180145,-0.6129829287528992,0.0050259786657989025,0.0,0.13249999284744263,-2.932499885559082,-2.4700000286102295,-0.10000000149011612,-0.07249999791383743,0.20999999344348907,0.0,0.0,0.0,0.0,0.0,0.0,0.0,0.0,325.584,0.315,925.667,-0.815720012927753,-55.55662342174222,-179.53030904739458
25.52664089202881,0.0,0.0,-118.8466300917037,0.0,0.0,0.0,0.0,24,27,33,25,28,27,0,0.006673247087746859,-22.378000259399414,-17.936752319335938,-0.1542889028787613,-1.5298657417297363,0.006428736262023449,0.0,0.1599999964237213,-3.3399999141693115,-2.619999885559082,-0.029999999329447746,0.007499999832361937,0.20999999344348907,0.0,0.0,0.0,1.1216128978078854,0.0,0.0,0.0,0.0,360.698,0.474,897.325,-0.9052160205271876,-61.129497416082174,-179.42752041894812
26.027229070663452,0.0,0.0,-118.17208687949619,0.0,0.0,0.0,0.0,25,27,33,25,28,27,0,-0.014872124418616295,-19.89900016784668,-15.412476539611816,-0.09539509564638138,0.3016849756240845,0.0029439290519803762,0.0,0.14249999821186066,-2.9700000286102295,-1.7100000381469727,0.07000000029802322,-0.25,0.20999999344348907,0.0,0.0,0.0,24.15906040570481,0.0,0.0,0.0,0.0,364.757,0.494,893.667,-0.9185659371537359,-61.80404062828969,-179.4125662204952
26.527812480926514,0.0,0.0,-100.58594949886874,0.0,0.0,0.0,0.0,24,27,33,25,28,27,0,-8.27035546535626e-05,-23.964460372924805,-20.522932052612305,-0.15178915858268738,-1.9854933023452759,0.0059264847077429295,0.0,0.18250000476837158,-3.7249999046325684,-2.072499990463257,0.13750000298023224,-0.17249999940395355,0.20999999344348907,0.0,0.0,0.0,45.0512686521492,0.0,0.0,0.0,0.0,453.739,1.079,783.142,-1.8892137378848635,-79.38759969883904,-178.4016967825459
27.02846932411194,0.0,0.0,-73.55517582330482,0.0,0.0,0.0,0.0,25,27,33,25,28,27,0,0.00043574697338044643,-27.12933349609375,-18.417156219482422,-0.14831554889678955,-3.0954904556274414,0.005789889954030514,0.0,0.14000000059604645,-4.15749979019165,-1.7050000429153442,0.14749999344348907,-0.29499998688697815,0.20999999344348907,0.0,0.0,0.0,45.0512686521492,0.0,0.0,0.0,0.0,515.454,2.11,575.178,-179.2755147158999,-73.57511475457537,-0.9553498276011347
27.52907633781433,0.0,0.0,-55.53467913818871,0.0,0.0,0.0,0.0,24,27,33,25,28,27,0,0.0007348803337663412,-26.490955352783203,-20.780780792236328,-0.12759514153003693,-3.4742140769958496,0.004975089803338051,0.0,0.029999999329447746,-4.385000228881836,-2.117500066757202,0.14000000059604645,-0.4099999964237213,0.20999999344348907,0.0,0.0,0.0,45.04971136901844,0.0,0.0,0.0,0.0,500.266,2.788,430.606,-179.79507284452453,-55.556050463947095,-0.39367930103438864
28.029584169387817,0.0,0.0,-52.59466080403392,0.0,0.0,0.0,0.0,25,27,33,25,28,27,0,4.480933000278562e-17,-25.752609252929688,-21.252431869506836,-0.12307586520910263,-3.4642560482025146,0.004839781206101179,0.0,0.19499999284744263,-3.9800000190734863,-3.744999885559082,0.0925000011920929,-0.6349999904632568,0.20999999344348907,0.0,0.0,0.0,0.0,0.0,0.0,0.0,0.0,493.512,2.893,407.771,-179.83099729827924,-52.61614672135132,-0.3506501706200638
28.530025959014893,0.0,0.0,-63.79214688161414,0.0,0.0,0.0,0.0,24,27,33,25,28,27,0,0.0006083223270252347,-27.043224334716797,-26.225507736206055,-0.13837496936321259,-3.348043918609619,0.005399181041866541,0.0,0.11749999970197678,-4.897500038146973,-6.192500114440918,0.07000000029802322,-0.7799999713897705,0.20999999344348907,0.0,0.0,0.0,-44.95018185243301,0.0,0.0,0.0,0.0,512.878,2.484,496.234,-179.64822376163252,-63.81311713691593,-0.5602381320789189
29.030630588531494,0.0,0.0,-90.76224432667371,0.0,0.0,0.0,0.0,24,27,33,25,28,27,0,0.00011625666229519993,-25.714683532714844,-24.277307510375977,-0.1545102745294571,-2.469111680984497,0.006033679004758596,0.0,0.18000000715255737,-4.565000057220459,-5.852499961853027,0.02250000089406967,-0.6899999976158142,0.20999999344348907,0.0,0.0,0.0,-44.95018185243301,0.0,0.0,0.0,0.0,487.493,1.444,711.191,-20.714085871585137,-89.16271805000699,-159.55447929483552
29.531224250793457,0.0,0.0,-108.7423474872331,0.0,0.0,0.0,0.0,25,27,33,25,28,27,0,-0.00023294458515010774,-22.20401954650879,-21.526906967163086,-0.14645794034004211,-1.5726457834243774,0.005717032123357058,0.0,0.16249999403953552,-4.170000076293945,-5.372499942779541,-2.0617188511984352e-15,-0.49000000953674316,0.20999999344348907,0.0,0.0,0.0,-44.95018185243301,0.0,0.0,0.0,0.0,416.709,0.794,837.79,-1.209800384418733,-71.23297787963959,-179.0995020812357
30.03182578086853,0.0,0.0,-122.63686049805311,0.0,0.0,0.0,0.0,24,27,33,25,28,27,0,-7.02593398386312e-18,-18.043428421020508,-13.543249130249023,-0.1304738074541092,-0.7198669910430908,0.005130694713443518,0.0,0.08250000327825546,-2.9100000858306885,-3.049999952316284,-0.029999999329447746,-0.07000000029802322,0.20999999344348907,0.0,0.0,0.0,0.0,0.0,0.0,0.0,0.0,337.115,0.364,916.974,-0.8408155643544831,-57.33943889707129,-179.50085901672486
30.532406330108643,0.0,0.0,-123.11648346835715,0.0,0.0,0.0,0.0,24,27,33,25,28,27,0,0.014016394503414631,-20.702999114990234,-21.081562042236328,-0.17039281129837036,0.9100000262260437,0.007483243010938168,0.0,0.08500000089406967,-3.0899999141693115,-3.3399999141693115,-0.05999999865889549,0.16249999403953552,0.20999999344348907,0.0,0.0,0.0,-19.906220920881566,0.0,0.0,0.0,0.0,334.04,0.351,919.348,-0.833768183474374,-56.859873222546796,-179.5090523131952
31.033005714416504,0.0,0.0,-126.07884715652203,0.0,0.0,0.0,0.0,24,27,33,25,28,27,0,1.093975476858941e-17,-16.9567813873291,-12.456602096557617,-0.1252216398715973,-0.5129855275154114,0.004924160894006491,0.0,0.07249999791383743,-2.747499942779541,-2.369999885559082,-0.10000000149011612,8.975546000877799e-14,0.20999999344348907,0.0,0.0,0.0,0.0,0.0,0.0,0.0,0.0,314.615,0.271,933.432,-0.7946924618464518,-53.89756683016141,-179.55540459882133
31.533613204956055,0.0,0.0,-116.32601686358468,0.0,0.0,0.0,0.0,24,27,33,25,28,27,0,-0.0003815710952039808,-20.075246810913086,-18.18596649169922,-0.13823315501213074,-1.1231184005737305,0.005393645726144314,0.0,0.0024999999441206455,-3.117500066757202,-1.6675000190734863,-0.12999999523162842,-0.05999999865889549,0.20999999344348907,0.0,0.0,0.0,44.9281135112247,0.0,0.0,0.0,0.0,375.64,0.55,883.413,-0.9587302785924066,-63.64993875686266,-179.36804739981355
32.03403663635254,0.0,0.0,-89.36915474359262,0.0,0.0,0.0,0.0,25,27,33,25,28,27,0,0.0001361780596198514,-25.855497360229492,-21.810190200805664,-0.1545138955116272,-2.514134407043457,0.006033862475305796,0.0,0.05000000074505806,-3.9124999046325684,-2.299999952316284,-0.17000000178813934,-0.17000000178813934,0.20999999344348907,0.0,0.0,0.0,44.9281135112247,0.0,0.0,0.0,0.0,491.264,1.497,700.555,-154.66571690788174,-89.32520888070609,-25.601702342948627
32.534645318984985,0.0,0.0,-84.46858942605918,0.0,0.0,0.0,0.0,24,27,33,25,28,27,0,-4.655250478308088e-19,-26.08121681213379,-15.728850364685059,-0.15421609580516815,-2.6820151805877686,0.006064326036721468,0.0,-0.06499999761581421,-4.460000038146973,-2.744999885559082,-0.20000000298023224,-0.39250001311302185,0.20999999344348907,0.0,0.0,0.0,0.0,0.0,0.0,0.0,0.0,502.453,1.686,662.482,-177.26775601020248,-84.48337173717356,-2.9875738311506517
33.03525471687317,0.0,0.0,-75.99878352375828,0.0,0.0,0.0,0.0,24,27,33,25,28,27,0,0.00038736365968361497,-27.039976119995117,-23.31566619873047,-0.15003401041030884,-3.0194907188415527,0.005857881158590317,0.0,0.02500000037252903,-3.9124999046325684,-2.565000057220459,-0.20250000059604645,-0.5600000023841858,0.20999999344348907,0.0,0.0,0.0,44.83017884381047,0.0,0.0,0.0,0.0,513.992,2.015,594.916,-179.09921560233815,-76.01832138457223,-1.1371493359961449
33.535825967788696,0.0,0.0,-69.68083521263019,0.0,0.0,0.0,0.0,24,27,33,25,28,27,0,6.155100568843832e-18,-26.78050422668457,-16.1872501373291,-0.14529626071453094,-3.166762351989746,0.005713566206395626,0.0,0.07999999821186066,-4.347499847412109,-2.825000047683716,-0.20000000298023224,-0.5074999928474426,0.20999999344348907,0.0,0.0,0.0,0.0,0.0,0.0,0.0,0.0,516.043,2.26,543.807,-179.4671690983712,-69.70134710169589,-0.7548718950848595
34.03642725944519,0.0,0.0,-69.35533788921639,0.0,0.0,0.0,0.0,24,27,33,25,28,27,0,0.00188840099144727,-27.947288513183594,-21.84926986694336,-0.1504279375076294,-3.346522569656372,0.006019675638526678,0.0,0.12250000238418579,-3.752500057220459,-3.1675000190734863,-0.17749999463558197,-0.46000000834465027,0.20999999344348907,0.0,0.0,0.0,7.2593154414126655,0.0,0.0,0.0,0.0,515.996,2.272,541.171,-179.47994605720257,-69.37584977828206,-0.7413500911197722
34.53701043128967,0.0,0.0,-69.24544458411029,0.0,0.0,0.0,0.0,25,27,33,25,28,27,0,6.265004748111303e-18,-26.778709411621094,-22.27853012084961,-0.14488321542739868,-3.1779801845550537,0.005697323940694332,0.0,0.02250000089406967,-4.662499904632568,-3.697499990463257,-0.15000000596046448,-0.4000000059604645,0.20999999344348907,0.0,0.0,0.0,0.0,0.0,0.0,0.0,0.0,515.977,2.277,540.281,-179.48412864910702,-69.26595647317598,-0.7368810203177517
35.03759789466858,0.0,0.0,-93.27953439958097,0.0,0.0,0.0,0.0,24,27,33,25,28,27,0,6.762926932424307e-05,-25.343955993652344,-25.108867645263672,-0.15428946912288666,-2.3563246726989746,0.0060247741639614105,0.0,0.08250000327825546,-4.304999828338623,-6.0,-0.11999999731779099,-0.5099999904632568,0.20999999344348907,0.0,0.0,0.0,-45.0680777476966,0.0,0.0,0.0,0.0,480.028,1.349,730.163,-5.360765018582521,-86.68507665652277,-174.91375890890748
35.53806471824646,0.0,0.0,-111.30679198667963,0.0,0.0,0.0,0.0,24,27,33,25,28,27,0,-0.0002831486635841429,-21.55354881286621,-19.522117614746094,-0.14410224556922913,-1.430580735206604,0.005624176003038883,0.0,0.16500000655651093,-3.4574999809265137,-5.025000095367432,-0.10000000149011612,-0.49000000953674316,0.20999999344348907,0.0,0.0,0.0,-45.0680777476966,0.0,0.0,0.0,0.0,403.502,0.709,853.821,-1.1044907416736878,-68.66881985909062,-179.2106558934911
36.03873944282532,0.0,0.0,-115.51092710423156,0.0,0.0,0.0,0.0,24,27,33,25,28,27,0,2.9931987999507625e-19,-20.13355255126953,-15.633373260498047,-0.13983164727687836,-1.1390786170959473,0.005498677957803011,0.0,0.019999999552965164,-3.625,-3.140000104904175,-0.07000000029802322,0.017500000074505806,0.20999999344348907,0.0,0.0,0.0,0.0,0.0,0.0,0.0,0.0,380.34,0.575,878.775,-0.9784400267449067,-64.46497122043627,-179.3464468909371
36.539358615875244,0.0,0.0,-103.92085034542771,0.0,0.0,0.0,0.0,25,27,33,25,28,27,0,-0.00014777375326957554,-23.25423240661621,-18.53183364868164,-0.14984771609306335,-1.8129440546035767,0.005850139074027538,0.0,0.02250000089406967,-3.694999933242798,-1.725000023841858,-0.05000000074505806,0.07000000029802322,0.20999999344348907,0.0,0.0,0.0,45.05185604841782,0.0,0.0,0.0,0.0,439.542,0.96,806.12,-1.5146139314283311,-76.0536155847523,-178.78380233611864
37.03995180130005,0.0,0.0,-76.88979019096621,0.0,0.0,0.0,0.0,24,27,33,25,28,27,0,0.0003747554437723011,-27.002344131469727,-19.291059494018555,-0.150587797164917,-2.9909472465515137,0.005879241973161697,0.0,0.07249999791383743,-4.25,-1.8574999570846558,-0.017500000074505806,-0.39250001311302185,0.20999999344348907,0.0,0.0,0.0,45.05185604841782,0.0,0.0,0.0,0.0,513.25,1.98,602.095,-179.01837125744518,-76.90904157288261,-1.2199417373925487
37.54054093360901,0.0,0.0,-58.86900702695254,0.0,0.0,0.0,0.0,24,27,33,25,28,27,0,0.0006841912399977446,-26.776575088500977,-20.078933715820312,-0.1324547529220581,-3.4288558959960938,0.005166185554116964,0.0,0.11500000208616257,-4.610000133514404,-1.9950000047683716,-2.0755966390062497e-15,-0.6825000047683716,0.20999999344348907,0.0,0.0,0.0,45.05185604841782,0.0,0.0,0.0,0.0,506.497,2.667,456.882,-179.74562658680475,-58.8902637611519,-0.4512042636655233
38.04112768173218,0.0,0.0,-50.883121278419125,0.0,0.0,0.0,0.0,25,27,33,25,28,27,0,9.054515026810616e-18,-25.543285369873047,-21.043106079101562,-0.1202099397778511,-3.4774093627929688,0.004727082792669535,0.0,0.06750000268220901,-3.9600000381469727,-3.494999885559082,0.027499999850988388,-0.8299999833106995,0.20999999344348907,0.0,0.0,0.0,0.0,0.0,0.0,0.0,0.0,489.043,2.952,394.648,-179.8491600603849,-50.90466449151604,-0.32819022505093554
38.54169249534607,0.0,0.0,-43.80348287444413,0.0,0.0,0.0,0.0,24,27,33,25,28,27,0,0.005480128340423107,-27.868038177490234,-20.64259147644043,-0.12711308896541595,-4.162991046905518,0.005348945967853069,0.0,0.10249999910593033,-3.3475000858306885,-2.1600000858306885,0.04749999940395355,-0.7049999833106995,0.20999999344348907,0.0,0.0,0.0,41.00900560698474,0.0,0.0,0.0,0.0,466.467,3.188,341.972,-179.9088622626375,-43.825255270659106,-0.2504398522516828
39.04203414916992,0.0,0.0,-42.058482613593696,0.0,0.0,0.0,0.0,24,27,33,25,28,27,0,6.359416248095961e-18,-24.17078971862793,-19.670612335205078,-0.10379093140363693,-3.495837688446045,0.004081428982317448,0.0,0.1550000011920929,-3.9000000953674316,-3.327500104904175,0.07999999821186066,-0.4399999976158142,0.20999999344348907,0.0,0.0,0.0,0.0,0.0,0.0,0.0,0.0,459.916,3.243,329.448,-179.92049330587867,-42.08031230558818,-0.23416785086996747
39.542643308639526,0.0,0.0,-54.35994377083199,0.0,0.0,0.0,0.0,24,27,33,25,28,27,0,0.000756486551836133,-26.333887100219727,-19.85666275024414,-0.1252117156982422,-3.491147041320801,0.004881415981799364,0.0,0.0625,-3.809999942779541,-5.082499980926514,0.10000000149011612,-0.4375,0.20999999344348907,0.0,0.0,0.0,-45.02416646152259,0.0,0.0,0.0,0.0,497.708,2.83,421.441,-179.81019893031598,-54.381372392369876,-0.37574572204679385
40.04323887825012,0.0,0.0,-81.3744454450142,0.0,0.0,0.0,0.0,25,27,33,25,28,27,0,0.00029720610473304987,-26.739463806152344,-21.57566261291504,-0.15269070863723755,-2.847818374633789,0.005961987655609846,0.0,5.629177679544739e-15,-3.880000114440918,-5.382500171661377,0.12999999523162842,-0.46000000834465027,0.20999999344348907,0.0,0.0,0.0,-45.02416646152259,0.0,0.0,0.0,0.0,507.826,1.806,638.005,-178.35568827159688,-81.3920352493247,-1.8927087804351614
40.54384160041809,0.0,0.0,-99.38411322780233,0.0,0.0,0.0,0.0,25,27,33,25,28,27,0,-5.205345223657787e-05,-24.274229049682617,-18.911212921142578,-0.15252208709716797,-2.064037799835205,0.0059553575702011585,0.0,0.014999999664723873,-3.940000057220459,-4.917500019073486,0.15000000596046448,-0.47999998927116394,0.20999999344348907,0.0,0.0,0.0,-45.02416646152259,0.0,0.0,0.0,0.0,458.524,1.123,774.665,-2.0896916704011383,-80.58892030788984,-178.1985259483925
41.044448137283325,0.0,0.0,-116.5482098965364,0.0,0.0,0.0,0.0,24,27,33,25,28,27,0,-9.701883117806867e-18,-19.84360122680664,-20.155275344848633,-0.13860076665878296,-1.0790005922317505,0.005450275260955095,0.0,0.11500000208616257,-2.674999952316284,-3.5174999237060547,0.12999999523162842,-0.2150000035762787,0.20999999344348907,0.0,0.0,0.0,0.0,0.0,0.0,0.0,0.0,374.348,0.543,884.666,-0.9536309542157422,-63.427803019690444,-179.3736623862058
41.54504871368408,0.0,0.0,-116.5482098965364,0.0,0.0,0.0,0.0,25,27,33,25,28,27,0,-9.701883117806867e-18,-19.84360122680664,-15.343422889709473,-0.13860076665878296,-1.0790005922317505,0.005450275260955095,0.0,0.11999999731779099,-3.5824999809265137,-2.555000066757202,0.05249999836087227,0.0625,0.20999999344348907,0.0,0.0,0.0,0.0,0.0,0.0,0.0,0.0,374.348,0.543,884.666,-0.9536309542157422,-63.427803019690444,-179.3736623862058
42.04565477371216,0.0,0.0,-92.54918509812772,0.0,0.0,0.0,0.0,25,27,33,25,28,27,0,7.468488183803856e-05,-25.400388717651367,-21.09040641784668,-0.1543414294719696,-2.3731164932250977,0.006026927847415209,0.0,0.10499999672174454,-3.9024999141693115,-2.172499895095825,-0.05000000074505806,-0.11500000208616257,0.20999999344348907,0.0,0.0,0.0,45.00957034726627,0.0,0.0,0.0,0.0,482.279,1.376,724.693,-6.7844505479235915,-87.41181632386672,-173.48835450618103
42.54604172706604,0.0,0.0,-74.5453614848499,0.0,0.0,0.0,0.0,24,27,33,25,28,27,0,0.0004170075408183038,-27.098886489868164,-24.413806915283203,-0.14904390275478363,-3.0654377937316895,0.005818610079586506,0.0,0.11999999731779099,-4.377500057220459,-2.752500057220459,-0.12999999523162842,-0.4399999976158142,0.20999999344348907,0.0,0.0,0.0,45.00957034726627,0.0,0.0,0.0,0.0,514.963,2.072,583.184,-179.21088507660915,-74.56518582456144,-1.0222140022929016
43.046663999557495,0.0,0.0,-47.5396260649332,0.0,0.0,0.0,0.0,25,27,33,25,28,27,0,0.0008444570121355355,-25.50442886352539,-22.365331649780273,-0.1142120361328125,-3.5353505611419678,0.0044488972052931786,0.0,0.10249999910593033,-4.550000190734863,-2.3949999809265137,-0.22499999403953552,-0.7799999713897705,0.20999999344348907,0.0,0.0,0.0,45.00957034726627,0.0,0.0,0.0,0.0,479.193,3.066,369.424,-179.88015707710147,-47.56128386958915,-0.2887707287459349
43.54726696014404,0.0,0.0,-44.06498081214184,0.0,0.0,0.0,0.0,25,27,33,25,28,27,0,-1.4592350054715074e-18,-24.52511978149414,-20.024940490722656,-0.10775504261255264,-3.4989328384399414,0.004237311892211437,0.0,0.08749999850988388,-3.8424999713897705,-2.9700000286102295,-0.20999999344348907,-0.8274999856948853,0.20999999344348907,0.0,0.0,0.0,0.0,0.0,0.0,0.0,0.0,467.416,3.18,343.866,-179.9070287976931,-44.08675320835681,-0.25296086655025846
44.047879457473755,0.0,0.0,-56.55208029500251,0.0,0.0,0.0,0.0,25,27,33,25,28,27,0,0.0007247258326970041,-26.55296516418457,-25.92860221862793,-0.12858782708644867,-3.466170072555542,0.0050141466781497,0.0,0.07000000029802322,-4.6875,-6.142499923706055,-0.13750000298023224,-0.7300000190734863,0.20999999344348907,0.0,0.0,0.0,-45.040282292869236,0.0,0.0,0.0,0.0,502.329,2.752,438.585,-179.78109267432336,-56.57345162076089,-0.4101231897546433
44.54848074913025,0.0,0.0,-74.56822250087563,0.0,0.0,0.0,0.0,25,27,33,25,28,27,0,0.0004237100947648287,-27.110305786132812,-24.968826293945312,-0.14880041778087616,-3.075810670852661,0.005808977410197258,0.0,5.5376710161869624e-15,-4.792500019073486,-5.974999904632568,-0.08749999850988388,-0.6800000071525574,0.20999999344348907,0.0,0.0,0.0,-45.040282292869236,0.0,0.0,0.0,0.0,514.95,2.071,583.368,-179.20928079478279,-74.58798954480764,-1.023875579898781
45.04912781715393,0.0,0.0,-101.59240716179556,0.0,0.0,0.0,0.0,25,27,33,25,28,27,0,-9.529141243547201e-05,-23.8317928314209,-22.605201721191406,-0.15145333111286163,-1.9525401592254639,0.005913299508392811,0.0,-0.014999999664723873,-4.320000171661377,-5.5625,-0.017500000074505806,-0.5600000023841858,0.20999999344348907,0.0,0.0,0.0,-45.040282292869236,0.0,0.0,0.0,0.0,449.596,1.043,790.163,-1.7533654446593452,-78.38148581058931,-178.5397796111724
45.549718141555786,0.0,0.0,-119.60849207188917,0.0,0.0,0.0,0.0,25,27,33,25,28,27,0,-0.00043681825627572834,-19.215534210205078,-18.680152893066406,-0.1345251500606537,-0.9522504806518555,0.005247623194009066,0.0,0.09749999642372131,-3.627500057220459,-4.877500057220459,0.019999999552965164,-0.3824999928474426,0.20999999344348907,0.0,0.0,0.0,-45.040282292869236,0.0,0.0,0.0,0.0,356.063,0.451,901.399,-0.890892075648917,-60.36769273167623,-179.4436205329913
46.05003619194031,0.0,0.0,-128.13204141537335,0.0,0.0,0.0,0.0,25,27,33,25,28,27,0,1.7261930931917927e-17,-16.286928176879883,-11.786749839782715,-0.12187227606773376,-0.38864946365356445,0.0047924513928592205,0.0,0.15000000596046448,-2.609999895095825,-2.242500066757202,0.09000000357627869,0.08250000327825546,0.20999999344348907,0.0,0.0,0.0,0.0,0.0,0.0,0.0,0.0,300.737,0.218,942.595,-0.7713730795846273,-51.844487162869136,-179.5837660096803
46.5506489276886,0.0,0.0,-122.50639800810184,0.0,0.0,0.0,0.0,25,27,33,25,28,27,0,-0.0004931774456053972,-6.54925012588501,-7.604063510894775,-0.12998221814632416,-0.7586259841918945,0.005069129168987274,0.0,0.1599999964237213,-0.9775000214576721,0.18000000715255737,0.14000000059604645,0.2800000011920929,0.20999999344348907,0.0,0.0,0.0,44.96036907958008,0.0,0.0,0.0,0.0,337.948,0.368,916.324,-0.8427636208579279,-57.46990138702258,-179.49862448132384
47.05125188827515,0.0,0.0,-95.53022721041387,0.0,0.0,0.0,0.0,25,27,33,25,28,27,0,1.6338444766006432e-05,-24.913454055786133,-16.313663482666016,-0.15374931693077087,-2.234185218811035,0.006003736052662134,0.0,0.08500000089406967,-3.7825000286102295,-1.340000033378601,0.11999999731779099,-0.1599999964237213,0.1899999976158142,0.0,0.0,0.0,44.96036907958008,0.0,0.0,0.0,0.0,472.653,1.264,746.835,-3.319201802972372,-84.43965505740506,-176.9604214488943
47.55184268951416,0.0,0.0,-77.54605604950906,0.0,0.0,0.0,0.0,25,27,33,25,28,27,0,0.0003611287393141538,-26.96681022644043,-22.21556282043457,-0.1509764939546585,-2.9690258502960205,0.0058946991339325905,0.0,0.11500000208616257,-4.264999866485596,-2.369999885559082,0.06750000268220901,-0.4699999988079071,0.16249999403953552,0.0,0.0,0.0,44.96036907958008,0.0,0.0,0.0,0.0,512.632,1.955,607.375,-178.9513924911944,-77.56519283986644,-1.2884101939106822
48.05242919921875,0.0,0.0,-50.56982795604159,0.0,0.0,0.0,0.0,25,27,33,25,28,27,0,0.000802478869445622,-25.926406860351562,-23.304264068603516,-0.11956249177455902,-3.52001690864563,0.004659388214349747,0.0,0.09000000357627869,-4.71750020980835,-2.559999942779541,-0.009999999776482582,-0.7699999809265137,0.14000000059604645,0.0,0.0,0.0,44.96036907958008,0.0,0.0,0.0,0.0,488.183,2.963,392.261,-179.8523113282581,-50.59142846491802,-0.3242368162645329
48.553014516830444,0.0,0.0,-41.52717885016889,0.0,0.0,0.0,0.0,25,27,33,25,28,27,0,-1.1933623027919836e-17,-24.07291603088379,-17.30459976196289,-0.10271982848644257,-3.494300127029419,0.004039308987557888,0.0,0.20999999344348907,-4.192500114440918,-3.0199999809265137,-0.06499999761581421,-0.8199999928474426,0.11749999970197678,0.0,0.0,0.0,0.0,0.0,0.0,0.0,0.0,457.847,3.26,325.675,-179.92387375686997,-41.54900854216337,-0.2294123011703816
49.05360746383667,0.0,0.0,-47.694783035854634,0.0,0.0,0.0,0.0,25,27,33,25,28,27,0,0.0008456896175630391,-25.473066329956055,-25.363449096679688,-0.1138395220041275,-3.535959243774414,0.004434318281710148,0.0,0.0949999988079071,-4.119999885559082,-6.042500019073486,-0.15000000596046448,-0.7300000190734863,0.07999999821186066,0.0,0.0,0.0,-44.97232874081678,0.0,0.0,0.0,0.0,479.683,3.061,370.582,-179.87883927417266,-47.71649813629009,-0.29048960213132735
49.55405616760254,0.0,0.0,-65.68376704223856,0.0,0.0,0.0,0.0,25,27,33,25,28,27,0,0.0005775625468231738,-27.113079071044922,-24.403675079345703,-0.14057181775569916,-3.308486223220825,0.005485527217388153,0.0,0.07500000298023224,-4.862500190734863,-5.875,-0.20000000298023224,-0.6675000190734863,0.054999999701976776,0.0,0.0,0.0,-44.97232874081678,0.0,0.0,0.0,0.0,514.428,2.413,511.477,-179.59986612372347,-65.7045654102018,-0.6129502492309546
50.05465006828308,0.0,0.0,-92.66715710814516,0.0,0.0,0.0,0.0,25,27,33,25,28,27,0,7.928046397864819e-05,-25.436832427978516,-25.105600357055664,-0.15437190234661102,-2.3840465545654297,0.006028196308761835,0.0,0.03999999910593033,-4.614999771118164,-5.997499942779541,-0.24250000715255737,-0.5799999833106995,0.019999999552965164,0.0,0.0,0.0,-44.97232874081678,0.0,0.0,0.0,0.0,481.92,1.372,725.578,-6.502784495837278,-87.29458915898294,-173.77036433294444
50.55523943901062,0.0,0.0,-110.65608381874956,0.0,0.0,0.0,0.0,25,27,33,25,28,27,0,-0.0002696256269700825,-21.721086502075195,-23.529850006103516,-0.14472855627536774,-1.4667664766311646,0.005648985505104065,0.0,0.019999999552965164,-3.992500066757202,-5.722499847412109,-0.20000000298023224,-0.47999998927116394,5.680352022086055e-15,0.0,0.0,0.0,-44.97232874081678,0.0,0.0,0.0,0.0,406.92,0.731,849.81,-1.1286695606282087,-69.3194707312412,-179.18498738426925
51.05582857131958,0.0,0.0,-119.7018841924955,0.0,0.0,0.0,0.0,25,27,33,25,28,27,0,-4.059068240898558e-17,-18.931543350219727,-14.431365966796875,-0.13458110392093658,-0.8942482471466064,0.005292207933962345,0.0,0.13750000298023224,-3.112499952316284,-2.572499990463257,-0.12999999523162842,-0.009999999776482582,-0.029999999329447746,0.0,0.0,0.0,0.0,0.0,0.0,0.0,0.0,355.491,0.448,901.894,-0.8891732022635246,-60.274300611069904,-179.44556858949474
51.55641484260559,0.0,0.0,-113.17904617382862,0.0,0.0,0.0,0.0,25,27,33,25,28,27,0,-0.00032364597427658737,-11.189000129699707,-13.533356666564941,-0.14181950688362122,-1.3042073249816895,0.0055346316657960415,0.0,0.1599999964237213,-1.6699999570846558,-0.8550000190734863,-0.07999999821186066,0.1850000023841858,-0.02250000089406967,0.0,0.0,0.0,44.95087853172835,0.0,0.0,0.0,0.0,393.413,0.649,865.144,-1.042554004020046,-66.79668026350066,-179.27688981460824
52.05702090263367,0.0,0.0,-86.20854765831247,0.0,0.0,0.0,0.0,25,27,33,25,28,27,0,0.0001973410981008783,-26.244186401367188,-20.108531951904297,-0.15421055257320404,-2.6469218730926514,0.006021891720592976,0.0,0.10999999940395355,-4.072500228881836,-2.002500057220459,-0.004999999888241291,-0.25999999046325684,-0.02250000089406967,0.0,0.0,0.0,44.95087853172835,0.0,0.0,0.0,0.0,498.854,1.619,676.108,-175.87300484951552,-86.21977763109702,-4.386221104844504
52.557618141174316,0.0,0.0,-68.22821531463502,0.0,0.0,0.0,0.0,25,27,33,25,28,27,0,0.0005276982556097209,-27.17136001586914,-22.257282257080078,-0.1436459720134735,-3.2407355308532715,0.005606454331427813,0.0,0.10750000178813934,-4.53000020980835,-2.377500057220459,0.032499998807907104,-0.5724999904632568,-0.02500000037252903,0.0,0.0,0.0,44.95087853172835,0.0,0.0,0.0,0.0,515.717,2.316,532.045,-179.5211417226725,-68.24884179525974,-0.6975761155717772
53.058061361312866,0.0,0.0,-48.57971635043418,0.0,0.0,0.0,0.0,25,27,33,25,28,27,0,2.464773894025898e-17,-25.23196792602539,-24.123300552368164,-0.1161840632557869,-3.4902119636535645,0.004568770993500948,0.0,0.1599999964237213,-4.4375,-4.210000038146973,0.10249999910593033,-0.8199999928474426,5.689025639465939e-15,0.0,0.0,0.0,0.0,0.0,0.0,0.0,0.0,482.415,3.031,377.209,-179.8711043439384,-48.60131685931062,-0.30045906776660375
53.558671951293945,0.0,0.0,-48.57971635043418,0.0,0.0,0.0,0.0,25,27,33,25,28,27,0,2.464773894025898e-17,-25.23196792602539,-20.731788635253906,-0.1161840632557869,-3.4902119636535645,0.004568770993500948,0.0,0.07249999791383743,-3.5299999713897705,-3.637500047683716,0.13750000298023224,-0.7900000214576721,0.007499999832361937,0.0,0.0,0.0,0.0,0.0,0.0,0.0,0.0,482.415,3.031,377.209,-179.8711043439384,-48.60131685931062,-0.30045906776660375
54.059316873550415,0.0,0.0,-34.17550008506578,0.0,0.0,0.0,0.0,25,27,33,25,28,27,0,1.1946596528647117e-17,-22.549715042114258,-22.304025650024414,-0.0870329961180687,-3.44228196144104,0.003422447247430682,0.0,0.09749999642372131,-3.8350000381469727,-3.8924999237060547,0.15000000596046448,-0.5699999928474426,0.032499998807907104,0.0,0.0,0.0,0.0,0.0,0.0,0.0,0.0,425.705,3.477,275.592,-179.96254840804127,-34.19744436861929,-0.17056953561044608
54.559898376464844,0.0,0.0,-34.17550008506578,0.0,0.0,0.0,0.0,25,27,33,25,28,27,0,1.1946596528647117e-17,-22.549715042114258,-18.049535751342773,-0.0870329961180687,-3.44228196144104,0.003422447247430682,0.0,0.09749999642372131,-3.315000057220459,-2.882499933242798,0.11999999731779099,-0.4449999928474426,0.04500000178813934,0.0,0.0,0.0,0.0,0.0,0.0,0.0,0.0,425.705,3.477,275.592,-179.96254840804127,-34.19744436861929,-0.17056953561044608
55.06050753593445,0.0,0.0,-56.732275521571154,0.0,0.0,0.0,0.0,25,27,33,25,28,27,0,0.0007209288887679577,-26.568912506103516,-24.628963470458984,-0.12885782122612,-3.4638264179229736,0.005024828016757965,0.0,0.10000000149011612,-4.019999980926514,-5.914999961853027,0.07999999821186066,-0.4300000071525574,0.07249999791383743,0.0,0.0,0.0,-45.006203064005454,0.0,0.0,0.0,0.0,502.679,2.745,440.001,-179.77851436424524,-56.75358955155002,-0.41315986606883665
55.561105489730835,0.0,0.0,-74.73472403614065,0.0,0.0,0.0,0.0,25,27,33,25,28,27,0,0.0004200455150566995,-27.104433059692383,-26.06146240234375,-0.14892171323299408,-3.070664167404175,0.005813810974359512,0.0,0.10249999910593033,-4.517499923706055,-6.164999961853027,0.05000000074505806,-0.4300000071525574,0.09000000357627869,0.0,0.0,0.0,-45.006203064005454,0.0,0.0,0.0,0.0,514.853,2.064,584.714,-179.1975351599826,-74.75449108007267,-1.0359649893760414
56.06169629096985,0.0,0.0,-87.39015851921077,0.0,0.0,0.0,0.0,25,27,33,25,28,27,0,7.621543936365856e-19,-25.770782470703125,-21.27060317993164,-0.15477685630321503,-2.5639894008636475,0.006086376961320639,0.0,0.1599999964237213,-3.4200000762939453,-4.487500190734863,0.012500000186264515,-0.4300000071525574,0.11999999731779099,0.0,0.0,0.0,0.0,0.0,0.0,0.0,0.0,496.174,1.573,685.296,-173.86513155225904,-87.39623187183915,-6.396844599517589
56.56205749511719,0.0,0.0,-85.82392109044115,0.0,0.0,0.0,0.0,25,27,33,25,28,27,0,-0.014719006605446339,-26.2137508392334,-17.71930503845215,-0.11536862701177597,-1.4227690696716309,0.003752319607883692,0.0,0.11249999701976776,-3.9124999046325684,-1.7925000190734863,-0.007499999832361937,-0.4300000071525574,0.14000000059604645,0.0,0.0,0.0,37.72393050301873,0.0,0.0,0.0,0.0,499.685,1.633,673.105,-176.2815810532233,-85.83618238725694,-3.976842760223531
57.06266164779663,0.0,0.0,-58.894217169938294,0.0,0.0,0.0,0.0,25,27,33,25,28,27,0,0.000682343787048012,-26.777568817138672,-21.476417541503906,-0.13249044120311737,-3.428382396697998,0.005167679861187935,0.0,0.14249999821186066,-4.684999942779541,-2.240000009536743,-0.05000000074505806,-0.4300000071525574,0.1599999964237213,0.0,0.0,0.0,45.003805667606784,0.0,0.0,0.0,0.0,506.538,2.666,457.082,-179.74522551634814,-58.915473904137656,-0.4516626299016279
57.56325602531433,0.0,0.0,-40.892742683620526,0.0,0.0,0.0,0.0,25,27,33,25,28,27,0,0.0009240345098078251,-24.372875213623047,-19.170093536376953,-0.1013762578368187,-3.534539222717285,0.003944159485399723,0.0,0.07999999821186066,-4.114999771118164,-1.837499976158142,-0.07999999821186066,-0.4300000071525574,0.18000000715255737,0.0,0.0,0.0,45.003805667606784,0.0,0.0,0.0,0.0,455.329,3.28,321.194,-179.92776986987684,-40.91457237561501,-0.22379731477809955
58.06385064125061,0.0,0.0,-37.23887623251224,0.0,0.0,0.0,0.0,25,27,33,25,28,27,0,-3.26909189619245e-17,-23.2220401763916,-18.721860885620117,-0.09375888109207153,-3.4709060192108154,0.003686932846903801,0.0,0.09000000357627869,-3.242500066757202,-3.0,-0.11999999731779099,-0.5400000214576721,0.20000000298023224,0.0,0.0,0.0,0.0,0.0,0.0,0.0,0.0,439.878,3.389,295.957,-179.94805257582448,-37.26082051606575,-0.19360243897470517
58.56444716453552,0.0,0.0,-48.63769967930143,0.0,0.0,0.0,0.0,25,27,33,25,28,27,0,0.0008351598517037928,-25.613004684448242,-19.155536651611328,-0.11554484069347382,-3.5325512886047363,0.004501293413341045,0.0,0.09749999642372131,-3.9725000858306885,-4.960000038146973,-0.15000000596046448,-0.6175000071525574,0.20999999344348907,0.0,0.0,0.0,-45.01725089498795,0.0,0.0,0.0,0.0,482.59,3.029,377.644,-179.87058868192278,-48.65930018817786,-0.3011466171207607
59.06504726409912,0.0,0.0,-75.64801876157918,0.0,0.0,0.0,0.0,25,27,33,25,28,27,0,0.0004036130558233708,-27.07229995727539,-23.12356185913086,-0.14956018328666687,-3.042377233505249,0.005838897544890642,0.0,0.125,-4.974999904632568,-5.652500152587891,-0.1899999976158142,-0.7124999761581421,0.20999999344348907,0.0,0.0,0.0,-45.01725089498795,0.0,0.0,0.0,0.0,514.254,2.029,592.087,-179.12826456255127,-75.66761391817265,-1.107298234869829
59.56564402580261,0.0,0.0,-93.83501698196031,0.0,0.0,0.0,0.0,25,27,33,25,28,27,0,5.661012255586684e-05,-25.255504608154297,-19.900436401367188,-0.1542019098997116,-2.330672264099121,0.006021426524966955,0.0,0.14749999344348907,-4.284999847412109,-5.090000152587891,-0.2150000035762787,-0.6499999761581421,0.20999999344348907,0.0,0.0,0.0,-45.01725089498795,0.0,0.0,0.0,0.0,478.268,1.328,734.304,-4.636546365537161,-86.13148483486736,-175.63923806910213
60.066049337387085,0.0,0.0,-120.84533606423807,0.0,0.0,0.0,0.0,25,27,33,25,28,27,0,-0.0004585895221680403,-18.8393497467041,-15.35941219329834,-0.13285081088542938,-0.8790636658668518,0.005181825254112482,0.0,0.125,-3.2125000953674316,-4.297500133514404,-0.1899999976158142,-0.36500000953674316,0.20999999344348907,0.0,0.0,0.0,-45.01725089498795,0.0,0.0,0.0,0.0,348.424,0.415,907.881,-0.8691769752134588,-59.13090603510684,-179.46825771818192
60.56663513183594,0.0,0.0,-125.40149645111838,0.0,0.0,0.0,0.0,25,27,33,25,28,27,0,2.5375690966530147e-17,-17.174306869506836,-12.674128532409668,-0.12629157304763794,-0.5538689494132996,0.0049662343226373196,0.0,0.09000000357627869,-2.700000047683716,-2.5450000762939453,-0.09000000357627869,-0.032499998807907104,0.20999999344348907,0.0,0.0,0.0,0.0,0.0,0.0,0.0,0.0,319.121,0.289,930.3,-0.8030003498758488,-54.57491753556507,-179.54537783740653
61.067238330841064,0.0,0.0,-116.34532554128059,0.0,0.0,0.0,0.0,25,27,33,25,28,27,0,-0.00038333889096975327,-20.070405960083008,-17.580949783325195,-0.13820789754390717,-1.122131586074829,0.005392497405409813,0.0,0.0925000011920929,-2.865000009536743,-1.559999942779541,0.03999999910593033,0.20250000059604645,0.20999999344348907,0.0,0.0,0.0,45.01084076245189,0.0,0.0,0.0,0.0,375.528,0.549,883.522,-0.9582719123563018,-63.630630079166764,-179.36850576604965
61.56784391403198,0.0,0.0,-98.34098626598717,0.0,0.0,0.0,0.0,25,27,33,25,28,27,0,-3.8660084101138636e-05,-24.405033111572266,-23.454200744628906,-0.15280687808990479,-2.0979065895080566,0.00596658093854785,0.0,0.14499999582767487,-3.765000104904175,-2.5850000381469727,0.11999999731779099,-0.09749999642372131,0.20999999344348907,0.0,0.0,0.0,45.01084076245189,0.0,0.0,0.0,0.0,462.533,1.161,767.227,-2.310566900424071,-81.63141701613037,-177.97530159140953
62.068445682525635,0.0,0.0,-90.36512727886854,0.0,0.0,0.0,0.0,25,27,33,25,28,27,0,3.9478277823707807e-19,-25.397865295410156,-20.897687911987305,-0.15493442118167877,-2.4369609355926514,0.0060925730504095554,0.0,0.05249999836087227,-4.28249979019165,-3.424999952316284,0.12250000238418579,-0.5625,0.20999999344348907,0.0,0.0,0.0,0.0,0.0,0.0,0.0,0.0,488.595,1.459,708.168,-37.295828237348246,-89.51474331933537,-142.97199208393874
62.56904363632202,0.0,0.0,-96.54568031072424,0.0,0.0,0.0,0.0,25,27,33,25,28,27,0,3.544001174304867e-06,-24.800168991088867,-25.98640251159668,-0.15356145799160004,-2.202984571456909,0.005996206775307655,0.0,0.07249999791383743,-4.650000095367432,-6.152500152587891,0.11999999731779099,-0.699999988079071,0.20999999344348907,0.0,0.0,0.0,-45.03595536803003,0.0,0.0,0.0,0.0,469.112,1.227,754.259,-2.8551632846959185,-83.42534787268498,-177.42669450257176
63.06968355178833,0.0,0.0,-120.56051874427854,0.0,0.0,0.0,0.0,25,27,33,25,28,27,0,-0.002663322491571307,-16.333539962768555,-8.170953750610352,-0.12590458989143372,-0.60684734582901,0.0048048547469079494,0.0,0.07000000029802322,-2.015000104904175,-2.140000104904175,0.07999999821186066,-0.26499998569488525,0.20999999344348907,0.0,0.0,0.0,-0.030631053885033302,0.0,0.0,0.0,0.0,350.196,0.423,906.403,-0.8739898206925578,-59.41572335506636,-179.46270002756916
63.570048332214355,0.0,0.0,-120.56051874427854,0.0,0.0,0.0,0.0,25,27,33,25,28,27,0,2.3657054499106272e-17,-18.67554473876953,-14.175365447998047,-0.1334155946969986,-0.8434560298919678,0.0052463761530816555,0.0,0.11500000208616257,-3.3399999141693115,-2.4649999141693115,0.05000000074505806,0.10999999940395355,0.20999999344348907,0.0,0.0,0.0,0.0,0.0,0.0,0.0,0.0,350.196,0.423,906.403,-0.8739898206925578,-59.41572335506636,-179.46270002756916
64.07067465782166,0.0,0.0,-103.75148402118704,0.0,0.0,0.0,0.0,25,27,33,25,28,27,0,-0.00014437521167565137,-23.291664123535156,-19.675710678100586,-0.149958997964859,-1.8218309879302979,0.005854545161128044,0.0,0.11999999731779099,-3.307499885559082,-1.9249999523162842,0.012500000186264515,0.012500000186264515,0.20999999344348907,0.0,0.0,0.0,45.03583583971955,0.0,0.0,0.0,0.0,440.295,0.966,804.973,-1.529224355204167,-76.22298190899296,-178.76879084188622
64.5712788105011,0.0,0.0,-85.73717528025834,0.0,0.0,0.0,0.0,25,27,33,25,28,27,0,0.0002071700437227264,-26.29779624938965,-22.81288719177246,-0.15412351489067078,-2.666194438934326,0.00601830892264843,0.0,0.0949999988079071,-4.052499771118164,-2.4725000858306885,-0.007499999832361937,-0.3400000035762787,0.20999999344348907,0.0,0.0,0.0,45.03583583971955,0.0,0.0,0.0,0.0,499.87,1.637,672.427,-176.363514017927,-85.7496657601922,-3.8946806124017703
65.071857213974,0.0,0.0,-58.71568352097553,0.0,0.0,0.0,0.0,25,27,33,25,28,27,0,0.0006860882858745754,-26.764793395996094,-21.466337203979492,-0.13224120438098907,-3.431166172027588,0.005157818552106619,0.0,0.16500000655651093,-4.662499904632568,-2.237499952316284,-0.05000000074505806,-0.7325000166893005,0.20999999344348907,0.0,0.0,0.0,45.03583583971955,0.0,0.0,0.0,0.0,506.244,2.673,455.666,-179.7481476011033,-58.73694025517488,-0.4483394746898692
65.57245588302612,0.0,0.0,-40.701317484267314,0.0,0.0,0.0,0.0,25,27,33,25,28,27,0,0.0009274700423702598,-24.336830139160156,-19.475160598754883,-0.10098519176244736,-3.533879041671753,0.003928720951080322,0.0,0.09000000357627869,-4.427499771118164,-1.8899999856948853,-0.07999999821186066,-0.7950000166893005,0.20999999344348907,0.0,0.0,0.0,45.03583583971955,0.0,0.0,0.0,0.0,454.56,3.285,319.848,-179.9289157854671,-40.7231471762618,-0.22213573717222015
66.07304763793945,0.0,0.0,-26.23419045299354,0.0,0.0,0.0,0.0,25,27,33,25,28,27,0,1.5097080154858446e-17,-20.571809768676758,-13.150349617004395,-0.06848874688148499,-3.3225533962249756,0.002693221205845475,0.0,0.06499999761581421,-3.2725000381469727,-2.2950000762939453,-0.11999999731779099,-0.7300000190734863,0.20999999344348907,0.0,0.0,0.0,0.0,0.0,0.0,0.0,0.0,384.101,3.683,226.599,-179.99171195981344,-26.256306623885592,-0.11797201001743651
66.57365155220032,0.0,0.0,-26.565302762799647,0.0,0.0,0.0,0.0,25,27,33,25,28,27,0,0.005509580485522747,-25.270339965820312,-12.65963077545166,-0.10990612208843231,-4.617364883422852,0.005111931823194027,0.0,0.14749999344348907,-2.799999952316284,-3.202500104904175,-0.15000000596046448,-0.6600000262260437,0.20999999344348907,0.0,0.0,0.0,-16.061551833310993,0.0,0.0,0.0,0.0,385.969,3.675,228.524,-179.9907379315617,-26.587418933691694,-0.11997736230039438
67.07413411140442,0.0,0.0,-52.726784871591086,0.0,0.0,0.0,0.0,25,27,33,25,28,27,0,0.0007778886938467622,-26.14912223815918,-20.077964782714844,-0.12257777154445648,-3.506392478942871,0.0047779446467757225,0.0,0.14000000059604645,-4.474999904632568,-5.119999885559082,-0.1875,-0.5450000166893005,0.20999999344348907,0.0,0.0,0.0,-44.96851408016533,0.0,0.0,0.0,0.0,493.84,2.888,408.79,-179.8295076080119,-52.74827078890849,-0.3524263397849694
67.57471919059753,0.0,0.0,-70.71416459614863,0.0,0.0,0.0,0.0,25,27,33,25,28,27,0,0.0004911108408123255,-27.17770004272461,-22.2553653717041,-0.14566189050674438,-3.185971260070801,0.005685694515705109,0.0,0.11500000208616257,-4.797500133514404,-5.5,-0.21250000596046448,-0.4699999988079071,0.20999999344348907,0.0,0.0,0.0,-44.96851408016533,0.0,0.0,0.0,0.0,516.093,2.22,552.177,-179.42368160172072,-70.7345618936553,-0.8007085186953254
68.07530975341797,0.0,0.0,-93.06965995922455,0.0,0.0,0.0,0.0,25,27,33,25,28,27,0,-1.6552053629211657e-18,-25.009933471679688,-21.057750701904297,-0.15471525490283966,-2.315768241882324,0.006083954591304064,0.0,0.07500000298023224,-3.0250000953674316,-3.674999952316284,-0.24500000476837158,-0.36000001430511475,0.20999999344348907,0.0,0.0,0.0,0.0,0.0,0.0,0.0,0.0,480.682,1.357,728.594,-5.701617610905848,-86.89409166018649,-174.57239065456855
68.57591891288757,0.0,0.0,-93.06965995922455,0.0,0.0,0.0,0.0,25,27,33,25,28,27,0,-1.6552053629211657e-18,-25.009933471679688,-20.509754180908203,-0.15471525490283966,-2.315768241882324,0.006083954591304064,0.0,0.1574999988079071,-3.8924999237060547,-4.034999847412109,-0.2199999988079071,-0.2800000011920929,0.20999999344348907,0.0,0.0,0.0,0.0,0.0,0.0,0.0,0.0,480.682,1.357,728.594,-5.701617610905848,-86.89409166018649,-174.57239065456855
69.07652521133423,0.0,0.0,-85.22489371563186,0.0,0.0,0.0,0.0,25,27,33,25,28,27,0,-7.147899283642227e-18,-26.006200790405273,-17.548124313354492,-0.1543998122215271,-2.6521167755126953,0.006071549840271473,0.0,0.042500000447034836,-4.497499942779541,-3.0625,-0.15000000596046448,-0.28999999165534973,0.20999999344348907,0.0,0.0,0.0,0.0,0.0,0.0,0.0,0.0,500.939,1.657,668.419,-176.7865860538516,-85.23847281537647,-3.4704626608869096
69.57712316513062,0.0,0.0,-84.44315009995537,0.0,0.0,0.0,0.0,25,27,33,25,28,27,0,-0.015572953037917614,-15.945508003234863,-21.974533081054688,-0.11292067915201187,-1.3934165239334106,0.0036264911759644747,0.0,0.05249999836087227,-3.5225000381469727,-2.805000066757202,-0.10000000149011612,-0.3799999952316284,0.20999999344348907,0.0,0.0,0.0,26.342093024825726,0.0,0.0,0.0,0.0,502.503,1.687,662.282,-177.28167888462414,-84.45793241106975,-2.9735936609494593
70.0777235031128,0.0,0.0,-75.51641035603762,0.0,0.0,0.0,0.0,25,27,33,25,28,27,0,1.385452433536338e-19,-26.680450439453125,-22.18027114868164,-0.15001355111598969,-2.9990360736846924,0.00589906657114625,0.0,0.09749999642372131,-4.377500057220459,-3.637500047683716,-0.029999999329447746,-0.4950000047683716,0.20999999344348907,0.0,0.0,0.0,0.0,0.0,0.0,0.0,0.0,514.347,2.034,591.025,-179.1387496902022,-75.5360055126311,-1.0964693325418564
70.57814836502075,0.0,0.0,-69.89466306177302,0.0,0.0,0.0,0.0,25,27,33,25,28,27,0,0.0004985426203347743,-27.17854118347168,-20.68010711669922,-0.145243301987648,-3.1981399059295654,0.005669287405908108,0.0,0.125,-3.244999885559082,-2.1024999618530273,0.014999999664723873,-0.550000011920929,0.20999999344348907,0.0,0.0,0.0,44.94012098378558,0.0,0.0,0.0,0.0,516.066,2.252,545.539,-179.4585174356647,-69.91511765505919,-0.7639819240274397
71.07873225212097,0.0,0.0,-42.93058167356232,0.0,0.0,0.0,0.0,25,27,33,25,28,27,0,0.0008982997969724238,-24.747791290283203,-21.854755401611328,-0.1054660975933075,-3.539669990539551,0.004105105996131897,0.0,0.1525000035762787,-4.322500228881836,-2.307499885559082,0.08749999850988388,-0.5799999833106995,0.20999999344348907,0.0,0.0,0.0,44.94012098378558,0.0,0.0,0.0,0.0,463.238,3.216,335.682,-179.91482102370688,-42.95235406977729,-0.24218926000179897
71.57927703857422,0.0,0.0,-27.25004462376049,0.0,0.0,0.0,0.0,25,27,33,25,28,27,0,0.0030777109786868095,-23.40121841430664,-21.22452735900879,-0.09334815293550491,-4.04710578918457,0.004106311593204737,0.0,0.08250000327825546,-3.930000066757202,-3.172499895095825,0.13750000298023224,-0.5924999713897705,0.20999999344348907,0.0,0.0,0.0,1.8565914117029747,0.0,0.0,0.0,0.0,389.796,3.658,232.538,-179.98856069194022,-27.27210349887303,-0.12421724998436247
72.07993602752686,0.0,0.0,-27.57514087671772,0.0,0.0,0.0,0.0,25,27,33,25,28,27,0,0.005792464595288038,-25.641660690307617,-24.147342681884766,-0.1124889999628067,-4.640708923339844,0.0052163973450660706,0.0,0.09000000357627869,-2.9574999809265137,-3.6600000858306885,0.10999999940395355,-0.6200000047683716,0.19750000536441803,0.0,0.0,0.0,-16.14121062205356,0.0,0.0,0.0,0.0,391.596,3.65,234.46,-179.987529367909,-27.597199751830257,-0.12622260226732035
72.58053970336914,0.0,0.0,-44.779058112213384,0.0,0.0,0.0,0.0,25,27,33,25,28,27,0,0.0008850672747939825,-25.008255004882812,-19.939435958862305,-0.10836648941040039,-3.5409157276153564,0.0042189499363303185,0.0,0.03999999910593033,-3.8975000381469727,-5.097499847412109,0.07999999821186066,-0.6299999952316284,0.17249999940395355,0.0,0.0,0.0,-45.05167504840482,0.0,0.0,0.0,0.0,469.962,3.157,349.06,-179.90187217753692,-44.800830508428355,-0.2599509516508545
73.08112955093384,0.0,0.0,-71.81006097089536,0.0,0.0,0.0,0.0,25,27,33,25,28,27,0,0.000473525607958436,-27.170080184936523,-25.32563591003418,-0.14662082493305206,-3.1561973094940186,0.005723246838897467,0.0,5.9613772251942976e-15,-4.954999923706055,-6.037499904632568,0.03999999910593033,-0.6600000262260437,0.14000000059604645,0.0,0.0,0.0,-45.05167504840482,0.0,0.0,0.0,0.0,515.982,2.178,561.053,-179.37211540015898,-71.83028638106349,-0.8547957345556751
73.58172821998596,0.0,0.0,-89.72983167562748,0.0,0.0,0.0,0.0,25,27,33,25,28,27,0,-0.010572072118520737,-30.267250061035156,-24.437395095825195,-0.12690453231334686,-1.6302978992462158,0.004418824799358845,0.0,-0.012500000186264515,-4.517499923706055,-5.767499923706055,0.009999999776482582,-0.6600000262260437,0.11999999731779099,0.0,0.0,0.0,-37.80658603725964,0.0,0.0,0.0,0.0,490.313,1.483,703.318,-130.6115735695815,-89.61713087732524,-49.65773644197283
74.08205080032349,0.0,0.0,-91.1489335426075,0.0,0.0,0.0,0.0,25,27,33,25,28,27,0,9.16517979865133e-19,-25.290189743041992,-20.790010452270508,-0.15490642189979553,-2.402383804321289,0.006091471761465073,0.0,0.14749999344348907,-4.067500114440918,-4.215000152587891,-0.02500000037252903,-0.26499998569488525,0.09000000357627869,0.0,0.0,0.0,0.0,0.0,0.0,0.0,0.0,486.401,1.429,714.126,-14.301714115819506,-88.7927019059115,-165.96782507885288
74.58264398574829,0.0,0.0,-101.76532582436604,0.0,0.0,0.0,0.0,25,27,33,25,28,27,0,-0.008813481777906418,-26.314250946044922,-17.7113094329834,-0.1288871169090271,-1.1749519109725952,0.004624505527317524,0.0,0.09000000357627869,-3.927500009536743,-3.8575000762939453,-0.05000000074505806,-0.23999999463558197,0.07000000029802322,0.0,0.0,0.0,-1.8904181370108744,0.0,0.0,0.0,0.0,448.871,1.037,791.362,-1.732395189357557,-78.20862444379834,-178.5611509369308
75.08327102661133,0.0,0.0,-102.34567477505405,0.0,0.0,0.0,0.0,25,27,33,25,28,27,0,0.015155562199652195,-34.58751678466797,-26.27733612060547,-0.1906164437532425,-3.1133413314819336,0.008251965045928955,0.0,0.03750000149011612,-4.235000133514404,-4.757500171661377,-0.09000000357627869,-0.27000001072883606,0.029999999329447746,0.0,0.0,0.0,-21.79478017922114,0.0,0.0,0.0,0.0,446.414,1.016,795.37,-1.666218564019947,-77.62844738044888,-178.6285880694177
75.58390974998474,0.0,0.0,-104.75622281072845,0.0,0.0,0.0,0.0,25,27,33,25,28,27,0,-4.689470940249407e-18,-22.821401596069336,-18.321224212646484,-0.14982745051383972,-1.7364397048950195,0.005891748238354921,0.0,0.19249999523162842,-3.0999999046325684,-3.6475000381469727,-0.11999999731779099,-0.27000001072883606,0.009999999776482582,0.0,0.0,0.0,0.0,0.0,0.0,0.0,0.0,435.778,0.931,811.743,-1.4474059820594856,-75.21841500679008,-178.8529010462114
76.08450174331665,0.0,0.0,-117.37389937509943,0.0,0.0,0.0,0.0,25,27,33,25,28,27,0,-0.0003936357970815152,-19.8757381439209,-21.504322052001953,-0.13739274442195892,-1.0829938650131226,0.00536065548658371,0.0,0.03500000014901161,-3.362499952316284,-5.367499828338623,-0.1599999964237213,-0.27000001072883606,-0.019999999552965164,0.0,0.0,0.0,-44.897674773188534,0.0,0.0,0.0,0.0,369.503,0.518,889.276,-0.9352390089920428,-62.60217083690693,-179.39400238793294
76.58508849143982,0.0,0.0,-123.88545012520221,0.0,0.0,0.0,0.0,25,27,33,25,28,27,0,-4.039272237197e-18,-17.65468978881836,-20.499074935913086,-0.12862202525138855,-0.6450814604759216,0.005057875998318195,0.0,0.11999999731779099,-2.9175000190734863,-3.577500104904175,-0.1899999976158142,-0.1525000035762787,-0.02250000089406967,0.0,0.0,0.0,0.0,0.0,0.0,0.0,0.0,329.068,0.33,923.1,-0.8229392811464015,-56.090906565701715,-179.52177197624715
77.08568525314331,0.0,0.0,-124.86371826460858,0.0,0.0,0.0,0.0,25,27,33,25,28,27,0,-5.938272128465613e-18,-17.345741271972656,-14.15310001373291,-0.12712843716144562,-0.5862714052200317,0.0049991426058113575,0.0,0.16249999403953552,-2.6050000190734863,-2.4700000286102295,-0.2224999964237213,0.07000000029802322,-0.019999999552965164,0.0,0.0,0.0,0.0,0.0,0.0,0.0,0.0,322.671,0.303,927.776,-0.8098758434174186,-55.11269572207486,-179.53724183671568
77.58605933189392,0.0,0.0,-124.86371826460858,0.0,0.0,0.0,0.0,25,27,33,25,28,27,0,-5.938272128465613e-18,-17.345741271972656,-12.845561981201172,-0.12712843716144562,-0.5862714052200317,0.0049991426058113575,0.0,0.1599999964237213,-2.755000114440918,-2.1500000953674316,-0.25,0.14749999344348907,-0.02250000089406967,0.0,0.0,0.0,0.0,0.0,0.0,0.0,0.0,322.671,0.303,927.776,-0.8098758434174186,-55.11269572207486,-179.53724183671568
78.08665776252747,0.0,0.0,-102.46215709480414,0.0,0.0,0.0,0.0,25,27,33,25,28,27,0,-0.00011935245129279792,-23.57283592224121,-15.193892478942871,-0.1507599949836731,-1.8891888856887817,0.00588601641356945,0.0,0.004999999888241291,-3.180000066757202,-1.1425000429153442,-0.20749999582767487,-0.029999999329447746,-0.019999999552965164,0.0,0.0,0.0,45.050220218111605,0.0,0.0,0.0,0.0,445.916,1.012,796.171,-1.653670788306582,-77.51196506069877,-178.64142232402864
78.5872495174408,0.0,0.0,-84.44206148014462,0.0,0.0,0.0,0.0,25,27,33,25,28,27,0,0.00023221469018608332,-26.434066772460938,-17.700767517089844,-0.15383446216583252,-2.7178566455841064,0.006006915122270584,0.0,-0.009999999776482582,-4.15500020980835,-1.5800000429153442,-0.14249999821186066,-0.28999999165534973,5.6838214690380084e-15,0.0,0.0,0.0,45.050220218111605,0.0,0.0,0.0,0.0,502.505,1.687,662.274,-177.28225184241927,-84.45690108703852,-2.9730207031543285
79.08784627914429,0.0,0.0,-81.32196251098021,0.0,0.0,0.0,0.0,25,27,33,25,28,27,0,2.854725404988147e-18,-26.3527889251709,-21.852611541748047,-0.1531638205051422,-2.801323890686035,0.006022946443408728,0.0,0.11500000208616257,-4.364999771118164,-3.6575000286102295,-0.03750000149011612,-0.6549999713897705,0.012500000186264515,0.0,0.0,0.0,0.0,0.0,0.0,0.0,0.0,507.905,1.808,637.587,-178.36743390639708,-81.33960961107023,-1.8808485540759536
79.58843922615051,0.0,0.0,-90.55076560449092,0.0,0.0,0.0,0.0,25,27,33,25,28,27,0,-0.015607565641403198,-30.434749603271484,-20.887218475341797,-0.11443053185939789,-3.878000020980835,0.003708443371579051,0.0,0.14000000059604645,-4.542500019073486,-4.635000228881836,0.019999999552965164,-0.6924999952316284,0.029999999329447746,0.0,0.0,0.0,-11.91665751190428,0.0,0.0,0.0,0.0,488.082,1.452,709.582,-27.296740684063654,-89.35666426365877,-152.9713661161209
80.0890212059021,0.0,0.0,-90.71004787153728,0.0,0.0,0.0,0.0,25,27,33,25,28,27,0,-0.00024232575378846377,-25.186580657958984,-28.769073486328125,-0.15429812669754028,-2.4019949436187744,0.006055340636521578,0.0,0.07750000059604645,-4.215000152587891,-4.552499771118164,0.11999999731779099,-0.20250000059604645,0.05000000074505806,0.0,0.0,0.0,0.21496011376503799,0.0,0.0,0.0,0.0,487.639,1.446,710.794,-22.03727460366026,-89.2114194625931,-158.23117597120137
80.58962345123291,0.0,0.0,-75.32762076254203,0.0,0.0,0.0,0.0,25,27,33,25,28,27,0,0.00040389783680438995,-27.07173728942871,-21.47138214111328,-0.14958620071411133,-3.041226863861084,0.005839813966304064,0.0,0.13750000298023224,-4.110000133514404,-2.237499952316284,0.1599999964237213,-0.17000000178813934,0.07000000029802322,0.0,0.0,0.0,45.073920974531546,0.0,0.0,0.0,0.0,514.478,2.041,589.501,-179.15353200131653,-75.34727321491502,-1.0812859509708896
81.0900776386261,0.0,0.0,-54.17470651566619,0.0,0.0,0.0,0.0,25,27,33,25,28,27,0,2.0128943898110397e-17,-25.92902946472168,-18.994949340820312,-0.12562426924705505,-3.449368715286255,0.004939993377774954,0.0,0.11500000208616257,-4.402500152587891,-3.315000057220459,0.11999999731779099,-0.4975000023841858,0.09000000357627869,0.0,0.0,0.0,0.0,0.0,0.0,0.0,0.0,497.287,2.837,420.001,-179.81249076149652,-54.196192432983594,-0.37299552463016594
81.5906867980957,0.0,0.0,-54.17470651566619,0.0,0.0,0.0,0.0,25,27,33,25,28,27,0,2.0128943898110397e-17,-25.92902946472168,-21.428850173950195,-0.12562426924705505,-3.449368715286255,0.004939993377774954,0.0,0.08250000327825546,-3.9549999237060547,-3.8550000190734863,0.06750000268220901,-0.7074999809265137,0.11749999970197678,0.0,0.0,0.0,0.0,0.0,0.0,0.0,0.0,497.287,2.837,420.001,-179.81249076149652,-54.196192432983594,-0.37299552463016594
82.09128189086914,0.0,0.0,-75.41173096686724,0.0,0.0,0.0,0.0,25,27,33,25,28,27,0,0.00040572151192463934,-27.079092025756836,-25.60148811340332,-0.14940117299556732,-3.049535036087036,0.005832872819155455,0.0,0.08749999850988388,-5.002500057220459,-6.082499980926514,-0.007499999832361937,-0.7799999713897705,0.14000000059604645,0.0,0.0,0.0,-44.89579988626137,0.0,0.0,0.0,0.0,514.42,2.038,590.18,-179.14700028245207,-75.4313261234607,-1.0880468529534333
82.59172821044922,0.0,0.0,-82.10244561950742,0.0,0.0,0.0,0.0,25,27,33,25,28,27,0,8.33959440390961e-18,-26.291545867919922,-28.06267547607422,-0.1534680426120758,-2.7725048065185547,0.006034909747540951,0.0,0.17749999463558197,-3.259999990463257,-4.897500038146973,-0.0625,-0.5174999833106995,0.1525000035762787,0.0,0.0,0.0,0.0,0.0,0.0,0.0,0.0,506.681,1.778,643.79,-178.17669625639803,-82.11957705758184,-2.07336237323991
83.09233546257019,0.0,0.0,-74.49075860697394,0.0,0.0,0.0,0.0,25,27,33,25,28,27,0,0.00041769977542571723,-27.100419998168945,-23.82433319091797,-0.1490052044391632,-3.0670862197875977,0.005817118566483259,0.0,0.11999999731779099,-3.742500066757202,-2.6500000953674316,-0.15000000596046448,-0.17499999701976776,0.18000000715255737,0.0,0.0,0.0,44.99335547817666,0.0,0.0,0.0,0.0,514.994,2.074,582.742,-179.21466659805702,-74.51058294668547,-1.018317889286012
83.59291386604309,0.0,0.0,-56.56617505676273,0.0,0.0,0.0,0.0,25,27,33,25,28,27,0,0.007745040114969015,-30.88608169555664,-21.294946670532227,-0.15320739150047302,-4.210449695587158,0.006457563955336809,0.0,0.09000000357627869,-4.327499866485596,-2.309999942779541,-0.20000000298023224,-0.30250000953674316,0.19249999523162842,0.0,0.0,0.0,39.24773546156482,0.0,0.0,0.0,0.0,502.356,2.751,438.695,-179.7809207869848,-56.58754638252111,-0.4103523728726956
84.09351086616516,0.0,0.0,-55.00085436046532,0.0,0.0,0.0,0.0,25,27,33,25,28,27,0,-5.938878038264308e-18,-26.014787673950195,-21.51460838317871,-0.1269187331199646,-3.440539836883545,0.004990896675735712,0.0,0.09000000357627869,-3.575000047683716,-3.5425000190734863,-0.19499999284744263,-0.6800000071525574,0.20999999344348907,0.0,0.0,0.0,0.0,0.0,0.0,0.0,0.0,499.126,2.808,426.434,-179.80212022540462,-55.02228298200321,-0.3853714130049917
84.59403586387634,0.0,0.0,-69.27340492451268,0.0,0.0,0.0,0.0,25,27,33,25,28,27,0,0.0005169447977095842,-27.17755699157715,-26.764305114746094,-0.1443168669939041,-3.2236363887786865,0.0056327469646930695,0.0,0.10750000178813934,-4.927499771118164,-6.287499904632568,-0.14749999344348907,-0.8050000071525574,0.21250000596046448,0.0,0.0,0.0,-44.998269799284486,0.0,0.0,0.0,0.0,515.982,2.276,540.507,-179.48309732507582,-69.29397410935786,-0.7380269359080134
85.0946455001831,0.0,0.0,-96.27237944244683,0.0,0.0,0.0,0.0,25,27,33,25,28,27,0,8.883574082574341e-06,-24.847610473632812,-24.88772964477539,-0.15364231169223785,-2.2160089015960693,0.005999456625431776,0.0,0.19750000536441803,-4.09250020980835,-5.960000038146973,-0.07500000298023224,-0.612500011920929,0.20999999344348907,0.0,0.0,0.0,-44.998269799284486,0.0,0.0,0.0,0.0,470.078,1.237,752.267,-2.9653430686995756,-83.69836226206482,-177.31588446499347
85.59525561332703,0.0,0.0,-103.52528028366939,0.0,0.0,0.0,0.0,25,27,33,25,28,27,0,-1.2436431380705094e-17,-23.089570999145508,-24.681974411010742,-0.15064068138599396,-1.801300287246704,0.00592372752726078,0.0,0.10499999672174454,-3.012500047683716,-4.307499885559082,-0.02500000037252903,-0.29499998688697815,0.20999999344348907,0.0,0.0,0.0,0.0,0.0,0.0,0.0,0.0,441.295,0.974,803.438,-1.549335173813259,-76.4491283507311,-178.7481643612615
86.09587812423706,0.0,0.0,-112.18754270935474,0.0,0.0,0.0,0.0,25,27,33,25,28,27,0,-0.00029737711884081364,-21.31943130493164,-16.993881225585938,-0.14322949945926666,-1.380658507347107,0.00559020834043622,0.0,0.019999999552965164,-3.637500047683716,-4.579999923706055,0.03999999910593033,-0.1274999976158142,0.20999999344348907,0.0,0.0,0.0,-44.88092714934367,0.0,0.0,0.0,0.0,398.802,0.68,859.189,-1.0740093869727283,-67.78812643219503,-179.243142600475
86.59648180007935,0.0,0.0,-120.13171713040262,0.0,0.0,0.0,0.0,25,27,33,25,28,27,0,-1.1951119552236557e-17,-18.803787231445312,-15.886425018310547,-0.13400138914585114,-0.8688449859619141,0.005269411485642195,0.0,0.03750000149011612,-2.194999933242798,-2.7725000381469727,0.09000000357627869,-0.20000000298023224,0.21250000596046448,0.0,0.0,0.0,0.0,0.0,0.0,0.0,0.0,352.849,0.436,904.161,-0.8814955678087715,-59.84446767316277,-179.45427754798072
87.09707570075989,0.0,0.0,-113.41223999644687,0.0,0.0,0.0,0.0,25,27,33,25,28,27,0,-0.0003291491884738207,-10.066749572753906,-12.426358222961426,-0.14156654477119446,-1.2910445928573608,0.005524537526071072,0.0,0.09000000357627869,-1.502500057220459,-0.6600000262260437,0.1599999964237213,-0.19499999284744263,0.21250000596046448,0.0,0.0,0.0,45.029012480738714,0.0,0.0,0.0,0.0,392.131,0.641,866.531,-1.0355639189194499,-66.56354373666193,-179.28445285750394
87.59766840934753,0.0,0.0,-95.40062415715528,0.0,0.0,0.0,0.0,25,27,33,25,28,27,0,1.8922188246506266e-05,-24.93670082092285,-17.583356857299805,-0.1537824422121048,-2.240461587905884,0.00600490951910615,0.0,0.11999999731779099,-3.7950000762939453,-1.559999942779541,0.15000000596046448,-0.12999999523162842,0.20999999344348907,0.0,0.0,0.0,45.029012480738714,0.0,0.0,0.0,0.0,473.095,1.269,745.883,-3.390878823143238,-84.56902892754562,-176.88840065404636
88.09803938865662,0.0,0.0,-85.25887011288313,0.0,0.0,0.0,0.0,25,27,33,25,28,27,0,-2.5993792993863965e-18,-26.002744674682617,-21.502565383911133,-0.15440742671489716,-2.6507630348205566,0.006071849726140499,0.0,0.07000000029802322,-4.53000020980835,-3.430000066757202,0.07249999791383743,-0.4025000035762787,0.20999999344348907,0.0,0.0,0.0,0.0,0.0,0.0,0.0,0.0,500.87,1.655,668.685,-176.76137591086587,-85.2723919168482,-3.495787395431692
88.59864640235901,0.0,0.0,-81.43546545019562,0.0,0.0,0.0,0.0,25,27,33,25,28,27,0,0.0002881086547859013,-26.70470428466797,-15.336268424987793,-0.15286244451999664,-2.832224130630493,0.005968907382339239,0.0,0.0949999988079071,-3.3424999713897705,-1.1699999570846558,0.02250000089406967,-0.5450000166893005,0.20999999344348907,0.0,0.0,0.0,44.9354935306229,0.0,0.0,0.0,0.0,507.733,1.804,638.49,-178.34187998873423,-81.45299795872664,-1.9066889506363536
89.09924840927124,0.0,0.0,-54.47413425940155,0.0,0.0,0.0,0.0,25,27,33,25,28,27,0,0.0007466487004421651,-26.382328033447266,-23.172042846679688,-0.12595927715301514,-3.4860012531280518,0.0049109794199466705,0.0,0.1599999964237213,-4.487500190734863,-2.5374999046325684,-0.05000000074505806,-0.5699999928474426,0.20999999344348907,0.0,0.0,0.0,44.9354935306229,0.0,0.0,0.0,0.0,497.965,2.826,422.329,-179.80876653582817,-54.495620176718965,-0.3774072996526733
89.59985280036926,0.0,0.0,-36.57355764080633,0.0,0.0,0.0,0.0,25,27,33,25,28,27,0,0.0054862238466739655,-26.66146469116211,-21.096080780029297,-0.11640452593564987,-4.259432792663574,0.005011828616261482,0.0,0.05249999836087227,-4.34250020980835,-2.2774999141693115,-0.10000000149011612,-0.5799999833106995,0.20999999344348907,0.0,0.0,0.0,39.14969151112387,0.0,0.0,0.0,0.0,436.892,3.409,291.47,-179.95131843525672,-36.59550192435983,-0.18844581881852776
90.10053849220276,0.0,0.0,-35.01316438154704,0.0,0.0,0.0,0.0,25,27,33,25,28,27,0,3.84007391080443e-18,-22.7387638092041,-18.23858642578125,-0.08889766782522202,-3.451090097427368,0.003495772834867239,0.0,0.13249999284744263,-3.1050000190734863,-3.072499990463257,-0.1899999976158142,-0.6100000143051147,0.20999999344348907,0.0,0.0,0.0,0.0,0.0,0.0,0.0,0.0,429.688,3.454,281.085,-179.95876688659342,-35.03510866510055,-0.1767001840183459
90.60114240646362,0.0,0.0,-22.812486500472264,0.0,0.0,0.0,0.0,25,27,33,25,28,27,0,0.004602272994816303,-23.96558952331543,-19.394777297973633,-0.10076459497213364,-4.538218021392822,0.0047457520850002766,0.0,0.1599999964237213,-3.2100000381469727,-2.502500057220459,-0.23499999940395355,-0.6299999952316284,0.21250000596046448,0.0,0.0,0.0,15.950177061157474,0.0,0.0,0.0,0.0,364.16,3.761,207.355,179.99870204491404,-22.83465996714383,-0.09768930406980536
91.1017553806305,0.0,0.0,-22.57419335347736,0.0,0.0,0.0,0.0,25,27,33,25,28,27,0,0.0016146536218002439,-21.126981735229492,-9.884647369384766,-0.07450665533542633,-3.7199084758758545,0.003222809173166752,0.0,0.09000000357627869,-3.299999952316284,-2.4725000858306885,-0.17499999701976776,-0.6549999713897705,0.20999999344348907,0.0,0.0,0.0,-2.7940370097213405,0.0,0.0,0.0,0.0,362.729,3.766,206.06,179.99807179133938,-22.59636682014892,-0.09631420536149138
91.60204577445984,0.0,0.0,-38.65121719750972,0.0,0.0,0.0,0.0,25,27,33,25,28,27,0,0.0009548061061650515,-23.857423782348633,-19.12061882019043,-0.09596787393093109,-3.5215437412261963,0.00373135507106781,0.0,0.09000000357627869,-3.307499885559082,-4.954999923706055,-0.12999999523162842,-0.6700000166893005,0.21250000596046448,0.0,0.0,0.0,-45.07153382341663,0.0,0.0,0.0,0.0,446.041,3.348,305.595,-179.94060412448778,-38.67310418528372,-0.20488970753878238
92.10266184806824,0.0,0.0,-63.90731139843544,0.0,0.0,0.0,0.0,25,27,33,25,28,27,0,-0.011058983393013477,-19.891447067260742,-19.917678833007812,-0.10523256659507751,-2.2344472408294678,0.0034779065754264593,0.0,0.11999999731779099,-3.7799999713897705,-4.320000171661377,-0.057500001043081284,-0.6800000071525574,0.20999999344348907,0.0,0.0,0.0,-5.188925875196775,0.0,0.0,0.0,0.0,512.987,2.48,497.16,-179.64547356421588,-63.928281653737216,-0.5632175126135992
92.60327863693237,0.0,0.0,-63.949423796377545,0.0,0.0,0.0,0.0,25,27,33,25,28,27,0,2.4097404602262062e-20,-26.653989791870117,-22.153810501098633,-0.1391969472169876,-3.2995564937591553,0.005473719444125891,0.0,0.05999999865889549,-4.037499904632568,-4.322500228881836,-0.009999999776482582,-0.6000000238418579,0.20999999344348907,0.0,0.0,0.0,0.0,0.0,0.0,0.0,0.0,513.026,2.478,497.499,-179.64444224018465,-63.97039405167934,-0.5643061324243478
93.10389375686646,0.0,0.0,-46.42688473100963,0.0,0.0,0.0,0.0,25,27,33,25,28,27,0,0.0008590539800934494,-25.33452033996582,-19.415817260742188,-0.11216600984334946,-3.5385172367095947,0.004368419758975506,0.0,0.06750000268220901,-3.555000066757202,-1.8799999952316284,0.05249999836087227,-0.49000000953674316,0.20999999344348907,0.0,0.0,0.0,45.0204064423845,0.0,0.0,0.0,0.0,475.59,3.103,361.162,-179.88926710604406,-46.448542535665574,-0.2767959108277007
93.60451936721802,0.0,0.0,-28.418706638488832,0.0,0.0,0.0,0.0,25,27,33,25,28,27,0,0.0010402972111478448,-21.543424606323242,-17.582218170166016,-0.07374385744333267,-3.40681791305542,0.002857523737475276,0.0,0.03750000149011612,-3.4049999713897705,-1.559999942779541,0.10000000149011612,-0.41499999165534973,0.21250000596046448,0.0,0.0,0.0,45.0204064423845,0.0,0.0,0.0,0.0,396.217,3.629,239.494,-179.98472187471282,-28.44076551360137,-0.13155110976203702
94.10511589050293,0.0,0.0,-20.440441228630657,0.0,0.0,0.0,0.0,25,27,33,25,28,27,0,1.1427713575018116e-17,-18.93192481994629,-14.431746482849121,-0.05410945042967796,-3.194819450378418,0.0021277761552482843,0.0,0.13750000298023224,-2.859999895095825,-2.3350000381469727,0.14499999582767487,-0.46000000834465027,0.20999999344348907,0.0,0.0,0.0,0.0,0.0,0.0,0.0,0.0,349.678,3.812,194.729,179.99297246696273,-20.462671991081734,-0.0842820916637441
94.6053819656372,0.0,0.0,-27.142672332952976,0.0,0.0,0.0,0.0,25,27,33,25,28,27,0,0.0010485649108886719,-21.10821533203125,-17.687955856323242,-0.0698314756155014,-3.3779304027557373,0.0027038096450269222,0.0,0.09000000357627869,-3.0274999141693115,-4.702499866485596,0.12999999523162842,-0.5024999976158142,0.20999999344348907,0.0,0.0,0.0,-44.948901191963635,0.0,0.0,0.0,0.0,389.199,3.661,231.905,-179.9889044666173,-27.164788503845028,-0.12352970063020548
95.10599303245544,0.0,0.0,-54.112024932878874,0.0,0.0,0.0,0.0,25,27,33,25,28,27,0,0.0007575252093374729,-26.30580711364746,-21.59868049621582,-0.1248200535774231,-3.4935152530670166,0.004866155795753002,0.0,0.017500000074505806,-4.372499942779541,-5.385000228881836,0.09000000357627869,-0.5699999928474426,0.21250000596046448,0.0,0.0,0.0,-44.948901191963635,0.0,0.0,0.0,0.0,497.144,2.839,419.513,-179.81323560663017,-54.13345355441677,-0.3720787921579566
95.60663795471191,0.0,0.0,-72.09155513564313,0.0,0.0,0.0,0.0,25,27,33,25,28,27,0,0.00046636894694529474,-27.16459083557129,-22.873605728149414,-0.1468612402677536,-3.1481199264526367,0.005732893943786621,0.0,0.019999999552965164,-4.864999771118164,-5.607500076293945,0.05999999865889549,-0.6200000047683716,0.20999999344348907,0.0,0.0,0.0,-44.948901191963635,0.0,0.0,0.0,0.0,515.926,2.167,563.332,-179.35779145528068,-72.11178054581126,-0.8696926372290765
96.10676503181458,0.0,0.0,-82.03013834576191,0.0,0.0,0.0,0.0,25,27,33,25,28,27,0,2.7773875332320424e-18,-26.297391891479492,-21.79721450805664,-0.15344104170799255,-2.775197744369507,0.006033848039805889,0.0,0.19499999284744263,-3.7125000953674316,-4.667500019073486,0.019999999552965164,-0.5299999713897705,0.20999999344348907,0.0,0.0,0.0,0.0,0.0,0.0,0.0,0.0,506.798,1.78,643.215,-178.1959476383144,-82.04726978383631,-2.053939103984975
96.60711526870728,0.0,0.0,-86.03740516490689,0.0,0.0,0.0,0.0,25,27,33,25,28,27,0,0.0002076361997751519,-26.303123474121094,-35.535423278808594,-0.154113307595253,-2.668469190597534,0.006018046755343676,0.0,0.07999999821186066,-4.775000095367432,-7.817500114440918,-2.1154952789537163e-15,-0.4325000047683716,0.20999999344348907,0.0,0.0,0.0,-44.96172145703575,0.0,0.0,0.0,0.0,499.226,1.625,674.773,-176.06460193620725,-86.04909350392757,-4.194280243475679
97.10772705078125,0.0,0.0,-99.9362726549699,0.0,0.0,0.0,0.0,25,27,33,25,28,27,0,8.634078146604e-18,-23.822010040283203,-25.78499984741211,-0.152613565325737,-1.9855494499206543,0.006001308094710112,0.0,0.15000000596046448,-3.3499999046325684,-4.5,-0.04500000178813934,-0.28999999165534973,0.20999999344348907,0.0,0.0,0.0,0.0,0.0,0.0,0.0,0.0,456.348,1.102,778.572,-1.9915440000952283,-80.0369900638403,-178.2978768300682
97.60820150375366,0.0,0.0,-99.45172224762777,0.0,0.0,0.0,0.0,25,27,33,25,28,27,0,-0.01585216261446476,-27.888750076293945,-11.681511878967285,-0.11186202615499496,-0.7251389026641846,0.0035967088770121336,0.0,0.11999999731779099,-4.162499904632568,-2.617500066757202,-0.07249999791383743,-0.20999999344348907,0.20999999344348907,0.0,0.0,0.0,20.091312217199743,0.0,0.0,0.0,0.0,458.26,1.12,775.145,-2.0770865989082603,-80.5213112880644,-178.21130290722394
98.10879778862,0.0,0.0,-73.8817617665294,0.0,0.0,0.0,0.0,25,27,33,25,28,27,0,0.01473275013267994,-35.966064453125,-20.5826473236084,-0.18968595564365387,-1.4420000314712524,0.00824595894664526,0.0,0.03999999910593033,-4.577499866485596,-2.6600000858306885,-0.10999999940395355,-0.2574999928474426,0.17000000178813934,0.0,0.0,0.0,18.091340620666212,0.0,0.0,0.0,0.0,515.307,2.097,577.82,-179.25506012261374,-73.90170069779994,-0.976491970241462
98.60938811302185,0.0,0.0,-73.54996190736914,0.0,0.0,0.0,0.0,25,27,33,25,28,27,0,-1.2178213717606865e-17,-26.739946365356445,-22.239768981933594,-0.14859554171562195,-3.0591208934783936,0.005843305494636297,0.0,0.14000000059604645,-4.507500171661377,-3.740000009536743,-0.14000000059604645,-0.4975000023841858,0.15000000596046448,0.0,0.0,0.0,0.0,0.0,0.0,0.0,0.0,515.456,2.11,575.136,-179.27580119479748,-73.5699581344192,-0.955006052924056
99.11005973815918,0.0,0.0,-57.640012556396925,0.0,0.0,0.0,0.0,25,27,33,25,28,27,0,0.0007027844549156725,-26.679813385009766,-23.40073585510254,-0.1307152360677719,-3.4468963146209717,0.005097804591059685,0.0,0.09000000357627869,-3.9000000953674316,-2.575000047683716,-0.18000000715255737,-0.6299999952316284,0.11999999731779099,0.0,0.0,0.0,45.039790519248996,0.0,0.0,0.0,0.0,504.378,2.712,447.155,-179.7651071518392,-57.66132658637579,-0.428744318096395
99.61065888404846,0.0,0.0,-40.058859908587124,0.0,0.0,0.0,0.0,25,27,33,25,28,27,0,0.009164220653474331,-29.800016403198242,-21.33523941040039,-0.14070697128772736,-4.795064926147461,0.00631322618573904,0.0,0.07000000029802322,-4.349999904632568,-2.6050000190734863,-0.20250000059604645,-0.6399999856948853,0.09000000357627869,0.0,0.0,0.0,26.147506058013942,0.0,0.0,0.0,0.0,451.945,3.305,315.349,-179.93269730691495,-40.080689600581614,-0.21663534233896425
100.11124920845032,0.0,0.0,-39.38809821782747,0.0,0.0,0.0,0.0,25,27,33,25,28,27,0,6.296534805110293e-18,-23.66187286376953,-19.16169548034668,-0.09831850975751877,-3.485069990158081,0.0038662338629364967,0.0,0.15000000596046448,-3.5225000381469727,-3.3575000762939453,-0.11749999970197678,-0.6700000166893005,0.05999999865889549,0.0,0.0,0.0,-0.03085869461851844,0.0,0.0,0.0,0.0,449.161,3.326,310.683,-179.93653612414235,-39.409985205601465,-0.21096306016716912
100.61184406280518,0.0,0.0,-54.62075415917554,0.0,0.0,0.0,0.0,25,27,33,25,28,27,0,0.0007568315486423671,-26.363759994506836,-19.899749755859375,-0.1256200522184372,-3.4886701107025146,0.004897241480648518,0.0,0.017500000074505806,-4.489999771118164,-5.09250020980835,-0.02250000089406967,-0.6800000071525574,0.03999999910593033,0.0,0.0,0.0,-45.14724647036622,0.0,0.0,0.0,0.0,498.292,2.821,423.471,-179.80693307088376,-54.64218278071343,-0.3796418350536835
101.11243653297424,0.0,0.0,-60.823996319718425,0.0,0.0,0.0,0.0,25,27,33,25,28,27,0,6.503952411659496e-18,-26.491504669189453,-21.99132537841797,-0.13528010249137878,-3.358142137527466,0.005319695454090834,0.0,0.10000000149011612,-3.922499895095825,-4.057499885559082,0.11999999731779099,-0.6299999952316284,0.0024999999441206455,0.0,0.0,0.0,0.0,0.0,0.0,0.0,0.0,509.436,2.595,472.442,-179.71101993597884,-60.84519575813826,-0.4904518726319847
101.61308002471924,0.0,0.0,-53.04007819396862,0.0,0.0,0.0,0.0,25,27,33,25,28,27,0,0.0007681266870349646,-26.226869583129883,-21.470787048339844,-0.1236761212348938,-3.5003933906555176,0.004821149166673422,0.0,0.07999999821186066,-3.557499885559082,-2.240000009536743,0.16500000655651093,-0.5799999833106995,-0.009999999776482582,0.0,0.0,0.0,44.961297985307205,0.0,0.0,0.0,0.0,494.61,2.877,411.208,-179.8259552696821,-53.061564111286025,-0.3567808190279636
102.11368751525879,0.0,0.0,-26.063277142706017,0.0,0.0,0.0,0.0,25,27,33,25,28,27,0,0.0010539662325754762,-20.913095474243164,-18.204687118530273,-0.06809096783399582,-3.364439010620117,0.0026353432331234217,0.0,0.13500000536441803,-3.809999942779541,-1.6699999570846558,0.12999999523162842,-0.5,-0.029999999329447746,0.0,0.0,0.0,44.961297985307205,0.0,0.0,0.0,0.0,383.132,3.687,225.61,-179.99222762182904,-26.08539331359807,-0.11688339020668795
102.61405396461487,0.0,0.0,-20.437461848095978,0.0,0.0,0.0,0.0,25,27,33,25,28,27,0,4.543342040416402e-18,-18.931034088134766,-12.720600128173828,-0.05410183221101761,-3.19474458694458,0.0021274767350405455,0.0,0.0625,-3.0174999237060547,-2.2200000286102295,0.09749999642372131,-0.46000000834465027,-0.029999999329447746,0.0,0.0,0.0,0.0,0.0,0.0,0.0,0.0,349.66,3.812,194.713,179.99297246696273,-20.459635314767542,-0.08422479588423101
103.11465954780579,0.0,0.0,-30.566324341977698,0.0,0.0,0.0,0.0,25,27,33,25,28,27,0,0.0010250331833958626,-22.001358032226562,-15.133930206298828,-0.07795199751853943,-3.435037136077881,0.003023069351911545,0.0,0.0949999988079071,-3.2925000190734863,-4.257500171661377,0.0625,-0.4399999976158142,-0.029999999329447746,0.0,0.0,0.0,-44.985056798335094,0.0,0.0,0.0,0.0,407.64,3.574,252.612,-179.97715883181712,-30.588383217090232,-0.14553127996322912
103.61525416374207,0.0,0.0,-48.560350376958766,0.0,0.0,0.0,0.0,25,27,33,25,28,27,0,0.0008349731797352433,-25.601259231567383,-19.57468032836914,-0.11540693789720535,-3.5328128337860107,0.0044959308579564095,0.0,0.03999999910593033,-4.355000019073486,-5.03249979019165,0.029999999329447746,-0.4399999976158142,-0.029999999329447746,0.0,0.0,0.0,-44.985056798335094,0.0,0.0,0.0,0.0,482.356,3.031,377.063,-179.87127623127694,-48.58200818161471,-0.3002298846485514
104.11584830284119,0.0,0.0,-64.62729016379681,0.0,0.0,0.0,0.0,25,27,33,25,28,27,0,1.8673759492700985e-18,-26.680545806884766,-26.744775772094727,-0.13999220728874207,-3.285547971725464,0.005504991859197617,0.0,0.24500000476837158,-3.4700000286102295,-4.667500019073486,-2.1311077902375075e-15,-0.4399999976158142,-0.029999999329447746,0.0,0.0,0.0,0.0,0.0,0.0,0.0,0.0,513.625,2.453,502.957,-179.62776916834633,-64.6482031233191,-0.5825834860890211
104.61644387245178,0.0,0.0,-64.61949793778305,0.0,0.0,0.0,0.0,25,27,33,25,28,27,0,-0.0024555090349167585,-25.178050994873047,-20.772703170776367,-0.1325352042913437,-3.050835132598877,0.00506671704351902,0.0,0.11249999701976776,-4.179999828338623,-3.759999990463257,-0.029999999329447746,-0.4399999976158142,-0.029999999329447746,0.0,0.0,0.0,1.1245927812767151,0.0,0.0,0.0,0.0,513.618,2.453,502.894,-179.62799835146438,-64.64041089730532,-0.5824115987504819
105.11703372001648,0.0,0.0,-39.963519731477355,0.0,0.0,0.0,0.0,25,27,33,25,28,27,0,0.0009307359578087926,-24.191532135009766,-21.63717269897461,-0.09946954995393753,-3.5305209159851074,0.0038693388924002647,0.0,0.14249999821186066,-3.75,-2.2699999809265137,-0.07249999791383743,-0.4399999976158142,-0.007499999832361937,0.0,0.0,0.0,44.91967481250515,0.0,0.0,0.0,0.0,451.553,3.308,314.684,-179.9332702647101,-39.985349423471845,-0.2158332014257811
105.61763048171997,0.0,0.0,-22.178967066396115,0.0,0.0,0.0,0.0,25,27,33,25,28,27,0,0.00440697418525815,-23.359678268432617,-16.539491653442383,-0.09384559094905853,-4.377803325653076,0.004350072238594294,0.0,0.12999999523162842,-3.7699999809265137,-1.590000033378601,-0.10000000149011612,-0.4399999976158142,5.7011687037977765e-15,0.0,0.0,0.0,33.94769991093168,0.0,0.0,0.0,0.0,360.344,3.775,203.924,179.99709776308765,-22.20114053306768,-0.0940223741809681
106.11804032325745,0.0,0.0,-21.049438069075208,0.0,0.0,0.0,0.0,25,27,33,25,28,27,0,-1.6917569025467202e-17,-19.111536026000977,-14.611357688903809,-0.05564950406551361,-3.209806442260742,0.002188336569815874,0.0,0.05000000074505806,-2.575000047683716,-2.2874999046325684,-0.14000000059604645,-0.5299999713897705,0.019999999552965164,0.0,0.0,0.0,0.0,0.0,0.0,0.0,0.0,353.446,3.799,197.913,179.99440486145056,-21.071668831526285,-0.08766254265501595
106.61864614486694,0.0,0.0,-35.70609953897826,0.0,0.0,0.0,0.0,25,27,33,25,28,27,0,0.0009835910750553012,-23.22435188293457,-20.22501564025879,-0.08960829675197601,-3.498014450073242,0.0034812961239367723,0.0,0.09000000357627869,-3.5174999237060547,-5.147500038146973,-0.17000000178813934,-0.5899999737739563,0.03999999910593033,0.0,0.0,0.0,-45.05965612444997,0.0,0.0,0.0,0.0,432.922,3.434,285.672,-179.9555583229407,-35.728043822531774,-0.1818568041745233
107.11923146247864,0.0,0.0,-62.74191524313934,0.0,0.0,0.0,0.0,25,27,33,25,28,27,0,0.0006284905248321593,-26.995990753173828,-23.2762393951416,-0.137086883187294,-3.36868953704834,0.0053483229130506516,0.0,0.09000000357627869,-4.760000228881836,-5.679999828338623,-0.20749999582767487,-0.6850000023841858,0.07000000029802322,0.0,0.0,0.0,-45.05965612444997,0.0,0.0,0.0,0.0,511.801,2.524,487.795,-179.67205880590996,-62.76294279422064,-0.5338820735029011
107.61982750892639,0.0,0.0,-70.18899148113172,0.0,0.0,0.0,0.0,25,27,33,25,28,27,0,2.6570143493369476e-18,-26.78097152709961,-26.973974227905273,-0.1457676887512207,-3.153439521789551,0.005732104182243347,0.0,0.23999999463558197,-3.4100000858306885,-4.707499980926514,-0.23749999701976776,-0.6399999856948853,0.08749999850988388,0.0,0.0,0.0,0.0,0.0,0.0,0.0,0.0,516.087,2.24,547.923,-179.44637073040792,-70.20938877863838,-0.7768161786383702
108.12045359611511,0.0,0.0,-63.48607282745525,0.0,0.0,0.0,0.0,25,27,33,25,28,27,0,0.0006074985140003264,-27.045562744140625,-22.056901931762695,-0.13843919336795807,-3.3469765186309814,0.0054017030633986,0.0,0.1574999988079071,-3.5950000286102295,-2.3424999713897705,-0.20000000298023224,-0.5099999904632568,0.10999999940395355,0.0,0.0,0.0,44.95216943748149,0.0,0.0,0.0,0.0,512.58,2.496,493.772,-179.65538573407164,-63.507043082757036,-0.5523313145061135
108.62089896202087,0.0,0.0,-45.50522482176219,0.0,0.0,0.0,0.0,25,27,33,25,28,27,0,0.0008679290185682476,-25.186437606811523,-21.068477630615234,-0.11044004559516907,-3.5399985313415527,0.004300676751881838,0.0,0.07750000059604645,-3.825000047683716,-2.1700000762939453,-0.18000000715255737,-0.41999998688697815,0.12250000238418579,0.0,0.0,0.0,44.95216943748149,0.0,0.0,0.0,0.0,472.485,3.133,354.373,-179.89642907848318,-45.52693992219765,-0.2672275156490159
109.12150025367737,0.0,0.0,-30.890675749801254,0.0,0.0,0.0,0.0,25,27,33,25,28,27,0,-6.32371430567756e-18,-21.771543502807617,-18.035175323486328,-0.07954523712396622,-3.4006619453430176,0.0031280016992241144,0.0,0.14749999344348907,-3.422499895095825,-3.1475000381469727,-0.15000000596046448,-0.44999998807907104,0.15000000596046448,0.0,0.0,0.0,0.0,0.0,0.0,0.0,0.0,409.323,3.566,254.63,-179.97589832466784,-30.912734624913796,-0.14770851958472622
109.62202787399292,0.0,0.0,-31.102326359322586,0.0,0.0,0.0,0.0,25,27,33,25,28,27,0,0.006101971957832575,-26.41929054260254,-14.960321426391602,-0.11747556179761887,-4.588754653930664,0.0053485543467104435,0.0,0.11500000208616257,-3.1024999618530273,-3.5250000953674316,-0.12999999523162842,-0.5099999904632568,0.1599999964237213,0.0,0.0,0.0,-12.125429927848536,0.0,0.0,0.0,0.0,410.414,3.56,255.953,-179.97509618375463,-31.12438523443512,-0.14914091407255328
110.12264680862427,0.0,0.0,-57.07198219830423,0.0,0.0,0.0,0.0,25,27,33,25,28,27,0,0.0007170021417550743,-26.600177764892578,-25.67041015625,-0.12936095893383026,-3.4595086574554443,0.00504454318434,0.0,0.14000000059604645,-4.602499961853027,-6.097499847412109,-0.10000000149011612,-0.6100000143051147,0.1899999976158142,0.0,0.0,0.0,-45.04323976477985,0.0,0.0,0.0,0.0,503.328,2.733,442.675,-179.77358692720713,-57.09329622828309,-0.41888944402014483
