Time (s),Pos_0,Pos_1,Pos_2,Pos_3,Pos_4,Pos_5,Pos_6,Temp_0,Temp_1,Temp_2,Temp_3,Temp_4,Temp_5,Temp_6,Torque_0,Torque_1,Torque_2,Torque_3,Torque_4,Torque_5,Torque_6,Current_0,Current_1,Current_2,Current_3,Current_4,Current_5,Current_6,Velocity_0,Velocity_1,Velocity_2,Velocity_3,Velocity_4,Velocity_5,Velocity_6
3.0994415283203125e-06,0.0017932811751961708,15.010356903076172,180.0015869140625,229.99205017089844,359.9993591308594,54.99140548706055,90.0007095336914,35.40764236450195,36.02558517456055,32.72880935668945,35.575218200683594,39.769508361816406,42.1558837890625,42.45075607299805,-0.2031414806842804,19.761089324951172,-0.09949883818626404,-13.705087661743164,-0.6612237095832825,-6.222063064575195,-0.6311193108558655,-0.3384748101234436,-1.9094407558441162,-0.2900390625,1.4583410024642944,0.07262157648801804,0.9386072754859924,-0.07664402574300766,0.0,0.0,0.0,0.0,0.0,0.0,0.0
0.5070652961730957,0.0017932811751961708,15.010356903076172,180.0015869140625,229.99205017089844,359.9993591308594,54.99140548706055,90.0007095336914,35.414894104003906,36.079566955566406,32.73686599731445,35.57441329956055,39.785621643066406,42.18488693237305,42.41691970825195,-0.20644408464431763,19.75638771057129,-0.05318648740649223,-13.73332405090332,-0.6732121109962463,-6.227112293243408,-0.6586976647377014,-0.32236629724502563,-1.909423828125,-0.2901509404182434,1.4501953125,0.072509765625,0.9345703125,-0.08066704869270325,0.0,0.0,0.0,0.0,0.0,0.0,0.0
1.0134282112121582,0.0017932811751961708,15.010356903076172,180.0015869140625,229.99205017089844,359.9993591308594,54.99140548706055,90.0007095336914,35.414894104003906,36.079566955566406,32.73686599731445,35.57441329956055,39.785621643066406,42.18488693237305,42.41691970825195,-0.20644408464431763,19.75638771057129,-0.05318648740649223,-13.73332405090332,-0.6732121109962463,-6.227112293243408,-0.6586976647377014,-0.32236629724502563,-1.909423828125,-0.2901509404182434,1.4501953125,0.072509765625,0.9345703125,-0.08066704869270325,0.0,0.0,0.0,0.0,0.0,0.0,0.0
1.5223093032836914,0.0017932811751961708,15.010356903076172,180.0015869140625,229.99205017089844,359.9993591308594,54.99140548706055,90.0007095336914,35.414894104003906,36.079566955566406,32.73686599731445,35.57441329956055,39.785621643066406,42.18488693237305,42.41691970825195,-0.20644408464431763,19.75638771057129,-0.05318648740649223,-13.73332405090332,-0.6732121109962463,-6.227112293243408,-0.6586976647377014,-0.32236629724502563,-1.909423828125,-0.2901509404182434,1.4501953125,0.072509765625,0.9345703125,-0.08066704869270325,0.0,0.0,0.0,0.0,0.0,0.0,0.0
2.0315632820129395,0.0017932811751961708,15.010356903076172,180.0015869140625,229.99205017089844,359.9993591308594,54.99140548706055,90.0007095336914,35.414894104003906,36.079566955566406,32.73686599731445,35.57441329956055,39.785621643066406,42.18488693237305,42.41691970825195,-0.20644408464431763,19.75638771057129,-0.05318648740649223,-13.73332405090332,-0.6732121109962463,-6.227112293243408,-0.6586976647377014,-0.32236629724502563,-1.909423828125,-0.2901509404182434,1.4501953125,0.072509765625,0.9345703125,-0.08066704869270325,0.0,0.0,0.0,0.0,0.0,0.0,0.0
2.5390236377716064,0.0017932811751961708,15.010356903076172,180.0015869140625,229.99205017089844,359.9993591308594,54.99140548706055,90.0007095336914,35.414894104003906,36.079566955566406,32.73686599731445,35.57441329956055,39.785621643066406,42.18488693237305,42.41691970825195,-0.20644408464431763,19.75638771057129,-0.05318648740649223,-13.73332405090332,-0.6732121109962463,-6.227112293243408,-0.6586976647377014,-0.32236629724502563,-1.909423828125,-0.2901509404182434,1.4501953125,0.072509765625,0.9345703125,-0.08066704869270325,0.0,0.0,0.0,0.0,0.0,0.0,0.0
3.044151782989502,0.0017932811751961708,15.010356903076172,180.0015869140625,229.99205017089844,359.9993591308594,54.99140548706055,90.0007095336914,35.414894104003906,36.079566955566406,32.73686599731445,35.57441329956055,39.785621643066406,42.18488693237305,42.41691970825195,-0.20644408464431763,19.75638771057129,-0.05318648740649223,-13.73332405090332,-0.6732121109962463,-6.227112293243408,-0.6586976647377014,-0.32236629724502563,-1.909423828125,-0.2901509404182434,1.4501953125,0.072509765625,0.9345703125,-0.08066704869270325,0.0,0.0,0.0,0.0,0.0,0.0,0.0
3.5530688762664795,0.0017932811751961708,15.010356903076172,180.0015869140625,229.99205017089844,359.9993591308594,54.99140548706055,90.0007095336914,35.414894104003906,36.079566955566406,32.73686599731445,35.57441329956055,39.785621643066406,42.18488693237305,42.41691970825195,-0.20644408464431763,19.75638771057129,-0.05318648740649223,-13.73332405090332,-0.6732121109962463,-6.227112293243408,-0.6586976647377014,-0.32236629724502563,-1.909423828125,-0.2901509404182434,1.4501953125,0.072509765625,0.9345703125,-0.08066704869270325,0.0,0.0,0.0,0.0,0.0,0.0,0.0
4.060989618301392,0.0017932811751961708,15.010356903076172,180.0015869140625,229.99205017089844,359.9993591308594,54.99140548706055,90.0007095336914,35.414894104003906,36.079566955566406,32.73686599731445,35.57441329956055,39.785621643066406,42.18488693237305,42.41691970825195,-0.20644408464431763,19.75638771057129,-0.05318648740649223,-13.73332405090332,-0.6732121109962463,-6.227112293243408,-0.6586976647377014,-0.32236629724502563,-1.909423828125,-0.2901509404182434,1.4501953125,0.072509765625,0.9345703125,-0.08066704869270325,0.0,0.0,0.0,0.0,0.0,0.0,0.0
4.571139097213745,0.0017932811751961708,15.010356903076172,180.0015869140625,229.99205017089844,359.9993591308594,54.99140548706055,90.0007095336914,35.414894104003906,36.079566955566406,32.73686599731445,35.57441329956055,39.785621643066406,42.18488693237305,42.41691970825195,-0.20644408464431763,19.75638771057129,-0.05318648740649223,-13.73332405090332,-0.6732121109962463,-6.227112293243408,-0.6586976647377014,-0.32236629724502563,-1.909423828125,-0.2901509404182434,1.4501953125,0.072509765625,0.9345703125,-0.08066704869270325,0.0,0.0,0.0,0.0,0.0,0.0,0.0
5.079678773880005,0.0017932811751961708,15.010356903076172,180.0015869140625,229.99205017089844,359.9993591308594,54.99140548706055,90.0007095336914,35.414894104003906,36.079566955566406,32.73686599731445,35.57441329956055,39.785621643066406,42.18488693237305,42.41691970825195,-0.20644408464431763,19.75638771057129,-0.05318648740649223,-13.73332405090332,-0.6732121109962463,-6.227112293243408,-0.6586976647377014,-0.32236629724502563,-1.909423828125,-0.2901509404182434,1.4501953125,0.072509765625,0.9345703125,-0.08066704869270325,0.0,0.0,0.0,0.0,0.0,0.0,0.0
5.587865352630615,0.0017932811751961708,15.010356903076172,180.0015869140625,229.99205017089844,359.9993591308594,54.99140548706055,90.0007095336914,35.414894104003906,36.079566955566406,32.73686599731445,35.57441329956055,39.785621643066406,42.18488693237305,42.41691970825195,-0.20644408464431763,19.75638771057129,-0.05318648740649223,-13.73332405090332,-0.6732121109962463,-6.227112293243408,-0.6586976647377014,-0.32236629724502563,-1.909423828125,-0.2901509404182434,1.4501953125,0.072509765625,0.9345703125,-0.08066704869270325,0.0,0.0,0.0,0.0,0.0,0.0,0.0
6.095014333724976,0.0017932811751961708,15.010356903076172,180.0015869140625,229.99205017089844,359.9993591308594,54.99140548706055,90.0007095336914,35.414894104003906,36.079566955566406,32.73686599731445,35.57441329956055,39.785621643066406,42.18488693237305,42.41691970825195,-0.20644408464431763,19.75638771057129,-0.05318648740649223,-13.73332405090332,-0.6732121109962463,-6.227112293243408,-0.6586976647377014,-0.32236629724502563,-1.909423828125,-0.2901509404182434,1.4501953125,0.072509765625,0.9345703125,-0.08066704869270325,0.0,0.0,0.0,0.0,0.0,0.0,0.0
6.603095769882202,0.0012933980906382203,8.05122184753418,261.664306640625,322.48663330078125,359.9998474121094,29.559974670410156,48.37897491455078,35.410865783691406,36.123878479003906,32.764259338378906,35.660621643066406,39.75983810424805,42.19133377075195,42.41450119018555,0.02914830669760704,7.513969898223877,-2.5565526485443115,-10.034354209899902,-0.26435884833335876,-1.0483036041259766,-0.48973408341407776,-0.24169921875,-0.9748868346214294,0.6610865592956543,1.2706525325775146,0.0127386674284935,0.04048411548137665,-0.2538161277770996,0.0,-1.9109406471252441,21.541820526123047,25.410680770874023,-0.001667345524765551,-6.252079963684082,-10.014477729797363
7.109107255935669,0.001319707720540464,7.1873979568481445,272.70733642578125,335.130615234375,359.9998474121094,26.404850006103516,43.19820022583008,35.408447265625,36.107765197753906,32.76828384399414,35.65900802612305,39.780784606933594,42.18891525268555,42.435447692871094,-0.21387119591236115,5.8571953773498535,-2.2023181915283203,-6.072634696960449,-0.25185373425483704,0.27376648783683777,-0.4965508282184601,-0.24183346331119537,-0.7412546873092651,0.4938267469406128,0.8863769173622131,0.014524315483868122,-0.24169921875,-0.2618408203125,0.0,-1.980857014656067,21.75847625732422,25.039270401000977,-0.0006063014734536409,-6.530637741088867,-10.337597846984863
7.625683546066284,0.001319707720540464,6.303472995758057,284.0110778808594,348.0959167480469,359.9997863769531,23.156414031982422,37.87968444824219,35.41730880737305,36.098899841308594,32.76667404174805,35.66948318481445,39.77997970581055,42.166358947753906,42.448341369628906,-0.24607858061790466,5.231395244598389,-1.59898042678833,-2.076266050338745,-0.21906810998916626,1.3869861364364624,-0.5613633990287781,-0.24183346331119537,-0.6445816159248352,0.6125167012214661,0.6369333267211914,0.0201416015625,-0.47535884380340576,-0.14524315297603607,0.0,-2.27258563041687,21.541820526123047,24.791664123535156,0.0006063014734536409,-5.6949639320373535,-10.678057670593262
8.13316559791565,0.0012933980906382203,5.436123371124268,295.0520324707031,0.761268138885498,359.9997253417969,19.985647201538086,32.68696975708008,35.40522384643555,36.098899841308594,32.7698974609375,35.67109298706055,39.77192306518555,42.189720153808594,42.440284729003906,-0.25953707098960876,5.610563278198242,-1.3611466884613037,1.9770090579986572,-0.4001385569572449,2.6928577423095703,-0.7084702849388123,-0.2255859375,-0.926513671875,0.3639783263206482,0.17595969140529633,0.02054048329591751,-0.5720782279968262,-0.19755204021930695,0.0,-1.5939708948135376,22.03703498840332,24.94641876220703,0.0,-6.128276348114014,-10.507827758789062
8.642519474029541,0.0012670884607359767,4.566853046417236,306.1832275390625,13.525335311889648,359.9996643066406,16.7970027923584,27.452287673950195,35.418113708496094,36.101318359375,32.764259338378906,35.659812927246094,39.742919921875,42.22758865356445,42.424171447753906,-0.33074238896369934,7.474850177764893,-1.1779402494430542,6.19564151763916,-0.46418657898902893,3.878361701965332,-0.72823166847229,-0.23419755697250366,-1.1844358444213867,0.4626784920692444,-0.2255859375,0.03247735649347305,-0.8741455078125,-0.1248779296875,0.0,-1.7097889184951782,21.572771072387695,25.12665557861328,0.0,-6.100644588470459,-10.662581443786621
9.154425621032715,0.001240778830833733,3.6896896362304688,317.3133239746094,26.29032325744629,359.9996032714844,13.59669303894043,22.221145629882812,35.4044189453125,36.08198165893555,32.77714920043945,35.6622314453125,39.76225662231445,42.210670471191406,42.43302917480469,-0.5133435726165771,10.818343162536621,-1.0895036458969116,9.379291534423828,-0.5299169421195984,4.740708351135254,-0.6616167426109314,-0.23378144204616547,-1.3938220739364624,0.620361328125,-0.451171875,0.04833984375,-0.9547203779220581,-0.2497883439064026,0.0,-1.2631922960281372,21.44896697998047,24.791664123535156,0.0006076777935959399,-5.646614074707031,-10.337597846984863
9.665259599685669,0.001240778830833733,2.8192615509033203,328.4643249511719,39.079463958740234,359.9996032714844,10.402979850769043,16.99872589111328,35.402809143066406,36.08440017700195,32.78439712524414,35.663841247558594,39.74211502075195,42.201805114746094,42.44511795043945,-0.49143388867378235,13.844812393188477,-1.3054274320602417,12.087847709655762,-0.5682492256164551,5.375738143920898,-0.5707120299339294,-0.2255859375,-1.7000274658203125,0.5196377038955688,-0.79057776927948,0.04048411548137665,-0.8499755859375,-0.30615234375,0.0,-1.700574278831482,21.820377349853516,24.899991989135742,0.0,-6.408116340637207,-9.957006454467773
10.183312177658081,0.001240778830833733,1.934836983680725,339.72705078125,51.995361328125,359.9996032714844,7.165879249572754,11.686480522155762,35.42133712768555,36.087623596191406,32.775535583496094,35.647727966308594,39.748558044433594,42.16716384887695,42.42094802856445,-0.39118385314941406,16.532901763916016,-1.3355531692504883,14.140039443969727,-0.6087183952331543,5.997910976409912,-0.44536489248275757,-0.2261606752872467,-1.9497236013412476,0.5237436294555664,-0.8880230784416199,0.0490066334605217,-1.1521066427230835,-0.249755859375,0.000303382781567052,-1.7022989988327026,21.92552947998047,24.843843460083008,0.0,-6.530637741088867,-10.923742294311523
10.69223165512085,0.0012144692009314895,1.0730384588241577,350.776611328125,64.67121124267578,359.9996032714844,3.986337184906006,6.476978302001953,35.41569900512695,36.09245681762695,32.7900390625,35.63886642456055,39.74775314331055,42.21711349487305,42.44914627075195,-0.4847269356250763,19.791595458984375,-1.4641779661178589,15.673020362854004,-0.6178980469703674,6.008083343505859,-0.4169635474681854,-0.2255859375,-2.4895150661468506,0.5725319385528564,-1.1686573028564453,0.04108096659183502,-1.1561349630355835,-0.2135389745235443,0.0,-1.5475445985794067,23.074966430664062,25.983272552490234,0.000607218302320689,-6.465588569641113,-10.120941162109375
11.220532655715942,0.0013460173504427075,0.1700655221939087,359.77862548828125,74.25365447998047,359.9996032714844,0.677452802658081,1.0592092275619507,35.410865783691406,36.083595275878906,32.78117370605469,35.615501403808594,39.78642654418945,42.202613830566406,42.42900466918945,0.19296187162399292,20.376962661743164,-0.44081246852874756,18.00654411315918,-0.6813075542449951,6.645898818969727,-0.3975076973438263,-0.233642578125,-2.6829097270965576,0.24183346331119537,-1.4826189279556274,0.04850739985704422,-1.2125310897827148,-0.3262939453125,-0.0007590228924527764,-1.5165936946868896,5.818767547607422,5.474198341369629,0.0,-6.406834602355957,-10.012613296508789
11.730028629302979,0.0011881595710292459,0.00616455078125,0.00529499864205718,74.47723388671875,359.9996032714844,0.010683166794478893,359.9982604980469,35.410865783691406,36.09245681762695,32.77070236206055,35.596168518066406,39.740501403808594,42.18730545043945,42.451560974121094,-1.0004408359527588,18.808237075805664,-0.9625423550605774,18.52178955078125,-0.6632035970687866,6.471368789672852,-0.6302281618118286,-0.22572974860668182,-1.5146484375,-0.2985308766365051,-2.1269683837890625,0.04048411548137665,-0.990966796875,0.1450754702091217,-0.001516898861154914,0.0,-0.058826323598623276,-0.01121910847723484,0.0006063014734536409,-0.017457265406847,0.01774759218096733
12.238273859024048,0.0012933980906382203,0.007720947265625,0.0018221266800537705,75.9222412109375,359.99957275390625,0.008666451089084148,359.99884033203125,35.414085388183594,36.110984802246094,32.764259338378906,35.620338439941406,39.75580978393555,42.232421875,42.395164489746094,0.10420163720846176,18.53672218322754,0.1892455518245697,16.52910614013672,-0.6944559812545776,6.115559101104736,-0.6013021469116211,-0.21767844259738922,-1.474387288093567,-0.33042049407958984,-1.1844358444213867,0.04503798857331276,-0.9668052792549133,0.12896917760372162,0.0004547261050902307,0.0027283565141260624,0.0,12.519635200500488,0.0,0.003789384150877595,0.0
12.745513439178467,0.0012670884607359767,0.010892224498093128,0.0015064111212268472,82.01668548583984,359.99957275390625,0.009102498181164265,359.99884033203125,35.406837463378906,36.10454177856445,32.77070236206055,35.603416442871094,39.77836990356445,42.21630859375,42.45317459106445,0.3966374695301056,18.286054611206055,0.42495545744895935,17.871585845947266,-0.6936452984809875,6.462650775909424,-0.6010262370109558,-0.233642578125,-1.724139928817749,-0.298095703125,-1.4099351167678833,0.04833984375,-1.0393145084381104,0.11689072102308273,0.0007590153254568577,-0.006517740897834301,0.00106343615334481,0.9482862949371338,-0.000607218302320689,-0.0031854878179728985,0.0
13.253288745880127,0.001240778830833733,0.010444960556924343,0.0014801013749092817,81.9644546508789,359.9996032714844,0.009211509488523006,359.9989013671875,35.40764236450195,36.10454177856445,32.759422302246094,35.597774505615234,39.791259765625,42.210670471191406,42.45478439331055,0.12462817877531052,19.150527954101562,0.2567867636680603,18.544178009033203,-0.6910756230354309,6.425753593444824,-0.5751072764396667,-0.233642578125,-1.828857421875,-0.2901509404182434,-2.086669921875,0.04048411548137665,-1.0232013463974,0.11689072102308273,0.00030337978387251496,0.0007590228924527764,0.0004557628999464214,-0.011335141956806183,0.0,0.0010626320727169514,0.0006063014734536409
13.760888576507568,0.0012144692009314895,0.01047127041965723,0.0014537917450070381,78.75360107421875,359.9996032714844,0.009375026449561119,359.9989013671875,35.41972732543945,36.11662673950195,32.76828384399414,35.63241958618164,39.77434158325195,42.194557189941406,42.48540115356445,-0.31802132725715637,20.18094825744629,-0.17996500432491302,19.60097312927246,-0.7116191983222961,6.5042290687561035,-0.5967974662780762,-0.22572974860668182,-1.877197265625,-0.2740442156791687,-2.56201171875,0.04449424892663956,-1.0514224767684937,0.11279296875,-0.00030337978387251496,0.0007590153254568577,0.0,-18.56342315673828,0.0,-0.0006076717399992049,0.0
14.268210649490356,0.001240778830833733,0.00927734375,0.0014537917450070381,66.46576690673828,359.9996032714844,0.009920084848999977,359.9989013671875,35.408447265625,36.13837814331055,32.77714920043945,35.64128494262695,39.725196838378906,42.22114181518555,42.45075607299805,-0.19453611969947815,19.017345428466797,-0.06941156834363937,20.367216110229492,-0.6800145506858826,6.75711727142334,-0.5966331362724304,-0.2255859375,-1.8047055006027222,-0.2740442156791687,-2.755418300628662,0.04833984375,-0.982918381690979,0.1248779296875,0.0,0.0,-0.00030383889679796994,-25.132123947143555,0.0006076838471926749,0.008191253989934921,0.0
14.775150060653687,0.001240778830833733,0.008636474609375,0.0014801013749092817,53.820884704589844,359.99957275390625,0.007467323448508978,359.9989013671875,35.418113708496094,36.14079666137695,32.772315979003906,35.666259765625,39.7630615234375,42.202613830566406,42.435447692871094,-0.18369723856449127,15.958978652954102,-0.2422010600566864,16.64373207092285,-0.7082284688949585,5.5705037117004395,-0.6433271765708923,-0.2255859375,-1.6919137239456177,-0.2659911811351776,-2.175665855407715,0.04982757195830345,-0.8580322265625,0.11279296875,0.0,0.00030383889679796994,0.0,-25.054746627807617,0.0,-0.0010610276367515326,0.0
15.281746625900269,0.001240778830833733,0.00640869140625,0.0014801013749092817,47.409854888916016,359.99957275390625,0.00626819534227252,359.9989013671875,35.410865783691406,36.16093826293945,32.76667404174805,35.658203125,39.75178146362305,42.217918395996094,42.424171447753906,-0.1705605387687683,12.78537654876709,-0.25356078147888184,13.32632064819336,-0.6480617523193359,4.536331653594971,-0.6219056248664856,-0.2255859375,-1.434172511100769,-0.2740442156791687,-1.5710655450820923,0.04850739985704422,-0.7010319232940674,0.11286487430334091,0.0,0.0012135191354900599,0.0,0.03497716784477234,0.0,-0.0010618397500365973,0.0
15.789677381515503,0.001240778830833733,0.007354736328125,0.0014801013749092817,47.476341247558594,359.99957275390625,0.00675874762237072,359.99896240234375,35.414085388183594,36.16657638549805,32.767478942871094,35.666259765625,39.777565002441406,42.201805114746094,42.45478439331055,-0.3377782106399536,14.124847412109375,-0.31338492035865784,14.03872013092041,-0.6678252220153809,4.87971830368042,-0.6399052143096924,-0.2255859375,-1.4179916381835938,-0.2740442156791687,-1.0474872589111328,0.0490066334605217,-0.7452392578125,0.1168212890625,0.0,-0.00030337978387251496,0.0,0.01834293082356453,0.0,-0.0010610276367515326,0.000606307468842715
16.298786878585815,0.0012144692009314895,0.009307861328125,0.0014537917450070381,50.78872299194336,359.9996032714844,0.008884474635124207,359.99896240234375,35.406837463378906,36.16254806518555,32.773921966552734,35.67109298706055,39.76386642456055,42.208251953125,42.451560974121094,-0.24703297019004822,18.678661346435547,-0.10810147970914841,15.894316673278809,-0.678240954875946,6.082315444946289,-0.6211625337600708,-0.22572974860668182,-1.4501953125,-0.2659911811351776,-1.184326171875,0.0490066334605217,-0.8177589178085327,0.10906263440847397,-0.00030383889679796994,0.015557719394564629,-0.00030383889679796994,6.787782669067383,0.0006063014734536409,0.01346624456346035,0.0006081379251554608
16.808134078979492,0.001240778830833733,0.00823974609375,0.0014801013749092817,51.18621063232422,359.99957275390625,0.00708578247576952,359.99896240234375,35.410865783691406,36.172218322753906,32.77875900268555,35.656593322753906,39.761451721191406,42.209861755371094,42.40644454956055,-0.10818327963352203,14.049478530883789,-0.09655186533927917,14.466254234313965,-0.662384033203125,5.051171779632568,-0.6287770867347717,-0.23378144204616547,-1.4824438095092773,-0.2663569748401642,-1.611328125,0.04048411548137665,-0.8017268180847168,0.10883922129869461,0.0,-0.0021252641454339027,0.0,-0.023139603435993195,0.0,-0.003190308343619108,0.0
17.31754779815674,0.001240778830833733,0.0079345703125,0.0014801013749092817,53.03083038330078,359.99957275390625,0.00757633475586772,359.99896240234375,35.41730880737305,36.16899490356445,32.77473068237305,35.67431640625,39.776756286621094,42.224365234375,42.42658615112305,-0.21118804812431335,14.941574096679688,-0.1887846738100052,13.849686622619629,-0.6484617590904236,5.104528427124023,-0.6163274049758911,-0.21767844259738922,-1.4744532108306885,-0.265869140625,-0.789591908454895,0.052522867918014526,-0.7815045118331909,0.10883922129869461,0.0,0.003033797722309828,0.0,13.821990966796875,0.0,0.0103306258097291,0.0
17.828120231628418,0.001240778830833733,0.0091552734375,0.0014537917450070381,62.22583770751953,359.9996032714844,0.008829968981444836,359.99896240234375,35.414894104003906,36.19074630737305,32.771507263183594,35.668678283691406,39.749366760253906,42.217918395996094,42.42094802856445,-0.21337345242500305,18.80904769897461,-0.08143080770969391,17.31390953063965,-0.6905974745750427,6.3434529304504395,-0.6166889071464539,-0.233642578125,-1.571044921875,-0.2578125,-1.2810311317443848,0.040283203125,-0.9426355361938477,0.1087646484375,0.0,0.000606765563134104,-0.00030337978387251496,9.612174987792969,0.000606765563134104,0.003792284755036235,0.0
18.33933448791504,0.001240778830833733,0.008758544921875,0.0014801013749092817,62.98097610473633,359.9996032714844,0.008339416235685349,359.99896240234375,35.41167068481445,36.16657638549805,32.773921966552734,35.666259765625,39.745338439941406,42.250144958496094,42.464454650878906,-0.16879358887672424,16.289194107055664,-0.1060812771320343,16.24242401123047,-0.6841902732849121,5.790933132171631,-0.6133476495742798,-0.2255859375,-1.6032917499542236,-0.2659911811351776,-2.0947420597076416,0.04833984375,-0.9305506944656372,0.11286487430334091,0.0,-0.001516898861154914,0.00030337978387251496,-0.15274062752723694,0.0,-0.0021236585453152657,0.0
18.848750352859497,0.001240778830833733,0.008514404296875,0.0014801013749092817,64.07130432128906,359.9996032714844,0.008230404928326607,359.99896240234375,35.41569900512695,36.184303283691406,32.77070236206055,35.676734924316406,39.740501403808594,42.256591796875,42.43464279174805,-0.16051965951919556,17.97651481628418,-0.06066129356622696,15.778531074523926,-0.685302734375,5.868624687194824,-0.5937009453773499,-0.22572974860668182,-1.5871785879135132,-0.2740442156791687,-1.063507080078125,0.04833984375,-0.8822021484375,0.11286487430334091,0.0,0.0051652612164616585,0.0,10.667238235473633,0.0006067595677450299,0.003183082677423954,0.0
19.357142210006714,0.001240778830833733,0.0089111328125,0.0014801013749092817,74.86125183105469,359.99957275390625,0.008557439781725407,359.99896240234375,35.406028747558594,36.18994140625,32.78117370605469,35.6864013671875,39.760643005371094,42.224365234375,42.45075607299805,-0.06482159346342087,16.302391052246094,0.03411499410867691,14.922356605529785,-0.6861599087715149,5.645133972167969,-0.5929350256919861,-0.233642578125,-1.6032917499542236,-0.2659911811351776,-1.0312814712524414,0.052522867918014526,-1.0030840635299683,0.10481376945972443,0.00030337978387251496,-0.009952294640243053,0.00030315073672682047,24.94641876220703,-0.0006063014734536409,-0.04071126505732536,0.0
19.865126371383667,0.0012144692009314895,0.009787220507860184,0.0014537917450070381,84.07767486572266,359.9996032714844,0.010465143248438835,359.99896240234375,35.41328048706055,36.188331604003906,32.7779541015625,35.67753982543945,39.756614685058594,42.250953674316406,42.436256408691406,-0.16699695587158203,19.712793350219727,-0.04188992828130722,19.535385131835938,-0.6861574053764343,7.252828121185303,-0.5872412919998169,-0.22572974860668182,-1.7080837488174438,-0.27392578125,-1.458274245262146,0.04850739985704422,-1.0997388362884521,0.10481376945972443,0.0,0.000758449430577457,0.0,5.756865501403809,0.0,-0.0016698503168299794,0.0
20.381890535354614,0.0012144692009314895,0.00946044921875,0.0014537917450070381,84.3421630859375,359.9996032714844,0.009647555649280548,359.99896240234375,35.41167068481445,36.19316482543945,32.772315979003906,35.6622314453125,39.77192306518555,42.232421875,42.46686935424805,-0.24979646503925323,19.904403686523438,-0.04784044250845909,18.493316650390625,-0.7056161761283875,6.615255832672119,-0.5794644355773926,-0.2261606752872467,-1.7161400318145752,-0.265869140625,-2.312255859375,0.0490066334605217,-1.04736328125,0.11709877848625183,-0.00029798538889735937,0.003282711608335376,0.0,-0.09283555299043655,0.0005950933555141091,0.00535584008321166,0.0
20.89010453224182,0.0012144692009314895,0.00970458984375,0.0014537917450070381,82.74764251708984,359.9996032714844,0.010356131941080093,359.99896240234375,35.414085388183594,36.19719314575195,32.75861740112305,35.67753982543945,39.748558044433594,42.2203369140625,42.4539794921875,-0.26899266242980957,21.393281936645508,-0.07840637117624283,21.316987991333008,-0.7075605392456055,7.2512335777282715,-0.5949544310569763,-0.20947265625,-1.7322527170181274,-0.2900390625,-2.941071033477783,0.04449424892663956,-1.0795973539352417,0.1087646484375,-0.0003036091511603445,0.001214436604641378,0.0,-12.674389839172363,0.0,0.004857746418565512,0.0
21.400121688842773,0.001240778830833733,0.00909423828125,0.0014537917450070381,71.32010650634766,359.99957275390625,0.011555259115993977,359.99896240234375,35.40764236450195,36.21330642700195,32.775535583496094,35.698486328125,39.745338439941406,42.222755432128906,42.440277099609375,-0.35337671637535095,17.297929763793945,-0.2490212619304657,17.871028900146484,-0.7024887800216675,5.727221965789795,-0.6168316602706909,-0.21767844259738922,-1.7080078125,-0.265869140625,-2.3768320083618164,0.0490066334605217,-1.039306640625,0.104736328125,0.0,-0.001516898861154914,0.0,-25.072114944458008,0.0,-0.05408720299601555,0.0
21.90889286994934,0.0012144692009314895,0.0087890625,0.0014274821151047945,58.63278579711914,359.99957275390625,0.00839392188936472,359.99896240234375,35.40764236450195,36.203636169433594,32.77070236206055,35.7025146484375,39.748558044433594,42.25336837768555,42.43464279174805,-0.4092964231967926,17.15944480895996,-0.3503898084163666,16.712112426757812,-0.6980366706848145,5.355325222015381,-0.6389304995536804,-0.24169921875,-1.6839150190353394,-0.2659911811351776,-2.2078871726989746,0.052522867918014526,-0.958740234375,0.11286487430334091,-0.00045506967580877244,0.0006067595677450299,-0.00045506967580877244,-25.172691345214844,0.0,-0.006972535979002714,0.0
22.418909072875977,0.0012670884607359767,0.006134033203125,0.0014801013749092817,48.61880874633789,359.99957275390625,0.00457851542159915,359.99896240234375,35.41328048706055,36.21733474731445,32.78117752075195,35.7105712890625,39.7509765625,42.208251953125,42.448341369628906,-0.19131875038146973,12.552680969238281,-0.2532055974006653,14.159309387207031,-0.6448072195053101,4.724589824676514,-0.640413224697113,-0.2255859375,-1.4502848386764526,-0.2659911811351776,-1.877266526222229,0.05374449864029884,-0.572021484375,0.11689072102308273,0.0003040659357793629,-0.002122055273503065,0.0,-7.768673419952393,0.0,0.0062907543033361435,0.0
22.930047750473022,0.001240778830833733,0.007293701171875,0.0014537917450070381,48.096168518066406,359.99957275390625,0.00561412563547492,359.99896240234375,35.41730880737305,36.224586486816406,32.78117752075195,35.71379470825195,39.7711181640625,42.214698791503906,42.46686935424805,-0.24178887903690338,15.141307830810547,-0.17868351936340332,14.33509635925293,-0.670148491859436,5.100404739379883,-0.6224614977836609,-0.24169921875,-1.393798828125,-0.27392578125,-1.1924917697906494,0.04850739985704422,-0.5921630859375,0.11279296875,0.0,0.0015191944548860192,-0.0003036091511603445,0.040431343019008636,0.0,0.002122055273503065,0.0
23.441213369369507,0.001240778830833733,0.007080078125,0.0014801013749092817,49.01905822753906,359.99957275390625,0.0052325851283967495,359.99896240234375,35.40764236450195,36.219749450683594,32.763450622558594,35.721046447753906,39.773536682128906,42.22758865356445,42.420143127441406,-0.10651551932096481,13.52067756652832,-0.1386420726776123,12.533167839050293,-0.6706905961036682,4.786230087280273,-0.630626380443573,-0.233642578125,-1.3374265432357788,-0.265869140625,-0.8056640625,0.04850739985704422,-0.5760498046875,0.1168212890625,0.0,0.0009115167194977403,0.0,9.84238338470459,0.0,0.0016673291102051735,0.0
23.95812726020813,0.001240778830833733,0.00811767578125,0.0014801013749092817,59.7851448059082,359.99957275390625,359.9998779296875,359.99896240234375,35.40522384643555,36.21330642700195,32.7779541015625,35.745216369628906,39.761451721191406,42.256591796875,42.45478439331055,0.018485670909285545,14.540645599365234,0.05981303006410599,13.552031517028809,-0.6724485158920288,5.144514560699463,-0.6013733744621277,-0.2255859375,-1.409912109375,-0.2740442156791687,-0.8622111678123474,0.0523681640625,-0.9184658527374268,0.10504573583602905,0.00030337978387251496,-0.007190758362412453,0.0004547261050902307,24.698810577392578,-0.000607218302320689,0.20115163922309875,0.0
24.467279195785522,0.001240778830833733,0.00836181640625,0.0014537917450070381,65.46515655517578,359.99957275390625,0.011064707301557064,359.99896240234375,35.4205322265625,36.228614807128906,32.76667404174805,35.7427978515625,39.75419998168945,42.26948165893555,42.4217529296875,-0.17643310129642487,15.922149658203125,-0.09762447327375412,14.609827995300293,-0.6770060062408447,5.727356910705566,-0.6128861904144287,-0.2255859375,-1.4502848386764526,-0.265869140625,-0.910400390625,0.052522867918014526,-1.0151447057724,0.11689072102308273,0.00030337978387251496,-0.003342227777466178,0.0,24.669811248779297,0.0,-0.06767909228801727,0.0
24.975281715393066,0.001240778830833733,0.00836181640625,0.0014537917450070381,65.46515655517578,359.99957275390625,0.011064707301557064,359.99896240234375,35.4205322265625,36.228614807128906,32.76667404174805,35.7427978515625,39.75419998168945,42.26948165893555,42.4217529296875,-0.17643310129642487,15.922149658203125,-0.09762447327375412,14.609827995300293,-0.6770060062408447,5.727356910705566,-0.6128861904144287,-0.2255859375,-1.4502848386764526,-0.265869140625,-0.910400390625,0.052522867918014526,-1.0151447057724,0.11689072102308273,0.00030337978387251496,-0.003342227777466178,0.0,24.669811248779297,0.0,-0.06767909228801727,0.0
25.48303484916687,0.001240778830833733,0.00836181640625,0.0014537917450070381,65.46515655517578,359.99957275390625,0.011064707301557064,359.99896240234375,35.4205322265625,36.228614807128906,32.76667404174805,35.7427978515625,39.75419998168945,42.26948165893555,42.4217529296875,-0.17643310129642487,15.922149658203125,-0.09762447327375412,14.609827995300293,-0.6770060062408447,5.727356910705566,-0.6128861904144287,-0.2255859375,-1.4502848386764526,-0.265869140625,-0.910400390625,0.052522867918014526,-1.0151447057724,0.11689072102308273,0.00030337978387251496,-0.003342227777466178,0.0,24.669811248779297,0.0,-0.06767909228801727,0.0
25.98713445663452,0.001240778830833733,0.00836181640625,0.0014537917450070381,65.46515655517578,359.99957275390625,0.011064707301557064,359.99896240234375,35.4205322265625,36.228614807128906,32.76667404174805,35.7427978515625,39.75419998168945,42.26948165893555,42.4217529296875,-0.17643310129642487,15.922149658203125,-0.09762447327375412,14.609827995300293,-0.6770060062408447,5.727356910705566,-0.6128861904144287,-0.2255859375,-1.4502848386764526,-0.265869140625,-0.910400390625,0.052522867918014526,-1.0151447057724,0.11689072102308273,0.00030337978387251496,-0.003342227777466178,0.0,24.669811248779297,0.0,-0.06767909228801727,0.0
26.497121810913086,0.001240778830833733,0.00836181640625,0.0014537917450070381,65.46515655517578,359.99957275390625,0.011064707301557064,359.99896240234375,35.4205322265625,36.228614807128906,32.76667404174805,35.7427978515625,39.75419998168945,42.26948165893555,42.4217529296875,-0.17643310129642487,15.922149658203125,-0.09762447327375412,14.609827995300293,-0.6770060062408447,5.727356910705566,-0.6128861904144287,-0.2255859375,-1.4502848386764526,-0.265869140625,-0.910400390625,0.052522867918014526,-1.0151447057724,0.11689072102308273,0.00030337978387251496,-0.003342227777466178,0.0,24.669811248779297,0.0,-0.06767909228801727,0.0
27.003353357315063,0.001240778830833733,0.00836181640625,0.0014537917450070381,65.46515655517578,359.99957275390625,0.011064707301557064,359.99896240234375,35.4205322265625,36.228614807128906,32.76667404174805,35.7427978515625,39.75419998168945,42.26948165893555,42.4217529296875,-0.17643310129642487,15.922149658203125,-0.09762447327375412,14.609827995300293,-0.6770060062408447,5.727356910705566,-0.6128861904144287,-0.2255859375,-1.4502848386764526,-0.265869140625,-0.910400390625,0.052522867918014526,-1.0151447057724,0.11689072102308273,0.00030337978387251496,-0.003342227777466178,0.0,24.669811248779297,0.0,-0.06767909228801727,0.0
27.51195478439331,0.001240778830833733,0.00836181640625,0.0014537917450070381,65.46515655517578,359.99957275390625,0.011064707301557064,359.99896240234375,35.4205322265625,36.228614807128906,32.76667404174805,35.7427978515625,39.75419998168945,42.26948165893555,42.4217529296875,-0.17643310129642487,15.922149658203125,-0.09762447327375412,14.609827995300293,-0.6770060062408447,5.727356910705566,-0.6128861904144287,-0.2255859375,-1.4502848386764526,-0.265869140625,-0.910400390625,0.052522867918014526,-1.0151447057724,0.11689072102308273,0.00030337978387251496,-0.003342227777466178,0.0,24.669811248779297,0.0,-0.06767909228801727,0.0
28.01936149597168,0.001240778830833733,0.00836181640625,0.0014537917450070381,65.46515655517578,359.99957275390625,0.011064707301557064,359.99896240234375,35.4205322265625,36.228614807128906,32.76667404174805,35.7427978515625,39.75419998168945,42.26948165893555,42.4217529296875,-0.17643310129642487,15.922149658203125,-0.09762447327375412,14.609827995300293,-0.6770060062408447,5.727356910705566,-0.6128861904144287,-0.2255859375,-1.4502848386764526,-0.265869140625,-0.910400390625,0.052522867918014526,-1.0151447057724,0.11689072102308273,0.00030337978387251496,-0.003342227777466178,0.0,24.669811248779297,0.0,-0.06767909228801727,0.0
28.528783321380615,0.001240778830833733,0.00836181640625,0.0014537917450070381,65.46515655517578,359.99957275390625,0.011064707301557064,359.99896240234375,35.4205322265625,36.228614807128906,32.76667404174805,35.7427978515625,39.75419998168945,42.26948165893555,42.4217529296875,-0.17643310129642487,15.922149658203125,-0.09762447327375412,14.609827995300293,-0.6770060062408447,5.727356910705566,-0.6128861904144287,-0.2255859375,-1.4502848386764526,-0.265869140625,-0.910400390625,0.052522867918014526,-1.0151447057724,0.11689072102308273,0.00030337978387251496,-0.003342227777466178,0.0,24.669811248779297,0.0,-0.06767909228801727,0.0
29.036067962646484,0.001240778830833733,0.00836181640625,0.0014537917450070381,65.46515655517578,359.99957275390625,0.011064707301557064,359.99896240234375,35.4205322265625,36.228614807128906,32.76667404174805,35.7427978515625,39.75419998168945,42.26948165893555,42.4217529296875,-0.17643310129642487,15.922149658203125,-0.09762447327375412,14.609827995300293,-0.6770060062408447,5.727356910705566,-0.6128861904144287,-0.2255859375,-1.4502848386764526,-0.265869140625,-0.910400390625,0.052522867918014526,-1.0151447057724,0.11689072102308273,0.00030337978387251496,-0.003342227777466178,0.0,24.669811248779297,0.0,-0.06767909228801727,0.0
29.544083833694458,0.001240778830833733,0.00836181640625,0.0014537917450070381,65.46515655517578,359.99957275390625,0.011064707301557064,359.99896240234375,35.4205322265625,36.228614807128906,32.76667404174805,35.7427978515625,39.75419998168945,42.26948165893555,42.4217529296875,-0.17643310129642487,15.922149658203125,-0.09762447327375412,14.609827995300293,-0.6770060062408447,5.727356910705566,-0.6128861904144287,-0.2255859375,-1.4502848386764526,-0.265869140625,-0.910400390625,0.052522867918014526,-1.0151447057724,0.11689072102308273,0.00030337978387251496,-0.003342227777466178,0.0,24.669811248779297,0.0,-0.06767909228801727,0.0
30.050275087356567,0.001240778830833733,0.00836181640625,0.0014537917450070381,65.46515655517578,359.99957275390625,0.011064707301557064,359.99896240234375,35.4205322265625,36.228614807128906,32.76667404174805,35.7427978515625,39.75419998168945,42.26948165893555,42.4217529296875,-0.17643310129642487,15.922149658203125,-0.09762447327375412,14.609827995300293,-0.6770060062408447,5.727356910705566,-0.6128861904144287,-0.2255859375,-1.4502848386764526,-0.265869140625,-0.910400390625,0.052522867918014526,-1.0151447057724,0.11689072102308273,0.00030337978387251496,-0.003342227777466178,0.0,24.669811248779297,0.0,-0.06767909228801727,0.0
30.56119680404663,0.001240778830833733,0.00836181640625,0.0014537917450070381,65.46515655517578,359.99957275390625,0.011064707301557064,359.99896240234375,35.4205322265625,36.228614807128906,32.76667404174805,35.7427978515625,39.75419998168945,42.26948165893555,42.4217529296875,-0.17643310129642487,15.922149658203125,-0.09762447327375412,14.609827995300293,-0.6770060062408447,5.727356910705566,-0.6128861904144287,-0.2255859375,-1.4502848386764526,-0.265869140625,-0.910400390625,0.052522867918014526,-1.0151447057724,0.11689072102308273,0.00030337978387251496,-0.003342227777466178,0.0,24.669811248779297,0.0,-0.06767909228801727,0.0
31.067821979522705,0.001240778830833733,0.0078125,0.0014537917450070381,71.02204132080078,359.99957275390625,0.00610467791557312,359.99896240234375,35.4044189453125,36.24311447143555,32.77070236206055,35.808860778808594,39.74211502075195,42.27350997924805,42.47734451293945,-0.23992833495140076,14.36796760559082,-0.2720036506652832,16.872318267822266,-0.6862506866455078,5.241143703460693,-0.6043078303337097,-0.233642578125,-1.603271484375,-0.265869140625,-2.0948660373687744,0.052522867918014526,-0.8822113871574402,0.11279296875,0.0,-0.013871823437511921,0.0,-18.85078239440918,-0.0006076717399992049,-0.006363131105899811,-0.0006076777935959399
31.57616901397705,0.0012144692009314895,0.008819580078125,0.0014537917450070381,67.71147918701172,359.9996032714844,0.008993485942482948,359.99896240234375,35.41650390625,36.25358963012695,32.781982421875,35.804832458496094,39.75178146362305,42.23725509643555,42.407249450683594,-0.17084988951683044,19.61920928955078,0.05135688558220863,18.29437828063965,-0.6888580322265625,6.344866752624512,-0.6115623116493225,-0.20962753891944885,-1.603271484375,-0.2578125,-1.4260481595993042,0.04850739985704422,-0.9144375324249268,0.1168212890625,-0.00030337978387251496,0.007881918922066689,0.0,0.15179099142551422,0.000607218302320689,0.010322711430490017,0.0
32.08304142951965,0.001240778830833733,0.008392333984375,0.0014537917450070381,67.734130859375,359.99957275390625,0.008175899274647236,359.9990234375,35.41328048706055,36.260841369628906,32.775535583496094,35.81853103637695,39.77031326293945,42.2646484375,42.41852951049805,-0.17719973623752594,16.594650268554688,-0.08902108669281006,17.328306198120117,-0.6782459020614624,6.031014442443848,-0.6032159328460693,-0.24183346331119537,-1.571044921875,-0.2743992805480957,-1.973942756652832,0.04850739985704422,-0.9104093313217163,0.1087646484375,0.000303382781567052,-0.0036378088407218456,0.0,-1.2243578433990479,-0.0006063014734536409,-0.004405663814395666,0.0
32.59026098251343,0.001240778830833733,0.00811767578125,0.0014537917450070381,60.959896087646484,359.99957275390625,0.006867759395390749,359.99896240234375,35.40119552612305,36.256813049316406,32.783592224121094,35.833839416503906,39.8033447265625,42.283180236816406,42.451560974121094,-0.03899943456053734,15.044979095458984,-0.015606440603733063,15.209256172180176,-0.6464390754699707,5.024379253387451,-0.6016934514045715,-0.2261606752872467,-1.5711275339126587,-0.2740442156791687,-2.0387282371520996,0.0490066334605217,-0.8540134429931641,0.10481376945972443,0.0,-0.0039469581097364426,0.0,-15.2587890625,0.0,-0.0027283835224807262,0.0
33.09819006919861,0.001240778830833733,0.008209228515625,0.0014537917450070381,58.87543869018555,359.99957275390625,0.00773985218256712,359.99896240234375,35.402809143066406,36.280174255371094,32.78117752075195,35.83544921875,39.7469482421875,42.2767333984375,42.456398010253906,-0.18531832098960876,15.638274192810059,-0.11278583109378815,15.742680549621582,-0.6717755794525146,5.510257720947266,-0.6003509759902954,-0.2255859375,-1.53076171875,-0.2740442156791687,-1.2165794372558594,0.04850739985704422,-0.8580322265625,0.11279296875,0.0,-0.0015191944548860192,0.0,0.10727919638156891,0.0,-0.0031806814949959517,0.0
33.60596203804016,0.0012144692009314895,0.0089111328125,0.0014537917450070381,58.52288818359375,359.9996032714844,0.008557439781725407,359.9990234375,35.41167068481445,36.27131271362305,32.7698974609375,35.84270095825195,39.7550048828125,42.27592849731445,42.452369689941406,-0.330462247133255,19.789552688598633,-0.11457294970750809,19.08209228515625,-0.6953353881835938,6.469524383544922,-0.6068437099456787,-0.233642578125,-1.5791220664978027,-0.2740442156791687,-2.368666172027588,0.0490066334605217,-0.88623046875,0.11308033764362335,-0.00030315073672682047,0.006669316440820694,0.0,-6.4377851486206055,0.0006076777935959399,0.00758456951007247,0.0006063014734536409
34.114757776260376,0.001240778830833733,0.008209228515625,0.0014537917450070381,57.59571075439453,359.99957275390625,0.008012381382286549,359.99896240234375,35.39555740356445,36.27534103393555,32.79245376586914,35.85639572143555,39.737281799316406,42.290428161621094,42.46928787231445,-0.19069582223892212,16.68278694152832,-0.061616167426109314,16.070693969726562,-0.683153510093689,5.658451080322266,-0.6080227494239807,-0.22572974860668182,-1.4985568523406982,-0.281982421875,-1.4985568523406982,0.0490066334605217,-0.8581172823905945,0.1168212890625,0.0,0.003646066877990961,0.0,0.0016691777855157852,0.0,0.0048504117876291275,0.0
34.62321996688843,0.001240778830833733,0.007904052734375,0.0014537917450070381,57.59928894042969,359.99957275390625,0.007467323448508978,359.99896240234375,35.410865783691406,36.27534103393555,32.767478942871094,35.853981018066406,39.7550048828125,42.25739669799805,42.423362731933594,-0.05996782332658768,15.047804832458496,0.00452856021001935,15.390837669372559,-0.6661210060119629,5.406403541564941,-0.6168850660324097,-0.233642578125,-1.4905003309249878,-0.2820974886417389,-1.3857656717300415,0.0523681640625,-0.8419286012649536,0.104736328125,0.0,-0.0030383889097720385,0.0,-0.0007595972274430096,0.0,-0.004861373919993639,0.0
35.13152289390564,0.001240778830833733,0.0081787109375,0.0014537917450070381,57.599945068359375,359.99957275390625,0.007903370074927807,359.99896240234375,35.406837463378906,36.268898010253906,32.77473068237305,35.87089920043945,39.733253479003906,42.29767990112305,42.433837890625,-0.22861669957637787,17.457561492919922,-0.11983463913202286,16.473026275634766,-0.6710032820701599,5.800723552703857,-0.6294904351234436,-0.21767844259738922,-1.4985568523406982,-0.265869140625,-1.4018785953521729,0.052522867918014526,-0.85400390625,0.10481376945972443,0.0,0.0024270382709801197,0.0,0.0012162637431174517,0.0,0.0037951143458485603,0.0
35.640249490737915,0.001240778830833733,0.00799560546875,0.0014537917450070381,57.5998420715332,359.99957275390625,0.007630840875208378,359.99896240234375,35.40925216674805,36.262451171875,32.769893646240234,35.862037658691406,39.729225158691406,42.288818359375,42.39435958862305,-0.2470603883266449,15.152052879333496,-0.19874972105026245,15.36074447631836,-0.650364100933075,5.407556533813477,-0.6246154308319092,-0.22572974860668182,-1.474387288093567,-0.24169921875,-1.4099351167678833,0.04108096659183502,-0.8540134429931641,0.11279296875,0.0,-0.0018230334389954805,0.0,-0.0010618292726576328,0.0,-0.002120454329997301,0.0
36.14782643318176,0.001240778830833733,0.00811767578125,0.0014537917450070381,57.59992218017578,359.99957275390625,0.007848864421248436,359.99896240234375,35.400390625,36.272117614746094,32.769893646240234,35.859619140625,39.753395080566406,42.26384353637695,42.415306091308594,-0.19817981123924255,16.411691665649414,-0.1257709115743637,15.953269004821777,-0.6631100177764893,5.622998237609863,-0.6148179173469543,-0.233642578125,-1.474387288093567,-0.2740442156791687,-1.4099351167678833,0.052522867918014526,-0.8540134429931641,0.10883922129869461,0.0,0.0006076777935959399,0.0,0.0003036091511603445,0.0,0.0016698503168299794,0.0
36.65708565711975,0.001240778830833733,0.00811767578125,0.0014537917450070381,57.59992218017578,359.99957275390625,0.007848864421248436,359.99896240234375,35.400390625,36.272117614746094,32.769893646240234,35.859619140625,39.753395080566406,42.26384353637695,42.415306091308594,-0.19817981123924255,16.411691665649414,-0.1257709115743637,15.953269004821777,-0.6631100177764893,5.622998237609863,-0.6148179173469543,-0.233642578125,-1.474387288093567,-0.2740442156791687,-1.4099351167678833,0.052522867918014526,-0.8540134429931641,0.10883922129869461,0.0,0.0006076777935959399,0.0,0.0003036091511603445,0.0,0.0016698503168299794,0.0
37.16322064399719,0.001240778830833733,0.00811767578125,0.0014537917450070381,57.59992218017578,359.99957275390625,0.007848864421248436,359.99896240234375,35.400390625,36.272117614746094,32.769893646240234,35.859619140625,39.753395080566406,42.26384353637695,42.415306091308594,-0.19817981123924255,16.411691665649414,-0.1257709115743637,15.953269004821777,-0.6631100177764893,5.622998237609863,-0.6148179173469543,-0.233642578125,-1.474387288093567,-0.2740442156791687,-1.4099351167678833,0.052522867918014526,-0.8540134429931641,0.10883922129869461,0.0,0.0006076777935959399,0.0,0.0003036091511603445,0.0,0.0016698503168299794,0.0
37.671568870544434,0.001240778830833733,0.00811767578125,0.0014537917450070381,57.59992218017578,359.99957275390625,0.007848864421248436,359.99896240234375,35.400390625,36.272117614746094,32.769893646240234,35.859619140625,39.753395080566406,42.26384353637695,42.415306091308594,-0.19817981123924255,16.411691665649414,-0.1257709115743637,15.953269004821777,-0.6631100177764893,5.622998237609863,-0.6148179173469543,-0.233642578125,-1.474387288093567,-0.2740442156791687,-1.4099351167678833,0.052522867918014526,-0.8540134429931641,0.10883922129869461,0.0,0.0006076777935959399,0.0,0.0003036091511603445,0.0,0.0016698503168299794,0.0
38.17835569381714,0.001240778830833733,0.00811767578125,0.0014537917450070381,57.59992218017578,359.99957275390625,0.007848864421248436,359.99896240234375,35.400390625,36.272117614746094,32.769893646240234,35.859619140625,39.753395080566406,42.26384353637695,42.415306091308594,-0.19817981123924255,16.411691665649414,-0.1257709115743637,15.953269004821777,-0.6631100177764893,5.622998237609863,-0.6148179173469543,-0.233642578125,-1.474387288093567,-0.2740442156791687,-1.4099351167678833,0.052522867918014526,-0.8540134429931641,0.10883922129869461,0.0,0.0006076777935959399,0.0,0.0003036091511603445,0.0,0.0016698503168299794,0.0
38.68620991706848,0.001240778830833733,0.00811767578125,0.0014537917450070381,57.59992218017578,359.99957275390625,0.007848864421248436,359.99896240234375,35.400390625,36.272117614746094,32.769893646240234,35.859619140625,39.753395080566406,42.26384353637695,42.415306091308594,-0.19817981123924255,16.411691665649414,-0.1257709115743637,15.953269004821777,-0.6631100177764893,5.622998237609863,-0.6148179173469543,-0.233642578125,-1.474387288093567,-0.2740442156791687,-1.4099351167678833,0.052522867918014526,-0.8540134429931641,0.10883922129869461,0.0,0.0006076777935959399,0.0,0.0003036091511603445,0.0,0.0016698503168299794,0.0
39.19397449493408,0.001240778830833733,0.00811767578125,0.0014537917450070381,57.59992218017578,359.99957275390625,0.007848864421248436,359.99896240234375,35.400390625,36.272117614746094,32.769893646240234,35.859619140625,39.753395080566406,42.26384353637695,42.415306091308594,-0.19817981123924255,16.411691665649414,-0.1257709115743637,15.953269004821777,-0.6631100177764893,5.622998237609863,-0.6148179173469543,-0.233642578125,-1.474387288093567,-0.2740442156791687,-1.4099351167678833,0.052522867918014526,-0.8540134429931641,0.10883922129869461,0.0,0.0006076777935959399,0.0,0.0003036091511603445,0.0,0.0016698503168299794,0.0
39.70131468772888,0.001240778830833733,0.00811767578125,0.0014537917450070381,57.59992218017578,359.99957275390625,0.007848864421248436,359.99896240234375,35.400390625,36.272117614746094,32.769893646240234,35.859619140625,39.753395080566406,42.26384353637695,42.415306091308594,-0.19817981123924255,16.411691665649414,-0.1257709115743637,15.953269004821777,-0.6631100177764893,5.622998237609863,-0.6148179173469543,-0.233642578125,-1.474387288093567,-0.2740442156791687,-1.4099351167678833,0.052522867918014526,-0.8540134429931641,0.10883922129869461,0.0,0.0006076777935959399,0.0,0.0003036091511603445,0.0,0.0016698503168299794,0.0
40.21028923988342,0.001240778830833733,0.00811767578125,0.0014537917450070381,57.59992218017578,359.99957275390625,0.007848864421248436,359.99896240234375,35.400390625,36.272117614746094,32.769893646240234,35.859619140625,39.753395080566406,42.26384353637695,42.415306091308594,-0.19817981123924255,16.411691665649414,-0.1257709115743637,15.953269004821777,-0.6631100177764893,5.622998237609863,-0.6148179173469543,-0.233642578125,-1.474387288093567,-0.2740442156791687,-1.4099351167678833,0.052522867918014526,-0.8540134429931641,0.10883922129869461,0.0,0.0006076777935959399,0.0,0.0003036091511603445,0.0,0.0016698503168299794,0.0
40.71729898452759,0.001240778830833733,0.00811767578125,0.0014537917450070381,57.59992218017578,359.99957275390625,0.007848864421248436,359.99896240234375,35.400390625,36.272117614746094,32.769893646240234,35.859619140625,39.753395080566406,42.26384353637695,42.415306091308594,-0.19817981123924255,16.411691665649414,-0.1257709115743637,15.953269004821777,-0.6631100177764893,5.622998237609863,-0.6148179173469543,-0.233642578125,-1.474387288093567,-0.2740442156791687,-1.4099351167678833,0.052522867918014526,-0.8540134429931641,0.10883922129869461,0.0,0.0006076777935959399,0.0,0.0003036091511603445,0.0,0.0016698503168299794,0.0
41.22508215904236,0.001240778830833733,0.00811767578125,0.0014537917450070381,57.59992218017578,359.99957275390625,0.007848864421248436,359.99896240234375,35.400390625,36.272117614746094,32.769893646240234,35.859619140625,39.753395080566406,42.26384353637695,42.415306091308594,-0.19817981123924255,16.411691665649414,-0.1257709115743637,15.953269004821777,-0.6631100177764893,5.622998237609863,-0.6148179173469543,-0.233642578125,-1.474387288093567,-0.2740442156791687,-1.4099351167678833,0.052522867918014526,-0.8540134429931641,0.10883922129869461,0.0,0.0006076777935959399,0.0,0.0003036091511603445,0.0,0.0016698503168299794,0.0
41.73233652114868,0.001240778830833733,0.00811767578125,0.0014537917450070381,57.59992218017578,359.99957275390625,0.007848864421248436,359.99896240234375,35.400390625,36.272117614746094,32.769893646240234,35.859619140625,39.753395080566406,42.26384353637695,42.415306091308594,-0.19817981123924255,16.411691665649414,-0.1257709115743637,15.953269004821777,-0.6631100177764893,5.622998237609863,-0.6148179173469543,-0.233642578125,-1.474387288093567,-0.2740442156791687,-1.4099351167678833,0.052522867918014526,-0.8540134429931641,0.10883922129869461,0.0,0.0006076777935959399,0.0,0.0003036091511603445,0.0,0.0016698503168299794,0.0
42.24011969566345,0.001240778830833733,0.00811767578125,0.0014537917450070381,57.59992218017578,359.99957275390625,0.007848864421248436,359.99896240234375,35.400390625,36.272117614746094,32.769893646240234,35.859619140625,39.753395080566406,42.26384353637695,42.415306091308594,-0.19817981123924255,16.411691665649414,-0.1257709115743637,15.953269004821777,-0.6631100177764893,5.622998237609863,-0.6148179173469543,-0.233642578125,-1.474387288093567,-0.2740442156791687,-1.4099351167678833,0.052522867918014526,-0.8540134429931641,0.10883922129869461,0.0,0.0006076777935959399,0.0,0.0003036091511603445,0.0,0.0016698503168299794,0.0
42.74800205230713,0.001240778830833733,0.008087158203125,0.0014537917450070381,57.59986877441406,359.99957275390625,0.007794358301907778,359.99896240234375,35.40522384643555,36.256004333496094,32.77070236206055,35.82819747924805,39.742919921875,42.319435119628906,42.41289138793945,-0.180271178483963,16.25323486328125,-0.08491826057434082,15.839722633361816,-0.6791001558303833,5.6067938804626465,-0.6290404200553894,-0.233642578125,-1.474387288093567,-0.27392578125,-1.401948094367981,0.04833984375,-0.8580417037010193,0.11286487430334091,0.0,0.0,0.0,-0.000303382781567052,0.0,0.0,-0.0006063014734536409
43.254472494125366,0.001240778830833733,0.008087158203125,0.0014537917450070381,57.59989547729492,359.99957275390625,0.007794358301907778,359.9990234375,35.41569900512695,36.262451171875,32.776344299316406,35.837059020996094,39.753395080566406,42.294456481933594,42.42900466918945,-0.206279918551445,16.226640701293945,-0.14225822687149048,15.791749000549316,-0.6718457341194153,5.567115306854248,-0.616311252117157,-0.23378144204616547,-1.4985568523406982,-0.2740442156791687,-1.401948094367981,0.04850739985704422,-0.8620981574058533,0.104736328125,0.0,0.0,0.0,0.0003036091511603445,0.0,0.000606765563134104,0.0
43.76285243034363,0.001240778830833733,0.008087158203125,0.0014537917450070381,57.59986877441406,359.99957275390625,0.007794358301907778,359.99896240234375,35.40764236450195,36.262451171875,32.749755859375,35.83061599731445,39.753395080566406,42.299293518066406,42.40644454956055,-0.21404942870140076,16.17026710510254,-0.14230966567993164,15.810523986816406,-0.658615231513977,5.586746692657471,-0.609659731388092,-0.22572974860668182,-1.4824438095092773,-0.27392578125,-1.4099351167678833,0.056540168821811676,-0.8540418744087219,0.1007080078125,0.0,-0.00030315073672682047,0.0,-0.00030337978387251496,0.0,0.0,-0.000606307468842715
44.27160978317261,0.001240778830833733,0.00811767578125,0.0014537917450070381,57.59989547729492,359.99957275390625,0.007794358301907778,359.9990234375,35.40764236450195,36.2825927734375,32.77473068237305,35.824974060058594,39.7147216796875,42.29767990112305,42.40483474731445,-0.2023443728685379,16.25482749938965,-0.13576875627040863,15.85346508026123,-0.6554931998252869,5.615055084228516,-0.6212443113327026,-0.21767844259738922,-1.49853515625,-0.2743992805480957,-1.393798828125,0.04850739985704422,-0.8580700159072876,0.104736328125,0.0,0.0003036091511603445,0.0,0.00030315073672682047,0.0,0.0,0.0
44.78019094467163,0.001240778830833733,0.008087158203125,0.0014537917450070381,57.59989547729492,359.99957275390625,0.007794358301907778,359.99896240234375,35.40522384643555,36.25358963012695,32.764259338378906,35.837867736816406,39.73969650268555,42.294456481933594,42.4459228515625,-0.15870121121406555,16.16580581665039,-0.08900492638349533,15.786925315856934,-0.648379385471344,5.560472011566162,-0.6255903244018555,-0.24183346331119537,-1.4905003309249878,-0.2820974886417389,-1.40185546875,0.04449424892663956,-0.8540134429931641,0.10102976113557816,0.0,0.0,0.0,0.00030383889679796994,0.0,0.0,-0.000607218302320689
45.289326667785645,0.001240778830833733,0.00811767578125,0.0014537917450070381,57.59986877441406,359.99957275390625,0.007794358301907778,359.9990234375,35.4044189453125,36.256813049316406,32.752174377441406,35.83544921875,39.696998596191406,42.3170166015625,42.4136962890625,-0.20083792507648468,16.268770217895508,-0.08006133139133453,15.845416069030762,-0.6792997121810913,5.585575103759766,-0.6172975897789001,-0.24169921875,-1.4663307666778564,-0.2743992805480957,-1.393798828125,0.056396484375,-0.85400390625,0.09676357358694077,0.0,0.00030337978387251496,0.0,-0.00030384192359633744,0.0,0.0,0.0
45.79813241958618,0.001240778830833733,0.008087158203125,0.0014537917450070381,57.59989547729492,359.99957275390625,0.007794358301907778,359.9990234375,35.41167068481445,36.264869689941406,32.768287658691406,35.841087341308594,39.741310119628906,42.295265197753906,42.451560974121094,-0.20183101296424866,16.17928123474121,-0.11371304094791412,15.793069839477539,-0.6856891512870789,5.587770938873291,-0.6368453502655029,-0.2261606752872467,-1.490478515625,-0.2740442156791687,-1.409912109375,0.052522867918014526,-0.8580417037010193,0.10883922129869461,0.0,-0.00030383889679796994,0.0,0.00030337978387251496,0.0,0.0,0.0
46.31156086921692,0.001240778830833733,0.00811767578125,0.0014537917450070381,57.59989547729492,359.99957275390625,0.007794358301907778,359.9990234375,35.397972106933594,36.25519943237305,32.76667404174805,35.84028244018555,39.70586013793945,42.28962326049805,42.4378662109375,-0.20498257875442505,16.251567840576172,-0.08125018328428268,15.808818817138672,-0.6609408259391785,5.571595191955566,-0.6161009669303894,-0.22572974860668182,-1.4824438095092773,-0.27392578125,-1.3857656717300415,0.056540168821811676,-0.8540134429931641,0.104736328125,0.0,0.0002953609509859234,0.0,0.0,0.0,0.0,0.0
46.819735527038574,0.001240778830833733,0.00811767578125,0.0014537917450070381,57.59989547729492,359.99957275390625,0.007794358301907778,359.9990234375,35.406837463378906,36.26970291137695,32.76506423950195,35.82255935668945,39.713111877441406,42.321044921875,42.40644454956055,-0.18907921016216278,16.219440460205078,-0.11001718789339066,15.744535446166992,-0.663884699344635,5.549023628234863,-0.6274628043174744,-0.21767844259738922,-1.4905003309249878,-0.2740442156791687,-1.4018785953521729,0.040283203125,-0.8540134429931641,0.09676357358694077,0.0,0.0003031537344213575,0.0,0.00030383889679796994,0.0,0.0,0.0
47.328466176986694,0.001240778830833733,0.00811767578125,0.0014537917450070381,57.59989547729492,359.99957275390625,0.00773985218256712,359.9990234375,35.40119552612305,36.278564453125,32.77392578125,35.83867263793945,39.745338439941406,42.3331298828125,42.40966796875,-0.21385259926319122,16.248851776123047,-0.10655733942985535,15.832588195800781,-0.6599531769752502,5.584084510803223,-0.6098067760467529,-0.24183346331119537,-1.4905003309249878,-0.2740442156791687,-1.40185546875,0.0523681640625,-0.8540418744087219,0.10481376945972443,0.0,0.0,0.0,0.000303382781567052,0.0,-0.0006067595677450299,0.0
47.837838649749756,0.001240778830833733,0.00811767578125,0.0014537917450070381,57.59989547729492,359.99957275390625,0.007794358301907778,359.9990234375,35.408447265625,36.262451171875,32.77070236206055,35.83625411987305,39.74211502075195,42.34521484375,42.41047286987305,-0.2337474226951599,16.11870574951172,-0.13901834189891815,15.826650619506836,-0.6782360672950745,5.577223300933838,-0.6193193197250366,-0.233642578125,-1.482421875,-0.265869140625,-1.4179916381835938,0.04850739985704422,-0.8580417037010193,0.09676357358694077,0.0,0.0,0.0,0.000303606124361977,0.0,0.0,0.0
48.34572792053223,0.001240778830833733,0.008087158203125,0.0014537917450070381,57.59989547729492,359.9996032714844,0.007794358301907778,359.9990234375,35.402809143066406,36.264869689941406,32.76506423950195,35.83625411987305,39.75983810424805,42.32426834106445,42.435447692871094,-0.2011285126209259,16.201242446899414,-0.11103113740682602,15.800410270690918,-0.663051187992096,5.5589094161987305,-0.626024603843689,-0.23378144204616547,-1.4985568523406982,-0.2659911811351776,-1.40185546875,0.0490066334605217,-0.8499851226806641,0.1007080078125,0.0,0.0,0.0,0.00030384192359633744,0.0006063014734536409,0.0,0.0
48.85426688194275,0.001240778830833733,0.008087158203125,0.0014537917450070381,57.59989547729492,359.9996032714844,0.007794358301907778,359.9990234375,35.402809143066406,36.264869689941406,32.76506423950195,35.83625411987305,39.75983810424805,42.32426834106445,42.435447692871094,-0.2011285126209259,16.201242446899414,-0.11103113740682602,15.800410270690918,-0.663051187992096,5.5589094161987305,-0.626024603843689,-0.23378144204616547,-1.4985568523406982,-0.2659911811351776,-1.40185546875,0.0490066334605217,-0.8499851226806641,0.1007080078125,0.0,0.0,0.0,0.00030384192359633744,0.0006063014734536409,0.0,0.0
49.36272072792053,0.001240778830833733,0.008087158203125,0.0014537917450070381,57.59989547729492,359.9996032714844,0.007794358301907778,359.9990234375,35.402809143066406,36.264869689941406,32.76506423950195,35.83625411987305,39.75983810424805,42.32426834106445,42.435447692871094,-0.2011285126209259,16.201242446899414,-0.11103113740682602,15.800410270690918,-0.663051187992096,5.5589094161987305,-0.626024603843689,-0.23378144204616547,-1.4985568523406982,-0.2659911811351776,-1.40185546875,0.0490066334605217,-0.8499851226806641,0.1007080078125,0.0,0.0,0.0,0.00030384192359633744,0.0006063014734536409,0.0,0.0
49.873098373413086,0.001240778830833733,0.008087158203125,0.0014537917450070381,57.59989547729492,359.9996032714844,0.007794358301907778,359.9990234375,35.402809143066406,36.264869689941406,32.76506423950195,35.83625411987305,39.75983810424805,42.32426834106445,42.435447692871094,-0.2011285126209259,16.201242446899414,-0.11103113740682602,15.800410270690918,-0.663051187992096,5.5589094161987305,-0.626024603843689,-0.23378144204616547,-1.4985568523406982,-0.2659911811351776,-1.40185546875,0.0490066334605217,-0.8499851226806641,0.1007080078125,0.0,0.0,0.0,0.00030384192359633744,0.0006063014734536409,0.0,0.0
50.382455825805664,0.001240778830833733,0.008087158203125,0.0014537917450070381,57.59989547729492,359.9996032714844,0.007794358301907778,359.9990234375,35.402809143066406,36.264869689941406,32.76506423950195,35.83625411987305,39.75983810424805,42.32426834106445,42.435447692871094,-0.2011285126209259,16.201242446899414,-0.11103113740682602,15.800410270690918,-0.663051187992096,5.5589094161987305,-0.626024603843689,-0.23378144204616547,-1.4985568523406982,-0.2659911811351776,-1.40185546875,0.0490066334605217,-0.8499851226806641,0.1007080078125,0.0,0.0,0.0,0.00030384192359633744,0.0006063014734536409,0.0,0.0
50.89219403266907,0.001240778830833733,0.008087158203125,0.0014537917450070381,57.59989547729492,359.9996032714844,0.007794358301907778,359.9990234375,35.402809143066406,36.264869689941406,32.76506423950195,35.83625411987305,39.75983810424805,42.32426834106445,42.435447692871094,-0.2011285126209259,16.201242446899414,-0.11103113740682602,15.800410270690918,-0.663051187992096,5.5589094161987305,-0.626024603843689,-0.23378144204616547,-1.4985568523406982,-0.2659911811351776,-1.40185546875,0.0490066334605217,-0.8499851226806641,0.1007080078125,0.0,0.0,0.0,0.00030384192359633744,0.0006063014734536409,0.0,0.0
51.400553941726685,0.001240778830833733,0.008087158203125,0.0014537917450070381,57.59989547729492,359.9996032714844,0.007794358301907778,359.9990234375,35.402809143066406,36.264869689941406,32.76506423950195,35.83625411987305,39.75983810424805,42.32426834106445,42.435447692871094,-0.2011285126209259,16.201242446899414,-0.11103113740682602,15.800410270690918,-0.663051187992096,5.5589094161987305,-0.626024603843689,-0.23378144204616547,-1.4985568523406982,-0.2659911811351776,-1.40185546875,0.0490066334605217,-0.8499851226806641,0.1007080078125,0.0,0.0,0.0,0.00030384192359633744,0.0006063014734536409,0.0,0.0
51.90825438499451,0.001240778830833733,0.008087158203125,0.0014537917450070381,57.59989547729492,359.9996032714844,0.007794358301907778,359.9990234375,35.402809143066406,36.264869689941406,32.76506423950195,35.83625411987305,39.75983810424805,42.32426834106445,42.435447692871094,-0.2011285126209259,16.201242446899414,-0.11103113740682602,15.800410270690918,-0.663051187992096,5.5589094161987305,-0.626024603843689,-0.23378144204616547,-1.4985568523406982,-0.2659911811351776,-1.40185546875,0.0490066334605217,-0.8499851226806641,0.1007080078125,0.0,0.0,0.0,0.00030384192359633744,0.0006063014734536409,0.0,0.0
52.416072845458984,0.001240778830833733,0.008087158203125,0.0014537917450070381,57.59989547729492,359.9996032714844,0.007794358301907778,359.9990234375,35.402809143066406,36.264869689941406,32.76506423950195,35.83625411987305,39.75983810424805,42.32426834106445,42.435447692871094,-0.2011285126209259,16.201242446899414,-0.11103113740682602,15.800410270690918,-0.663051187992096,5.5589094161987305,-0.626024603843689,-0.23378144204616547,-1.4985568523406982,-0.2659911811351776,-1.40185546875,0.0490066334605217,-0.8499851226806641,0.1007080078125,0.0,0.0,0.0,0.00030384192359633744,0.0006063014734536409,0.0,0.0
52.92411184310913,0.001240778830833733,0.008087158203125,0.0014537917450070381,57.59989547729492,359.9996032714844,0.007794358301907778,359.9990234375,35.402809143066406,36.264869689941406,32.76506423950195,35.83625411987305,39.75983810424805,42.32426834106445,42.435447692871094,-0.2011285126209259,16.201242446899414,-0.11103113740682602,15.800410270690918,-0.663051187992096,5.5589094161987305,-0.626024603843689,-0.23378144204616547,-1.4985568523406982,-0.2659911811351776,-1.40185546875,0.0490066334605217,-0.8499851226806641,0.1007080078125,0.0,0.0,0.0,0.00030384192359633744,0.0006063014734536409,0.0,0.0
53.43108582496643,0.001240778830833733,0.008087158203125,0.0014537917450070381,57.59989547729492,359.9996032714844,0.007794358301907778,359.9990234375,35.402809143066406,36.264869689941406,32.76506423950195,35.83625411987305,39.75983810424805,42.32426834106445,42.435447692871094,-0.2011285126209259,16.201242446899414,-0.11103113740682602,15.800410270690918,-0.663051187992096,5.5589094161987305,-0.626024603843689,-0.23378144204616547,-1.4985568523406982,-0.2659911811351776,-1.40185546875,0.0490066334605217,-0.8499851226806641,0.1007080078125,0.0,0.0,0.0,0.00030384192359633744,0.0006063014734536409,0.0,0.0
53.93921971321106,0.001240778830833733,0.008087158203125,0.0014537917450070381,57.59989547729492,359.9996032714844,0.007794358301907778,359.9990234375,35.402809143066406,36.264869689941406,32.76506423950195,35.83625411987305,39.75983810424805,42.32426834106445,42.435447692871094,-0.2011285126209259,16.201242446899414,-0.11103113740682602,15.800410270690918,-0.663051187992096,5.5589094161987305,-0.626024603843689,-0.23378144204616547,-1.4985568523406982,-0.2659911811351776,-1.40185546875,0.0490066334605217,-0.8499851226806641,0.1007080078125,0.0,0.0,0.0,0.00030384192359633744,0.0006063014734536409,0.0,0.0
54.44607210159302,0.001240778830833733,0.008087158203125,0.0014537917450070381,57.59989547729492,359.9996032714844,0.007794358301907778,359.9990234375,35.402809143066406,36.264869689941406,32.76506423950195,35.83625411987305,39.75983810424805,42.32426834106445,42.435447692871094,-0.2011285126209259,16.201242446899414,-0.11103113740682602,15.800410270690918,-0.663051187992096,5.5589094161987305,-0.626024603843689,-0.23378144204616547,-1.4985568523406982,-0.2659911811351776,-1.40185546875,0.0490066334605217,-0.8499851226806641,0.1007080078125,0.0,0.0,0.0,0.00030384192359633744,0.0006063014734536409,0.0,0.0
54.95509672164917,0.001240778830833733,0.00823974609375,0.0014537917450070381,69.3244400024414,359.99957275390625,359.9998474121094,359.9990234375,35.40522384643555,36.26567459106445,32.751365661621094,35.84431076049805,39.74372482299805,42.33232498168945,42.427391052246094,-0.23361115157604218,15.554422378540039,-0.2099316567182541,15.375283241271973,-0.6789466738700867,5.481691837310791,-0.5972610712051392,-0.20962753891944885,-1.699951171875,-0.25793835520744324,-1.1360148191452026,0.0443115234375,-0.9547203779220581,0.1007080078125,0.000303612177958712,-0.01951736956834793,0.0,3.714106798171997,-0.0006063014734536409,-0.2061658799648285,0.0
55.46131777763367,0.0011881595710292459,0.00604248046875,0.0007960509392432868,69.41691589355469,359.99957275390625,0.011936799623072147,359.9990234375,35.40361404418945,36.268089294433594,32.76909255981445,35.829002380371094,39.733253479003906,42.34038162231445,42.432228088378906,-0.7798125743865967,21.066585540771484,-0.5249276161193848,17.839309692382812,-0.6991961598396301,6.265940189361572,-0.5943150520324707,-0.24183346331119537,-1.6999702453613281,-0.21767844259738922,-1.9819499254226685,0.0490066334605217,-0.942626953125,0.104736328125,-0.00045506967580877244,0.20113442838191986,0.0,0.0016514199087396264,0.0,0.0,0.000607212248723954
55.96924161911011,0.0012933980906382203,0.007415771484375,0.0009539087186567485,69.41620635986328,359.99957275390625,0.010410637594759464,359.9990234375,35.398780822753906,36.26164627075195,32.75861740112305,35.821754455566406,39.73486328125,42.3411865234375,42.4056396484375,-0.08717614412307739,15.232356071472168,-0.10590428858995438,16.727638244628906,-0.7147437334060669,6.029457092285156,-0.6174659132957458,-0.23419755697250366,-1.6435546875,-0.20947265625,-2.0625157356262207,0.0443115234375,-1.0594558715820312,0.10883922129869461,0.0010610276367515326,-0.022429287433624268,0.0013672750210389495,-0.01000407338142395,-0.0006076777935959399,-0.014899414964020252,0.0
56.47632360458374,0.0012933980906382203,0.007415771484375,0.0009539087186567485,69.41620635986328,359.99957275390625,0.010410637594759464,359.9990234375,35.398780822753906,36.26164627075195,32.75861740112305,35.821754455566406,39.73486328125,42.3411865234375,42.4056396484375,-0.08717614412307739,15.232356071472168,-0.10590428858995438,16.727638244628906,-0.7147437334060669,6.029457092285156,-0.6174659132957458,-0.23419755697250366,-1.6435546875,-0.20947265625,-2.0625157356262207,0.0443115234375,-1.0594558715820312,0.10883922129869461,0.0010610276367515326,-0.022429287433624268,0.0013672750210389495,-0.01000407338142395,-0.0006076777935959399,-0.014899414964020252,0.0
56.98408555984497,0.0012933980906382203,0.007415771484375,0.0009539087186567485,69.41620635986328,359.99957275390625,0.010410637594759464,359.9990234375,35.398780822753906,36.26164627075195,32.75861740112305,35.821754455566406,39.73486328125,42.3411865234375,42.4056396484375,-0.08717614412307739,15.232356071472168,-0.10590428858995438,16.727638244628906,-0.7147437334060669,6.029457092285156,-0.6174659132957458,-0.23419755697250366,-1.6435546875,-0.20947265625,-2.0625157356262207,0.0443115234375,-1.0594558715820312,0.10883922129869461,0.0010610276367515326,-0.022429287433624268,0.0013672750210389495,-0.01000407338142395,-0.0006076777935959399,-0.014899414964020252,0.0
57.49121809005737,0.0012933980906382203,0.007415771484375,0.0009539087186567485,69.41620635986328,359.99957275390625,0.010410637594759464,359.9990234375,35.398780822753906,36.26164627075195,32.75861740112305,35.821754455566406,39.73486328125,42.3411865234375,42.4056396484375,-0.08717614412307739,15.232356071472168,-0.10590428858995438,16.727638244628906,-0.7147437334060669,6.029457092285156,-0.6174659132957458,-0.23419755697250366,-1.6435546875,-0.20947265625,-2.0625157356262207,0.0443115234375,-1.0594558715820312,0.10883922129869461,0.0010610276367515326,-0.022429287433624268,0.0013672750210389495,-0.01000407338142395,-0.0006076777935959399,-0.014899414964020252,0.0
57.9994900226593,0.0012933980906382203,0.007415771484375,0.0009539087186567485,69.41620635986328,359.99957275390625,0.010410637594759464,359.9990234375,35.398780822753906,36.26164627075195,32.75861740112305,35.821754455566406,39.73486328125,42.3411865234375,42.4056396484375,-0.08717614412307739,15.232356071472168,-0.10590428858995438,16.727638244628906,-0.7147437334060669,6.029457092285156,-0.6174659132957458,-0.23419755697250366,-1.6435546875,-0.20947265625,-2.0625157356262207,0.0443115234375,-1.0594558715820312,0.10883922129869461,0.0010610276367515326,-0.022429287433624268,0.0013672750210389495,-0.01000407338142395,-0.0006076777935959399,-0.014899414964020252,0.0
58.507529735565186,0.0012933980906382203,0.007415771484375,0.0009539087186567485,69.41620635986328,359.99957275390625,0.010410637594759464,359.9990234375,35.398780822753906,36.26164627075195,32.75861740112305,35.821754455566406,39.73486328125,42.3411865234375,42.4056396484375,-0.08717614412307739,15.232356071472168,-0.10590428858995438,16.727638244628906,-0.7147437334060669,6.029457092285156,-0.6174659132957458,-0.23419755697250366,-1.6435546875,-0.20947265625,-2.0625157356262207,0.0443115234375,-1.0594558715820312,0.10883922129869461,0.0010610276367515326,-0.022429287433624268,0.0013672750210389495,-0.01000407338142395,-0.0006076777935959399,-0.014899414964020252,0.0
59.015103578567505,0.0012933980906382203,0.007415771484375,0.0009539087186567485,69.41620635986328,359.99957275390625,0.010410637594759464,359.9990234375,35.398780822753906,36.26164627075195,32.75861740112305,35.821754455566406,39.73486328125,42.3411865234375,42.4056396484375,-0.08717614412307739,15.232356071472168,-0.10590428858995438,16.727638244628906,-0.7147437334060669,6.029457092285156,-0.6174659132957458,-0.23419755697250366,-1.6435546875,-0.20947265625,-2.0625157356262207,0.0443115234375,-1.0594558715820312,0.10883922129869461,0.0010610276367515326,-0.022429287433624268,0.0013672750210389495,-0.01000407338142395,-0.0006076777935959399,-0.014899414964020252,0.0
59.52229881286621,0.0012933980906382203,0.007415771484375,0.0009539087186567485,69.41620635986328,359.99957275390625,0.010410637594759464,359.9990234375,35.398780822753906,36.26164627075195,32.75861740112305,35.821754455566406,39.73486328125,42.3411865234375,42.4056396484375,-0.08717614412307739,15.232356071472168,-0.10590428858995438,16.727638244628906,-0.7147437334060669,6.029457092285156,-0.6174659132957458,-0.23419755697250366,-1.6435546875,-0.20947265625,-2.0625157356262207,0.0443115234375,-1.0594558715820312,0.10883922129869461,0.0010610276367515326,-0.022429287433624268,0.0013672750210389495,-0.01000407338142395,-0.0006076777935959399,-0.014899414964020252,0.0
60.03030037879944,0.0012933980906382203,0.007415771484375,0.0009539087186567485,69.41620635986328,359.99957275390625,0.010410637594759464,359.9990234375,35.398780822753906,36.26164627075195,32.75861740112305,35.821754455566406,39.73486328125,42.3411865234375,42.4056396484375,-0.08717614412307739,15.232356071472168,-0.10590428858995438,16.727638244628906,-0.7147437334060669,6.029457092285156,-0.6174659132957458,-0.23419755697250366,-1.6435546875,-0.20947265625,-2.0625157356262207,0.0443115234375,-1.0594558715820312,0.10883922129869461,0.0010610276367515326,-0.022429287433624268,0.0013672750210389495,-0.01000407338142395,-0.0006076777935959399,-0.014899414964020252,0.0
60.54041051864624,0.0012933980906382203,0.007415771484375,0.0009539087186567485,69.41620635986328,359.99957275390625,0.010410637594759464,359.9990234375,35.398780822753906,36.26164627075195,32.75861740112305,35.821754455566406,39.73486328125,42.3411865234375,42.4056396484375,-0.08717614412307739,15.232356071472168,-0.10590428858995438,16.727638244628906,-0.7147437334060669,6.029457092285156,-0.6174659132957458,-0.23419755697250366,-1.6435546875,-0.20947265625,-2.0625157356262207,0.0443115234375,-1.0594558715820312,0.10883922129869461,0.0010610276367515326,-0.022429287433624268,0.0013672750210389495,-0.01000407338142395,-0.0006076777935959399,-0.014899414964020252,0.0
61.0490996837616,0.0012933980906382203,0.007415771484375,0.0009539087186567485,69.41620635986328,359.99957275390625,0.010410637594759464,359.9990234375,35.398780822753906,36.26164627075195,32.75861740112305,35.821754455566406,39.73486328125,42.3411865234375,42.4056396484375,-0.08717614412307739,15.232356071472168,-0.10590428858995438,16.727638244628906,-0.7147437334060669,6.029457092285156,-0.6174659132957458,-0.23419755697250366,-1.6435546875,-0.20947265625,-2.0625157356262207,0.0443115234375,-1.0594558715820312,0.10883922129869461,0.0010610276367515326,-0.022429287433624268,0.0013672750210389495,-0.01000407338142395,-0.0006076777935959399,-0.014899414964020252,0.0
61.55641198158264,0.0012933980906382203,0.007415771484375,0.0009539087186567485,69.41620635986328,359.99957275390625,0.010410637594759464,359.9990234375,35.398780822753906,36.26164627075195,32.75861740112305,35.821754455566406,39.73486328125,42.3411865234375,42.4056396484375,-0.08717614412307739,15.232356071472168,-0.10590428858995438,16.727638244628906,-0.7147437334060669,6.029457092285156,-0.6174659132957458,-0.23419755697250366,-1.6435546875,-0.20947265625,-2.0625157356262207,0.0443115234375,-1.0594558715820312,0.10883922129869461,0.0010610276367515326,-0.022429287433624268,0.0013672750210389495,-0.01000407338142395,-0.0006076777935959399,-0.014899414964020252,0.0
62.06467914581299,0.0012670884607359767,0.0091552734375,0.0010065280366688967,75.1595230102539,359.99957275390625,0.011173718608915806,359.9990234375,35.40522384643555,36.30192947387695,32.74653244018555,35.949851989746094,39.73003005981445,42.36857986450195,42.43867111206055,0.03193502500653267,17.8090763092041,0.1642562597990036,16.34088897705078,-0.6742914915084839,5.976419925689697,-0.5996559262275696,-0.249755859375,-1.7080268859863281,-0.193359375,-1.248805284500122,0.04850739985704422,-1.2608706951141357,0.10078854858875275,0.0,-0.0009115167194977403,0.00045506967580877244,4.859289646148682,0.0,-0.002734550042077899,0.0
62.572407722473145,0.0012933980906382203,0.009552001953125,0.0010065280366688967,79.51234436035156,359.99957275390625,0.011609764769673347,359.9990234375,35.39555740356445,36.305152893066406,32.76264572143555,35.96677017211914,39.73003005981445,42.369384765625,42.404029846191406,0.2181856632232666,20.318954467773438,0.40772441029548645,18.00864028930664,-0.7029640078544617,6.821951866149902,-0.6098446249961853,-0.233642578125,-1.7321964502334595,-0.17724609375,-1.6999702453613281,0.04503798857331276,-1.27294921875,0.104736328125,0.00030315073672682047,0.0009101393516175449,0.00030383889679796994,-0.017822714522480965,-0.0006067595677450299,0.0,0.0
63.08113718032837,0.0012933980906382203,0.009246826171875,0.0010328376665711403,79.47038269042969,359.99957275390625,0.011391742154955864,359.9990234375,35.410057067871094,36.300315856933594,32.764259338378906,35.969993591308594,39.7550048828125,42.350852966308594,42.452369689941406,0.28138959407806396,18.079233169555664,0.4101986885070801,17.24344253540039,-0.6819896101951599,6.400664329528809,-0.5944082736968994,-0.233642578125,-1.7080837488174438,-0.17724609375,-2.320326566696167,0.04850739985704422,-1.2608706951141357,0.10078854858875275,0.0,0.0,0.00030337978387251496,-0.093760646879673,0.0,0.0,0.0
63.58927655220032,0.0012933980906382203,0.009246826171875,0.0010328376665711403,79.47038269042969,359.99957275390625,0.011391742154955864,359.9990234375,35.410057067871094,36.300315856933594,32.764259338378906,35.969993591308594,39.7550048828125,42.350852966308594,42.452369689941406,0.28138959407806396,18.079233169555664,0.4101986885070801,17.24344253540039,-0.6819896101951599,6.400664329528809,-0.5944082736968994,-0.233642578125,-1.7080837488174438,-0.17724609375,-2.320326566696167,0.04850739985704422,-1.2608706951141357,0.10078854858875275,0.0,0.0,0.00030337978387251496,-0.093760646879673,0.0,0.0,0.0
64.09730339050293,0.0012933980906382203,0.009246826171875,0.0010328376665711403,79.47038269042969,359.99957275390625,0.011391742154955864,359.9990234375,35.410057067871094,36.300315856933594,32.764259338378906,35.969993591308594,39.7550048828125,42.350852966308594,42.452369689941406,0.28138959407806396,18.079233169555664,0.4101986885070801,17.24344253540039,-0.6819896101951599,6.400664329528809,-0.5944082736968994,-0.233642578125,-1.7080837488174438,-0.17724609375,-2.320326566696167,0.04850739985704422,-1.2608706951141357,0.10078854858875275,0.0,0.0,0.00030337978387251496,-0.093760646879673,0.0,0.0,0.0
64.60710215568542,0.0012933980906382203,0.009246826171875,0.0010328376665711403,79.47038269042969,359.99957275390625,0.011391742154955864,359.9990234375,35.410057067871094,36.300315856933594,32.764259338378906,35.969993591308594,39.7550048828125,42.350852966308594,42.452369689941406,0.28138959407806396,18.079233169555664,0.4101986885070801,17.24344253540039,-0.6819896101951599,6.400664329528809,-0.5944082736968994,-0.233642578125,-1.7080837488174438,-0.17724609375,-2.320326566696167,0.04850739985704422,-1.2608706951141357,0.10078854858875275,0.0,0.0,0.00030337978387251496,-0.093760646879673,0.0,0.0,0.0
65.11410522460938,0.0012933980906382203,0.009246826171875,0.0010328376665711403,79.47038269042969,359.99957275390625,0.011391742154955864,359.9990234375,35.410057067871094,36.300315856933594,32.764259338378906,35.969993591308594,39.7550048828125,42.350852966308594,42.452369689941406,0.28138959407806396,18.079233169555664,0.4101986885070801,17.24344253540039,-0.6819896101951599,6.400664329528809,-0.5944082736968994,-0.233642578125,-1.7080837488174438,-0.17724609375,-2.320326566696167,0.04850739985704422,-1.2608706951141357,0.10078854858875275,0.0,0.0,0.00030337978387251496,-0.093760646879673,0.0,0.0,0.0
65.62183618545532,0.0012933980906382203,0.009246826171875,0.0010328376665711403,79.47038269042969,359.99957275390625,0.011391742154955864,359.9990234375,35.410057067871094,36.300315856933594,32.764259338378906,35.969993591308594,39.7550048828125,42.350852966308594,42.452369689941406,0.28138959407806396,18.079233169555664,0.4101986885070801,17.24344253540039,-0.6819896101951599,6.400664329528809,-0.5944082736968994,-0.233642578125,-1.7080837488174438,-0.17724609375,-2.320326566696167,0.04850739985704422,-1.2608706951141357,0.10078854858875275,0.0,0.0,0.00030337978387251496,-0.093760646879673,0.0,0.0,0.0
66.13017296791077,0.0012933980906382203,0.009246826171875,0.0010328376665711403,79.47038269042969,359.99957275390625,0.011391742154955864,359.9990234375,35.410057067871094,36.300315856933594,32.764259338378906,35.969993591308594,39.7550048828125,42.350852966308594,42.452369689941406,0.28138959407806396,18.079233169555664,0.4101986885070801,17.24344253540039,-0.6819896101951599,6.400664329528809,-0.5944082736968994,-0.233642578125,-1.7080837488174438,-0.17724609375,-2.320326566696167,0.04850739985704422,-1.2608706951141357,0.10078854858875275,0.0,0.0,0.00030337978387251496,-0.093760646879673,0.0,0.0,0.0
66.63829040527344,0.0012933980906382203,0.009246826171875,0.0010328376665711403,79.47038269042969,359.99957275390625,0.011391742154955864,359.9990234375,35.410057067871094,36.300315856933594,32.764259338378906,35.969993591308594,39.7550048828125,42.350852966308594,42.452369689941406,0.28138959407806396,18.079233169555664,0.4101986885070801,17.24344253540039,-0.6819896101951599,6.400664329528809,-0.5944082736968994,-0.233642578125,-1.7080837488174438,-0.17724609375,-2.320326566696167,0.04850739985704422,-1.2608706951141357,0.10078854858875275,0.0,0.0,0.00030337978387251496,-0.093760646879673,0.0,0.0,0.0
67.14665651321411,0.0012933980906382203,0.009246826171875,0.0010328376665711403,79.47038269042969,359.99957275390625,0.011391742154955864,359.9990234375,35.410057067871094,36.300315856933594,32.764259338378906,35.969993591308594,39.7550048828125,42.350852966308594,42.452369689941406,0.28138959407806396,18.079233169555664,0.4101986885070801,17.24344253540039,-0.6819896101951599,6.400664329528809,-0.5944082736968994,-0.233642578125,-1.7080837488174438,-0.17724609375,-2.320326566696167,0.04850739985704422,-1.2608706951141357,0.10078854858875275,0.0,0.0,0.00030337978387251496,-0.093760646879673,0.0,0.0,0.0
67.65607118606567,0.0012933980906382203,0.009246826171875,0.0010328376665711403,79.47038269042969,359.99957275390625,0.011391742154955864,359.9990234375,35.410057067871094,36.300315856933594,32.764259338378906,35.969993591308594,39.7550048828125,42.350852966308594,42.452369689941406,0.28138959407806396,18.079233169555664,0.4101986885070801,17.24344253540039,-0.6819896101951599,6.400664329528809,-0.5944082736968994,-0.233642578125,-1.7080837488174438,-0.17724609375,-2.320326566696167,0.04850739985704422,-1.2608706951141357,0.10078854858875275,0.0,0.0,0.00030337978387251496,-0.093760646879673,0.0,0.0,0.0
68.16396713256836,0.0012933980906382203,0.009246826171875,0.0010328376665711403,79.47038269042969,359.99957275390625,0.011391742154955864,359.9990234375,35.410057067871094,36.300315856933594,32.764259338378906,35.969993591308594,39.7550048828125,42.350852966308594,42.452369689941406,0.28138959407806396,18.079233169555664,0.4101986885070801,17.24344253540039,-0.6819896101951599,6.400664329528809,-0.5944082736968994,-0.233642578125,-1.7080837488174438,-0.17724609375,-2.320326566696167,0.04850739985704422,-1.2608706951141357,0.10078854858875275,0.0,0.0,0.00030337978387251496,-0.093760646879673,0.0,0.0,0.0
68.67269778251648,0.0012933980906382203,0.009246826171875,0.0010328376665711403,79.47038269042969,359.99957275390625,0.011391742154955864,359.9990234375,35.410057067871094,36.300315856933594,32.764259338378906,35.969993591308594,39.7550048828125,42.350852966308594,42.452369689941406,0.28138959407806396,18.079233169555664,0.4101986885070801,17.24344253540039,-0.6819896101951599,6.400664329528809,-0.5944082736968994,-0.233642578125,-1.7080837488174438,-0.17724609375,-2.320326566696167,0.04850739985704422,-1.2608706951141357,0.10078854858875275,0.0,0.0,0.00030337978387251496,-0.093760646879673,0.0,0.0,0.0
69.18180418014526,0.0012933980906382203,0.009246826171875,0.0010328376665711403,79.47038269042969,359.99957275390625,0.011391742154955864,359.9990234375,35.410057067871094,36.300315856933594,32.764259338378906,35.969993591308594,39.7550048828125,42.350852966308594,42.452369689941406,0.28138959407806396,18.079233169555664,0.4101986885070801,17.24344253540039,-0.6819896101951599,6.400664329528809,-0.5944082736968994,-0.233642578125,-1.7080837488174438,-0.17724609375,-2.320326566696167,0.04850739985704422,-1.2608706951141357,0.10078854858875275,0.0,0.0,0.00030337978387251496,-0.093760646879673,0.0,0.0,0.0
69.69029521942139,0.0012670884607359767,0.009307861328125,0.000980218406766653,84.4214859008789,359.99957275390625,0.00773985218256712,359.9990234375,35.4124755859375,36.31965255737305,32.739280700683594,36.035255432128906,39.71149826049805,42.39838790893555,42.433837890625,-0.30882880091667175,19.63521957397461,-0.1271071881055832,18.965967178344727,-0.68815016746521,6.788162708282471,-0.6136348843574524,-0.217529296875,-1.7402530908584595,-0.185302734375,-2.239760637283325,0.04850739985704422,-0.8177887201309204,0.09701479971408844,0.00030383889679796994,0.003973125480115414,0.0003036091511603445,-0.05566130951046944,-0.000606307468842715,-0.0016698503168299794,0.0
70.19828605651855,0.0012670884607359767,0.009246826171875,0.000980218406766653,84.36729431152344,359.99957275390625,0.00773985218256712,359.9990234375,35.41328048706055,36.320457458496094,32.74894714355469,36.02397155761719,39.72600173950195,42.37018966674805,42.436256408691406,-0.24493828415870667,18.021156311035156,-0.14921517670154572,18.606801986694336,-0.7037004828453064,6.636777400970459,-0.5974035263061523,-0.24183346331119537,-1.7322527170181274,-0.18547779321670532,-2.384765625,0.0523681640625,-0.8419286012649536,0.104736328125,0.00030315073672682047,-0.0033422610722482204,0.0,-1.4367973804473877,0.0,0.0,0.0
70.7070779800415,0.0012670884607359767,0.00921630859375,0.000980218406766653,76.76012420654297,359.99957275390625,0.012427352368831635,359.9990234375,35.40119552612305,36.32368087768555,32.7537841796875,36.054588317871094,39.69538497924805,42.37663650512695,42.4056396484375,-0.22863100469112396,17.124984741210938,-0.14694978296756744,18.38168716430664,-0.7053744196891785,6.043532848358154,-0.6022506356239319,-0.2255859375,-1.7563661336898804,-0.185302734375,-2.417475461959839,0.040283203125,-1.2407292127609253,0.1007080078125,0.0003036091511603445,-0.006219285540282726,0.0,-25.5035343170166,-0.0006076777935959399,-0.09899801760911942,0.0
71.21625280380249,0.001240778830833733,0.009185791015625,0.0009275990887545049,64.01260375976562,359.99957275390625,0.008502934128046036,359.9990234375,35.406837463378906,36.32770919799805,32.74653244018555,36.07150650024414,39.752586364746094,42.404029846191406,42.3975830078125,-0.586017906665802,18.4221248626709,-0.522415816783905,19.125518798828125,-0.700406014919281,6.510036945343018,-0.6386398673057556,-0.217529296875,-1.724139928817749,-0.1613340973854065,-2.288100242614746,0.04048411548137665,-0.8822021484375,0.1007080078125,-0.00045541825238615274,0.001516898861154914,-0.0007595972274430096,-25.008319854736328,-0.0006076777935959399,0.011983620002865791,0.0
71.72524738311768,0.0012933980906382203,0.0076904296875,0.0010065280366688967,53.70391082763672,359.99957275390625,0.006813253741711378,359.9990234375,35.400390625,36.333351135253906,32.74653244018555,36.07634353637695,39.742919921875,42.38630294799805,42.440284729003906,0.04021521657705307,14.441621780395508,0.09953877329826355,15.232170104980469,-0.6608846783638,5.139902591705322,-0.6257065534591675,-0.22572974860668182,-1.5952351093292236,-0.17724609375,-1.869140625,0.04449424892663956,-0.7493109107017517,0.1168212890625,0.0003036091511603445,0.0006081379251554608,0.00030315073672682047,-9.367918968200684,0.0,0.004405663814395666,0.0006067595677450299
72.23507905006409,0.0012670884607359767,0.00732421875,0.000980218406766653,52.960533142089844,359.99957275390625,0.006486218888312578,359.9990234375,35.398780822753906,36.33415603637695,32.748146057128906,36.078758239746094,39.705055236816406,42.38630294799805,42.407249450683594,-0.1409003585577011,14.538066864013672,-0.06747261434793472,15.259552955627441,-0.660140335559845,4.990094184875488,-0.6129465699195862,-0.2255859375,-1.554931640625,-0.185302734375,-1.7644778490066528,0.052522867918014526,-0.7210693359375,0.10078854858875275,-0.00030315073672682047,-0.0012153555871918797,-0.00030337978387251496,-2.8474819660186768,0.0,0.0,0.0
72.74428200721741,0.0012670884607359767,0.00732421875,0.000980218406766653,52.960533142089844,359.99957275390625,0.006486218888312578,359.9990234375,35.398780822753906,36.33415603637695,32.748146057128906,36.078758239746094,39.705055236816406,42.38630294799805,42.407249450683594,-0.1409003585577011,14.538066864013672,-0.06747261434793472,15.259552955627441,-0.660140335559845,4.990094184875488,-0.6129465699195862,-0.2255859375,-1.554931640625,-0.185302734375,-1.7644778490066528,0.052522867918014526,-0.7210693359375,0.10078854858875275,-0.00030315073672682047,-0.0012153555871918797,-0.00030337978387251496,-2.8474819660186768,0.0,0.0,0.0
73.25404620170593,0.0012670884607359767,0.00732421875,0.000980218406766653,52.960533142089844,359.99957275390625,0.006486218888312578,359.9990234375,35.398780822753906,36.33415603637695,32.748146057128906,36.078758239746094,39.705055236816406,42.38630294799805,42.407249450683594,-0.1409003585577011,14.538066864013672,-0.06747261434793472,15.259552955627441,-0.660140335559845,4.990094184875488,-0.6129465699195862,-0.2255859375,-1.554931640625,-0.185302734375,-1.7644778490066528,0.052522867918014526,-0.7210693359375,0.10078854858875275,-0.00030315073672682047,-0.0012153555871918797,-0.00030337978387251496,-2.8474819660186768,0.0,0.0,0.0
73.76127505302429,0.0012670884607359767,0.00732421875,0.000980218406766653,52.960533142089844,359.99957275390625,0.006486218888312578,359.9990234375,35.398780822753906,36.33415603637695,32.748146057128906,36.078758239746094,39.705055236816406,42.38630294799805,42.407249450683594,-0.1409003585577011,14.538066864013672,-0.06747261434793472,15.259552955627441,-0.660140335559845,4.990094184875488,-0.6129465699195862,-0.2255859375,-1.554931640625,-0.185302734375,-1.7644778490066528,0.052522867918014526,-0.7210693359375,0.10078854858875275,-0.00030315073672682047,-0.0012153555871918797,-0.00030337978387251496,-2.8474819660186768,0.0,0.0,0.0
74.26922488212585,0.0012670884607359767,0.00732421875,0.000980218406766653,52.960533142089844,359.99957275390625,0.006486218888312578,359.9990234375,35.398780822753906,36.33415603637695,32.748146057128906,36.078758239746094,39.705055236816406,42.38630294799805,42.407249450683594,-0.1409003585577011,14.538066864013672,-0.06747261434793472,15.259552955627441,-0.660140335559845,4.990094184875488,-0.6129465699195862,-0.2255859375,-1.554931640625,-0.185302734375,-1.7644778490066528,0.052522867918014526,-0.7210693359375,0.10078854858875275,-0.00030315073672682047,-0.0012153555871918797,-0.00030337978387251496,-2.8474819660186768,0.0,0.0,0.0
74.77935767173767,0.0012670884607359767,0.00732421875,0.000980218406766653,52.960533142089844,359.99957275390625,0.006486218888312578,359.9990234375,35.398780822753906,36.33415603637695,32.748146057128906,36.078758239746094,39.705055236816406,42.38630294799805,42.407249450683594,-0.1409003585577011,14.538066864013672,-0.06747261434793472,15.259552955627441,-0.660140335559845,4.990094184875488,-0.6129465699195862,-0.2255859375,-1.554931640625,-0.185302734375,-1.7644778490066528,0.052522867918014526,-0.7210693359375,0.10078854858875275,-0.00030315073672682047,-0.0012153555871918797,-0.00030337978387251496,-2.8474819660186768,0.0,0.0,0.0
75.285653591156,0.0012670884607359767,0.00732421875,0.000980218406766653,52.960533142089844,359.99957275390625,0.006486218888312578,359.9990234375,35.398780822753906,36.33415603637695,32.748146057128906,36.078758239746094,39.705055236816406,42.38630294799805,42.407249450683594,-0.1409003585577011,14.538066864013672,-0.06747261434793472,15.259552955627441,-0.660140335559845,4.990094184875488,-0.6129465699195862,-0.2255859375,-1.554931640625,-0.185302734375,-1.7644778490066528,0.052522867918014526,-0.7210693359375,0.10078854858875275,-0.00030315073672682047,-0.0012153555871918797,-0.00030337978387251496,-2.8474819660186768,0.0,0.0,0.0
75.79449486732483,0.0012670884607359767,0.00732421875,0.000980218406766653,52.960533142089844,359.99957275390625,0.006486218888312578,359.9990234375,35.398780822753906,36.33415603637695,32.748146057128906,36.078758239746094,39.705055236816406,42.38630294799805,42.407249450683594,-0.1409003585577011,14.538066864013672,-0.06747261434793472,15.259552955627441,-0.660140335559845,4.990094184875488,-0.6129465699195862,-0.2255859375,-1.554931640625,-0.185302734375,-1.7644778490066528,0.052522867918014526,-0.7210693359375,0.10078854858875275,-0.00030315073672682047,-0.0012153555871918797,-0.00030337978387251496,-2.8474819660186768,0.0,0.0,0.0
76.30062437057495,0.0012670884607359767,0.00732421875,0.000980218406766653,52.960533142089844,359.99957275390625,0.006486218888312578,359.9990234375,35.398780822753906,36.33415603637695,32.748146057128906,36.078758239746094,39.705055236816406,42.38630294799805,42.407249450683594,-0.1409003585577011,14.538066864013672,-0.06747261434793472,15.259552955627441,-0.660140335559845,4.990094184875488,-0.6129465699195862,-0.2255859375,-1.554931640625,-0.185302734375,-1.7644778490066528,0.052522867918014526,-0.7210693359375,0.10078854858875275,-0.00030315073672682047,-0.0012153555871918797,-0.00030337978387251496,-2.8474819660186768,0.0,0.0,0.0
76.80811905860901,0.0012670884607359767,0.00732421875,0.000980218406766653,52.960533142089844,359.99957275390625,0.006486218888312578,359.9990234375,35.398780822753906,36.33415603637695,32.748146057128906,36.078758239746094,39.705055236816406,42.38630294799805,42.407249450683594,-0.1409003585577011,14.538066864013672,-0.06747261434793472,15.259552955627441,-0.660140335559845,4.990094184875488,-0.6129465699195862,-0.2255859375,-1.554931640625,-0.185302734375,-1.7644778490066528,0.052522867918014526,-0.7210693359375,0.10078854858875275,-0.00030315073672682047,-0.0012153555871918797,-0.00030337978387251496,-2.8474819660186768,0.0,0.0,0.0
77.31413221359253,0.0012670884607359767,0.00732421875,0.000980218406766653,52.960533142089844,359.99957275390625,0.006486218888312578,359.9990234375,35.398780822753906,36.33415603637695,32.748146057128906,36.078758239746094,39.705055236816406,42.38630294799805,42.407249450683594,-0.1409003585577011,14.538066864013672,-0.06747261434793472,15.259552955627441,-0.660140335559845,4.990094184875488,-0.6129465699195862,-0.2255859375,-1.554931640625,-0.185302734375,-1.7644778490066528,0.052522867918014526,-0.7210693359375,0.10078854858875275,-0.00030315073672682047,-0.0012153555871918797,-0.00030337978387251496,-2.8474819660186768,0.0,0.0,0.0
77.8200695514679,0.0012670884607359767,0.00732421875,0.000980218406766653,52.960533142089844,359.99957275390625,0.006486218888312578,359.9990234375,35.398780822753906,36.33415603637695,32.748146057128906,36.078758239746094,39.705055236816406,42.38630294799805,42.407249450683594,-0.1409003585577011,14.538066864013672,-0.06747261434793472,15.259552955627441,-0.660140335559845,4.990094184875488,-0.6129465699195862,-0.2255859375,-1.554931640625,-0.185302734375,-1.7644778490066528,0.052522867918014526,-0.7210693359375,0.10078854858875275,-0.00030315073672682047,-0.0012153555871918797,-0.00030337978387251496,-2.8474819660186768,0.0,0.0,0.0
78.32548236846924,0.0012670884607359767,0.00897216796875,0.000980218406766653,66.0443115234375,359.99957275390625,0.00844842754304409,359.9990234375,35.381858825683594,36.3389892578125,32.74492263793945,36.16657638549805,39.676048278808594,42.399192810058594,42.42900466918945,-0.25832808017730713,16.974485397338867,-0.14765767753124237,17.971704483032227,-0.7003306150436401,6.011155128479004,-0.6255590915679932,-0.233642578125,-1.651611328125,-0.17742909491062164,-2.4573941230773926,0.052522867918014526,-0.9788901209831238,0.10078854858875275,0.00029865026590414345,-0.004774899687618017,0.0,-20.489490509033203,-0.0005968566401861608,-0.01013902761042118,0.0
78.83225345611572,0.0012670884607359767,0.007965087890625,0.000980218406766653,58.61115646362305,359.99957275390625,0.007630840875208378,359.9990234375,35.39958572387695,36.33173751831055,32.75297927856445,36.173828125,39.6905517578125,42.36455154418945,42.40483474731445,-0.1592450886964798,16.940128326416016,-0.046123068779706955,16.524566650390625,-0.6705052852630615,5.521825790405273,-0.6236959099769592,-0.21767844259738922,-1.554931640625,-0.1860019862651825,-2.19140625,0.05298428237438202,-0.837890625,0.10504573583602905,-0.0003031537344213575,0.007981790229678154,0.0,-1.580477237701416,0.0,0.005920378491282463,0.0
79.3380959033966,0.0012670884607359767,0.00823974609375,0.000980218406766653,58.638282775878906,359.99957275390625,0.007903370074927807,359.9990234375,35.408447265625,36.35026931762695,32.73847579956055,36.18913650512695,39.74211502075195,42.416114807128906,42.38872146606445,-0.1391322761774063,15.858325004577637,-0.05770767480134964,16.220746994018555,-0.6784595251083374,5.6402974128723145,-0.6389492154121399,-0.233642578125,-1.546875,-0.17742909491062164,-1.4179916381835938,0.04850739985704422,-0.8620981574058533,0.09676357358694077,0.0,-0.0006076777935959399,0.0,0.0030213715508580208,0.0,0.0,0.0
