Time (s),Pos_0,Pos_1,Pos_2,Pos_3,Pos_4,Pos_5,Pos_6,Temp_0,Temp_1,Temp_2,Temp_3,Temp_4,Temp_5,Temp_6,Torque_0,Torque_1,Torque_2,Torque_3,Torque_4,Torque_5,Torque_6,Current_0,Current_1,Current_2,Current_3,Current_4,Current_5,Current_6,Velocity_0,Velocity_1,Velocity_2,Velocity_3,Velocity_4,Velocity_5,Velocity_6
0.002744436264038086,355.86383056640625,358.1336975097656,205.78924560546875,315.84149169921875,184.8475341796875,91.50897216796875,89.94882202148438,26.674243927001953,27.74658203125,25.611572265625,27.357446670532227,31.949731826782227,32.78681564331055,32.102806091308594,0.0781296119093895,9.594841003417969,0.22008374333381653,-11.992470741271973,-1.218752145767212,4.061515808105469,-0.2754262387752533,-0.2578125,-1.119873046875,0.21767844259738922,1.2407488822937012,-0.02450331673026085,-0.7331653833389282,-0.07262157648801804,0.0,0.0,0.0,0.0,0.0,0.0,0.0
0.5061948299407959,355.86383056640625,358.1336975097656,205.78924560546875,315.84149169921875,184.8475341796875,91.50897216796875,89.94882202148438,26.674243927001953,27.74658203125,25.611572265625,27.357446670532227,31.949731826782227,32.78681564331055,32.102806091308594,0.0781296119093895,9.594841003417969,0.22008374333381653,-11.992470741271973,-1.218752145767212,4.061515808105469,-0.2754262387752533,-0.2578125,-1.119873046875,0.21767844259738922,1.2407488822937012,-0.02450331673026085,-0.7331653833389282,-0.07262157648801804,0.0,0.0,0.0,0.0,0.0,0.0,0.0
1.0095529556274414,355.86383056640625,358.1336975097656,205.78924560546875,315.84149169921875,184.8475341796875,91.50897216796875,89.94882202148438,26.674243927001953,27.74658203125,25.611572265625,27.357446670532227,31.949731826782227,32.78681564331055,32.102806091308594,0.0781296119093895,9.594841003417969,0.22008374333381653,-11.992470741271973,-1.218752145767212,4.061515808105469,-0.2754262387752533,-0.2578125,-1.119873046875,0.21767844259738922,1.2407488822937012,-0.02450331673026085,-0.7331653833389282,-0.07262157648801804,0.0,0.0,0.0,0.0,0.0,0.0,0.0
1.5131816864013672,355.86383056640625,358.1336975097656,205.78924560546875,315.84149169921875,184.8475341796875,91.50897216796875,89.94882202148438,26.674243927001953,27.74658203125,25.611572265625,27.357446670532227,31.949731826782227,32.78681564331055,32.102806091308594,0.0781296119093895,9.594841003417969,0.22008374333381653,-11.992470741271973,-1.218752145767212,4.061515808105469,-0.2754262387752533,-0.2578125,-1.119873046875,0.21767844259738922,1.2407488822937012,-0.02450331673026085,-0.7331653833389282,-0.07262157648801804,0.0,0.0,0.0,0.0,0.0,0.0,0.0
2.015773296356201,355.86383056640625,358.1336975097656,205.78924560546875,315.84149169921875,184.8475341796875,91.50897216796875,89.94882202148438,26.674243927001953,27.74658203125,25.611572265625,27.357446670532227,31.949731826782227,32.78681564331055,32.102806091308594,0.0781296119093895,9.594841003417969,0.22008374333381653,-11.992470741271973,-1.218752145767212,4.061515808105469,-0.2754262387752533,-0.2578125,-1.119873046875,0.21767844259738922,1.2407488822937012,-0.02450331673026085,-0.7331653833389282,-0.07262157648801804,0.0,0.0,0.0,0.0,0.0,0.0,0.0
2.5191900730133057,355.86383056640625,358.1336975097656,205.78924560546875,315.84149169921875,184.8475341796875,91.50897216796875,89.94882202148438,26.674243927001953,27.74658203125,25.611572265625,27.357446670532227,31.949731826782227,32.78681564331055,32.102806091308594,0.0781296119093895,9.594841003417969,0.22008374333381653,-11.992470741271973,-1.218752145767212,4.061515808105469,-0.2754262387752533,-0.2578125,-1.119873046875,0.21767844259738922,1.2407488822937012,-0.02450331673026085,-0.7331653833389282,-0.07262157648801804,0.0,0.0,0.0,0.0,0.0,0.0,0.0
3.0230324268341064,355.86383056640625,358.1336975097656,205.78924560546875,315.84149169921875,184.8475341796875,91.50897216796875,89.94882202148438,26.674243927001953,27.74658203125,25.611572265625,27.357446670532227,31.949731826782227,32.78681564331055,32.102806091308594,0.0781296119093895,9.594841003417969,0.22008374333381653,-11.992470741271973,-1.218752145767212,4.061515808105469,-0.2754262387752533,-0.2578125,-1.119873046875,0.21767844259738922,1.2407488822937012,-0.02450331673026085,-0.7331653833389282,-0.07262157648801804,0.0,0.0,0.0,0.0,0.0,0.0,0.0
3.5261805057525635,355.86383056640625,358.1336975097656,205.78924560546875,315.84149169921875,184.8475341796875,91.50897216796875,89.94882202148438,26.691967010498047,27.739330291748047,25.6357421875,27.407398223876953,31.952953338623047,32.83112716674805,32.159202575683594,0.09806226938962936,9.566915512084961,0.19779033958911896,-11.999470710754395,-1.2091320753097534,4.046361446380615,-0.28375834226608276,-0.24988576769828796,-1.1199020147323608,0.2015770971775055,1.248805284500122,-0.0127386674284935,-0.733154296875,-0.08469058573246002,0.0,0.0,0.0,0.0,0.0,0.0,0.0
4.030401229858398,355.86383056640625,358.1336975097656,205.7892303466797,315.8414611816406,184.8475341796875,91.50897216796875,89.94882202148438,26.691162109375,27.748998641967773,25.626880645751953,27.405786514282227,31.947315216064453,32.87060546875,32.143089294433594,0.11038361489772797,9.594185829162598,0.2124159038066864,-12.000411987304688,-1.197440266609192,4.046206951141357,-0.2914722263813019,-0.24988576769828796,-1.1199020147323608,0.20962753891944885,1.224609375,-0.01611328125,-0.7331985235214233,-0.0809682309627533,0.0,0.0,0.0,0.0,0.0,0.0,0.0
4.534389972686768,355.86383056640625,358.1336975097656,205.78924560546875,315.84149169921875,184.8475341796875,91.50897216796875,89.94882202148438,26.698413848876953,27.749805450439453,25.630102157592773,27.413036346435547,31.9481201171875,32.85529708862305,32.16162109375,0.08841414004564285,9.585646629333496,0.20793293416500092,-11.967622756958008,-1.212674856185913,4.054049491882324,-0.2773503363132477,-0.2659911811351776,-1.1280447244644165,0.201416015625,1.24072265625,-0.01611328125,-0.7251088619232178,-0.08056640625,0.0,0.0,0.0,0.0003031537344213575,0.0,0.0,0.0
5.037741661071777,355.86383056640625,358.1336975097656,205.78924560546875,315.84149169921875,184.8475341796875,91.50897216796875,89.94882202148438,26.704858779907227,27.74658203125,25.630908966064453,27.426733016967773,31.961816787719727,32.884300231933594,32.126976013183594,0.0814494788646698,9.578044891357422,0.2076219618320465,-12.002737045288086,-1.2043384313583374,4.054354190826416,-0.27275094389915466,-0.265869140625,-1.119873046875,0.20962753891944885,1.24072265625,-0.0127386674284935,-0.7251424193382263,-0.07664402574300766,0.0,0.0,0.00015157536836341023,0.0,0.0,0.0,0.0
5.54122519493103,355.86383056640625,358.1336975097656,205.78924560546875,315.8414611816406,184.8475341796875,91.50897216796875,89.94882202148438,26.6951904296875,27.752222061157227,25.633325576782227,27.414648056030273,31.953760147094727,32.844017028808594,32.14631271362305,0.09022054076194763,9.577166557312012,0.2013069987297058,-11.984749794006348,-1.2070039510726929,4.041942119598389,-0.29695117473602295,-0.25793835520744324,-1.119873046875,0.20947265625,1.2407488822937012,-0.01611328125,-0.72509765625,-0.07664402574300766,0.0,0.0,0.00015180457558017224,0.0,0.0,0.0,0.0
6.045079708099365,355.969482421875,358.5700378417969,205.22572326660156,314.9159851074219,188.8978729248047,89.55020141601562,89.94882202148438,26.700023651123047,27.753833770751953,25.636547088623047,27.417871475219727,31.945703506469727,32.848854064941406,32.16484451293945,0.8759584426879883,10.206128120422363,2.3008012771606445,-11.505992889404297,-1.4323252439498901,4.225018501281738,-0.2778874337673187,0.36263832449913025,-0.59619140625,-0.451171875,0.6365256309509277,0.346646249294281,-0.8298730850219727,-0.0765380859375,0.2978777587413788,2.8474819660186768,-4.1628947257995605,-9.9661865234375,25.163074493408203,-10.83281135559082,0.0
6.548649311065674,356.2674560546875,359.92547607421875,203.33753967285156,308.4397277832031,201.54087829589844,83.92650604248047,89.94882202148438,26.713720321655273,27.756250381469727,25.650243759155273,27.442041397094727,31.976316452026367,32.856101989746094,32.12858963012695,-0.9956786632537842,11.296489715576172,0.733980655670166,-12.108060836791992,-3.5265579223632812,4.192025661468506,-0.3482529819011688,0.4995766878128052,-0.8701545000076294,-0.427001953125,0.6929179430007935,0.8459568619728088,-0.7372266054153442,-0.0765380859375,0.25146323442459106,3.2153985500335693,-3.698631525039673,-12.988648414611816,24.66786003112793,-11.389927864074707,0.0
7.052370071411133,356.5641174316406,1.2556005716323853,201.48704528808594,301.9851379394531,214.1089324951172,78.33856964111328,89.94882202148438,26.705663681030273,27.756250381469727,25.643796920776367,27.437206268310547,31.969873428344727,32.848854064941406,32.14470291137695,-0.261830598115921,9.72681713104248,1.264917254447937,-11.740674018859863,-4.020761489868164,3.888733148574829,-0.4501062035560608,0.410888671875,-0.652587890625,-0.40291258692741394,0.7090301513671875,0.8460335731506348,-0.8338720202445984,-0.08066704869270325,0.5459830164909363,2.729915142059326,-3.7914841175079346,-12.78271770477295,24.74165153503418,-11.00304126739502,0.0
7.556485176086426,356.8590393066406,2.585920810699463,199.62875366210938,295.5186462402344,226.62576293945312,72.75543212890625,89.94882202148438,26.714527130126953,27.7626953125,25.637353897094727,27.432373046875,31.990015029907227,32.8544921875,32.176124572753906,-0.5004841685295105,11.033751487731934,0.8783603310585022,-11.949983596801758,-4.621095180511475,3.277623176574707,-0.5095677971839905,0.2985308766365051,-0.813880205154419,-0.30657610297203064,0.845947265625,0.9829431772232056,-0.6646728515625,-0.0845947265625,0.5886639356613159,3.017711877822876,-3.961714029312134,-12.906521797180176,26.43707275390625,-10.894713401794434,0.0
8.060079097747803,357.1548767089844,3.932711124420166,197.76573181152344,289.0133056640625,239.28778076171875,67.1368637084961,89.94882202148438,26.712108612060547,27.757055282592773,25.642187118530273,27.429149627685547,31.956981658935547,32.8424072265625,32.151145935058594,-0.5679603815078735,12.953103065490723,0.6529350280761719,-13.414505958557129,-5.8032917976379395,2.755737543106079,-0.5948718786239624,0.233642578125,-0.9829431772232056,-0.539794921875,0.8299904465675354,1.0518854856491089,-0.6163856983184814,-0.0765380859375,0.8666249513626099,2.955810070037842,-3.620729446411133,-12.78271770477295,24.647846221923828,-11.281599998474121,0.0
8.563557386398315,357.4486389160156,5.2640838623046875,195.9082489013672,282.5462646484375,251.8406982421875,61.54494857788086,89.94876861572266,26.731443405151367,27.764307022094727,25.648632049560547,27.42190170288086,31.993236541748047,32.85126876831055,32.17853927612305,-0.32777729630470276,13.343419075012207,0.6865964531898499,-13.496010780334473,-6.329489231109619,1.8869247436523438,-0.6350007653236389,0.33042049407958984,-0.733154296875,-0.40283203125,0.8301858901977539,1.2571521997451782,-0.5599510073661804,-0.08469058573246002,0.5261651277542114,2.3850836753845215,-3.868861436843872,-12.658914566040039,25.075740814208984,-10.39949893951416,0.0
9.067216634750366,357.742919921875,6.603007793426514,194.04867553710938,276.06884765625,264.4359436035156,55.93962478637695,89.94876861572266,26.712108612060547,27.77880859375,25.659912109375,27.425121307373047,31.977930068969727,32.881080627441406,32.1495361328125,-0.42915573716163635,14.79104995727539,0.4848482608795166,-13.01622486114502,-6.025510787963867,0.7128674983978271,-0.6666897535324097,0.201416015625,-0.9026674032211304,-0.49152112007141113,0.7738150954246521,1.1322160959243774,-0.169189453125,-0.068953737616539,0.9482862949371338,2.584399461746216,-3.5284016132354736,-12.627963066101074,25.379730224609375,-11.548444747924805,0.0
9.571132898330688,357.9720153808594,7.683281421661377,192.54966735839844,270.8489074707031,274.5746765136719,51.425071716308594,89.94876861572266,26.720165252685547,27.767528533935547,25.659107208251953,27.418676376342773,31.985179901123047,32.864967346191406,32.147926330566406,-0.2782936096191406,15.974583625793457,0.5828890800476074,-13.947994232177734,-5.983180046081543,-0.050892483443021774,-0.6935757994651794,0.6043017506599426,-1.3616676330566406,-0.427001953125,0.902487576007843,1.1118236780166626,-0.08066704869270325,-0.072509765625,0.6183906197547913,3.172466278076172,-3.5129261016845703,-12.813669204711914,25.50861358642578,-11.12470531463623,0.0
10.074933052062988,357.9720153808594,7.683281421661377,192.54966735839844,270.8489074707031,274.5746765136719,51.425071716308594,89.94876861572266,26.720165252685547,27.767528533935547,25.659107208251953,27.418676376342773,31.985179901123047,32.864967346191406,32.147926330566406,-0.2782936096191406,15.974583625793457,0.5828890800476074,-13.947994232177734,-5.983180046081543,-0.050892483443021774,-0.6935757994651794,0.6043017506599426,-1.3616676330566406,-0.427001953125,0.902487576007843,1.1118236780166626,-0.08066704869270325,-0.072509765625,0.6183906197547913,3.172466278076172,-3.5129261016845703,-12.813669204711914,25.50861358642578,-11.12470531463623,0.0
10.579226732254028,357.9720153808594,7.683281421661377,192.54966735839844,270.8489074707031,274.5746765136719,51.425071716308594,89.94876861572266,26.720165252685547,27.767528533935547,25.659107208251953,27.418676376342773,31.985179901123047,32.864967346191406,32.147926330566406,-0.2782936096191406,15.974583625793457,0.5828890800476074,-13.947994232177734,-5.983180046081543,-0.050892483443021774,-0.6935757994651794,0.6043017506599426,-1.3616676330566406,-0.427001953125,0.902487576007843,1.1118236780166626,-0.08066704869270325,-0.072509765625,0.6183906197547913,3.172466278076172,-3.5129261016845703,-12.813669204711914,25.50861358642578,-11.12470531463623,0.0
11.083256006240845,357.9720153808594,7.683281421661377,192.54966735839844,270.8489074707031,274.5746765136719,51.425071716308594,89.94876861572266,26.720165252685547,27.767528533935547,25.659107208251953,27.418676376342773,31.985179901123047,32.864967346191406,32.147926330566406,-0.2782936096191406,15.974583625793457,0.5828890800476074,-13.947994232177734,-5.983180046081543,-0.050892483443021774,-0.6935757994651794,0.6043017506599426,-1.3616676330566406,-0.427001953125,0.902487576007843,1.1118236780166626,-0.08066704869270325,-0.072509765625,0.6183906197547913,3.172466278076172,-3.5129261016845703,-12.813669204711914,25.50861358642578,-11.12470531463623,0.0
11.587199687957764,357.9720153808594,7.683281421661377,192.54966735839844,270.8489074707031,274.5746765136719,51.425071716308594,89.94876861572266,26.720165252685547,27.767528533935547,25.659107208251953,27.418676376342773,31.985179901123047,32.864967346191406,32.147926330566406,-0.2782936096191406,15.974583625793457,0.5828890800476074,-13.947994232177734,-5.983180046081543,-0.050892483443021774,-0.6935757994651794,0.6043017506599426,-1.3616676330566406,-0.427001953125,0.902487576007843,1.1118236780166626,-0.08066704869270325,-0.072509765625,0.6183906197547913,3.172466278076172,-3.5129261016845703,-12.813669204711914,25.50861358642578,-11.12470531463623,0.0
12.091201066970825,357.9720153808594,7.683281421661377,192.54966735839844,270.8489074707031,274.5746765136719,51.425071716308594,89.94876861572266,26.720165252685547,27.767528533935547,25.659107208251953,27.418676376342773,31.985179901123047,32.864967346191406,32.147926330566406,-0.2782936096191406,15.974583625793457,0.5828890800476074,-13.947994232177734,-5.983180046081543,-0.050892483443021774,-0.6935757994651794,0.6043017506599426,-1.3616676330566406,-0.427001953125,0.902487576007843,1.1118236780166626,-0.08066704869270325,-0.072509765625,0.6183906197547913,3.172466278076172,-3.5129261016845703,-12.813669204711914,25.50861358642578,-11.12470531463623,0.0
12.59503173828125,357.9720153808594,7.683281421661377,192.54966735839844,270.8489074707031,274.5746765136719,51.425071716308594,89.94876861572266,26.720165252685547,27.767528533935547,25.659107208251953,27.418676376342773,31.985179901123047,32.864967346191406,32.147926330566406,-0.2782936096191406,15.974583625793457,0.5828890800476074,-13.947994232177734,-5.983180046081543,-0.050892483443021774,-0.6935757994651794,0.6043017506599426,-1.3616676330566406,-0.427001953125,0.902487576007843,1.1118236780166626,-0.08066704869270325,-0.072509765625,0.6183906197547913,3.172466278076172,-3.5129261016845703,-12.813669204711914,25.50861358642578,-11.12470531463623,0.0
13.099036931991577,357.9720153808594,7.683281421661377,192.54966735839844,270.8489074707031,274.5746765136719,51.425071716308594,89.94876861572266,26.720165252685547,27.767528533935547,25.659107208251953,27.418676376342773,31.985179901123047,32.864967346191406,32.147926330566406,-0.2782936096191406,15.974583625793457,0.5828890800476074,-13.947994232177734,-5.983180046081543,-0.050892483443021774,-0.6935757994651794,0.6043017506599426,-1.3616676330566406,-0.427001953125,0.902487576007843,1.1118236780166626,-0.08066704869270325,-0.072509765625,0.6183906197547913,3.172466278076172,-3.5129261016845703,-12.813669204711914,25.50861358642578,-11.12470531463623,0.0
13.602429628372192,357.9720153808594,7.683281421661377,192.54966735839844,270.8489074707031,274.5746765136719,51.425071716308594,89.94876861572266,26.720165252685547,27.767528533935547,25.659107208251953,27.418676376342773,31.985179901123047,32.864967346191406,32.147926330566406,-0.2782936096191406,15.974583625793457,0.5828890800476074,-13.947994232177734,-5.983180046081543,-0.050892483443021774,-0.6935757994651794,0.6043017506599426,-1.3616676330566406,-0.427001953125,0.902487576007843,1.1118236780166626,-0.08066704869270325,-0.072509765625,0.6183906197547913,3.172466278076172,-3.5129261016845703,-12.813669204711914,25.50861358642578,-11.12470531463623,0.0
14.106389999389648,357.9720153808594,7.683281421661377,192.54966735839844,270.8489074707031,274.5746765136719,51.425071716308594,89.94876861572266,26.720165252685547,27.767528533935547,25.659107208251953,27.418676376342773,31.985179901123047,32.864967346191406,32.147926330566406,-0.2782936096191406,15.974583625793457,0.5828890800476074,-13.947994232177734,-5.983180046081543,-0.050892483443021774,-0.6935757994651794,0.6043017506599426,-1.3616676330566406,-0.427001953125,0.902487576007843,1.1118236780166626,-0.08066704869270325,-0.072509765625,0.6183906197547913,3.172466278076172,-3.5129261016845703,-12.813669204711914,25.50861358642578,-11.12470531463623,0.0
14.610512018203735,357.9720153808594,7.683281421661377,192.54966735839844,270.8489074707031,274.5746765136719,51.425071716308594,89.94876861572266,26.720165252685547,27.767528533935547,25.659107208251953,27.418676376342773,31.985179901123047,32.864967346191406,32.147926330566406,-0.2782936096191406,15.974583625793457,0.5828890800476074,-13.947994232177734,-5.983180046081543,-0.050892483443021774,-0.6935757994651794,0.6043017506599426,-1.3616676330566406,-0.427001953125,0.902487576007843,1.1118236780166626,-0.08066704869270325,-0.072509765625,0.6183906197547913,3.172466278076172,-3.5129261016845703,-12.813669204711914,25.50861358642578,-11.12470531463623,0.0
15.114236116409302,357.9720153808594,7.683281421661377,192.54966735839844,270.8489074707031,274.5746765136719,51.425071716308594,89.94876861572266,26.720165252685547,27.767528533935547,25.659107208251953,27.418676376342773,31.985179901123047,32.864967346191406,32.147926330566406,-0.2782936096191406,15.974583625793457,0.5828890800476074,-13.947994232177734,-5.983180046081543,-0.050892483443021774,-0.6935757994651794,0.6043017506599426,-1.3616676330566406,-0.427001953125,0.902487576007843,1.1118236780166626,-0.08066704869270325,-0.072509765625,0.6183906197547913,3.172466278076172,-3.5129261016845703,-12.813669204711914,25.50861358642578,-11.12470531463623,0.0
15.618977785110474,357.9720153808594,7.683281421661377,192.54966735839844,270.8489074707031,274.5746765136719,51.425071716308594,89.94876861572266,26.720165252685547,27.767528533935547,25.659107208251953,27.418676376342773,31.985179901123047,32.864967346191406,32.147926330566406,-0.2782936096191406,15.974583625793457,0.5828890800476074,-13.947994232177734,-5.983180046081543,-0.050892483443021774,-0.6935757994651794,0.6043017506599426,-1.3616676330566406,-0.427001953125,0.902487576007843,1.1118236780166626,-0.08066704869270325,-0.072509765625,0.6183906197547913,3.172466278076172,-3.5129261016845703,-12.813669204711914,25.50861358642578,-11.12470531463623,0.0
16.12252712249756,337.5355224609375,16.47672462463379,143.3102569580078,232.1549835205078,359.9935302734375,38.14565658569336,89.94876861572266,26.7677001953125,27.846485137939453,25.694555282592773,27.399341583251953,32.054466247558594,32.93586349487305,32.20109939575195,-0.06367449462413788,14.986912727355957,2.7771637439727783,-12.84665298461914,-1.5672458410263062,-5.058798789978027,-0.3933005630970001,0.33071503043174744,-1.91748046875,-0.018015196546912193,1.4905003309249878,0.0284845270216465,1.0393145084381104,-0.072509765625,0.0013788581127300858,-0.3198258578777313,0.00015180457558017224,3.9655609130859375,0.001060237642377615,25.379730224609375,0.0
16.627116203308105,337.541015625,16.335073471069336,143.31349182128906,234.12631225585938,359.9933166503906,50.73148727416992,89.94876861572266,26.766891479492188,27.857763290405273,25.693750381469727,27.398534774780273,32.058494567871094,32.924583435058594,32.19707107543945,-0.5442072153091431,15.486716270446777,2.4512829780578613,-13.673226356506348,-1.628218412399292,-5.116798400878906,-0.4388419985771179,0.443115234375,-1.8611013889312744,0.011393810622394085,1.538818359375,0.04503798857331276,1.1441067457199097,-0.0765380859375,0.0025688628666102886,-0.20112305879592896,0.0020985817536711693,4.395026683807373,0.000605850073043257,25.101173400878906,0.0
17.1320538520813,337.54949951171875,16.199867248535156,143.31617736816406,236.1085662841797,359.99310302734375,63.34674835205078,89.94876861572266,26.763669967651367,27.870655059814453,25.689722061157227,27.4041748046875,32.0810546875,32.910888671875,32.20109939575195,-0.21355992555618286,16.214616775512695,2.6889870166778564,-13.594442367553711,-1.8149513006210327,-5.381224632263184,-0.461881160736084,0.362548828125,-1.9497236013412476,0.04833984375,1.6435744762420654,0.0684814453125,1.071533203125,-0.07664402574300766,0.011967317201197147,-0.3500063717365265,0.0068208915181458,3.8998122215270996,-0.0010610276367515326,25.426156997680664,0.0
17.63579487800598,337.55596923828125,16.061506271362305,143.3186798095703,238.0841522216797,359.99310302734375,75.95137786865234,89.94876861572266,26.766891479492188,27.877904891967773,25.690526962280273,27.415454864501953,32.08024978637695,32.9471435546875,32.211570739746094,-0.1838240921497345,16.836233139038086,2.6783366203308105,-13.610865592956543,-1.9434928894042969,-4.9804487228393555,-0.46330025792121887,0.31431224942207336,-1.8691579103469849,0.14501953125,1.6919137239456177,0.07664402574300766,0.9990965127944946,-0.06859982013702393,0.007899811491370201,-0.41896727681159973,0.005469100084155798,3.4200735092163086,0.0,26.029699325561523,0.0
18.139397621154785,338.71087646484375,14.04621410369873,145.32720947265625,240.1813507080078,354.74188232421875,77.22474670410156,89.94876861572266,26.773338317871094,27.890796661376953,25.706640243530273,27.425121307373047,32.05205154418945,32.924583435058594,32.208351135253906,-3.039161443710327,19.87090301513672,-0.23416364192962646,-16.509519577026367,-1.1609848737716675,-5.8973894119262695,-0.4640275239944458,0.4925105571746826,-2.4903361797332764,0.4512437880039215,2.0312962532043457,-0.2296142578125,0.9949951171875,-0.07262157648801804,5.478307723999023,-14.16682243347168,14.56912612915039,13.548999786376953,-20.52044105529785,0.27985742688179016,0.0
18.6447172164917,341.2196960449219,6.878101348876953,156.93104553222656,247.0447998046875,344.3785400390625,77.47220611572266,89.94876861572266,26.76608657836914,27.910938262939453,25.731616973876953,27.423511505126953,32.040771484375,32.928611755371094,32.20915603637695,-1.1943978071212769,16.024559020996094,-0.6894246339797974,-14.273202896118164,-1.8330082893371582,-3.7872118949890137,-0.44435635209083557,0.4270779490470886,-2.030337333679199,0.5654016733169556,1.6840113401412964,-0.2497883439064026,0.6163856983184814,-0.072509765625,5.2926025390625,-13.773146629333496,25.054746627807617,13.49637508392334,-20.689882278442383,0.1333695501089096,0.0
19.149628400802612,343.73236083984375,359.7504577636719,169.5573272705078,253.87469482421875,333.9815368652344,77.71682739257812,89.94876861572266,26.776559829711914,27.925439834594727,25.705028533935547,27.438817977905273,32.072998046875,32.90605545043945,32.21721267700195,-0.48816952109336853,13.943402290344238,-0.648968517780304,-14.47390079498291,-2.849836826324463,-2.67704701423645,-0.5366641283035278,0.5803018808364868,-1.7808091640472412,0.7654232978820801,1.7886466979980469,-0.0459299199283123,0.4552001953125,-0.0765380859375,4.5807318687438965,-14.020753860473633,26.463010787963867,13.293407440185547,-20.149030685424805,0.4895259439945221,-0.0006063014734536409
19.653185606002808,346.2254943847656,352.6708068847656,182.13858032226562,260.6520690917969,323.64959716796875,77.94950866699219,89.94876861572266,26.79428482055664,27.933494567871094,25.717920303344727,27.443653106689453,32.08991622924805,32.95197677612305,32.220436096191406,-0.9037659168243408,11.963793754577637,-0.5845777988433838,-14.5376615524292,-3.7051761150360107,-1.6705279350280762,-0.5566983819007874,0.394775390625,-1.6678024530410767,0.6043017506599426,1.7888644933700562,0.0809682309627533,0.37472039461135864,-0.08066704869270325,4.797388076782227,-13.879463195800781,24.745237350463867,14.26836109161377,-20.613292694091797,0.316939115524292,-0.0006063014734536409
20.156981706619263,348.7194519042969,345.56292724609375,194.7257080078125,267.4669494628906,313.2948913574219,78.19053649902344,89.94882202148438,26.783811569213867,27.955245971679688,25.719532012939453,27.450902938842773,32.063331604003906,32.944725036621094,32.212379455566406,-1.1217526197433472,4.327577114105225,-0.10430604219436646,-12.002816200256348,-3.822500228881836,0.3892990052700043,-0.5643587112426758,0.4190227687358856,-0.7503496408462524,0.37278836965560913,1.450553297996521,0.0166091900318861,0.09300099313259125,-0.07262157648801804,5.19974946975708,-14.037467002868652,25.008319854736328,13.556489944458008,-19.914012908935547,0.6286581158638,0.0006063014734536409
20.6613347530365,351.2135009765625,338.483642578125,207.2864227294922,274.25225830078125,302.9617919921875,78.42354583740234,89.94882202148438,26.78219985961914,27.950414657592773,25.741283416748047,27.463794708251953,32.075416564941406,32.9310302734375,32.219627380371094,-1.592819333076477,0.4862526059150696,1.8211356401443481,-11.446991920471191,-5.351930618286133,0.9531483054161072,-0.6154903173446655,0.53173828125,-0.314208984375,0.2749900221824646,1.5405257940292358,0.2215576171875,-0.0056969053111970425,-0.0765380859375,4.890240669250488,-14.26836109161377,25.24045181274414,13.339834213256836,-20.458538055419922,0.2552143335342407,0.0
21.16535496711731,353.7202453613281,331.36883544921875,219.9003448486328,281.06561279296875,292.582275390625,78.6700210571289,89.94882202148438,26.781394958496094,27.959274291992188,25.738061904907227,27.4686279296875,32.07219314575195,32.92377853393555,32.232521057128906,-0.5347577333450317,-6.973028182983398,3.567758560180664,-9.733555793762207,-5.256482124328613,2.5820720195770264,-0.593778133392334,0.33042049407958984,0.24169921875,0.120849609375,1.3212890625,0.2860391139984131,-0.37868353724479675,-0.0684814453125,5.024060249328613,-14.006547927856445,24.97736930847168,14.051878929138184,-20.314132690429688,0.2960660755634308,0.0
21.669320344924927,356.0942077636719,325.85943603515625,226.9989471435547,286.4268798828125,282.2625732421875,78.90690612792969,89.94882202148438,26.79428482055664,27.952024459838867,25.730005264282227,27.469432830810547,32.040771484375,32.94633865356445,32.22124099731445,0.7762810587882996,-13.415191650390625,6.626604080200195,-8.125297546386719,-4.583548545837402,3.7772786617279053,-0.587127149105072,0.25793835520744324,1.055419921875,-0.32236629724502563,0.9587740898132324,0.33042049407958984,-0.43104907870292664,-0.08497750759124756,1.6094462871551514,-1.29993736743927,1.191609263420105,1.1770656108856201,-16.387351989746094,0.5580644607543945,0.0
22.173844575881958,356.0793151855469,325.3314514160156,225.56478881835938,286.6229248046875,275.18780517578125,78.10659790039062,89.94882202148438,26.795896530151367,27.947189331054688,25.717113494873047,27.469432830810547,32.09797286987305,32.977760314941406,32.247825622558594,0.8648858070373535,-11.433061599731445,8.044787406921387,-8.195255279541016,-3.486872911453247,4.0049943923950195,-0.49619901180267334,-0.22572974860668182,0.6365256309509277,-1.248805284500122,0.9829431772232056,0.04048411548137665,-0.8419286012649536,-0.08469058573246002,0.001719171181321144,-1.795151710510254,-5.225022792816162,0.7737722992897034,-24.791664123535156,-2.597240686416626,0.0
22.677900791168213,356.07928466796875,324.3087463378906,222.80050659179688,287.0296936035156,262.5919494628906,76.70960998535156,89.94882202148438,26.801536560058594,27.943164825439453,25.731616973876953,27.479101181030273,32.10602951049805,32.989036560058594,32.2542724609375,0.08024251461029053,-10.29378604888916,8.337105751037598,-9.872261047363281,-2.993410110473633,4.458306312561035,-0.49701231718063354,-0.14501953125,0.7815356850624084,-1.4020638465881348,1.1037890911102295,-0.02054048329591751,-0.7976175546646118,-0.072509765625,-0.00030315073672682047,-2.4141695499420166,-5.33051872253418,0.8657468557357788,-24.799123764038086,-2.672443151473999,0.0
23.18243908882141,356.0793762207031,323.2864685058594,220.03921508789062,287.43841552734375,250.00161743164062,75.32173156738281,89.94882202148438,26.808786392211914,27.951221466064453,25.730005264282227,27.467016220092773,32.087501525878906,32.96245193481445,32.22607421875,0.3097345530986786,-8.990031242370605,7.804355144500732,-10.213448524475098,-2.3877594470977783,4.525155067443848,-0.44997841119766235,-0.12111786752939224,0.5478515625,-1.1037890911102295,1.1923828125,-0.06859982013702393,-0.9305419921875,-0.07696095108985901,0.0003031537344213575,-1.8880043029785156,-5.660982131958008,0.9186853170394897,-24.62740707397461,-2.921895742416382,0.0
23.68565011024475,356.0793762207031,322.26788330078125,217.2870635986328,287.8479309082031,237.4182891845703,73.92758178710938,89.94882202148438,26.801536560058594,27.936717987060547,25.733226776123047,27.479101181030273,32.1173095703125,32.937477111816406,32.2542724609375,0.08999446779489517,-7.42175817489624,7.281069278717041,-10.65217113494873,-1.5746175050735474,4.873036861419678,-0.37875673174858093,-0.07295598834753036,0.378662109375,-1.232771396636963,1.2729746103286743,-0.201416015625,-0.9305419921875,-0.08056640625,0.0,-1.8860914707183838,-5.493782997131348,0.8666249513626099,-25.359474182128906,-2.476071357727051,0.0
24.189717292785645,356.0793762207031,321.2413635253906,214.52662658691406,288.2597961425781,224.82936096191406,72.53675842285156,89.94882202148438,26.80636978149414,27.94235610961914,25.742895126342773,27.477489471435547,32.105224609375,32.985816955566406,32.25910568237305,-0.14714089035987854,-6.365187644958496,7.4613728523254395,-11.25001049041748,-0.484584242105484,4.97160005569458,-0.3579152822494507,-0.08056640625,0.4190227687358856,-1.072290062904358,1.3857656717300415,-0.314208984375,-0.9627769589424133,-0.06859982013702393,-0.00030383586999960244,-1.9809151887893677,-5.679488658905029,0.649968683719635,-24.775794982910156,-2.875516414642334,0.0
24.693437814712524,356.07940673828125,321.10699462890625,214.15342712402344,288.31536865234375,223.12452697753906,72.35295867919922,89.94882202148438,26.808788299560547,27.9439697265625,25.755786895751953,27.4766845703125,32.10200119018555,32.9833984375,32.24541091918945,0.2128562182188034,-6.155952453613281,6.97635555267334,-11.02338695526123,-0.3205661475658417,4.876313209533691,-0.33815640211105347,-0.064453125,0.2740442156791687,-1.1119332313537598,1.200439453125,-0.3988240659236908,-1.0957105159759521,-0.0809682309627533,0.00030337978387251496,-2.1356115341186523,-5.385455131530762,1.08328115940094,-26.246355056762695,-2.7236783504486084,0.0
25.19668221473694,356.07940673828125,321.10699462890625,214.15342712402344,288.31536865234375,223.12452697753906,72.35295867919922,89.94882202148438,26.808788299560547,27.9439697265625,25.755786895751953,27.4766845703125,32.10200119018555,32.9833984375,32.24541091918945,0.2128562182188034,-6.155952453613281,6.97635555267334,-11.02338695526123,-0.3205661475658417,4.876313209533691,-0.33815640211105347,-0.064453125,0.2740442156791687,-1.1119332313537598,1.200439453125,-0.3988240659236908,-1.0957105159759521,-0.0809682309627533,0.00030337978387251496,-2.1356115341186523,-5.385455131530762,1.08328115940094,-26.246355056762695,-2.7236783504486084,0.0
25.70038604736328,356.07940673828125,321.10699462890625,214.15342712402344,288.31536865234375,223.12452697753906,72.35295867919922,89.94882202148438,26.808788299560547,27.9439697265625,25.755786895751953,27.4766845703125,32.10200119018555,32.9833984375,32.24541091918945,0.2128562182188034,-6.155952453613281,6.97635555267334,-11.02338695526123,-0.3205661475658417,4.876313209533691,-0.33815640211105347,-0.064453125,0.2740442156791687,-1.1119332313537598,1.200439453125,-0.3988240659236908,-1.0957105159759521,-0.0809682309627533,0.00030337978387251496,-2.1356115341186523,-5.385455131530762,1.08328115940094,-26.246355056762695,-2.7236783504486084,0.0
26.20431923866272,356.07940673828125,321.10699462890625,214.15342712402344,288.31536865234375,223.12452697753906,72.35295867919922,89.94882202148438,26.808788299560547,27.9439697265625,25.755786895751953,27.4766845703125,32.10200119018555,32.9833984375,32.24541091918945,0.2128562182188034,-6.155952453613281,6.97635555267334,-11.02338695526123,-0.3205661475658417,4.876313209533691,-0.33815640211105347,-0.064453125,0.2740442156791687,-1.1119332313537598,1.200439453125,-0.3988240659236908,-1.0957105159759521,-0.0809682309627533,0.00030337978387251496,-2.1356115341186523,-5.385455131530762,1.08328115940094,-26.246355056762695,-2.7236783504486084,0.0
26.708758115768433,356.07940673828125,321.10699462890625,214.15342712402344,288.31536865234375,223.12452697753906,72.35295867919922,89.94882202148438,26.808788299560547,27.9439697265625,25.755786895751953,27.4766845703125,32.10200119018555,32.9833984375,32.24541091918945,0.2128562182188034,-6.155952453613281,6.97635555267334,-11.02338695526123,-0.3205661475658417,4.876313209533691,-0.33815640211105347,-0.064453125,0.2740442156791687,-1.1119332313537598,1.200439453125,-0.3988240659236908,-1.0957105159759521,-0.0809682309627533,0.00030337978387251496,-2.1356115341186523,-5.385455131530762,1.08328115940094,-26.246355056762695,-2.7236783504486084,0.0
27.213528871536255,356.07940673828125,321.10699462890625,214.15342712402344,288.31536865234375,223.12452697753906,72.35295867919922,89.94882202148438,26.808788299560547,27.9439697265625,25.755786895751953,27.4766845703125,32.10200119018555,32.9833984375,32.24541091918945,0.2128562182188034,-6.155952453613281,6.97635555267334,-11.02338695526123,-0.3205661475658417,4.876313209533691,-0.33815640211105347,-0.064453125,0.2740442156791687,-1.1119332313537598,1.200439453125,-0.3988240659236908,-1.0957105159759521,-0.0809682309627533,0.00030337978387251496,-2.1356115341186523,-5.385455131530762,1.08328115940094,-26.246355056762695,-2.7236783504486084,0.0
27.717252016067505,356.07940673828125,321.10699462890625,214.15342712402344,288.31536865234375,223.12452697753906,72.35295867919922,89.94882202148438,26.808788299560547,27.9439697265625,25.755786895751953,27.4766845703125,32.10200119018555,32.9833984375,32.24541091918945,0.2128562182188034,-6.155952453613281,6.97635555267334,-11.02338695526123,-0.3205661475658417,4.876313209533691,-0.33815640211105347,-0.064453125,0.2740442156791687,-1.1119332313537598,1.200439453125,-0.3988240659236908,-1.0957105159759521,-0.0809682309627533,0.00030337978387251496,-2.1356115341186523,-5.385455131530762,1.08328115940094,-26.246355056762695,-2.7236783504486084,0.0
28.2214138507843,356.07940673828125,321.10699462890625,214.15342712402344,288.31536865234375,223.12452697753906,72.35295867919922,89.94882202148438,26.808788299560547,27.9439697265625,25.755786895751953,27.4766845703125,32.10200119018555,32.9833984375,32.24541091918945,0.2128562182188034,-6.155952453613281,6.97635555267334,-11.02338695526123,-0.3205661475658417,4.876313209533691,-0.33815640211105347,-0.064453125,0.2740442156791687,-1.1119332313537598,1.200439453125,-0.3988240659236908,-1.0957105159759521,-0.0809682309627533,0.00030337978387251496,-2.1356115341186523,-5.385455131530762,1.08328115940094,-26.246355056762695,-2.7236783504486084,0.0
28.725719690322876,356.07940673828125,321.10699462890625,214.15342712402344,288.31536865234375,223.12452697753906,72.35295867919922,89.94882202148438,26.808788299560547,27.9439697265625,25.755786895751953,27.4766845703125,32.10200119018555,32.9833984375,32.24541091918945,0.2128562182188034,-6.155952453613281,6.97635555267334,-11.02338695526123,-0.3205661475658417,4.876313209533691,-0.33815640211105347,-0.064453125,0.2740442156791687,-1.1119332313537598,1.200439453125,-0.3988240659236908,-1.0957105159759521,-0.0809682309627533,0.00030337978387251496,-2.1356115341186523,-5.385455131530762,1.08328115940094,-26.246355056762695,-2.7236783504486084,0.0
29.230382442474365,356.07940673828125,321.10699462890625,214.15342712402344,288.31536865234375,223.12452697753906,72.35295867919922,89.94882202148438,26.808788299560547,27.9439697265625,25.755786895751953,27.4766845703125,32.10200119018555,32.9833984375,32.24541091918945,0.2128562182188034,-6.155952453613281,6.97635555267334,-11.02338695526123,-0.3205661475658417,4.876313209533691,-0.33815640211105347,-0.064453125,0.2740442156791687,-1.1119332313537598,1.200439453125,-0.3988240659236908,-1.0957105159759521,-0.0809682309627533,0.00030337978387251496,-2.1356115341186523,-5.385455131530762,1.08328115940094,-26.246355056762695,-2.7236783504486084,0.0
29.750624418258667,356.07940673828125,321.10699462890625,214.15342712402344,288.31536865234375,223.12452697753906,72.35295867919922,89.94882202148438,26.808788299560547,27.9439697265625,25.755786895751953,27.4766845703125,32.10200119018555,32.9833984375,32.24541091918945,0.2128562182188034,-6.155952453613281,6.97635555267334,-11.02338695526123,-0.3205661475658417,4.876313209533691,-0.33815640211105347,-0.064453125,0.2740442156791687,-1.1119332313537598,1.200439453125,-0.3988240659236908,-1.0957105159759521,-0.0809682309627533,0.00030337978387251496,-2.1356115341186523,-5.385455131530762,1.08328115940094,-26.246355056762695,-2.7236783504486084,0.0
30.254562616348267,356.07940673828125,321.10699462890625,214.15342712402344,288.31536865234375,223.12452697753906,72.35295867919922,89.94882202148438,26.808788299560547,27.9439697265625,25.755786895751953,27.4766845703125,32.10200119018555,32.9833984375,32.24541091918945,0.2128562182188034,-6.155952453613281,6.97635555267334,-11.02338695526123,-0.3205661475658417,4.876313209533691,-0.33815640211105347,-0.064453125,0.2740442156791687,-1.1119332313537598,1.200439453125,-0.3988240659236908,-1.0957105159759521,-0.0809682309627533,0.00030337978387251496,-2.1356115341186523,-5.385455131530762,1.08328115940094,-26.246355056762695,-2.7236783504486084,0.0
30.758780479431152,355.94647216796875,316.652587890625,204.4141845703125,34.45465087890625,177.09877014160156,55.38693618774414,89.94876861572266,26.838598251342773,27.940744400024414,25.795263290405273,27.534690856933594,32.12456130981445,33.01240158081055,32.29375076293945,-0.1669214367866516,-28.017704010009766,-2.0095529556274414,10.56961727142334,0.6975319981575012,-1.5674456357955933,-0.2997439503669739,-0.6043017506599426,2.263916015625,-0.27392578125,-0.5158767104148865,-0.4954833984375,0.1329955905675888,-0.072509765625,-0.02159915305674076,-0.09804029762744904,-0.005759864114224911,24.899991989135742,-0.12900611758232117,-2.4890222549438477,0.0
31.264230966567993,355.9285888671875,316.5710754394531,204.41123962402344,47.113189697265625,177.01898193359375,54.035465240478516,89.94876861572266,26.833765029907227,27.937522888183594,25.800098419189453,27.533884048461914,32.135032653808594,33.03899002075195,32.27521896362305,-0.09379894286394119,-28.54351043701172,-2.795902729034424,10.580733299255371,0.5995147824287415,-2.133878231048584,-0.2666846513748169,-0.40291258692741394,2.0947420597076416,-0.265869140625,-0.6127815246582031,-0.4190227687358856,0.15328805148601532,-0.07262157648801804,-0.01391551923006773,-0.026094552129507065,-0.005469100084155798,25.317829132080078,-0.1678314208984375,-2.8784327507019043,0.0
31.768498182296753,355.91650390625,316.4801330566406,204.40830993652344,59.01095962524414,176.93814086914062,52.668949127197266,89.94876861572266,26.841821670532227,27.963302612304688,25.804126739501953,27.520187377929688,32.147926330566406,33.037376403808594,32.28166580200195,0.5071746110916138,-31.82964515686035,-3.7176201343536377,13.517091751098633,0.5392590165138245,-3.783540725708008,-0.3030089735984802,-0.59619140625,2.263916015625,-0.1860019862651825,-0.82177734375,-0.2578439712524414,0.5116125345230103,-0.07664402574300766,-0.023388702422380447,-0.04517617076635361,-0.004705941770225763,16.032562255859375,-0.22232550382614136,-2.5120301246643066,0.0
32.27335739135742,355.903564453125,316.42388916015625,204.4071044921875,61.529029846191406,176.88772583007812,51.80830383300781,89.94876861572266,26.85068130493164,27.976194381713867,25.789623260498047,27.501659393310547,32.12456130981445,33.04301834106445,32.284889221191406,-0.45285993814468384,-29.730152130126953,-3.9516074657440186,13.55836296081543,0.6320486664772034,-3.5476419925689697,-0.29396334290504456,-0.4109676480293274,2.441162109375,-0.13719964027404785,-1.6435744762420654,-0.2138427346944809,0.7573348879814148,-0.0765380859375,-0.008133182302117348,0.0013061095960438251,-0.0010626320727169514,-0.25138038396835327,0.0005297822644934058,0.07437265664339066,0.0
32.77757978439331,355.90167236328125,319.1995849609375,204.51939392089844,57.61931228637695,177.529541015625,54.987518310546875,89.94876861572266,26.831344604492188,27.983448028564453,25.795263290405273,27.5089111328125,32.131004333496094,33.03173828125,32.29938888549805,0.8772974610328674,-27.65699577331543,-3.07035231590271,14.570205688476562,-0.19857251644134521,-3.1338677406311035,-0.3192214369773865,-0.4754100441932678,3.351649522781372,0.6123576760292053,-2.1270904541015625,0.1450754702091217,0.636474609375,-0.07664402574300766,-0.0007132691680453718,8.764464378356934,0.18973873555660248,-19.82350730895996,1.6094462871551514,8.611089706420898,0.0
33.28298854827881,355.90167236328125,319.1995849609375,204.51939392089844,57.61931228637695,177.529541015625,54.987518310546875,89.94876861572266,26.831344604492188,27.983448028564453,25.795263290405273,27.5089111328125,32.131004333496094,33.03173828125,32.29938888549805,0.8772974610328674,-27.65699577331543,-3.07035231590271,14.570205688476562,-0.19857251644134521,-3.1338677406311035,-0.3192214369773865,-0.4754100441932678,3.351649522781372,0.6123576760292053,-2.1270904541015625,0.1450754702091217,0.636474609375,-0.07664402574300766,-0.0007132691680453718,8.764464378356934,0.18973873555660248,-19.82350730895996,1.6094462871551514,8.611089706420898,0.0
33.787163972854614,355.90167236328125,319.1995849609375,204.51939392089844,57.61931228637695,177.529541015625,54.987518310546875,89.94876861572266,26.831344604492188,27.983448028564453,25.795263290405273,27.5089111328125,32.131004333496094,33.03173828125,32.29938888549805,0.8772974610328674,-27.65699577331543,-3.07035231590271,14.570205688476562,-0.19857251644134521,-3.1338677406311035,-0.3192214369773865,-0.4754100441932678,3.351649522781372,0.6123576760292053,-2.1270904541015625,0.1450754702091217,0.636474609375,-0.07664402574300766,-0.0007132691680453718,8.764464378356934,0.18973873555660248,-19.82350730895996,1.6094462871551514,8.611089706420898,0.0
34.29105305671692,355.90167236328125,319.1995849609375,204.51939392089844,57.61931228637695,177.529541015625,54.987518310546875,89.94876861572266,26.831344604492188,27.983448028564453,25.795263290405273,27.5089111328125,32.131004333496094,33.03173828125,32.29938888549805,0.8772974610328674,-27.65699577331543,-3.07035231590271,14.570205688476562,-0.19857251644134521,-3.1338677406311035,-0.3192214369773865,-0.4754100441932678,3.351649522781372,0.6123576760292053,-2.1270904541015625,0.1450754702091217,0.636474609375,-0.07664402574300766,-0.0007132691680453718,8.764464378356934,0.18973873555660248,-19.82350730895996,1.6094462871551514,8.611089706420898,0.0
34.79567766189575,355.90167236328125,319.1995849609375,204.51939392089844,57.61931228637695,177.529541015625,54.987518310546875,89.94876861572266,26.831344604492188,27.983448028564453,25.795263290405273,27.5089111328125,32.131004333496094,33.03173828125,32.29938888549805,0.8772974610328674,-27.65699577331543,-3.07035231590271,14.570205688476562,-0.19857251644134521,-3.1338677406311035,-0.3192214369773865,-0.4754100441932678,3.351649522781372,0.6123576760292053,-2.1270904541015625,0.1450754702091217,0.636474609375,-0.07664402574300766,-0.0007132691680453718,8.764464378356934,0.18973873555660248,-19.82350730895996,1.6094462871551514,8.611089706420898,0.0
35.29986763000488,355.90167236328125,319.1995849609375,204.51939392089844,57.61931228637695,177.529541015625,54.987518310546875,89.94876861572266,26.831344604492188,27.983448028564453,25.795263290405273,27.5089111328125,32.131004333496094,33.03173828125,32.29938888549805,0.8772974610328674,-27.65699577331543,-3.07035231590271,14.570205688476562,-0.19857251644134521,-3.1338677406311035,-0.3192214369773865,-0.4754100441932678,3.351649522781372,0.6123576760292053,-2.1270904541015625,0.1450754702091217,0.636474609375,-0.07664402574300766,-0.0007132691680453718,8.764464378356934,0.18973873555660248,-19.82350730895996,1.6094462871551514,8.611089706420898,0.0
35.803739070892334,355.90167236328125,319.1995849609375,204.51939392089844,57.61931228637695,177.529541015625,54.987518310546875,89.94876861572266,26.831344604492188,27.983448028564453,25.795263290405273,27.5089111328125,32.131004333496094,33.03173828125,32.29938888549805,0.8772974610328674,-27.65699577331543,-3.07035231590271,14.570205688476562,-0.19857251644134521,-3.1338677406311035,-0.3192214369773865,-0.4754100441932678,3.351649522781372,0.6123576760292053,-2.1270904541015625,0.1450754702091217,0.636474609375,-0.07664402574300766,-0.0007132691680453718,8.764464378356934,0.18973873555660248,-19.82350730895996,1.6094462871551514,8.611089706420898,0.0
36.30792784690857,355.90167236328125,319.1995849609375,204.51939392089844,57.61931228637695,177.529541015625,54.987518310546875,89.94876861572266,26.831344604492188,27.983448028564453,25.795263290405273,27.5089111328125,32.131004333496094,33.03173828125,32.29938888549805,0.8772974610328674,-27.65699577331543,-3.07035231590271,14.570205688476562,-0.19857251644134521,-3.1338677406311035,-0.3192214369773865,-0.4754100441932678,3.351649522781372,0.6123576760292053,-2.1270904541015625,0.1450754702091217,0.636474609375,-0.07664402574300766,-0.0007132691680453718,8.764464378356934,0.18973873555660248,-19.82350730895996,1.6094462871551514,8.611089706420898,0.0
36.811763048172,355.90167236328125,319.1995849609375,204.51939392089844,57.61931228637695,177.529541015625,54.987518310546875,89.94876861572266,26.831344604492188,27.983448028564453,25.795263290405273,27.5089111328125,32.131004333496094,33.03173828125,32.29938888549805,0.8772974610328674,-27.65699577331543,-3.07035231590271,14.570205688476562,-0.19857251644134521,-3.1338677406311035,-0.3192214369773865,-0.4754100441932678,3.351649522781372,0.6123576760292053,-2.1270904541015625,0.1450754702091217,0.636474609375,-0.07664402574300766,-0.0007132691680453718,8.764464378356934,0.18973873555660248,-19.82350730895996,1.6094462871551514,8.611089706420898,0.0
37.31718134880066,355.90167236328125,319.1995849609375,204.51939392089844,57.61931228637695,177.529541015625,54.987518310546875,89.94876861572266,26.831344604492188,27.983448028564453,25.795263290405273,27.5089111328125,32.131004333496094,33.03173828125,32.29938888549805,0.8772974610328674,-27.65699577331543,-3.07035231590271,14.570205688476562,-0.19857251644134521,-3.1338677406311035,-0.3192214369773865,-0.4754100441932678,3.351649522781372,0.6123576760292053,-2.1270904541015625,0.1450754702091217,0.636474609375,-0.07664402574300766,-0.0007132691680453718,8.764464378356934,0.18973873555660248,-19.82350730895996,1.6094462871551514,8.611089706420898,0.0
37.82036232948303,355.90167236328125,319.1995849609375,204.51939392089844,57.61931228637695,177.529541015625,54.987518310546875,89.94876861572266,26.831344604492188,27.983448028564453,25.795263290405273,27.5089111328125,32.131004333496094,33.03173828125,32.29938888549805,0.8772974610328674,-27.65699577331543,-3.07035231590271,14.570205688476562,-0.19857251644134521,-3.1338677406311035,-0.3192214369773865,-0.4754100441932678,3.351649522781372,0.6123576760292053,-2.1270904541015625,0.1450754702091217,0.636474609375,-0.07664402574300766,-0.0007132691680453718,8.764464378356934,0.18973873555660248,-19.82350730895996,1.6094462871551514,8.611089706420898,0.0
38.32439970970154,355.90167236328125,319.1995849609375,204.51939392089844,57.61931228637695,177.529541015625,54.987518310546875,89.94876861572266,26.831344604492188,27.983448028564453,25.795263290405273,27.5089111328125,32.131004333496094,33.03173828125,32.29938888549805,0.8772974610328674,-27.65699577331543,-3.07035231590271,14.570205688476562,-0.19857251644134521,-3.1338677406311035,-0.3192214369773865,-0.4754100441932678,3.351649522781372,0.6123576760292053,-2.1270904541015625,0.1450754702091217,0.636474609375,-0.07664402574300766,-0.0007132691680453718,8.764464378356934,0.18973873555660248,-19.82350730895996,1.6094462871551514,8.611089706420898,0.0
38.828282594680786,355.90167236328125,319.1995849609375,204.51939392089844,57.61931228637695,177.529541015625,54.987518310546875,89.94876861572266,26.831344604492188,27.983448028564453,25.795263290405273,27.5089111328125,32.131004333496094,33.03173828125,32.29938888549805,0.8772974610328674,-27.65699577331543,-3.07035231590271,14.570205688476562,-0.19857251644134521,-3.1338677406311035,-0.3192214369773865,-0.4754100441932678,3.351649522781372,0.6123576760292053,-2.1270904541015625,0.1450754702091217,0.636474609375,-0.07664402574300766,-0.0007132691680453718,8.764464378356934,0.18973873555660248,-19.82350730895996,1.6094462871551514,8.611089706420898,0.0
39.33394956588745,357.0550231933594,3.4960238933563232,198.36746215820312,291.1098937988281,235.21315002441406,68.94760131835938,89.94876861572266,26.869213104248047,28.140552520751953,25.839574813842773,27.566112518310547,32.15275955200195,33.072021484375,32.35578536987305,-0.25048983097076416,11.466455459594727,1.0935019254684448,-12.38552474975586,-5.054354190826416,3.0355005264282227,-0.5580407381057739,0.49951171875,-0.75732421875,-0.59619140625,0.7977702021598816,1.075682282447815,-0.6807980537414551,-0.07262157648801804,0.38669005036354065,2.9023308753967285,-3.497450590133667,-12.78271770477295,25.075740814208984,-11.182123184204102,0.0
39.837990283966064,357.3494873046875,4.837604522705078,196.50852966308594,284.6289367675781,247.7940673828125,63.34331512451172,89.94876861572266,26.863574981689453,28.13330078125,25.826684951782227,27.564498901367188,32.18095779418945,33.080078125,32.340476989746094,-0.6438524723052979,13.325929641723633,0.5389482975006104,-12.87356185913086,-6.150334358215332,2.0173754692077637,-0.6440434455871582,0.3787477910518646,-1.0474872589111328,-0.49152112007141113,0.7818678021430969,1.3414548635482788,-0.5720356702804565,-0.0809682309627533,0.7758706212043762,2.9867608547210693,-3.787642478942871,-12.730025291442871,24.590482711791992,-10.167367935180664,0.0
40.34277319908142,357.6419982910156,6.175581455230713,194.64633178710938,278.1487731933594,260.3844909667969,57.741477966308594,89.94876861572266,26.8885498046875,28.139745712280273,25.8291015625,27.564498901367188,32.20915603637695,33.05671310424805,32.33967208862305,-0.39850369095802307,15.102036476135254,0.622012197971344,-14.20041275024414,-6.321318626403809,1.049901008605957,-0.6754486560821533,0.523681640625,-1.0797101259231567,-0.515625,0.8943233489990234,1.3178765773773193,-0.1732177734375,-0.0765380859375,0.5261651277542114,2.9403345584869385,-3.5284016132354736,-12.816232681274414,25.115219116210938,-11.668485641479492,0.0
40.847161293029785,357.9423828125,7.514215469360352,192.7840118408203,271.6595458984375,272.9933166503906,52.12580108642578,89.94876861572266,26.87646484375,28.144580841064453,25.8411865234375,27.561277389526367,32.16887283325195,33.09619140625,32.333229064941406,-0.2391190230846405,15.539297103881836,0.7001975178718567,-13.289046287536621,-5.817904949188232,0.25982755422592163,-0.6720144152641296,0.3787477910518646,-1.04736328125,-0.40291258692741394,0.9348828196525574,1.3213443756103516,-0.10102976113557816,-0.08056640625,0.4487879276275635,2.5070221424102783,-3.868861436843872,-13.0922269821167,24.544055938720703,-11.436354637145996,0.0
41.3518762588501,358.23443603515625,8.851165771484375,190.92144775390625,265.1794738769531,285.576416015625,46.526145935058594,89.94876861572266,26.881298065185547,28.142162322998047,25.836353302001953,27.578195571899414,32.17853927612305,33.098609924316406,32.34772872924805,-0.5386319756507874,16.23503303527832,0.32768958806991577,-13.991175651550293,-6.091670513153076,-1.1718627214431763,-0.7065291404724121,0.354583740234375,-1.03125,-0.4833984375,1.023193359375,1.1444966793060303,0.0201416015625,-0.07664402574300766,0.746431827545166,2.2129886150360107,-3.2584619522094727,-13.061275482177734,25.460050582885742,-11.111370086669922,0.0
41.85602164268494,358.5301208496094,10.191800117492676,189.0620574951172,258.6876525878906,298.2023620605469,40.910030364990234,89.94876861572266,26.889354705810547,28.135717391967773,25.834741592407227,27.584640502929688,32.18901443481445,33.09941482543945,32.353370666503906,-0.30179569125175476,18.13983154296875,0.6463513970375061,-13.957782745361328,-4.902248382568359,-2.622897148132324,-0.6387560963630676,0.427001953125,-1.3454830646514893,-0.5801340341567993,0.813720703125,1.1279369592666626,0.2699275314807892,-0.07664402574300766,0.476837158203125,2.7236783504486084,-3.4200735092163086,-12.44225788116455,24.684179306030273,-11.111370086669922,0.0
42.361058712005615,358.8251953125,11.528855323791504,187.1999969482422,252.20895385742188,310.79058837890625,35.30786895751953,89.94876861572266,26.890966415405273,28.13330078125,25.838769912719727,27.570140838623047,32.218017578125,33.07121658325195,32.365455627441406,-0.4080754220485687,18.1920166015625,0.7114948630332947,-13.986429214477539,-3.774430513381958,-3.5844156742095947,-0.6133347749710083,0.46756288409233093,-1.4099351167678833,-0.37060546875,0.9348828196525574,0.8581835031509399,0.41090840101242065,-0.06457889080047607,0.34045979380607605,2.909383773803711,-3.789577007293701,-12.968422889709473,24.735624313354492,-11.336331367492676,0.0
42.86456346511841,359.1214904785156,12.868910789489746,185.33689880371094,245.72283935546875,323.4001770019531,29.69753074645996,89.94876861572266,26.881298065185547,28.126855850219727,25.838769912719727,27.571752548217773,32.16484451293945,33.101829528808594,32.3590087890625,-0.5617348551750183,18.69603729248047,0.7764787077903748,-13.804591178894043,-2.821385145187378,-4.288045883178711,-0.5893742442131042,0.4592991769313812,-1.3696526288986206,-0.4109676480293274,0.9347092509269714,0.8459568619728088,0.44318845868110657,-0.06859982013702393,0.271580308675766,2.6293392181396484,-3.714106798171997,-13.417211532592773,24.66786003112793,-11.219697952270508,0.0
43.368775606155396,359.41876220703125,14.204887390136719,183.4774932861328,239.23995971679688,335.9949951171875,24.09602165222168,89.94876861572266,26.893383026123047,28.127660751342773,25.850854873657227,27.566917419433594,32.20270919799805,33.109886169433594,32.365455627441406,-0.5808067321777344,18.29237937927246,0.9261965751647949,-12.457228660583496,-2.2071990966796875,-4.556811809539795,-0.4375082552433014,0.38671875,-1.11181640625,-0.354583740234375,0.7897152304649353,0.5846062898635864,0.4390869140625,-0.08056640625,0.4023313522338867,2.1025280952453613,-3.9942967891693115,-12.9219970703125,24.91546630859375,-10.930054664611816,0.0
43.872774600982666,359.7128601074219,15.538917541503906,181.61680603027344,232.76095581054688,348.5796203613281,18.49424171447754,89.94876861572266,26.893383026123047,28.126049041748047,25.8411865234375,27.566917419433594,32.18095779418945,33.11149978637695,32.36384201049805,-0.7203305959701538,16.763681411743164,1.06421959400177,-11.004926681518555,-1.5279778242111206,-4.208232879638672,-0.38102591037750244,0.29820457100868225,-1.1843535900115967,-0.53179931640625,0.636474609375,0.6406169533729553,0.572021484375,-0.06859982013702393,0.7428213953971863,2.64630126953125,-3.3925633430480957,-12.78271770477295,24.33367156982422,-11.606583595275879,0.0
44.37857413291931,359.9887390136719,16.751527786254883,179.97373962402344,228.21563720703125,0.1481045037508011,13.197911262512207,89.94876861572266,26.8966064453125,28.131689071655273,25.8492431640625,27.564498901367188,32.19304275512695,33.097801208496094,32.395263671875,-2.2320635318756104,18.329986572265625,-0.2606087327003479,-12.987284660339355,-1.1758636236190796,-4.922069072723389,-0.3006979525089264,0.4754100441932678,-1.3857421875,-0.25793835520744324,1.200547695159912,0.14104874432086945,0.6123576760292053,-0.07262157648801804,0.030474914237856865,-0.005029264837503433,0.0033803253900259733,0.04651303216814995,-0.030950890854001045,-0.3249843418598175,0.0
44.882503509521484,356.1816711425781,16.738162994384766,175.5767364501953,228.27389526367188,359.9947814941406,13.256123542785645,89.94876861572266,26.911108016967773,28.140552520751953,25.868579864501953,27.574167251586914,32.19304275512695,33.10747146606445,32.36626052856445,0.9542105793952942,15.475263595581055,2.173311471939087,-9.669358253479004,-1.0880248546600342,-3.335780620574951,-0.32055291533470154,-0.685998260974884,-1.9175481796264648,-0.8137605786323547,1.1199020147323608,-0.07664402574300766,0.46327435970306396,-0.07664402574300766,-13.154129028320312,-0.0040113236755132675,-21.05620002746582,0.003099238034337759,-0.0010618292726576328,0.002951736096292734,0.0
45.386818170547485,349.5044250488281,16.73829460144043,163.07284545898438,228.2743682861328,359.9942321777344,13.236283302307129,89.94876861572266,26.9127197265625,28.142969131469727,25.875829696655273,27.566110610961914,32.199485778808594,33.109886169433594,32.37834548950195,-0.15935039520263672,15.16650104522705,2.1293437480926514,-9.931928634643555,-1.060727834701538,-3.388383150100708,-0.3082001805305481,-0.4518188238143921,-1.651689887046814,-0.765550434589386,0.9829431772232056,-0.040283203125,0.418964684009552,-0.07262157648801804,-13.048042297363281,0.00212687230668962,-24.791664123535156,-0.0013662275159731507,0.0006063014734536409,-0.03215138241648674,0.0
45.89342379570007,342.87994384765625,16.740819931030273,150.56887817382812,228.2726287841797,359.9940185546875,13.219005584716797,89.94876861572266,26.9248046875,28.144580841064453,25.876636505126953,27.566110610961914,32.218017578125,33.093772888183594,32.36626052856445,0.3267284035682678,14.392797470092773,3.254990816116333,-10.241538047790527,-1.140441656112671,-3.467013359069824,-0.3508128821849823,-0.6204136610031128,-1.20849609375,-0.7333313226699829,0.7493109107017517,-0.0281982421875,0.35861101746559143,-0.06859982013702393,-13.030324935913086,0.007275617681443691,-25.24045181274414,-0.0028821078594774008,-0.001061038114130497,-0.033748675137758255,0.0
46.397594690322876,337.48248291015625,16.74679183959961,143.2509002685547,228.26925659179688,359.99395751953125,13.200418472290039,89.94876861572266,26.910303115844727,28.147802352905273,25.882274627685547,27.57577896118164,32.20673751831055,33.1123046875,32.377540588378906,0.18690216541290283,13.271125793457031,3.255138397216797,-10.57365894317627,-1.2020360231399536,-3.57551646232605,-0.363103985786438,-0.362548828125,-0.9105429649353027,-0.53179931640625,0.523681640625,-0.02450331673026085,0.37060546875,-0.07262157648801804,-1.7022989988327026,0.01343296654522419,-1.4701672792434692,-0.008639881387352943,-0.002734550042077899,-0.0338558666408062,0.0
46.90234661102295,337.523681640625,16.653682708740234,143.3080291748047,229.56556701660156,359.993408203125,21.684520721435547,89.94876861572266,26.910303115844727,28.148609161376953,25.854076385498047,27.593503952026367,32.220436096191406,33.089744567871094,32.39606857299805,1.329369068145752,13.974851608276367,3.9786062240600586,-12.320966720581055,-1.4911311864852905,-4.490720272064209,-0.45243850350379944,0.2900390625,-1.6032917499542236,-0.120849609375,1.3454830646514893,0.009007598273456097,0.9184658527374268,-0.0684814453125,0.03795246779918671,-0.6465588212013245,0.1737070083618164,4.109240531921387,-0.0037951143458485603,25.460050582885742,0.0
47.40696430206299,337.53424072265625,16.51824188232422,143.31015014648438,231.5523681640625,359.99346923828125,34.32376480102539,89.94876861572266,26.913524627685547,28.159887313842773,25.862939834594727,27.587865829467773,32.20673751831055,33.1163330078125,32.38720703125,0.17692193388938904,15.11817455291748,3.113180160522461,-13.134004592895508,-1.5986385345458984,-5.1976776123046875,-0.44792845845222473,0.322265625,-1.8208720684051514,-0.14501953125,1.506591796875,0.0201416015625,0.9668304324150085,-0.0684814453125,0.007176137063652277,-0.5571160316467285,0.0007595972274430096,4.339128494262695,0.0,25.761777877807617,0.0
47.91123342514038,337.5389099121094,16.380037307739258,143.31236267089844,233.5244598388672,359.9933776855469,46.88288497924805,89.94876861572266,26.9127197265625,28.166332244873047,25.875024795532227,27.603172302246094,32.224464416503906,33.110694885253906,32.3751220703125,-0.6924538612365723,15.941518783569336,2.405808210372925,-14.127304077148438,-1.5711419582366943,-5.353588104248047,-0.41242843866348267,0.410888671875,-2.0302894115448,-0.04108096659183502,1.538818359375,0.04850739985704422,1.1077954769134521,-0.07664402574300766,0.0008433531620539725,-0.15850120782852173,0.0,4.189596652984619,0.0021236585453152657,25.53448486328125,0.0
48.41835403442383,337.5465393066406,16.24543571472168,143.3153076171875,235.50143432617188,359.9931335449219,59.49847412109375,89.94876861572266,26.914331436157227,28.166332244873047,25.880664825439453,27.606395721435547,32.22929763793945,33.146949768066406,32.404930114746094,-0.5311791896820068,16.36005210876465,2.5019025802612305,-13.972230911254883,-1.7375527620315552,-5.551175117492676,-0.4191826581954956,0.39485761523246765,-2.11083984375,0.008056640625,1.7407004833221436,0.06859982013702393,1.087713599205017,-0.08066704869270325,0.003218271303921938,-0.20113442838191986,0.0054608359932899475,3.868861436843872,0.0,25.53448486328125,0.0
48.922359466552734,337.5555114746094,16.10610008239746,143.3181610107422,237.49044799804688,359.99298095703125,72.16159057617188,89.94876861572266,26.922388076782227,28.168750762939453,25.871801376342773,27.606395721435547,32.25507736206055,33.13164138793945,32.396873474121094,-0.16911819577217102,16.727569580078125,2.6965885162353516,-13.636629104614258,-1.98787260055542,-5.417038440704346,-0.4443051218986511,0.24183346331119537,-2.022216796875,0.09701479971408844,1.6758006811141968,0.08056640625,1.0557966232299805,-0.07295598834753036,0.0046922690235078335,-0.448333203792572,0.007444052956998348,3.868861436843872,-0.0010618292726576328,24.603540420532227,0.0
49.42630696296692,337.94439697265625,15.645787239074707,143.7319793701172,238.59303283691406,357.8892822265625,77.16010284423828,89.94876861572266,26.923192977905273,28.189697265625,25.87744140625,27.60397720336914,32.235740661621094,33.13566970825195,32.413795471191406,-3.2327826023101807,20.031267166137695,0.46017134189605713,-15.088643074035645,-0.7297827005386353,-5.7893853187561035,-0.41182655096054077,0.5883554220199585,-2.4492321014404297,0.5239294767379761,1.918089747428894,-0.33042049407958984,0.9023527503013611,-0.08066704869270325,5.5402092933654785,-6.530637741088867,6.5925397872924805,6.484211444854736,-21.66562271118164,0.7152557373046875,0.0
49.930421590805054,340.4835510253906,9.004130363464355,153.17230224609375,245.01473999023438,347.4536437988281,77.39595031738281,89.94876861572266,26.9248046875,28.192920684814453,25.895166397094727,27.63620376586914,32.2139892578125,33.146141052246094,32.412986755371094,0.21044330298900604,19.14426612854004,1.0861421823501587,-15.306923866271973,-2.656816005706787,-4.570684909820557,-0.5168758034706116,0.217529296875,-2.5136849880218506,0.3238729238510132,1.909491777420044,-0.12091673165559769,0.874154806137085,-0.07664402574300766,5.07594633102417,-13.773146629333496,25.116647720336914,13.279938697814941,-20.025226593017578,0.04174252226948738,0.0
50.43440818786621,342.9730224609375,1.892819881439209,165.781005859375,251.8234100341797,337.1148681640625,77.64002227783203,89.94876861572266,26.911108016967773,28.209033966064453,25.8975830078125,27.642650604248047,32.23332595825195,33.11955642700195,32.41057205200195,-1.414621114730835,15.125595092773438,-1.4107064008712769,-14.52925968170166,-2.4675121307373047,-3.1416265964508057,-0.49460339546203613,0.5962458848953247,-1.8452521562576294,0.6156876087188721,1.748291015625,-0.04833984375,0.6042614579200745,-0.072509765625,4.741431713104248,-14.330262184143066,24.35835075378418,13.386260032653809,-21.851329803466797,0.1880292147397995,0.0
50.93849420547485,345.47015380859375,354.8065490722656,178.3410186767578,258.6119689941406,326.7685852050781,77.87930297851562,89.94876861572266,26.9288330078125,28.215478897094727,25.903223037719727,27.646678924560547,32.24702072143555,33.114723205566406,32.43232345581055,-1.4864234924316406,11.351688385009766,-1.5820642709732056,-13.948074340820312,-3.019893169403076,-1.6593493223190308,-0.5100563764572144,0.29820457100868225,-1.5388394594192505,0.555908203125,1.6847820281982422,-0.025477334856987,0.42702093720436096,-0.072509765625,4.770167350769043,-13.851949691772461,25.008319854736328,13.570253372192383,-19.85654067993164,0.37947747111320496,0.0
51.4444625377655,347.9729309082031,347.6950378417969,190.95664978027344,265.4259338378906,316.39508056640625,78.12071228027344,89.94876861572266,26.940113067626953,28.233203887939453,25.903221130371094,27.655542373657227,32.22285079956055,33.1566162109375,32.421852111816406,-1.0753202438354492,7.467430114746094,-0.034136030822992325,-13.03508472442627,-3.9800217151641846,-0.31787705421447754,-0.5570294857025146,0.3472776412963867,-1.1441564559936523,0.4273058772087097,1.6523185968399048,0.16118314862251282,0.1329955905675888,-0.06457889080047607,5.349079132080078,-14.144556999206543,25.029010772705078,13.494588851928711,-20.74735450744629,0.3263506293296814,0.0
51.94819259643555,350.47564697265625,340.5784912109375,203.56735229492188,272.2422790527344,306.0234069824219,78.36042785644531,89.94876861572266,26.939306259155273,28.229175567626953,25.891942977905273,27.673267364501953,32.218017578125,33.117942810058594,32.427490234375,-1.0711560249328613,1.2800878286361694,1.3240845203399658,-11.355814933776855,-4.968503475189209,1.1356940269470215,-0.6292399764060974,0.556433379650116,-0.49152112007141113,0.31431224942207336,1.4018785953521729,0.08469058573246002,-0.10481376945972443,-0.07664402574300766,4.673584461212158,-14.10935115814209,25.043378829956055,13.711244583129883,-19.839521408081055,0.49521422386169434,0.0
52.4529128074646,352.97882080078125,333.46746826171875,216.18295288085938,279.05877685546875,295.6435241699219,78.59687805175781,89.94876861572266,26.943334579467773,28.234813690185547,25.904027938842773,27.676488876342773,32.251853942871094,33.158226013183594,32.42265701293945,-1.016992211341858,-5.055959701538086,3.0098702907562256,-10.639272689819336,-5.62157678604126,2.2264597415924072,-0.5924428105354309,0.5801340341567993,0.11279296875,0.30338361859321594,1.3616676330566406,0.33859461545944214,-0.1812744140625,-0.07664402574300766,4.712695598602295,-14.099306106567383,24.55986213684082,13.357237815856934,-20.891035079956055,0.2941453158855438,-0.0006067595677450299
52.95665431022644,355.4783935546875,326.6051940917969,226.27017211914062,285.6756286621094,285.2958679199219,78.83746337890625,89.94882202148438,26.948169708251953,28.2501220703125,25.906442642211914,27.689380645751953,32.252662658691406,33.14453125,32.43232345581055,1.0277278423309326,-13.015995025634766,6.664345741271973,-8.219090461730957,-4.47753381729126,3.7378029823303223,-0.5330417156219482,0.378662109375,0.8623992800712585,-0.217529296875,1.0395876169204712,0.009007598273456097,-0.33437487483024597,-0.07262157648801804,5.07594633102417,-8.813637733459473,8.873905181884766,9.068611145019531,-19.96332550048828,0.6344932913780212,0.0
53.46074867248535,356.08624267578125,325.63800048828125,226.4116668701172,286.4948425292969,278.9892883300781,78.51844024658203,89.94876861572266,26.9449462890625,28.236425399780273,25.905637741088867,27.690990447998047,32.27763748168945,33.17353439331055,32.42829513549805,-0.3403131663799286,-11.696351051330566,7.225559234619141,-8.977479934692383,-4.65079927444458,3.8017194271087646,-0.5770854949951172,-0.40291258692741394,0.91845703125,-1.1926276683807373,1.1683239936828613,0.12890625,-0.6928828358650208,-0.0845947265625,-0.18015098571777344,-2.1356115341186523,-5.617877960205078,0.5571160316467285,-25.905895233154297,-3.0331873893737793,-0.0006081379251554608
53.964818477630615,356.0794677734375,324.610595703125,223.61508178710938,286.90789794921875,266.33837890625,77.12995910644531,89.94882202148438,26.9530029296875,28.232397079467773,25.895971298217773,27.683740615844727,32.27521896362305,33.162254333496094,32.4315185546875,0.14766842126846313,-10.27588176727295,7.628901958465576,-9.5440092086792,-3.576265573501587,4.340427398681641,-0.53617262840271,-0.169189453125,0.797607421875,-1.152212381362915,1.168212890625,0.0490066334605217,-0.9345789551734924,-0.0765380859375,0.00030315073672682047,-2.228464126586914,-5.41091775894165,0.7428213953971863,-25.323095321655273,-2.729915142059326,0.0
54.470088481903076,356.0794677734375,323.5906677246094,220.85791015625,287.3154296875,253.72354125976562,75.72888946533203,89.94882202148438,26.947362899780273,28.2259521484375,25.894359588623047,27.68212890625,32.25507736206055,33.14453125,32.425880432128906,-0.4113028645515442,-8.574700355529785,7.5928544998168945,-10.691004753112793,-2.792712926864624,4.431553363800049,-0.4550298750400543,-0.14501953125,0.5720782279968262,-1.2488832473754883,1.4018785953521729,0.0490066334605217,-0.8338623046875,-0.07664402574300766,-0.0006063014734536409,-2.073709726333618,-5.493782997131348,0.4885111153125763,-25.751140594482422,-2.4138197898864746,0.0
54.97347283363342,356.0797119140625,322.56695556640625,218.10186767578125,287.72869873046875,241.1499786376953,74.34198760986328,89.94882202148438,26.958642959594727,28.242870330810547,25.920948028564453,27.6861572265625,32.2542724609375,33.1566162109375,32.43474197387695,1.4266440868377686,-8.181365966796875,7.6558966636657715,-10.011454582214355,-1.4335932731628418,4.89456033706665,-0.3555065095424652,-0.12915778160095215,0.5156879425048828,-1.2891632318496704,1.30517578125,-0.27392578125,-0.954745888710022,-0.08066704869270325,0.0021268511191010475,-1.9189552068710327,-5.425985336303711,0.6809195876121521,-25.983272552490234,-2.59987473487854,0.0
55.480698347091675,356.0794982910156,321.5512390136719,215.35678100585938,288.13427734375,228.59805297851562,72.95917510986328,89.94882202148438,26.9530029296875,28.230785369873047,25.924972534179688,27.703882217407227,32.276832580566406,33.13164138793945,32.44682693481445,-0.25654593110084534,-6.371628761291504,7.6362528800964355,-11.195982933044434,-0.6413394808769226,5.029886722564697,-0.33972662687301636,-0.11279296875,0.5000961422920227,-1.216659426689148,1.4501953125,-0.38680264353752136,-1.0675352811813354,-0.0765380859375,-0.0009122068877331913,-2.476071357727051,-5.271780014038086,0.6944119334220886,-24.425556182861328,-2.8784327507019043,0.0
55.98459815979004,356.0794982910156,320.5229797363281,212.5745391845703,288.5477294921875,215.88986206054688,71.55091094970703,89.94882202148438,26.9530029296875,28.213062286376953,25.911277770996094,27.691797256469727,32.26313400268555,33.184814453125,32.433937072753906,-0.5031077861785889,-5.281627655029297,6.779759407043457,-12.06879997253418,-0.41409367322921753,5.218744277954102,-0.32436269521713257,-0.088623046875,0.153076171875,-0.9991533756256104,1.3617868423461914,-0.354583740234375,-1.0152086019515991,-0.08469058573246002,-0.0006063014734536409,-2.1046605110168457,-5.7902936935424805,1.0632301568984985,-25.58091163635254,-2.321316719055176,0.0
56.48840069770813,356.07958984375,319.4980773925781,209.8234405517578,288.96014404296875,203.3250732421875,70.15779113769531,89.94882202148438,26.963476181030273,28.2178955078125,25.933835983276367,27.700658798217773,32.27521896362305,33.15581130981445,32.44682693481445,0.0650639459490776,-5.023085117340088,5.895638942718506,-11.687472343444824,0.13965298235416412,5.121119976043701,-0.2698099911212921,-0.09701479971408844,0.378662109375,-1.0559117794036865,1.4018785953521729,-0.418964684009552,-0.9668052792549133,-0.0845947265625,0.000607212248723954,-2.3276119232177734,-5.184274196624756,0.7471346855163574,-25.400394439697266,-2.9837348461151123,0.0
56.9917778968811,356.07958984375,318.479736328125,207.06982421875,289.366455078125,190.74327087402344,68.77067565917969,89.94882202148438,26.963476181030273,28.2098388671875,25.938669204711914,27.711938858032227,32.26716232299805,33.16064453125,32.47099685668945,0.10576228052377701,-5.015902042388916,5.213771820068359,-11.423810005187988,0.8514067530632019,5.1274027824401855,-0.22642943263053894,-0.104736328125,0.233642578125,-1.0234788656234741,1.603271484375,-0.6325617432594299,-1.1037890911102295,-0.0765380859375,0.000303382781567052,-2.1356115341186523,-5.277126789093018,0.5571160316467285,-25.642812728881836,-2.491546630859375,0.0
57.49590516090393,356.0795593261719,317.5025939941406,204.4840545654297,289.7618713378906,178.67611694335938,67.43555450439453,89.94882202148438,26.962671279907227,28.211450576782227,25.955589294433594,27.700658798217773,32.28569412231445,33.18561935424805,32.44279861450195,-0.2722450792789459,-3.8898956775665283,4.335151672363281,-12.05390453338623,1.5794237852096558,5.4877705574035645,-0.21458101272583008,-0.0809682309627533,0.17724609375,-0.781494140625,1.3454830646514893,-0.5521150827407837,-0.982918381690979,-0.08056640625,0.0,-2.4138197898864746,-3.2034173011779785,1.0203444957733154,-25.81304359436035,-2.754629373550415,0.0
57.99988555908203,356.0795593261719,317.5025939941406,204.4840545654297,289.7618713378906,178.67611694335938,67.43555450439453,89.94882202148438,26.962671279907227,28.211450576782227,25.955589294433594,27.700658798217773,32.28569412231445,33.18561935424805,32.44279861450195,-0.2722450792789459,-3.8898956775665283,4.335151672363281,-12.05390453338623,1.5794237852096558,5.4877705574035645,-0.21458101272583008,-0.0809682309627533,0.17724609375,-0.781494140625,1.3454830646514893,-0.5521150827407837,-0.982918381690979,-0.08056640625,0.0,-2.4138197898864746,-3.2034173011779785,1.0203444957733154,-25.81304359436035,-2.754629373550415,0.0
58.50470566749573,356.0795593261719,317.5025939941406,204.4840545654297,289.7618713378906,178.67611694335938,67.43555450439453,89.94882202148438,26.962671279907227,28.211450576782227,25.955589294433594,27.700658798217773,32.28569412231445,33.18561935424805,32.44279861450195,-0.2722450792789459,-3.8898956775665283,4.335151672363281,-12.05390453338623,1.5794237852096558,5.4877705574035645,-0.21458101272583008,-0.0809682309627533,0.17724609375,-0.781494140625,1.3454830646514893,-0.5521150827407837,-0.982918381690979,-0.08056640625,0.0,-2.4138197898864746,-3.2034173011779785,1.0203444957733154,-25.81304359436035,-2.754629373550415,0.0
59.0090868473053,356.0795593261719,317.5025939941406,204.4840545654297,289.7618713378906,178.67611694335938,67.43555450439453,89.94882202148438,26.962671279907227,28.211450576782227,25.955589294433594,27.700658798217773,32.28569412231445,33.18561935424805,32.44279861450195,-0.2722450792789459,-3.8898956775665283,4.335151672363281,-12.05390453338623,1.5794237852096558,5.4877705574035645,-0.21458101272583008,-0.0809682309627533,0.17724609375,-0.781494140625,1.3454830646514893,-0.5521150827407837,-0.982918381690979,-0.08056640625,0.0,-2.4138197898864746,-3.2034173011779785,1.0203444957733154,-25.81304359436035,-2.754629373550415,0.0
59.513280153274536,356.0795593261719,317.5025939941406,204.4840545654297,289.7618713378906,178.67611694335938,67.43555450439453,89.94882202148438,26.962671279907227,28.211450576782227,25.955589294433594,27.700658798217773,32.28569412231445,33.18561935424805,32.44279861450195,-0.2722450792789459,-3.8898956775665283,4.335151672363281,-12.05390453338623,1.5794237852096558,5.4877705574035645,-0.21458101272583008,-0.0809682309627533,0.17724609375,-0.781494140625,1.3454830646514893,-0.5521150827407837,-0.982918381690979,-0.08056640625,0.0,-2.4138197898864746,-3.2034173011779785,1.0203444957733154,-25.81304359436035,-2.754629373550415,0.0
60.01657176017761,356.0795593261719,317.5025939941406,204.4840545654297,289.7618713378906,178.67611694335938,67.43555450439453,89.94882202148438,26.962671279907227,28.211450576782227,25.955589294433594,27.700658798217773,32.28569412231445,33.18561935424805,32.44279861450195,-0.2722450792789459,-3.8898956775665283,4.335151672363281,-12.05390453338623,1.5794237852096558,5.4877705574035645,-0.21458101272583008,-0.0809682309627533,0.17724609375,-0.781494140625,1.3454830646514893,-0.5521150827407837,-0.982918381690979,-0.08056640625,0.0,-2.4138197898864746,-3.2034173011779785,1.0203444957733154,-25.81304359436035,-2.754629373550415,0.0
60.52246904373169,356.0795593261719,317.5025939941406,204.4840545654297,289.7618713378906,178.67611694335938,67.43555450439453,89.94882202148438,26.962671279907227,28.211450576782227,25.955589294433594,27.700658798217773,32.28569412231445,33.18561935424805,32.44279861450195,-0.2722450792789459,-3.8898956775665283,4.335151672363281,-12.05390453338623,1.5794237852096558,5.4877705574035645,-0.21458101272583008,-0.0809682309627533,0.17724609375,-0.781494140625,1.3454830646514893,-0.5521150827407837,-0.982918381690979,-0.08056640625,0.0,-2.4138197898864746,-3.2034173011779785,1.0203444957733154,-25.81304359436035,-2.754629373550415,0.0
61.02682185173035,356.0795593261719,317.5025939941406,204.4840545654297,289.7618713378906,178.67611694335938,67.43555450439453,89.94882202148438,26.962671279907227,28.211450576782227,25.955589294433594,27.700658798217773,32.28569412231445,33.18561935424805,32.44279861450195,-0.2722450792789459,-3.8898956775665283,4.335151672363281,-12.05390453338623,1.5794237852096558,5.4877705574035645,-0.21458101272583008,-0.0809682309627533,0.17724609375,-0.781494140625,1.3454830646514893,-0.5521150827407837,-0.982918381690979,-0.08056640625,0.0,-2.4138197898864746,-3.2034173011779785,1.0203444957733154,-25.81304359436035,-2.754629373550415,0.0
61.53069806098938,356.0795593261719,317.5025939941406,204.4840545654297,289.7618713378906,178.67611694335938,67.43555450439453,89.94882202148438,26.962671279907227,28.211450576782227,25.955589294433594,27.700658798217773,32.28569412231445,33.18561935424805,32.44279861450195,-0.2722450792789459,-3.8898956775665283,4.335151672363281,-12.05390453338623,1.5794237852096558,5.4877705574035645,-0.21458101272583008,-0.0809682309627533,0.17724609375,-0.781494140625,1.3454830646514893,-0.5521150827407837,-0.982918381690979,-0.08056640625,0.0,-2.4138197898864746,-3.2034173011779785,1.0203444957733154,-25.81304359436035,-2.754629373550415,0.0
62.0345778465271,356.0795593261719,317.5025939941406,204.4840545654297,289.7618713378906,178.67611694335938,67.43555450439453,89.94882202148438,26.962671279907227,28.211450576782227,25.955589294433594,27.700658798217773,32.28569412231445,33.18561935424805,32.44279861450195,-0.2722450792789459,-3.8898956775665283,4.335151672363281,-12.05390453338623,1.5794237852096558,5.4877705574035645,-0.21458101272583008,-0.0809682309627533,0.17724609375,-0.781494140625,1.3454830646514893,-0.5521150827407837,-0.982918381690979,-0.08056640625,0.0,-2.4138197898864746,-3.2034173011779785,1.0203444957733154,-25.81304359436035,-2.754629373550415,0.0
62.53849411010742,356.0795593261719,317.5025939941406,204.4840545654297,289.7618713378906,178.67611694335938,67.43555450439453,89.94882202148438,26.962671279907227,28.211450576782227,25.955589294433594,27.700658798217773,32.28569412231445,33.18561935424805,32.44279861450195,-0.2722450792789459,-3.8898956775665283,4.335151672363281,-12.05390453338623,1.5794237852096558,5.4877705574035645,-0.21458101272583008,-0.0809682309627533,0.17724609375,-0.781494140625,1.3454830646514893,-0.5521150827407837,-0.982918381690979,-0.08056640625,0.0,-2.4138197898864746,-3.2034173011779785,1.0203444957733154,-25.81304359436035,-2.754629373550415,0.0
63.04214072227478,356.0795593261719,317.5025939941406,204.4840545654297,289.7618713378906,178.67611694335938,67.43555450439453,89.94882202148438,26.962671279907227,28.211450576782227,25.955589294433594,27.700658798217773,32.28569412231445,33.18561935424805,32.44279861450195,-0.2722450792789459,-3.8898956775665283,4.335151672363281,-12.05390453338623,1.5794237852096558,5.4877705574035645,-0.21458101272583008,-0.0809682309627533,0.17724609375,-0.781494140625,1.3454830646514893,-0.5521150827407837,-0.982918381690979,-0.08056640625,0.0,-2.4138197898864746,-3.2034173011779785,1.0203444957733154,-25.81304359436035,-2.754629373550415,0.0
63.546473026275635,356.0795593261719,317.5025939941406,204.4840545654297,289.7618713378906,178.67611694335938,67.43555450439453,89.94882202148438,26.962671279907227,28.211450576782227,25.955589294433594,27.700658798217773,32.28569412231445,33.18561935424805,32.44279861450195,-0.2722450792789459,-3.8898956775665283,4.335151672363281,-12.05390453338623,1.5794237852096558,5.4877705574035645,-0.21458101272583008,-0.0809682309627533,0.17724609375,-0.781494140625,1.3454830646514893,-0.5521150827407837,-0.982918381690979,-0.08056640625,0.0,-2.4138197898864746,-3.2034173011779785,1.0203444957733154,-25.81304359436035,-2.754629373550415,0.0
64.05030608177185,355.90179443359375,318.542724609375,204.4959259033203,58.916168212890625,177.41070556640625,54.394439697265625,89.94876861572266,26.990869522094727,28.2501220703125,25.971704483032227,27.73046875,32.31550216674805,33.19287109375,32.5,-0.3407512903213501,-27.22100067138672,-3.4402849674224854,13.494627952575684,0.1379530131816864,-2.965869188308716,-0.28341031074523926,-0.4592991769313812,3.214690685272217,0.6445816159248352,-1.8617117404937744,0.04449424892663956,0.5921767950057983,-0.072509765625,-0.010411149822175503,9.563825607299805,0.2630825638771057,-16.494434356689453,1.278749704360962,8.620784759521484,0.0
64.55476188659668,355.897216796875,323.26177978515625,204.64678955078125,46.71923065185547,178.28782653808594,58.727272033691406,89.94876861572266,26.980396270751953,28.265430450439453,25.969284057617188,27.753833770751953,32.332420349121094,33.214622497558594,32.48711013793945,0.203979030251503,-31.73214340209961,-3.2460756301879883,15.159764289855957,0.06685095280408859,-2.7818310260772705,-0.2979857623577118,-0.43535688519477844,3.8108677864074707,0.7412546873092651,-2.18483567237854,-0.08469058573246002,0.6566285490989685,-0.07664402574300766,0.0,8.913856506347656,0.23637545108795166,-24.729761123657227,1.7528928518295288,8.078182220458984,0.0
65.05822253227234,355.89141845703125,327.90087890625,204.79693603515625,34.15072250366211,179.1337432861328,62.98221206665039,89.94882202148438,27.000537872314453,28.296045303344727,25.982980728149414,27.764307022094727,32.3267822265625,33.234764099121094,32.498390197753906,0.03362907096743584,-23.559528350830078,-2.0044918060302734,10.685309410095215,-0.10808803886175156,-0.47761109471321106,-0.25688260793685913,-0.30657610297203064,2.7082297801971436,0.5322872996330261,-1.57918381690979,0.0127386674284935,0.2583155632019043,-0.0684814453125,-0.005683798808604479,9.913902282714844,0.4095819294452667,-25.751140594482422,1.700574278831482,8.403166770935059,0.0006063014734536409
65.56312465667725,355.88800048828125,332.53668212890625,204.94683837890625,21.552932739257812,179.9801788330078,67.23905944824219,89.94882202148438,26.982006072998047,28.34115982055664,25.977340698242188,27.771556854248047,32.30180740356445,33.22509765625,32.49677658081055,-0.02523808181285858,-18.878368377685547,-1.0663392543792725,7.042491436004639,-0.0690586045384407,1.410918116569519,-0.2725236713886261,-0.298095703125,2.2318203449249268,0.443115234375,-1.1926276683807373,0.1613340973854065,-0.1692374050617218,-0.0845947265625,-0.009411883540451527,8.965616226196289,0.3427267074584961,-24.57500648498535,1.6954209804534912,8.898381233215332,0.0
66.06700086593628,355.88360595703125,337.1954345703125,205.0908660888672,8.986477851867676,180.82785034179688,71.48789978027344,89.94882202148438,26.988452911376953,28.357275009155273,25.986204147338867,27.775585174560547,32.317115783691406,33.243629455566406,32.493553161621094,0.138217493891716,-10.838356971740723,-0.41655316948890686,2.1523635387420654,-0.30957406759262085,3.239046812057495,-0.26645413041114807,-0.29048630595207214,1.4502177238464355,0.46756288409233093,-0.6699134111404419,0.14926543831825256,-0.43104907870292664,-0.08066704869270325,-0.024035565555095673,9.192414283752441,0.4410502016544342,-24.952062606811523,2.1046605110168457,9.176939010620117,0.0
66.57028150558472,355.8803405761719,341.8016052246094,205.23838806152344,356.3858337402344,181.6787872314453,75.760009765625,89.94882202148438,27.002954483032227,28.38144302368164,25.974924087524414,27.789281845092773,32.314697265625,33.219459533691406,32.49919509887695,0.11816176027059555,-7.314586162567139,-0.17332099378108978,-0.9680296778678894,-0.46255728602409363,4.268595218658447,-0.27323731780052185,-0.33071503043174744,0.9347092509269714,0.491455078125,-0.2358546257019043,0.1329955905675888,-0.378662109375,-0.07295598834753036,-0.00454730587080121,9.674904823303223,0.3725290298461914,-26.14971351623535,1.826102614402771,7.569003105163574,0.0
67.07441210746765,355.8768310546875,346.4389953613281,205.38687133789062,343.785400390625,182.535400390625,80.01309967041016,89.94882202148438,27.019872665405273,28.399168014526367,25.986204147338867,27.798145294189453,32.30341720581055,33.271018981933594,32.49919509887695,0.08335750550031662,-1.1594135761260986,0.18012796342372894,-5.245026588439941,-0.5864362716674805,5.053499698638916,-0.26603007316589355,-0.4190227687358856,0.4276854693889618,0.4673546254634857,0.05865322798490524,0.1409912109375,-0.475341796875,-0.0765380859375,-0.00516531290486455,9.285266876220703,0.32690221071243286,-24.91546630859375,1.4856427907943726,7.899940490722656,0.0
67.578786611557,355.8701477050781,351.0749206542969,205.53436279296875,331.196044921875,183.3873291015625,84.26716613769531,89.94882202148438,26.991674423217773,28.40158462524414,25.997482299804688,27.796533584594727,32.308250427246094,33.22509765625,32.493553161621094,-0.29228299856185913,3.9873571395874023,-0.041006918996572495,-8.233907699584961,-1.089804768562317,4.856225967407227,-0.26316210627555847,-0.201416015625,-0.056969054043293,0.5076322555541992,0.30657610297203064,0.12896917760372162,-0.4471435546875,-0.07262157648801804,-0.0021252641454339027,9.214020729064941,0.20112305879592896,-24.971538543701172,2.1046605110168457,8.304689407348633,0.0
68.08239459991455,355.8676452636719,355.71624755859375,205.6825408935547,318.99298095703125,184.24366760253906,88.53802490234375,89.94882202148438,27.006175994873047,28.400781631469727,26.00070571899414,27.795726776123047,32.34772872924805,33.21784591674805,32.51128005981445,-0.10238776355981827,8.514483451843262,-0.07789221405982971,-11.058892250061035,-1.3189527988433838,4.541599750518799,-0.2616601288318634,-0.2820974886417389,-0.38747331500053406,0.5640223622322083,0.5964091420173645,0.153076171875,-0.5679931640625,-0.07262157648801804,-0.006972467061132193,9.080559730529785,0.188944473862648,-18.291976928710938,1.7177743911743164,8.781147003173828,0.0
68.58805871009827,355.864013671875,358.1633605957031,205.78956604003906,315.81060791015625,184.8531494140625,91.52668762207031,89.94882202148438,27.008594512939453,28.390304565429688,25.991037368774414,27.769140243530273,32.30583572387695,33.24040603637695,32.518531799316406,-0.009461778216063976,10.448968887329102,-0.12242452055215836,-12.085193634033203,-1.302369236946106,4.098664283752441,-0.2843349874019623,-0.32236629724502563,-1.3454830646514893,0.39485761523246765,1.3615961074829102,-0.02450331673026085,-0.797607421875,-0.07696095108985901,-0.00424095056951046,-0.10585878789424896,-0.0008679259335622191,0.08775723725557327,-0.005543179344385862,-0.03027966618537903,0.0
69.09152364730835,355.8639221191406,358.14471435546875,205.7895965576172,315.82708740234375,184.84988403320312,91.51344299316406,89.94882202148438,26.994897842407227,28.390304565429688,26.005538940429688,27.783641815185547,32.292137145996094,33.246849060058594,32.50322341918945,0.4874935746192932,8.432520866394043,0.3021039366722107,-11.426437377929688,-0.94493168592453,4.017771244049072,-0.25710782408714294,-0.29820457100868225,-1.103759765625,0.36263832449913025,1.232666015625,-0.056969054043293,-0.7774762511253357,-0.08469058573246002,-0.0012153555871918797,-0.0986764132976532,0.0006063014734536409,0.1897859424352646,0.003932822495698929,-0.09487880766391754,0.0
69.59527587890625,355.8639221191406,358.14471435546875,205.7895965576172,315.82708740234375,184.84988403320312,91.51344299316406,89.94882202148438,26.994897842407227,28.390304565429688,26.005538940429688,27.783641815185547,32.292137145996094,33.246849060058594,32.50322341918945,0.4874935746192932,8.432520866394043,0.3021039366722107,-11.426437377929688,-0.94493168592453,4.017771244049072,-0.25710782408714294,-0.29820457100868225,-1.103759765625,0.36263832449913025,1.232666015625,-0.056969054043293,-0.7774762511253357,-0.08469058573246002,-0.0012153555871918797,-0.0986764132976532,0.0006063014734536409,0.1897859424352646,0.003932822495698929,-0.09487880766391754,0.0
70.09880924224854,355.8639221191406,358.14471435546875,205.7895965576172,315.82708740234375,184.84988403320312,91.51344299316406,89.94882202148438,26.994897842407227,28.390304565429688,26.005538940429688,27.783641815185547,32.292137145996094,33.246849060058594,32.50322341918945,0.4874935746192932,8.432520866394043,0.3021039366722107,-11.426437377929688,-0.94493168592453,4.017771244049072,-0.25710782408714294,-0.29820457100868225,-1.103759765625,0.36263832449913025,1.232666015625,-0.056969054043293,-0.7774762511253357,-0.08469058573246002,-0.0012153555871918797,-0.0986764132976532,0.0006063014734536409,0.1897859424352646,0.003932822495698929,-0.09487880766391754,0.0
70.60337400436401,355.8639221191406,358.14471435546875,205.7895965576172,315.82708740234375,184.84988403320312,91.51344299316406,89.94882202148438,26.994897842407227,28.390304565429688,26.005538940429688,27.783641815185547,32.292137145996094,33.246849060058594,32.50322341918945,0.4874935746192932,8.432520866394043,0.3021039366722107,-11.426437377929688,-0.94493168592453,4.017771244049072,-0.25710782408714294,-0.29820457100868225,-1.103759765625,0.36263832449913025,1.232666015625,-0.056969054043293,-0.7774762511253357,-0.08469058573246002,-0.0012153555871918797,-0.0986764132976532,0.0006063014734536409,0.1897859424352646,0.003932822495698929,-0.09487880766391754,0.0
71.10720014572144,355.8639221191406,358.14471435546875,205.7895965576172,315.82708740234375,184.84988403320312,91.51344299316406,89.94882202148438,26.994897842407227,28.390304565429688,26.005538940429688,27.783641815185547,32.292137145996094,33.246849060058594,32.50322341918945,0.4874935746192932,8.432520866394043,0.3021039366722107,-11.426437377929688,-0.94493168592453,4.017771244049072,-0.25710782408714294,-0.29820457100868225,-1.103759765625,0.36263832449913025,1.232666015625,-0.056969054043293,-0.7774762511253357,-0.08469058573246002,-0.0012153555871918797,-0.0986764132976532,0.0006063014734536409,0.1897859424352646,0.003932822495698929,-0.09487880766391754,0.0
71.61126399040222,355.8639221191406,358.14471435546875,205.7895965576172,315.82708740234375,184.84988403320312,91.51344299316406,89.94882202148438,26.994897842407227,28.390304565429688,26.005538940429688,27.783641815185547,32.292137145996094,33.246849060058594,32.50322341918945,0.4874935746192932,8.432520866394043,0.3021039366722107,-11.426437377929688,-0.94493168592453,4.017771244049072,-0.25710782408714294,-0.29820457100868225,-1.103759765625,0.36263832449913025,1.232666015625,-0.056969054043293,-0.7774762511253357,-0.08469058573246002,-0.0012153555871918797,-0.0986764132976532,0.0006063014734536409,0.1897859424352646,0.003932822495698929,-0.09487880766391754,0.0
72.11514639854431,355.8639221191406,358.14471435546875,205.7895965576172,315.82708740234375,184.84988403320312,91.51344299316406,89.94882202148438,26.994897842407227,28.390304565429688,26.005538940429688,27.783641815185547,32.292137145996094,33.246849060058594,32.50322341918945,0.4874935746192932,8.432520866394043,0.3021039366722107,-11.426437377929688,-0.94493168592453,4.017771244049072,-0.25710782408714294,-0.29820457100868225,-1.103759765625,0.36263832449913025,1.232666015625,-0.056969054043293,-0.7774762511253357,-0.08469058573246002,-0.0012153555871918797,-0.0986764132976532,0.0006063014734536409,0.1897859424352646,0.003932822495698929,-0.09487880766391754,0.0
72.61903715133667,355.8639221191406,358.14471435546875,205.7895965576172,315.82708740234375,184.84988403320312,91.51344299316406,89.94882202148438,26.994897842407227,28.390304565429688,26.005538940429688,27.783641815185547,32.292137145996094,33.246849060058594,32.50322341918945,0.4874935746192932,8.432520866394043,0.3021039366722107,-11.426437377929688,-0.94493168592453,4.017771244049072,-0.25710782408714294,-0.29820457100868225,-1.103759765625,0.36263832449913025,1.232666015625,-0.056969054043293,-0.7774762511253357,-0.08469058573246002,-0.0012153555871918797,-0.0986764132976532,0.0006063014734536409,0.1897859424352646,0.003932822495698929,-0.09487880766391754,0.0
73.12297487258911,355.8639221191406,358.14471435546875,205.7895965576172,315.82708740234375,184.84988403320312,91.51344299316406,89.94882202148438,26.994897842407227,28.390304565429688,26.005538940429688,27.783641815185547,32.292137145996094,33.246849060058594,32.50322341918945,0.4874935746192932,8.432520866394043,0.3021039366722107,-11.426437377929688,-0.94493168592453,4.017771244049072,-0.25710782408714294,-0.29820457100868225,-1.103759765625,0.36263832449913025,1.232666015625,-0.056969054043293,-0.7774762511253357,-0.08469058573246002,-0.0012153555871918797,-0.0986764132976532,0.0006063014734536409,0.1897859424352646,0.003932822495698929,-0.09487880766391754,0.0
73.62646627426147,355.8639221191406,358.14471435546875,205.7895965576172,315.82708740234375,184.84988403320312,91.51344299316406,89.94882202148438,26.994897842407227,28.390304565429688,26.005538940429688,27.783641815185547,32.292137145996094,33.246849060058594,32.50322341918945,0.4874935746192932,8.432520866394043,0.3021039366722107,-11.426437377929688,-0.94493168592453,4.017771244049072,-0.25710782408714294,-0.29820457100868225,-1.103759765625,0.36263832449913025,1.232666015625,-0.056969054043293,-0.7774762511253357,-0.08469058573246002,-0.0012153555871918797,-0.0986764132976532,0.0006063014734536409,0.1897859424352646,0.003932822495698929,-0.09487880766391754,0.0
74.13153600692749,355.8639221191406,358.14471435546875,205.7895965576172,315.82708740234375,184.84988403320312,91.51344299316406,89.94882202148438,26.994897842407227,28.390304565429688,26.005538940429688,27.783641815185547,32.292137145996094,33.246849060058594,32.50322341918945,0.4874935746192932,8.432520866394043,0.3021039366722107,-11.426437377929688,-0.94493168592453,4.017771244049072,-0.25710782408714294,-0.29820457100868225,-1.103759765625,0.36263832449913025,1.232666015625,-0.056969054043293,-0.7774762511253357,-0.08469058573246002,-0.0012153555871918797,-0.0986764132976532,0.0006063014734536409,0.1897859424352646,0.003932822495698929,-0.09487880766391754,0.0
74.6357192993164,355.8639221191406,358.14471435546875,205.7895965576172,315.82708740234375,184.84988403320312,91.51344299316406,89.94882202148438,26.994897842407227,28.390304565429688,26.005538940429688,27.783641815185547,32.292137145996094,33.246849060058594,32.50322341918945,0.4874935746192932,8.432520866394043,0.3021039366722107,-11.426437377929688,-0.94493168592453,4.017771244049072,-0.25710782408714294,-0.29820457100868225,-1.103759765625,0.36263832449913025,1.232666015625,-0.056969054043293,-0.7774762511253357,-0.08469058573246002,-0.0012153555871918797,-0.0986764132976532,0.0006063014734536409,0.1897859424352646,0.003932822495698929,-0.09487880766391754,0.0
75.13931846618652,359.6087341308594,15.087549209594727,182.25196838378906,234.95904541015625,344.3121337890625,20.39573097229004,89.94876861572266,27.039209365844727,28.366941452026367,26.040185928344727,27.805395126342773,32.37189865112305,33.297607421875,32.540283203125,-0.8876816630363464,17.029924392700195,0.9313387274742126,-11.503852844238281,-1.843794822692871,-4.269826412200928,-0.36973682045936584,0.5319823622703552,-1.3374265432357788,-0.45145949721336365,0.6767578125,0.5599510073661804,0.38271164894104004,-0.072509765625,0.4952142536640167,2.8474819660186768,-3.760533332824707,-12.891045570373535,24.01789093017578,-10.651778221130371,0.0
75.64385890960693,359.90216064453125,16.42949867248535,180.3854522705078,228.74278259277344,356.92724609375,14.785502433776855,89.94876861572266,27.043237686157227,28.368555068969727,26.026487350463867,27.794921875,32.337257385253906,33.275856018066406,32.55317306518555,-0.8328680396080017,16.26815414428711,1.295310378074646,-9.71456241607666,-1.410785436630249,-3.74572491645813,-0.2881533205509186,0.515625,-1.361572265625,-0.47561484575271606,0.5883554220199585,0.528462827205658,0.3947959542274475,-0.072509765625,0.7758706212043762,2.801055669784546,-3.548889636993408,-7.397263050079346,24.316452026367188,-10.894713401794434,0.0
76.14798021316528,358.4970397949219,16.74005699157715,178.5083465576172,228.27149963378906,359.9964294433594,13.25988483428955,89.94876861572266,27.040821075439453,28.368553161621094,26.028100967407227,27.776391983032227,32.35498046875,33.28632736206055,32.55156326293945,1.1397836208343506,16.52701759338379,2.1223840713500977,-9.290534973144531,-1.117515206336975,-3.234797477722168,-0.32412096858024597,-0.7496573328971863,-1.909491777420044,-0.6044628620147705,1.07958984375,-0.07262157648801804,0.6123179793357849,-0.08056640625,-12.039896965026855,0.0012690277071669698,-12.588859558105469,0.04247923195362091,-0.02510868012905121,0.002835829509422183,0.0
