Time (s),Pos_0,Pos_1,Pos_2,Pos_3,Pos_4,Pos_5,Pos_6,Temp_0,Temp_1,Temp_2,Temp_3,Temp_4,Temp_5,Temp_6,Torque_0,Torque_1,Torque_2,Torque_3,Torque_4,Torque_5,Torque_6,Current_0,Current_1,Current_2,Current_3,Current_4,Current_5,Current_6,Velocity_0,Velocity_1,Velocity_2,Velocity_3,Velocity_4,Velocity_5,Velocity_6
0.0,0.0015038455603644252,359.998779296875,359.9998779296875,359.9990539550781,359.9996032714844,0.0007086583063937724,359.9991760253906,33.5916748046875,33.60456466674805,31.645191192626953,38.07036209106445,39.527000427246094,42.52971267700195,41.936744689941406,-0.2663504183292389,-0.08312734961509705,-0.31465068459510803,0.13708366453647614,-0.2911970913410187,0.18216344714164734,-0.739015519618988,-0.27392578125,0.217529296875,0.011393810622394085,0.16938117146492004,0.04449424892663956,-0.07295598834753036,0.09273889660835266,0.00030383889679796994,0.0,0.0,0.0,0.0,0.0,0.0
0.5046591758728027,0.0015038455603644252,359.998779296875,359.9998779296875,359.9990539550781,359.9996032714844,0.0007086583063937724,359.9991760253906,33.5916748046875,33.60456466674805,31.645191192626953,38.07036209106445,39.527000427246094,42.52971267700195,41.936744689941406,-0.2663504183292389,-0.08312734961509705,-0.31465068459510803,0.13708366453647614,-0.2911970913410187,0.18216344714164734,-0.739015519618988,-0.27392578125,0.217529296875,0.011393810622394085,0.16938117146492004,0.04449424892663956,-0.07295598834753036,0.09273889660835266,0.00030383889679796994,0.0,0.0,0.0,0.0,0.0,0.0
1.0122590065002441,0.0015038455603644252,359.998779296875,359.9998779296875,359.9990539550781,359.9996032714844,0.0007086583063937724,359.9991760253906,33.5916748046875,33.60456466674805,31.645191192626953,38.07036209106445,39.527000427246094,42.52971267700195,41.936744689941406,-0.2663504183292389,-0.08312734961509705,-0.31465068459510803,0.13708366453647614,-0.2911970913410187,0.18216344714164734,-0.739015519618988,-0.27392578125,0.217529296875,0.011393810622394085,0.16938117146492004,0.04449424892663956,-0.07295598834753036,0.09273889660835266,0.00030383889679796994,0.0,0.0,0.0,0.0,0.0,0.0
1.516730546951294,0.0015038455603644252,359.9986877441406,359.9998779296875,6.402072906494141,359.9996032714844,0.0008721757330931723,359.9991760253906,33.60053634643555,33.55622482299805,31.665332794189453,38.02766036987305,39.5133056640625,42.520042419433594,41.95366287231445,-0.18345069885253906,-0.10237456113100052,-0.2848687767982483,-0.47541454434394836,-0.3157925307750702,0.22455736994743347,-0.7562904953956604,-0.2740442156791687,0.2502751052379608,0.008056640625,0.396088570356369,0.04833984375,-0.08469058573246002,0.08469058573246002,0.0,0.0021252641454339027,0.0,25.983272552490234,0.0,0.0010626320727169514,0.0
2.0227272510528564,0.001451226300559938,0.008102908730506897,359.9998474121094,19.156089782714844,359.9996643066406,0.00245284428820014,359.9992370605469,33.599727630615234,33.56025314331055,31.64841079711914,38.034908294677734,39.533447265625,42.536964416503906,41.960914611816406,-0.2900843918323517,4.846521854400635,-0.12704089283943176,4.170679092407227,-0.29879888892173767,1.9471561908721924,-0.7152909636497498,-0.2659911811351776,-0.7009740471839905,0.025477334856987,0.018015196546912193,0.03647799417376518,-0.2618718147277832,0.08056640625,0.0,-0.020357206463813782,0.0,24.63690948486328,0.0,-0.005464964546263218,0.0
2.529320478439331,0.0014249166706576943,0.008786958642303944,359.9998474121094,30.942384719848633,359.9997253417969,0.008775519207119942,359.9992370605469,33.60053634643555,33.539306640625,31.654050827026367,38.02363204956055,39.517333984375,42.532127380371094,41.948020935058594,-0.2458118051290512,10.658243179321289,0.0694275051355362,9.519524574279785,-0.2822120487689972,3.7797505855560303,-0.6737311482429504,-0.2578125,-1.119873046875,0.018015196546912193,-0.6208319664001465,0.0281982421875,-0.8096923828125,0.0765380859375,0.0,-0.011374706402420998,0.0003036091511603445,15.320691108703613,0.0,-0.02758321911096573,0.0
3.035569667816162,0.0014249166706576943,0.007681954186409712,359.9998474121094,33.229034423828125,359.9997253417969,0.007249355781823397,359.9992370605469,33.59489822387695,33.5433349609375,31.653244018554688,38.0067138671875,39.5294189453125,42.51923751831055,41.972190856933594,-0.1943388134241104,9.945320129394531,0.05403849110007286,10.436810493469238,-0.28299641609191895,3.638547897338867,-0.6862611770629883,-0.25793835520744324,-1.2890625,0.03418143093585968,-1.216552734375,0.0322265625,-0.8217872381210327,0.07664402574300766,0.0,-0.003646066877990961,0.0,-0.10184407979249954,0.0,-0.0006063014734536409,0.0
3.5403695106506348,0.0014249166706576943,0.007497786544263363,359.9998474121094,33.156578063964844,359.9997253417969,0.007412873208522797,359.9992370605469,33.610206604003906,33.561058044433594,31.652441024780273,38.00187683105469,39.52216720581055,42.499900817871094,41.928688049316406,-0.238222137093544,10.975976943969727,0.03523380309343338,11.188422203063965,-0.28282031416893005,3.8834941387176514,-0.6621512174606323,-0.24183346331119537,-1.3454830646514893,0.018015196546912193,-1.546875,0.0322265625,-0.8096923828125,0.07262157648801804,0.0,-0.00045473058708012104,0.0,-2.1025280952453613,0.0,0.0006063014734536409,0.0
4.045598268508911,0.001451226300559938,359.9969787597656,359.9998474121094,25.300519943237305,359.9996643066406,359.9981994628906,359.9992370605469,33.59247970581055,33.56669998168945,31.645187377929688,38.036521911621094,39.523780822753906,42.568382263183594,41.940773010253906,-0.1789773553609848,8.073909759521484,0.09123469889163971,9.477499008178711,-0.2699238359928131,2.916240930557251,-0.6872786283493042,-0.25793835520744324,-0.966796875,0.018015196546912193,-1.4183349609375,0.03647799417376518,-0.3988240659236908,0.0765380859375,0.00030315073672682047,-0.010058529675006866,0.0,-25.029010772705078,-0.0006067595677450299,0.0421212799847126,0.0
4.552639007568359,0.001451226300559938,359.997802734375,359.9998779296875,15.379735946655273,359.9996643066406,0.0014717397280037403,359.9992370605469,33.60456466674805,33.561058044433594,31.65646743774414,38.01799011230469,39.535865783691406,42.544212341308594,41.93915939331055,-0.31834614276885986,4.066375255584717,-0.13526064157485962,5.4703755378723145,-0.2975825369358063,1.6178866624832153,-0.7072433233261108,-0.25793835520744324,-0.281982421875,0.02278762124478817,-0.8943233489990234,0.04503798857331276,-0.1571044921875,0.072509765625,0.0,0.0022650915198028088,0.0,-8.046065330505371,0.0,0.002122076228260994,0.0
5.0599493980407715,0.001451226300559938,0.0004994236514903605,359.9998779296875,14.827180862426758,359.9996643066406,0.0019077862380072474,359.9992370605469,33.60456466674805,33.5675048828125,31.651634216308594,38.008323669433594,39.53022384643555,42.546630859375,41.936744689941406,-0.2976412773132324,6.077845096588135,-0.05647548660635948,5.7899017333984375,-0.2998710870742798,2.091456174850464,-0.7079725861549377,-0.265869140625,-0.14591197669506073,0.024169921875,-0.33837890625,0.0362548828125,-0.18145336210727692,0.072509765625,0.0,0.01287299394607544,0.0,0.05854600667953491,0.0,0.00440228870138526,0.0
5.566018581390381,0.001451226300559938,0.008392314426600933,359.9998474121094,13.32895278930664,359.9996643066406,0.0017442688113078475,359.9992370605469,33.606178283691406,33.571533203125,31.66049575805664,38.012351989746094,39.531028747558594,42.52729415893555,41.912574768066406,-0.2972955107688904,5.289482116699219,-0.11070171743631363,6.261579513549805,-0.2888875901699066,1.905211329460144,-0.7233721017837524,-0.2740442156791687,-0.6445816159248352,0.0332183800637722,-0.9990234375,0.040283203125,-0.2054443359375,0.0765380859375,0.000303382781567052,-0.012212804518640041,0.0,-12.52241039276123,0.0,-0.0044023324735462666,0.0
6.075565338134766,0.0014775359304621816,359.9910888671875,359.9998779296875,4.704838275909424,359.9996032714844,0.0004906350513920188,359.9991760253906,33.6077880859375,33.57233810424805,31.642772674560547,38.01396179199219,39.54150390625,42.524070739746094,41.956886291503906,-0.2840139865875244,1.7344496250152588,-0.2565367519855499,2.5849337577819824,-0.3090778887271881,0.7285374402999878,-0.716148853302002,-0.27392578125,0.2743992805480957,0.011393810622394085,-0.451171875,0.04449424892663956,-0.04449424892663956,0.0854535773396492,-0.00030383889679796994,0.027804074808955193,-0.000303606124361977,-8.356740951538086,0.0,0.008665965870022774,0.0
6.5841639041900635,0.0015038455603644252,359.999267578125,359.9998779296875,4.119764804840088,359.9996032714844,0.00010909435513895005,359.9991760253906,33.606178283691406,33.57797622680664,31.65646743774414,37.99382400512695,39.50605392456055,42.52729415893555,41.952857971191406,-0.19984214007854462,-0.6795134544372559,-0.3050578534603119,0.5833470821380615,-0.2941672205924988,0.2260272204875946,-0.7198017239570618,-0.2820974886417389,0.088623046875,0.008056640625,0.18547779321670532,0.0382160022854805,-0.04048411548137665,0.08066704869270325,0.0003040689625777304,-0.006787030957639217,0.0,0.13409565389156342,-0.000607218302320689,-0.004857746418565512,-0.0006063014734536409
7.091670036315918,0.0015038455603644252,359.99896240234375,359.9998779296875,4.533904552459717,359.9996032714844,5.458854138851166e-05,359.9991760253906,33.60214614868164,33.5594482421875,31.662109375,38.000267028808594,39.5374755859375,42.536155700683594,41.948020935058594,-0.15760833024978638,-1.230270504951477,-0.299629271030426,-0.44877389073371887,-0.30138012766838074,0.08110375702381134,-0.7312475442886353,-0.2583155632019043,0.0649547129869461,0.018015196546912193,0.4592991769313812,0.04048411548137665,-0.0443115234375,0.08871454745531082,0.00030337978387251496,-0.021343225613236427,0.0,6.4377851486206055,-0.0006063014734536409,-0.005456713028252125,0.0
7.59717869758606,0.0014249166706576943,0.013049120083451271,359.9998474121094,14.01484489440918,359.9996643066406,0.010519704781472683,359.9992370605469,33.601341247558594,33.55863952636719,31.655662536621094,38.01396179199219,39.522972106933594,42.53857421875,41.96977615356445,-0.36020874977111816,7.994480133056641,-0.05707894265651703,4.849287509918213,-0.2866952121257782,2.2012500762939453,-0.7108237743377686,-0.265869140625,-0.49171918630599976,0.011393810622394085,-0.10596856474876404,0.04108096659183502,-0.38271164894104004,0.07696095108985901,-0.0004547261050902307,0.07210669666528702,-0.00030383889679796994,24.948047637939453,0.0,-0.057215988636016846,0.000607218302320689
8.103632688522339,0.0014249166706576943,0.00868172012269497,359.9998474121094,26.672937393188477,359.9997253417969,0.010083658620715141,359.9992370605469,33.60698318481445,33.55863952636719,31.643577575683594,38.010738372802734,39.543113708496094,42.54582595825195,41.9705810546875,-0.3278714120388031,10.734467506408691,0.005526294000446796,7.8134446144104,-0.2840314507484436,3.1373393535614014,-0.6649773120880127,-0.25793835520744324,-0.9426614046096802,0.024169921875,-0.2820974886417389,0.0281982421875,-0.5236971378326416,0.08066704869270325,-0.00030383586999960244,0.012761233374476433,0.0,24.63690948486328,0.0006063014734536409,-0.10455473512411118,0.0
8.61011528968811,0.0014249166706576943,0.008971125818789005,359.99981689453125,39.286434173583984,359.9997253417969,0.008721012622117996,359.9992370605469,33.595703125,33.553001403808594,31.653247833251953,38.008323669433594,39.53022384643555,42.52729415893555,41.95527267456055,-0.2667495608329773,14.436492919921875,0.07168103754520416,12.431320190429688,-0.26695072650909424,4.971904754638672,-0.6549983620643616,-0.2740442156791687,-1.2165794372558594,0.018015196546912193,-0.7413860559463501,0.0322265625,-0.7049675583839417,0.07262157648801804,0.0,0.021927181631326675,-0.0003040689625777304,24.869041442871094,0.0,0.02591678500175476,0.0
9.116330862045288,0.0013986070407554507,0.009260532446205616,359.99981689453125,51.94823455810547,359.9997863769531,0.008448483422398567,359.9992370605469,33.611812591552734,33.55622482299805,31.658885955810547,38.002681732177734,39.533447265625,42.495872497558594,41.95527267456055,-0.36507952213287354,16.14870262145996,0.07236163318157196,15.105828285217285,-0.2305532842874527,5.828700065612793,-0.6137257814407349,-0.24988576769828796,-1.418060302734375,0.0322265625,-1.0162869691848755,0.03647799417376518,-0.8338720202445984,0.07664402574300766,-0.00030337978387251496,0.0071294247172772884,-0.00045473058708012104,24.97736930847168,0.0006076777935959399,0.01455722376704216,0.0
9.622556209564209,0.0013986070407554507,0.009313151240348816,359.99981689453125,64.59535217285156,359.9997863769531,0.008284966461360455,359.9992370605469,33.61262130737305,33.563472747802734,31.65243911743164,38.018798828125,39.523780822753906,42.58369064331055,41.95930099487305,-0.27906274795532227,16.66586685180664,0.14396846294403076,15.042224884033203,-0.28973063826560974,5.672338962554932,-0.6344776153564453,-0.249755859375,-1.5630090236663818,0.02278762124478817,-1.039306640625,0.02932661399245262,-0.9104093313217163,0.08066704869270325,-0.00030337978387251496,-0.00030383889679796994,0.0,25.74740982055664,0.0,0.0,0.0
10.12952470779419,0.0013986070407554507,0.010602323338389397,359.99981689453125,75.59673309326172,359.9997863769531,0.009375082328915596,359.9992370605469,33.60698318481445,33.55622482299805,31.66855239868164,37.997047424316406,39.506858825683594,42.540184020996094,41.95930099487305,-0.46604105830192566,20.307266235351562,0.09206026792526245,18.48784637451172,-0.31893202662467957,6.864084720611572,-0.5834168195724487,-0.2502751052379608,-1.72412109375,0.018015196546912193,-1.46630859375,0.025477334856987,-1.0755690336227417,0.08066704869270325,-0.00030383889679796994,0.0018243956146761775,-0.00030383889679796994,12.040362358093262,0.0,0.004920285660773516,0.0
10.635813474655151,0.0013986070407554507,0.009444699622690678,359.99981689453125,76.90016174316406,359.9997863769531,0.008939036168158054,359.9992370605469,33.609397888183594,33.577980041503906,31.654857635498047,37.97529220581055,39.531837463378906,42.52165603637695,41.964942932128906,-0.29830402135849,17.143779754638672,0.10571926832199097,17.348339080810547,-0.32318639755249023,6.097015380859375,-0.6159892678260803,-0.25793835520744324,-1.748291015625,0.02278762124478817,-2.0544593334198,0.0166091900318861,-1.0191730260849,0.07664402574300766,0.0,-0.004399006720632315,0.0,-0.26152175664901733,0.0,-0.005460890009999275,0.0
11.143580198287964,0.0013986070407554507,0.010181369259953499,359.99981689453125,76.72846221923828,359.9997863769531,0.010192669928073883,359.9992370605469,33.613426208496094,33.5634765625,31.635520935058594,37.978515625,39.559226989746094,42.54340744018555,41.9464111328125,-0.3182453215122223,20.89607048034668,0.24186064302921295,20.04521942138672,-0.2988074719905853,6.899839401245117,-0.6005715727806091,-0.2659911811351776,-1.7805358171463013,0.0332183800637722,-2.4412152767181396,0.0281982421875,-1.0513993501663208,0.08469058573246002,-0.00030337978387251496,0.0071294247172772884,0.0,-4.48333215713501,0.0,0.009253083728253841,0.0
11.649758100509644,0.0014249166706576943,0.008918507024645805,359.9998474121094,68.19674682617188,359.9997253417969,0.008230460807681084,359.9992370605469,33.60053634643555,33.581199645996094,31.654050827026367,38.000267028808594,39.53264236450195,42.524070739746094,41.980247497558594,0.1429385095834732,16.457460403442383,0.5444061160087585,18.884925842285156,-0.2845780849456787,6.113621711730957,-0.5898007750511169,-0.27392578125,-1.75634765625,0.0322265625,-3.3515625,0.024169921875,-0.990966796875,0.07696095108985901,0.00030315073672682047,-0.013368911109864712,0.00045575835974887013,-25.085697174072266,-0.000605850073043257,-0.010778017342090607,0.0
12.15510606765747,0.0013986070407554507,0.008576481603085995,359.99981689453125,55.48004150390625,359.9997863769531,0.008121448568999767,359.9992370605469,33.60698318481445,33.60456466674805,31.653247833251953,38.008323669433594,39.52619552612305,42.540184020996094,41.94318771362305,-0.39518019556999207,15.913236618041992,-0.023028608411550522,17.278921127319336,-0.2828581929206848,5.706723690032959,-0.6517447829246521,-0.249755859375,-1.67578125,0.0322265625,-2.2728867530822754,0.0332183800637722,-0.90234375,0.08066704869270325,-0.000303606124361977,-0.0010618292726576328,-0.0007595972274430096,-24.729761123657227,0.0006076777935959399,0.004857746418565512,0.0
12.66102910041809,0.0014249166706576943,0.007813502103090286,359.9998474121094,42.89511489868164,359.9997253417969,0.007521884981542826,359.9992370605469,33.605369567871094,33.617454528808594,31.666135787963867,38.02121353149414,39.535057067871094,42.5426025390625,41.94318771362305,-0.15990574657917023,14.812248229980469,0.2544116973876953,15.610269546508789,-0.2715006172657013,5.043015956878662,-0.6381686329841614,-0.2659911811351776,-1.5872399806976318,0.025477334856987,-2.0396194458007812,0.03247735649347305,-0.805674135684967,0.07262157648801804,0.0,0.004702386446297169,0.00030337978387251496,-24.79746437072754,0.0,0.009700823575258255,0.0
13.166705131530762,0.0014249166706576943,0.005603492725640535,359.99981689453125,30.233551025390625,359.9997253417969,0.005450664088129997,359.9992370605469,33.614234924316406,33.629539489746094,31.655664443969727,38.020408630371094,39.539085388183594,42.55791091918945,41.944801330566406,-0.3705894649028778,10.211719512939453,-0.031590089201927185,11.334824562072754,-0.32392674684524536,3.6848793029785156,-0.7084586024284363,-0.249755859375,-1.329370141029358,0.025477334856987,-1.4905003309249878,0.0284845270216465,-0.5720356702804565,0.07664402574300766,-0.00030337978387251496,-0.00045575835974887013,-0.0003036091511603445,-24.982980728149414,0.0,0.00354059599339962,0.0
13.672646284103394,0.001451226300559938,359.9980773925781,359.9998474121094,17.587982177734375,359.9996643066406,0.00245284428820014,359.9992370605469,33.609397888183594,33.6400146484375,31.662107467651367,38.045387268066406,39.54069900512695,42.5264892578125,41.99958419799805,-0.26651743054389954,5.537872791290283,-0.05581557750701904,6.71630334854126,-0.30475685000419617,1.9510949850082397,-0.7033756971359253,-0.24988576769828796,-0.459228515625,0.0322265625,-1.1394379138946533,0.040283203125,-0.36666566133499146,0.0765380859375,0.0,-0.0003036091511603445,0.0,-26.74156951904297,0.0,-0.009708249010145664,0.0
14.180574417114258,0.0014775359304621816,359.998046875,359.9998779296875,11.2852201461792,359.9996643066406,0.001853280351497233,359.9992370605469,33.618263244628906,33.634376525878906,31.647605895996094,38.04618835449219,39.53425216674805,42.5748291015625,41.98186111450195,-0.27451857924461365,1.8904756307601929,-0.20717033743858337,3.3861637115478516,-0.29604411125183105,1.1715348958969116,-0.7198629975318909,-0.24988576769828796,-0.07427855581045151,0.01611328125,-0.38705429434776306,0.04449424892663956,-0.2095113843679428,0.072509765625,0.0,0.0025787281338125467,0.0,0.0771963819861412,0.0,0.0016723793232813478,0.0
14.689393043518066,0.001451226300559938,359.9999694824219,359.9998779296875,11.354020118713379,359.9996643066406,0.0019077862380072474,359.9992370605469,33.61020278930664,33.64323806762695,31.66452407836914,38.030879974365234,39.53425216674805,42.540992736816406,41.980247497558594,-0.2514520287513733,2.216155767440796,-0.1440177708864212,3.2103078365325928,-0.2751963138580322,1.1279202699661255,-0.7279573082923889,-0.265869140625,-0.07427855581045151,0.024169921875,-0.19352714717388153,0.04503798857331276,-0.249755859375,0.0765380859375,0.0,-0.013285131193697453,0.0,-0.002234901301562786,0.0,-0.008197447285056114,0.0
15.198492527008057,0.001451226300559938,0.0011834742035716772,359.9998779296875,14.748251914978027,359.9996643066406,0.002234821207821369,359.9992370605469,33.62712097167969,33.63920974731445,31.658079147338867,38.044578552246094,39.549560546875,42.56193923950195,41.93110275268555,-0.3300122022628784,3.099851131439209,-0.17446528375148773,2.5826499462127686,-0.29709234833717346,1.4036688804626465,-0.7081150412559509,-0.27392578125,-0.10596856474876404,0.018015196546912193,0.064453125,0.04048411548137665,-0.249755859375,0.08871454745531082,0.0,-0.019079145044088364,0.00030383889679796994,19.158601760864258,0.0,-0.003190308343619108,0.0006063014734536409
15.7051522731781,0.0014249166706576943,0.009891963563859463,359.9998474121094,27.096548080444336,359.9997253417969,0.009538600221276283,359.9992370605469,33.605369567871094,33.642433166503906,31.659690856933594,38.0631103515625,39.5294189453125,42.55388259887695,41.956886291503906,-0.24216328561306,10.978755950927734,0.0523439459502697,8.304505348205566,-0.26878979802131653,3.4494011402130127,-0.66476970911026,-0.24988576769828796,-0.8862671256065369,0.018015196546912193,-0.40283203125,0.0281982421875,-0.5801340341567993,0.08469058573246002,-0.0003031537344213575,0.004670938942581415,0.0,24.65238380432129,0.000606765563134104,-0.017979279160499573,0.0
16.213200569152832,0.0014249166706576943,0.009760415181517601,359.99981689453125,38.68670654296875,359.9997253417969,0.008339472115039825,359.9992370605469,33.61262130737305,33.641624450683594,31.654050827026367,38.0631103515625,39.559226989746094,42.5506591796875,41.968162536621094,-0.24934403598308563,13.914112091064453,0.1297898292541504,12.592645645141602,-0.29056859016418457,4.720296859741211,-0.6395822167396545,-0.25793835520744324,-1.281005859375,0.02278762124478817,-0.8701171875,0.03441798314452171,-0.85400390625,0.08066704869270325,0.0,0.0,-0.00030383889679796994,14.005278587341309,0.0,-0.03410777077078819,0.0
16.72045373916626,0.0014249166706576943,0.008234456181526184,359.99981689453125,40.56986999511719,359.9997253417969,0.006268251221626997,359.9992370605469,33.614234924316406,33.633567810058594,31.6580810546875,38.02927017211914,39.533447265625,42.54743576049805,41.96332931518555,-0.2080978900194168,12.360332489013672,0.10580785572528839,12.739663124084473,-0.2844209671020508,4.461922645568848,-0.6685472130775452,-0.265869140625,-1.3938220739364624,0.024169921875,-1.56298828125,0.02932661399245262,-0.6687132716178894,0.08066704869270325,0.0,-0.000758449430577457,0.0,-0.14488929510116577,0.0,-0.00193404546007514,0.0
17.227612733840942,0.0014249166706576943,0.008050289005041122,359.9998474121094,40.414615631103516,359.9997253417969,0.006268251221626997,359.9992370605469,33.62309646606445,33.619869232177734,31.661300659179688,38.02201843261719,39.50041580200195,42.55146408081055,41.950439453125,-0.1792488694190979,13.311993598937988,0.17146536707878113,13.649142265319824,-0.300743967294693,4.644178867340088,-0.6538962125778198,-0.2663569748401642,-1.4341046810150146,0.025477334856987,-1.748291015625,0.02932661399245262,-0.6727294921875,0.07664402574300766,0.0,-0.0003036091511603445,0.00030337978387251496,-3.620729446411133,0.0,0.0006067595677450299,0.0
17.733614921569824,0.0014249166706576943,0.00570873124524951,359.9998474121094,31.956043243408203,359.9997253417969,0.004306042101234198,359.9992370605469,33.609397888183594,33.63114929199219,31.65243911743164,38.0550537109375,39.535865783691406,42.52568435668945,41.948020935058594,-0.2830783426761627,9.371933937072754,-0.057301416993141174,10.760506629943848,-0.28747618198394775,3.367204427719116,-0.6816715598106384,-0.25793835520744324,-1.33740234375,0.024169921875,-1.4584522247314453,0.03247735649347305,-0.5841619968414307,0.07664402574300766,0.0,-0.019445689395070076,0.0,-25.38821029663086,0.0,-0.008659408427774906,0.0
18.241474866867065,0.001451226300559938,359.99749755859375,359.9998474121094,19.24480628967285,359.9996643066406,0.0033249373082071543,359.9992370605469,33.618263244628906,33.634376525878906,31.658079147338867,38.052635192871094,39.54633712768555,42.556297302246094,41.95849609375,-0.28121188282966614,5.737640857696533,-0.07996070384979248,6.863417148590088,-0.2804754674434662,2.0175795555114746,-0.7000728249549866,-0.2659911811351776,-0.5158767104148865,0.024169921875,-1.135986328125,0.0362548828125,-0.4350772500038147,0.08056640625,0.0,-0.001061038114130497,0.0,-24.250022888183594,0.0,-0.006527596618980169,0.0
18.748745918273926,0.001451226300559938,359.9989013671875,359.9998779296875,13.657270431518555,359.9996643066406,0.00310691399499774,359.9992370605469,33.626319885253906,33.63920974731445,31.654855728149414,38.057472229003906,39.54472732543945,42.572410583496094,41.95366287231445,-0.31732091307640076,4.252407550811768,-0.12110024690628052,4.801825046539307,-0.28726014494895935,1.6579105854034424,-0.7264797687530518,-0.25793835520744324,-0.11279296875,0.008056640625,-0.20962753891944885,0.03441798314452171,-0.30617883801460266,0.07664402574300766,-0.00030315073672682047,0.018566766753792763,0.0,0.38743019104003906,0.0,0.006982940714806318,0.0
19.254778623580933,0.001451226300559938,0.00010477912292117253,359.9998779296875,13.720439910888672,359.9996643066406,0.00294339656829834,359.9992370605469,33.62309265136719,33.63115310668945,31.666940689086914,38.05183029174805,39.522972106933594,42.549049377441406,41.988304138183594,-0.3081333041191101,3.9500625133514404,-0.1649346500635147,4.433507442474365,-0.2871597111225128,1.6101601123809814,-0.7197024822235107,-0.265869140625,-0.088623046875,0.01611328125,-0.07295598834753036,0.0284845270216465,-0.33437487483024597,0.0765380859375,0.0,-0.0025806778576225042,0.0,0.03859135881066322,0.0,-0.00212687230668962,0.0
19.761404752731323,0.001451226300559938,0.008497552946209908,359.9998474121094,18.413026809692383,359.9996643066406,0.0037064780481159687,359.9992370605469,33.619873046875,33.63679122924805,31.668554306030273,38.05827713012695,39.5535888671875,42.5426025390625,41.93110275268555,-0.33594295382499695,6.262694835662842,-0.09196892380714417,5.1769185066223145,-0.2851627767086029,2.280820846557617,-0.6806578040122986,-0.25793835520744324,-0.53179931640625,0.02278762124478817,-0.1611328125,0.03247735649347305,-0.35451507568359375,0.08066704869270325,0.0,0.005523377098143101,-0.00030383889679796994,14.770277976989746,0.0,0.002122055273503065,0.0
20.26807475090027,0.001451226300559938,359.9977111816406,359.9998779296875,20.40106201171875,359.9996643066406,0.0034884547349065542,359.9992370605469,33.61664962768555,33.63518142700195,31.658079147338867,38.04941177368164,39.57453536987305,42.573219299316406,41.948829650878906,-0.26792117953300476,5.783126354217529,0.0007976552005857229,6.1407270431518555,-0.2896212041378021,2.268599033355713,-0.6961479187011719,-0.2659911811351776,-0.5076322555541992,0.011393810622394085,-0.7251424193382263,0.04048411548137665,-0.3907470703125,0.0809682309627533,0.0,0.018910598009824753,0.00030383889679796994,-0.15850120782852173,0.0,-0.0010610276367515326,0.0
20.775885105133057,0.001451226300559938,0.006392782088369131,359.9998474121094,20.426660537719727,359.9996643066406,0.0034884547349065542,359.9992370605469,33.62309265136719,33.619869232177734,31.669361114501953,38.051021575927734,39.580177307128906,42.553077697753906,41.99797439575195,-0.311749130487442,5.534870147705078,-0.0830877348780632,5.77969217300415,-0.2727344334125519,2.0808470249176025,-0.692059338092804,-0.2659911811351776,-0.7172220349311829,0.018015196546912193,-0.056396484375,0.03247735649347305,-0.410888671875,0.06859982013702393,0.0,-0.00462140841409564,0.0,2.182037830352783,0.0,-0.0027283565141260624,0.0
21.282681226730347,0.001451226300559938,0.006103375926613808,359.9998474121094,20.566970825195312,359.9996643066406,0.0034884547349065542,359.9992370605469,33.62309265136719,33.625511169433594,31.669361114501953,38.041358947753906,39.580177307128906,42.553077697753906,41.99797439575195,-0.2633153796195984,5.320425033569336,-0.0860801637172699,5.7236785888671875,-0.29080602526664734,2.1397204399108887,-0.6954466700553894,-0.25793835520744324,-0.7251424193382263,0.0332183800637722,-0.17742909491062164,0.04048411548137665,-0.3988240659236908,0.0765380859375,0.0,-0.0042382581159472466,0.0,4.650844573974609,0.0,-0.0010626320727169514,0.0
21.789567470550537,0.001451226300559938,0.006103375926613808,359.9998474121094,20.566970825195312,359.9996643066406,0.0034884547349065542,359.9992370605469,33.62309265136719,33.625511169433594,31.669361114501953,38.041358947753906,39.580177307128906,42.553077697753906,41.99797439575195,-0.2633153796195984,5.320425033569336,-0.0860801637172699,5.7236785888671875,-0.29080602526664734,2.1397204399108887,-0.6954466700553894,-0.25793835520744324,-0.7251424193382263,0.0332183800637722,-0.17742909491062164,0.04048411548137665,-0.3988240659236908,0.0765380859375,0.0,-0.0042382581159472466,0.0,4.650844573974609,0.0,-0.0010626320727169514,0.0
22.296546697616577,0.001451226300559938,0.006103375926613808,359.9998474121094,20.566970825195312,359.9996643066406,0.0034884547349065542,359.9992370605469,33.62309265136719,33.625511169433594,31.669361114501953,38.041358947753906,39.580177307128906,42.553077697753906,41.99797439575195,-0.2633153796195984,5.320425033569336,-0.0860801637172699,5.7236785888671875,-0.29080602526664734,2.1397204399108887,-0.6954466700553894,-0.25793835520744324,-0.7251424193382263,0.0332183800637722,-0.17742909491062164,0.04048411548137665,-0.3988240659236908,0.0765380859375,0.0,-0.0042382581159472466,0.0,4.650844573974609,0.0,-0.0010626320727169514,0.0
22.804295778274536,0.001451226300559938,0.006103375926613808,359.9998474121094,20.566970825195312,359.9996643066406,0.0034884547349065542,359.9992370605469,33.62309265136719,33.625511169433594,31.669361114501953,38.041358947753906,39.580177307128906,42.553077697753906,41.99797439575195,-0.2633153796195984,5.320425033569336,-0.0860801637172699,5.7236785888671875,-0.29080602526664734,2.1397204399108887,-0.6954466700553894,-0.25793835520744324,-0.7251424193382263,0.0332183800637722,-0.17742909491062164,0.04048411548137665,-0.3988240659236908,0.0765380859375,0.0,-0.0042382581159472466,0.0,4.650844573974609,0.0,-0.0010626320727169514,0.0
23.311187028884888,0.001451226300559938,0.006103375926613808,359.9998474121094,20.566970825195312,359.9996643066406,0.0034884547349065542,359.9992370605469,33.62309265136719,33.625511169433594,31.669361114501953,38.041358947753906,39.580177307128906,42.553077697753906,41.99797439575195,-0.2633153796195984,5.320425033569336,-0.0860801637172699,5.7236785888671875,-0.29080602526664734,2.1397204399108887,-0.6954466700553894,-0.25793835520744324,-0.7251424193382263,0.0332183800637722,-0.17742909491062164,0.04048411548137665,-0.3988240659236908,0.0765380859375,0.0,-0.0042382581159472466,0.0,4.650844573974609,0.0,-0.0010626320727169514,0.0
23.81810688972473,0.001451226300559938,0.006103375926613808,359.9998474121094,20.566970825195312,359.9996643066406,0.0034884547349065542,359.9992370605469,33.62309265136719,33.625511169433594,31.669361114501953,38.041358947753906,39.580177307128906,42.553077697753906,41.99797439575195,-0.2633153796195984,5.320425033569336,-0.0860801637172699,5.7236785888671875,-0.29080602526664734,2.1397204399108887,-0.6954466700553894,-0.25793835520744324,-0.7251424193382263,0.0332183800637722,-0.17742909491062164,0.04048411548137665,-0.3988240659236908,0.0765380859375,0.0,-0.0042382581159472466,0.0,4.650844573974609,0.0,-0.0010626320727169514,0.0
24.327422380447388,0.001451226300559938,0.006103375926613808,359.9998474121094,20.566970825195312,359.9996643066406,0.0034884547349065542,359.9992370605469,33.62309265136719,33.625511169433594,31.669361114501953,38.041358947753906,39.580177307128906,42.553077697753906,41.99797439575195,-0.2633153796195984,5.320425033569336,-0.0860801637172699,5.7236785888671875,-0.29080602526664734,2.1397204399108887,-0.6954466700553894,-0.25793835520744324,-0.7251424193382263,0.0332183800637722,-0.17742909491062164,0.04048411548137665,-0.3988240659236908,0.0765380859375,0.0,-0.0042382581159472466,0.0,4.650844573974609,0.0,-0.0010626320727169514,0.0
24.83582878112793,0.001451226300559938,0.006103375926613808,359.9998474121094,20.566970825195312,359.9996643066406,0.0034884547349065542,359.9992370605469,33.62309265136719,33.625511169433594,31.669361114501953,38.041358947753906,39.580177307128906,42.553077697753906,41.99797439575195,-0.2633153796195984,5.320425033569336,-0.0860801637172699,5.7236785888671875,-0.29080602526664734,2.1397204399108887,-0.6954466700553894,-0.25793835520744324,-0.7251424193382263,0.0332183800637722,-0.17742909491062164,0.04048411548137665,-0.3988240659236908,0.0765380859375,0.0,-0.0042382581159472466,0.0,4.650844573974609,0.0,-0.0010626320727169514,0.0
25.345521688461304,0.001451226300559938,0.006103375926613808,359.9998474121094,20.566970825195312,359.9996643066406,0.0034884547349065542,359.9992370605469,33.62309265136719,33.625511169433594,31.669361114501953,38.041358947753906,39.580177307128906,42.553077697753906,41.99797439575195,-0.2633153796195984,5.320425033569336,-0.0860801637172699,5.7236785888671875,-0.29080602526664734,2.1397204399108887,-0.6954466700553894,-0.25793835520744324,-0.7251424193382263,0.0332183800637722,-0.17742909491062164,0.04048411548137665,-0.3988240659236908,0.0765380859375,0.0,-0.0042382581159472466,0.0,4.650844573974609,0.0,-0.0010626320727169514,0.0
25.852261066436768,0.001451226300559938,0.006103375926613808,359.9998474121094,20.566970825195312,359.9996643066406,0.0034884547349065542,359.9992370605469,33.62309265136719,33.625511169433594,31.669361114501953,38.041358947753906,39.580177307128906,42.553077697753906,41.99797439575195,-0.2633153796195984,5.320425033569336,-0.0860801637172699,5.7236785888671875,-0.29080602526664734,2.1397204399108887,-0.6954466700553894,-0.25793835520744324,-0.7251424193382263,0.0332183800637722,-0.17742909491062164,0.04048411548137665,-0.3988240659236908,0.0765380859375,0.0,-0.0042382581159472466,0.0,4.650844573974609,0.0,-0.0010626320727169514,0.0
26.359262466430664,0.001451226300559938,0.006103375926613808,359.9998474121094,20.566970825195312,359.9996643066406,0.0034884547349065542,359.9992370605469,33.62309265136719,33.625511169433594,31.669361114501953,38.041358947753906,39.580177307128906,42.553077697753906,41.99797439575195,-0.2633153796195984,5.320425033569336,-0.0860801637172699,5.7236785888671875,-0.29080602526664734,2.1397204399108887,-0.6954466700553894,-0.25793835520744324,-0.7251424193382263,0.0332183800637722,-0.17742909491062164,0.04048411548137665,-0.3988240659236908,0.0765380859375,0.0,-0.0042382581159472466,0.0,4.650844573974609,0.0,-0.0010626320727169514,0.0
26.867497205734253,0.001451226300559938,0.006103375926613808,359.9998474121094,20.566970825195312,359.9996643066406,0.0034884547349065542,359.9992370605469,33.62309265136719,33.625511169433594,31.669361114501953,38.041358947753906,39.580177307128906,42.553077697753906,41.99797439575195,-0.2633153796195984,5.320425033569336,-0.0860801637172699,5.7236785888671875,-0.29080602526664734,2.1397204399108887,-0.6954466700553894,-0.25793835520744324,-0.7251424193382263,0.0332183800637722,-0.17742909491062164,0.04048411548137665,-0.3988240659236908,0.0765380859375,0.0,-0.0042382581159472466,0.0,4.650844573974609,0.0,-0.0010626320727169514,0.0
27.37659740447998,0.0013986070407554507,0.009760415181517601,359.99981689453125,87.88793182373047,359.9997863769531,0.01171883288770914,359.9992370605469,33.621482849121094,33.694801330566406,31.674999237060547,38.05988693237305,39.55278396606445,42.561134338378906,41.97541427612305,-0.14674091339111328,18.899913787841797,0.3758602440357208,18.330923080444336,-0.31700989603996277,6.79529333114624,-0.5800424814224243,-0.265869140625,-1.7403090000152588,0.018015196546912193,-1.474365234375,0.03247735649347305,-1.3172607421875,0.0765380859375,0.0,-0.0025826306082308292,0.0,4.76643705368042,0.0,-0.0027283565141260624,0.0
27.88452410697937,0.0013986070407554507,0.009444699622690678,359.99981689453125,88.04063415527344,359.9997863769531,0.011391798034310341,359.9992370605469,33.626319885253906,33.693992614746094,31.677417755126953,38.06230545043945,39.576148986816406,42.556297302246094,41.972190856933594,-0.2636626660823822,18.8516788482666,0.20882031321525574,18.425214767456055,-0.3183063566684723,6.488517761230469,-0.5639272332191467,-0.2659911811351776,-1.7403090000152588,0.0322265625,-2.1672513484954834,0.02450331673026085,-1.2689273357391357,0.07664402574300766,0.0,0.001821654848754406,0.0,-0.029721323400735855,0.0,0.001667345524765551,0.0
28.392311096191406,0.0013986070407554507,0.009602557867765427,359.99981689453125,87.05805206298828,359.9997863769531,0.01171883288770914,359.9992370605469,33.62631607055664,33.718971252441406,31.658884048461914,38.0469970703125,39.547950744628906,42.58208084106445,41.97138595581055,-0.34179356694221497,19.704124450683594,0.16027504205703735,20.880468368530273,-0.3178282380104065,6.725639343261719,-0.6021518707275391,-0.27392578125,-1.7402530908584595,0.040283203125,-2.6345338821411133,0.025477334856987,-1.2890625,0.08469058573246002,0.0,0.00045506967580877244,-0.0003036091511603445,-10.402413368225098,0.0,0.0006063014734536409,0.0
28.90068507194519,0.0013986070407554507,0.009392080828547478,359.99981689453125,76.42816925048828,359.9997863769531,0.006322757340967655,359.9992370605469,33.618263244628906,33.72380447387695,31.668554306030273,38.076805114746094,39.5455322265625,42.55952072143555,41.97380447387695,-0.37699654698371887,19.186378479003906,0.09902037680149078,21.021015167236328,-0.30240148305892944,6.590011119842529,-0.5988054871559143,-0.2659911811351776,-1.7322527170181274,0.0332183800637722,-2.618854522705078,0.02054048329591751,-0.7734375,0.0765380859375,-0.00030383889679796994,0.0013641917612403631,-0.00045506967580877244,-24.799123764038086,0.0,0.010849074460566044,0.0
29.408591270446777,0.0013722974108532071,0.008287075906991959,359.9997863769531,63.72142791748047,359.9997253417969,0.005941216368228197,359.9992370605469,33.609397888183594,33.734275817871094,31.668554306030273,38.113868713378906,39.55439376831055,42.57080078125,41.966552734375,-0.7657619118690491,15.524435997009277,-0.39088425040245056,17.43973731994629,-0.33445221185684204,5.371060371398926,-0.685585081577301,-0.249755859375,-1.6678998470306396,0.0322265625,-2.192131757736206,0.0281982421875,-0.813720703125,0.08066704869270325,-0.00045507418690249324,-0.007899811491370201,-0.0010642308043316007,-24.971538543701172,-0.000607218302320689,0.0043681529350578785,0.0
29.916722774505615,0.0014249166706576943,0.007839811965823174,359.9998779296875,51.11585235595703,359.9997253417969,0.006431768648326397,359.9992370605469,33.610206604003906,33.74797439575195,31.670164108276367,38.12675857543945,39.551170349121094,42.57402420043945,41.96171951293945,0.019168619066476822,14.69977855682373,0.46406814455986023,16.169870376586914,-0.37047460675239563,5.153064727783203,-0.6479238867759705,-0.27392578125,-1.5872399806976318,0.025477334856987,-1.9746824502944946,0.0281982421875,-0.7412109375,0.07696095108985901,0.00029953845660202205,-0.0028392893727868795,0.000740581308491528,-25.287635803222656,0.0,-0.004282733891159296,0.0
30.42456603050232,0.0014249166706576943,0.006787426304072142,359.9998474121094,38.377620697021484,359.9997253417969,0.005559675861150026,359.9992370605469,33.62067794799805,33.75361251831055,31.670166015625,38.14287185668945,39.56084060668945,42.552268981933594,41.98186111450195,-0.10021496564149857,12.310203552246094,0.285637229681015,13.42126750946045,-0.30212509632110596,4.106250762939453,-0.6565242409706116,-0.265869140625,-1.442138671875,0.011393810622394085,-1.6839150190353394,0.0332183800637722,-0.6606568098068237,0.0809682309627533,0.0,-0.00030337978387251496,0.00030337978387251496,-24.838088989257812,0.0,-0.002734550042077899,0.0
30.93055510520935,0.001451226300559938,359.9974060058594,359.9998474121094,28.617271423339844,359.9997253417969,0.0043605477549135685,359.9992370605469,33.637596130371094,33.7568359375,31.674999237060547,38.14448165893555,39.539894104003906,42.56999588012695,41.9786376953125,-0.3107990622520447,7.876798629760742,-0.05268646031618118,9.134344100952148,-0.3133799135684967,2.9458014965057373,-0.7077996730804443,-0.24988576769828796,-0.62841796875,0.025477334856987,-1.1682406663894653,0.03647799417376518,-0.5075843334197998,0.0765380859375,0.0,0.005117096938192844,0.0,-7.830545902252197,0.000607218302320689,-0.0010626426665112376,0.0
31.436732530593872,0.001451226300559938,0.009786725044250488,359.9998474121094,28.11183738708496,359.9997253417969,0.004851100035011768,359.9992370605469,33.621482849121094,33.7689208984375,31.670166015625,38.1436767578125,39.531028747558594,42.54582595825195,41.99797439575195,-0.31242460012435913,9.6774263381958,-0.016163935884833336,9.595693588256836,-0.28189483284950256,3.360334873199463,-0.6938981413841248,-0.265869140625,-0.7573670744895935,0.0322265625,-0.6205705404281616,0.02450331673026085,-0.5236971378326416,0.07262157648801804,0.0,-0.0013232841156423092,0.0,0.030315861105918884,0.0,0.002122055273503065,0.0
31.94269037246704,0.001451226300559938,0.006787426304072142,359.9998474121094,29.09971046447754,359.9996643066406,0.0045240651816129684,359.9992370605469,33.634376525878906,33.774559020996094,31.683055877685547,38.16462326049805,39.5535888671875,42.572410583496094,41.95366287231445,-0.19323962926864624,8.074275016784668,0.021199481561779976,7.649356842041016,-0.2993488311767578,3.0763280391693115,-0.6788519024848938,-0.265869140625,-1.039306640625,0.018015196546912193,-0.4109676480293274,0.0362548828125,-0.4793870449066162,0.08066704869270325,0.0,0.0028255381621420383,0.0,10.198318481445312,0.0,0.003789384150877595,0.0
32.44946527481079,0.0014249166706576943,0.007813502103090286,359.9998474121094,39.749298095703125,359.9997253417969,0.005450664088129997,359.9992370605469,33.630348205566406,33.767311096191406,31.678220748901367,38.177513122558594,39.54230880737305,42.5869140625,41.977027893066406,-0.21718817949295044,10.987062454223633,0.11000403761863708,9.684523582458496,-0.32101067900657654,3.889037609100342,-0.6487041711807251,-0.24988576769828796,-1.216552734375,0.029048630967736244,-0.4995766878128052,0.037139277905225754,-0.5881485342979431,0.08056640625,0.0,-0.0036405574064701796,0.0,25.008319854736328,0.0,-0.0048504117876291275,0.0
32.95642423629761,0.0014249166706576943,0.008523862808942795,359.9998474121094,52.447723388671875,359.9997253417969,0.006322757340967655,359.9992370605469,33.626319885253906,33.7608642578125,31.683862686157227,38.177513122558594,39.579368591308594,42.548240661621094,41.96977615356445,-0.1592242270708084,14.578985214233398,0.21996760368347168,12.970852851867676,-0.3068333864212036,4.921454429626465,-0.6146999597549438,-0.25793835520744324,-1.3777797222137451,0.02278762124478817,-0.8380455374717712,0.0322265625,-0.6968994140625,0.0845947265625,0.0,-0.001516898861154914,0.00030383586999960244,24.531768798828125,-0.0006076777935959399,-0.0048504117876291275,0.0
33.46434211730957,0.0013986070407554507,0.010076130740344524,359.99981689453125,62.98802185058594,359.9997863769531,0.004851100035011768,359.9992370605469,33.6319580078125,33.766502380371094,31.679027557373047,38.1678466796875,39.55842208862305,42.55146408081055,41.96332931518555,-0.18857383728027344,19.059337615966797,0.27715808153152466,17.94208335876465,-0.29793038964271545,6.765387535095215,-0.6134035587310791,-0.2578125,-1.5791015625,0.011393810622394085,-1.4502177238464355,0.0281982421875,-0.9466637969017029,0.08066704869270325,-0.00030383586999960244,0.002506422810256481,0.0,10.373677253723145,0.0,0.04419303685426712,0.0
33.97101974487305,0.0014249166706576943,0.009102674201130867,359.99981689453125,63.91572570800781,359.9997863769531,0.006704297848045826,359.9992370605469,33.6239013671875,33.76408767700195,31.675806045532227,38.15576171875,39.56245040893555,42.592552185058594,41.97380447387695,-0.1644820272922516,16.430009841918945,0.24688918888568878,17.06930923461914,-0.30245208740234375,5.858232498168945,-0.6240181922912598,-0.2502751052379608,-1.627461314201355,0.025477334856987,-2.006119728088379,0.0284845270216465,-0.7452392578125,0.08056640625,0.0,-0.001821654848754406,0.0,-0.06743445247411728,0.0,0.0006076717399992049,0.0
34.479695558547974,0.0014249166706576943,0.008208147250115871,359.99981689453125,64.32323455810547,359.9997253417969,0.006268251221626997,359.9992370605469,33.62712478637695,33.7689208984375,31.669361114501953,38.14287185668945,39.54472732543945,42.589332580566406,41.94318771362305,-0.18250970542430878,14.623944282531738,0.13661503791809082,14.438720703125,-0.3117138147354126,5.214302062988281,-0.6118541955947876,-0.25894296169281006,-1.611348271369934,0.01611328125,-0.9829431772232056,0.0281982421875,-0.7130240797996521,0.08066704869270325,0.0,-0.008342944085597992,0.0,7.041327476501465,-0.000606765563134104,-0.0044023324735462666,0.0
34.985769510269165,0.0013986070407554507,0.00941838975995779,359.99981689453125,67.65287780761719,359.9997863769531,0.007249355781823397,359.9992370605469,33.63276290893555,33.77294921875,31.673385620117188,38.1436767578125,39.568092346191406,42.59013748168945,41.97541427612305,-0.24838478863239288,18.03984260559082,0.24038857221603394,17.783592224121094,-0.31405386328697205,6.299862861633301,-0.6136001944541931,-0.265869140625,-1.6838572025299072,0.025477334856987,-1.9094407558441162,0.0281982421875,-0.7855637669563293,0.068953737616539,-0.00030337978387251496,0.0028842869214713573,0.0,-0.2991919219493866,0.0,0.0021236585453152657,0.0
35.49211812019348,0.0014249166706576943,0.008892197161912918,359.99981689453125,67.61322784423828,359.9997863769531,0.006922320928424597,359.9992370605469,33.622291564941406,33.779396057128906,31.677413940429688,38.147705078125,39.551170349121094,42.61027908325195,41.96977615356445,-0.17942781746387482,16.831701278686523,0.1983451545238495,17.25608253479004,-0.3060687184333801,5.9641947746276855,-0.6044577956199646,-0.25793835520744324,-1.6678024530410767,0.024169921875,-2.038330078125,0.025477334856987,-0.7694513201713562,0.07262157648801804,0.000303612177958712,-0.00424411054700613,0.0,-0.0314907431602478,0.0,-0.0027304450049996376,0.0
35.99744486808777,0.0014249166706576943,0.008102908730506897,359.99981689453125,62.25248336791992,359.9997253417969,0.006595286075025797,359.9992370605469,33.6279296875,33.770530700683594,31.671777725219727,38.16059494018555,39.54069900512695,42.59416580200195,41.980247497558594,-0.1264306604862213,16.43768310546875,0.2359609752893448,17.729909896850586,-0.2801251709461212,5.820623397827148,-0.6103910803794861,-0.2659911811351776,-1.6355178356170654,0.011393810622394085,-2.1269683837890625,0.024169921875,-0.7371826171875,0.08056640625,0.0,0.009131962433457375,0.0,-9.579300880432129,0.0,0.003797986311838031,0.0
36.503984212875366,0.0013986070407554507,0.008997435681521893,359.99981689453125,61.390132904052734,359.9997863769531,0.007085838355123997,359.9992370605469,33.6279296875,33.7850341796875,31.668554306030273,38.15898513793945,39.57453536987305,42.552268981933594,41.95849609375,-0.295695960521698,18.4644775390625,0.15543915331363678,17.676061630249023,-0.29868918657302856,6.121196269989014,-0.6203523278236389,-0.2659911811351776,-1.611328125,0.018015196546912193,-1.49853515625,0.02932661399245262,-0.749267578125,0.07664402574300766,-0.00030315073672682047,0.008380844257771969,0.0,0.017396368086338043,0.0,0.005464964546263218,0.0
37.01046919822693,0.0014249166706576943,0.008392314426600933,359.99981689453125,60.13373947143555,359.9997863769531,0.006704297848045826,359.9992370605469,33.63115310668945,33.794700622558594,31.677413940429688,38.169456481933594,39.5455322265625,42.5748291015625,41.9947509765625,-0.13536566495895386,14.70474624633789,0.2338957041501999,17.683773040771484,-0.29788580536842346,5.646756649017334,-0.6197950839996338,-0.2578125,-1.5791015625,0.024169921875,-2.215708017349243,0.03247735649347305,-0.7855327725410461,0.08066704869270325,0.00030337978387251496,-0.019450033083558083,0.0,-11.45182991027832,0.0,-0.00865286123007536,0.0
37.518893003463745,0.0014249166706576943,0.009339461103081703,359.99981689453125,56.67770767211914,359.9997863769531,0.006922320928424597,359.9992370605469,33.62873458862305,33.80437088012695,31.666940689086914,38.170265197753906,39.576148986816406,42.59577560424805,41.98347091674805,-0.2036570906639099,17.799413681030273,0.2640455961227417,17.864181518554688,-0.3112296462059021,6.010159492492676,-0.6341652274131775,-0.265869140625,-1.5066132545471191,0.025477334856987,-1.33740234375,0.0284845270216465,-0.7130581736564636,0.08497750759124756,0.0,0.033614445477724075,0.0,0.2238917052745819,0.000606307468842715,0.0065178051590919495,0.0
38.02519106864929,0.0014249166706576943,0.009102674201130867,359.99981689453125,56.71296310424805,359.9997863769531,0.006867815274745226,359.9992370605469,33.63276290893555,33.80517578125,31.672582626342773,38.182350158691406,39.57292556762695,42.59174728393555,41.98186111450195,-0.3018453121185303,16.961959838867188,0.13155238330364227,16.978229522705078,-0.279144823551178,5.7352495193481445,-0.6263675093650818,-0.25793835520744324,-1.546875,0.025477334856987,-1.43408203125,0.02450331673026085,-0.7331985235214233,0.06859982013702393,0.0,0.003629943821579218,-0.000303382781567052,-0.0018975053681060672,0.0006063014734536409,0.003789384150877595,0.0
38.531583309173584,0.0014249166706576943,0.008050289005041122,359.99981689453125,51.638702392578125,359.9997253417969,0.006159239448606968,359.9992370605469,33.62309646606445,33.80839920043945,31.681442260742188,38.202491760253906,39.54069900512695,42.573219299316406,41.982666015625,-0.17784692347049713,13.801858901977539,0.19377431273460388,15.588611602783203,-0.2687785029411316,4.97111177444458,-0.6155917644500732,-0.25793835520744324,-1.554931640625,0.018015196546912193,-2.2239975929260254,0.02450331673026085,-0.7492784261703491,0.0845947265625,0.00030315073672682047,-0.02545047178864479,0.00030315073672682047,-23.04623031616211,-0.000606765563134104,-0.013490207493305206,0.0
39.03758215904236,0.0014249166706576943,359.9991455078125,359.9998474121094,38.99386978149414,359.9997253417969,0.005723193287849426,359.9992370605469,33.6239013671875,33.819679260253906,31.670166015625,38.221824645996094,39.54069900512695,42.59416580200195,41.97380447387695,-0.21326163411140442,12.192973136901855,0.09517311304807663,13.0961275100708,-0.2979227900505066,4.087976932525635,-0.6670283079147339,-0.25793835520744324,-1.103759765625,0.025477334856987,-1.7084828615188599,0.03247735649347305,-0.6486721634864807,0.07664402574300766,0.0,0.011059598065912724,0.0,-25.054746627807617,0.0,-0.001061038114130497,0.0
39.54451036453247,0.001451226300559938,0.00031525621307082474,359.9998474121094,26.323938369750977,359.9996643066406,0.0045240651816129684,359.9992370605469,33.62631607055664,33.8172607421875,31.675804138183594,38.230690002441406,39.568092346191406,42.57563400268555,41.9464111328125,-0.34862616658210754,8.201738357543945,-0.06334260106086731,9.146212577819824,-0.3346043825149536,2.724506139755249,-0.7071778774261475,-0.249755859375,-0.62841796875,0.018015196546912193,-1.2572489976882935,0.0362548828125,-0.5518798828125,0.07262157648801804,0.0,-0.0007578768418170512,0.0,-24.94641876220703,0.0,-0.006972467061132193,0.0
40.051252126693726,0.0014775359304621816,359.99951171875,359.9998779296875,18.84040069580078,359.9996643066406,0.0026708676014095545,359.9992370605469,33.62712097167969,33.81806564331055,31.683862686157227,38.2242431640625,39.50847244262695,42.578857421875,41.96735763549805,-0.20575132966041565,4.039005756378174,-0.06499720364809036,5.868539333343506,-0.3055754601955414,1.8624598979949951,-0.7025424838066101,-0.2663569748401642,-0.27392578125,0.018015196546912193,-0.829833984375,0.03647799417376518,-0.3424072265625,0.08066704869270325,0.0,-0.0004554137121886015,0.0,-1.51505708694458,0.0,0.0022577031049877405,0.0
40.55871629714966,0.001451226300559938,0.0013676416128873825,359.9998474121094,18.868419647216797,359.9996643066406,0.0032704316545277834,359.9992370605469,33.63276290893555,33.819679260253906,31.687891006469727,38.210548400878906,39.57453536987305,42.565162658691406,41.99555587768555,-0.28886881470680237,4.962507247924805,-0.08875181525945663,6.056538105010986,-0.31706395745277405,2.0582244396209717,-0.7164126634597778,-0.2659911811351776,-0.33837890625,0.018015196546912193,-0.37060546875,0.04503798857331276,-0.3826904296875,0.07664402574300766,0.0,-0.009038296528160572,0.0,0.13664588332176208,0.0,-0.007584494538605213,0.0
41.06716871261597,0.001451226300559938,0.0013676416128873825,359.9998474121094,18.868419647216797,359.9996643066406,0.0032704316545277834,359.9992370605469,33.63276290893555,33.819679260253906,31.687891006469727,38.210548400878906,39.57453536987305,42.565162658691406,41.99555587768555,-0.28886881470680237,4.962507247924805,-0.08875181525945663,6.056538105010986,-0.31706395745277405,2.0582244396209717,-0.7164126634597778,-0.2659911811351776,-0.33837890625,0.018015196546912193,-0.37060546875,0.04503798857331276,-0.3826904296875,0.07664402574300766,0.0,-0.009038296528160572,0.0,0.13664588332176208,0.0,-0.007584494538605213,0.0
41.57563805580139,0.001451226300559938,0.0013676416128873825,359.9998474121094,18.868419647216797,359.9996643066406,0.0032704316545277834,359.9992370605469,33.63276290893555,33.819679260253906,31.687891006469727,38.210548400878906,39.57453536987305,42.565162658691406,41.99555587768555,-0.28886881470680237,4.962507247924805,-0.08875181525945663,6.056538105010986,-0.31706395745277405,2.0582244396209717,-0.7164126634597778,-0.2659911811351776,-0.33837890625,0.018015196546912193,-0.37060546875,0.04503798857331276,-0.3826904296875,0.07664402574300766,0.0,-0.009038296528160572,0.0,0.13664588332176208,0.0,-0.007584494538605213,0.0
42.08217692375183,0.001451226300559938,0.0013676416128873825,359.9998474121094,18.868419647216797,359.9996643066406,0.0032704316545277834,359.9992370605469,33.63276290893555,33.819679260253906,31.687891006469727,38.210548400878906,39.57453536987305,42.565162658691406,41.99555587768555,-0.28886881470680237,4.962507247924805,-0.08875181525945663,6.056538105010986,-0.31706395745277405,2.0582244396209717,-0.7164126634597778,-0.2659911811351776,-0.33837890625,0.018015196546912193,-0.37060546875,0.04503798857331276,-0.3826904296875,0.07664402574300766,0.0,-0.009038296528160572,0.0,0.13664588332176208,0.0,-0.007584494538605213,0.0
42.588581800460815,0.001451226300559938,0.0013676416128873825,359.9998474121094,18.868419647216797,359.9996643066406,0.0032704316545277834,359.9992370605469,33.63276290893555,33.819679260253906,31.687891006469727,38.210548400878906,39.57453536987305,42.565162658691406,41.99555587768555,-0.28886881470680237,4.962507247924805,-0.08875181525945663,6.056538105010986,-0.31706395745277405,2.0582244396209717,-0.7164126634597778,-0.2659911811351776,-0.33837890625,0.018015196546912193,-0.37060546875,0.04503798857331276,-0.3826904296875,0.07664402574300766,0.0,-0.009038296528160572,0.0,0.13664588332176208,0.0,-0.007584494538605213,0.0
43.09506273269653,0.001451226300559938,0.0013676416128873825,359.9998474121094,18.868419647216797,359.9996643066406,0.0032704316545277834,359.9992370605469,33.63276290893555,33.819679260253906,31.687891006469727,38.210548400878906,39.57453536987305,42.565162658691406,41.99555587768555,-0.28886881470680237,4.962507247924805,-0.08875181525945663,6.056538105010986,-0.31706395745277405,2.0582244396209717,-0.7164126634597778,-0.2659911811351776,-0.33837890625,0.018015196546912193,-0.37060546875,0.04503798857331276,-0.3826904296875,0.07664402574300766,0.0,-0.009038296528160572,0.0,0.13664588332176208,0.0,-0.007584494538605213,0.0
43.602970123291016,0.001451226300559938,0.0013676416128873825,359.9998474121094,18.868419647216797,359.9996643066406,0.0032704316545277834,359.9992370605469,33.63276290893555,33.819679260253906,31.687891006469727,38.210548400878906,39.57453536987305,42.565162658691406,41.99555587768555,-0.28886881470680237,4.962507247924805,-0.08875181525945663,6.056538105010986,-0.31706395745277405,2.0582244396209717,-0.7164126634597778,-0.2659911811351776,-0.33837890625,0.018015196546912193,-0.37060546875,0.04503798857331276,-0.3826904296875,0.07664402574300766,0.0,-0.009038296528160572,0.0,0.13664588332176208,0.0,-0.007584494538605213,0.0
44.10936260223389,0.001451226300559938,0.0013676416128873825,359.9998474121094,18.868419647216797,359.9996643066406,0.0032704316545277834,359.9992370605469,33.63276290893555,33.819679260253906,31.687891006469727,38.210548400878906,39.57453536987305,42.565162658691406,41.99555587768555,-0.28886881470680237,4.962507247924805,-0.08875181525945663,6.056538105010986,-0.31706395745277405,2.0582244396209717,-0.7164126634597778,-0.2659911811351776,-0.33837890625,0.018015196546912193,-0.37060546875,0.04503798857331276,-0.3826904296875,0.07664402574300766,0.0,-0.009038296528160572,0.0,0.13664588332176208,0.0,-0.007584494538605213,0.0
44.617334842681885,0.001451226300559938,0.0013676416128873825,359.9998474121094,18.868419647216797,359.9996643066406,0.0032704316545277834,359.9992370605469,33.63276290893555,33.819679260253906,31.687891006469727,38.210548400878906,39.57453536987305,42.565162658691406,41.99555587768555,-0.28886881470680237,4.962507247924805,-0.08875181525945663,6.056538105010986,-0.31706395745277405,2.0582244396209717,-0.7164126634597778,-0.2659911811351776,-0.33837890625,0.018015196546912193,-0.37060546875,0.04503798857331276,-0.3826904296875,0.07664402574300766,0.0,-0.009038296528160572,0.0,0.13664588332176208,0.0,-0.007584494538605213,0.0
45.125468015670776,0.001451226300559938,0.0013676416128873825,359.9998474121094,18.868419647216797,359.9996643066406,0.0032704316545277834,359.9992370605469,33.63276290893555,33.819679260253906,31.687891006469727,38.210548400878906,39.57453536987305,42.565162658691406,41.99555587768555,-0.28886881470680237,4.962507247924805,-0.08875181525945663,6.056538105010986,-0.31706395745277405,2.0582244396209717,-0.7164126634597778,-0.2659911811351776,-0.33837890625,0.018015196546912193,-0.37060546875,0.04503798857331276,-0.3826904296875,0.07664402574300766,0.0,-0.009038296528160572,0.0,0.13664588332176208,0.0,-0.007584494538605213,0.0
45.63119149208069,0.001451226300559938,0.0013676416128873825,359.9998474121094,18.868419647216797,359.9996643066406,0.0032704316545277834,359.9992370605469,33.63276290893555,33.819679260253906,31.687891006469727,38.210548400878906,39.57453536987305,42.565162658691406,41.99555587768555,-0.28886881470680237,4.962507247924805,-0.08875181525945663,6.056538105010986,-0.31706395745277405,2.0582244396209717,-0.7164126634597778,-0.2659911811351776,-0.33837890625,0.018015196546912193,-0.37060546875,0.04503798857331276,-0.3826904296875,0.07664402574300766,0.0,-0.009038296528160572,0.0,0.13664588332176208,0.0,-0.007584494538605213,0.0
46.13837742805481,0.001451226300559938,0.0013676416128873825,359.9998474121094,18.868419647216797,359.9996643066406,0.0032704316545277834,359.9992370605469,33.63276290893555,33.819679260253906,31.687891006469727,38.210548400878906,39.57453536987305,42.565162658691406,41.99555587768555,-0.28886881470680237,4.962507247924805,-0.08875181525945663,6.056538105010986,-0.31706395745277405,2.0582244396209717,-0.7164126634597778,-0.2659911811351776,-0.33837890625,0.018015196546912193,-0.37060546875,0.04503798857331276,-0.3826904296875,0.07664402574300766,0.0,-0.009038296528160572,0.0,0.13664588332176208,0.0,-0.007584494538605213,0.0
46.64432692527771,0.001451226300559938,0.0013676416128873825,359.9998474121094,18.868419647216797,359.9996643066406,0.0032704316545277834,359.9992370605469,33.63276290893555,33.819679260253906,31.687891006469727,38.210548400878906,39.57453536987305,42.565162658691406,41.99555587768555,-0.28886881470680237,4.962507247924805,-0.08875181525945663,6.056538105010986,-0.31706395745277405,2.0582244396209717,-0.7164126634597778,-0.2659911811351776,-0.33837890625,0.018015196546912193,-0.37060546875,0.04503798857331276,-0.3826904296875,0.07664402574300766,0.0,-0.009038296528160572,0.0,0.13664588332176208,0.0,-0.007584494538605213,0.0
47.15130114555359,0.0014249166706576943,0.007945050485432148,359.9998474121094,44.473087310791016,359.9997253417969,0.006540780421346426,359.9992370605469,33.637596130371094,33.8253173828125,31.677417755126953,38.286277770996094,39.5535888671875,42.58369064331055,41.952857971191406,-0.09437310695648193,13.228742599487305,0.2463397979736328,14.281874656677246,-0.3243326246738434,4.485526084899902,-0.6802445650100708,-0.265869140625,-1.603271484375,0.04108096659183502,-1.8615199327468872,0.03647799417376518,-0.7855327725410461,0.08066704869270325,0.0,-0.0018189223483204842,0.00045472156489267945,-24.890222549438477,0.0,-0.0054567670449614525,0.0
47.656954288482666,0.0014249166706576943,0.007945050485432148,359.9998474121094,44.473087310791016,359.9997253417969,0.006540780421346426,359.9992370605469,33.637596130371094,33.8253173828125,31.677417755126953,38.286277770996094,39.5535888671875,42.58369064331055,41.952857971191406,-0.09437310695648193,13.228742599487305,0.2463397979736328,14.281874656677246,-0.3243326246738434,4.485526084899902,-0.6802445650100708,-0.265869140625,-1.603271484375,0.04108096659183502,-1.8615199327468872,0.03647799417376518,-0.7855327725410461,0.08066704869270325,0.0,-0.0018189223483204842,0.00045472156489267945,-24.890222549438477,0.0,-0.0054567670449614525,0.0
48.16358733177185,0.0014249166706576943,0.007945050485432148,359.9998474121094,44.473087310791016,359.9997253417969,0.006540780421346426,359.9992370605469,33.637596130371094,33.8253173828125,31.677417755126953,38.286277770996094,39.5535888671875,42.58369064331055,41.952857971191406,-0.09437310695648193,13.228742599487305,0.2463397979736328,14.281874656677246,-0.3243326246738434,4.485526084899902,-0.6802445650100708,-0.265869140625,-1.603271484375,0.04108096659183502,-1.8615199327468872,0.03647799417376518,-0.7855327725410461,0.08066704869270325,0.0,-0.0018189223483204842,0.00045472156489267945,-24.890222549438477,0.0,-0.0054567670449614525,0.0
48.66858410835266,0.0014249166706576943,0.007945050485432148,359.9998474121094,44.473087310791016,359.9997253417969,0.006540780421346426,359.9992370605469,33.637596130371094,33.8253173828125,31.677417755126953,38.286277770996094,39.5535888671875,42.58369064331055,41.952857971191406,-0.09437310695648193,13.228742599487305,0.2463397979736328,14.281874656677246,-0.3243326246738434,4.485526084899902,-0.6802445650100708,-0.265869140625,-1.603271484375,0.04108096659183502,-1.8615199327468872,0.03647799417376518,-0.7855327725410461,0.08066704869270325,0.0,-0.0018189223483204842,0.00045472156489267945,-24.890222549438477,0.0,-0.0054567670449614525,0.0
49.176772594451904,0.0014249166706576943,0.007945050485432148,359.9998474121094,44.473087310791016,359.9997253417969,0.006540780421346426,359.9992370605469,33.637596130371094,33.8253173828125,31.677417755126953,38.286277770996094,39.5535888671875,42.58369064331055,41.952857971191406,-0.09437310695648193,13.228742599487305,0.2463397979736328,14.281874656677246,-0.3243326246738434,4.485526084899902,-0.6802445650100708,-0.265869140625,-1.603271484375,0.04108096659183502,-1.8615199327468872,0.03647799417376518,-0.7855327725410461,0.08066704869270325,0.0,-0.0018189223483204842,0.00045472156489267945,-24.890222549438477,0.0,-0.0054567670449614525,0.0
49.683013916015625,0.0014249166706576943,0.007945050485432148,359.9998474121094,44.473087310791016,359.9997253417969,0.006540780421346426,359.9992370605469,33.637596130371094,33.8253173828125,31.677417755126953,38.286277770996094,39.5535888671875,42.58369064331055,41.952857971191406,-0.09437310695648193,13.228742599487305,0.2463397979736328,14.281874656677246,-0.3243326246738434,4.485526084899902,-0.6802445650100708,-0.265869140625,-1.603271484375,0.04108096659183502,-1.8615199327468872,0.03647799417376518,-0.7855327725410461,0.08066704869270325,0.0,-0.0018189223483204842,0.00045472156489267945,-24.890222549438477,0.0,-0.0054567670449614525,0.0
50.18961310386658,0.0014249166706576943,0.007945050485432148,359.9998474121094,44.473087310791016,359.9997253417969,0.006540780421346426,359.9992370605469,33.637596130371094,33.8253173828125,31.677417755126953,38.286277770996094,39.5535888671875,42.58369064331055,41.952857971191406,-0.09437310695648193,13.228742599487305,0.2463397979736328,14.281874656677246,-0.3243326246738434,4.485526084899902,-0.6802445650100708,-0.265869140625,-1.603271484375,0.04108096659183502,-1.8615199327468872,0.03647799417376518,-0.7855327725410461,0.08066704869270325,0.0,-0.0018189223483204842,0.00045472156489267945,-24.890222549438477,0.0,-0.0054567670449614525,0.0
50.69603610038757,0.0014249166706576943,0.007945050485432148,359.9998474121094,44.473087310791016,359.9997253417969,0.006540780421346426,359.9992370605469,33.637596130371094,33.8253173828125,31.677417755126953,38.286277770996094,39.5535888671875,42.58369064331055,41.952857971191406,-0.09437310695648193,13.228742599487305,0.2463397979736328,14.281874656677246,-0.3243326246738434,4.485526084899902,-0.6802445650100708,-0.265869140625,-1.603271484375,0.04108096659183502,-1.8615199327468872,0.03647799417376518,-0.7855327725410461,0.08066704869270325,0.0,-0.0018189223483204842,0.00045472156489267945,-24.890222549438477,0.0,-0.0054567670449614525,0.0
51.202852725982666,0.0014249166706576943,0.007945050485432148,359.9998474121094,44.473087310791016,359.9997253417969,0.006540780421346426,359.9992370605469,33.637596130371094,33.8253173828125,31.677417755126953,38.286277770996094,39.5535888671875,42.58369064331055,41.952857971191406,-0.09437310695648193,13.228742599487305,0.2463397979736328,14.281874656677246,-0.3243326246738434,4.485526084899902,-0.6802445650100708,-0.265869140625,-1.603271484375,0.04108096659183502,-1.8615199327468872,0.03647799417376518,-0.7855327725410461,0.08066704869270325,0.0,-0.0018189223483204842,0.00045472156489267945,-24.890222549438477,0.0,-0.0054567670449614525,0.0
51.709046363830566,0.0014249166706576943,0.007945050485432148,359.9998474121094,44.473087310791016,359.9997253417969,0.006540780421346426,359.9992370605469,33.637596130371094,33.8253173828125,31.677417755126953,38.286277770996094,39.5535888671875,42.58369064331055,41.952857971191406,-0.09437310695648193,13.228742599487305,0.2463397979736328,14.281874656677246,-0.3243326246738434,4.485526084899902,-0.6802445650100708,-0.265869140625,-1.603271484375,0.04108096659183502,-1.8615199327468872,0.03647799417376518,-0.7855327725410461,0.08066704869270325,0.0,-0.0018189223483204842,0.00045472156489267945,-24.890222549438477,0.0,-0.0054567670449614525,0.0
52.2158088684082,0.0014249166706576943,0.007945050485432148,359.9998474121094,44.473087310791016,359.9997253417969,0.006540780421346426,359.9992370605469,33.637596130371094,33.8253173828125,31.677417755126953,38.286277770996094,39.5535888671875,42.58369064331055,41.952857971191406,-0.09437310695648193,13.228742599487305,0.2463397979736328,14.281874656677246,-0.3243326246738434,4.485526084899902,-0.6802445650100708,-0.265869140625,-1.603271484375,0.04108096659183502,-1.8615199327468872,0.03647799417376518,-0.7855327725410461,0.08066704869270325,0.0,-0.0018189223483204842,0.00045472156489267945,-24.890222549438477,0.0,-0.0054567670449614525,0.0
52.7221999168396,0.0014249166706576943,0.007945050485432148,359.9998474121094,44.473087310791016,359.9997253417969,0.006540780421346426,359.9992370605469,33.637596130371094,33.8253173828125,31.677417755126953,38.286277770996094,39.5535888671875,42.58369064331055,41.952857971191406,-0.09437310695648193,13.228742599487305,0.2463397979736328,14.281874656677246,-0.3243326246738434,4.485526084899902,-0.6802445650100708,-0.265869140625,-1.603271484375,0.04108096659183502,-1.8615199327468872,0.03647799417376518,-0.7855327725410461,0.08066704869270325,0.0,-0.0018189223483204842,0.00045472156489267945,-24.890222549438477,0.0,-0.0054567670449614525,0.0
53.22828984260559,0.0014249166706576943,0.007945050485432148,359.9998474121094,44.473087310791016,359.9997253417969,0.006540780421346426,359.9992370605469,33.637596130371094,33.8253173828125,31.677417755126953,38.286277770996094,39.5535888671875,42.58369064331055,41.952857971191406,-0.09437310695648193,13.228742599487305,0.2463397979736328,14.281874656677246,-0.3243326246738434,4.485526084899902,-0.6802445650100708,-0.265869140625,-1.603271484375,0.04108096659183502,-1.8615199327468872,0.03647799417376518,-0.7855327725410461,0.08066704869270325,0.0,-0.0018189223483204842,0.00045472156489267945,-24.890222549438477,0.0,-0.0054567670449614525,0.0
53.73416209220886,0.0013986070407554507,0.00997089222073555,359.99981689453125,83.0210189819336,359.9997863769531,0.009811129420995712,359.9992370605469,33.63518142700195,33.85029220581055,31.6943359375,38.28950119018555,39.565673828125,42.5989990234375,41.99394607543945,-0.18598464131355286,19.546863555908203,0.2717711925506592,18.806110382080078,-0.3217870891094208,6.796633720397949,-0.5617504119873047,-0.265869140625,-1.7805358171463013,0.0332183800637722,-1.409912109375,0.0281982421875,-1.0957105159759521,0.08066704869270325,0.0,-0.0035985922440886497,0.0003031537344213575,4.302173614501953,0.0,0.0,0.0
54.24063587188721,0.0013986070407554507,0.00957624800503254,359.99981689453125,83.13054656982422,359.9997863769531,0.009538600221276283,359.9992370605469,33.6400146484375,33.845458984375,31.692724227905273,38.27177810668945,39.556007385253906,42.5989990234375,41.97944259643555,-0.17455509305000305,17.48937225341797,0.21977464854717255,17.95436668395996,-0.3282431364059448,6.277038097381592,-0.5848156809806824,-0.2578125,-1.7805358171463013,0.018015196546912193,-2.1511380672454834,0.02054048329591751,-1.0675352811813354,0.08056640625,0.0,-0.002427062252536416,0.0,-0.18973873555660248,0.0,-0.0021252641454339027,0.0
54.747092723846436,0.0013986070407554507,0.00991827342659235,359.99981689453125,82.10359954833984,359.9997863769531,0.010029152035713196,359.9992370605469,33.641624450683594,33.8494873046875,31.691919326782227,38.292724609375,39.555198669433594,42.59416580200195,41.997169494628906,-0.21093983948230743,19.684125900268555,0.2824806869029999,20.27799415588379,-0.3314444124698639,6.686800003051758,-0.5790258049964905,-0.2578125,-1.8047055006027222,0.018015196546912193,-2.392876625061035,0.01611328125,-1.0916748046875,0.07262157648801804,0.0,0.0007595896604470909,0.0,-10.585205078125,0.0,0.0010626320727169514,0.0
55.25390696525574,0.0014249166706576943,0.009655176661908627,359.9998474121094,71.43988800048828,359.9997253417969,0.009375082328915596,359.9992370605469,33.637596130371094,33.86962890625,31.702392578125,38.322532653808594,39.55439376831055,42.608665466308594,41.974609375,0.001113886828534305,18.502050399780273,0.4866856634616852,18.89011573791504,-0.307017982006073,6.105650424957275,-0.6095327734947205,-0.265869140625,-1.7966489791870117,0.025477334856987,-2.408949136734009,0.0332183800637722,-1.0594788789749146,0.08066704869270325,0.00030337978387251496,0.00045507418690249324,0.00030315073672682047,-25.2249755859375,-0.0006063014734536409,-0.00106343615334481,0.0
55.75973343849182,0.0013986070407554507,0.009181602858006954,359.9997863769531,58.71223068237305,359.9997863769531,0.008993541821837425,359.9992370605469,33.64404296875,33.87043380737305,31.686279296875,38.32575607299805,39.54230880737305,42.62236404418945,41.96735763549805,-0.639764666557312,16.529481887817383,-0.3191912770271301,18.303937911987305,-0.2551702558994293,6.008477687835693,-0.5897877216339111,-0.265869140625,-1.748291015625,0.024169921875,-2.408935546875,0.0322265625,-0.9627769589424133,0.08497750759124756,-0.0004557628999464214,-0.00030337978387251496,-0.0010610276367515326,-24.97736930847168,0.0006067595677450299,0.0010618292726576328,0.0
56.26853322982788,0.0014249166706576943,0.008208147250115871,359.9998474121094,46.0412483215332,359.9997253417969,0.006322757340967655,359.9992370605469,33.642433166503906,33.880104064941406,31.6822509765625,38.34831619262695,39.556007385253906,42.5748291015625,41.96977615356445,-0.19957396388053894,13.64633560180664,0.1808633953332901,14.503119468688965,-0.31831544637680054,4.636448860168457,-0.6459195613861084,-0.2659911811351776,-1.6597461700439453,0.0332183800637722,-1.8534650802612305,0.0281982421875,-0.7774658203125,0.07262157648801804,0.0,-0.003342227777466178,0.0003040689625777304,-25.132123947143555,0.0,-0.009246189147233963,0.0
56.77478623390198,0.001451226300559938,0.006419091485440731,359.9998474121094,33.40494155883789,359.9997253417969,0.004687582608312368,359.9992370605469,33.638404846191406,33.89057540893555,31.679027557373047,38.358787536621094,39.57856369018555,42.624778747558594,41.98991775512695,-0.2931486964225769,10.545470237731934,-0.008670710027217865,11.472774505615234,-0.302956759929657,3.4964380264282227,-0.6791821122169495,-0.249755859375,-1.458274245262146,0.018015196546912193,-1.36962890625,0.03247735649347305,-0.588134765625,0.06859982013702393,0.00030337978387251496,-0.00757876830175519,0.00030337978387251496,-25.53448486328125,0.0,-0.011974572204053402,0.0
57.283207654953,0.001451226300559938,359.9973449707031,359.9998474121094,20.729248046875,359.9996643066406,0.00310691399499774,359.9992370605469,33.64484786987305,33.90185546875,31.677417755126953,38.37651443481445,39.53667068481445,42.61027908325195,41.95769119262695,-0.25986817479133606,6.362525939941406,-0.02386866696178913,7.550645351409912,-0.2946324944496155,2.2696619033813477,-0.6844762563705444,-0.265869140625,-0.53179931640625,0.025477334856987,-1.0473942756652832,0.04048411548137665,-0.4270779490470886,0.08056640625,0.0,-0.0004547261050902307,0.0,-24.791664123535156,0.0,-0.009253083728253841,0.0
57.790427446365356,0.0014775359304621816,359.99761962890625,359.9998779296875,9.841241836547852,359.9996643066406,0.0019077862380072474,359.9991760253906,33.65129470825195,33.909912109375,31.691112518310547,38.36845779418945,39.527000427246094,42.61833572387695,41.988304138183594,-0.2816568911075592,2.4882142543792725,-0.1844320148229599,3.9418997764587402,-0.3189714252948761,1.1100021600723267,-0.7241024374961853,-0.265869140625,-0.0809682309627533,0.024169921875,-0.620361328125,0.040283203125,-0.2054838240146637,0.08871454745531082,0.0,0.010002381168305874,0.0,-11.126845359802246,0.0,0.010330522432923317,0.0
58.29668116569519,0.0014775359304621816,359.9992370605469,359.9998779296875,8.68703842163086,359.9996643066406,0.001526245498098433,359.9992370605469,33.645652770996094,33.907493591308594,31.697559356689453,38.373291015625,39.60112380981445,42.61188888549805,41.99394607543945,-0.3062628209590912,1.3742843866348267,-0.26003116369247437,2.325108766555786,-0.28635135293006897,0.8776466846466064,-0.7358946800231934,-0.25793835520744324,0.0322265625,0.0332183800637722,-0.025477334856987,0.04048411548137665,-0.217529296875,0.08871454745531082,0.00030337978387251496,-0.008163539692759514,0.0,0.06298568099737167,0.0,-0.009722844697535038,0.0
58.804497957229614,0.0014775359304621816,359.9993591308594,359.9998779296875,8.77609634399414,359.9996643066406,0.0014172338414937258,359.9992370605469,33.654518127441406,33.899436950683594,31.688695907592773,38.366844177246094,39.55681228637695,42.59013748168945,42.0028076171875,-0.2262543886899948,1.1015437841415405,-0.21159693598747253,1.9168038368225098,-0.31604132056236267,0.7886840105056763,-0.7338892817497253,-0.265869140625,0.018015196546912193,0.01611328125,0.23378144204616547,0.0322265625,-0.217529296875,0.08497750759124756,0.000303612177958712,-0.017849963158369064,0.00030315073672682047,2.952815294265747,0.0,-0.00924609787762165,0.0
59.31131625175476,0.001451226300559938,0.010549704544246197,359.9998474121094,16.867887496948242,359.9996643066406,0.0039245011284947395,359.9992370605469,33.65693283081055,33.896217346191406,31.695140838623047,38.39665603637695,39.559226989746094,42.62639236450195,41.98186111450195,-0.28426191210746765,6.812273025512695,0.004687069915235043,5.4754815101623535,-0.2784825265407562,2.599564552307129,-0.7010162472724915,-0.249755859375,-0.37069302797317505,0.025477334856987,-0.14524315297603607,0.03647799417376518,-0.2820111811161041,0.07696095108985901,-0.00030315073672682047,0.03656989708542824,-0.00030383889679796994,25.149009704589844,0.0,0.01914912462234497,0.0
59.81707811355591,0.0014249166706576943,0.00936577096581459,359.9998474121094,29.56505012512207,359.9997253417969,0.0045240651816129684,359.9992370605469,33.649681091308594,33.87688064575195,31.683055877685547,38.38456726074219,39.56486892700195,42.61430740356445,41.9705810546875,-0.3076733648777008,10.086272239685059,-0.05018434673547745,9.220648765563965,-0.2697226107120514,3.7061588764190674,-0.6766941547393799,-0.2820974886417389,-1.01513671875,0.025477334856987,-0.52522873878479,0.0284845270216465,-0.42702093720436096,0.08056640625,-0.00030337978387251496,0.004885292146354914,0.0,25.02379608154297,0.0,0.008646324276924133,0.0
60.32430982589722,0.0014249166706576943,0.00941838975995779,359.9998474121094,42.223350524902344,359.9997253417969,0.009048047475516796,359.9992370605469,33.658546447753906,33.8736572265625,31.691112518310547,38.38134765625,39.56889724731445,42.63203048706055,42.012474060058594,-0.17109297215938568,14.016491889953613,0.174151211977005,13.016268730163574,-0.3143025040626526,4.928569316864014,-0.6369507908821106,-0.2663569748401642,-1.3374265432357788,0.0322265625,-0.8227640986442566,0.030678773298859596,-0.7412219047546387,0.08066704869270325,0.0,0.005469100084155798,0.0,25.054746627807617,0.0,0.09106791019439697,0.0
60.831451416015625,0.0013986070407554507,0.01052339468151331,359.99981689453125,54.3879280090332,359.9997863769531,0.008612001314759254,359.9992370605469,33.645652770996094,33.86237716674805,31.696752548217773,38.37812423706055,39.572120666503906,42.657814025878906,42.04389572143555,-0.3430139422416687,17.6424560546875,0.12672586739063263,15.499707221984863,-0.29167044162750244,5.938719749450684,-0.6310734748840332,-0.2659911811351776,-1.56298828125,0.024169921875,-1.0156481266021729,0.02054048329591751,-0.894287109375,0.08066704869270325,-0.000303606124361977,-0.0032285533379763365,-0.0003036091511603445,17.177743911743164,0.0006067595677450299,0.005920378491282463,0.0
61.340275049209595,0.0014249166706576943,0.009207912720739841,359.99981689453125,57.229366302490234,359.9997253417969,0.007358367554843426,359.9992370605469,33.641624450683594,33.8656005859375,31.688695907592773,38.35798263549805,39.560035705566406,42.641700744628906,41.95124435424805,-0.06277704238891602,14.744229316711426,0.2596289813518524,15.250953674316406,-0.2999970614910126,5.433568954467773,-0.6389723420143127,-0.25793835520744324,-1.6435744762420654,0.025477334856987,-1.9174973964691162,0.0281982421875,-0.8741455078125,0.072509765625,0.00030315073672682047,-0.006063074804842472,0.0,-0.11765264719724655,-0.0006063014734536409,-0.006988294422626495,0.0
61.846887826919556,0.0014249166706576943,0.009339461103081703,359.99981689453125,57.199058532714844,359.9997863769531,0.007957931607961655,359.9992370605469,33.6561279296875,33.87849044799805,31.700780868530273,38.36040115356445,39.57292556762695,42.62639236450195,41.95930099487305,-0.2842963635921478,16.60940933227539,0.1355934590101242,15.966754913330078,-0.28033897280693054,5.683513641357422,-0.6155188083648682,-0.265869140625,-1.6919137239456177,0.01611328125,-1.5146484375,0.0284845270216465,-0.8701171875,0.08056640625,0.0,0.001338960020802915,0.0,0.00949062965810299,0.0,0.0005742755602113903,0.0
62.35178184509277,0.0013986070407554507,0.009655176661908627,359.99981689453125,63.66312789916992,359.9997863769531,0.009320576675236225,359.9992370605469,33.65935134887695,33.877685546875,31.689502716064453,38.370872497558594,39.551170349121094,42.593360900878906,41.99797439575195,-0.23633912205696106,19.72382354736328,0.2961595356464386,17.79846954345703,-0.2949376106262207,6.664494514465332,-0.6089807748794556,-0.265869140625,-1.67578125,0.02278762124478817,-1.264918327331543,0.02932661399245262,-0.9063810706138611,0.08056640625,-0.00030337978387251496,0.008915968239307404,0.0,17.531068801879883,0.0006063014734536409,0.0053906673565506935,0.0
62.85753774642944,0.0013986070407554507,0.009260532446205616,359.99981689453125,66.41976928710938,359.9997863769531,0.008393977768719196,359.9992370605469,33.652095794677734,33.88493728637695,31.691919326782227,38.36845779418945,39.55036544799805,42.580467224121094,41.97943878173828,-0.27649661898612976,16.877532958984375,0.1390848308801651,16.76872444152832,-0.2951315641403198,5.9531450271606445,-0.6409487724304199,-0.25793835520744324,-1.6999702453613281,0.0332183800637722,-2.0625,0.02450331673026085,-0.9426355361938477,0.0845947265625,0.0,-0.0013672750210389495,0.0,-0.2217397391796112,0.0,-0.0010618397500365973,0.0
63.36338520050049,0.0013986070407554507,0.009339461103081703,359.99981689453125,66.38196563720703,359.9997863769531,0.008666506968438625,359.9992370605469,33.653709411621094,33.880104064941406,31.69272232055664,38.362815856933594,39.604347229003906,42.604637145996094,41.97380447387695,-0.18641984462738037,18.094730377197266,0.2767164707183838,17.78641700744629,-0.32631969451904297,6.315167427062988,-0.5897631645202637,-0.24988576769828796,-1.7080078125,0.024169921875,-2.320368528366089,0.02054048329591751,-0.934605062007904,0.0765380859375,0.0,0.0010618397500365973,0.0,-1.2535110712051392,0.0,0.0016673291102051735,0.0
63.869544506073,0.0013986070407554507,0.009286842308938503,359.99981689453125,59.093143463134766,359.9997863769531,0.008339472115039825,359.9992370605469,33.646461486816406,33.8897705078125,31.689502716064453,38.382957458496094,39.53828048706055,42.617530822753906,41.972999572753906,-0.10469695180654526,17.179248809814453,0.33981528878211975,18.19170379638672,-0.2668725848197937,5.909669876098633,-0.5797545909881592,-0.265869140625,-1.7080268859863281,0.024169921875,-2.4094204902648926,0.02054048329591751,-0.9386332631111145,0.07664402574300766,0.0,-0.00045575835974887013,0.0,-25.317829132080078,0.0,-0.0016698503168299794,0.0
64.37759613990784,0.0014249166706576943,0.007971360348165035,359.99981689453125,46.359832763671875,359.9997253417969,0.006922320928424597,359.9992370605469,33.646461486816406,33.90668869018555,31.6983642578125,38.399070739746094,39.5535888671875,42.60625076293945,41.99072265625,-0.3057098984718323,13.560042381286621,0.04291677474975586,14.954974174499512,-0.29542070627212524,4.869255542755127,-0.6693630218505859,-0.2583155632019043,-1.6032917499542236,0.0332183800637722,-1.8621997833251953,0.0281982421875,-0.805674135684967,0.08056640625,0.0,-0.005469100084155798,-0.000303382781567052,-25.27140235900879,0.0,-0.000607212248723954,0.0
64.88315320014954,0.0014249166706576943,0.006866355426609516,359.9998474121094,39.96482849121094,359.9997253417969,0.006050228141248226,359.9992370605469,33.661766052246094,33.9058837890625,31.697559356689453,38.411964416503906,39.57292556762695,42.621559143066406,41.98186111450195,-0.12440411746501923,11.491581916809082,0.1411164253950119,12.793789863586426,-0.30771225690841675,4.044119358062744,-0.6447325348854065,-0.265869140625,-1.52272629737854,0.018015196546912193,-1.651611328125,0.03247735649347305,-0.7211143374443054,0.08066704869270325,0.0,-0.012072288431227207,0.00030383586999960244,-24.8906307220459,0.0,-0.008191335014998913,0.0
65.38994693756104,0.0014249166706576943,0.006866355426609516,359.9998474121094,39.96482849121094,359.9997253417969,0.006050228141248226,359.9992370605469,33.661766052246094,33.9058837890625,31.697559356689453,38.411964416503906,39.57292556762695,42.621559143066406,41.98186111450195,-0.12440411746501923,11.491581916809082,0.1411164253950119,12.793789863586426,-0.30771225690841675,4.044119358062744,-0.6447325348854065,-0.265869140625,-1.52272629737854,0.018015196546912193,-1.651611328125,0.03247735649347305,-0.7211143374443054,0.08066704869270325,0.0,-0.012072288431227207,0.00030383586999960244,-24.8906307220459,0.0,-0.008191335014998913,0.0
65.8980758190155,0.0014249166706576943,0.006866355426609516,359.9998474121094,39.96482849121094,359.9997253417969,0.006050228141248226,359.9992370605469,33.661766052246094,33.9058837890625,31.697559356689453,38.411964416503906,39.57292556762695,42.621559143066406,41.98186111450195,-0.12440411746501923,11.491581916809082,0.1411164253950119,12.793789863586426,-0.30771225690841675,4.044119358062744,-0.6447325348854065,-0.265869140625,-1.52272629737854,0.018015196546912193,-1.651611328125,0.03247735649347305,-0.7211143374443054,0.08066704869270325,0.0,-0.012072288431227207,0.00030383586999960244,-24.8906307220459,0.0,-0.008191335014998913,0.0
66.40466451644897,0.0014249166706576943,0.006866355426609516,359.9998474121094,39.96482849121094,359.9997253417969,0.006050228141248226,359.9992370605469,33.661766052246094,33.9058837890625,31.697559356689453,38.411964416503906,39.57292556762695,42.621559143066406,41.98186111450195,-0.12440411746501923,11.491581916809082,0.1411164253950119,12.793789863586426,-0.30771225690841675,4.044119358062744,-0.6447325348854065,-0.265869140625,-1.52272629737854,0.018015196546912193,-1.651611328125,0.03247735649347305,-0.7211143374443054,0.08066704869270325,0.0,-0.012072288431227207,0.00030383586999960244,-24.8906307220459,0.0,-0.008191335014998913,0.0
66.9123146533966,0.0014249166706576943,0.006866355426609516,359.9998474121094,39.96482849121094,359.9997253417969,0.006050228141248226,359.9992370605469,33.661766052246094,33.9058837890625,31.697559356689453,38.411964416503906,39.57292556762695,42.621559143066406,41.98186111450195,-0.12440411746501923,11.491581916809082,0.1411164253950119,12.793789863586426,-0.30771225690841675,4.044119358062744,-0.6447325348854065,-0.265869140625,-1.52272629737854,0.018015196546912193,-1.651611328125,0.03247735649347305,-0.7211143374443054,0.08066704869270325,0.0,-0.012072288431227207,0.00030383586999960244,-24.8906307220459,0.0,-0.008191335014998913,0.0
67.41823887825012,0.0014249166706576943,0.006866355426609516,359.9998474121094,39.96482849121094,359.9997253417969,0.006050228141248226,359.9992370605469,33.661766052246094,33.9058837890625,31.697559356689453,38.411964416503906,39.57292556762695,42.621559143066406,41.98186111450195,-0.12440411746501923,11.491581916809082,0.1411164253950119,12.793789863586426,-0.30771225690841675,4.044119358062744,-0.6447325348854065,-0.265869140625,-1.52272629737854,0.018015196546912193,-1.651611328125,0.03247735649347305,-0.7211143374443054,0.08066704869270325,0.0,-0.012072288431227207,0.00030383586999960244,-24.8906307220459,0.0,-0.008191335014998913,0.0
67.9245491027832,0.0014249166706576943,0.006866355426609516,359.9998474121094,39.96482849121094,359.9997253417969,0.006050228141248226,359.9992370605469,33.661766052246094,33.9058837890625,31.697559356689453,38.411964416503906,39.57292556762695,42.621559143066406,41.98186111450195,-0.12440411746501923,11.491581916809082,0.1411164253950119,12.793789863586426,-0.30771225690841675,4.044119358062744,-0.6447325348854065,-0.265869140625,-1.52272629737854,0.018015196546912193,-1.651611328125,0.03247735649347305,-0.7211143374443054,0.08066704869270325,0.0,-0.012072288431227207,0.00030383586999960244,-24.8906307220459,0.0,-0.008191335014998913,0.0
68.43077325820923,0.0014249166706576943,0.006866355426609516,359.9998474121094,39.96482849121094,359.9997253417969,0.006050228141248226,359.9992370605469,33.661766052246094,33.9058837890625,31.697559356689453,38.411964416503906,39.57292556762695,42.621559143066406,41.98186111450195,-0.12440411746501923,11.491581916809082,0.1411164253950119,12.793789863586426,-0.30771225690841675,4.044119358062744,-0.6447325348854065,-0.265869140625,-1.52272629737854,0.018015196546912193,-1.651611328125,0.03247735649347305,-0.7211143374443054,0.08066704869270325,0.0,-0.012072288431227207,0.00030383586999960244,-24.8906307220459,0.0,-0.008191335014998913,0.0
68.93682909011841,0.0014249166706576943,0.006866355426609516,359.9998474121094,39.96482849121094,359.9997253417969,0.006050228141248226,359.9992370605469,33.661766052246094,33.9058837890625,31.697559356689453,38.411964416503906,39.57292556762695,42.621559143066406,41.98186111450195,-0.12440411746501923,11.491581916809082,0.1411164253950119,12.793789863586426,-0.30771225690841675,4.044119358062744,-0.6447325348854065,-0.265869140625,-1.52272629737854,0.018015196546912193,-1.651611328125,0.03247735649347305,-0.7211143374443054,0.08066704869270325,0.0,-0.012072288431227207,0.00030383586999960244,-24.8906307220459,0.0,-0.008191335014998913,0.0
69.44454026222229,0.0014249166706576943,0.006866355426609516,359.9998474121094,39.96482849121094,359.9997253417969,0.006050228141248226,359.9992370605469,33.661766052246094,33.9058837890625,31.697559356689453,38.411964416503906,39.57292556762695,42.621559143066406,41.98186111450195,-0.12440411746501923,11.491581916809082,0.1411164253950119,12.793789863586426,-0.30771225690841675,4.044119358062744,-0.6447325348854065,-0.265869140625,-1.52272629737854,0.018015196546912193,-1.651611328125,0.03247735649347305,-0.7211143374443054,0.08066704869270325,0.0,-0.012072288431227207,0.00030383586999960244,-24.8906307220459,0.0,-0.008191335014998913,0.0
69.95173168182373,0.0014249166706576943,0.006866355426609516,359.9998474121094,39.96482849121094,359.9997253417969,0.006050228141248226,359.9992370605469,33.661766052246094,33.9058837890625,31.697559356689453,38.411964416503906,39.57292556762695,42.621559143066406,41.98186111450195,-0.12440411746501923,11.491581916809082,0.1411164253950119,12.793789863586426,-0.30771225690841675,4.044119358062744,-0.6447325348854065,-0.265869140625,-1.52272629737854,0.018015196546912193,-1.651611328125,0.03247735649347305,-0.7211143374443054,0.08066704869270325,0.0,-0.012072288431227207,0.00030383586999960244,-24.8906307220459,0.0,-0.008191335014998913,0.0
70.4600338935852,0.0014249166706576943,0.006866355426609516,359.9998474121094,39.96482849121094,359.9997253417969,0.006050228141248226,359.9992370605469,33.661766052246094,33.9058837890625,31.697559356689453,38.411964416503906,39.57292556762695,42.621559143066406,41.98186111450195,-0.12440411746501923,11.491581916809082,0.1411164253950119,12.793789863586426,-0.30771225690841675,4.044119358062744,-0.6447325348854065,-0.265869140625,-1.52272629737854,0.018015196546912193,-1.651611328125,0.03247735649347305,-0.7211143374443054,0.08066704869270325,0.0,-0.012072288431227207,0.00030383586999960244,-24.8906307220459,0.0,-0.008191335014998913,0.0
70.96697616577148,0.0014249166706576943,0.006866355426609516,359.9998474121094,39.96482849121094,359.9997253417969,0.006050228141248226,359.9992370605469,33.661766052246094,33.9058837890625,31.697559356689453,38.411964416503906,39.57292556762695,42.621559143066406,41.98186111450195,-0.12440411746501923,11.491581916809082,0.1411164253950119,12.793789863586426,-0.30771225690841675,4.044119358062744,-0.6447325348854065,-0.265869140625,-1.52272629737854,0.018015196546912193,-1.651611328125,0.03247735649347305,-0.7211143374443054,0.08066704869270325,0.0,-0.012072288431227207,0.00030383586999960244,-24.8906307220459,0.0,-0.008191335014998913,0.0
71.47316980361938,0.0014249166706576943,0.008918507024645805,359.99981689453125,75.02430725097656,359.9997863769531,0.008884530514478683,359.9992370605469,33.66498947143555,33.92924880981445,31.6943359375,38.41598892211914,39.564064025878906,42.625587463378906,42.013282775878906,-0.10631892830133438,17.890295028686523,0.30418264865875244,18.11948585510254,-0.327578604221344,6.383028030395508,-0.6084103584289551,-0.249755859375,-1.6355178356170654,0.02278762124478817,-2.054443359375,0.02450331673026085,-1.0071122646331787,0.0765380859375,0.00030337978387251496,-0.004283715505152941,0.0,-0.09633927047252655,0.0,-0.006527596618980169,0.0
71.9801857471466,0.0013986070407554507,0.009128984063863754,359.99981689453125,74.99871063232422,359.9997863769531,0.009429588913917542,359.9992370605469,33.658546447753906,33.9219970703125,31.712060928344727,38.41035079956055,39.551979064941406,42.612693786621094,41.989112854003906,-0.17096170783042908,18.269411087036133,0.3039747178554535,18.28578758239746,-0.31696271896362305,6.430513381958008,-0.5994547009468079,-0.2578125,-1.65966796875,0.02278762124478817,-2.11083984375,0.0166091900318861,-1.03125,0.07664402574300766,0.0,0.0010610276367515326,0.0,-0.0006385432207025588,0.0,0.002734550042077899,0.0
72.48896789550781,0.0013986070407554507,0.009181602858006954,359.99981689453125,69.23724365234375,359.9997863769531,0.009211565367877483,359.9992370605469,33.66096115112305,33.9300537109375,31.708837509155273,38.428077697753906,39.576148986816406,42.619140625,41.981056213378906,-0.3135732412338257,18.929100036621094,0.14373913407325745,20.30527114868164,-0.3263956904411316,6.385922431945801,-0.6060341596603394,-0.265869140625,-1.6838572025299072,0.0322265625,-2.4738609790802,0.0281982421875,-1.0352861881256104,0.07664402574300766,0.0,-0.002122055273503065,0.0,-24.234546661376953,0.0,-0.0010610276367515326,0.0
72.99753522872925,0.0013986070407554507,0.008497552946209908,359.99981689453125,56.50706481933594,359.9997863769531,0.007848920300602913,359.9992370605469,33.64887619018555,33.939720153808594,31.696752548217773,38.443382263183594,39.55842208862305,42.6312255859375,41.980247497558594,-0.42151764035224915,16.819570541381836,-0.018760833889245987,18.143543243408203,-0.28893089294433594,5.817041873931885,-0.6271604299545288,-0.2659911811351776,-1.6275211572647095,0.0322265625,-2.1833643913269043,0.0322265625,-0.8499851226806641,0.08066704869270325,-0.00045575835974887013,0.0033582416363060474,-0.0004554137121886015,-24.97736930847168,0.0006063014734536409,0.0027283835224807262,0.0
73.5051474571228,0.0014249166706576943,0.006971593946218491,359.99981689453125,43.86294174194336,359.9997253417969,0.005559675861150026,359.9992370605469,33.65129470825195,33.947776794433594,31.711254119873047,38.455467224121094,39.59870529174805,42.61591720581055,41.98347091674805,-0.3109484016895294,11.890055656433105,-0.01002403162419796,13.785910606384277,-0.300088495016098,4.290022850036621,-0.670314610004425,-0.25793835520744324,-1.474365234375,0.01611328125,-1.7402530908584595,0.0332183800637722,-0.7291705012321472,0.07262157648801804,0.0,-0.008943035267293453,0.0,-24.87476348876953,0.0,-0.017926495522260666,0.0
74.0124945640564,0.001451226300559938,359.9971618652344,359.9998474121094,31.169727325439453,359.9997253417969,0.0045240651816129684,359.9992370605469,33.65935134887695,33.943748474121094,31.703197479248047,38.472389221191406,39.53828048706055,42.628807067871094,41.9866943359375,-0.17196762561798096,8.793570518493652,0.03515380248427391,10.861177444458008,-0.32004812359809875,3.250142812728882,-0.6962682008743286,-0.265869140625,-0.966796875,0.025477334856987,-1.5230461359024048,0.024169921875,-0.5841203331947327,0.08898849785327911,0.0003036091511603445,-0.0060937656089663506,0.0,-24.786104202270508,0.0,-0.009715492837131023,0.0
74.5190498828888,0.0014249166706576943,359.9984130859375,359.9998474121094,28.33307456970215,359.9997253417969,0.0050691235810518265,359.9992370605469,33.65935134887695,33.95261001586914,31.713672637939453,38.475608825683594,39.584205627441406,42.640892028808594,41.976219177246094,-0.28158122301101685,9.98804759979248,-0.018067004159092903,10.6723051071167,-0.297086626291275,3.4400277137756348,-0.6683277487754822,-0.2578125,-0.829833984375,0.011393810622394085,-1.4185408353805542,0.02450331673026085,-0.5802040100097656,0.08066704869270325,-0.00030383889679796994,0.011608296073973179,0.0,-25.27140235900879,0.0,0.004395685624331236,0.0
75.02540230751038,0.0014249166706576943,359.9984130859375,359.9998474121094,28.33307456970215,359.9997253417969,0.0050691235810518265,359.9992370605469,33.65935134887695,33.95261001586914,31.713672637939453,38.475608825683594,39.584205627441406,42.640892028808594,41.976219177246094,-0.28158122301101685,9.98804759979248,-0.018067004159092903,10.6723051071167,-0.297086626291275,3.4400277137756348,-0.6683277487754822,-0.2578125,-0.829833984375,0.011393810622394085,-1.4185408353805542,0.02450331673026085,-0.5802040100097656,0.08066704869270325,-0.00030383889679796994,0.011608296073973179,0.0,-25.27140235900879,0.0,0.004395685624331236,0.0
75.53357291221619,0.0014249166706576943,359.9984130859375,359.9998474121094,28.33307456970215,359.9997253417969,0.0050691235810518265,359.9992370605469,33.65935134887695,33.95261001586914,31.713672637939453,38.475608825683594,39.584205627441406,42.640892028808594,41.976219177246094,-0.28158122301101685,9.98804759979248,-0.018067004159092903,10.6723051071167,-0.297086626291275,3.4400277137756348,-0.6683277487754822,-0.2578125,-0.829833984375,0.011393810622394085,-1.4185408353805542,0.02450331673026085,-0.5802040100097656,0.08066704869270325,-0.00030383889679796994,0.011608296073973179,0.0,-25.27140235900879,0.0,0.004395685624331236,0.0
76.03961944580078,0.0014249166706576943,359.9984130859375,359.9998474121094,28.33307456970215,359.9997253417969,0.0050691235810518265,359.9992370605469,33.65935134887695,33.95261001586914,31.713672637939453,38.475608825683594,39.584205627441406,42.640892028808594,41.976219177246094,-0.28158122301101685,9.98804759979248,-0.018067004159092903,10.6723051071167,-0.297086626291275,3.4400277137756348,-0.6683277487754822,-0.2578125,-0.829833984375,0.011393810622394085,-1.4185408353805542,0.02450331673026085,-0.5802040100097656,0.08066704869270325,-0.00030383889679796994,0.011608296073973179,0.0,-25.27140235900879,0.0,0.004395685624331236,0.0
76.54644918441772,0.0014249166706576943,359.9984130859375,359.9998474121094,28.33307456970215,359.9997253417969,0.0050691235810518265,359.9992370605469,33.65935134887695,33.95261001586914,31.713672637939453,38.475608825683594,39.584205627441406,42.640892028808594,41.976219177246094,-0.28158122301101685,9.98804759979248,-0.018067004159092903,10.6723051071167,-0.297086626291275,3.4400277137756348,-0.6683277487754822,-0.2578125,-0.829833984375,0.011393810622394085,-1.4185408353805542,0.02450331673026085,-0.5802040100097656,0.08066704869270325,-0.00030383889679796994,0.011608296073973179,0.0,-25.27140235900879,0.0,0.004395685624331236,0.0
77.05253601074219,0.0014249166706576943,359.9984130859375,359.9998474121094,28.33307456970215,359.9997253417969,0.0050691235810518265,359.9992370605469,33.65935134887695,33.95261001586914,31.713672637939453,38.475608825683594,39.584205627441406,42.640892028808594,41.976219177246094,-0.28158122301101685,9.98804759979248,-0.018067004159092903,10.6723051071167,-0.297086626291275,3.4400277137756348,-0.6683277487754822,-0.2578125,-0.829833984375,0.011393810622394085,-1.4185408353805542,0.02450331673026085,-0.5802040100097656,0.08066704869270325,-0.00030383889679796994,0.011608296073973179,0.0,-25.27140235900879,0.0,0.004395685624331236,0.0
77.55953741073608,0.0014249166706576943,359.9984130859375,359.9998474121094,28.33307456970215,359.9997253417969,0.0050691235810518265,359.9992370605469,33.65935134887695,33.95261001586914,31.713672637939453,38.475608825683594,39.584205627441406,42.640892028808594,41.976219177246094,-0.28158122301101685,9.98804759979248,-0.018067004159092903,10.6723051071167,-0.297086626291275,3.4400277137756348,-0.6683277487754822,-0.2578125,-0.829833984375,0.011393810622394085,-1.4185408353805542,0.02450331673026085,-0.5802040100097656,0.08066704869270325,-0.00030383889679796994,0.011608296073973179,0.0,-25.27140235900879,0.0,0.004395685624331236,0.0
78.0656054019928,0.0014249166706576943,359.9984130859375,359.9998474121094,28.33307456970215,359.9997253417969,0.0050691235810518265,359.9992370605469,33.65935134887695,33.95261001586914,31.713672637939453,38.475608825683594,39.584205627441406,42.640892028808594,41.976219177246094,-0.28158122301101685,9.98804759979248,-0.018067004159092903,10.6723051071167,-0.297086626291275,3.4400277137756348,-0.6683277487754822,-0.2578125,-0.829833984375,0.011393810622394085,-1.4185408353805542,0.02450331673026085,-0.5802040100097656,0.08066704869270325,-0.00030383889679796994,0.011608296073973179,0.0,-25.27140235900879,0.0,0.004395685624331236,0.0
