Time (s),Pos_0,Pos_1,Pos_2,Pos_3,Pos_4,Pos_5,Pos_6,Temp_0,Temp_1,Temp_2,Temp_3,Temp_4,Temp_5,Temp_6,Torque_0,Torque_1,Torque_2,Torque_3,Torque_4,Torque_5,Torque_6,Current_0,Current_1,Current_2,Current_3,Current_4,Current_5,Current_6,Velocity_0,Velocity_1,Velocity_2,Velocity_3,Velocity_4,Velocity_5,Velocity_6
0.0,0.001657141838222742,359.9991455078125,359.99969482421875,359.9989929199219,5.706041702069342e-05,0.0007056824979372323,359.99993896484375,35.41328048706055,36.0731201171875,32.70624923706055,38.810768127441406,39.974143981933594,43.47797775268555,42.39838790893555,-0.30769652128219604,0.03108721598982811,-0.3968939185142517,0.0934390127658844,-0.6057923436164856,0.14219939708709717,-0.7658876180648804,-0.29048630595207214,0.1619364619255066,0.04108096659183502,0.17742909491062164,-0.008056640625,-0.07262157648801804,0.0056969053111970425,0.0,-0.00030337978387251496,0.0,0.0,0.0,0.0,0.0
0.5073626041412354,0.001657141838222742,359.9991455078125,359.99969482421875,359.9989929199219,5.706041702069342e-05,0.0007056824979372323,359.99993896484375,35.410057067871094,36.06184005737305,32.695777893066406,38.790626525878906,39.954811096191406,43.4691162109375,42.4136962890625,-0.33988672494888306,0.014932810328900814,-0.35628601908683777,0.09789382666349411,-0.5973673462867737,0.15547554194927216,-0.775608241558075,-0.29820457100868225,0.15328805148601532,0.0490066334605217,0.16938117146492004,-0.0040283203125,-0.072509765625,0.0056969053111970425,0.0,-0.0003036091511603445,0.0,0.0,0.0,0.0,0.0
1.0214674472808838,0.001657141838222742,359.9991760253906,359.99969482421875,359.9989929199219,5.706041702069342e-05,0.0007056824979372323,359.99993896484375,35.40925216674805,36.06103515625,32.70463943481445,38.77692794799805,39.94111251831055,43.46831130981445,42.39033126831055,-0.3456263840198517,0.007579178083688021,-0.4069180488586426,0.0932014212012291,-0.6088190078735352,0.14690889418125153,-0.7776240706443787,-0.30657610297203064,0.1613340973854065,0.04833984375,0.169189453125,-0.0040283203125,-0.07664402574300766,0.011393810622394085,0.0,0.0003040689625777304,0.0,0.0,0.0,0.0,0.0
1.5294628143310547,0.001657141838222742,359.9991455078125,359.99969482421875,6.437405586242676,5.706041702069342e-05,0.001196234836243093,359.99993896484375,35.40119552612305,36.054588317871094,32.698997497558594,38.798683166503906,39.966896057128906,43.502952575683594,42.39033126831055,-0.2672736346721649,0.2055385559797287,-0.341691792011261,0.10050012171268463,-0.6190129518508911,0.5651586055755615,-0.7729139924049377,-0.29820457100868225,0.17724609375,0.040283203125,0.5076322555541992,-0.0040283203125,-0.08066704869270325,-0.0040283203125,0.0,0.0018189044203609228,0.0,25.373842239379883,0.0,0.00653253635391593,0.0
2.0373620986938477,0.0016045225784182549,0.00787353515625,359.99969482421875,19.162429809570312,0.00011156623077113181,0.0023953625932335854,359.99993896484375,35.4044189453125,36.058616638183594,32.719139099121094,38.79062271118164,39.968505859375,43.462669372558594,42.439476013183594,-0.3497485816478729,4.513540744781494,-0.1882229447364807,4.168203353881836,-0.6198651194572449,1.9531748294830322,-0.7505311369895935,-0.30615234375,-0.7412546873092651,0.04833984375,0.0649547129869461,-0.009007598273456097,-0.2578439712524414,0.0120849609375,0.00030315073672682047,-0.024068033322691917,0.00030337978387251496,24.669811248779297,0.0,-0.003797986311838031,0.0
2.544780969619751,0.0015782129485160112,0.008392333984375,359.9996643066406,30.902183532714844,0.00011156623077113181,0.0106802461668849,359.99993896484375,35.406837463378906,36.051368713378906,32.70947265625,38.7882080078125,40.0128173828125,43.50214767456055,42.417724609375,-0.33890658617019653,9.591826438903809,-0.07865548878908157,8.13991928100586,-0.6086320877075195,3.2419514656066895,-0.73079913854599,-0.30625835061073303,-1.095703125,0.0649547129869461,0.040283203125,-0.009007598273456097,-0.600273847579956,0.009007598273456097,0.0,-0.0003068512014579028,0.0,26.308258056640625,0.0,-0.07906436175107956,0.0
3.0518171787261963,0.0015782129485160112,0.008392333984375,359.9996643066406,30.902183532714844,0.00011156623077113181,0.0106802461668849,359.99993896484375,35.406837463378906,36.051368713378906,32.70947265625,38.7882080078125,40.0128173828125,43.50214767456055,42.417724609375,-0.33890658617019653,9.591826438903809,-0.07865548878908157,8.13991928100586,-0.6086320877075195,3.2419514656066895,-0.73079913854599,-0.30625835061073303,-1.095703125,0.0649547129869461,0.040283203125,-0.009007598273456097,-0.600273847579956,0.009007598273456097,0.0,-0.0003068512014579028,0.0,26.308258056640625,0.0,-0.07906436175107956,0.0
3.560415267944336,0.0015782129485160112,0.008392333984375,359.9996643066406,30.902183532714844,0.00011156623077113181,0.0106802461668849,359.99993896484375,35.406837463378906,36.051368713378906,32.70947265625,38.7882080078125,40.0128173828125,43.50214767456055,42.417724609375,-0.33890658617019653,9.591826438903809,-0.07865548878908157,8.13991928100586,-0.6086320877075195,3.2419514656066895,-0.73079913854599,-0.30625835061073303,-1.095703125,0.0649547129869461,0.040283203125,-0.009007598273456097,-0.600273847579956,0.009007598273456097,0.0,-0.0003068512014579028,0.0,26.308258056640625,0.0,-0.07906436175107956,0.0
4.0683674812316895,0.0015782129485160112,0.008392333984375,359.9996643066406,30.902183532714844,0.00011156623077113181,0.0106802461668849,359.99993896484375,35.406837463378906,36.051368713378906,32.70947265625,38.7882080078125,40.0128173828125,43.50214767456055,42.417724609375,-0.33890658617019653,9.591826438903809,-0.07865548878908157,8.13991928100586,-0.6086320877075195,3.2419514656066895,-0.73079913854599,-0.30625835061073303,-1.095703125,0.0649547129869461,0.040283203125,-0.009007598273456097,-0.600273847579956,0.009007598273456097,0.0,-0.0003068512014579028,0.0,26.308258056640625,0.0,-0.07906436175107956,0.0
4.576374053955078,0.0015782129485160112,0.008392333984375,359.9996643066406,30.902183532714844,0.00011156623077113181,0.0106802461668849,359.99993896484375,35.406837463378906,36.051368713378906,32.70947265625,38.7882080078125,40.0128173828125,43.50214767456055,42.417724609375,-0.33890658617019653,9.591826438903809,-0.07865548878908157,8.13991928100586,-0.6086320877075195,3.2419514656066895,-0.73079913854599,-0.30625835061073303,-1.095703125,0.0649547129869461,0.040283203125,-0.009007598273456097,-0.600273847579956,0.009007598273456097,0.0,-0.0003068512014579028,0.0,26.308258056640625,0.0,-0.07906436175107956,0.0
5.085749626159668,0.0015782129485160112,0.008392333984375,359.9996643066406,30.902183532714844,0.00011156623077113181,0.0106802461668849,359.99993896484375,35.406837463378906,36.051368713378906,32.70947265625,38.7882080078125,40.0128173828125,43.50214767456055,42.417724609375,-0.33890658617019653,9.591826438903809,-0.07865548878908157,8.13991928100586,-0.6086320877075195,3.2419514656066895,-0.73079913854599,-0.30625835061073303,-1.095703125,0.0649547129869461,0.040283203125,-0.009007598273456097,-0.600273847579956,0.009007598273456097,0.0,-0.0003068512014579028,0.0,26.308258056640625,0.0,-0.07906436175107956,0.0
5.595982074737549,0.0015782129485160112,0.008392333984375,359.9996643066406,30.902183532714844,0.00011156623077113181,0.0106802461668849,359.99993896484375,35.406837463378906,36.051368713378906,32.70947265625,38.7882080078125,40.0128173828125,43.50214767456055,42.417724609375,-0.33890658617019653,9.591826438903809,-0.07865548878908157,8.13991928100586,-0.6086320877075195,3.2419514656066895,-0.73079913854599,-0.30625835061073303,-1.095703125,0.0649547129869461,0.040283203125,-0.009007598273456097,-0.600273847579956,0.009007598273456097,0.0,-0.0003068512014579028,0.0,26.308258056640625,0.0,-0.07906436175107956,0.0
6.105700969696045,0.0015782129485160112,0.008392333984375,359.9996643066406,30.902183532714844,0.00011156623077113181,0.0106802461668849,359.99993896484375,35.406837463378906,36.051368713378906,32.70947265625,38.7882080078125,40.0128173828125,43.50214767456055,42.417724609375,-0.33890658617019653,9.591826438903809,-0.07865548878908157,8.13991928100586,-0.6086320877075195,3.2419514656066895,-0.73079913854599,-0.30625835061073303,-1.095703125,0.0649547129869461,0.040283203125,-0.009007598273456097,-0.600273847579956,0.009007598273456097,0.0,-0.0003068512014579028,0.0,26.308258056640625,0.0,-0.07906436175107956,0.0
6.615492582321167,0.0015782129485160112,0.008392333984375,359.9996643066406,30.902183532714844,0.00011156623077113181,0.0106802461668849,359.99993896484375,35.406837463378906,36.051368713378906,32.70947265625,38.7882080078125,40.0128173828125,43.50214767456055,42.417724609375,-0.33890658617019653,9.591826438903809,-0.07865548878908157,8.13991928100586,-0.6086320877075195,3.2419514656066895,-0.73079913854599,-0.30625835061073303,-1.095703125,0.0649547129869461,0.040283203125,-0.009007598273456097,-0.600273847579956,0.009007598273456097,0.0,-0.0003068512014579028,0.0,26.308258056640625,0.0,-0.07906436175107956,0.0
7.125550985336304,0.0015782129485160112,0.008392333984375,359.9996643066406,30.902183532714844,0.00011156623077113181,0.0106802461668849,359.99993896484375,35.406837463378906,36.051368713378906,32.70947265625,38.7882080078125,40.0128173828125,43.50214767456055,42.417724609375,-0.33890658617019653,9.591826438903809,-0.07865548878908157,8.13991928100586,-0.6086320877075195,3.2419514656066895,-0.73079913854599,-0.30625835061073303,-1.095703125,0.0649547129869461,0.040283203125,-0.009007598273456097,-0.600273847579956,0.009007598273456097,0.0,-0.0003068512014579028,0.0,26.308258056640625,0.0,-0.07906436175107956,0.0
7.634327411651611,0.0015782129485160112,0.008392333984375,359.9996643066406,30.902183532714844,0.00011156623077113181,0.0106802461668849,359.99993896484375,35.406837463378906,36.051368713378906,32.70947265625,38.7882080078125,40.0128173828125,43.50214767456055,42.417724609375,-0.33890658617019653,9.591826438903809,-0.07865548878908157,8.13991928100586,-0.6086320877075195,3.2419514656066895,-0.73079913854599,-0.30625835061073303,-1.095703125,0.0649547129869461,0.040283203125,-0.009007598273456097,-0.600273847579956,0.009007598273456097,0.0,-0.0003068512014579028,0.0,26.308258056640625,0.0,-0.07906436175107956,0.0
8.141358137130737,0.0015782129485160112,0.008392333984375,359.9996643066406,30.902183532714844,0.00011156623077113181,0.0106802461668849,359.99993896484375,35.406837463378906,36.051368713378906,32.70947265625,38.7882080078125,40.0128173828125,43.50214767456055,42.417724609375,-0.33890658617019653,9.591826438903809,-0.07865548878908157,8.13991928100586,-0.6086320877075195,3.2419514656066895,-0.73079913854599,-0.30625835061073303,-1.095703125,0.0649547129869461,0.040283203125,-0.009007598273456097,-0.600273847579956,0.009007598273456097,0.0,-0.0003068512014579028,0.0,26.308258056640625,0.0,-0.07906436175107956,0.0
8.64934754371643,0.0015782129485160112,0.008392333984375,359.9996643066406,30.902183532714844,0.00011156623077113181,0.0106802461668849,359.99993896484375,35.406837463378906,36.051368713378906,32.70947265625,38.7882080078125,40.0128173828125,43.50214767456055,42.417724609375,-0.33890658617019653,9.591826438903809,-0.07865548878908157,8.13991928100586,-0.6086320877075195,3.2419514656066895,-0.73079913854599,-0.30625835061073303,-1.095703125,0.0649547129869461,0.040283203125,-0.009007598273456097,-0.600273847579956,0.009007598273456097,0.0,-0.0003068512014579028,0.0,26.308258056640625,0.0,-0.07906436175107956,0.0
9.156529664993286,0.0015782129485160112,0.009521484375,359.9996643066406,76.56039428710938,0.0001660720445215702,0.008990566246211529,359.99993896484375,35.41167068481445,36.13434982299805,32.693359375,38.793846130371094,39.9322509765625,43.47394943237305,42.38469314575195,-0.2396889477968216,18.22694969177246,0.19460095465183258,18.61754035949707,-0.6730135083198547,6.274214267730713,-0.70329350233078,-0.2820974886417389,-1.7483652830123901,0.040283203125,-1.482421875,-0.0120849609375,-0.990966796875,0.0056969053111970425,0.0,0.0021252641454339027,0.00030383889679796994,0.006517740897834301,0.0,0.0010618292726576328,0.0
9.66744613647461,0.0015519033186137676,0.0096435546875,359.9996337890625,76.56068420410156,0.0001660720445215702,0.0090450718998909,359.99993896484375,35.40925216674805,36.151268005371094,32.71027755737305,38.786598205566406,39.962059020996094,43.474754333496094,42.38872146606445,-0.31853777170181274,20.019994735717773,0.23619209229946136,19.452577590942383,-0.668418288230896,6.589981555938721,-0.6875672936439514,-0.298095703125,-1.75634765625,0.04833984375,-1.482421875,-0.0127386674284935,-0.9949951171875,0.0056969053111970425,-0.00030337978387251496,0.003643309697508812,-0.00030337978387251496,0.0015169138787314296,0.0,0.00212047528475523,0.0
10.17704963684082,0.0015782129485160112,0.009368896484375,359.9996337890625,76.56058502197266,0.0001660720445215702,0.008881554938852787,359.99993896484375,35.41167068481445,36.14885330200195,32.715110778808594,38.81721115112305,39.95561599731445,43.5093994140625,42.416114807128906,-0.2623593211174011,17.83989715576172,0.2119731605052948,18.5696964263916,-0.7053889036178589,6.252901554107666,-0.712030291557312,-0.2985308766365051,-1.724139928817749,0.056396484375,-1.4501953125,-0.0120849609375,-0.986946702003479,0.008056640625,0.00030337978387251496,-0.0024270382709801197,0.0,-0.0009101393516175449,0.0,-0.002122055273503065,0.0
10.687371730804443,0.0015782129485160112,0.00946044921875,359.9996337890625,76.56063842773438,0.0001660720445215702,0.008990566246211529,359.99993896484375,35.40925216674805,36.156105041503906,32.701416015625,38.80673599243164,39.926612854003906,43.46992111206055,42.417724609375,-0.2828218638896942,17.925195693969727,0.1741783320903778,18.618011474609375,-0.6659008264541626,6.289977550506592,-0.6806827783584595,-0.2900390625,-1.7564215660095215,0.064453125,-1.4663307666778564,-0.011393810622394085,-0.986946702003479,0.0056969053111970425,0.0,-0.000303606124361977,0.0,0.0,0.0,0.0006063014734536409,0.0
11.194509983062744,0.0015782129485160112,0.009552001953125,359.9996337890625,76.56066131591797,0.0001660720445215702,0.0090450718998909,359.99993896484375,35.40764236450195,36.17060470581055,32.70463943481445,38.816402435302734,39.96367263793945,43.48845291137695,42.44108963012695,-0.2898486256599426,19.29048728942871,0.20969972014427185,19.25727653503418,-0.6553123593330383,6.5165228843688965,-0.6870203614234924,-0.2900390625,-1.7402530908584595,0.0649547129869461,-1.4663307666778564,-0.0127386674284935,-0.986946702003479,0.0040283203125,0.0,0.0015191944548860192,-0.000303382781567052,0.0007578768418170512,0.0,0.00106343615334481,0.0
11.702879905700684,0.0015782129485160112,0.00946044921875,359.9996643066406,76.56060791015625,0.0001660720445215702,0.008936060592532158,359.99993896484375,35.4124755859375,36.188331604003906,32.71027755737305,38.81559753417969,39.974143981933594,43.486839294433594,42.404029846191406,-0.2793180048465729,18.494327545166016,0.18553116917610168,18.850704193115234,-0.6745323538780212,6.335453510284424,-0.6963410377502441,-0.2910443842411041,-1.7402530908584595,0.0490066334605217,-1.474387288093567,-0.008056640625,-0.986946702003479,0.0040283203125,0.0,-0.00030315073672682047,0.000303382781567052,-0.000606765563134104,0.0,-0.0006076777935959399,0.0
12.210928678512573,0.0015782129485160112,0.00946044921875,359.9996337890625,76.56060791015625,0.0001660720445215702,0.008990566246211529,359.99993896484375,35.40119552612305,36.19477462768555,32.699806213378906,38.83171463012695,39.970115661621094,43.463478088378906,42.471702575683594,-0.26059260964393616,18.040987014770508,0.20975260436534882,18.62703514099121,-0.6550604104995728,6.272402763366699,-0.6997817158699036,-0.2830163836479187,-1.740234375,0.064453125,-1.46630859375,-0.014524315483868122,-0.986946702003479,0.0040283203125,0.0,-0.0003040719893760979,0.0,-0.00030383889679796994,0.0,0.0,0.0
12.719585180282593,0.0015782129485160112,0.009490966796875,359.9996643066406,76.56063842773438,0.0001660720445215702,0.008990566246211529,359.99993896484375,35.4044189453125,36.19316482543945,32.693359375,38.826072692871094,40.007179260253906,43.48845291137695,42.400001525878906,-0.2754668593406677,18.783517837524414,0.22863008081912994,18.92392349243164,-0.691560685634613,6.411508560180664,-0.7019068598747253,-0.2659911811351776,-1.74830961227417,0.056396484375,-1.474387288093567,-0.018015196546912193,-0.9909749627113342,0.0040283203125,0.0,0.00030383889679796994,0.00030383586999960244,0.00030315073672682047,0.0,0.0006063014734536409,0.0
13.227900505065918,0.0015782129485160112,0.00946044921875,359.9996643066406,76.56063842773438,0.0001660720445215702,0.008990566246211529,359.99993896484375,35.40925216674805,36.20927810668945,32.70222091674805,38.834129333496094,39.970115661621094,43.47636795043945,42.44511795043945,-0.27532899379730225,18.771461486816406,0.21377745270729065,18.9329776763916,-0.681268036365509,6.401979923248291,-0.712112307548523,-0.298095703125,-1.7402530908584595,0.056969054043293,-1.482421875,-0.02278762124478817,-0.9909749627113342,0.008056640625,0.0,0.0,0.00030337978387251496,0.00030315073672682047,0.0,0.0,0.0
13.737803220748901,0.0015782129485160112,0.00946044921875,359.9996643066406,76.56060791015625,0.0001660720445215702,0.008990566246211529,359.99993896484375,35.394752502441406,36.2020263671875,32.70866775512695,38.83171463012695,39.962059020996094,43.470726013183594,42.4459228515625,-0.291096568107605,18.262649536132812,0.16235145926475525,18.67867660522461,-0.686774730682373,6.32623815536499,-0.6837109923362732,-0.2743992805480957,-1.74830961227417,0.0649547129869461,-1.482421875,-0.0127386674284935,-0.9909749627113342,0.0,0.0,0.0,0.0,-0.00030383889679796994,0.0,0.0,0.0
14.24547266960144,0.0015782129485160112,0.00946044921875,359.9996643066406,76.56060791015625,0.0001660720445215702,0.008990566246211529,359.99993896484375,35.394752502441406,36.2020263671875,32.70866775512695,38.83171463012695,39.962059020996094,43.470726013183594,42.4459228515625,-0.291096568107605,18.262649536132812,0.16235145926475525,18.67867660522461,-0.686774730682373,6.32623815536499,-0.6837109923362732,-0.2743992805480957,-1.74830961227417,0.0649547129869461,-1.482421875,-0.0127386674284935,-0.9909749627113342,0.0,0.0,0.0,0.0,-0.00030383889679796994,0.0,0.0,0.0
14.756402492523193,0.0015782129485160112,0.00946044921875,359.9996643066406,76.56060791015625,0.0001660720445215702,0.008990566246211529,359.99993896484375,35.394752502441406,36.2020263671875,32.70866775512695,38.83171463012695,39.962059020996094,43.470726013183594,42.4459228515625,-0.291096568107605,18.262649536132812,0.16235145926475525,18.67867660522461,-0.686774730682373,6.32623815536499,-0.6837109923362732,-0.2743992805480957,-1.74830961227417,0.0649547129869461,-1.482421875,-0.0127386674284935,-0.9909749627113342,0.0,0.0,0.0,0.0,-0.00030383889679796994,0.0,0.0,0.0
15.265060186386108,0.0015782129485160112,0.00946044921875,359.9996643066406,76.56060791015625,0.0001660720445215702,0.008990566246211529,359.99993896484375,35.394752502441406,36.2020263671875,32.70866775512695,38.83171463012695,39.962059020996094,43.470726013183594,42.4459228515625,-0.291096568107605,18.262649536132812,0.16235145926475525,18.67867660522461,-0.686774730682373,6.32623815536499,-0.6837109923362732,-0.2743992805480957,-1.74830961227417,0.0649547129869461,-1.482421875,-0.0127386674284935,-0.9909749627113342,0.0,0.0,0.0,0.0,-0.00030383889679796994,0.0,0.0,0.0
15.775428771972656,0.0015782129485160112,0.00946044921875,359.9996643066406,76.56060791015625,0.0001660720445215702,0.008990566246211529,359.99993896484375,35.394752502441406,36.2020263671875,32.70866775512695,38.83171463012695,39.962059020996094,43.470726013183594,42.4459228515625,-0.291096568107605,18.262649536132812,0.16235145926475525,18.67867660522461,-0.686774730682373,6.32623815536499,-0.6837109923362732,-0.2743992805480957,-1.74830961227417,0.0649547129869461,-1.482421875,-0.0127386674284935,-0.9909749627113342,0.0,0.0,0.0,0.0,-0.00030383889679796994,0.0,0.0,0.0
16.282190322875977,0.0015782129485160112,0.00946044921875,359.9996643066406,76.56060791015625,0.0001660720445215702,0.008990566246211529,359.99993896484375,35.394752502441406,36.2020263671875,32.70866775512695,38.83171463012695,39.962059020996094,43.470726013183594,42.4459228515625,-0.291096568107605,18.262649536132812,0.16235145926475525,18.67867660522461,-0.686774730682373,6.32623815536499,-0.6837109923362732,-0.2743992805480957,-1.74830961227417,0.0649547129869461,-1.482421875,-0.0127386674284935,-0.9909749627113342,0.0,0.0,0.0,0.0,-0.00030383889679796994,0.0,0.0,0.0
16.791436672210693,0.0015782129485160112,0.00946044921875,359.9996643066406,76.56060791015625,0.0001660720445215702,0.008990566246211529,359.99993896484375,35.394752502441406,36.2020263671875,32.70866775512695,38.83171463012695,39.962059020996094,43.470726013183594,42.4459228515625,-0.291096568107605,18.262649536132812,0.16235145926475525,18.67867660522461,-0.686774730682373,6.32623815536499,-0.6837109923362732,-0.2743992805480957,-1.74830961227417,0.0649547129869461,-1.482421875,-0.0127386674284935,-0.9909749627113342,0.0,0.0,0.0,0.0,-0.00030383889679796994,0.0,0.0,0.0
17.29996347427368,0.0015782129485160112,0.00946044921875,359.9996643066406,76.56060791015625,0.0001660720445215702,0.008990566246211529,359.99993896484375,35.394752502441406,36.2020263671875,32.70866775512695,38.83171463012695,39.962059020996094,43.470726013183594,42.4459228515625,-0.291096568107605,18.262649536132812,0.16235145926475525,18.67867660522461,-0.686774730682373,6.32623815536499,-0.6837109923362732,-0.2743992805480957,-1.74830961227417,0.0649547129869461,-1.482421875,-0.0127386674284935,-0.9909749627113342,0.0,0.0,0.0,0.0,-0.00030383889679796994,0.0,0.0,0.0
17.808711528778076,0.0015782129485160112,0.00946044921875,359.9996643066406,76.56060791015625,0.0001660720445215702,0.008990566246211529,359.99993896484375,35.394752502441406,36.2020263671875,32.70866775512695,38.83171463012695,39.962059020996094,43.470726013183594,42.4459228515625,-0.291096568107605,18.262649536132812,0.16235145926475525,18.67867660522461,-0.686774730682373,6.32623815536499,-0.6837109923362732,-0.2743992805480957,-1.74830961227417,0.0649547129869461,-1.482421875,-0.0127386674284935,-0.9909749627113342,0.0,0.0,0.0,0.0,-0.00030383889679796994,0.0,0.0,0.0
18.316587448120117,0.0015782129485160112,0.00946044921875,359.9996643066406,76.56060791015625,0.0001660720445215702,0.008990566246211529,359.99993896484375,35.394752502441406,36.2020263671875,32.70866775512695,38.83171463012695,39.962059020996094,43.470726013183594,42.4459228515625,-0.291096568107605,18.262649536132812,0.16235145926475525,18.67867660522461,-0.686774730682373,6.32623815536499,-0.6837109923362732,-0.2743992805480957,-1.74830961227417,0.0649547129869461,-1.482421875,-0.0127386674284935,-0.9909749627113342,0.0,0.0,0.0,0.0,-0.00030383889679796994,0.0,0.0,0.0
18.82543444633484,0.0015782129485160112,0.00946044921875,359.9996643066406,76.56060791015625,0.0001660720445215702,0.008990566246211529,359.99993896484375,35.394752502441406,36.2020263671875,32.70866775512695,38.83171463012695,39.962059020996094,43.470726013183594,42.4459228515625,-0.291096568107605,18.262649536132812,0.16235145926475525,18.67867660522461,-0.686774730682373,6.32623815536499,-0.6837109923362732,-0.2743992805480957,-1.74830961227417,0.0649547129869461,-1.482421875,-0.0127386674284935,-0.9909749627113342,0.0,0.0,0.0,0.0,-0.00030383889679796994,0.0,0.0,0.0
19.33340549468994,0.0015782129485160112,0.00946044921875,359.9996643066406,76.56060791015625,0.0001660720445215702,0.008990566246211529,359.99993896484375,35.394752502441406,36.2020263671875,32.70866775512695,38.83171463012695,39.962059020996094,43.470726013183594,42.4459228515625,-0.291096568107605,18.262649536132812,0.16235145926475525,18.67867660522461,-0.686774730682373,6.32623815536499,-0.6837109923362732,-0.2743992805480957,-1.74830961227417,0.0649547129869461,-1.482421875,-0.0127386674284935,-0.9909749627113342,0.0,0.0,0.0,0.0,-0.00030383889679796994,0.0,0.0,0.0
19.84249186515808,0.0015782129485160112,0.00946044921875,359.9996643066406,76.56060791015625,0.0001660720445215702,0.008990566246211529,359.99993896484375,35.394752502441406,36.2020263671875,32.70866775512695,38.83171463012695,39.962059020996094,43.470726013183594,42.4459228515625,-0.291096568107605,18.262649536132812,0.16235145926475525,18.67867660522461,-0.686774730682373,6.32623815536499,-0.6837109923362732,-0.2743992805480957,-1.74830961227417,0.0649547129869461,-1.482421875,-0.0127386674284935,-0.9909749627113342,0.0,0.0,0.0,0.0,-0.00030383889679796994,0.0,0.0,0.0
20.353045225143433,0.0015782129485160112,0.00946044921875,359.9996337890625,76.56063842773438,0.0001660720445215702,0.008990566246211529,359.99993896484375,35.402000427246094,36.304344177246094,32.70866775512695,38.874412536621094,39.95964431762695,43.502952575683594,42.424171447753906,-0.287282258272171,18.525218963623047,0.18579620122909546,18.81777000427246,-0.6713373064994812,6.3789448738098145,-0.7208347916603088,-0.2900390625,-1.75634765625,0.0490066334605217,-1.4663307666778564,-0.0166091900318861,-0.9909749627113342,-0.0056969053111970425,0.0,0.0,-0.0003040689625777304,0.00030383889679796994,0.0,0.0,0.0
20.863908052444458,0.0015782129485160112,0.00946044921875,359.9996643066406,76.56060791015625,0.0001660720445215702,0.008990566246211529,359.99993896484375,35.40522384643555,36.3228759765625,32.711082458496094,38.88408279418945,39.94111251831055,43.481201171875,42.449951171875,-0.28437909483909607,18.509136199951172,0.17719697952270508,18.810447692871094,-0.6887277960777283,6.35634183883667,-0.702937126159668,-0.29820457100868225,-1.748291015625,0.07295598834753036,-1.46630859375,-0.0166091900318861,-0.9869384765625,0.0040283203125,0.0,0.0,0.00030315073672682047,0.0,0.0,0.0,0.0
21.372260808944702,0.0015782129485160112,0.00946044921875,359.9996337890625,76.56063842773438,0.0001660720445215702,0.008990566246211529,359.99993896484375,35.406837463378906,36.316429138183594,32.70061111450195,38.88408279418945,39.990257263183594,43.497314453125,42.433837890625,-0.2658080756664276,18.526893615722656,0.20705096423625946,18.78728485107422,-0.6819189190864563,6.373525619506836,-0.6989724040031433,-0.298095703125,-1.732177734375,0.04833984375,-1.4663307666778564,-0.014524315483868122,-0.98291015625,0.0040283203125,0.0,0.0,0.0,0.00030383889679796994,0.0,0.0,0.0
21.881495714187622,0.0015782129485160112,0.00946044921875,359.9996337890625,76.56060791015625,0.0001660720445215702,0.008990566246211529,359.99993896484375,35.41569900512695,36.320457458496094,32.711891174316406,38.883277893066406,39.96931076049805,43.52067947387695,42.395164489746094,-0.29181599617004395,18.543651580810547,0.20643647015094757,18.824871063232422,-0.667178750038147,6.35588264465332,-0.6922969222068787,-0.2820974886417389,-1.74830961227417,0.0649547129869461,-1.4663307666778564,-0.0201416015625,-0.990966796875,0.0,0.0,0.0,-0.00030337978387251496,0.0,0.0,0.0,0.0
22.3905246257782,0.0015782129485160112,0.00946044921875,359.9996643066406,76.56060791015625,0.0001660720445215702,0.008990566246211529,359.99993896484375,35.4124755859375,36.32609939575195,32.71430587768555,38.8768310546875,39.974952697753906,43.515037536621094,42.463645935058594,-0.2690533399581909,18.520431518554688,0.20820005238056183,18.802654266357422,-0.6798425316810608,6.357511043548584,-0.6866245269775391,-0.281982421875,-1.748291015625,0.056396484375,-1.4663307666778564,-0.02054048329591751,-0.990966796875,0.008056640625,0.0,0.0,0.00030383889679796994,0.0,0.0,0.0,0.0
22.898398876190186,0.0015782129485160112,0.00946044921875,359.9996337890625,76.56060791015625,0.0001660720445215702,0.008990566246211529,359.99993896484375,35.414085388183594,36.33012771606445,32.70061111450195,38.8929443359375,39.99589920043945,43.482810974121094,42.40886306762695,-0.25692301988601685,18.50800323486328,0.22468140721321106,18.825702667236328,-0.693191409111023,6.368369102478027,-0.6923635005950928,-0.2820974886417389,-1.75634765625,0.0490066334605217,-1.474365234375,-0.02054048329591751,-0.9909749627113342,0.0056969053111970425,0.0,0.0,-0.0003036091511603445,0.0,0.0,0.0,0.0
23.40739870071411,0.0015782129485160112,0.00946044921875,359.9996337890625,76.56063842773438,0.0001660720445215702,0.008990566246211529,359.99993896484375,35.41167068481445,36.3389892578125,32.73283767700195,38.89697265625,39.968505859375,43.4892578125,42.420143127441406,-0.2761228084564209,18.525510787963867,0.1878369152545929,18.81103515625,-0.6864965558052063,6.3907151222229,-0.69582200050354,-0.2901509404182434,-1.748291015625,0.056396484375,-1.4824438095092773,-0.0166091900318861,-0.990966796875,-0.0040283203125,0.0,0.0,-0.00030315073672682047,0.00030383889679796994,0.0,0.0,0.0
23.919521808624268,0.0015782129485160112,0.00946044921875,359.9996643066406,76.56060791015625,0.0001660720445215702,0.008990566246211529,359.99993896484375,35.41730880737305,36.348655700683594,32.727195739746094,38.89213943481445,39.986228942871094,43.483619689941406,42.4298095703125,-0.27465248107910156,18.540687561035156,0.19190296530723572,18.818574905395508,-0.6956548690795898,6.382866382598877,-0.6732752919197083,-0.2901509404182434,-1.740234375,0.0649547129869461,-1.4663307666778564,-0.014524315483868122,-0.9950032830238342,0.0040283203125,0.0,0.0,0.0,-0.0003036091511603445,0.0,0.0,0.0
24.42738962173462,0.0015782129485160112,0.00946044921875,359.9996643066406,76.56063842773438,0.0001660720445215702,0.008990566246211529,359.99993896484375,35.40925216674805,36.35590744018555,32.7054443359375,38.88408279418945,39.984619140625,43.49811935424805,42.4217529296875,-0.2618584632873535,18.52899932861328,0.21146467328071594,18.81598663330078,-0.665401041507721,6.378049373626709,-0.7108902931213379,-0.2901509404182434,-1.740234375,0.0490066334605217,-1.458274245262146,-0.0040283203125,-0.98291015625,0.0,0.0,0.0,0.000303612177958712,0.00030337978387251496,0.0,0.0,0.0
24.93654155731201,0.0015782129485160112,0.00946044921875,359.9996643066406,76.56060791015625,0.0001660720445215702,0.008990566246211529,359.99993896484375,35.40764236450195,36.357521057128906,32.707862854003906,38.886497497558594,39.96044921875,43.531150817871094,42.41852951049805,-0.2718468904495239,18.528135299682617,0.18043585121631622,18.795589447021484,-0.6891250014305115,6.3858723640441895,-0.6957000494003296,-0.27392578125,-1.7402530908584595,0.07295598834753036,-1.4744532108306885,-0.0166091900318861,-0.990966796875,0.0056969053111970425,0.0,0.0,0.000303612177958712,0.0,0.0,0.0,0.0
25.44732093811035,0.0015782129485160112,0.00946044921875,359.9996337890625,76.56060791015625,0.0001660720445215702,0.008990566246211529,359.99993896484375,35.418922424316406,36.35993576049805,32.693359375,38.8929443359375,39.97172927856445,43.529541015625,42.45317077636719,-0.2899206876754761,18.51677894592285,0.20323093235492706,18.827171325683594,-0.6731513738632202,6.360782146453857,-0.6943891048431396,-0.27392578125,-1.7563661336898804,0.056969054043293,-1.4663970470428467,-0.009007598273456097,-0.9909995794296265,0.0040283203125,0.0,0.0,0.0,0.0,0.0,0.0,0.0
25.958536624908447,0.0015782129485160112,0.00946044921875,359.9996643066406,76.56063842773438,0.0001660720445215702,0.008990566246211529,359.99993896484375,35.41650390625,36.37202072143555,32.717529296875,38.89697265625,39.97333908081055,43.515846252441406,42.46525955200195,-0.26477301120758057,18.521896362304688,0.1820443719625473,18.821590423583984,-0.6935228705406189,6.367733955383301,-0.664724588394165,-0.2659911811351776,-1.748291015625,0.0649547129869461,-1.458274245262146,-0.014524315483868122,-0.986946702003479,-0.0056969053111970425,0.0,0.0,0.0003036091511603445,0.0,0.0,0.0,0.0
26.47026515007019,0.0015782129485160112,0.00946044921875,359.9996337890625,76.56060791015625,0.0001660720445215702,0.008990566246211529,359.99993896484375,35.402000427246094,36.369606018066406,32.711082458496094,38.89777755737305,39.962059020996094,43.5093994140625,42.431419372558594,-0.2723030149936676,18.50084686279297,0.17846184968948364,18.804981231689453,-0.669255256652832,6.367593765258789,-0.7104911804199219,-0.2820974886417389,-1.740234375,0.04833984375,-1.4905003309249878,-0.0166091900318861,-0.9909995794296265,0.008056640625,0.0,0.0,-0.00030315073672682047,0.0,0.0,0.0,0.0
26.98198366165161,0.0015782129485160112,0.00946044921875,359.9996643066406,76.56060791015625,0.0001660720445215702,0.008990566246211529,359.99993896484375,35.41650390625,36.36799240112305,32.71269607543945,38.902610778808594,39.954002380371094,43.50214767456055,42.43303298950195,-0.27526575326919556,18.528898239135742,0.2002352923154831,18.81743621826172,-0.6864230036735535,6.363226890563965,-0.6918628215789795,-0.29048630595207214,-1.7402530908584595,0.0490066334605217,-1.46630859375,-0.025477334856987,-0.9869384765625,0.0040283203125,0.0,0.0,0.00030315073672682047,0.0,0.0,0.0,0.0
27.491925477981567,0.0015782129485160112,0.00946044921875,359.9996643066406,76.56060791015625,0.0001660720445215702,0.008990566246211529,359.99993896484375,35.40764236450195,36.375244140625,32.695777893066406,38.89616775512695,39.974143981933594,43.527931213378906,42.440277099609375,-0.28396075963974,18.520614624023438,0.19536232948303223,18.797428131103516,-0.6824228167533875,6.364354610443115,-0.7032271027565002,-0.27392578125,-1.7402530908584595,0.056969054043293,-1.46630859375,-0.02054048329591751,-0.9909749627113342,0.0040283203125,0.0,0.0,0.0,0.0,0.0,0.0,0.0
28.00060796737671,0.0015782129485160112,0.00946044921875,359.9996643066406,76.56063842773438,0.0001660720445215702,0.008990566246211529,359.99993896484375,35.426979064941406,36.381690979003906,32.7054443359375,38.90422439575195,39.9644775390625,43.511817932128906,42.41450119018555,-0.2502450942993164,18.53450584411621,0.21207456290721893,18.808218002319336,-0.6879518628120422,6.383077621459961,-0.693121075630188,-0.281982421875,-1.7402530908584595,0.072509765625,-1.474387288093567,-0.0120849609375,-0.986946702003479,0.0040283203125,0.0,0.0,0.0,0.00030314770992845297,0.0,0.0,0.0
28.51049494743347,0.0015519033186137676,0.00982666015625,359.9996337890625,78.1405258178711,0.0001660720445215702,0.00942661240696907,359.99993896484375,35.414085388183594,36.38249588012695,32.70624923706055,38.91630935668945,39.96367263793945,43.50053787231445,42.42658615112305,-0.2854915261268616,20.630332946777344,0.27024099230766296,19.08742904663086,-0.6693483591079712,6.819176197052002,-0.6720314025878906,-0.2820974886417389,-1.75634765625,0.0490066334605217,-1.4018785953521729,-0.0166091900318861,-0.986946702003479,0.0,-0.00030337978387251496,0.0051574562676250935,-0.00030337978387251496,4.952142715454102,0.0,0.005924858618527651,0.0
29.021371603012085,0.0015782129485160112,0.009613037109375,359.9996643066406,78.3398208618164,0.0001660720445215702,0.0090450718998909,359.99993896484375,35.42133712768555,36.38410568237305,32.719947814941406,38.905029296875,39.97333908081055,43.4932861328125,42.403221130371094,-0.18735399842262268,18.6468448638916,0.25784870982170105,18.66065788269043,-0.693138837814331,6.410155296325684,-0.6991409659385681,-0.281982421875,-1.7563661336898804,0.056969054043293,-2.070556640625,-0.0120849609375,-0.9909749627113342,0.0040283203125,0.0,0.0,0.00030337978387251496,-0.016279321163892746,0.0,0.0,0.0
29.534024477005005,0.0015782129485160112,0.009246826171875,359.9996643066406,80.99659729003906,0.0001660720445215702,0.008609025739133358,359.99993896484375,35.410865783691406,36.396995544433594,32.71833419799805,38.903419494628906,39.970115661621094,43.5335693359375,42.41047286987305,-0.22662955522537231,17.140459060668945,0.20616446435451508,15.853371620178223,-0.6804016828536987,5.814899921417236,-0.6845932006835938,-0.29048630595207214,-1.732177734375,0.0490066334605217,-1.119873046875,-0.009007598273456097,-0.9628022313117981,-0.0040283203125,0.0,-0.0015191944548860192,0.0003031537344213575,16.837284088134766,0.0,-0.0021236585453152657,0.0
30.042322874069214,0.0015782129485160112,0.00970458984375,359.9996643066406,84.3381576538086,0.0001660720445215702,0.009208589792251587,359.99993896484375,35.40764236450195,36.399410247802734,32.719947814941406,38.887306213378906,39.96125411987305,43.49248123168945,42.404022216796875,-0.2501697540283203,19.605484008789062,0.2451910674571991,18.997900009155273,-0.6758823394775391,6.719045162200928,-0.6830013990402222,-0.2820974886417389,-1.7724609375,0.0649547129869461,-2.288142681121826,-0.018015196546912193,-1.007080078125,-0.0056969053111970425,0.0,0.000910827424377203,0.00030383889679796994,-0.30950891971588135,0.0,0.00212687230668962,0.0
30.551295042037964,0.0015782129485160112,0.0096435546875,359.9996643066406,84.30519104003906,0.0001660720445215702,0.009154083207249641,359.99993896484375,35.41650390625,36.41471862792969,32.72236251831055,38.89616775512695,39.97575759887695,43.51262283325195,42.42658615112305,-0.2637207806110382,19.417818069458008,0.22882553935050964,18.77854347229004,-0.6875959038734436,6.627356052398682,-0.6902729868888855,-0.29820457100868225,-1.764404296875,0.064453125,-2.376708984375,-0.024169921875,-0.9990234375,-0.0056969053111970425,0.0,0.0,0.00030383889679796994,-0.012251224368810654,0.0,0.000607224355917424,0.0
31.06433391571045,0.0015782129485160112,0.009735107421875,359.9996643066406,77.57910919189453,0.0001660720445215702,0.0093721067532897,359.99993896484375,35.41328048706055,36.395381927490234,32.711082458496094,38.91630935668945,39.954811096191406,43.523094177246094,42.40644454956055,-0.1206032931804657,19.364572525024414,0.33964937925338745,21.008085250854492,-0.6556503176689148,6.899141311645508,-0.6645196080207825,-0.2900390625,-1.78857421875,0.064453125,-2.7073309421539307,-0.011393810622394085,-1.0191730260849,0.0040283203125,0.00030383889679796994,-0.00030315073672682047,0.00030337978387251496,-26.602291107177734,0.0,0.0,0.0
31.572370529174805,0.0016045225784182549,0.0089111328125,359.9997253417969,64.79083251953125,0.0001660720445215702,0.008172978647053242,359.99993896484375,35.410057067871094,36.40263748168945,32.70947265625,38.93242263793945,39.95319747924805,43.51423263549805,42.433837890625,0.1964133232831955,16.108957290649414,0.655537486076355,17.55745506286621,-0.6244221925735474,5.599462509155273,-0.6801799535751343,-0.29820457100868225,-1.7403090000152588,0.0490066334605217,-2.2487266063690186,-0.0166091900318861,-0.9547119140625,0.0056969053111970425,0.0007590228924527764,-0.006076777819544077,0.0010610276367515326,-24.760713577270508,0.0,-0.004846752621233463,0.0
32.08108425140381,0.0015519033186137676,0.00811767578125,359.9996337890625,54.04840087890625,0.0001660720445215702,0.007900449447333813,359.99993896484375,35.418113708496094,36.41230392456055,32.72639083862305,38.938865661621094,39.94353103637695,43.482810974121094,42.42900466918945,-0.6131924986839294,15.905196189880371,-0.15959811210632324,16.120765686035156,-0.6257650256156921,5.190621852874756,-0.703821063041687,-0.2820974886417389,-1.635498046875,0.064453125,-1.990577220916748,-0.011393810622394085,-0.8540134429931641,0.0127386674284935,-0.00045507418690249324,0.008496621623635292,-0.00045575835974887013,-10.507827758789062,0.0006076777935959399,0.014991749078035355,0.0
32.591649770736694,0.0015782129485160112,0.008087158203125,359.9996643066406,53.0262451171875,0.0001660720445215702,0.0077369324862957,359.99993896484375,35.40522384643555,36.413917541503906,32.715110778808594,38.942893981933594,39.966896057128906,43.503761291503906,42.428199768066406,-0.3801279366016388,14.586393356323242,0.0011689215898513794,15.356874465942383,-0.6459461450576782,5.129247188568115,-0.7376433610916138,-0.2901509404182434,-1.5549525022506714,0.056969054043293,-1.2891632318496704,-0.01611328125,-0.8621452450752258,0.0040283203125,0.0,-0.0018202787032350898,0.00030383889679796994,0.03716324269771576,0.0,-0.004399006720632315,0.0
33.09818124771118,0.0015782129485160112,0.007598876953125,359.9996643066406,53.63689041137695,0.00011156623077113181,0.0072463802061975,359.99993896484375,35.418113708496094,36.427608489990234,32.71027755737305,38.937255859375,39.97736740112305,43.5255126953125,42.416114807128906,-0.287484347820282,13.722461700439453,0.05564403533935547,13.471419334411621,-0.6668310165405273,4.999312877655029,-0.7150172591209412,-0.298095703125,-1.4986218214035034,0.064453125,-0.8459856510162354,-0.009007598273456097,-0.805674135684967,0.0040283203125,-0.00030383889679796994,-0.0036405574064701796,0.0,8.10913372039795,0.0,0.0016685888404026628,0.0
33.6083710193634,0.0015782129485160112,0.00909423828125,359.9996643066406,63.76191711425781,0.0001660720445215702,0.008609025739133358,359.99993896484375,35.42375564575195,36.42438888549805,32.7215576171875,38.95417404174805,39.954811096191406,43.53276443481445,42.415306091308594,-0.15195901691913605,17.75806999206543,0.3216443955898285,15.773332595825195,-0.644573450088501,5.752264976501465,-0.694527804851532,-0.298095703125,-1.571044921875,0.056969054043293,-1.071563482284546,-0.01611328125,-0.9185364842414856,0.0040283203125,0.0,0.005772881675511599,0.0003040689625777304,24.94641876220703,0.0,0.0010626320727169514,0.0
34.11739730834961,0.0015782129485160112,0.009552001953125,359.9996337890625,73.06963348388672,0.0001660720445215702,0.009154083207249641,359.99993896484375,35.426979064941406,36.430030822753906,32.711891174316406,38.9493408203125,39.95964431762695,43.513427734375,42.381465911865234,-0.29649755358695984,19.207101821899414,0.18580466508865356,18.07192611694336,-0.6546034216880798,6.59733772277832,-0.6904009580612183,-0.29820457100868225,-1.6435744762420654,0.0490066334605217,-1.297219157218933,-0.011393810622394085,-1.0030517578125,0.0040283203125,0.0002938479301519692,-0.0020614811219274998,0.0,5.787816524505615,0.0,-0.0026407919358462095,0.0
34.62532091140747,0.0015782129485160112,0.009307861328125,359.9996337890625,73.3734359741211,0.0001660720445215702,0.008990566246211529,359.99993896484375,35.41650390625,36.42277908325195,32.723976135253906,38.937255859375,39.968505859375,43.49409103393555,42.415306091308594,-0.26742982864379883,18.56861114501953,0.17079544067382812,17.922922134399414,-0.6730910539627075,6.333334445953369,-0.6735793948173523,-0.2820974886417389,-1.6838572025299072,0.064453125,-2.1108553409576416,-0.0127386674284935,-0.9909749627113342,0.0040283203125,0.0,0.0006067595677450299,0.0,-0.1252431422472,0.0,0.0016673291102051735,0.0
35.13150215148926,0.0015782129485160112,0.00927734375,359.9996337890625,72.11820220947266,0.0001660720445215702,0.0090450718998909,359.99993896484375,35.414085388183594,36.423583984375,32.711891174316406,38.9251708984375,39.9403076171875,43.521484375,42.43706130981445,-0.32080477476119995,18.423025131225586,0.14450635015964508,19.50019645690918,-0.6581248044967651,6.500137805938721,-0.6832265257835388,-0.298095703125,-1.69189453125,0.056969054043293,-2.59423828125,-0.018015196546912193,-1.0030517578125,0.009007598273456097,0.00030337978387251496,-0.003646066877990961,-0.00030383889679796994,-11.173271179199219,0.0,-0.003789384150877595,0.0
35.64971041679382,0.0015519033186137676,0.00885009765625,359.9996337890625,60.40670394897461,0.0001660720445215702,0.00844550784677267,359.99993896484375,35.414894104003906,36.429222106933594,32.719947814941406,38.96223068237305,39.962059020996094,43.502952575683594,42.4217529296875,-0.6311217546463013,16.490947723388672,-0.2289099395275116,17.837053298950195,-0.7025294899940491,5.797920227050781,-0.7415964007377625,-0.281982421875,-1.6758006811141968,0.064453125,-2.1028449535369873,-0.018015196546912193,-0.942626953125,0.0056969053111970425,-0.00030315073672682047,-0.0012153555871918797,-0.00045575835974887013,-25.075740814208984,0.0,-0.0006063014734536409,0.0
36.158196449279785,0.0016045225784182549,0.00762939453125,359.99969482421875,50.149574279785156,0.00011156623077113181,0.006864839233458042,359.99993896484375,35.41650390625,36.42841720581055,32.707054138183594,38.96223068237305,39.956417083740234,43.511009216308594,42.419334411621094,-0.042142946273088455,12.648618698120117,0.2662321925163269,14.009732246398926,-0.6455254554748535,4.581948280334473,-0.6866591572761536,-0.29820457100868225,-1.571044921875,0.0490066334605217,-1.7241963148117065,-0.0166091900318861,-0.8057042956352234,0.0040283203125,0.0003036091511603445,-0.0033371776808053255,0.00030337978387251496,-9.439759254455566,0.0,-0.013942120596766472,0.0
36.666741371154785,0.0015782129485160112,0.008056640625,359.9996643066406,49.40909194946289,0.00011156623077113181,0.007627920713275671,359.99993896484375,35.4205322265625,36.4356689453125,32.719947814941406,38.94611740112305,39.95561599731445,43.51665115356445,42.404029846191406,-0.29038751125335693,14.842333793640137,0.12458953261375427,15.363211631774902,-0.6466894745826721,5.193109035491943,-0.7288192510604858,-0.281982421875,-1.5146697759628296,0.050954669713974,-1.2247153520584106,-0.0120849609375,-0.8217872381210327,0.0120849609375,0.0,0.0006063014734536409,0.0,0.13118316233158112,-0.0006076777935959399,0.003190308343619108,0.0
37.17681050300598,0.0016045225784182549,0.00775146484375,359.9996643066406,49.90863037109375,0.00011156623077113181,0.006701321806758642,359.99993896484375,35.424560546875,36.438087463378906,32.71269607543945,38.959007263183594,39.93547439575195,43.519874572753906,42.407249450683594,-0.2328157275915146,12.84916877746582,0.06321648508310318,12.514412879943848,-0.6377584934234619,4.517810344696045,-0.707347571849823,-0.281982421875,-1.4905003309249878,0.05404558777809143,-0.82177734375,-0.01611328125,-0.78955078125,0.009007598273456097,0.0,-0.0015191944548860192,0.0,7.600658416748047,0.0,-0.003789384150877595,0.0
37.685492277145386,0.0015782129485160112,0.008880615234375,359.9996643066406,59.69902801513672,0.0001660720445215702,0.0080639673396945,359.99993896484375,35.406837463378906,36.439693450927734,32.71269607543945,38.97673416137695,39.96931076049805,43.482810974121094,42.451560974121094,-0.1275283843278885,16.27863121032715,0.3056069314479828,14.084311485290527,-0.6487441658973694,5.25634241104126,-0.6852115392684937,-0.281982421875,-1.5308465957641602,0.04833984375,-1.1125458478927612,-0.0120849609375,-0.88623046875,0.0040283203125,0.0,0.0024307111743837595,0.000303382781567052,24.869041442871094,0.0,-0.008191253989934921,0.0
38.19243335723877,0.0015782129485160112,0.009185791015625,359.9996643066406,72.42584228515625,0.0001660720445215702,0.008663531392812729,359.99993896484375,35.408447265625,36.437278747558594,32.723167419433594,38.98237228393555,39.949974060058594,43.51665115356445,42.415306091308594,-0.24612338840961456,18.4477596282959,0.26104870438575745,15.81352424621582,-0.6730567812919617,6.044012069702148,-0.6968094110488892,-0.2743992805480957,-1.587158203125,0.04833984375,-0.9990559816360474,-0.0166091900318861,-0.954745888710022,0.0040283203125,0.0003036091511603445,-0.0009101393516175449,0.00030337978387251496,24.68333625793457,0.0,-0.0031831141095608473,0.0
38.70212411880493,0.0015782129485160112,0.009613037109375,359.9996643066406,79.96975708007812,0.0001660720445215702,0.009535624645650387,359.99993896484375,35.414894104003906,36.43647384643555,32.7054443359375,38.971092224121094,39.95561599731445,43.50053787231445,42.411277770996094,-0.11969782412052155,19.320056915283203,0.37442120909690857,18.946184158325195,-0.6752967834472656,6.803346157073975,-0.6908624768257141,-0.2743992805480957,-1.651611328125,0.0490066334605217,-1.3696526288986206,-0.0201416015625,-1.0191730260849,0.0040283203125,0.0,0.0009094611741602421,0.00030383889679796994,19.5919132232666,0.0,-0.0006076777935959399,0.0
39.20849275588989,0.0015782129485160112,0.009613037109375,359.9996643066406,79.96975708007812,0.0001660720445215702,0.009535624645650387,359.99993896484375,35.414894104003906,36.43647384643555,32.7054443359375,38.971092224121094,39.95561599731445,43.50053787231445,42.411277770996094,-0.11969782412052155,19.320056915283203,0.37442120909690857,18.946184158325195,-0.6752967834472656,6.803346157073975,-0.6908624768257141,-0.2743992805480957,-1.651611328125,0.0490066334605217,-1.3696526288986206,-0.0201416015625,-1.0191730260849,0.0040283203125,0.0,0.0009094611741602421,0.00030383889679796994,19.5919132232666,0.0,-0.0006076777935959399,0.0
39.72138810157776,0.0015782129485160112,0.009613037109375,359.9996643066406,79.96975708007812,0.0001660720445215702,0.009535624645650387,359.99993896484375,35.414894104003906,36.43647384643555,32.7054443359375,38.971092224121094,39.95561599731445,43.50053787231445,42.411277770996094,-0.11969782412052155,19.320056915283203,0.37442120909690857,18.946184158325195,-0.6752967834472656,6.803346157073975,-0.6908624768257141,-0.2743992805480957,-1.651611328125,0.0490066334605217,-1.3696526288986206,-0.0201416015625,-1.0191730260849,0.0040283203125,0.0,0.0009094611741602421,0.00030383889679796994,19.5919132232666,0.0,-0.0006076777935959399,0.0
40.22888112068176,0.0015782129485160112,0.009613037109375,359.9996643066406,79.96975708007812,0.0001660720445215702,0.009535624645650387,359.99993896484375,35.414894104003906,36.43647384643555,32.7054443359375,38.971092224121094,39.95561599731445,43.50053787231445,42.411277770996094,-0.11969782412052155,19.320056915283203,0.37442120909690857,18.946184158325195,-0.6752967834472656,6.803346157073975,-0.6908624768257141,-0.2743992805480957,-1.651611328125,0.0490066334605217,-1.3696526288986206,-0.0201416015625,-1.0191730260849,0.0040283203125,0.0,0.0009094611741602421,0.00030383889679796994,19.5919132232666,0.0,-0.0006076777935959399,0.0
40.737417221069336,0.0015782129485160112,0.009613037109375,359.9996643066406,79.96975708007812,0.0001660720445215702,0.009535624645650387,359.99993896484375,35.414894104003906,36.43647384643555,32.7054443359375,38.971092224121094,39.95561599731445,43.50053787231445,42.411277770996094,-0.11969782412052155,19.320056915283203,0.37442120909690857,18.946184158325195,-0.6752967834472656,6.803346157073975,-0.6908624768257141,-0.2743992805480957,-1.651611328125,0.0490066334605217,-1.3696526288986206,-0.0201416015625,-1.0191730260849,0.0040283203125,0.0,0.0009094611741602421,0.00030383889679796994,19.5919132232666,0.0,-0.0006076777935959399,0.0
41.244494676589966,0.0015782129485160112,0.009613037109375,359.9996643066406,79.96975708007812,0.0001660720445215702,0.009535624645650387,359.99993896484375,35.414894104003906,36.43647384643555,32.7054443359375,38.971092224121094,39.95561599731445,43.50053787231445,42.411277770996094,-0.11969782412052155,19.320056915283203,0.37442120909690857,18.946184158325195,-0.6752967834472656,6.803346157073975,-0.6908624768257141,-0.2743992805480957,-1.651611328125,0.0490066334605217,-1.3696526288986206,-0.0201416015625,-1.0191730260849,0.0040283203125,0.0,0.0009094611741602421,0.00030383889679796994,19.5919132232666,0.0,-0.0006076777935959399,0.0
41.75342655181885,0.0015782129485160112,0.009613037109375,359.9996643066406,79.96975708007812,0.0001660720445215702,0.009535624645650387,359.99993896484375,35.414894104003906,36.43647384643555,32.7054443359375,38.971092224121094,39.95561599731445,43.50053787231445,42.411277770996094,-0.11969782412052155,19.320056915283203,0.37442120909690857,18.946184158325195,-0.6752967834472656,6.803346157073975,-0.6908624768257141,-0.2743992805480957,-1.651611328125,0.0490066334605217,-1.3696526288986206,-0.0201416015625,-1.0191730260849,0.0040283203125,0.0,0.0009094611741602421,0.00030383889679796994,19.5919132232666,0.0,-0.0006076777935959399,0.0
42.26105833053589,0.0015782129485160112,0.009613037109375,359.9996643066406,79.96975708007812,0.0001660720445215702,0.009535624645650387,359.99993896484375,35.414894104003906,36.43647384643555,32.7054443359375,38.971092224121094,39.95561599731445,43.50053787231445,42.411277770996094,-0.11969782412052155,19.320056915283203,0.37442120909690857,18.946184158325195,-0.6752967834472656,6.803346157073975,-0.6908624768257141,-0.2743992805480957,-1.651611328125,0.0490066334605217,-1.3696526288986206,-0.0201416015625,-1.0191730260849,0.0040283203125,0.0,0.0009094611741602421,0.00030383889679796994,19.5919132232666,0.0,-0.0006076777935959399,0.0
42.769272327423096,0.0015782129485160112,0.009613037109375,359.9996643066406,79.96975708007812,0.0001660720445215702,0.009535624645650387,359.99993896484375,35.414894104003906,36.43647384643555,32.7054443359375,38.971092224121094,39.95561599731445,43.50053787231445,42.411277770996094,-0.11969782412052155,19.320056915283203,0.37442120909690857,18.946184158325195,-0.6752967834472656,6.803346157073975,-0.6908624768257141,-0.2743992805480957,-1.651611328125,0.0490066334605217,-1.3696526288986206,-0.0201416015625,-1.0191730260849,0.0040283203125,0.0,0.0009094611741602421,0.00030383889679796994,19.5919132232666,0.0,-0.0006076777935959399,0.0
43.27729058265686,0.0015782129485160112,0.009613037109375,359.9996643066406,79.96975708007812,0.0001660720445215702,0.009535624645650387,359.99993896484375,35.414894104003906,36.43647384643555,32.7054443359375,38.971092224121094,39.95561599731445,43.50053787231445,42.411277770996094,-0.11969782412052155,19.320056915283203,0.37442120909690857,18.946184158325195,-0.6752967834472656,6.803346157073975,-0.6908624768257141,-0.2743992805480957,-1.651611328125,0.0490066334605217,-1.3696526288986206,-0.0201416015625,-1.0191730260849,0.0040283203125,0.0,0.0009094611741602421,0.00030383889679796994,19.5919132232666,0.0,-0.0006076777935959399,0.0
43.78631353378296,0.0015782129485160112,0.009613037109375,359.9996643066406,79.96975708007812,0.0001660720445215702,0.009535624645650387,359.99993896484375,35.414894104003906,36.43647384643555,32.7054443359375,38.971092224121094,39.95561599731445,43.50053787231445,42.411277770996094,-0.11969782412052155,19.320056915283203,0.37442120909690857,18.946184158325195,-0.6752967834472656,6.803346157073975,-0.6908624768257141,-0.2743992805480957,-1.651611328125,0.0490066334605217,-1.3696526288986206,-0.0201416015625,-1.0191730260849,0.0040283203125,0.0,0.0009094611741602421,0.00030383889679796994,19.5919132232666,0.0,-0.0006076777935959399,0.0
44.29355335235596,0.0015782129485160112,0.009613037109375,359.9996643066406,79.96975708007812,0.0001660720445215702,0.009535624645650387,359.99993896484375,35.414894104003906,36.43647384643555,32.7054443359375,38.971092224121094,39.95561599731445,43.50053787231445,42.411277770996094,-0.11969782412052155,19.320056915283203,0.37442120909690857,18.946184158325195,-0.6752967834472656,6.803346157073975,-0.6908624768257141,-0.2743992805480957,-1.651611328125,0.0490066334605217,-1.3696526288986206,-0.0201416015625,-1.0191730260849,0.0040283203125,0.0,0.0009094611741602421,0.00030383889679796994,19.5919132232666,0.0,-0.0006076777935959399,0.0
44.80186462402344,0.0015782129485160112,0.009613037109375,359.9996643066406,79.96975708007812,0.0001660720445215702,0.009535624645650387,359.99993896484375,35.414894104003906,36.43647384643555,32.7054443359375,38.971092224121094,39.95561599731445,43.50053787231445,42.411277770996094,-0.11969782412052155,19.320056915283203,0.37442120909690857,18.946184158325195,-0.6752967834472656,6.803346157073975,-0.6908624768257141,-0.2743992805480957,-1.651611328125,0.0490066334605217,-1.3696526288986206,-0.0201416015625,-1.0191730260849,0.0040283203125,0.0,0.0009094611741602421,0.00030383889679796994,19.5919132232666,0.0,-0.0006076777935959399,0.0
45.30945563316345,0.0015519033186137676,0.009857177734375,359.9996337890625,86.61088562011719,0.0001660720445215702,0.0093721067532897,359.99993896484375,35.4326171875,36.477561950683594,32.72236251831055,39.01057052612305,39.97736740112305,43.5537109375,42.40966796875,-0.4666880965232849,19.47304344177246,-0.015230941586196423,18.6312198638916,-0.679777979850769,6.910206317901611,-0.6968711018562317,-0.2900390625,-1.732177734375,0.05865322798490524,-1.4985568523406982,-0.0166091900318861,-1.0352861881256104,0.0056969053111970425,-0.00030337978387251496,0.000303612177958712,-0.00030337978387251496,11.420878410339355,0.0,0.002734550042077899,0.0
45.81745409965515,0.0015782129485160112,0.0096435546875,359.9996337890625,87.78005981445312,0.0001660720445215702,0.009208589792251587,359.99993896484375,35.43584060668945,36.4759521484375,32.723976135253906,38.99042892456055,39.99589920043945,43.556129455566406,42.433837890625,-0.36884981393814087,18.77070426940918,0.08498010039329529,18.35523223876953,-0.6831867694854736,6.446557521820068,-0.7000221610069275,-0.298095703125,-1.764404296875,0.056396484375,-2.20751953125,-0.0127386674284935,-1.0191730260849,0.0056969053111970425,0.0,0.0,-0.00030337978387251496,-0.1119597777724266,0.0,-0.0006067595677450299,0.0
46.324878454208374,0.0015519033186137676,0.0098876953125,359.9996337890625,88.3251724243164,0.0001660720445215702,0.009862659499049187,359.99993896484375,35.4205322265625,36.47917556762695,32.72236251831055,38.979148864746094,39.94353103637695,43.494895935058594,42.43061447143555,-0.32797789573669434,21.236900329589844,0.16448868811130524,19.845739364624023,-0.6807159185409546,7.168139934539795,-0.6823327541351318,-0.2900390625,-1.7724609375,0.064453125,-1.6838572025299072,-0.0120849609375,-1.007080078125,0.014524315483868122,-0.00030315073672682047,0.006067595444619656,-0.00030315073672682047,3.4080545902252197,0.0,0.013035481795668602,0.0
46.83397030830383,0.0015782129485160112,0.009307861328125,359.9996643066406,88.39352416992188,0.0001660720445215702,0.0090450718998909,359.99993896484375,35.41650390625,36.477561950683594,32.719139099121094,38.987205505371094,39.95319747924805,43.519065856933594,42.40483474731445,-0.28251534700393677,18.308820724487305,0.1768835484981537,18.211503982543945,-0.6941564083099365,6.363924503326416,-0.6801698803901672,-0.298095703125,-1.7564215660095215,0.04833984375,-2.0947420597076416,-0.0166091900318861,-1.0071122646331787,0.0056969053111970425,0.0,-0.005469100084155798,0.00030383889679796994,-0.015139833092689514,0.0,-0.004399006720632315,0.0
47.34168720245361,0.0016045225784182549,0.0086669921875,359.9996643066406,85.83230590820312,0.0001660720445215702,0.007900449447333813,359.99993896484375,35.426979064941406,36.48078536987305,32.71430587768555,38.99284744262695,39.962059020996094,43.556129455566406,42.420143127441406,-0.037802115082740784,15.136308670043945,0.29651227593421936,17.37874984741211,-0.6838876605033875,5.59178352355957,-0.6887626647949219,-0.298095703125,-1.724139928817749,0.064453125,-2.022216796875,-0.01611328125,-0.9990315437316895,0.0056969053111970425,0.0004554137121886015,-0.027044100686907768,0.0003036091511603445,-9.138031959533691,0.0,-0.018946921452879906,0.0
47.850576400756836,0.0015782129485160112,0.009765625,359.9996643066406,85.15404510498047,0.0001660720445215702,0.009263095445930958,359.99993896484375,35.42778396606445,36.49126052856445,32.733642578125,39.0057373046875,39.942726135253906,43.560157775878906,42.448341369628906,-0.2053808867931366,19.161609649658203,0.3186858892440796,18.90094757080078,-0.6870322227478027,6.3736677169799805,-0.6771265864372253,-0.2900390625,-1.74830961227417,0.056969054043293,-1.69189453125,-0.0201416015625,-1.01919686794281,0.0056969053111970425,0.0,0.0017566854367032647,0.00030337978387251496,-0.005916224792599678,0.0,0.003797986311838031,0.0
48.35900330543518,0.0015782129485160112,0.01007080078125,359.9996643066406,84.40621948242188,0.0001660720445215702,0.009862659499049187,359.99993896484375,35.422142028808594,36.505760192871094,32.72075271606445,39.01298904418945,39.95722579956055,43.53437423706055,42.395164489746094,-0.189601868391037,21.267770767211914,0.35177135467529297,21.698808670043945,-0.6942827105522156,7.289506435394287,-0.6778011322021484,-0.2900390625,-1.7724792957305908,0.0649547129869461,-2.699082851409912,-0.0120849609375,-1.0352861881256104,0.0040283203125,0.0,0.00454730587080121,0.00030383889679796994,-9.378119468688965,0.0,0.0031903402414172888,0.0
48.866358041763306,0.0015782129485160112,0.009490966796875,359.9996643066406,74.07653045654297,0.0001660720445215702,0.008936060592532158,359.99993896484375,35.4205322265625,36.49689865112305,32.70061111450195,39.0379638671875,39.96044921875,43.5174560546875,42.404029846191406,-0.28800228238105774,19.690004348754883,0.21264219284057617,19.709617614746094,-0.6638619899749756,6.431070804595947,-0.7262553572654724,-0.2900390625,-1.780517578125,0.064453125,-2.384983539581299,-0.0127386674284935,-0.9909749627113342,0.008056640625,0.0,0.0021236795000731945,0.00030383889679796994,-24.574832916259766,0.0,0.0031806814949959517,0.0
49.374332666397095,0.0016045225784182549,0.0086669921875,359.9997253417969,61.38055419921875,0.0001660720445215702,0.00811847299337387,359.99993896484375,35.41730880737305,36.505760192871094,32.71269607543945,39.056495666503906,39.96125411987305,43.55451583862305,42.415306091308594,0.1576584428548813,15.276224136352539,0.5934396386146545,16.845544815063477,-0.6653426885604858,5.433326721191406,-0.6769312024116516,-0.2900390625,-1.7080078125,0.056969054043293,-2.3131539821624756,-0.0201416015625,-0.9587486982345581,0.0120849609375,0.0007578768418170512,-0.0051652612164616585,0.0013641782570630312,-24.9140682220459,0.0,-0.00758456951007247,0.0
49.88241124153137,0.0016045225784182549,0.007598876953125,359.9996643066406,53.503631591796875,0.00011156623077113181,0.0074098976328969,359.99993896484375,35.42939376831055,36.51140213012695,32.711082458496094,39.05327224731445,39.93305587768555,43.519065856933594,42.44108963012695,-0.13166594505310059,15.21135139465332,0.2594372630119324,15.478780746459961,-0.6408662796020508,5.007582187652588,-0.7025193572044373,-0.298095703125,-1.611348271369934,0.056396484375,-1.9503061771392822,-0.014524315483868122,-0.8298437595367432,0.008056640625,0.00030315073672682047,0.010484674945473671,0.00030315073672682047,-17.719385147094727,0.0,0.001061038114130497,0.0
50.39121127128601,0.0016045225784182549,0.007598876953125,359.9996643066406,53.503631591796875,0.00011156623077113181,0.0074098976328969,359.99993896484375,35.42939376831055,36.51140213012695,32.711082458496094,39.05327224731445,39.93305587768555,43.519065856933594,42.44108963012695,-0.13166594505310059,15.21135139465332,0.2594372630119324,15.478780746459961,-0.6408662796020508,5.007582187652588,-0.7025193572044373,-0.298095703125,-1.611348271369934,0.056396484375,-1.9503061771392822,-0.014524315483868122,-0.8298437595367432,0.008056640625,0.00030315073672682047,0.010484674945473671,0.00030315073672682047,-17.719385147094727,0.0,0.001061038114130497,0.0
50.899741649627686,0.0016045225784182549,0.007598876953125,359.9996643066406,53.503631591796875,0.00011156623077113181,0.0074098976328969,359.99993896484375,35.42939376831055,36.51140213012695,32.711082458496094,39.05327224731445,39.93305587768555,43.519065856933594,42.44108963012695,-0.13166594505310059,15.21135139465332,0.2594372630119324,15.478780746459961,-0.6408662796020508,5.007582187652588,-0.7025193572044373,-0.298095703125,-1.611348271369934,0.056396484375,-1.9503061771392822,-0.014524315483868122,-0.8298437595367432,0.008056640625,0.00030315073672682047,0.010484674945473671,0.00030315073672682047,-17.719385147094727,0.0,0.001061038114130497,0.0
51.40730142593384,0.0016045225784182549,0.007598876953125,359.9996643066406,53.503631591796875,0.00011156623077113181,0.0074098976328969,359.99993896484375,35.42939376831055,36.51140213012695,32.711082458496094,39.05327224731445,39.93305587768555,43.519065856933594,42.44108963012695,-0.13166594505310059,15.21135139465332,0.2594372630119324,15.478780746459961,-0.6408662796020508,5.007582187652588,-0.7025193572044373,-0.298095703125,-1.611348271369934,0.056396484375,-1.9503061771392822,-0.014524315483868122,-0.8298437595367432,0.008056640625,0.00030315073672682047,0.010484674945473671,0.00030315073672682047,-17.719385147094727,0.0,0.001061038114130497,0.0
51.91782021522522,0.0016045225784182549,0.007598876953125,359.9996643066406,53.503631591796875,0.00011156623077113181,0.0074098976328969,359.99993896484375,35.42939376831055,36.51140213012695,32.711082458496094,39.05327224731445,39.93305587768555,43.519065856933594,42.44108963012695,-0.13166594505310059,15.21135139465332,0.2594372630119324,15.478780746459961,-0.6408662796020508,5.007582187652588,-0.7025193572044373,-0.298095703125,-1.611348271369934,0.056396484375,-1.9503061771392822,-0.014524315483868122,-0.8298437595367432,0.008056640625,0.00030315073672682047,0.010484674945473671,0.00030315073672682047,-17.719385147094727,0.0,0.001061038114130497,0.0
52.42548680305481,0.0016045225784182549,0.007598876953125,359.9996643066406,53.503631591796875,0.00011156623077113181,0.0074098976328969,359.99993896484375,35.42939376831055,36.51140213012695,32.711082458496094,39.05327224731445,39.93305587768555,43.519065856933594,42.44108963012695,-0.13166594505310059,15.21135139465332,0.2594372630119324,15.478780746459961,-0.6408662796020508,5.007582187652588,-0.7025193572044373,-0.298095703125,-1.611348271369934,0.056396484375,-1.9503061771392822,-0.014524315483868122,-0.8298437595367432,0.008056640625,0.00030315073672682047,0.010484674945473671,0.00030315073672682047,-17.719385147094727,0.0,0.001061038114130497,0.0
52.93752193450928,0.0016045225784182549,0.007598876953125,359.9996643066406,53.503631591796875,0.00011156623077113181,0.0074098976328969,359.99993896484375,35.42939376831055,36.51140213012695,32.711082458496094,39.05327224731445,39.93305587768555,43.519065856933594,42.44108963012695,-0.13166594505310059,15.21135139465332,0.2594372630119324,15.478780746459961,-0.6408662796020508,5.007582187652588,-0.7025193572044373,-0.298095703125,-1.611348271369934,0.056396484375,-1.9503061771392822,-0.014524315483868122,-0.8298437595367432,0.008056640625,0.00030315073672682047,0.010484674945473671,0.00030315073672682047,-17.719385147094727,0.0,0.001061038114130497,0.0
53.44660234451294,0.0016045225784182549,0.007598876953125,359.9996643066406,53.503631591796875,0.00011156623077113181,0.0074098976328969,359.99993896484375,35.42939376831055,36.51140213012695,32.711082458496094,39.05327224731445,39.93305587768555,43.519065856933594,42.44108963012695,-0.13166594505310059,15.21135139465332,0.2594372630119324,15.478780746459961,-0.6408662796020508,5.007582187652588,-0.7025193572044373,-0.298095703125,-1.611348271369934,0.056396484375,-1.9503061771392822,-0.014524315483868122,-0.8298437595367432,0.008056640625,0.00030315073672682047,0.010484674945473671,0.00030315073672682047,-17.719385147094727,0.0,0.001061038114130497,0.0
53.957406759262085,0.0016045225784182549,0.007598876953125,359.9996643066406,53.503631591796875,0.00011156623077113181,0.0074098976328969,359.99993896484375,35.42939376831055,36.51140213012695,32.711082458496094,39.05327224731445,39.93305587768555,43.519065856933594,42.44108963012695,-0.13166594505310059,15.21135139465332,0.2594372630119324,15.478780746459961,-0.6408662796020508,5.007582187652588,-0.7025193572044373,-0.298095703125,-1.611348271369934,0.056396484375,-1.9503061771392822,-0.014524315483868122,-0.8298437595367432,0.008056640625,0.00030315073672682047,0.010484674945473671,0.00030315073672682047,-17.719385147094727,0.0,0.001061038114130497,0.0
54.46558213233948,0.0016045225784182549,0.007598876953125,359.9996643066406,53.503631591796875,0.00011156623077113181,0.0074098976328969,359.99993896484375,35.42939376831055,36.51140213012695,32.711082458496094,39.05327224731445,39.93305587768555,43.519065856933594,42.44108963012695,-0.13166594505310059,15.21135139465332,0.2594372630119324,15.478780746459961,-0.6408662796020508,5.007582187652588,-0.7025193572044373,-0.298095703125,-1.611348271369934,0.056396484375,-1.9503061771392822,-0.014524315483868122,-0.8298437595367432,0.008056640625,0.00030315073672682047,0.010484674945473671,0.00030315073672682047,-17.719385147094727,0.0,0.001061038114130497,0.0
54.97335600852966,0.0016045225784182549,0.007598876953125,359.9996643066406,53.503631591796875,0.00011156623077113181,0.0074098976328969,359.99993896484375,35.42939376831055,36.51140213012695,32.711082458496094,39.05327224731445,39.93305587768555,43.519065856933594,42.44108963012695,-0.13166594505310059,15.21135139465332,0.2594372630119324,15.478780746459961,-0.6408662796020508,5.007582187652588,-0.7025193572044373,-0.298095703125,-1.611348271369934,0.056396484375,-1.9503061771392822,-0.014524315483868122,-0.8298437595367432,0.008056640625,0.00030315073672682047,0.010484674945473671,0.00030315073672682047,-17.719385147094727,0.0,0.001061038114130497,0.0
55.481526136398315,0.0016045225784182549,0.007598876953125,359.9996643066406,53.503631591796875,0.00011156623077113181,0.0074098976328969,359.99993896484375,35.42939376831055,36.51140213012695,32.711082458496094,39.05327224731445,39.93305587768555,43.519065856933594,42.44108963012695,-0.13166594505310059,15.21135139465332,0.2594372630119324,15.478780746459961,-0.6408662796020508,5.007582187652588,-0.7025193572044373,-0.298095703125,-1.611348271369934,0.056396484375,-1.9503061771392822,-0.014524315483868122,-0.8298437595367432,0.008056640625,0.00030315073672682047,0.010484674945473671,0.00030315073672682047,-17.719385147094727,0.0,0.001061038114130497,0.0
55.98935341835022,0.0016045225784182549,0.007598876953125,359.9996643066406,53.503631591796875,0.00011156623077113181,0.0074098976328969,359.99993896484375,35.42939376831055,36.51140213012695,32.711082458496094,39.05327224731445,39.93305587768555,43.519065856933594,42.44108963012695,-0.13166594505310059,15.21135139465332,0.2594372630119324,15.478780746459961,-0.6408662796020508,5.007582187652588,-0.7025193572044373,-0.298095703125,-1.611348271369934,0.056396484375,-1.9503061771392822,-0.014524315483868122,-0.8298437595367432,0.008056640625,0.00030315073672682047,0.010484674945473671,0.00030315073672682047,-17.719385147094727,0.0,0.001061038114130497,0.0
56.4968945980072,0.0015782129485160112,0.0096435546875,359.9996337890625,74.93064880371094,0.0001660720445215702,0.008827048353850842,359.99993896484375,35.43584060668945,36.53960037231445,32.719947814941406,39.05730056762695,39.94916915893555,43.531959533691406,42.44672775268555,-0.3614117205142975,18.529956817626953,0.08651165664196014,18.750362396240234,-0.6741154789924622,6.435575485229492,-0.6883739829063416,-0.2820974886417389,-1.7564215660095215,0.07295598834753036,-1.5146697759628296,-0.0127386674284935,-0.9627769589424133,0.0040283203125,0.0,0.003646066877990961,-0.000303382781567052,0.0027616885490715504,0.0,0.0043957289308309555,0.0
57.00337362289429,0.0015782129485160112,0.009857177734375,359.9996337890625,79.22750854492188,0.0001660720445215702,0.00909957755357027,359.99993896484375,35.42778396606445,36.537986755371094,32.70463943481445,39.071800231933594,39.9765625,43.5335693359375,42.42094802856445,-0.35381633043289185,20.753171920776367,0.19898319244384766,18.158374786376953,-0.6534850001335144,6.715342044830322,-0.6694117784500122,-0.281982421875,-1.7321964502334595,0.072509765625,-1.49853515625,-0.02054048329591751,-0.934605062007904,0.0,0.0,0.009715492837131023,-0.0003036091511603445,18.941946029663086,0.0,0.009700823575258255,0.0
57.51050615310669,0.0015782129485160112,0.009490966796875,359.9996643066406,82.40873718261719,0.0001660720445215702,0.008336496539413929,359.99993896484375,35.42778396606445,36.54765701293945,32.71833419799805,39.050048828125,39.958030700683594,43.53034591674805,42.451560974121094,-0.21879352629184723,17.253808975219727,0.18751417100429535,17.002161026000977,-0.6847357749938965,5.984925746917725,-0.6688231229782104,-0.2820974886417389,-1.7805358171463013,0.04833984375,-2.0544593334198,-0.01611328125,-0.9708335399627686,0.01611328125,0.0003036091511603445,-0.006972467061132193,0.0003036091511603445,-0.21630215644836426,0.0,-0.005924858618527651,0.0
58.02128314971924,0.0015782129485160112,0.00982666015625,359.9996643066406,82.37603759765625,0.0001660720445215702,0.008881554938852787,359.99993896484375,35.4366455078125,36.54443359375,32.719139099121094,39.04924392700195,39.95722579956055,43.50053787231445,42.399192810058594,-0.2228602021932602,18.730730056762695,0.25242844223976135,18.244674682617188,-0.7083497047424316,6.418763160705566,-0.6913694739341736,-0.2820974886417389,-1.7885924577713013,0.0649547129869461,-1.973876953125,-0.0120849609375,-0.974853515625,0.0040283203125,0.0,0.0018189223483204842,0.0,-0.002200670540332794,0.0,0.0016698503168299794,0.0
58.542662620544434,0.0015782129485160112,0.00982666015625,359.9996337890625,81.26290130615234,0.0001660720445215702,0.008827048353850842,359.99993896484375,35.42939376831055,36.554100036621094,32.717529296875,39.063743591308594,39.93144607543945,43.540016174316406,42.4136962890625,-0.29487156867980957,18.348188400268555,0.15683050453662872,19.598176956176758,-0.6945767402648926,6.51476526260376,-0.6921638250350952,-0.2900390625,-1.796630859375,0.0490066334605217,-2.6427745819091797,-0.0166091900318861,-0.9990559816360474,0.0,0.00030384192359633744,-0.003943937364965677,0.0,-10.546092987060547,0.0,-0.005465019028633833,0.0
59.05035877227783,0.0015782129485160112,0.00982666015625,359.9996337890625,81.26290130615234,0.0001660720445215702,0.008827048353850842,359.99993896484375,35.42939376831055,36.554100036621094,32.717529296875,39.063743591308594,39.93144607543945,43.540016174316406,42.4136962890625,-0.29487156867980957,18.348188400268555,0.15683050453662872,19.598176956176758,-0.6945767402648926,6.51476526260376,-0.6921638250350952,-0.2900390625,-1.796630859375,0.0490066334605217,-2.6427745819091797,-0.0166091900318861,-0.9990559816360474,0.0,0.00030384192359633744,-0.003943937364965677,0.0,-10.546092987060547,0.0,-0.005465019028633833,0.0
59.56043601036072,0.0015782129485160112,0.00982666015625,359.9996337890625,81.26290130615234,0.0001660720445215702,0.008827048353850842,359.99993896484375,35.42939376831055,36.554100036621094,32.717529296875,39.063743591308594,39.93144607543945,43.540016174316406,42.4136962890625,-0.29487156867980957,18.348188400268555,0.15683050453662872,19.598176956176758,-0.6945767402648926,6.51476526260376,-0.6921638250350952,-0.2900390625,-1.796630859375,0.0490066334605217,-2.6427745819091797,-0.0166091900318861,-0.9990559816360474,0.0,0.00030384192359633744,-0.003943937364965677,0.0,-10.546092987060547,0.0,-0.005465019028633833,0.0
60.069103956222534,0.0015782129485160112,0.00982666015625,359.9996337890625,81.26290130615234,0.0001660720445215702,0.008827048353850842,359.99993896484375,35.42939376831055,36.554100036621094,32.717529296875,39.063743591308594,39.93144607543945,43.540016174316406,42.4136962890625,-0.29487156867980957,18.348188400268555,0.15683050453662872,19.598176956176758,-0.6945767402648926,6.51476526260376,-0.6921638250350952,-0.2900390625,-1.796630859375,0.0490066334605217,-2.6427745819091797,-0.0166091900318861,-0.9990559816360474,0.0,0.00030384192359633744,-0.003943937364965677,0.0,-10.546092987060547,0.0,-0.005465019028633833,0.0
60.57647252082825,0.0015782129485160112,0.00982666015625,359.9996337890625,81.26290130615234,0.0001660720445215702,0.008827048353850842,359.99993896484375,35.42939376831055,36.554100036621094,32.717529296875,39.063743591308594,39.93144607543945,43.540016174316406,42.4136962890625,-0.29487156867980957,18.348188400268555,0.15683050453662872,19.598176956176758,-0.6945767402648926,6.51476526260376,-0.6921638250350952,-0.2900390625,-1.796630859375,0.0490066334605217,-2.6427745819091797,-0.0166091900318861,-0.9990559816360474,0.0,0.00030384192359633744,-0.003943937364965677,0.0,-10.546092987060547,0.0,-0.005465019028633833,0.0
61.084481716156006,0.0015782129485160112,0.00982666015625,359.9996337890625,81.26290130615234,0.0001660720445215702,0.008827048353850842,359.99993896484375,35.42939376831055,36.554100036621094,32.717529296875,39.063743591308594,39.93144607543945,43.540016174316406,42.4136962890625,-0.29487156867980957,18.348188400268555,0.15683050453662872,19.598176956176758,-0.6945767402648926,6.51476526260376,-0.6921638250350952,-0.2900390625,-1.796630859375,0.0490066334605217,-2.6427745819091797,-0.0166091900318861,-0.9990559816360474,0.0,0.00030384192359633744,-0.003943937364965677,0.0,-10.546092987060547,0.0,-0.005465019028633833,0.0
61.59135699272156,0.0015782129485160112,0.00982666015625,359.9996337890625,81.26290130615234,0.0001660720445215702,0.008827048353850842,359.99993896484375,35.42939376831055,36.554100036621094,32.717529296875,39.063743591308594,39.93144607543945,43.540016174316406,42.4136962890625,-0.29487156867980957,18.348188400268555,0.15683050453662872,19.598176956176758,-0.6945767402648926,6.51476526260376,-0.6921638250350952,-0.2900390625,-1.796630859375,0.0490066334605217,-2.6427745819091797,-0.0166091900318861,-0.9990559816360474,0.0,0.00030384192359633744,-0.003943937364965677,0.0,-10.546092987060547,0.0,-0.005465019028633833,0.0
62.1007239818573,0.0015782129485160112,0.00982666015625,359.9996337890625,81.26290130615234,0.0001660720445215702,0.008827048353850842,359.99993896484375,35.42939376831055,36.554100036621094,32.717529296875,39.063743591308594,39.93144607543945,43.540016174316406,42.4136962890625,-0.29487156867980957,18.348188400268555,0.15683050453662872,19.598176956176758,-0.6945767402648926,6.51476526260376,-0.6921638250350952,-0.2900390625,-1.796630859375,0.0490066334605217,-2.6427745819091797,-0.0166091900318861,-0.9990559816360474,0.0,0.00030384192359633744,-0.003943937364965677,0.0,-10.546092987060547,0.0,-0.005465019028633833,0.0
62.60886359214783,0.0015782129485160112,0.00982666015625,359.9996337890625,81.26290130615234,0.0001660720445215702,0.008827048353850842,359.99993896484375,35.42939376831055,36.554100036621094,32.717529296875,39.063743591308594,39.93144607543945,43.540016174316406,42.4136962890625,-0.29487156867980957,18.348188400268555,0.15683050453662872,19.598176956176758,-0.6945767402648926,6.51476526260376,-0.6921638250350952,-0.2900390625,-1.796630859375,0.0490066334605217,-2.6427745819091797,-0.0166091900318861,-0.9990559816360474,0.0,0.00030384192359633744,-0.003943937364965677,0.0,-10.546092987060547,0.0,-0.005465019028633833,0.0
63.116398096084595,0.0015782129485160112,0.00982666015625,359.9996337890625,81.26290130615234,0.0001660720445215702,0.008827048353850842,359.99993896484375,35.42939376831055,36.554100036621094,32.717529296875,39.063743591308594,39.93144607543945,43.540016174316406,42.4136962890625,-0.29487156867980957,18.348188400268555,0.15683050453662872,19.598176956176758,-0.6945767402648926,6.51476526260376,-0.6921638250350952,-0.2900390625,-1.796630859375,0.0490066334605217,-2.6427745819091797,-0.0166091900318861,-0.9990559816360474,0.0,0.00030384192359633744,-0.003943937364965677,0.0,-10.546092987060547,0.0,-0.005465019028633833,0.0
63.62436532974243,0.0015782129485160112,0.00982666015625,359.9996337890625,81.26290130615234,0.0001660720445215702,0.008827048353850842,359.99993896484375,35.42939376831055,36.554100036621094,32.717529296875,39.063743591308594,39.93144607543945,43.540016174316406,42.4136962890625,-0.29487156867980957,18.348188400268555,0.15683050453662872,19.598176956176758,-0.6945767402648926,6.51476526260376,-0.6921638250350952,-0.2900390625,-1.796630859375,0.0490066334605217,-2.6427745819091797,-0.0166091900318861,-0.9990559816360474,0.0,0.00030384192359633744,-0.003943937364965677,0.0,-10.546092987060547,0.0,-0.005465019028633833,0.0
64.1333487033844,0.0015782129485160112,0.00982666015625,359.9996337890625,81.26290130615234,0.0001660720445215702,0.008827048353850842,359.99993896484375,35.42939376831055,36.554100036621094,32.717529296875,39.063743591308594,39.93144607543945,43.540016174316406,42.4136962890625,-0.29487156867980957,18.348188400268555,0.15683050453662872,19.598176956176758,-0.6945767402648926,6.51476526260376,-0.6921638250350952,-0.2900390625,-1.796630859375,0.0490066334605217,-2.6427745819091797,-0.0166091900318861,-0.9990559816360474,0.0,0.00030384192359633744,-0.003943937364965677,0.0,-10.546092987060547,0.0,-0.005465019028633833,0.0
64.64245533943176,0.0015782129485160112,0.009063720703125,359.9996643066406,73.36985778808594,0.0001660720445215702,0.00909957755357027,359.99993896484375,35.43745040893555,36.583106994628906,32.728004455566406,39.12175369262695,39.93547439575195,43.56982421875,42.444313049316406,-0.2638995051383972,18.117935180664062,0.2054535299539566,16.87959861755371,-0.6837677955627441,6.193852424621582,-0.6914938688278198,-0.2743992805480957,-1.683837890625,0.04833984375,-1.135986328125,-0.0166091900318861,-1.0030598640441895,0.0,0.0,0.000607218302320689,0.0,9.60051441192627,0.0,0.004395685624331236,0.0
65.1513843536377,0.0015782129485160112,0.0096435546875,359.9996643066406,83.61425018310547,0.0001660720445215702,0.008500013500452042,359.99993896484375,35.426979064941406,36.591163635253906,32.719139099121094,39.13947677612305,39.97333908081055,43.556129455566406,42.44511795043945,-0.2055438607931137,19.748018264770508,0.3378448486328125,17.373151779174805,-0.685708224773407,6.251705169677734,-0.6677929162979126,-0.2820974886417389,-1.7080268859863281,0.056396484375,-1.264918327331543,-0.01611328125,-1.0433349609375,0.0040283203125,0.00030337978387251496,0.0015180457849055529,0.0,19.90142250061035,0.0,-0.008185151033103466,0.0
65.66037273406982,0.0015782129485160112,0.009490966796875,359.9996643066406,87.32138061523438,0.0001660720445215702,0.009590130299329758,359.99993896484375,35.431007385253906,36.59760665893555,32.728004455566406,39.112892150878906,39.9322509765625,43.54243087768555,42.43061447143555,-0.17212803661823273,19.14889144897461,0.29372483491897583,18.831432342529297,-0.6979041695594788,6.443993091583252,-0.6793723106384277,-0.2820974886417389,-1.732177734375,0.04833984375,-1.998063087463379,-0.014524315483868122,-1.0473710298538208,0.0040283203125,0.0,-0.001516898861154914,0.00030315073672682047,-0.5880669355392456,0.0,-0.0048504117876291275,0.0
66.1706874370575,0.0015782129485160112,0.00946044921875,359.9996337890625,87.2831802368164,0.0001660720445215702,0.009481118060648441,359.99993896484375,35.4326171875,36.598411560058594,32.71672439575195,39.11933517456055,39.96770095825195,43.56982421875,42.44672775268555,-0.2086634635925293,18.956966400146484,0.30273371934890747,19.285200119018555,-0.7014175057411194,6.545755863189697,-0.6749979853630066,-0.2901509404182434,-1.740234375,0.056396484375,-2.1511380672454834,-0.011393810622394085,-1.04736328125,0.009007598273456097,0.0,-0.00030337978387251496,0.0,-0.008904583752155304,0.0,-0.0006081318715587258,0.0
66.67836236953735,0.0015782129485160112,0.009674072265625,359.9996643066406,81.28589630126953,0.0001660720445215702,0.010516729205846786,359.99993896484375,35.430198669433594,36.602439880371094,32.719139099121094,39.13544845581055,39.974143981933594,43.54082107543945,42.416114807128906,-0.154989555478096,20.50879669189453,0.27226871252059937,21.925674438476562,-0.6818910241127014,7.385802745819092,-0.6771102547645569,-0.2901509404182434,-1.7563661336898804,0.0649547129869461,-2.747739791870117,-0.0166091900318861,-1.0916821956634521,0.0056969053111970425,0.0,0.000303382781567052,0.00030383889679796994,-25.445682525634766,0.0,0.008197447285056114,0.0
67.18636870384216,0.0016045225784182549,0.0087890625,359.99969482421875,68.55137634277344,0.00011156623077113181,0.0037035022396594286,359.99993896484375,35.4366455078125,36.60888671875,32.72236251831055,39.13786697387695,39.95319747924805,43.56499099731445,42.41852951049805,0.024966605007648468,16.052034378051758,0.44246649742126465,17.360462188720703,-0.6964077949523926,5.56249475479126,-0.6919097304344177,-0.2900390625,-1.7080268859863281,0.0490066334605217,-2.223764181137085,-0.02054048329591751,-0.8822021484375,0.0,0.0007573050679638982,-0.007595972623676062,0.0007584569393657148,-24.822614669799805,-0.000607218302320689,0.02923363633453846,0.0
67.69472098350525,0.0015782129485160112,0.008697509765625,359.9996643066406,61.94613265991211,0.0001660720445215702,0.007954956032335758,359.99993896484375,35.43986892700195,36.618553161621094,32.71027755737305,39.1346435546875,39.966087341308594,43.5577392578125,42.423362731933594,-0.22278116643428802,16.964324951171875,0.24766117334365845,17.642976760864258,-0.6596405506134033,5.763756275177002,-0.6983498930931091,-0.2820974886417389,-1.6435546875,0.0649547129869461,-1.9658203125,-0.02054048329591751,-0.8419189453125,0.0040283203125,0.0,0.00425374461337924,0.0,0.0,0.0006076777935959399,0.008197447285056114,0.0
68.202388048172,0.0015782129485160112,0.008758544921875,359.9996337890625,62.01124954223633,0.0001660720445215702,0.007791438139975071,359.99993896484375,35.446311950683594,36.614524841308594,32.72478103637695,39.140281677246094,39.93950271606445,43.56901931762695,42.449951171875,-0.3114035725593567,16.421497344970703,0.06815311312675476,17.250314712524414,-0.6700384616851807,5.759373664855957,-0.7358173727989197,-0.298095703125,-1.635498046875,0.05865322798490524,-1.3212890625,-0.0120849609375,-0.8701265454292297,0.008056640625,0.0,-0.0015180457849055529,-0.0003036091511603445,0.009716993197798729,0.0,-0.002122055273503065,0.0
68.71137595176697,0.0015782129485160112,0.0086669921875,359.9996643066406,65.31671142578125,0.0001660720445215702,0.007627920713275671,359.99993896484375,35.43986892700195,36.61774826049805,32.71833419799805,39.17412185668945,39.966896057128906,43.584327697753906,42.42578125,-0.16442552208900452,16.034175872802734,0.2670651376247406,14.829456329345703,-0.6442353129386902,5.567750453948975,-0.6874940991401672,-0.2900390625,-1.619384765625,0.056396484375,-0.98291015625,-0.01611328125,-0.8419286012649536,-0.0127386674284935,0.0,0.0,0.00030383889679796994,18.4654598236084,0.0,-0.0010618397500365973,0.0
69.22029089927673,0.0015782129485160112,0.00958251953125,359.9996337890625,71.30244445800781,0.0001660720445215702,0.008609025739133358,359.99993896484375,35.434226989746094,36.625,32.723167419433594,39.15961837768555,39.937889099121094,43.568214416503906,42.466064453125,-0.3966306746006012,18.972232818603516,0.11185112595558167,17.631683349609375,-0.6619395613670349,6.258375644683838,-0.7140123844146729,-0.30657610297203064,-1.6838572025299072,0.0649547129869461,-1.62744140625,-0.014524315483868122,-0.9627769589424133,0.0040283203125,0.0,-0.0015203447546809912,0.0,-0.04310166835784912,0.0,-0.003789384150877595,0.0
69.7293860912323,0.0015782129485160112,0.00927734375,359.9996337890625,71.24503326416016,0.0001660720445215702,0.00844550784677267,359.99993896484375,35.4326171875,36.62016677856445,32.72880935668945,39.14753341674805,39.92338943481445,43.55693435668945,42.412086486816406,-0.2858511507511139,17.198366165161133,0.15653066337108612,17.429658889770508,-0.6684837937355042,6.032374858856201,-0.7059993147850037,-0.2820974886417389,-1.699951171875,0.0649547129869461,-2.11083984375,-0.0127386674284935,-0.9426355361938477,0.0040283203125,0.0,-0.001516898861154914,-0.0003040689625777304,-0.029235877096652985,0.0,-0.0016685888404026628,0.0
70.23879098892212,0.0015782129485160112,0.00958251953125,359.9996337890625,67.53508758544922,0.0001660720445215702,0.0087180370464921,359.99993896484375,35.43342208862305,36.61774826049805,32.72075271606445,39.16606521606445,39.952392578125,43.572242736816406,42.399192810058594,-0.36021679639816284,18.920366287231445,0.13647308945655823,19.76666259765625,-0.6777786612510681,6.296330451965332,-0.706384539604187,-0.29820457100868225,-1.7321964502334595,0.0649547129869461,-2.441640615463257,-0.02054048329591751,-0.9627685546875,0.0040283203125,0.0,0.0009094522101804614,-0.0003031537344213575,-19.569181442260742,0.0,0.000607218302320689,0.0
70.74965810775757,0.0015782129485160112,0.006988525390625,359.9996337890625,56.02085876464844,0.0001660720445215702,0.007627920713275671,359.99993896484375,35.435035705566406,36.6209716796875,32.72478103637695,39.16606521606445,39.95158767700195,43.5577392578125,42.43464279174805,-0.33232635259628296,15.164461135864258,0.041330546140670776,17.011032104492188,-0.6377689242362976,5.6226396560668945,-0.7064352035522461,-0.2820974886417389,-1.5791220664978027,0.056396484375,-2.2155909538269043,-0.0056969053111970425,-0.8016357421875,0.0040283203125,-0.00030315073672682047,0.021635521203279495,-0.00045506967580877244,-15.2587890625,0.000606307468842715,0.005911439191550016,0.0
71.25975155830383,0.0015782129485160112,0.008148193359375,359.9996337890625,53.960235595703125,0.0001660720445215702,0.007682426832616329,359.99993896484375,35.43745040893555,36.63225173950195,32.711891174316406,39.15800857543945,39.9644775390625,43.56257247924805,42.42900466918945,-0.39959168434143066,15.81016731262207,0.046421390026807785,15.505537986755371,-0.6562687158584595,5.35513162612915,-0.711169421672821,-0.27392578125,-1.5388394594192505,0.0490066334605217,-1.248779296875,-0.0166091900318861,-0.8177490234375,0.009007598273456097,0.0,0.003646030556410551,-0.00030383889679796994,0.030405312776565552,0.0,0.0027304179966449738,0.0
71.76845407485962,0.0015782129485160112,0.008331298828125,359.9996337890625,53.69874572753906,0.0001660720445215702,0.0077369324862957,359.99993896484375,35.43584060668945,36.633056640625,32.7376708984375,39.16767501831055,39.974143981933594,43.58916091918945,42.42578125,-0.3723459243774414,17.077138900756836,0.07524621486663818,16.606618881225586,-0.6491196155548096,5.66607666015625,-0.7254469394683838,-0.2900390625,-1.49853515625,0.04833984375,-2.1273343563079834,-0.01611328125,-0.8338720202445984,0.0040283203125,0.0,0.00030383889679796994,-0.0003031537344213575,-5.633062362670898,0.0,0.001667345524765551,0.0
72.27531838417053,0.0015782129485160112,0.008880615234375,359.9996337890625,52.85944366455078,0.0001660720445215702,0.0080639673396945,359.99993896484375,35.431007385253906,36.631446838378906,32.72639083862305,39.1749267578125,39.966087341308594,43.5496826171875,42.42255783081055,-0.3465577960014343,18.250459671020508,0.14318658411502838,17.055484771728516,-0.6691299676895142,5.805549144744873,-0.7103868126869202,-0.2985308766365051,-1.5146697759628296,0.050954669713974,-1.3213872909545898,-0.01709071546792984,-0.813720703125,0.0040283203125,-0.0003036091511603445,0.010921671986579895,-0.00030337978387251496,0.023528773337602615,0.0006067595677450299,0.014551378786563873,0.0
72.78526902198792,0.0015782129485160112,0.007598876953125,359.9996643066406,53.770755767822266,0.00011156623077113181,0.006810333579778671,359.99993896484375,35.455177307128906,36.63788986206055,32.727195739746094,39.17412185668945,39.93144607543945,43.56499099731445,42.428199768066406,-0.32026973366737366,12.82951545715332,0.006745726335793734,12.720722198486328,-0.6368188261985779,4.767678737640381,-0.7294125556945801,-0.30657610297203064,-1.458251953125,0.064453125,-0.829833984375,-0.0166091900318861,-0.7815356850624084,0.0040283203125,0.0,-0.00425374461337924,0.0,10.538778305053711,0.0,-0.004399050492793322,0.0
73.29435157775879,0.0015782129485160112,0.009552001953125,359.9996643066406,59.28364944458008,0.0001660720445215702,0.0083910021930933,359.99993896484375,35.438255310058594,36.63225173950195,32.7054443359375,39.19587326049805,39.95158767700195,43.592384338378906,42.408058166503906,-0.2778961956501007,19.332290649414062,0.2666778564453125,17.064395904541016,-0.6551952958106995,6.20418119430542,-0.7081629633903503,-0.2900390625,-1.587158203125,0.056396484375,-1.2811071872711182,-0.0120849609375,-0.8942962288856506,0.0040283203125,0.0,0.006684455554932356,0.0003036091511603445,0.029787776991724968,0.0,0.005469045601785183,0.0
73.80241298675537,0.0015782129485160112,0.008453369140625,359.9996643066406,59.22337341308594,0.0001660720445215702,0.007627920713275671,359.99993896484375,35.43342208862305,36.62580490112305,32.727195739746094,39.16767501831055,39.97978591918945,43.577880859375,42.40483474731445,-0.21132425963878632,14.981914520263672,0.16997267305850983,15.399758338928223,-0.6429414749145508,5.43143367767334,-0.69449782371521,-0.27392578125,-1.5791220664978027,0.056969054043293,-1.82080078125,-0.0166091900318861,-0.8661263585090637,-0.0056969053111970425,0.0,-0.00515361363068223,0.0003031537344213575,-0.07176002115011215,0.0,-0.005911439191550016,0.0
74.31065535545349,0.0015782129485160112,0.0087890625,359.9996643066406,55.77949523925781,0.0001660720445215702,0.007518909405916929,359.99993896484375,35.431007385253906,36.623390197753906,32.707862854003906,39.1910400390625,39.954002380371094,43.55854415893555,42.44672775268555,-0.3568733036518097,16.60175895690918,0.09310252964496613,16.729896545410156,-0.6677236557006836,5.418175220489502,-0.7205318212509155,-0.2901509404182434,-1.5871785879135132,0.0490066334605217,-2.1027987003326416,-0.008056640625,-0.874154806137085,0.0056969053111970425,0.0,-0.0006076777935959399,0.0,-15.846856117248535,0.0,-0.003789384150877595,0.0
74.81975436210632,0.0016045225784182549,0.007720947265625,359.9996643066406,53.483978271484375,0.00011156623077113181,0.007028356660157442,359.99993896484375,35.450340270996094,36.62580490112305,32.740089416503906,39.17975997924805,39.94353103637695,43.57465744018555,42.42900466918945,-0.15836656093597412,13.080381393432617,0.13859809935092926,14.204479217529297,-0.654758632183075,4.858557224273682,-0.7199526429176331,-0.298095703125,-1.52272629737854,0.056969054043293,-1.1279584169387817,-0.008056640625,-0.829833984375,0.0,0.00030315073672682047,-0.010025691241025925,0.0003036091511603445,0.044305428862571716,-0.000606307468842715,-0.013490207493305206,0.0
75.32751107215881,0.0015782129485160112,0.007720947265625,359.9996643066406,53.64630889892578,0.00011156623077113181,0.006864839233458042,359.99993896484375,35.43342208862305,36.64030838012695,32.735252380371094,39.17009353637695,39.933860778808594,43.55048751831055,42.43706130981445,-0.31664612889289856,13.674333572387695,0.05499431863427162,14.059147834777832,-0.6487669944763184,4.918479919433594,-0.7281051278114319,-0.29820457100868225,-1.4985568523406982,0.040283203125,-0.88623046875,-0.018015196546912193,-0.8016357421875,0.0040283203125,0.0,-0.0048504117876291275,0.0,3.8998122215270996,-0.0006067595677450299,-0.0054608359932899475,0.0
75.8373692035675,0.0015782129485160112,0.009490966796875,359.9996337890625,60.84907150268555,0.0001660720445215702,0.0087180370464921,359.99993896484375,35.43342208862305,36.643531799316406,32.72639083862305,39.20795822143555,39.952392578125,43.57465744018555,42.395164489746094,-0.30252012610435486,17.583467483520508,0.15645453333854675,16.118499755859375,-0.6423189043998718,6.075070381164551,-0.7138547301292419,-0.27392578125,-1.554931640625,0.0490066334605217,-1.1442983150482178,-0.0127386674284935,-0.9184658527374268,-0.009007598273456097,0.0,-0.005376772023737431,-0.00030337675707414746,11.792289733886719,0.0,0.0006063014734536409,0.0
76.34736251831055,0.0015782129485160112,0.008697509765625,359.9996643066406,62.12014389038086,0.0001660720445215702,0.007900449447333813,359.99993896484375,35.43986892700195,36.64111328125,32.703025817871094,39.18620681762695,39.96528244018555,43.593994140625,42.416114807128906,-0.1860869973897934,15.892929077148438,0.20286408066749573,16.379451751708984,-0.6883413791656494,5.612544059753418,-0.7037538886070251,-0.281982421875,-1.603271484375,0.056396484375,-1.72412109375,-0.0127386674284935,-0.894287109375,0.0,0.0,-0.004256965592503548,0.00030315073672682047,-0.16210399568080902,0.0,-0.004857697989791632,0.0
76.86142086982727,0.0015782129485160112,0.008514404296875,359.9996643066406,62.59471893310547,0.0001660720445215702,0.0074098976328969,359.99993896484375,35.435035705566406,36.62983322143555,32.719139099121094,39.19426345825195,39.97978591918945,43.59318923950195,42.41047286987305,-0.2602463364601135,15.39516544342041,0.15958216786384583,14.427994728088379,-0.653629720211029,5.267310619354248,-0.7054896950721741,-0.265869140625,-1.5952962636947632,0.056396484375,-0.8701545000076294,-0.0166091900318861,-0.85400390625,0.0040283203125,0.0,-0.001821654848754406,0.0,7.613919258117676,0.0,-0.002734550042077899,0.0
77.36810541152954,0.0015519033186137676,0.010406494140625,359.9996337890625,68.68197631835938,0.0001660720445215702,0.009317601099610329,359.99993896484375,35.435035705566406,36.62983322143555,32.73686599731445,39.203125,39.978172302246094,43.5577392578125,42.404029846191406,-0.43641793727874756,21.144699096679688,0.11687299609184265,18.87552833557129,-0.687278151512146,6.858027458190918,-0.7072672247886658,-0.29820457100868225,-1.716064453125,0.064453125,-1.6596875190734863,-0.0166091900318861,-0.9627685546875,0.0,-0.00030315073672682047,0.022770706564188004,-0.00030337978387251496,3.620729446411133,0.0,0.0048504117876291275,0.0
77.87730050086975,0.0015782129485160112,0.009002685546875,359.9996337890625,68.73294067382812,0.0001660720445215702,0.008336496539413929,359.99993896484375,35.44792556762695,36.630638122558594,32.723167419433594,39.1910400390625,39.9564208984375,43.5819091796875,42.36213302612305,-0.2537629008293152,16.274673461914062,0.1313750445842743,16.711130142211914,-0.6657125949859619,5.911186218261719,-0.7162380218505859,-0.2900390625,-1.6919137239456177,0.040283203125,-2.006119728088379,-0.0166091900318861,-0.9386332631111145,0.011393810622394085,0.0,-0.004854076541960239,-0.00030337978387251496,-0.11385739594697952,0.0,-0.004395685624331236,0.0
78.3833577632904,0.0015519033186137676,0.0101318359375,359.9996337890625,66.47228240966797,0.0001660720445215702,0.00909957755357027,359.99993896484375,35.4326171875,36.634666442871094,32.71833419799805,39.189430236816406,39.970115661621094,43.593994140625,42.391944885253906,-0.411433607339859,21.058780670166016,0.19823886454105377,20.508317947387695,-0.670522928237915,6.792901039123535,-0.689525842666626,-0.298095703125,-1.740234375,0.0649547129869461,-2.763439655303955,-0.014524315483868122,-0.9506921172142029,0.0040283203125,-0.00030383889679796994,0.013295433484017849,-0.00030383889679796994,-15.320691108703613,0.0,0.008185070008039474,0.0
78.89131426811218,0.0016045225784182549,0.0064697265625,359.9996643066406,54.789306640625,0.00011156623077113181,0.004139548633247614,359.99993896484375,35.435035705566406,36.62822341918945,32.7255859375,39.22246170043945,39.93547439575195,43.57868576049805,42.4136962890625,-0.13612490892410278,11.793550491333008,0.16875222325325012,14.513652801513672,-0.6407049894332886,4.345733165740967,-0.6993886232376099,-0.29820457100868225,-1.56298828125,0.056969054043293,-1.6759555339813232,-0.0120849609375,-0.7976175546646118,0.0040283203125,0.0004547261050902307,-0.10120238363742828,0.00030383889679796994,-20.969228744506836,-0.0006058440776541829,-0.158469557762146,0.0
79.39839935302734,0.0015782129485160112,0.009674072265625,359.9996643066406,50.7499885559082,0.00011156623077113181,0.0067558279260993,359.99993896484375,35.4366455078125,36.627418518066406,32.73444747924805,39.19587326049805,39.946754455566406,43.615745544433594,42.41047286987305,-0.25883615016937256,13.831849098205566,0.11251950263977051,14.746006965637207,-0.6558830142021179,5.036814212799072,-0.7159606218338013,-0.298095703125,-1.3535395860671997,0.056396484375,-1.0716543197631836,-0.009007598273456097,-0.7412219047546387,0.009007598273456097,0.0,-0.007026741746813059,0.0,0.4797388017177582,-0.000606765563134104,-0.0027325095143169165,0.0
79.9074387550354,0.0015782129485160112,0.00946044921875,359.9996643066406,50.799583435058594,0.00011156623077113181,0.006973851006478071,359.99993896484375,35.43584060668945,36.6451416015625,32.71833419799805,39.213600158691406,39.9564208984375,43.5859375,42.4056396484375,-0.31738749146461487,16.17973518371582,0.14003285765647888,15.464126586914062,-0.653649628162384,5.374343395233154,-0.7213780283927917,-0.298095703125,-1.546895980834961,0.056396484375,-1.3454830646514893,-0.0120849609375,-0.76136314868927,-0.0040283203125,-0.0003036091511603445,0.0039499057456851006,0.0,0.0013652089983224869,0.0,0.0016710972413420677,0.0
