Time (s),Pos_0,Pos_1,Pos_2,Pos_3,Pos_4,Pos_5,Pos_6,Temp_0,Temp_1,Temp_2,Temp_3,Temp_4,Temp_5,Temp_6,Torque_0,Torque_1,Torque_2,Torque_3,Torque_4,Torque_5,Torque_6,Current_0,Current_1,Current_2,Current_3,Current_4,Current_5,Current_6,Velocity_0,Velocity_1,Velocity_2,Velocity_3,Velocity_4,Velocity_5,Velocity_6
0.0,0.001657141838222742,359.9992370605469,359.99969482421875,359.9989929199219,5.706041702069342e-05,0.0005421650130301714,359.99993896484375,35.24650955200195,35.55830001831055,32.61359786987305,37.904396057128906,39.889549255371094,43.02277755737305,42.3572998046875,-0.3191644847393036,0.04643494263291359,-0.3764011263847351,0.08704923838376999,-0.6026400327682495,0.1373756229877472,-0.7959325313568115,-0.2900390625,0.12915778160095215,0.04833984375,0.17742909491062164,-0.0127386674284935,-0.06095954775810242,0.0,0.0,-0.0003031537344213575,0.0,0.0,0.0,0.0,0.0
0.5054521560668945,0.001657141838222742,359.999267578125,359.99969482421875,359.9989929199219,5.706041702069342e-05,0.0005421650130301714,359.99993896484375,35.2352294921875,35.55669021606445,32.60795974731445,37.907615661621094,39.87907791137695,43.023582458496094,42.34038162231445,-0.3352288603782654,0.050856009125709534,-0.349027544260025,0.08538422733545303,-0.6008983254432678,0.1714189350605011,-0.7742947340011597,-0.31431224942207336,0.12890625,0.04108096659183502,0.169189453125,-0.0040283203125,-0.0604248046875,-0.0040283203125,0.0,0.0,0.0,0.0,0.0,0.0,0.0
1.0255463123321533,0.001657141838222742,359.9992370605469,359.99969482421875,359.9989929199219,5.706041702069342e-05,0.0005421650130301714,359.99993896484375,35.241676330566406,35.5736083984375,32.599098205566406,37.8939208984375,39.886329650878906,43.036476135253906,42.3734130859375,-0.36766692996025085,0.045589983463287354,-0.3593387305736542,0.07362870872020721,-0.6013007760047913,0.12467067688703537,-0.7721797823905945,-0.2900390625,0.12890625,0.040283203125,0.17797699570655823,-0.0040283203125,-0.056969054043293,0.0056969053111970425,0.0,0.0,0.0,0.0,0.0,0.0,0.0
1.5393576622009277,0.001657141838222742,359.9991149902344,359.99969482421875,6.083120346069336,5.706041702069342e-05,0.000596670841332525,359.99993896484375,35.240867614746094,35.553462982177734,32.588623046875,37.90681076049805,39.91694259643555,43.011497497558594,42.35407638549805,-0.24560298025608063,-0.293836772441864,-0.3517776131629944,-0.5194576978683472,-0.6023727059364319,0.2615385055541992,-0.7722280621528625,-0.29820457100868225,0.153076171875,0.0490066334605217,0.4997715353965759,-0.0056969053111970425,-0.052522867918014526,0.0,0.0,-0.0006063014734536409,0.0,24.87627601623535,0.0,-0.0016711305361241102,0.0
2.0469772815704346,0.0016045225784182549,0.00836181640625,359.99969482421875,18.894622802734375,0.00011156623077113181,0.002722397679463029,359.99993896484375,35.23442459106445,35.5494384765625,32.59184646606445,37.916481018066406,39.87263107299805,42.98249435424805,42.41450119018555,-0.3339827060699463,4.894896984100342,-0.15117168426513672,4.704326629638672,-0.6185902953147888,2.1382362842559814,-0.7699359059333801,-0.29820457100868225,-0.7331985235214233,0.040283203125,-0.07427855581045151,-0.009007598273456097,-0.27798330783843994,0.009007598273456097,0.00030315073672682047,-0.023748526349663734,0.0,24.822614669799805,0.0,-0.0031878959853202105,0.0
2.5565543174743652,0.0015782129485160112,0.008331298828125,359.9996643066406,31.60407257080078,0.00011156623077113181,0.0029404207598417997,359.99993896484375,35.23845291137695,35.555076599121094,32.611183166503906,37.900367736816406,39.902442932128906,43.04533767700195,42.3975830078125,-0.3094293177127838,9.147446632385254,-0.0778128132224083,8.85360336303711,-0.6266288161277771,3.4983646869659424,-0.7330499291419983,-0.2901509404182434,-1.103759765625,0.064453125,-0.49152112007141113,-0.009007598273456097,-0.5680074095726013,0.0056969053111970425,0.0,-0.003946918994188309,0.0,25.48805809020996,0.0,0.0136625487357378,0.0
3.0654046535491943,0.0015782129485160112,0.008758544921875,359.9996643066406,44.30010223388672,0.00011156623077113181,0.0061562638729810715,359.99993896484375,35.24409103393555,35.551048278808594,32.60554122924805,37.89311599731445,39.914527893066406,43.03486251831055,42.412086486816406,-0.21240396797657013,13.422192573547363,0.07682546973228455,13.167587280273438,-0.6314883232116699,4.9740214347839355,-0.7260518670082092,-0.29820457100868225,-1.3535395860671997,0.064453125,-0.8787649869918823,-0.0127386674284935,-0.7210806012153625,0.0056969053111970425,0.0,-0.00030383889679796994,0.0,25.132123947143555,0.0,0.1860036551952362,0.0
3.5733871459960938,0.0015782129485160112,0.00921630859375,359.9996337890625,56.98887252807617,0.0001660720445215702,0.007845943793654442,359.99993896484375,35.247314453125,35.549434661865234,32.602317810058594,37.90520095825195,39.909690856933594,43.0421142578125,42.38227462768555,-0.37030935287475586,15.919882774353027,0.012317225337028503,14.753891944885254,-0.6791935563087463,5.462459087371826,-0.7301851511001587,-0.29820457100868225,-1.522705078125,0.04833984375,-0.9023796916007996,-0.0127386674284935,-0.8419189453125,0.0056969053111970425,0.0,-0.000606765563134104,-0.00030383586999960244,24.904985427856445,0.0,-0.00724522490054369,0.0
4.080493688583374,0.0015519033186137676,0.00982666015625,359.9996337890625,69.63604736328125,0.0001660720445215702,0.008936060592532158,359.99993896484375,35.240867614746094,35.551048278808594,32.619239807128906,37.883445739746094,39.933860778808594,42.996192932128906,42.359718322753906,-0.4124715030193329,18.114702224731445,0.018738560378551483,16.30516242980957,-0.6282251477241516,6.0166754722595215,-0.6794770956039429,-0.281982421875,-1.635498046875,0.064453125,-1.2973443269729614,-0.014524315483868122,-0.9265223741531372,0.011393810622394085,-0.00030315073672682047,0.004247317090630531,-0.00030383889679796994,26.555864334106445,0.0,-0.024253150448203087,0.0
4.589730739593506,0.0015519033186137676,0.01055908203125,359.9996337890625,81.91983032226562,0.0001660720445215702,0.011116293258965015,359.99993896484375,35.25617599487305,35.55265808105469,32.61198806762695,37.884254455566406,39.902442932128906,42.983299255371094,42.3734130859375,-0.4189647436141968,21.95284080505371,0.09908416867256165,20.725919723510742,-0.6634320616722107,7.447556495666504,-0.6816661953926086,-0.2740442156791687,-1.724139928817749,0.064453125,-1.4665077924728394,-0.0166091900318861,-1.0675731897354126,0.0040283203125,-0.00030315073672682047,0.008203649893403053,-0.000303382781567052,18.075321197509766,0.0,0.016165055334568024,0.0
5.095496416091919,0.0015782129485160112,0.0098876953125,359.9996337890625,84.99565887451172,0.0001660720445215702,0.0075734150595963,359.99993896484375,35.247314453125,35.56232833862305,32.6168212890625,37.868141174316406,39.904052734375,43.020362854003906,42.36052322387695,-0.31907275319099426,19.947614669799805,0.22087758779525757,18.205217361450195,-0.6907477378845215,6.3442254066467285,-0.6763147711753845,-0.2820974886417389,-1.78857421875,0.064453125,-2.30419921875,-0.0201416015625,-0.9547203779220581,0.009007598273456097,0.0,0.0006076777935959399,-0.00030315073672682047,-0.12223329395055771,0.0,0.006044281646609306,0.0
5.604647397994995,0.0015782129485160112,0.00958251953125,359.9996643066406,84.96245574951172,0.0001660720445215702,0.008827048353850842,359.99993896484375,35.2513427734375,35.579246520996094,32.606346130371094,37.8455810546875,39.886329650878906,42.98491287231445,42.34601974487305,-0.26742029190063477,18.022550582885742,0.21405726671218872,17.89338493347168,-0.6849672198295593,6.201893329620361,-0.6822208166122437,-0.281982421875,-1.78857421875,0.056969054043293,-1.33740234375,-0.0201416015625,-1.0111165046691895,0.0056969053111970425,0.00030315073672682047,-0.004247359000146389,0.00030383889679796994,0.2504551410675049,0.0,-0.009708153083920479,0.0
6.111775159835815,0.0015782129485160112,0.010009765625,359.9996643066406,88.6551742553711,0.0001660720445215702,0.0096991416066885,359.99993896484375,35.24650955200195,35.58085632324219,32.619239807128906,37.85686111450195,39.914527893066406,43.027610778808594,42.38871765136719,-0.26213112473487854,20.603559494018555,0.262159526348114,19.14362907409668,-0.681553304195404,6.870361328125,-0.6846543550491333,-0.2659911811351776,-1.796630859375,0.0649547129869461,-1.4583410024642944,-0.009007598273456097,-1.0474330186843872,0.008056640625,0.0,0.0009094522101804614,0.00030383889679796994,0.015475445427000523,0.0,-0.0006076777935959399,0.0
6.621339797973633,0.0015782129485160112,0.009765625,359.9996643066406,88.60384368896484,0.0001660720445215702,0.009208589792251587,359.99993896484375,35.24248123168945,35.600196838378906,32.62810134887695,37.852027893066406,39.922584533691406,43.031639099121094,42.36857986450195,-0.22642205655574799,19.498023986816406,0.22677797079086304,19.047304153442383,-0.7036569714546204,6.649539947509766,-0.6803368330001831,-0.2901509404182434,-1.7966489791870117,0.056969054043293,-2.062562942504883,-0.02054048329591751,-1.0111404657363892,0.0056969053111970425,0.0,-0.0003040689625777304,0.0,0.0,0.0,-0.0016698503168299794,0.0
7.128056049346924,0.0015782129485160112,0.009735107421875,359.9996643066406,84.91828155517578,0.0001660720445215702,0.00877254270017147,359.99993896484375,35.25053787231445,35.60503005981445,32.60393142700195,37.88264083862305,39.902442932128906,43.0018310546875,42.387916564941406,-0.23844990134239197,18.388221740722656,0.20658151805400848,20.03412628173828,-0.6856206059455872,6.475313186645508,-0.6904463768005371,-0.281982421875,-1.7885924577713013,0.064453125,-2.5620245933532715,-0.0127386674284935,-1.0513993501663208,0.008056640625,0.0003031537344213575,-0.00424411054700613,0.0003040719893760979,-19.522062301635742,0.0,-0.016230817884206772,0.0
7.636321306228638,0.0015519033186137676,0.009368896484375,359.9996337890625,72.84111022949219,0.0001660720445215702,0.008227485232055187,359.99993896484375,35.23603439331055,35.63483810424805,32.60151290893555,37.904396057128906,39.917747497558594,43.01713943481445,42.34521484375,-0.4850931763648987,17.232269287109375,-0.05623471364378929,19.054323196411133,-0.6884106993675232,5.922294616699219,-0.6949853301048279,-0.2901509404182434,-1.7724609375,0.064453125,-2.2401082515716553,-0.0166091900318861,-0.9506921172142029,0.0120849609375,-0.00030315073672682047,-0.000606307468842715,0.0,-18.19912338256836,0.0,0.0006058440776541829,0.0
8.144448518753052,0.0015782129485160112,0.00927734375,359.9996643066406,69.65388488769531,0.0001660720445215702,0.00844550784677267,359.99993896484375,35.23845291137695,35.64289474487305,32.60956954956055,37.88505935668945,39.890357971191406,43.03325271606445,42.35810470581055,-0.12555721402168274,16.956825256347656,0.288082480430603,17.31432342529297,-0.6776545643806458,5.9144487380981445,-0.7019209861755371,-0.2900390625,-1.7563661336898804,0.040283203125,-1.3938920497894287,-0.0120849609375,-0.9507176876068115,0.008056640625,0.00030383889679796994,-0.0012135191354900599,0.000303382781567052,0.1340896189212799,0.0,-0.005911497864872217,0.0
8.65332579612732,0.0015782129485160112,0.009429931640625,359.9996643066406,69.69258117675781,0.0001660720445215702,0.008554520085453987,359.99993896484375,35.236839294433594,35.652565002441406,32.61198806762695,37.90520095825195,39.93305587768555,43.028419494628906,42.4056396484375,-0.28613221645355225,18.536317825317383,0.18865634500980377,17.82071876525879,-0.6755380034446716,6.15631103515625,-0.7023192048072815,-0.2901509404182434,-1.732177734375,0.040283203125,-1.5549525022506714,-0.02054048329591751,-0.9466637969017029,0.009007598273456097,0.0,0.0015180457849055529,0.0,0.5261651277542114,0.0,0.0006076777935959399,0.0
9.163348197937012,0.0015782129485160112,0.00970458984375,359.9996337890625,75.78987121582031,0.0001660720445215702,0.009971670806407928,359.99993896484375,35.24409103393555,35.6622314453125,32.607154846191406,37.931785583496094,39.904052734375,43.0098876953125,42.3411865234375,-0.2626209855079651,17.724102020263672,0.1439538598060608,17.801910400390625,-0.6659786701202393,6.797857761383057,-0.7145264148712158,-0.2820974886417389,-1.740234375,0.04833984375,-1.3938920497894287,-0.0120849609375,-1.04736328125,0.0,0.0,-0.011232239194214344,0.0,12.411307334899902,0.0,0.02022668905556202,0.0
9.673450469970703,0.0015782129485160112,0.00982666015625,359.9996337890625,77.15167999267578,0.0001660720445215702,0.00942661240696907,359.99993896484375,35.24248123168945,35.66303634643555,32.607154846191406,37.906005859375,39.89680099487305,43.03486251831055,42.363746643066406,-0.21337512135505676,19.684186935424805,0.28472283482551575,18.64028549194336,-0.6821118593215942,6.631272315979004,-0.6732209324836731,-0.298095703125,-1.7644227743148804,0.0490066334605217,-2.30419921875,-0.014524315483868122,-1.0393145084381104,0.0056969053111970425,0.0,0.0036405574064701796,0.0,-0.04630672559142113,0.0,0.0048504117876291275,0.0
10.180063247680664,0.0015782129485160112,0.00994873046875,359.9996337890625,76.8851089477539,0.0001660720445215702,0.009808152914047241,359.99993896484375,35.248924255371094,35.684791564941406,32.622459411621094,37.9180908203125,39.9241943359375,43.04533767700195,42.363746643066406,-0.2594694495201111,20.592287063598633,0.27781015634536743,19.465681076049805,-0.6943582892417908,6.733078956604004,-0.6835951805114746,-0.2820974886417389,-1.7966489791870117,0.056396484375,-2.44921875,-0.0120849609375,-1.04736328125,0.0,0.0,0.002734550042077899,0.0,-5.039883613586426,0.0,0.0031854878179728985,0.0
10.688352584838867,0.0015782129485160112,0.0093994140625,359.9996643066406,67.8897705078125,0.0001660720445215702,0.008172978647053242,359.99993896484375,35.25053787231445,35.69526290893555,32.610374450683594,37.93339920043945,39.936279296875,42.991355895996094,42.35246658325195,-0.18689177930355072,17.001371383666992,0.22090817987918854,18.304630279541016,-0.6938386559486389,5.920966625213623,-0.7021209001541138,-0.281982421875,-1.7886466979980469,0.064453125,-2.3453683853149414,-0.0120849609375,-0.9990234375,0.0,0.0,-0.004247317090630531,0.0,-25.132123947143555,0.0,-0.010761851444840431,0.0
11.19977331161499,0.0015782129485160112,0.008697509765625,359.9996337890625,60.16357421875,0.0001660720445215702,0.008281990885734558,359.99993896484375,35.2513427734375,35.704933166503906,32.61359786987305,37.938232421875,39.925804138183594,43.000221252441406,42.3572998046875,-0.3483388125896454,17.28803825378418,0.12321463227272034,17.569942474365234,-0.63341224193573,5.613321304321289,-0.7135298848152161,-0.2901509404182434,-1.683837890625,0.04108096659183502,-1.9819499254226685,-0.0127386674284935,-0.8862396478652954,0.0040283203125,-0.0003031537344213575,0.008671173825860023,-0.0003036091511603445,-1.8087925910949707,0.0006063014734536409,0.007601648569107056,0.0
11.710498571395874,0.0015782129485160112,0.008697509765625,359.9996643066406,60.192935943603516,0.0001660720445215702,0.008172978647053242,359.99993896484375,35.241676330566406,35.714599609375,32.622459411621094,37.943870544433594,39.887939453125,43.01069259643555,42.37744140625,-0.33005309104919434,15.543475151062012,0.05212654173374176,16.56153678894043,-0.6747334003448486,5.527116298675537,-0.7313742637634277,-0.27392578125,-1.6517882347106934,0.050954669713974,-1.1602680683135986,-0.014524315483868122,-0.9144641757011414,0.0056969053111970425,0.0,-0.0024307111743837595,0.0,0.0031990751158446074,0.0,-0.00212687230668962,0.0
12.21980905532837,0.0015782129485160112,0.008544921875,359.9996643066406,63.335201263427734,0.0001660720445215702,0.007845943793654442,359.99993896484375,35.25053787231445,35.72346115112305,32.6087646484375,37.9583740234375,39.910499572753906,43.0179443359375,42.40483474731445,-0.14774711430072784,15.750300407409668,0.25421634316444397,14.323594093322754,-0.6613073945045471,5.3462677001953125,-0.6900193095207214,-0.281982421875,-1.6194648742675781,0.0490066334605217,-0.9512296915054321,-0.014524315483868122,-0.878173828125,0.009007598273456097,0.0,-0.0015169138787314296,0.00030315073672682047,18.059844970703125,0.0,-0.003190308343619108,0.0
12.727380275726318,0.0015782129485160112,0.009796142578125,359.9996643066406,72.860107421875,0.0001660720445215702,0.009208589792251587,359.99993896484375,35.241676330566406,35.73876953125,32.62004470825195,37.96240234375,39.9322509765625,43.00102615356445,42.38630294799805,-0.2460414171218872,18.60936164855957,0.21677768230438232,18.151996612548828,-0.6780798435211182,6.447266578674316,-0.6952975392341614,-0.2820974886417389,-1.7080268859863281,0.064453125,-1.329443335533142,-0.0127386674284935,-1.0151447057724,0.0,0.0,0.0006067595677450299,0.0003036091511603445,7.892477035522461,0.0,0.002122055273503065,0.0
13.237302541732788,0.0015782129485160112,0.009521484375,359.9996337890625,73.40589904785156,0.0001660720445215702,0.00909957755357027,359.99993896484375,35.25214767456055,35.73876953125,32.603126525878906,37.95515060424805,39.90888595581055,43.020362854003906,42.395164489746094,-0.3223482072353363,19.34124183654785,0.19617794454097748,18.323829650878906,-0.6916850209236145,6.487298488616943,-0.711333155632019,-0.27392578125,-1.7161400318145752,0.064453125,-2.0947420597076416,-0.014524315483868122,-0.9869384765625,-0.008056640625,0.0,0.0018230515997856855,-0.00030383889679796994,-0.0069962358102202415,0.0,0.0027283835224807262,0.0
13.745459794998169,0.0015782129485160112,0.009490966796875,359.9996337890625,72.56607055664062,0.0001660720445215702,0.00909957755357027,359.99993896484375,35.252952575683594,35.756492614746094,32.610374450683594,37.94951248168945,39.90888595581055,43.013916015625,42.363746643066406,-0.4099973738193512,17.695287704467773,0.025898193940520287,19.188892364501953,-0.6688011288642883,6.282286167144775,-0.7057408094406128,-0.2743992805480957,-1.7402530908584595,0.0649547129869461,-2.417327880859375,-0.01611328125,-1.0151447057724,0.008056640625,0.0,-0.0036405574064701796,0.0,-9.223365783691406,0.0,-0.004854076541960239,0.0
14.252353191375732,0.0015519033186137676,0.00933837890625,359.9996337890625,62.194705963134766,0.0001660720445215702,0.008881554938852787,359.99993896484375,35.22797775268555,35.737159729003906,32.618431091308594,37.970458984375,39.946754455566406,42.99699783325195,42.383079528808594,-0.5461087226867676,18.70661735534668,-0.11586391925811768,19.62133026123047,-0.6887237429618835,6.33703088760376,-0.7300352454185486,-0.2901509404182434,-1.740234375,0.064453125,-2.4975717067718506,-0.0166091900318861,-0.934605062007904,0.0,-0.0004547261050902307,0.003940959461033344,-0.00045507418690249324,-24.91546630859375,0.0,0.011422318406403065,0.0
14.764361143112183,0.0015782129485160112,0.00921630859375,359.9996643066406,60.93623733520508,0.0001660720445215702,0.008009461686015129,359.99993896484375,35.24811935424805,35.745216369628906,32.618431091308594,37.970458984375,39.946754455566406,42.98894119262695,42.383079528808594,-0.21513551473617554,17.224515914916992,0.22091098129749298,18.01405906677246,-0.6479600071907043,5.851964473724365,-0.6900334358215332,-0.2900390625,-1.7241963148117065,0.056396484375,-2.3447039127349854,-0.02054048329591751,-0.9224853515625,0.008056640625,0.0,0.002122076228260994,0.0,-24.838088989257812,0.0,0.00924609787762165,0.0
15.272560834884644,0.0015782129485160112,0.00921630859375,359.9996643066406,60.93623733520508,0.0001660720445215702,0.008009461686015129,359.99993896484375,35.24811935424805,35.745216369628906,32.618431091308594,37.970458984375,39.946754455566406,42.98894119262695,42.383079528808594,-0.21513551473617554,17.224515914916992,0.22091098129749298,18.01405906677246,-0.6479600071907043,5.851964473724365,-0.6900334358215332,-0.2900390625,-1.7241963148117065,0.056396484375,-2.3447039127349854,-0.02054048329591751,-0.9224853515625,0.008056640625,0.0,0.002122076228260994,0.0,-24.838088989257812,0.0,0.00924609787762165,0.0
15.78032660484314,0.0015782129485160112,0.00921630859375,359.9996643066406,60.93623733520508,0.0001660720445215702,0.008009461686015129,359.99993896484375,35.24811935424805,35.745216369628906,32.618431091308594,37.970458984375,39.946754455566406,42.98894119262695,42.383079528808594,-0.21513551473617554,17.224515914916992,0.22091098129749298,18.01405906677246,-0.6479600071907043,5.851964473724365,-0.6900334358215332,-0.2900390625,-1.7241963148117065,0.056396484375,-2.3447039127349854,-0.02054048329591751,-0.9224853515625,0.008056640625,0.0,0.002122076228260994,0.0,-24.838088989257812,0.0,0.00924609787762165,0.0
16.28837251663208,0.0015782129485160112,0.00921630859375,359.9996643066406,60.93623733520508,0.0001660720445215702,0.008009461686015129,359.99993896484375,35.24811935424805,35.745216369628906,32.618431091308594,37.970458984375,39.946754455566406,42.98894119262695,42.383079528808594,-0.21513551473617554,17.224515914916992,0.22091098129749298,18.01405906677246,-0.6479600071907043,5.851964473724365,-0.6900334358215332,-0.2900390625,-1.7241963148117065,0.056396484375,-2.3447039127349854,-0.02054048329591751,-0.9224853515625,0.008056640625,0.0,0.002122076228260994,0.0,-24.838088989257812,0.0,0.00924609787762165,0.0
16.79737091064453,0.0015782129485160112,0.00921630859375,359.9996643066406,60.93623733520508,0.0001660720445215702,0.008009461686015129,359.99993896484375,35.24811935424805,35.745216369628906,32.618431091308594,37.970458984375,39.946754455566406,42.98894119262695,42.383079528808594,-0.21513551473617554,17.224515914916992,0.22091098129749298,18.01405906677246,-0.6479600071907043,5.851964473724365,-0.6900334358215332,-0.2900390625,-1.7241963148117065,0.056396484375,-2.3447039127349854,-0.02054048329591751,-0.9224853515625,0.008056640625,0.0,0.002122076228260994,0.0,-24.838088989257812,0.0,0.00924609787762165,0.0
17.30641269683838,0.0015782129485160112,0.00921630859375,359.9996643066406,60.93623733520508,0.0001660720445215702,0.008009461686015129,359.99993896484375,35.24811935424805,35.745216369628906,32.618431091308594,37.970458984375,39.946754455566406,42.98894119262695,42.383079528808594,-0.21513551473617554,17.224515914916992,0.22091098129749298,18.01405906677246,-0.6479600071907043,5.851964473724365,-0.6900334358215332,-0.2900390625,-1.7241963148117065,0.056396484375,-2.3447039127349854,-0.02054048329591751,-0.9224853515625,0.008056640625,0.0,0.002122076228260994,0.0,-24.838088989257812,0.0,0.00924609787762165,0.0
17.815961837768555,0.0015782129485160112,0.00921630859375,359.9996643066406,60.93623733520508,0.0001660720445215702,0.008009461686015129,359.99993896484375,35.24811935424805,35.745216369628906,32.618431091308594,37.970458984375,39.946754455566406,42.98894119262695,42.383079528808594,-0.21513551473617554,17.224515914916992,0.22091098129749298,18.01405906677246,-0.6479600071907043,5.851964473724365,-0.6900334358215332,-0.2900390625,-1.7241963148117065,0.056396484375,-2.3447039127349854,-0.02054048329591751,-0.9224853515625,0.008056640625,0.0,0.002122076228260994,0.0,-24.838088989257812,0.0,0.00924609787762165,0.0
18.32435441017151,0.0015782129485160112,0.00921630859375,359.9996643066406,60.93623733520508,0.0001660720445215702,0.008009461686015129,359.99993896484375,35.24811935424805,35.745216369628906,32.618431091308594,37.970458984375,39.946754455566406,42.98894119262695,42.383079528808594,-0.21513551473617554,17.224515914916992,0.22091098129749298,18.01405906677246,-0.6479600071907043,5.851964473724365,-0.6900334358215332,-0.2900390625,-1.7241963148117065,0.056396484375,-2.3447039127349854,-0.02054048329591751,-0.9224853515625,0.008056640625,0.0,0.002122076228260994,0.0,-24.838088989257812,0.0,0.00924609787762165,0.0
18.830387830734253,0.0015782129485160112,0.00921630859375,359.9996643066406,60.93623733520508,0.0001660720445215702,0.008009461686015129,359.99993896484375,35.24811935424805,35.745216369628906,32.618431091308594,37.970458984375,39.946754455566406,42.98894119262695,42.383079528808594,-0.21513551473617554,17.224515914916992,0.22091098129749298,18.01405906677246,-0.6479600071907043,5.851964473724365,-0.6900334358215332,-0.2900390625,-1.7241963148117065,0.056396484375,-2.3447039127349854,-0.02054048329591751,-0.9224853515625,0.008056640625,0.0,0.002122076228260994,0.0,-24.838088989257812,0.0,0.00924609787762165,0.0
19.33849811553955,0.0015782129485160112,0.00921630859375,359.9996643066406,60.93623733520508,0.0001660720445215702,0.008009461686015129,359.99993896484375,35.24811935424805,35.745216369628906,32.618431091308594,37.970458984375,39.946754455566406,42.98894119262695,42.383079528808594,-0.21513551473617554,17.224515914916992,0.22091098129749298,18.01405906677246,-0.6479600071907043,5.851964473724365,-0.6900334358215332,-0.2900390625,-1.7241963148117065,0.056396484375,-2.3447039127349854,-0.02054048329591751,-0.9224853515625,0.008056640625,0.0,0.002122076228260994,0.0,-24.838088989257812,0.0,0.00924609787762165,0.0
19.84534525871277,0.0015782129485160112,0.00921630859375,359.9996643066406,60.93623733520508,0.0001660720445215702,0.008009461686015129,359.99993896484375,35.24811935424805,35.745216369628906,32.618431091308594,37.970458984375,39.946754455566406,42.98894119262695,42.383079528808594,-0.21513551473617554,17.224515914916992,0.22091098129749298,18.01405906677246,-0.6479600071907043,5.851964473724365,-0.6900334358215332,-0.2900390625,-1.7241963148117065,0.056396484375,-2.3447039127349854,-0.02054048329591751,-0.9224853515625,0.008056640625,0.0,0.002122076228260994,0.0,-24.838088989257812,0.0,0.00924609787762165,0.0
20.352329969406128,0.0015782129485160112,0.00921630859375,359.9996643066406,60.93623733520508,0.0001660720445215702,0.008009461686015129,359.99993896484375,35.24811935424805,35.745216369628906,32.618431091308594,37.970458984375,39.946754455566406,42.98894119262695,42.383079528808594,-0.21513551473617554,17.224515914916992,0.22091098129749298,18.01405906677246,-0.6479600071907043,5.851964473724365,-0.6900334358215332,-0.2900390625,-1.7241963148117065,0.056396484375,-2.3447039127349854,-0.02054048329591751,-0.9224853515625,0.008056640625,0.0,0.002122076228260994,0.0,-24.838088989257812,0.0,0.00924609787762165,0.0
20.86236810684204,0.0015782129485160112,0.00885009765625,359.9996337890625,61.13887405395508,0.0001660720445215702,0.007954956032335758,359.99993896484375,35.25053787231445,35.82255935668945,32.62407302856445,38.028465270996094,39.90324783325195,43.04291915893555,42.366966247558594,-0.4498140513896942,16.931434631347656,-0.03221995383501053,17.220813751220703,-0.6331450343132019,5.972813606262207,-0.7078681588172913,-0.2900390625,-1.6677440404891968,0.0649547129869461,-1.353515625,-0.01611328125,-0.8580417037010193,0.0040283203125,0.0,-0.0006076717399992049,-0.000303382781567052,0.2087126076221466,0.0,0.0006067595677450299,0.0
21.37027859687805,0.0015782129485160112,0.00885009765625,359.9996643066406,61.22185516357422,0.0001660720445215702,0.007682426832616329,359.99993896484375,35.245704650878906,35.821754455566406,32.618431091308594,38.0228271484375,39.9161376953125,43.035667419433594,42.385498046875,-0.38282713294029236,16.131349563598633,0.05509822070598602,15.745441436767578,-0.6586198210716248,5.471278190612793,-0.6856406927108765,-0.298095703125,-1.6516309976577759,0.050954669713974,-1.248805284500122,-0.0120849609375,-0.8580322265625,0.0056969053111970425,0.0,0.0,0.0,2.3850836753845215,0.0,-0.0010626320727169514,0.0
21.88030171394348,0.0015782129485160112,0.00927734375,359.9996643066406,67.40190887451172,0.0001660720445215702,0.008009461686015129,359.99993896484375,35.244895935058594,35.843505859375,32.602317810058594,38.051025390625,39.92822265625,43.03083419799805,42.3814697265625,-0.1849164366722107,17.00405502319336,0.30493873357772827,16.892932891845703,-0.683115541934967,6.1789021492004395,-0.6851649880409241,-0.2900390625,-1.6677440404891968,0.06135754659771919,-1.232666015625,-0.008056640625,-0.9184658527374268,0.0,0.00030383586999960244,-0.006067595444619656,0.00030337978387251496,8.588871955871582,0.0,-0.011992561630904675,0.0
22.38929796218872,0.0015782129485160112,0.009429931640625,359.9996643066406,68.06475067138672,0.0001660720445215702,0.00844550784677267,359.99993896484375,35.23845291137695,35.837059020996094,32.620849609375,38.05183029174805,39.917747497558594,43.00263595581055,42.3814697265625,-0.2756783664226532,18.888063430786133,0.24098177254199982,17.86602020263672,-0.6637301445007324,6.359795093536377,-0.7052436470985413,-0.2740442156791687,-1.7080268859863281,0.04833984375,-2.247817277908325,-0.0166091900318861,-0.9023527503013611,0.0040283203125,0.0,0.0021252429578453302,0.0,-0.08816923946142197,0.0,0.004405663814395666,0.0
22.89711022377014,0.0015782129485160112,0.009124755859375,359.9996643066406,69.46440124511719,0.0001660720445215702,0.007954956032335758,359.99993896484375,35.24811935424805,35.84028244018555,32.6168212890625,38.056663513183594,39.897605895996094,43.0098876953125,42.3653564453125,-0.26440951228141785,17.123600006103516,0.2351483404636383,16.02284049987793,-0.6838777661323547,5.854840278625488,-0.6969536542892456,-0.2901509404182434,-1.69189453125,0.056396484375,-1.1037890911102295,-0.0120849609375,-0.8822113871574402,0.0056969053111970425,0.0,0.0012153555871918797,0.0,12.272027969360352,0.0,0.0016698503168299794,0.0
23.40760326385498,0.0015519033186137676,0.009918212890625,359.9996337890625,76.59273529052734,0.0001660720445215702,0.008554520085453987,359.99993896484375,35.252952575683594,35.85478591918945,32.604736328125,38.07036209106445,39.92097091674805,43.00908279418945,42.375022888183594,-0.33610376715660095,20.0869197845459,0.2345631867647171,18.211027145385742,-0.6830236315727234,6.433795928955078,-0.7013850212097168,-0.2820974886417389,-1.748291015625,0.04833984375,-1.1924917697906494,-0.014524315483868122,-0.987012505531311,0.0040283203125,-0.00030315073672682047,0.0036378446966409683,-0.00030383889679796994,3.5284016132354736,0.0,0.0031927558593451977,0.0
23.91647744178772,0.0015782129485160112,0.009490966796875,359.9996337890625,76.66187286376953,0.0001660720445215702,0.008500013500452042,359.99993896484375,35.2513427734375,35.84270095825195,32.60393142700195,38.04619216918945,39.938697814941406,43.027610778808594,42.375831604003906,-0.28168395161628723,18.938053131103516,0.22022394835948944,18.187700271606445,-0.6826071739196777,6.322723388671875,-0.6679341793060303,-0.281982421875,-1.724139928817749,0.07295598834753036,-2.0947885513305664,-0.0120849609375,-0.9386072754859924,0.014524315483868122,0.0,0.00030315073672682047,0.0,-0.014139964245259762,0.0,0.0,0.0
24.425545692443848,0.0015782129485160112,0.0096435546875,359.9996337890625,74.51527404785156,0.0001660720445215702,0.008881554938852787,359.99993896484375,35.26423263549805,35.84833908081055,32.606346130371094,38.04619216918945,39.90082931518555,43.059837341308594,42.387916564941406,-0.26144054532051086,19.190576553344727,0.21362484991550446,21.05577278137207,-0.7038080096244812,6.683079719543457,-0.6982620358467102,-0.2740442156791687,-1.75634765625,0.04833984375,-2.5701818466186523,-0.021693168208003044,-0.9788818359375,0.0040283203125,0.0,0.0,0.0,-14.698965072631836,0.0,0.0,0.0
24.931379079818726,0.0016045225784182549,0.009246826171875,359.99969482421875,62.7976188659668,0.0001660720445215702,0.007900449447333813,359.99993896484375,35.252952575683594,35.8555908203125,32.60956954956055,38.08647537231445,39.904052734375,43.03889083862305,42.37421798706055,-0.06437917053699493,17.40580940246582,0.3869290351867676,17.799087524414062,-0.6864448189735413,5.902128219604492,-0.7076320052146912,-0.29820457100868225,-1.7321964502334595,0.056969054043293,-2.271986961364746,-0.009007598273456097,-0.8983154296875,0.009007598273456097,0.00030383889679796994,0.0009094522101804614,0.00045575835974887013,-25.060279846191406,0.0,0.0027303907554596663,0.0
25.440673828125,0.0016045225784182549,0.006988525390625,359.9996643066406,52.95394515991211,0.00011156623077113181,0.006210769526660442,359.99993896484375,35.25456237792969,35.858009338378906,32.61198806762695,38.07841873168945,39.912109375,43.036476135253906,42.37824630737305,-0.267558217048645,11.962080001831055,-0.010869217105209827,14.228743553161621,-0.6726707220077515,4.374316692352295,-0.7390065789222717,-0.29820457100868225,-1.5791220664978027,0.064453125,-1.7000274658203125,-0.008056640625,-0.7533066272735596,0.0040283203125,0.00030315073672682047,-0.018904292955994606,0.0,-7.557554721832275,-0.0006058440776541829,-0.008197447285056114,0.0
25.950518131256104,0.0015782129485160112,0.008514404296875,359.9996643066406,52.47392654418945,0.00011156623077113181,0.007300885859876871,359.99993896484375,35.24650955200195,35.86687088012695,32.620849609375,38.083251953125,39.885520935058594,43.024391174316406,42.395973205566406,-0.1886977106332779,16.746877670288086,0.2504609227180481,15.909189224243164,-0.6545067429542542,5.492983818054199,-0.6856573820114136,-0.281982421875,-1.5791015625,0.0490066334605217,-1.248779296875,-0.008056640625,-0.7936199903488159,0.0040283203125,-0.00030383889679796994,0.0048504117876291275,0.0,0.05363998934626579,0.0,0.002734550042077899,0.0
26.460814476013184,0.0015782129485160112,0.008209228515625,359.9996643066406,53.56593322753906,0.00011156623077113181,0.0070828627794981,359.99993896484375,35.253761291503906,35.875732421875,32.60151290893555,38.072776794433594,39.90082931518555,43.08964920043945,42.37824630737305,-0.21836701035499573,14.892302513122559,0.17816300690174103,13.717148780822754,-0.6432142853736877,5.156294345855713,-0.7181174159049988,-0.298095703125,-1.5307828187942505,0.05865322798490524,-0.9347092509269714,-0.021693168208003044,-0.7613951563835144,0.0040283203125,0.0,0.0030360915698111057,0.0,10.682698249816895,0.0,0.002732482273131609,0.0
26.96930193901062,0.0015782129485160112,0.0087890625,359.9996337890625,64.33060455322266,0.0001660720445215702,0.007627920713275671,359.99993896484375,35.252952575683594,35.88298416137695,32.610374450683594,38.10419845581055,39.89680099487305,43.030029296875,42.38469314575195,-0.4207906424999237,15.9498929977417,-0.023905744776129723,14.92524528503418,-0.6534043550491333,5.714630126953125,-0.7346671223640442,-0.2740442156791687,-1.5630090236663818,0.050954669713974,-0.9991533756256104,-0.0120849609375,-0.8298730850219727,0.009007598273456097,0.0,-0.005626339465379715,-0.00030383889679796994,25.039270401000977,0.0,-0.0010610276367515326,0.0
27.475354194641113,0.0015519033186137676,0.00982666015625,359.9996643066406,71.10733032226562,0.0001660720445215702,0.009154083207249641,359.99993896484375,35.24811935424805,35.87250900268555,32.618431091308594,38.081642150878906,39.92097091674805,43.02277755737305,42.3935546875,-0.22668178379535675,20.742996215820312,0.2977657914161682,19.981201171875,-0.6866949796676636,7.093186378479004,-0.676037609577179,-0.2900390625,-1.69189453125,0.0649547129869461,-1.5388394594192505,-0.0166091900318861,-0.9305768609046936,0.0,-0.00030337978387251496,0.00424411054700613,0.00030337978387251496,0.4487879276275635,0.0,0.010307124815881252,0.0
27.983261823654175,0.0015782129485160112,0.009063720703125,359.9996643066406,71.0357437133789,0.0001660720445215702,0.0080639673396945,359.99993896484375,35.265037536621094,35.88298416137695,32.623268127441406,38.077613830566406,39.89116287231445,43.00263595581055,42.4136962890625,-0.1673530638217926,16.571632385253906,0.21415062248706818,17.562427520751953,-0.669040858745575,5.964791297912598,-0.692209780216217,-0.2900390625,-1.67578125,0.04108096659183502,-1.9255539178848267,-0.011393810622394085,-0.9023527503013611,0.008056640625,0.0,-0.0039499057456851006,0.00030383889679796994,-0.010158304125070572,0.0,-0.0031855192501097918,0.0
28.490342378616333,0.0015519033186137676,0.009765625,359.9996337890625,68.0677261352539,0.0001660720445215702,0.00877254270017147,359.99993896484375,35.25053405761719,35.881370544433594,32.614402770996094,38.08808517456055,39.885520935058594,43.013916015625,42.363746643066406,-0.43800297379493713,20.56031608581543,0.15294985473155975,20.45044708251953,-0.6859490871429443,6.778810024261475,-0.7162780165672302,-0.298095703125,-1.7402530908584595,0.0664367601275444,-2.6435725688934326,-0.009007598273456097,-0.9345789551734924,0.0,-0.00030337978387251496,0.0051613557152450085,-0.00030383889679796994,-17.734861373901367,0.0,0.005915905814617872,0.0
28.998351335525513,0.0016045225784182549,0.008331298828125,359.99969482421875,57.046119689941406,0.00011156623077113181,0.0072463802061975,359.99993896484375,35.25214767456055,35.90070724487305,32.615211486816406,38.105812072753906,39.910499572753906,42.97282791137695,42.385498046875,-0.10557834059000015,14.546302795410156,0.26434895396232605,15.41854476928711,-0.6569367051124573,4.993867874145508,-0.6934505105018616,-0.29820457100868225,-1.6435744762420654,0.04833984375,-1.9658863544464111,-0.009007598273456097,-0.837890625,0.0040283203125,0.00030315073672682047,-0.002122055273503065,0.0003031537344213575,-13.494588851928711,0.0,-0.0010626320727169514,0.0
29.50818157196045,0.0016045225784182549,0.008636474609375,359.9996643066406,55.32783889770508,0.0001660720445215702,0.007627920713275671,359.99993896484375,35.257789611816406,35.889427185058594,32.60554122924805,38.100975036621094,39.890357971191406,43.04291915893555,42.379051208496094,-0.12489965558052063,15.9325532913208,0.3011724650859833,15.792550086975098,-0.6596847772598267,5.447873592376709,-0.6936469078063965,-0.2901509404182434,-1.627461314201355,0.056396484375,-1.2890625,-0.0166091900318861,-0.829833984375,0.0056969053111970425,0.00030383889679796994,0.0,0.00030337978387251496,0.21630215644836426,0.0,0.0,0.0
30.017483949661255,0.0016045225784182549,0.008331298828125,359.9996643066406,55.62250518798828,0.00011156623077113181,0.007355391979217529,359.99993896484375,35.25537109375,35.89104080200195,32.60956954956055,38.117088317871094,39.897605895996094,43.015525817871094,42.362937927246094,-0.2579594552516937,13.63952922821045,0.07068079710006714,13.822429656982422,-0.6761682033538818,4.949098110198975,-0.7116425037384033,-0.29820457100868225,-1.5871785879135132,0.05865322798490524,-0.9587740898132324,-0.02054048329591751,-0.8258154988288879,0.0,0.00030383586999960244,-0.0027304450049996376,0.0,5.441837310791016,-0.000606307468842715,-0.0021268934942781925,0.0
30.5254008769989,0.0015782129485160112,0.009063720703125,359.9996643066406,58.92333984375,0.0001660720445215702,0.007954956032335758,359.99993896484375,35.26020431518555,35.8958740234375,32.611183166503906,38.11064529418945,39.917747497558594,43.0179443359375,42.38227462768555,-0.3334098160266876,17.49118423461914,0.13723422586917877,16.656387329101562,-0.6625837683677673,6.043554306030273,-0.6912118792533875,-0.2985308766365051,-1.635498046875,0.04833984375,-1.9497236013412476,-0.008056640625,-0.8580417037010193,-0.0056969053111970425,0.0,0.0015180457849055529,0.0,-0.21637189388275146,0.0,0.001667345524765551,0.0
31.042959213256836,0.0015782129485160112,0.008819580078125,359.9996643066406,58.87816619873047,0.0001660720445215702,0.0077369324862957,359.99993896484375,35.252952575683594,35.913597106933594,32.620849609375,38.105812072753906,39.921775817871094,43.043724060058594,42.33393478393555,-0.1767381876707077,15.69361686706543,0.21166305243968964,15.638459205627441,-0.6587545275688171,5.518049240112305,-0.7098155617713928,-0.29820457100868225,-1.62744140625,0.0490066334605217,-1.796630859375,-0.0127386674284935,-0.845947265625,0.0,0.0,-0.001214436604641378,0.0,-0.0025826306082308292,0.0,-0.0006076777935959399,0.0
31.550262689590454,0.0015782129485160112,0.009063720703125,359.9996643066406,60.79200744628906,0.0001660720445215702,0.007900449447333813,359.99993896484375,35.25456619262695,35.91279220581055,32.618431091308594,38.11628341674805,39.893577575683594,43.01874923706055,42.3653564453125,-0.19653846323490143,17.484649658203125,0.2048884630203247,16.527570724487305,-0.6618515849113464,5.9851908683776855,-0.6969736218452454,-0.2820974886417389,-1.6436336040496826,0.056396484375,-1.72412109375,-0.0120849609375,-0.878173828125,0.008056640625,0.0,0.0009101393516175449,0.00030383889679796994,-0.032378874719142914,0.0,0.0,0.0
32.05482745170593,0.0015782129485160112,0.00897216796875,359.9996337890625,60.76198959350586,0.0001660720445215702,0.007845943793654442,359.99993896484375,35.257789611816406,35.906349182128906,32.60554122924805,38.11870193481445,39.90727615356445,43.046142578125,42.379859924316406,-0.33864301443099976,16.560901641845703,0.06741385906934738,16.15118980407715,-0.6684077382087708,5.73218297958374,-0.7151210308074951,-0.27392578125,-1.6435546875,0.056969054043293,-1.8933275938034058,-0.0166091900318861,-0.8620699644088745,0.0056969053111970425,0.0,0.0,-0.00030383889679796994,-0.016037732362747192,0.0,0.0,0.0
32.56339478492737,0.0015782129485160112,0.008575439453125,359.9996337890625,64.3819580078125,0.0001660720445215702,0.007627920713275671,359.99993896484375,35.248924255371094,35.90876388549805,32.62568283081055,38.133201599121094,39.91291427612305,43.04130935668945,42.41047286987305,-0.3168340027332306,15.980321884155273,0.04587271809577942,14.529340744018555,-0.6582460999488831,5.476624011993408,-0.7173203825950623,-0.298095703125,-1.627461314201355,0.0649547129869461,-0.959044873714447,-0.0120849609375,-0.8419286012649536,0.009007598273456097,0.0,-0.001821654848754406,-0.0003036091511603445,19.313356399536133,0.0,-0.0016685888404026628,0.0
33.06975841522217,0.0015782129485160112,0.00946044921875,359.9996337890625,76.81915283203125,0.0001660720445215702,0.008336496539413929,359.99993896484375,35.25617599487305,35.922462463378906,32.61198806762695,38.15495681762695,39.937889099121094,43.056617736816406,42.37018966674805,-0.25948619842529297,18.43673324584961,0.18629026412963867,17.52707862854004,-0.6762373447418213,6.452704429626465,-0.6959935426712036,-0.2749900221824646,-1.67578125,0.0490066334605217,-1.264918327331543,-0.0201416015625,-0.922494113445282,0.0040283203125,0.0,0.002122076228260994,-0.000303382781567052,25.163074493408203,0.0,0.005920378491282463,0.0
33.577741622924805,0.0015782129485160112,0.009765625,359.9996643066406,86.4329605102539,0.0001660720445215702,0.009590130299329758,359.99993896484375,35.26020431518555,35.924072265625,32.606346130371094,38.14287185668945,39.88874435424805,43.030029296875,42.350852966308594,-0.18191687762737274,20.142091751098633,0.3773266077041626,18.830608367919922,-0.6718361973762512,6.909685134887695,-0.6751185059547424,-0.2820974886417389,-1.7080268859863281,0.0490066334605217,-1.4825093746185303,-0.0166091900318861,-1.0232013463974,0.0,0.0,0.0003031537344213575,0.0,6.685392379760742,0.0,-0.0034257518127560616,0.0
34.0854287147522,0.0015782129485160112,0.009521484375,359.9996643066406,86.84477996826172,0.0001660720445215702,0.009208589792251587,359.99993896484375,35.25214767456055,35.909568786621094,32.606346130371094,38.1275634765625,39.88713455200195,43.04291915893555,42.38872146606445,-0.11396433413028717,19.69155502319336,0.3553275167942047,19.349267959594727,-0.6825193762779236,6.80128812789917,-0.6778883337974548,-0.27392578125,-1.7402530908584595,0.04833984375,-2.296199083328247,-0.0166091900318861,-0.9950032830238342,-0.0056969053111970425,0.0,0.0006067595677450299,0.000303382781567052,-0.011118250899016857,0.0,0.004857746418565512,0.0
34.59370398521423,0.0015782129485160112,0.00921630859375,359.9996337890625,85.38409423828125,0.0001660720445215702,0.00811847299337387,359.99993896484375,35.25537109375,35.92890548706055,32.603126525878906,38.1356201171875,39.9241943359375,43.05419921875,42.38872146606445,-0.2354014664888382,17.621990203857422,0.1960335075855255,19.393234252929688,-0.6931350231170654,6.164816379547119,-0.6742979288101196,-0.29820457100868225,-1.732177734375,0.056396484375,-2.1350250244140625,-0.0127386674284935,-0.9708251953125,0.0040283203125,0.0003031537344213575,-0.00425374461337924,0.0,-5.524734020233154,0.0,-0.013500533998012543,0.0
35.10146689414978,0.0015782129485160112,0.009368896484375,359.9996337890625,85.1690673828125,0.0001660720445215702,0.008881554938852787,359.99993896484375,35.265846252441406,35.940185546875,32.62004470825195,38.142066955566406,39.9241943359375,43.02922439575195,42.362937927246094,-0.2846238613128662,18.88943862915039,0.19198861718177795,19.243837356567383,-0.695364773273468,6.487255573272705,-0.678004264831543,-0.298095703125,-1.7321964502334595,0.072509765625,-1.75634765625,-0.0120849609375,-0.9788901209831238,-0.0056969053111970425,0.0,-0.0003036091511603445,-0.00030383889679796994,0.011202125810086727,0.0,-0.0010618397500365973,0.0
35.60931992530823,0.0015519033186137676,0.0096435546875,359.9996337890625,83.25675201416016,0.0001660720445215702,0.009481118060648441,359.99993896484375,35.25617599487305,35.929710388183594,32.627296447753906,38.15656661987305,39.88713455200195,43.03083419799805,42.3814697265625,-0.468070924282074,20.403690338134766,0.059152763336896896,21.1788272857666,-0.6800671815872192,6.8452348709106445,-0.6998686790466309,-0.2900390625,-1.732177734375,0.0649547129869461,-2.6911110877990723,-0.0166091900318861,-1.03125,0.008056640625,-0.00030383889679796994,0.0009101393516175449,-0.00030315073672682047,-14.252884864807129,0.0,-0.00106343615334481,0.0
36.11496424674988,0.0016045225784182549,0.009124755859375,359.99969482421875,71.63360595703125,0.0001660720445215702,0.008936060592532158,359.99993896484375,35.24650573730469,35.937767028808594,32.615211486816406,38.1678466796875,39.88471603393555,43.06306076049805,42.39274978637695,0.06387545168399811,17.68800926208496,0.5083210468292236,19.736221313476562,-0.6646813750267029,6.451810836791992,-0.7162835597991943,-0.298095703125,-1.724139928817749,0.056969054043293,-2.618717908859253,-0.0120849609375,-0.9547203779220581,0.0127386674284935,0.00045575835974887013,-0.0036378088407218456,0.00045506967580877244,-24.59239387512207,0.0,-0.002734550042077899,0.0
36.62463355064392,0.0015782129485160112,0.008819580078125,359.9996337890625,65.28958892822266,0.0001660720445215702,0.0080639673396945,359.99993896484375,35.25859451293945,35.937767028808594,32.636962890625,38.166236877441406,39.89277267456055,43.051780700683594,42.37018966674805,-0.32083654403686523,16.257766723632812,0.041276298463344574,17.342796325683594,-0.6500129103660583,5.795773029327393,-0.6970263123512268,-0.298095703125,-1.6677440404891968,0.0649547129869461,-1.8369317054748535,-0.02054048329591751,-0.8822389245033264,0.008056640625,0.0,0.0009115167194977403,-0.00030383889679796994,0.032618191093206406,0.0,0.0021252641454339027,0.0
37.13820934295654,0.0015782129485160112,0.009063720703125,359.9996337890625,65.35762023925781,0.0001660720445215702,0.008336496539413929,359.99993896484375,35.253761291503906,35.946632385253906,32.60393142700195,38.1678466796875,39.92338943481445,43.05097579956055,42.383079528808594,-0.35871070623397827,18.042001724243164,0.10552481561899185,17.91778564453125,-0.6538693904876709,6.1233296394348145,-0.7134013772010803,-0.281982421875,-1.675858736038208,0.0649547129869461,-1.4341046810150146,-0.008056640625,-0.9063810706138611,-0.0040283203125,0.0,0.0009115167194977403,-0.00030292203882709146,0.037421923130750656,0.0,0.000607218302320689,0.0
37.64623975753784,0.0015782129485160112,0.0089111328125,359.9996643066406,69.59276580810547,0.0001660720445215702,0.0083910021930933,359.99993896484375,35.263427734375,35.94904708862305,32.63373947143555,38.197654724121094,39.89921951293945,43.0421142578125,42.347633361816406,-0.257661908864975,16.914222717285156,0.20071034133434296,16.066808700561523,-0.680585503578186,5.96048641204834,-0.6940019130706787,-0.2900390625,-1.6677440404891968,0.072509765625,-1.0474872589111328,-0.021693168208003044,-0.8902679085731506,0.009007598273456097,0.0,0.000303382781567052,0.0,21.000179290771484,0.0,0.0031878959853202105,0.0
38.15428900718689,0.0015782129485160112,0.009521484375,359.9996643066406,74.76171112060547,0.0001660720445215702,0.0090450718998909,359.99993896484375,35.271484375,35.937767028808594,32.618431091308594,38.2041015625,39.86699295043945,43.04130935668945,42.361328125,-0.2589637041091919,19.29242706298828,0.21235330402851105,18.836706161499023,-0.6777668595314026,6.57301139831543,-0.6914928555488586,-0.2820974886417389,-1.72412109375,0.0490066334605217,-2.0786290168762207,-0.0166091900318861,-1.0111083984375,0.0040283203125,0.0,0.0006076777935959399,0.0,-0.12730510532855988,0.0,0.0010602271649986506,0.0
38.66131782531738,0.0015782129485160112,0.009307861328125,359.9996643066406,74.7010726928711,0.0001660720445215702,0.008936060592532158,359.99993896484375,35.269874572753906,35.95468521118164,32.62004470825195,38.19282150268555,39.938697814941406,43.044532775878906,42.362937927246094,-0.22519832849502563,18.423728942871094,0.22639961540699005,18.623525619506836,-0.6940658688545227,6.362630844116211,-0.7100363373756409,-0.281982421875,-1.7160834074020386,0.0332183800637722,-1.957763671875,-0.0166091900318861,-0.98291015625,0.0,0.0,-0.0006076777935959399,0.00030383586999960244,0.0,0.0,-0.0010626426665112376,0.0
39.169222831726074,0.0015782129485160112,0.00909423828125,359.9996643066406,71.34980010986328,0.0001660720445215702,0.008609025739133358,359.99993896484375,35.257789611816406,35.95952224731445,32.626487731933594,38.197654724121094,39.926612854003906,43.032447814941406,42.366966247558594,-0.14814577996730804,18.269926071166992,0.2889142334461212,18.65555191040039,-0.6643882393836975,6.121053695678711,-0.6939940452575684,-0.281982421875,-1.699951171875,0.0664367601275444,-2.231747627258301,-0.011393810622394085,-0.9507176876068115,-0.0127386674284935,0.0,0.0036405574064701796,0.0,-2.59987473487854,0.0,0.004402376711368561,0.0
39.67774486541748,0.0015782129485160112,0.00909423828125,359.9996643066406,71.32954406738281,0.0001660720445215702,0.00877254270017147,359.99993896484375,35.241676330566406,35.96274185180664,32.627296447753906,38.205711364746094,39.886329650878906,43.05903244018555,42.32587814331055,-0.25857946276664734,17.688934326171875,0.1742786020040512,18.280094146728516,-0.6721470952033997,6.250300884246826,-0.7121564149856567,-0.2740442156791687,-1.6919137239456177,0.0490066334605217,-1.4099351167678833,-0.021693168208003044,-0.9668304324150085,0.008056640625,0.0,-0.001821654848754406,0.00030315073672682047,0.03157474845647812,0.0,-0.0016673291102051735,0.0
40.18824553489685,0.0015782129485160112,0.00897216796875,359.9996337890625,74.48467254638672,0.0001660720445215702,0.008609025739133358,359.99993896484375,35.26665115356445,35.96113204956055,32.60554122924805,38.21940994262695,39.89680099487305,43.0582275390625,42.3572998046875,-0.2776592969894409,16.53131866455078,0.16783687472343445,16.401227951049805,-0.6688768863677979,6.067373752593994,-0.7066515684127808,-0.2900390625,-1.67578125,0.04833984375,-1.023320198059082,-0.02450331673026085,-0.942626953125,0.008056640625,0.0,-0.0012153555871918797,-0.0003040689625777304,18.0570068359375,0.0,0.0006067595677450299,0.0
40.69635200500488,0.0015782129485160112,0.00970458984375,359.9996337890625,78.39186096191406,0.0001660720445215702,0.009208589792251587,359.99993896484375,35.25375747680664,35.96757888793945,32.62165451049805,38.19926834106445,39.88713455200195,43.02277755737305,42.37421798706055,-0.31918656826019287,19.984664916992188,0.23139937222003937,18.954614639282227,-0.708223283290863,6.59515380859375,-0.6832728385925293,-0.2820974886417389,-1.740234375,0.07295598834753036,-2.1592400074005127,-0.024169921875,-1.0111404657363892,0.0,0.0,0.0030360915698111057,-0.00030383889679796994,-0.5066394805908203,0.0,0.004399050492793322,0.0
41.20489478111267,0.0015782129485160112,0.009429931640625,359.9996643066406,78.34779357910156,0.0001660720445215702,0.008990566246211529,359.99993896484375,35.2593994140625,35.962745666503906,32.619239807128906,38.202491760253906,39.90485763549805,43.072731018066406,42.39033126831055,-0.2842967212200165,18.526884078979492,0.21755187213420868,18.660442352294922,-0.6898468732833862,6.4053239822387695,-0.7021149396896362,-0.281982421875,-1.7402530908584595,0.056396484375,-2.086669921875,-0.0127386674284935,-0.990966796875,0.0,0.0,-0.0015169138787314296,0.0,-0.01653173193335533,0.0,-0.0016698503168299794,0.0
41.712388038635254,0.0015782129485160112,0.009368896484375,359.9996643066406,77.66221618652344,0.0001660720445215702,0.008936060592532158,359.99993896484375,35.25859451293945,35.974021911621094,32.620849609375,38.2161865234375,39.945945739746094,43.05419921875,42.385498046875,-0.2685093581676483,19.057554244995117,0.24114267528057098,18.853965759277344,-0.6860230565071106,6.473324298858643,-0.6898888945579529,-0.281982421875,-1.7321964502334595,0.0490066334605217,-1.7724792957305908,-0.0120849609375,-0.974853515625,0.0040283203125,0.0,-0.001516898861154914,0.00030383889679796994,0.1897859424352646,0.0,-0.002734550042077899,0.0
42.220181465148926,0.0015782129485160112,0.0096435546875,359.9996337890625,77.33287811279297,0.0001660720445215702,0.009154083207249641,359.99993896484375,35.256980895996094,35.98530197143555,32.62407302856445,38.21940994262695,39.91694259643555,43.03083419799805,42.3734130859375,-0.3136407136917114,19.105220794677734,0.214413583278656,19.2182674407959,-0.6783982515335083,6.335770130157471,-0.7037070989608765,-0.29820457100868225,-1.7402530908584595,0.0490066334605217,-2.62646484375,-0.021693168208003044,-1.0191650390625,0.0,0.0,0.0003036091511603445,0.0,-6.229835033416748,0.0,-0.0006076838471926749,0.0
42.72836470603943,0.0015782129485160112,0.009307861328125,359.9996643066406,67.97782897949219,0.0001660720445215702,0.008554520085453987,359.99993896484375,35.257789611816406,35.994972229003906,32.61762619018555,38.24921798706055,39.893577575683594,43.05500411987305,42.371803283691406,-0.23693284392356873,18.701244354248047,0.2632887065410614,19.216176986694336,-0.6882968544960022,6.285049915313721,-0.7212907075881958,-0.2900390625,-1.748291015625,0.0490066334605217,-2.6023075580596924,-0.0127386674284935,-0.9668052792549133,0.008056640625,0.0,-0.00030337978387251496,0.00030315073672682047,-25.072114944458008,0.0,0.002122055273503065,0.0
43.236515283584595,0.0015782129485160112,0.008697509765625,359.9996337890625,61.21872329711914,0.0001660720445215702,0.0080639673396945,359.99993896484375,35.25859451293945,35.986915588378906,32.620849609375,38.24921798706055,39.87665939331055,43.04291915893555,42.37824630737305,-0.33234548568725586,15.942977905273438,0.0707063153386116,16.39607048034668,-0.6406351923942566,5.437945365905762,-0.7039328813552856,-0.2901509404182434,-1.67578125,0.064453125,-2.0705723762512207,-0.0040283203125,-0.8822113871574402,-0.0056969053111970425,-0.00030383889679796994,0.0018202787032350898,-0.00030337978387251496,0.0,0.0006076838471926749,0.002732482273131609,0.0
43.74380970001221,0.0015782129485160112,0.00885009765625,359.9996337890625,61.2829704284668,0.0001660720445215702,0.008227485232055187,359.99993896484375,35.269874572753906,36.0006103515625,32.635353088378906,38.26130294799805,39.894386291503906,43.02519607543945,42.35246658325195,-0.320844829082489,16.681230545043945,0.06915406137704849,16.876203536987305,-0.669080376625061,5.85576057434082,-0.7178749442100525,-0.2820974886417389,-1.651611328125,0.056396484375,-1.2729746103286743,-0.0201416015625,-0.9144375324249268,0.0127386674284935,0.0,-0.0009115167194977403,-0.0003040689625777304,0.016100691631436348,0.0,-0.0006063014734536409,0.0
44.25305914878845,0.0015782129485160112,0.009490966796875,359.9996337890625,58.10513687133789,0.0001660720445215702,0.008881554938852787,359.99993896484375,35.25617599487305,36.010276794433594,32.60795974731445,38.276611328125,39.881492614746094,43.05097579956055,42.38872146606445,-0.35779330134391785,19.079349517822266,0.11440557986497879,19.378252029418945,-0.679006814956665,6.292850971221924,-0.7286083698272705,-0.281982421875,-1.69189453125,0.0664367601275444,-2.538468360900879,-0.014524315483868122,-0.9466637969017029,0.0040283203125,0.0,0.005153562407940626,0.0,-18.16817283630371,0.0,0.0048504117876291275,0.0
44.7634391784668,0.0016045225784182549,0.007171630859375,359.9996643066406,46.84621810913086,0.00011156623077113181,0.006101758219301701,359.99993896484375,35.25859451293945,36.010276794433594,32.63776779174805,38.26533126831055,39.89680099487305,43.0501708984375,42.379859924316406,-0.1738245189189911,12.02550220489502,0.156462162733078,13.53812313079834,-0.6477949619293213,4.269017696380615,-0.7094998955726624,-0.2901509404182434,-1.538818359375,0.0490066334605217,-1.7165371179580688,-0.014524315483868122,-0.7291705012321472,0.0056969053111970425,0.000303612177958712,-0.00819752924144268,0.00030383889679796994,-14.051704406738281,0.0,-0.008659495040774345,0.0
45.27042055130005,0.0015782129485160112,0.0076904296875,359.9996643066406,45.012752532958984,0.00011156623077113181,0.006973851006478071,359.99993896484375,35.26020431518555,36.010276794433594,32.62971115112305,38.26774978637695,39.89519119262695,43.05339431762695,42.3492431640625,-0.32068872451782227,13.023369789123535,0.051698047667741776,13.32882022857666,-0.6406038403511047,4.607728481292725,-0.7287347316741943,-0.281982421875,-1.46630859375,0.04833984375,-0.9991533756256104,-0.009007598273456097,-0.7613525390625,0.0040283203125,0.0,-0.0021236585453152657,0.0,0.06957663595676422,0.0,-0.002736620604991913,0.0
45.77935981750488,0.0016045225784182549,0.0074462890625,359.9996643066406,45.21662521362305,0.00011156623077113181,0.006483298726379871,359.99993896484375,35.265037536621094,36.016719818115234,32.626487731933594,38.262107849121094,39.913719177246094,43.06145095825195,42.383079528808594,-0.20500463247299194,11.881969451904297,0.07220437377691269,12.316560745239258,-0.6259512305259705,4.371242523193359,-0.7279270887374878,-0.29820457100868225,-1.442161202430725,0.056396484375,-0.8140795826911926,-0.009007598273456097,-0.7492784261703491,0.009007598273456097,0.0,-0.0033421944826841354,0.0,4.271223068237305,0.0,-0.004857746418565512,0.0
46.287352323532104,0.0015782129485160112,0.00872802734375,359.9996337890625,52.40807342529297,0.0001660720445215702,0.007791438139975071,359.99993896484375,35.26826095581055,36.02558517456055,32.63212966918945,38.299171447753906,39.87263107299805,43.0421142578125,42.37421798706055,-0.3362089693546295,15.687885284423828,0.07426916807889938,14.463486671447754,-0.6324054002761841,5.442930698394775,-0.716163694858551,-0.298095703125,-1.490478515625,0.056396484375,-1.0958216190338135,-0.0040283203125,-0.8258056640625,0.009007598273456097,0.0,-0.0015157536836341023,0.0,10.941140174865723,0.0,-0.002122055273503065,0.0
46.79743671417236,0.0015782129485160112,0.008331298828125,359.9996643066406,53.50681686401367,0.00011156623077113181,0.007355391979217529,359.99993896484375,35.27228927612305,36.01511001586914,32.623268127441406,38.262107849121094,39.886329650878906,43.0501708984375,42.37421417236328,-0.3140684962272644,14.37775707244873,0.08991821110248566,14.539124488830566,-0.6762434244155884,5.180057525634766,-0.716945230960846,-0.29820457100868225,-1.5146484375,0.056396484375,-1.740234375,-0.0201416015625,-0.8217872381210327,0.0040283203125,0.0,-0.003342227777466178,0.0,-0.019288763403892517,-0.000605850073043257,-0.0027304450049996376,0.0
47.305700063705444,0.0015782129485160112,0.0087890625,359.9996337890625,52.76033401489258,0.0001660720445215702,0.007845943793654442,359.99993896484375,35.26423263549805,36.01350021362305,32.623268127441406,38.2725830078125,39.9241943359375,43.07917404174805,42.387107849121094,-0.29418283700942993,17.325979232788086,0.14826199412345886,17.303552627563477,-0.6672865748405457,5.732166767120361,-0.7328492999076843,-0.2820974886417389,-1.5549525022506714,0.056396484375,-2.1915395259857178,-0.0201416015625,-0.8420056700706482,-0.0056969053111970425,0.0,0.0021252641454339027,0.0,-8.657468795776367,0.0,0.0021236585453152657,0.0
47.81538200378418,0.0015782129485160112,0.00811767578125,359.9996643066406,49.634273529052734,0.00011156623077113181,0.007355391979217529,359.99993896484375,35.26423263549805,36.01188659667969,32.61601638793945,38.26935958862305,39.881492614746094,43.048561096191406,42.37663650512695,-0.31574779748916626,15.188392639160156,0.09991689026355743,15.167450904846191,-0.6469817757606506,5.152414798736572,-0.7301174402236938,-0.298095703125,-1.506591796875,0.0490066334605217,-1.17626953125,-0.0127386674284935,-0.7895610332489014,0.009007598273456097,0.0,0.001821673009544611,0.0,0.21944567561149597,0.0,0.001671113888733089,0.0
48.32144069671631,0.0015782129485160112,0.0081787109375,359.9996643066406,49.665374755859375,0.00011156623077113181,0.007300885859876871,359.99993896484375,35.265037536621094,36.00544357299805,32.622459411621094,38.26774978637695,39.881492614746094,43.079978942871094,42.375022888183594,-0.25208142399787903,14.82838249206543,0.12882022559642792,14.969852447509766,-0.6494652628898621,5.151656150817871,-0.7132325172424316,-0.27392578125,-1.490478515625,0.050954669713974,-1.1924917697906494,-0.011393810622394085,-0.8056640625,0.0040283203125,0.0,0.0006076777935959399,0.0,0.008361896499991417,0.0,0.0006076777935959399,0.0
48.828752756118774,0.0015782129485160112,0.008148193359375,359.9996643066406,55.5980110168457,0.0001660720445215702,0.007518909405916929,359.99993896484375,35.267452239990234,36.01994705200195,32.62407302856445,38.298362731933594,39.87263107299805,43.05903244018555,42.355690002441406,-0.27424320578575134,14.874216079711914,0.10596314072608948,13.329131126403809,-0.6759552359580994,5.241466045379639,-0.7297058701515198,-0.29820457100868225,-1.49853515625,0.056396484375,-0.7251424193382263,-0.0127386674284935,-0.7935791015625,0.0,0.0,0.0021268511191010475,0.0,24.605958938598633,0.0006076717399992049,0.003190308343619108,0.0
49.33635973930359,0.0015782129485160112,0.008941650390625,359.9996337890625,68.30254364013672,0.0001660720445215702,0.008281990885734558,359.99993896484375,35.265846252441406,36.0167236328125,32.638572692871094,38.29997634887695,39.910499572753906,43.055809020996094,42.361328125,-0.3636493682861328,17.7981014251709,0.08185438066720963,16.280494689941406,-0.6593889594078064,6.223232269287109,-0.7216782569885254,-0.29820457100868225,-1.571044921875,0.0490066334605217,-1.1845728158950806,-0.0120849609375,-0.8942962288856506,0.0040283203125,0.0,0.0006017702980898321,-0.0003002102894242853,25.10085105895996,0.0,0.002705938648432493,0.0
49.84354782104492,0.0015782129485160112,0.00897216796875,359.9996643066406,72.42194366455078,0.0001660720445215702,0.007900449447333813,359.99993896484375,35.26826095581055,36.02397537231445,32.618431091308594,38.29997634887695,39.890357971191406,43.100120544433594,42.423362731933594,-0.112677663564682,17.591732025146484,0.3979247808456421,15.467577934265137,-0.6893662810325623,5.853421688079834,-0.665394127368927,-0.2901509404182434,-1.5791220664978027,0.040283203125,-0.98291015625,-0.008056640625,-0.9063720703125,0.0120849609375,0.0003029250365216285,-0.0003029250365216285,0.00030269668786786497,24.54050064086914,0.0,-0.004846800584346056,0.0
50.35189986228943,0.0015782129485160112,0.00897216796875,359.9996643066406,72.42194366455078,0.0001660720445215702,0.007900449447333813,359.99993896484375,35.26826095581055,36.02397537231445,32.618431091308594,38.29997634887695,39.890357971191406,43.100120544433594,42.423362731933594,-0.112677663564682,17.591732025146484,0.3979247808456421,15.467577934265137,-0.6893662810325623,5.853421688079834,-0.665394127368927,-0.2901509404182434,-1.5791220664978027,0.040283203125,-0.98291015625,-0.008056640625,-0.9063720703125,0.0120849609375,0.0003029250365216285,-0.0003029250365216285,0.00030269668786786497,24.54050064086914,0.0,-0.004846800584346056,0.0
50.86056447029114,0.0015782129485160112,0.00897216796875,359.9996643066406,72.42194366455078,0.0001660720445215702,0.007900449447333813,359.99993896484375,35.26826095581055,36.02397537231445,32.618431091308594,38.29997634887695,39.890357971191406,43.100120544433594,42.423362731933594,-0.112677663564682,17.591732025146484,0.3979247808456421,15.467577934265137,-0.6893662810325623,5.853421688079834,-0.665394127368927,-0.2901509404182434,-1.5791220664978027,0.040283203125,-0.98291015625,-0.008056640625,-0.9063720703125,0.0120849609375,0.0003029250365216285,-0.0003029250365216285,0.00030269668786786497,24.54050064086914,0.0,-0.004846800584346056,0.0
51.370872020721436,0.0015782129485160112,0.00897216796875,359.9996643066406,72.42194366455078,0.0001660720445215702,0.007900449447333813,359.99993896484375,35.26826095581055,36.02397537231445,32.618431091308594,38.29997634887695,39.890357971191406,43.100120544433594,42.423362731933594,-0.112677663564682,17.591732025146484,0.3979247808456421,15.467577934265137,-0.6893662810325623,5.853421688079834,-0.665394127368927,-0.2901509404182434,-1.5791220664978027,0.040283203125,-0.98291015625,-0.008056640625,-0.9063720703125,0.0120849609375,0.0003029250365216285,-0.0003029250365216285,0.00030269668786786497,24.54050064086914,0.0,-0.004846800584346056,0.0
51.880817890167236,0.0015782129485160112,0.00897216796875,359.9996643066406,72.42194366455078,0.0001660720445215702,0.007900449447333813,359.99993896484375,35.26826095581055,36.02397537231445,32.618431091308594,38.29997634887695,39.890357971191406,43.100120544433594,42.423362731933594,-0.112677663564682,17.591732025146484,0.3979247808456421,15.467577934265137,-0.6893662810325623,5.853421688079834,-0.665394127368927,-0.2901509404182434,-1.5791220664978027,0.040283203125,-0.98291015625,-0.008056640625,-0.9063720703125,0.0120849609375,0.0003029250365216285,-0.0003029250365216285,0.00030269668786786497,24.54050064086914,0.0,-0.004846800584346056,0.0
52.390949964523315,0.0015782129485160112,0.00897216796875,359.9996643066406,72.42194366455078,0.0001660720445215702,0.007900449447333813,359.99993896484375,35.26826095581055,36.02397537231445,32.618431091308594,38.29997634887695,39.890357971191406,43.100120544433594,42.423362731933594,-0.112677663564682,17.591732025146484,0.3979247808456421,15.467577934265137,-0.6893662810325623,5.853421688079834,-0.665394127368927,-0.2901509404182434,-1.5791220664978027,0.040283203125,-0.98291015625,-0.008056640625,-0.9063720703125,0.0120849609375,0.0003029250365216285,-0.0003029250365216285,0.00030269668786786497,24.54050064086914,0.0,-0.004846800584346056,0.0
52.89949655532837,0.0015782129485160112,0.00897216796875,359.9996643066406,72.42194366455078,0.0001660720445215702,0.007900449447333813,359.99993896484375,35.26826095581055,36.02397537231445,32.618431091308594,38.29997634887695,39.890357971191406,43.100120544433594,42.423362731933594,-0.112677663564682,17.591732025146484,0.3979247808456421,15.467577934265137,-0.6893662810325623,5.853421688079834,-0.665394127368927,-0.2901509404182434,-1.5791220664978027,0.040283203125,-0.98291015625,-0.008056640625,-0.9063720703125,0.0120849609375,0.0003029250365216285,-0.0003029250365216285,0.00030269668786786497,24.54050064086914,0.0,-0.004846800584346056,0.0
53.406832456588745,0.0015782129485160112,0.00897216796875,359.9996643066406,72.42194366455078,0.0001660720445215702,0.007900449447333813,359.99993896484375,35.26826095581055,36.02397537231445,32.618431091308594,38.29997634887695,39.890357971191406,43.100120544433594,42.423362731933594,-0.112677663564682,17.591732025146484,0.3979247808456421,15.467577934265137,-0.6893662810325623,5.853421688079834,-0.665394127368927,-0.2901509404182434,-1.5791220664978027,0.040283203125,-0.98291015625,-0.008056640625,-0.9063720703125,0.0120849609375,0.0003029250365216285,-0.0003029250365216285,0.00030269668786786497,24.54050064086914,0.0,-0.004846800584346056,0.0
53.9163544178009,0.0015782129485160112,0.00897216796875,359.9996643066406,72.42194366455078,0.0001660720445215702,0.007900449447333813,359.99993896484375,35.26826095581055,36.02397537231445,32.618431091308594,38.29997634887695,39.890357971191406,43.100120544433594,42.423362731933594,-0.112677663564682,17.591732025146484,0.3979247808456421,15.467577934265137,-0.6893662810325623,5.853421688079834,-0.665394127368927,-0.2901509404182434,-1.5791220664978027,0.040283203125,-0.98291015625,-0.008056640625,-0.9063720703125,0.0120849609375,0.0003029250365216285,-0.0003029250365216285,0.00030269668786786497,24.54050064086914,0.0,-0.004846800584346056,0.0
54.42433142662048,0.0015782129485160112,0.00897216796875,359.9996643066406,72.42194366455078,0.0001660720445215702,0.007900449447333813,359.99993896484375,35.26826095581055,36.02397537231445,32.618431091308594,38.29997634887695,39.890357971191406,43.100120544433594,42.423362731933594,-0.112677663564682,17.591732025146484,0.3979247808456421,15.467577934265137,-0.6893662810325623,5.853421688079834,-0.665394127368927,-0.2901509404182434,-1.5791220664978027,0.040283203125,-0.98291015625,-0.008056640625,-0.9063720703125,0.0120849609375,0.0003029250365216285,-0.0003029250365216285,0.00030269668786786497,24.54050064086914,0.0,-0.004846800584346056,0.0
54.93342065811157,0.0015782129485160112,0.00897216796875,359.9996643066406,72.42194366455078,0.0001660720445215702,0.007900449447333813,359.99993896484375,35.26826095581055,36.02397537231445,32.618431091308594,38.29997634887695,39.890357971191406,43.100120544433594,42.423362731933594,-0.112677663564682,17.591732025146484,0.3979247808456421,15.467577934265137,-0.6893662810325623,5.853421688079834,-0.665394127368927,-0.2901509404182434,-1.5791220664978027,0.040283203125,-0.98291015625,-0.008056640625,-0.9063720703125,0.0120849609375,0.0003029250365216285,-0.0003029250365216285,0.00030269668786786497,24.54050064086914,0.0,-0.004846800584346056,0.0
55.44258952140808,0.0015782129485160112,0.00897216796875,359.9996643066406,72.42194366455078,0.0001660720445215702,0.007900449447333813,359.99993896484375,35.26826095581055,36.02397537231445,32.618431091308594,38.29997634887695,39.890357971191406,43.100120544433594,42.423362731933594,-0.112677663564682,17.591732025146484,0.3979247808456421,15.467577934265137,-0.6893662810325623,5.853421688079834,-0.665394127368927,-0.2901509404182434,-1.5791220664978027,0.040283203125,-0.98291015625,-0.008056640625,-0.9063720703125,0.0120849609375,0.0003029250365216285,-0.0003029250365216285,0.00030269668786786497,24.54050064086914,0.0,-0.004846800584346056,0.0
55.95104122161865,0.0015782129485160112,0.009185791015625,359.9996643066406,82.68498992919922,0.0001660720445215702,0.008663531392812729,359.99993896484375,35.271484375,36.06828689575195,32.63373947143555,38.331398010253906,39.871826171875,43.047752380371094,42.38630294799805,-0.2640823721885681,18.980396270751953,0.19658856093883514,18.594467163085938,-0.6676207184791565,6.486774921417236,-0.6841296553611755,-0.29048630595207214,-1.6838572025299072,0.050954669713974,-2.231747627258301,-0.018015196546912193,-0.9506921172142029,0.0056969053111970425,0.0,0.0,0.00030315073672682047,0.0,0.0,0.0,0.0
56.463178873062134,0.0015782129485160112,0.009185791015625,359.9996643066406,82.68498992919922,0.0001660720445215702,0.008663531392812729,359.99993896484375,35.27228927612305,36.058616638183594,32.62004470825195,38.314476013183594,39.93708419799805,43.047752380371094,42.369384765625,-0.26149097084999084,18.960716247558594,0.19383816421031952,18.561508178710938,-0.6804780960083008,6.486164093017578,-0.6729558110237122,-0.2820974886417389,-1.6919137239456177,0.0490066334605217,-2.223690986633301,-0.02054048329591751,-0.95068359375,0.0056969053111970425,0.0,0.0,0.0003031537344213575,0.0,0.0,0.0,0.0
56.97458243370056,0.0015782129485160112,0.009185791015625,359.9996643066406,82.68498992919922,0.0001660720445215702,0.008663531392812729,359.99993896484375,35.273902893066406,36.06425857543945,32.61279296875,38.33784103393555,39.92097091674805,43.07917404174805,42.3935546875,-0.25473088026046753,18.846485137939453,0.21430103480815887,18.53013038635254,-0.6801486611366272,6.465457439422607,-0.6922865509986877,-0.2820974886417389,-1.6919713020324707,0.056969054043293,-2.223647356033325,-0.0166091900318861,-0.9547119140625,-0.0056969053111970425,0.0,0.0,0.00030383889679796994,0.0,0.0,0.0,0.0
57.48584198951721,0.0015782129485160112,0.009185791015625,359.9996643066406,82.68498992919922,0.0001660720445215702,0.008663531392812729,359.99993896484375,35.26826095581055,36.063453674316406,32.634544372558594,38.34589767456055,39.894386291503906,43.08642578125,42.36455154418945,-0.25376421213150024,18.78853416442871,0.20326825976371765,18.489656448364258,-0.6773573756217957,6.45826530456543,-0.691170334815979,-0.27392578125,-1.6838572025299072,0.056396484375,-2.2155909538269043,-0.02054048329591751,-0.9506921172142029,0.009007598273456097,0.0,0.0,0.0,0.0,0.0,0.0,0.0
57.99653482437134,0.0015782129485160112,0.009185791015625,359.9996643066406,82.68498992919922,0.0001660720445215702,0.008663531392812729,359.99993896484375,35.277931213378906,36.071510314941406,32.619239807128906,38.34992599487305,39.9322509765625,43.04130935668945,42.3814697265625,-0.2621481716632843,18.816753387451172,0.18480388820171356,18.50753402709961,-0.6765244603157043,6.480092525482178,-0.6909202933311462,-0.2900390625,-1.6758006811141968,0.0649547129869461,-2.20751953125,-0.0120849609375,-0.9547119140625,0.008056640625,0.0,0.0,0.00030315073672682047,0.0,0.0,0.0,0.0
58.504457235336304,0.0015782129485160112,0.009185791015625,359.9996337890625,82.68498992919922,0.0001660720445215702,0.008663531392812729,359.99993896484375,35.269874572753906,36.07633972167969,32.60151290893555,38.3692626953125,39.9080810546875,43.0662841796875,42.343605041503906,-0.2721187174320221,18.850500106811523,0.20377376675605774,18.520978927612305,-0.6869074702262878,6.462991237640381,-0.7025656700134277,-0.2659911811351776,-1.6838572025299072,0.056396484375,-2.223647356033325,-0.0166091900318861,-0.9547203779220581,0.0040283203125,0.0,0.0,-0.000303382781567052,0.0,0.0,0.0,0.0
59.01328992843628,0.0015782129485160112,0.009185791015625,359.9996337890625,82.68498992919922,0.0001660720445215702,0.008663531392812729,359.99993896484375,35.271484375,36.07392501831055,32.62165451049805,38.362815856933594,39.92338943481445,43.06950759887695,42.37824630737305,-0.2687918543815613,18.905685424804688,0.18893039226531982,18.541263580322266,-0.7174324989318848,6.488216400146484,-0.6970589756965637,-0.2820974886417389,-1.6838572025299072,0.064453125,-2.1994776725769043,-0.0166091900318861,-0.9466637969017029,0.009007598273456097,0.0,0.0,-0.00030383889679796994,0.0,0.0,0.0,0.0
59.521363496780396,0.0015782129485160112,0.009185791015625,359.9996337890625,82.68498992919922,0.0001660720445215702,0.008663531392812729,359.99993896484375,35.27228927612305,36.079566955566406,32.64421463012695,38.39826583862305,39.887939453125,43.088844299316406,42.371803283691406,-0.2618526816368103,18.87238121032715,0.19074976444244385,18.601423263549805,-0.6856619119644165,6.485307216644287,-0.6800991892814636,-0.2900390625,-1.6919713020324707,0.064453125,-2.20751953125,-0.0127386674284935,-0.9547203779220581,0.009007598273456097,0.0,0.0,-0.0003031537344213575,0.0,0.0,0.0,0.0
60.029560565948486,0.0015782129485160112,0.009185791015625,359.9996643066406,82.68498992919922,0.0001660720445215702,0.008663531392812729,359.99993896484375,35.27067947387695,36.09326171875,32.62890625,38.411964416503906,39.902442932128906,43.072731018066406,42.391944885253906,-0.2722926437854767,18.858840942382812,0.19888506829738617,18.547821044921875,-0.6902371048927307,6.488706111907959,-0.6758762001991272,-0.2740442156791687,-1.683837890625,0.064453125,-2.20751953125,-0.0120849609375,-0.9547119140625,-0.009007598273456097,0.0,0.0,0.0,0.0,0.0,0.0,0.0
60.53783297538757,0.0015782129485160112,0.009185791015625,359.9996337890625,82.68498992919922,0.0001660720445215702,0.008663531392812729,359.99993896484375,35.277122497558594,36.09326171875,32.620849609375,38.47319030761719,39.93708419799805,43.059837341308594,42.371803283691406,-0.27612197399139404,18.829103469848633,0.20215004682540894,18.51658058166504,-0.6830467581748962,6.468419551849365,-0.6752004027366638,-0.29820457100868225,-1.6999702453613281,0.0649547129869461,-2.215576171875,-0.01709071546792984,-0.9587486982345581,0.011393810622394085,0.0,0.0,-0.00030383586999960244,0.0,0.0,0.0,0.0
61.04722309112549,0.0015782129485160112,0.009185791015625,359.9996643066406,82.68498992919922,0.0001660720445215702,0.008663531392812729,359.99993896484375,35.26826095581055,36.09406661987305,32.623268127441406,38.471580505371094,39.90727615356445,43.08723068237305,42.38872146606445,-0.2913690209388733,18.847597122192383,0.20636416971683502,18.51407241821289,-0.6823244094848633,6.472972869873047,-0.6807180643081665,-0.281982421875,-1.7000274658203125,0.064453125,-2.215576171875,-0.021693168208003044,-0.95068359375,0.0,0.0,0.0,0.000303606124361977,0.0,0.0,0.0,0.0
61.55531144142151,0.0015782129485160112,0.009185791015625,359.9996643066406,82.68498992919922,0.0001660720445215702,0.008663531392812729,359.99993896484375,35.26020431518555,36.098899841308594,32.630516052246094,38.48688888549805,39.914527893066406,43.09367752075195,42.346824645996094,-0.24859105050563812,18.874746322631836,0.19987523555755615,18.55047035217285,-0.6781340837478638,6.471072673797607,-0.6746162176132202,-0.27392578125,-1.67578125,0.056396484375,-2.2155909538269043,-0.0127386674284935,-0.9587486982345581,0.0056969053111970425,0.0,0.0,0.00030383889679796994,0.0,0.0,0.0,0.0
62.06450319290161,0.0015782129485160112,0.009185791015625,359.9996643066406,82.68498992919922,0.0001660720445215702,0.008663531392812729,359.99993896484375,35.26020431518555,36.098899841308594,32.630516052246094,38.48688888549805,39.914527893066406,43.09367752075195,42.346824645996094,-0.24859105050563812,18.874746322631836,0.19987523555755615,18.55047035217285,-0.6781340837478638,6.471072673797607,-0.6746162176132202,-0.27392578125,-1.67578125,0.056396484375,-2.2155909538269043,-0.0127386674284935,-0.9587486982345581,0.0056969053111970425,0.0,0.0,0.00030383889679796994,0.0,0.0,0.0,0.0
62.573752880096436,0.0015782129485160112,0.009185791015625,359.9996643066406,82.68498992919922,0.0001660720445215702,0.008663531392812729,359.99993896484375,35.26020431518555,36.098899841308594,32.630516052246094,38.48688888549805,39.914527893066406,43.09367752075195,42.346824645996094,-0.24859105050563812,18.874746322631836,0.19987523555755615,18.55047035217285,-0.6781340837478638,6.471072673797607,-0.6746162176132202,-0.27392578125,-1.67578125,0.056396484375,-2.2155909538269043,-0.0127386674284935,-0.9587486982345581,0.0056969053111970425,0.0,0.0,0.00030383889679796994,0.0,0.0,0.0,0.0
63.08249282836914,0.0015782129485160112,0.009185791015625,359.9996643066406,82.68498992919922,0.0001660720445215702,0.008663531392812729,359.99993896484375,35.26020431518555,36.098899841308594,32.630516052246094,38.48688888549805,39.914527893066406,43.09367752075195,42.346824645996094,-0.24859105050563812,18.874746322631836,0.19987523555755615,18.55047035217285,-0.6781340837478638,6.471072673797607,-0.6746162176132202,-0.27392578125,-1.67578125,0.056396484375,-2.2155909538269043,-0.0127386674284935,-0.9587486982345581,0.0056969053111970425,0.0,0.0,0.00030383889679796994,0.0,0.0,0.0,0.0
63.59219169616699,0.0015782129485160112,0.009185791015625,359.9996643066406,82.68498992919922,0.0001660720445215702,0.008663531392812729,359.99993896484375,35.26020431518555,36.098899841308594,32.630516052246094,38.48688888549805,39.914527893066406,43.09367752075195,42.346824645996094,-0.24859105050563812,18.874746322631836,0.19987523555755615,18.55047035217285,-0.6781340837478638,6.471072673797607,-0.6746162176132202,-0.27392578125,-1.67578125,0.056396484375,-2.2155909538269043,-0.0127386674284935,-0.9587486982345581,0.0056969053111970425,0.0,0.0,0.00030383889679796994,0.0,0.0,0.0,0.0
64.10244083404541,0.0015782129485160112,0.009185791015625,359.9996643066406,82.68498992919922,0.0001660720445215702,0.008663531392812729,359.99993896484375,35.26020431518555,36.098899841308594,32.630516052246094,38.48688888549805,39.914527893066406,43.09367752075195,42.346824645996094,-0.24859105050563812,18.874746322631836,0.19987523555755615,18.55047035217285,-0.6781340837478638,6.471072673797607,-0.6746162176132202,-0.27392578125,-1.67578125,0.056396484375,-2.2155909538269043,-0.0127386674284935,-0.9587486982345581,0.0056969053111970425,0.0,0.0,0.00030383889679796994,0.0,0.0,0.0,0.0
64.60952472686768,0.0015782129485160112,0.009185791015625,359.9996643066406,82.68498992919922,0.0001660720445215702,0.008663531392812729,359.99993896484375,35.26020431518555,36.098899841308594,32.630516052246094,38.48688888549805,39.914527893066406,43.09367752075195,42.346824645996094,-0.24859105050563812,18.874746322631836,0.19987523555755615,18.55047035217285,-0.6781340837478638,6.471072673797607,-0.6746162176132202,-0.27392578125,-1.67578125,0.056396484375,-2.2155909538269043,-0.0127386674284935,-0.9587486982345581,0.0056969053111970425,0.0,0.0,0.00030383889679796994,0.0,0.0,0.0,0.0
65.11735963821411,0.0015782129485160112,0.009185791015625,359.9996643066406,82.68498992919922,0.0001660720445215702,0.008663531392812729,359.99993896484375,35.26020431518555,36.098899841308594,32.630516052246094,38.48688888549805,39.914527893066406,43.09367752075195,42.346824645996094,-0.24859105050563812,18.874746322631836,0.19987523555755615,18.55047035217285,-0.6781340837478638,6.471072673797607,-0.6746162176132202,-0.27392578125,-1.67578125,0.056396484375,-2.2155909538269043,-0.0127386674284935,-0.9587486982345581,0.0056969053111970425,0.0,0.0,0.00030383889679796994,0.0,0.0,0.0,0.0
65.62570595741272,0.0015782129485160112,0.009185791015625,359.9996643066406,82.68498992919922,0.0001660720445215702,0.008663531392812729,359.99993896484375,35.26020431518555,36.098899841308594,32.630516052246094,38.48688888549805,39.914527893066406,43.09367752075195,42.346824645996094,-0.24859105050563812,18.874746322631836,0.19987523555755615,18.55047035217285,-0.6781340837478638,6.471072673797607,-0.6746162176132202,-0.27392578125,-1.67578125,0.056396484375,-2.2155909538269043,-0.0127386674284935,-0.9587486982345581,0.0056969053111970425,0.0,0.0,0.00030383889679796994,0.0,0.0,0.0,0.0
66.13345742225647,0.0015782129485160112,0.009185791015625,359.9996643066406,82.68498992919922,0.0001660720445215702,0.008663531392812729,359.99993896484375,35.26020431518555,36.098899841308594,32.630516052246094,38.48688888549805,39.914527893066406,43.09367752075195,42.346824645996094,-0.24859105050563812,18.874746322631836,0.19987523555755615,18.55047035217285,-0.6781340837478638,6.471072673797607,-0.6746162176132202,-0.27392578125,-1.67578125,0.056396484375,-2.2155909538269043,-0.0127386674284935,-0.9587486982345581,0.0056969053111970425,0.0,0.0,0.00030383889679796994,0.0,0.0,0.0,0.0
66.64136695861816,0.0015782129485160112,0.009185791015625,359.9996643066406,82.68498992919922,0.0001660720445215702,0.008663531392812729,359.99993896484375,35.26020431518555,36.098899841308594,32.630516052246094,38.48688888549805,39.914527893066406,43.09367752075195,42.346824645996094,-0.24859105050563812,18.874746322631836,0.19987523555755615,18.55047035217285,-0.6781340837478638,6.471072673797607,-0.6746162176132202,-0.27392578125,-1.67578125,0.056396484375,-2.2155909538269043,-0.0127386674284935,-0.9587486982345581,0.0056969053111970425,0.0,0.0,0.00030383889679796994,0.0,0.0,0.0,0.0
67.15126132965088,0.0015782129485160112,0.009185791015625,359.9996643066406,82.68498992919922,0.0001660720445215702,0.008663531392812729,359.99993896484375,35.26020431518555,36.098899841308594,32.630516052246094,38.48688888549805,39.914527893066406,43.09367752075195,42.346824645996094,-0.24859105050563812,18.874746322631836,0.19987523555755615,18.55047035217285,-0.6781340837478638,6.471072673797607,-0.6746162176132202,-0.27392578125,-1.67578125,0.056396484375,-2.2155909538269043,-0.0127386674284935,-0.9587486982345581,0.0056969053111970425,0.0,0.0,0.00030383889679796994,0.0,0.0,0.0,0.0
67.66032314300537,0.0015782129485160112,0.009185791015625,359.9996643066406,82.68498992919922,0.0001660720445215702,0.008663531392812729,359.99993896484375,35.26020431518555,36.098899841308594,32.630516052246094,38.48688888549805,39.914527893066406,43.09367752075195,42.346824645996094,-0.24859105050563812,18.874746322631836,0.19987523555755615,18.55047035217285,-0.6781340837478638,6.471072673797607,-0.6746162176132202,-0.27392578125,-1.67578125,0.056396484375,-2.2155909538269043,-0.0127386674284935,-0.9587486982345581,0.0056969053111970425,0.0,0.0,0.00030383889679796994,0.0,0.0,0.0,0.0
68.1712863445282,0.0015782129485160112,0.009185791015625,359.9996337890625,82.68498992919922,0.0001660720445215702,0.008663531392812729,359.99993896484375,35.281959533691406,36.14079666137695,32.631324768066406,38.697166442871094,39.897605895996094,43.09931564331055,42.34521484375,-0.27461379766464233,18.864368438720703,0.19112233817577362,18.558147430419922,-0.6902005076408386,6.477477550506592,-0.6903472542762756,-0.2820974886417389,-1.6838572025299072,0.056969054043293,-2.20751953125,-0.0166091900318861,-0.954745888710022,0.0056969053111970425,0.0,0.0,-0.00030315073672682047,0.0,0.0,0.0,0.0
68.68054795265198,0.0015782129485160112,0.009185791015625,359.9996337890625,82.68498992919922,0.0001660720445215702,0.008663531392812729,359.99993896484375,35.28679275512695,36.14643478393555,32.64018630981445,38.706031799316406,39.897605895996094,43.05339431762695,42.36616134643555,-0.283662348985672,18.85150909423828,0.22282400727272034,18.54909896850586,-0.6944358944892883,6.472542762756348,-0.6935281753540039,-0.281982421875,-1.6919137239456177,0.056396484375,-2.199462890625,-0.011393810622394085,-0.9507176876068115,-0.0056969053111970425,0.0,0.0,-0.00030337978387251496,0.0,0.0,0.0,0.0
69.19619297981262,0.0015782129485160112,0.00927734375,359.9996337890625,84.71420288085938,0.0001660720445215702,0.009154083207249641,359.99993896484375,35.277122497558594,36.139991760253906,32.643409729003906,38.741477966308594,39.890357971191406,43.104957580566406,42.355690002441406,-0.296980619430542,20.09893798828125,0.20273663103580475,18.815622329711914,-0.6727590560913086,6.875180244445801,-0.6770079135894775,-0.2820974886417389,-1.699951171875,0.0649547129869461,-1.458274245262146,-0.014524315483868122,-0.9547203779220581,0.0040283203125,0.0,0.0012126029469072819,0.0,6.700867652893066,0.0,0.005464964546263218,0.0
69.70434951782227,0.0015782129485160112,0.00921630859375,359.9996643066406,85.07014465332031,0.0001660720445215702,0.008663531392812729,359.99993896484375,35.26423263549805,36.147239685058594,32.636962890625,38.714088439941406,39.87504959106445,43.08320236206055,42.34843826293945,-0.29426735639572144,18.456518173217773,0.1660439670085907,18.380874633789062,-0.6837599277496338,6.376392364501953,-0.6941799521446228,-0.281982421875,-1.6999702453613281,0.04108096659183502,-2.0383460521698,-0.0127386674284935,-0.9587740898132324,0.0040283203125,0.0,-0.000607218302320689,0.0,-0.12144789099693298,0.0,-0.000606307468842715,0.0
70.2129967212677,0.0015782129485160112,0.009307861328125,359.9996337890625,83.73722076416016,0.0001660720445215702,0.008990566246211529,359.99993896484375,35.277931213378906,36.135963439941406,32.63615798950195,38.722145080566406,39.87907791137695,43.128318786621094,42.370994567871094,-0.2553144693374634,19.397958755493164,0.22106948494911194,21.241064071655273,-0.6832281351089478,6.82375431060791,-0.6910173892974854,-0.29048630595207214,-1.7080078125,0.056396484375,-2.5942883491516113,-0.0166091900318861,-0.9788901209831238,0.0040283203125,0.0,-0.000910827424377203,-0.00030337978387251496,-11.792289733886719,0.0,-0.002122055273503065,0.0
70.72233510017395,0.0015519033186137676,0.009002685546875,359.9996337890625,72.50542449951172,0.0001660720445215702,0.0087180370464921,359.99993896484375,35.2755126953125,36.15771484375,32.62165451049805,38.69878005981445,39.898414611816406,43.100120544433594,42.358909606933594,-0.5518758893013,17.549226760864258,-0.133330300450325,18.606264114379883,-0.6503916382789612,5.845703125,-0.6956226229667664,-0.2740442156791687,-1.6999702453613281,0.0649547129869461,-2.3688716888427734,-0.018015196546912193,-0.958740234375,0.0,-0.00030337978387251496,-0.000606307468842715,-0.0003036091511603445,-24.735624313354492,0.0,-0.02704029157757759,0.0
71.23131966590881,0.0016045225784182549,0.008514404296875,359.99969482421875,66.35891723632812,0.00011156623077113181,0.0080639673396945,359.99993896484375,35.277122497558594,36.152076721191406,32.63776779174805,38.7156982421875,39.909690856933594,43.0985107421875,42.358909606933594,-0.03126419335603714,16.067480087280273,0.41194015741348267,16.640737533569336,-0.6724755764007568,5.703094005584717,-0.7134325504302979,-0.2901509404182434,-1.6435744762420654,0.0490066334605217,-1.5710655450820923,-0.014524315483868122,-0.8902679085731506,-0.009007598273456097,0.00030315073672682047,-0.0018202787032350898,0.0004554137121886015,0.055031076073646545,0.0,0.0027283565141260624,0.0
71.7424144744873,0.0015782129485160112,0.009033203125,359.9996337890625,66.43466186523438,0.0001660720445215702,0.008554520085453987,359.99993896484375,35.281150817871094,36.160133361816406,32.63212966918945,38.697975158691406,39.88068771362305,43.10979080200195,42.34843826293945,-0.3426845967769623,18.34159278869629,0.1339288353919983,17.861045837402344,-0.6733740568161011,6.208250522613525,-0.707006573677063,-0.29048630595207214,-1.6435546875,0.056969054043293,-1.5549525022506714,-0.02054048329591751,-0.9305768609046936,0.0040283203125,0.0,0.0030383889097720385,-0.0003031537344213575,0.010057203471660614,0.0,0.0031854878179728985,0.0
72.25070786476135,0.0015782129485160112,0.008697509765625,359.9996337890625,70.01756286621094,0.0001660720445215702,0.008172978647053242,359.99993896484375,35.263427734375,36.16254806518555,32.63212966918945,38.726173400878906,39.898414611816406,43.1146240234375,42.366966247558594,-0.2784377932548523,17.23418426513672,0.17371496558189392,15.577070236206055,-0.677026093006134,5.812632083892822,-0.6823373436927795,-0.2820974886417389,-1.6194047927856445,0.056969054043293,-1.0243346691131592,-0.01611328125,-0.8902952671051025,0.0,0.0,-0.00030315073672682047,0.0,19.437158584594727,0.0,-0.000607218302320689,0.0
72.76046633720398,0.0015782129485160112,0.009521484375,359.9996337890625,80.13911437988281,0.0001660720445215702,0.00811847299337387,359.99993896484375,35.277931213378906,36.165771484375,32.62407302856445,38.689109802246094,39.9080810546875,43.078369140625,42.371803283691406,-0.4182366132736206,18.46266746520996,0.006744116544723511,16.569568634033203,-0.6777340769767761,5.8694305419921875,-0.6965467929840088,-0.281982421875,-1.6999702453613281,0.056396484375,-1.1038774251937866,-0.014524315483868122,-0.9909749627113342,0.008056640625,0.0,-0.003943937364965677,-0.000303382781567052,8.80552864074707,0.0,-0.011393958702683449,0.0
73.27041459083557,0.0015782129485160112,0.00946044921875,359.9996337890625,80.91569519042969,0.0001660720445215702,0.008827048353850842,359.99993896484375,35.281959533691406,36.16899490356445,32.62971115112305,38.689109802246094,39.829933166503906,43.094482421875,42.363746643066406,-0.27661648392677307,18.7545166015625,0.18043871223926544,18.603416442871094,-0.688412070274353,6.521912097930908,-0.697415292263031,-0.2743992805480957,-1.7161400318145752,0.04833984375,-2.320326566696167,-0.014524315483868122,-0.9748618006706238,0.009007598273456097,0.0,0.0,-0.00030383586999960244,-0.10666219890117645,0.0,0.0,0.0
73.78087711334229,0.0015782129485160112,0.00946044921875,359.9996337890625,80.903564453125,0.0001660720445215702,0.008827048353850842,359.99993896484375,35.2835693359375,36.164161682128906,32.62407302856445,38.681861877441406,39.87102127075195,43.09528732299805,42.391944885253906,-0.28202980756759644,18.76175880432129,0.21900224685668945,18.438011169433594,-0.680885910987854,6.444985866546631,-0.6805603504180908,-0.2900390625,-1.7321964502334595,0.064453125,-2.2236328125,-0.008056640625,-0.9668052792549133,0.0056969053111970425,0.0,0.0,0.0,-0.002428873209282756,0.0,0.0,0.0
74.28939700126648,0.0015782129485160112,0.00946044921875,359.9996643066406,80.9031982421875,0.0001660720445215702,0.008827048353850842,359.99993896484375,35.27470779418945,36.1697998046875,32.64018630981445,38.625465393066406,39.88068771362305,43.0823974609375,42.32990646362305,-0.2692020833492279,18.72848892211914,0.2570730149745941,18.472423553466797,-0.6871145367622375,6.445610523223877,-0.6963650584220886,-0.2990739643573761,-1.740234375,0.04833984375,-2.2155909538269043,-0.0166091900318861,-0.974853515625,0.0040283203125,0.0,0.0,0.0003040719893760979,0.0,0.0,0.0,0.0
74.79753184318542,0.0015782129485160112,0.00946044921875,359.9996337890625,80.90312194824219,0.0001660720445215702,0.008827048353850842,359.99993896484375,35.27228927612305,36.18671798706055,32.64582443237305,38.664939880371094,39.91291427612305,43.108177185058594,42.359718322753906,-0.29312482476234436,18.762592315673828,0.2157922387123108,18.4654483795166,-0.6751204133033752,6.434447288513184,-0.7161681056022644,-0.298095703125,-1.7241963148117065,0.064453125,-2.2155909538269043,-0.0127386674284935,-0.9668052792549133,0.008056640625,0.0,0.0,0.0,-0.00030337978387251496,0.0,0.0,0.0
75.30553269386292,0.0015782129485160112,0.00946044921875,359.9996643066406,80.90309143066406,0.0001660720445215702,0.008827048353850842,359.99993896484375,35.28034591674805,36.1939697265625,32.6248779296875,38.640769958496094,39.87263107299805,43.13396072387695,42.379051208496094,-0.26806268095970154,18.819551467895508,0.2031291127204895,18.476154327392578,-0.6863869428634644,6.4537034034729,-0.6959106922149658,-0.2743992805480957,-1.732177734375,0.064453125,-2.2155909538269043,-0.008056640625,-0.9668052792549133,0.009007598273456097,0.0,0.0,0.0003031537344213575,0.0,0.0,0.0,0.0
75.81677031517029,0.0015782129485160112,0.00946044921875,359.9996643066406,80.90309143066406,0.0001660720445215702,0.008827048353850842,359.99993896484375,35.281150817871094,36.18510818481445,32.62568283081055,38.62788009643555,39.8798828125,43.088844299316406,42.37744140625,-0.27184903621673584,18.7924747467041,0.22569064795970917,18.46118927001953,-0.6841115951538086,6.43792724609375,-0.6774206161499023,-0.29820457100868225,-1.7402530908584595,0.056396484375,-2.20751953125,-0.0127386674284935,-0.974853515625,0.0040283203125,0.0,0.0,0.00030315073672682047,0.0,0.0,0.0,0.0
76.32882976531982,0.0015782129485160112,0.00946044921875,359.9996643066406,80.90309143066406,0.0001660720445215702,0.008827048353850842,359.99993896484375,35.28840255737305,36.188331604003906,32.61601638793945,38.65607833862305,39.88874435424805,43.09931564331055,42.375022888183594,-0.25615328550338745,18.76546859741211,0.19062887132167816,18.473831176757812,-0.687120795249939,6.46143913269043,-0.6833199858665466,-0.29820457100868225,-1.74830961227417,0.056969054043293,-2.1914656162261963,-0.01611328125,-0.970858633518219,0.0040283203125,0.0,0.0,0.00030337978387251496,0.0,0.0,0.0,0.0
76.8394615650177,0.0015782129485160112,0.00946044921875,359.9996337890625,80.90306854248047,0.0001660720445215702,0.008827048353850842,359.99993896484375,35.28437423706055,36.192359924316406,32.630516052246094,38.644798278808594,39.877464294433594,43.104148864746094,42.3935546875,-0.27022504806518555,18.770009994506836,0.20831456780433655,18.4978084564209,-0.6842796206474304,6.4615325927734375,-0.6719321608543396,-0.27392578125,-1.74830961227417,0.064453125,-2.183349609375,-0.0120849609375,-0.9708335399627686,0.0127386674284935,0.0,0.0,-0.0003040689625777304,-0.000303382781567052,0.0,0.0,0.0
77.34932351112366,0.0015782129485160112,0.00946044921875,359.9996643066406,80.90306854248047,0.0001660720445215702,0.008827048353850842,359.99993896484375,35.27631759643555,36.19477462768555,32.622459411621094,38.6431884765625,39.8839111328125,43.124290466308594,42.338768005371094,-0.25877583026885986,18.77326202392578,0.21421727538108826,18.489791870117188,-0.6833769679069519,6.447788238525391,-0.72739577293396,-0.281982421875,-1.7563661336898804,0.04833984375,-2.1914656162261963,-0.014524315483868122,-0.970858633518219,0.0056969053111970425,0.0,0.0,0.00030315073672682047,0.0,0.0,0.0,0.0
77.85730695724487,0.0015782129485160112,0.00946044921875,359.9996643066406,80.90306854248047,0.0001660720445215702,0.008827048353850842,359.99993896484375,35.27873611450195,36.203636169433594,32.63776779174805,38.6673583984375,39.8677978515625,43.108985900878906,42.35246658325195,-0.24710425734519958,18.796894073486328,0.1874176561832428,18.52491569519043,-0.6803938746452332,6.450703144073486,-0.6796526312828064,-0.281982421875,-1.724139928817749,0.0490066334605217,-2.1914210319519043,-0.0120849609375,-0.9668052792549133,0.008056640625,0.0,0.0,0.0003031537344213575,0.0,0.0,0.0,0.0
78.37834763526917,0.0015782129485160112,0.00946044921875,359.9996643066406,80.90306854248047,0.0001660720445215702,0.008827048353850842,359.99993896484375,35.265846252441406,36.2060546875,32.6248779296875,38.701194763183594,39.91291427612305,43.1146240234375,42.39435958862305,-0.29046380519866943,18.790964126586914,0.23119418323040009,18.520587921142578,-0.6929651498794556,6.442956447601318,-0.6694465279579163,-0.2900390625,-1.740234375,0.0490066334605217,-2.1914210319519043,-0.0120849609375,-0.970858633518219,0.014524315483868122,0.0,0.0,0.00030383889679796994,0.0,0.0,0.0,0.0
78.88839292526245,0.0015782129485160112,0.00946044921875,359.9996337890625,80.90306854248047,0.0001660720445215702,0.008827048353850842,359.99993896484375,35.2755126953125,36.212501525878906,32.643409729003906,38.726173400878906,39.902442932128906,43.0985107421875,42.367774963378906,-0.28484904766082764,18.801555633544922,0.24013474583625793,18.51416778564453,-0.6883799433708191,6.46143102645874,-0.6947968006134033,-0.2659911811351776,-1.740234375,0.064453125,-2.1914210319519043,-0.014524315483868122,-0.970858633518219,0.0,0.0,0.0,-0.00030383889679796994,0.0,0.0,0.0,0.0
79.39668583869934,0.0015782129485160112,0.00946044921875,359.9996337890625,80.90306854248047,0.0001660720445215702,0.008827048353850842,359.99993896484375,35.289207458496094,36.21733474731445,32.627296447753906,38.7318115234375,39.887939453125,43.13557052612305,42.40080642700195,-0.25642815232276917,18.76691436767578,0.21535921096801758,18.5263729095459,-0.694051206111908,6.46762228012085,-0.6922675967216492,-0.2820974886417389,-1.732177734375,0.064453125,-2.1833643913269043,-0.0127386674284935,-0.9668052792549133,0.011393810622394085,0.0,0.0,-0.0003031537344213575,0.0,0.0,0.0,0.0
79.90536308288574,0.0015782129485160112,0.00946044921875,359.9996643066406,80.90306854248047,0.0001660720445215702,0.008827048353850842,359.99993896484375,35.279541015625,36.214111328125,32.620849609375,38.76484298706055,39.902442932128906,43.1065673828125,42.40966796875,-0.2631920576095581,18.7666072845459,0.2282986342906952,18.49531364440918,-0.6877279877662659,6.438741207122803,-0.6983205080032349,-0.265869140625,-1.74830961227417,0.056969054043293,-2.1915395259857178,-0.0120849609375,-0.9748618006706238,0.009007598273456097,0.0,0.00030337978387251496,0.00030337978387251496,0.0,0.0,0.0,0.0
80.4111909866333,0.0015782129485160112,0.00946044921875,359.9996643066406,80.90303802490234,0.0001660720445215702,0.008827048353850842,359.99993896484375,35.27873611450195,36.22136306762695,32.636962890625,38.785789489746094,39.90888595581055,43.120262145996094,42.36052322387695,-0.28844356536865234,18.810880661010742,0.2176215648651123,18.513513565063477,-0.7025667428970337,6.460442066192627,-0.6778300404548645,-0.2901509404182434,-1.74830961227417,0.056969054043293,-2.183349609375,-0.0127386674284935,-0.9748618006706238,0.0056969053111970425,0.0,0.0,0.00030383889679796994,0.0,0.0,0.0,0.0
